3.890038784017285
0.1659409162374496
1.986077557995459
-0.7651497802645654
-0.989941613767619
1.03414582964436
0.9292870017789211
-4.394363511123726
-0.3057120326911237
-0.5663478871210963
1.533533290178347
-0.5816896042537725
0.7491463981408414
0.3151082044475902
0.8979823547880301
-0.0459155719106153
0.1176974213924758
1.121574584410951
0.2087104550139528
2.386250566043275
0.8994064843736693
-0.581393404997659
0.04788238341454146
0.2704137674849481
-3.413150914758247
-0.02741087166631055
-0.4155530930351524
2.345767286945615
-1.047400814269359
-0.6903493471818543
2.090794024928617
1.323573686380764
-1.00690364060074
0.9542559135915487
-0.5653848874569419
-0.1739016233401161
-0.7204165625177016
0.5543499627773315
-0.1189032963830109
-0.4835537018461792
-0.3453229849039479
0.02074226453204344
-1.091243123856708
-0.2609976432892813
1.740711706108881
-0.7491508784671906
-1.847286413410235
-2.510928416902659
1.179852090702363
-0.008505240427623859
-1.848542305875193
-0.6880758342819066
-0.3753621831839138
-0.7003195503106868
-0.5993963850308861
-1.282718361492022
-2.876908885794283
-0.3616016412832989
1.081544417970344
-0.6648754609801616
-0.4388359023374576
1.650933359455803
1.288913993795418
-0.2170937283903883
1.187353331095143
-0.07449026026693217
-0.2544269483155734
-0.5102760864929131
-2.616025396403986
-0.4805677523453255
-0.2889252507920336
-0.03412061656039277
-1.887600079071326
0.02324518624321414
0.4116944847514648
-2.397595527033301
-0.4025643251769142
-0.8918820188601823
-0.6870527699925452
1.398162065311783
-1.935708901491808
0.2180790857720215
-0.3119189930701293
-0.2632480120063343
-0.5503455787744818
-0.4382973498697977
-0.4391298326179586
1.883879017726033
-0.1310556328231484
1.553813224334628
-0.04961376065595044
-0.1835658654897064
1.658626958229654
1.266187655961455
-1.981327341859433
1.860857726940837
-1.372301377645163
-1.140990320081591
-0.6585515104189942
0.1877205357468466
1.452792453086631
-1.401622627244326
-0.6228303803215519
-0.8052224315877932
-0.6277662353839385
0.2969448460031596
0.7051484311774137
-0.3009774498832419
-2.742233928283222
-1.880382559104307
2.335767925072102
0.1284817804138562
-2.579997507248847
-0.3845013089629165
-1.273569147949414
-1.028378181550432
-0.6342628996039614
0.6799605784569612
-2.35850869457965
-0.9266350934010582
1.829182557472591
0.08981786091931873
0.3182316709279917
2.278476804976314
1.023956694992004
-5.1353258788875
1.362822414464389
1.417913051382623
-0.9244290522382609
-0.2357463877623129
-0.05984845293263494
-1.58511810172185
0.3579576585091428
0.1939202058880992
0.8176789451892644
-3.33411425078403
2.835058379433879
0.1434222178161913
0.9100263195272971
0.628176326056247
-1.10516198889278
0.9278528471331928
0.8820403918436011
-0.4410043695592287
1.65291962142912
-0.14044768636365
0.7337950318284375
0.5093573772820914
1.628360122630154
-0.1916144802000416
0.4490723650019255
0.4377215783453143
-0.3244801952739366
-1.228547974810714
1.872870454024088
0.7416104019015221
1.358485858838756
1.890993580443019
-0.7922678128615993
1.065827110762419
-0.9114146070617661
-1.886448910678722
-0.6839663411291534
-0.7650141756544201
-0.3211389957069623
-2.36116277118263
2.435113610925352
-1.101047437577679
-1.212846677192632
-1.136033352456281
-0.2154114993110433
1.015768477892028
2.49733469787201
-2.151863380004629
-0.8214265009978738
-1.420230860321984
-0.4555525215929241
-0.9821206379845
-0.6503855745663319
-1.957064586721939
2.292865948453633
-0.2502591638109546
1.641836685568159
0.5414938026596647
1.452510671899474
1.898299790946823
0.913894945251175
2.043397753948069
1.133317667060869
-1.968844538656754
-2.64389228554582
-0.5287150067941874
-0.8379029257236743
0.1625818472329878
-0.4507522425295601
0.3473787245812586
-2.232319723757067
-1.322200942406926
-0.3033008178813809
-1.306533286613247
-0.4336739275014011
0.2784770660129868
0.6333629954706528
2.084885440411665
-0.1556425085449581
2.488141570310292
0.9850764335238524
-0.4052929601603525
-0.1410088167414914
-0.9879326247329504
1.089879165985692
0.5897872627889786
-0.6412237033051568
-0.07062180812495168
-3.065353057364647
-3.168607571140081
0.4045613668142732
1.127358132449615
0.6171499786211088
1.126203689391432
0.171452436805673
0.1269091192366853
-0.344395526767764
-2.769087375977315
-0.3766159881851328
0.116347688324012
0.4780079890139912
-2.092546007637224
0.6189983363712942
0.3310703542414545
-2.292339661704754
-0.2859588716696213
-0.3837184889039549
0.1112087324977744
1.452293374111907
-2.074040024907359
0.8549864547621517
-0.3476442718266658
0.2345676859338527
-0.4635115695568928
-0.2906871237525587
-0.5648070696812684
2.152828470059377
0.3693110105086805
1.171309888069873
-0.06629494810105949
0.0474271617033896
1.790297295622707
0.5023939467473937
-3.89422624522307
2.0228981644945
-2.071943746426339
-1.689360166404773
-0.3591229957916657
-0.02596705661974471
0.536722474390547
-2.099020250318619
-0.9801741443199092
1.034102780044143
0.5612998686547476
-0.2212597783891942
0.2388205437502847
-1.055770381853281
-2.040856812805444
1.193583535081399
2.116979976107053
0.3242471434817419
0.08486814085208234
-1.055818957447272
-1.657899868992659
-2.907565403354926
-1.551312215632839
2.473424974321742
-0.9545218850677721
-1.276890650671343
1.867570773961415
0.04235137912032562
0.6492650691976286
2.146789434511836
1.410515454662
-0.7989172754720663
1.069359379998896
-4.094419339014623
1.004846363417336
0.8417525426068192
1.229593191307187
0.2438849951948954
-1.104992513444335
-3.367939829756471
2.178494824977049
-2.017447217361024
0.6199872944250063
1.549346984386399
-0.9209523839156658
0.3121801913091805
-0.3771877339353628
0.6353376247048277
-1.109058172587098
-0.6443808521423061
-1.14551331810426
-1.478950528613843
-0.007000739991804582
-0.307830089389583
-1.986790813980784
0.3822812483398207
-2.767167027154541
1.903408896940114
-2.0722014207491
-1.864828433317381
1.760588328181543
1.157884818095978
-0.9863055283757799
3.057023114728842
0.2345398619403216
0.9853556142579077
0.7138863628348051
-2.186210384878204
-2.371452943244416
2.018087292341348
0.3065441230014851
-0.8044843617317088
0.2505918195015804
-0.2749253536388053
0.2150406322463883
0.3440563864905017
0.7071557156111485
-0.3162517260825126
5.413418730924576
-0.4238258462177263
-0.9438875449575931
-0.1319424630234404
1.826418085908744
0.9409680205478388
0.59352904290039
0.747877478736851
-0.847084507051072
0.6715354881997851
2.585287068043504
-0.3375139191602135
0.485309504926334
-0.6550392953639207
0.755737553502021
0.05795260406885901
0.5175731771711305
-0.9331706644506387
-0.8063228743297999
-2.011917775100251
0.7743271554203541
-0.7327113548644528
-0.8359752774823161
-0.7710343314497455
-0.1010403708836085
-0.304695620172695
-1.776695688124374
0.6390973409330283
-1.726922015277188
-0.07165514415327952
1.042230566330769
0.7695125293734451
0.6056641824336165
1.143669381629215
-1.288872933705831
-0.626630493623432
-1.608868932979223
-1.605649136027386
-2.64041950014844
0.6470072114516271
-0.9557088569417062
0.3865492588970905
-1.344093098827203
-1.072385199662298
0.4533552736903106
0.4430072224686584
0.4130860291290249
0.5233602332605166
1.547296978244401
0.5357353873801571
-2.363567390170798
0.5159449186680148
-3.068494295123825
-0.9785799650819419
1.287267858152702
2.721773077410473
1.644156537394918
-0.1775760882191466
0.3983613915819695
-1.220465111520798
-0.8124070898726276
0.12696965334502
0.03044107146030649
1.540194539465856
0.3779455899644588
-1.454044918609807
-0.7167938511938745
-2.904709127607891
-1.527966277000517
-1.695295542864088
-2.592896185135935
1.216770917748838
0.2233640072036919
1.936096276114865
0.6268136951258391
2.034259689821921
1.132775141120256
-0.2300173718884782
0.6542628100001218
-0.3361583077929269
-0.4298181469520783
-2.188458700353044
0.2361593144201877
-1.074546273706501
-1.186751907660803
-0.3121877289610852
-0.01901472355288483
0.2048252648996943
-1.229891046083551
0.4168299722112527
-1.826373051041031
-0.5147010645986352
0.63484554835715
0.9096307263263445
0.4029523823590114
1.361144733665872
-1.43410330279683
-0.8346486528735569
-1.807913936660025
-1.810652462360139
-2.790269138172502
0.2809470222445183
-0.5002706438498498
0.7726095732658023
-0.5826434283626859
-0.3409789427572252
0.9633509733480909
1.906877736965845
-0.7882671386166812
1.806390679854714
-0.2627196254261317
-0.0148072055241916
-0.342458441922359
-1.471844739168062
0.6102253742615913
-0.2488341659717034
-0.09182019622933756
-0.08005371426617065
-0.7084603157530958
0.8061816135624602
0.8416893596582038
-0.3490068736863114
-1.736522797674394
-3.106549694651207
2.01922471297474
-1.471810381122309
-1.490254484070488
-0.3235195645670213
-0.1253174488694743
-0.3033906524324044
-0.2917790935006491
-0.719098347897613
-1.914719421498847
-0.1288361382125817
1.915988200853623
-0.2777176038354378
-0.2268671655945539
2.797566353704172
-3.592575050349466
-0.7241178981286052
-0.5084584814317671
-2.128685671084589
-1.949429550284558
0.3634425012285142
-1.538543839547886
0.07985499353055701
-1.376751742544481
0.6816726924867601
4.968576098069011
-0.5993484395722413
-3.650678905015851
-1.125008610884121
-0.9033296401101315
4.437976521455517
-2.624953469244444
-0.8040315551028862
-0.5798462145894199
-1.264208465070349
-1.786940789633699
-0.9675158105777397
-1.418997762479379
-0.642742499383724
-0.4498794759132004
-0.5432547518895537
-7.951741902603477
-0.3061649011748903
0.2767853601019525
-0.460177127735597
-0.9016823637783633
11.08048654059123
3.715070269389421
-0.4893940511871557
-0.3903409481336496
-0.5793341010833292
-2.172578905736864
0.8424757853901731
-1.229210653202309
0.1946881374824981
-2.479569305382787
-2.412939129132546
2.38033756119996
-1.35247421090933
1.738536570715786
-0.5079313449142792
-0.08393344787692157
0.1288477241976782
-1.674799276570389
-0.2973752345354271
-0.2701732118113789
1.563013029360946
-0.2626094426294588
0.8711696687345968
-0.001402005066410016
-0.1391465726177317
3.362321813021758
-3.974325065432359
-0.1403862559226966
-1.601431758600706
-0.1783133855526517
-0.8781158181290127
-0.1303580207921334
2.038210268983913
2.403112039060403
-0.7838100152232301
-0.6480707585947267
-0.701805900296259
2.010670045177029
-2.738401096739339
-2.343609963361631
-2.275178812542166
-0.3317803806630971
-2.668018725924616
1.046439353219882
-1.878352109058639
2.489815727340873
-0.9771711390173682
-0.5744736478680297
1.633250692150264
0.02510357356100656
-0.6810647907161013
-0.05508909086132632
-2.20943262697893
-0.1381086148682387
-0.2903637638924583
2.7008940497241
-0.02129758487882391
0.9672482550934532
3.609340586370304
-1.342823176450837
5.215259147081234
1.478975275179566
4.231542097746101
-3.010307817843728
-5.795988274064729
-0.9018832303326789
-0.8040967230527535
-0.5550699611535677
-1.555391983569768
1.774602883763922
-1.153594210273428
1.618041627749599
-0.2606570961890309
-2.161686396905348
-3.387857284274078
3.790695825317698
-0.9976431807923636
-1.040652972528731
-1.38539863187668
-0.749274400143556
2.308867471292602
0.6628587619085465
3.578316894805836
-0.4054516749018937
3.745468148197423
1.14949893035326
-0.5889447600431418
0.3136567203164562
0.1106661107593692
-0.02241978512340701
1.891624787634922
-1.292964183895381
2.537440488087777
2.008919194388459
3.064810412227448
2.649785575141266
-6.916237290112107
1.054520368747084
-0.6763260064879287
-1.051864005299632
0.8834994562953026
0.5839231544814105
-0.6789154310788456
1.730021847713855
-1.069151638208807
2.533250692871505
5.313347070458034
-0.1065436592519281
-2.335743857829556
-2.654039363155096
-3.639816081064313
-0.07573037832846395
-2.281108999050117
0.8528504763863639
1.658537292951002
4.513735142801874
2.274424617963121
0.7309517926530036
4.336549491869601
0.2470285357538727
3.992971398936104
-0.05930450574170141
1.507501488690379
-1.349251027344972
1.32072379019101
-0.4115316621896355
1.748773872338512
3.801326309529268
-6.686251785868748
