-0.2761256543858071
0.2222848973135487
-0.2723777873763401
0.3538619414224712
0.5348423252113033
0.4462716427333573
-0.1811989105383277
-0.1322526344295169
0.005887710433959017
-0.06745835733730708
-0.2258948871599381
-0.1020822785618945
-0.03176406451546109
-0.1075923806203054
0.1850926591402587
-0.09911606621355946
0.1587394117342163
-0.01214710614734552
-0.2114924271621811
0.7560242967492878
0.641204947059354
-0.4525569769642414
-0.11503184661404
0.02983825285276032
0.6583980452920111
0.4037739005144222
0.2867327630917844
-0.5275549236310739
-0.05675359966377355
0.08393142634574538
0.7392275749177079
0.6618488653474022
0.4934626751023579
-0.04728660778358109
0.9075560844339743
0.2052875499038281
0.2950646785524131
0.5895042243057633
0.02143074517927347
0.4461293563839502
0.513123783445925
0.3528774381291161
-0.05997981936022158
0.5136663410660388
-0.066631951389077
-0.2141433758680442
0.3141437278604516
0.07662871418549919
0.5138901986389771
0.6187237170294827
0.8201710040777143
0.7835033361840873
0.006828061268391596
-0.003782504618007975
0.01933534716561704
-0.001309620596466591
-0.01059045536504916
-0.01886110717950797
0.02215798458052522
-0.002820150611314846
0.002764457700967866
0.01983513250938442
-0.008123089089319569
-0.01518122673396437
-0.009337062991826881
0.01315447450814781
0.009319378962524712
-0.01541130690122038
0.01131705829594979
0.02313376429407365
0.004327267682317127
-0.02053299912271061
0.01606366115568558
0.02420668984082519
0.003674302180751611
-0.01150572405390146
0.00163353378618846
-0.02160283257376977
0.1156726198271742
-0.1373467597933642
-0.02076912076172205
0.1277380366128647
0.03441146347914341
0.2174949367945736
0.01579711723187856
-0.06060045295619362
-0.3966293718541105
0.1308425502631011
0.04606653437653495
-0.04264046570839382
0.4330958236439053
-0.07633778347511788
0.07197314542975504
-0.04215368679914507
0.008427974937032874
-0.09300516330152762
-0.0636896513880862
0.4498490632529024
0.09784610599459868
-0.1731494767986479
-0.06696719164143533
-0.1351283593822748
0.08822784398599937
-0.2826121127999265
-0.2379136418052543
0.5142155217481605
0.3674958028698909
-0.6629179422664367
-0.9251955938728512
-0.3937607625282826
-0.5454065785732546
0.1206944550970239
0.4677300811566509
-0.1567706907152518
0.02831840137251514
-0.5038607760106112
-0.6159714314510123
-0.5332896178523273
-0.561958727283083
0.2704805398382957
-0.2586220918473244
-0.1034610669248735
0.3735023590421722
2.695452706345542
-0.7667312799112178
0.3845910405329894
-0.1567091752268312
0.1290000393229387
0.2749932805170881
1.192427416014995
-0.3449181782313373
-0.1002647055750348
-0.2284548281887387
-0.007330506709381934
-0.03943251581032337
0.2037654601491154
-0.07554141469101115
-0.07353266348857669
-0.09697793812733639
-0.04209981354630234
-0.07070692752194101
-0.06824120792265558
0.03178899777742285
-0.1594287557333747
0.01506771318751683
-0.0155990616496691
-0.4178195114158727
-0.01586779262239155
-0.1137665295047436
1.084571669902797
-0.06205097190055837
-0.1966596281863452
-0.07365888052558665
-0.08253193367001596
0.06023895782224584
-0.4329826776638059
0.3657857460229647
1.030186886409517
-0.09006561682516831
0.1971238439755321
0.1016491303398483
-1.16785763391577
0.1480369499587188
0.05577227652223877
-0.2806221101074911
0.05762744925304489
0.2617801935466441
-0.01486208679376874
-1.527281776773818
0.2054858838618223
0.2326074928036169
-0.2278334758797488
0.5575369574241925
0.0347544805419621
0.166273005969184
-0.905401249618583
0.2500626021445398
0.674927341282445
0.07508255576229787
-0.03044320492108863
-0.3673927189627679
2.386940607342489
0.6984225858137121
1.356198390341279
0.4885812419248701
-0.7456931433921196
-0.6166962883619453
-0.3091322673958014
-0.5475602891857679
0.2140312588959564
-1.504330908515667
-0.0940230593908991
-0.2470068818655874
-0.9686975922864486
1.00479010471317
0.008830416946445556
-0.9258839412975072
-0.6798190967419585
1.487775199674986
-0.7618982288156788
0.05081380893638855
0.2501159265144108
-1.230876717375689
-0.01251079199876427
-1.224101224158783
-1.641157837502091
-1.171146426784085
1.567390103858989
0.2389622113157576
-0.3457301708783082
-0.3239850203344867
-0.1257958993649607
0.4901205975056409
0.7310561051229976
0.1256947110454615
-0.1633513815604058
-0.3557300332828577
0.2563412212027664
0.05091161711652977
0.04742599935765442
0.5603703933110313
0.0613457350882131
0.3414588833403569
-0.1128565321311736
-0.01058954330713766
0.06420618325833428
-0.346956642367731
0.2685309006867127
-0.1784443737268257
-0.6042618136049702
-0.1512434198745698
-0.2270010244027492
0.7986262886224319
-0.1403576832129086
0.2155098696315045
0.5957258225733472
-0.4974069599095191
0.8083596679456612
0.6086328561982288
-0.09330165835605536
0.05439869610382465
-0.167058575858526
-0.3153899770819967
-0.06612276417179676
-0.2902566440705832
0.1079203745801281
-0.1506446289223171
-0.008952790771046704
0.5481624547758346
-0.4844615302893255
0.6235295019954089
0.1159192887362244
-0.3841815535198346
1.214030643982668
1.155645302064352
-0.2142313779412815
0.02322724084712734
0.1830148550730585
0.1882403570103153
1.080657459188895
0.09952328048300479
0.01131427420342368
-0.1289759731837707
-0.02140589548033854
0.1345803111728081
0.04741059047711339
0.07308602676292675
-0.03475557923190641
-0.01440165869903107
0.002100842446315283
-0.003424747575516225
0.06147437769010863
-0.03930861758868186
0.1028906713749508
0.08572892505674169
-0.06781048803567677
0.06828974840708348
0.06257195703221245
-0.06895076597016293
-0.31332810006904
-0.01798612333512719
-0.05895304379442562
-0.0007280500841741644
-0.03691946269880404
0.07757280631726385
0.1114577946710425
-0.005759970096506421
-0.01029119385284794
0.0005010234619604324
-0.01324020719365527
-0.01638742946888196
-0.01740817997638568
0.01420424393847
-0.01303604954150148
-0.02879975569274236
0.02245206110288931
0.01977202375757793
-0.004100436967276071
-0.01737778983015768
-0.009342983205459839
0.02540172993027437
-0.0006639079356610602
0.02231586483095717
0.02288067787155633
-0.02173584705975275
-0.01239459050135329
0.01977714285644502
0.02091551023252512
0.01055994799667024
-8.976080722602826e-05
0.006534735870483473
-0.01341577031306685
0.2917963035770724
-0.03006462731037442
0.0880078107206678
0.08425928722980032
-0.09102571753097295
0.03398902270991847
0.06352778890454587
0.03513358607670022
-0.0883382579817079
0.1506224896477722
0.2283059421190855
0.1070656068294956
0.1913470792480202
-0.06953521132016757
0.101181853862339
0.07283923759756261
0.03542315711182138
0.05986884015478897
-0.007128321692099556
0.4770660748161706
-0.008614827907409417
0.01066522433802004
0.1205603729454443
0.07588887125584574
-0.0207626659955899
-0.5771753294764991
0.05801924821352075
-0.1719705921582424
0.07402391002723675
0.1575741053600655
0.2582478888867054
0.5016178041157877
-0.2368312070514499
-0.06853676591197916
-0.2260306366086087
0.09241516525287168
0.01068258352947758
-0.2129932038614218
0.4914867657397975
-0.1536516061168032
0.0794334227187945
0.002948121322417602
0.03482822412386065
-0.134388190013906
-0.02396306218707816
0.3312528471379861
0.2101631610097149
-0.180502153661187
-0.2521395318692133
-0.1618654389145689
0.5153640550043547
-0.2091949685027415
1.253649927936521
-0.5204606705234925
0.9096472531035672
0.1540539633343422
0.03135564306679942
0.3690107330973066
0.1050345777878769
0.1653177863221729
-0.3325472296390471
0.8986061435433842
0.9772563346212632
0.1455998970207865
1.402118871947427
-0.01743797462799099
0.1695947933527382
0.5461657905362541
0.2173208011163512
-0.129358569510088
0.3103912747815973
0.5518204737193336
-0.05426654234810615
0.4747068706344865
0.1750001121329133
0.01564333241225012
0.1387508658755089
-0.08704269531684791
0.9841962717244694
0.5768320418793211
-0.008287861580231221
0.4107845166779525
-2.045753804428371
-0.7176439586588066
0.2637779569674419
-0.3002869118523919
0.5201996973669001
1.345933018528813
0.01568791736124584
0.02954286499774679
0.1104588483157187
0.6197338430806965
0.8201979054259596
-0.9129733100447829
0.4334177984872655
-0.03965961359228416
-0.002424604379269891
-0.3923030106295571
1.655131591429773
0.2613785607342889
0.00620016904175353
-1.818441078470168
-0.9630863186875633
1.057417074580804
-0.04677389596340751
-0.01171175446153332
-0.161368893777244
-0.4320895007522274
-1.5100217474696
0.520279654453946
-1.073121120686239
1.230889102312029
-0.0250195245751475
-0.1307746653599361
-0.8625420127631213
0.3434540910798317
1.36767660522184
-0.8519837982147602
-0.08517364428889876
-0.1833823366045905
0.02051006246697752
-0.01463244328125208
0.1740902556270817
-0.5638687042770463
1.881221428247328
-0.090625331125242
0.2729674343064247
0.7327509760311749
0.003345624079166758
0.4348187724000653
0.3415788883730013
0.3879215486943405
-1.008211205692566
-1.959615000642323
0.7658789780370535
-0.005539173229737696
-0.1285578234007333
0.02486294072257625
0.5551970709338532
0.4608436837958296
1.325974034894297
-1.355169143487589
-0.8720837693558907
1.780852593707572
0.0006681319977834766
-0.170916624475591
0.388587070639447
-0.156532017496591
-0.601117660051994
-1.087613814097844
-0.1288346879965563
-2.180554229166556
-0.1214311074045655
-0.01823521092718736
-0.1764944904203553
0.1368444227806654
2.019787298168969
-0.3953147923710856
-0.9785250471100903
-1.790757587260169
-0.0005544909446699906
-0.3414314895343409
0.2224436376192192
-0.7774350795808447
1.997896026549009
2.746468830120303
-0.9420790596282894
-0.6009659060699435
0.003537824874774111
-0.02248178243782084
-0.06082566864407835
-0.5595605014284116
-0.9800400852851042
1.170324106960216
0.1132512668603537
2.337142694537144
-0.007469212166352599
-0.158231429070902
-1.730905878307832
0.3890142892666876
-0.2845320251630108
-0.8735870060401965
0.9225774895998691
-0.5752781410729618
0.353937200607619
0.02160862700259002
-0.4318647989316343
0.280481335401545
0.6600749284300806
0.8001263516331535
0.3121652067186881
-1.88757170607752
-0.00491930769039352
0.1553122652004369
1.415323616535132
0.102458538278637
-1.315115390226387
1.332286117495169
-0.176357878270948
0.5131939662268503
0.01091444967819007
0.01627271361038108
0.1393621849585434
0.009131486197763125
-1.233748898065042
0.2296113526804234
0.1119462423470535
0.1799888994680076
0.01099840749743271
0.2801952578710117
-1.21902642417934
-0.1607935957807131
-0.8194262907402345
1.736468854153339
0.8055034071074137
-0.2857407663852997
-0.06510350383230647
0.01459338815518934
0.07278939083826647
0.3959130286685206
1.07643610318531
0.05521969332888256
0.6374506837850124
-3.11173253902842
0.01460775037735138
-0.0930453344257179
1.801951595053842
0.338075639836827
0.3979223947783826
1.043002091585322
-0.761503798604502
0.9258880596969766
0.01501370987886884
-0.004629095061199588
-0.1772686494645496
-0.3783019725192633
-4.110293349414103
-0.09048600984107689
