-0.214379541064855
-0.4858236885399806
0.03004505360671276
0.3974605431442091
-0.5052026425688332
-0.2343771447854755
-0.7446809007578701
0.517066011269868
-0.01931186055584044
-2.119760223109212
-2.265358203629016
-0.3910507535278313
-1.127018097875921
-0.409952382767576
0.2473712279068983
-2.716589272589566
0.3304933600194966
-0.01759940645476247
0.05329305872390333
0.3779514817393723
0.7756291385919801
0.3482266905920295
0.2751007420485884
0.9084904476416583
0.6984910496500307
0.7269023200856952
0.7514877532026976
0.6883263154443902
0.7215521635236192
0.556009461694575
0.2788000838708004
1.35720879087543
-1.183069268138227
0.2449709029067876
0.8042612870579897
0.8970720589354014
-1.553160744295575
-1.677041634505253
-0.1234417573011309
0.4787594764163494
1.377871157578518
-0.001227961881124744
1.034542244512044
-2.857513956917046
-1.503702742941367
0.06416621809258229
0.2602857124581821
0.6021487552092017
0.7762976990506986
0.5552623295001968
-0.2894721161480491
0.4210922736934008
0.8732196234946269
0.5696890513106487
1.313315100473322
0.4897311352473153
0.3460456405786639
0.3080987156412295
0.3201823716805221
0.504002776445774
0.4487179090711898
0.4535892383002942
-1.128466952968421
-1.438523092143997
-0.5918031193288157
-1.967004073794163
-0.4052955209671689
0.3971271009873195
-1.059064989401356
-1.354716929363545
-1.56948998114946
0.8072595786747943
0.1145593235943076
-1.986782703223702
-0.8239558841924094
0.3005490507336723
-1.607419378786868
-0.01630651269545848
-1.73965387802234
-2.357543136766057
-1.90207717565951
0.4572293006422559
1.04793673118687
1.255167540397397
0.9618981371818836
1.758987558231851
0.820265576847699
0.8957934670105082
1.189971212616089
0.8262189368805571
1.093854857297027
0.8364636357376395
0.3960148978462503
-0.7470736664034257
0.5477877892454103
-0.9903782332654854
-1.55298328476915
1.823052622585002
-0.02683113223598731
0.6015840597183916
-0.1407970804972947
-1.721127399310484
-0.4472697371282454
0.02404689407547925
0.5006199414380152
0.3812708607830599
0.5687683666866398
0.07316361491286384
-1.01324765839202
-1.407562021168012
-1.901168128295255
-1.930485196938542
-1.204315009440644
0.2000543445783776
0.627518441863537
0.6179483041419153
-0.1677643759941456
0.2356304135772891
0.3696527046238478
0.2754556221686539
0.1914248177714384
0.4620074385182589
0.4509601454665849
0.5297470577587475
-1.001360591648122
-0.1184937220479387
-0.2915377685677077
0.9420642872948257
0.3251669120174322
0.06178893240899268
-0.5778661913799564
-0.1092650874398762
0.6877664597422545
-1.637860830268424
-0.5401912757730174
1.300873741410383
-2.487603532891792
-0.75837972977445
0.4571510019935237
0.08272646884550972
0.8315526490010964
1.32024268203225
-0.4223459554163929
0.2146960855266514
0.8327533605443067
2.19907413240508
2.603061746730938
0.9502970947114189
0.8025869276469509
1.037918673875635
0.8724978944353954
0.6749545479359707
1.192982229648334
1.363669960730237
0.0116500944887532
-0.8202587028799524
-0.7393204403313701
-0.8868594671688559
-1.561523391104648
1.334407519238001
-1.350396630851362
-0.886722789803462
0.09951247244877731
-1.672455590433677
0.24479086808899
0.9437220710452444
0.7186911559980951
-0.4143028720514509
-0.699041058416033
0.3039935932547903
0.2437968312980675
-1.387733281261128
-1.942255182474864
-0.9924022801254292
-1.084274674002969
0.08234156255490939
0.2813152651619728
0.3685265514229068
-0.008320588357074351
0.06825100576874386
0.2062609795561468
0.1401450725001705
0.005021999991606716
0.2620116220135854
0.2635033448545309
0.2605815427601668
-0.2159155540507562
-0.3351027051235123
-0.3084194979896819
-0.415105777694373
-0.5645925718970874
-0.4585592034632652
-0.3636251306699409
-0.1085737187287497
-0.3729510690649777
-1.472370285791004
-1.685317617620717
-0.5722442547493481
-0.4493351622148696
-0.2268779851139123
-0.3006733168288704
-1.888652907221417
-0.3730961056193541
-0.4484472769056292
-0.2924411221552325
-0.483987737701661
0.4795165392540788
0.4608515087928171
0.3564155290082973
0.4730055595607168
0.5451960569323288
0.422922948724671
0.4372416203849078
0.5358104243959176
0.4493350523725389
0.3826213301058015
0.3883334359589615
-0.356712794970873
-0.7544584214546607
-0.3071940004999892
-0.8327894481558306
-0.1922507605153687
0.5306259313027033
-0.86288906465619
-1.418369545289922
-0.6013026604654692
0.659886156240683
-0.2957317313870289
-0.6659631773591806
-0.4675705612375331
0.0473724769386617
-1.528657699327007
-0.08918486180151247
-0.8171065676352366
-0.8929205615609396
-1.272483764024964
-0.3470899644902104
0.8109299801193918
1.355928260485427
1.361449778651834
2.047874752146471
0.6616203757636727
0.8109496089445645
0.9007059026625263
0.6711883262465115
1.089409826461941
0.9453667129425999
0.4521307690890376
-0.6031261654067928
-0.9480298402659895
-1.792099992150002
-0.9866806975847776
-0.9070372215653303
-2.504451119947119
-0.9170104599880722
0.2871079683742986
-0.2054585189475514
1.294103516766418
0.7687782953899365
0.09926774018482276
0.9513360163420645
-2.71979430617268
0.4285377319660816
0.7179609576129671
-0.8468268015276886
0.2126652085605917
-1.467292878929966
-3.230728871989389
0.6369348105365631
0.9721181483306083
0.593135347710548
0.5606192871569651
0.8798015346190384
0.536378243552334
0.4494998862661612
0.8173689601698049
0.5424327313615914
0.7572666522831001
1.043371110386939
-0.3517359055750945
-0.6999644134860018
-0.5131717534811642
-0.3018929921837558
-2.452896747364986
-0.8806200260534255
-0.8276068918980823
-1.451418694018654
0.08501679387561917
0.3800486096376905
0.08870172577152197
-1.739513442692641
-0.3761759856358182
-0.7595217103698501
-1.415311676229104
0.5083512403281945
-0.3227302589649676
0.2312996402903383
-0.6728678266047864
-0.7197912748420479
0.5327781283995049
0.9524838951306015
0.6384906250068044
0.5902263279430596
0.5722502489069548
0.5347786894578526
0.5558272522182477
0.6004117552882074
0.6205946203076597
0.705394421584937
0.8462128325305582
-0.3973865992758007
-0.5127570971405306
-0.5125488864509429
-0.6139798435735135
-1.417586828903073
-0.9875617259764263
-0.7850758263070826
-1.34063953553758
-0.5960850603663641
0.6883459666488295
1.124821701718972
-0.9616668625339803
-1.039954636006495
-0.9804872528572354
-1.190914664033899
0.9370198092137039
-0.5533007177154725
-0.6676218115662926
-0.5924159764644763
-0.680473125171779
0.1926802776483216
0.416847631556158
0.1924690706907721
0.443031799824759
0.2253145575436701
0.2566378395732926
0.2448463362131461
0.2688985338996348
0.2893288346278242
0.3717950563839659
0.3686455154176563
-1.265031008546175
0.7424746254807419
-1.190260794462247
-0.006150527067072838
0.01224316647008615
-0.6682593890819722
0.8346500575576652
1.162577799501374
-0.03463627341661898
-2.822561394882589
-1.861762455662087
-0.101837526139498
-0.4429820590188259
-0.4941178048259646
1.259426150469378
-1.049477482549652
-0.04058467008765472
0.4598286108644546
-0.6902945207755798
-1.607136839988525
0.5337890477464237
0.719381424489577
0.4849250724423115
0.9318032576208863
0.6260243357426256
0.4864452469552899
0.4574770130272618
0.6304161678957654
0.5255523841661668
0.5858323279835814
0.596898004624191
-0.3132154689665843
-0.4131016965422601
-0.4040288680872288
-0.4683954704067251
-1.696173928830059
-0.6969140984268765
-0.5443967603561281
-1.109653419102236
-0.4799377274324771
0.154878847353015
0.09643429331987927
-1.472422456375319
-0.9483082776250384
-0.6000861241237926
-1.152812958194091
-0.7306086499904103
-0.4449104757066979
-0.5178991267863687
-0.4767500776517137
-0.5594341346903429
0.460005513894843
0.3732790249703319
0.258524963910104
0.5950086668728071
0.5784735655367639
0.4318073318906653
0.4409844785171566
0.6303541957287616
0.4204195986513365
0.4422614416090758
0.5164243243673146
-0.2632141255775902
-0.3955909056922384
-0.3861320976811337
-0.4877949152666365
-1.600791249240788
-0.7191484997048541
-0.5566137895087643
-1.191895651940092
-0.4776363650721713
0.201430143995813
0.2963473676032507
-1.419870643279157
-0.9590020058830315
-0.6070694842627805
-1.223013741351964
-0.5378395972663587
-0.4202617569625027
-0.5785887614460482
-0.4622372001347649
-0.5660903873372997
0.451516601529179
0.3811922950270468
0.2575940014859922
0.5121345509662236
0.563479784919565
0.4539554633439487
0.4418719701194601
0.6526322117192158
0.4089593979801263
0.4553546605403481
0.5172880071479599
-2.271682553657199
-2.755604614357899
-1.974344722145873
0.8526429764874561
0.2942544360570629
-0.9180205876703763
-1.522149625970992
6.704464274959409e-05
-0.08373799861009727
-0.6775335839786899
0.06948083250098849
0.3451446784350591
-1.365869916784219
-0.7805794954818103
0.2382982016388712
0.4089827349887003
0.7397609743140339
0.8024472009291147
-0.2223591073783069
-1.401289591292192
1.055021548708904
0.3435114616131436
0.3607661260352162
1.515261484647093
0.8792975916815112
1.056458039252975
1.091500822036921
0.9266161206520233
1.022886981438892
0.7854614957936967
0.1379994024479217
-0.6039029634337693
-3.394447853103784
-3.028912650073313
-1.1294653614809
3.732114242761584
-0.2004819356089794
-0.473843658667905
-2.920671074636884
0.3264407474893543
-1.178288093034848
-0.4749279949949239
2.07217710379865
-0.4185833788009363
-0.4333499769587754
-1.30697109874368
2.865420820524949
-0.1124773830250685
-1.908396023690877
-0.480139744783747
-0.3373095008674791
-8.140546185608576
-0.4833244004561387
-0.2539516268611625
0.004976993740526596
-0.4370961099758133
-0.3460317817072958
-0.4738125614731755
-0.4591394328617037
-0.3974542317164276
-0.3961320536657444
-1.199882919534428
10.21750350499651
-1.287115627965712
3.193837874682632
-1.015065740293383
-0.4438777026709599
4.186553948280306
-1.085320844865408
-0.3073978592372468
-1.37133858132372
-2.966235968050866
-1.219602873715863
-0.8286621612077164
-1.976801444556891
-0.411620152337394
-0.4826913050261051
-1.929533501618915
1.202215367307089
-0.7874928639585688
-2.165708283153203
1.554026436872803
1.84922378430368
-0.712540785596131
-1.545748134511713
-0.2319336386287792
1.237837478249896
-1.565464437267171
-0.1016917122779489
-0.8432635611636492
0.6588612439296436
-0.4344842970277316
-0.4067515302500882
-0.9963507874280468
2.732773103152752
-0.2277451441187058
2.811171712729065
2.279527654758438
-1.983983031606822
1.03028561892501
-1.391280740483432
-0.5396988420073732
2.957162251759069
-3.813291255464506
0.2591558657076595
-0.4659865324610063
-2.200087972691358
-0.3932685761918154
-0.2881132812176683
-0.5600564365455322
-1.252296963750196
0.04296363147095965
0.6200570177987517
1.493465232845319
3.48560325356123
-1.397540576121858
4.973708471159488
-0.08340144523744314
0.3602179759556044
3.732311510456299
-1.723602460735564
-0.4979345653816302
-0.2129810557750906
-1.560240374123885
-1.440134172113631
1.846165842373906
-5.081046766404804
2.058664876556691
-0.166609667366541
-0.8764103462997996
-1.358242584759798
2.871963574557713
-1.195662871421403
-0.1667667928966329
-0.9844153190087873
-4.011448335868035
-1.631338784583809
-0.5372802941210472
0.506378882876548
-0.3692686900241344
-0.3607346944641242
1.78846167482272
1.383317445500297
-0.8460054838575294
1.048820122770699
1.007171376060778
1.369860845542887
-0.9908564020619417
2.259088015811246
-0.3489352931406769
0.6027005505048778
1.479426579695867
2.339611126405664
3.690891048994741
-1.904322856245003
1.836345181718232
1.809437358855318
0.6173538276583826
-4.722554290293473
-1.593718319490553
-0.1548219974769482
-1.543976927650816
-2.412942572376452
1.024214229467746
-2.627817454215009
-0.8388171444595258
0.6528209470978971
6.040767133254318
1.109417278417822
-0.6046286935960343
0.1091347368478619
-0.3181715659636291
-0.3246731413841762
1.824278482318921
-2.295009863588126
3.319948242029174
0.1087274095848038
0.5738948006592016
1.112158254321356
-1.564007061511191
1.269182358836341
3.27666212079649
-0.4534783409890193
1.191059059896078
2.423615896218223
1.044225562280709
3.412678588994686
2.476080302764491
2.361176696722299
-0.1516078169649955
-5.079451990090486
