1.393204017436046
-0.6015748101603873
-2.913282645696754
-2.9534415726714
1.15349732272058
-3.527866428747574
1.42473972872403
0.3124816421267827
-1.697804005723549
-0.4605992718716621
-0.1835515888540907
0.413321225750542
-0.5605066071390941
-0.6079897611784965
-0.04953760179632038
0.6193963857069588
-0.6543501531814815
-0.7498812676957861
1.723803444611417
-1.02038007611529
0.8782672916397145
-0.2134955128250026
-0.7447976219791647
-0.1256261913919857
0.7922790622039834
-0.9309771197406365
0.01755943902584361
1.007160230947806
-0.845943271866234
2.335279595188123
0.4485355989942065
-1.671700003987565
0.264667580484209
-0.2057931744856042
0.8911319034579425
-0.4025599355182541
2.057531424785429
-1.236545988696919
-1.598288063023166
0.4264436103989491
2.043391988782173
0.03529334438885057
-0.09396417750100788
-0.3665428956038284
-0.01532988313714639
-0.4341173351277614
-0.7580248616929931
-0.3941897143581444
-0.3902658525573686
2.926049784237741
-0.8931530810757528
0.8034679309149245
-1.354885269316979
-0.0173503295737002
0.7773027444220683
-0.6342912576464131
-0.02509379361713111
-0.247094080438708
1.540165568179327
-0.5960110133465635
-0.144216080492822
-0.4385879664501536
-1.113938987490806
-1.897148770148431
-0.420522909135126
-1.615649840184543
-1.45956994283725
-0.2198396026056252
-0.117849017198816
-3.30874131618936
1.806419774246648
1.385435161766479
1.33011712293116
0.1710430828104374
1.068352423297957
1.157585925493759
-0.9675085266695869
0.9114591330030649
0.8113871845701351
0.7181432799390786
0.7709889824637686
0.1558208141542785
-0.2762403294274011
0.8622969379558311
1.252457179202752
-0.2186541800578019
1.059802916767814
0.4749684409599573
0.7216756497029988
0.5597195627904342
0.5791486118601952
-1.005687511025732
0.3774326270660979
-0.8614007573542098
-0.5793524552001392
-2.133404641288897
-2.006834905387901
-1.058356458954425
0.6276363988773261
-1.327213518016286
0.5166411668616625
-1.72865867044619
-1.068147394529386
0.4984770835465502
-0.1677102563607601
0.325855015793469
0.1753658462987634
-0.9982828263881124
0.5429592577015413
0.2581838546170276
0.5397512594801526
0.9573743368820964
1.396277962048534
-0.2426334218218173
1.446105470446809
0.07972838443707718
-0.8296815671533951
0.2249104738424421
1.809143181452118
0.5558589626601895
-0.758880041895701
1.960681630174574
-0.51194344851937
0.7332570780177854
0.1472558617976729
-1.187614623066042
-1.888826360739138
-1.452056125771927
-0.4779457731405201
-2.949403851576744
-0.4290516024629579
1.369919184232457
-0.5765576672330456
-0.141172192478031
0.05512854098596206
-0.1459898844295432
-0.4753680531791504
-0.3438980980022146
-0.1988057267497639
0.5633302256209293
-0.5515769934092335
-0.6590236290271055
1.594332193531209
0.067197998863272
-0.1501600927710982
1.438465811816661
-0.3146993197176365
-0.5544291817355889
0.3991811416134861
-0.5503297322569504
0.4188467303677471
-0.8298722760276926
-0.2714327376660747
1.508089003210595
0.5072713746878175
-0.6946415340287908
-3.88300445364952
-0.4266306446385993
0.7439598285172487
-1.339043354255032
-0.1798033209159966
-0.7631194922933529
-1.888012213860904
-0.3270966850243586
0.1609681772796499
0.9377390321700427
1.160007226166725
0.8294502356882077
0.2588860442837636
-0.2942934046169952
1.182071897813381
0.8246492588224215
1.091894749412831
1.264842617781483
0.60331330155563
1.15967386286344
1.47703295434155
0.2629792047201382
1.180831496047866
1.083396731020235
0.09899350495913598
0.5639475056496486
0.601608160642022
1.07693890008314
2.061246821228819
0.618990179073044
-0.2939758819528011
-0.4912372676430428
-0.5721483061241032
-0.6445156893059106
-0.4049934618051633
-0.5834740948366574
-0.3364209255815331
-2.120194336072627
-0.8847687571962483
-0.4227823589347054
-0.9718724334884383
0.5768736939143568
0.2933690673965891
-0.4558074986088795
-0.4571376341061638
0.958950606593621
0.01650820486875861
0.6055274303856522
0.3423430969428059
-0.2447753262710112
0.2204589950065496
0.3040014649431658
-0.4663733013190987
0.2240697029866226
1.823046385901112
-1.083092704036039
-0.4589997956261191
-0.1602327320112914
0.4895512696935431
0.7601879444183688
0.4228659014090777
-0.3370636933601469
-0.5099278119378418
-0.5920802991413693
-0.644908700873294
-0.4375960477238504
-0.5385306950744997
-0.3217316770257496
-2.192643490978829
-0.9050682527336701
-0.4057959346927727
-0.9725692338829072
0.6269154249306708
0.3524588423473248
-0.4471423626839078
-0.4268981357408307
0.9708857719906457
0.05795117538171829
0.6232155621720329
0.3384086147099937
-0.2709831720780779
0.2126690149748008
0.3215235953965588
-0.4859592877834915
0.2486272884750992
1.861735776822973
-1.091744818191275
-0.4391633957399245
-0.1661032242770248
0.4871188585154467
0.8063015982510594
0.393186770329786
-0.7337171547502501
-0.7341352153422031
-0.7259381406082632
-1.711383845684677
-2.261072643934545
-0.01615566412421366
-1.519670287250191
-3.13836291592628
1.500698339263359
-1.675308957673562
-0.03268286486457172
1.670286316080914
1.709237485260757
0.03924027275082416
-1.386447566264379
1.696092750966142
1.528291592422248
1.712918096725222
1.696519871565898
-0.2186634866132123
0.5808243294101003
-0.3956332436214555
0.1510396105131266
0.8151778624711448
1.092837350037739
-0.3104349542203115
-0.3416883882337525
0.0117294339814662
1.533094718660927
0.06698778104039155
0.8498003295669067
-0.01377700795206619
-0.08183993396340281
-0.2608488787834088
-0.500202975628293
-0.2210018183189739
-0.7785555356536232
-0.2509290523564917
-1.368936054825746
-1.35300217721769
-0.3517024245837621
-1.869418994100948
0.8864808053178649
0.1429926664454284
-0.4936414485508597
-0.4263370878963232
1.202601415627423
-0.2091011761575899
0.3196458371168614
0.3634126592613317
-0.5590777652753789
0.3191669142410547
0.5244050655371951
-0.6038628044179882
0.5553452340925806
2.005651487462311
-1.227688115786955
-0.1864595830326596
-0.3057082694537796
0.2295616853786134
0.1581821472454294
0.782371464210224
-0.5433839038221007
-3.533148867307675
-0.5974972254117801
1.540117851765425
-1.021732043932244
0.2933510150653433
0.03605820436207611
-1.624519427129682
-1.796288981613427
2.084298904715233
1.859726343373463
0.6107279913747754
-0.00727851244172581
-0.08969928632511656
0.289185417640117
0.2999319890899757
0.3718153618879819
-0.1984914819177303
0.7294491536755666
0.9805856070164928
1.676938837938008
1.042369359532894
-0.1723190615495437
1.252364212711244
0.3706030041767769
-0.5880310832423493
-0.03788787657128394
1.143708427232933
-0.6301974550025715
2.457823986551115
0.1405723281511057
-0.7827859655403999
-0.5466991387355115
-2.121145624823104
0.7915920352891809
-0.872059919909081
-0.9761905306415892
-1.179489172410523
-1.497398163588637
3.601708480468018
-1.097145786685374
2.464570832006905
0.1413421759838597
0.7095747429879073
2.033910713717312
-0.01063888196182962
0.107347890378014
0.6598968024398393
0.481417235882404
1.18185742249032
0.1297301478552573
0.2507582081926101
1.221506338837213
1.972054721671067
0.06299416603436961
0.3936917495856905
2.909275893356225
1.226032338287311
0.8511466337174085
0.3608108410719419
0.2815944801190451
0.2575533472768466
-1.380100440021072
0.9421280782743796
-0.1694547936329837
0.03537298188654494
-2.340494352760678
-1.86907169286098
-3.080139281981507
2.22834568473343
-1.627541179663365
-1.71483031421726
0.4847409429920398
0.6887946911790808
0.7799093411542454
-0.02919960572772534
-0.9452644886905477
0.9950774726178702
0.7226588492338054
0.410964394745319
1.161326226383223
1.814283949677355
0.5721346868792339
1.688048252092416
-0.3615229282245764
1.59152214785858
0.3860668168212872
0.5986212543485105
-0.2333294066038479
1.013210459334927
0.1745275433046209
-0.4687145771986455
0.5627702250427619
0.9993477146926435
0.2825359334750905
-3.237631737237371
-3.35318769745222
1.030837850432307
-2.73907286014275
1.306175190340682
0.9385355285863363
-1.010626316604601
-0.898260324588143
-0.5727402476841947
-0.0930338164310137
-0.5340044046496365
-0.2507992079977219
-0.523472043321768
0.1113127346688177
-0.6989548704666656
-0.6778547656513585
2.008062345488336
-0.1187597927299529
1.036339686658428
0.06818868665587298
-0.4353656155434752
0.5040785620193325
0.3375407145301628
-0.9713040391443875
0.3624999087642097
1.998989737205449
-0.7015576915125215
0.9615762568351939
0.5327897853638646
-1.416000850657201
-1.105501927127694
0.5766342322247435
-0.9260315672681927
-1.123222343067166
0.7133746922772123
-1.947448497091476
-0.3587060798060723
-1.131713773665445
-1.879369490817787
-0.3229936677496364
1.058139598710854
0.5147736403582797
-1.689088557844031
-0.3837548809692051
0.3905472033991381
0.8284971388109461
0.9822694698291699
1.514796354670945
1.755397527752394
1.579559600870275
0.2493431296596637
-1.523737484966436
2.453450353499128
0.2100159868219986
-0.7306009535721104
-2.55335371208624
2.368957527607501
0.6489855663843013
1.49651484481968
-0.4929323201051175
-1.636556825730674
0.3258080054668506
1.888640269285029
3.5739503432861
-1.127892166828085
0.3570039172274634
-0.7937339376080362
-0.7760385343333174
0.5947661185594801
-0.5907527774048648
1.241280434368752
0.8590728337732999
3.927852662509488
-1.800211668298016
1.435302767498901
-2.379468570610597
1.392184271850108
-0.905668069370992
1.57520274269032
0.1487064047727586
1.284631800541221
0.1288919432510248
3.684862156734686
3.759565559591187
1.496155532787161
3.585347249140117
-0.8288276468444168
-0.6721104600856483
1.92558828541085
1.291463095476421
0.7765390987124702
-3.638526389256028
-0.9826085582348815
1.170008249901649
2.267448952778197
-2.798389194604155
0.6762381554587159
2.928202268545945
-0.5867064123512021
-0.5947091903841739
2.473327095129095
-0.8177185216843414
1.030845980589394
1.725152656628552
-1.337658324050358
-0.8024735094865292
0.5169460809238039
-1.97129233330096
2.006497567274907
-0.7759233337232799
-0.8839374005064604
1.820439908797366
2.127364791874092
1.907623960625685
-0.9703038572227018
-1.03215803275051
-0.04896869404795894
-0.4151472148031437
2.225707488346417
2.03021058055187
0.6398720715973348
2.072790555427934
0.1445370181980628
-4.422298363937563
1.242019256382309
0.8559351978652618
1.897455084838942
-2.017495047793437
0.3753552814153835
4.264427225004914
-0.261173350401252
-0.2725249610633816
-1.369684504845511
-0.2601069748187836
2.694296391857747
2.549871047639308
-2.995338699315909
-0.1414676484079639
-2.516398843571427
-1.576851591944654
-0.259250796439655
2.071338762303592
-1.467479427536703
-0.7574329712750395
-0.07646372463625058
-3.585155209347807
-0.2873756206101296
-0.3139048494737096
-0.4757052901370548
-0.3533788899225284
-2.481830220479317
-6.86593326414056
2.249768046172721
1.78161884904714
3.5114958581052
0.826107136541617
-1.559426315276304
1.108999459063668
-1.25223427414395
1.209521320480215
-1.101486173696551
2.920849249354229
-0.219412299372781
-0.2235174695455572
-1.027676622893633
-0.4794791635560099
3.223119818054832
2.325979268884195
-0.9962943958207042
-2.499852810590245
1.870912560317264
-1.703100166140895
-2.594852182727197
0.4529383938689665
-1.230369620887596
-0.5609113202630241
-0.821757732415389
-2.621917068790167
-0.3153055849238052
-0.3331362533199145
-0.4456433094997189
-0.3515174346005654
-1.669606167507992
-5.187447869120511
-2.963692876321073
-1.870895227067958
-1.548093901094353
8.553671228751375
-0.4405299872745013
0.3984566718467637
-1.676029576856745
-0.04787931227949372
-0.3151000710764493
-3.923315965782321
-0.0003709161292193619
0.002852387940765238
-0.8055061638904282
0.04062327752728077
-3.545574529313948
6.412395427905883
1.57803841167035
0.8477469106180873
-1.638957572147702
0.2473733331755897
2.839381634855994
-4.760603655657926
-1.10239576566952
-0.6379456437507269
-1.042563426491471
-2.402860859448475
-0.3151912822460999
-0.3176707050252172
-0.3887316107802033
-0.3350186055786983
-1.934857971881969
-3.155010795283503
-1.998585557627512
1.100180016158486
-2.489038820989866
6.113678582442207
