1.154547451833734
-0.3698302556068106
-2.374336681126771
-2.603667197161558
0.9041989301877049
-3.264417358632471
0.9971576295544453
-0.01033345877796183
-1.605432917925455
-0.4426041208690237
-0.1729804094344883
0.3351343227452547
-0.4321571593208654
-0.4388258150013044
-0.04074190516968379
0.4864700881742757
-0.5006723618292154
-0.5351285717897236
1.319338308565257
-0.6834517288454871
0.831367301118126
-0.2573784696104063
-0.520812900533875
-0.03689761069475674
0.7837408187370744
-0.8131889328001203
-0.05637321577988363
1.000717221637582
-0.6499811586752751
1.804186351182592
0.4708770818416998
-1.280097208008495
0.2019745641581547
-0.2407843462952859
0.7806129531806367
-0.5457739470204327
1.579242132465849
-1.182494431711024
-1.568094777945164
0.5776157644197857
1.767051099091604
-0.001997647716432743
0.01706870647681778
-0.1605347605668534
0.02003889678701975
-0.319692550525165
-0.5450011590157998
-0.2041416799497132
-0.1786404528351792
2.651300012901994
-0.6726433533160002
0.8164588961245494
-0.8036576555960717
0.02623089540511287
0.6573398757778934
-0.5151258892341266
0.07714502042119548
-0.1910028603176172
1.334479231637385
-0.3840442653088195
-0.04458091538790065
-0.4071005042728962
-0.880335267254045
-1.629129536567254
-0.4254922718438929
-1.150450509721888
-0.9906985632783756
-0.07266264139181854
0.0595176766930838
-2.824253620725831
1.841357247885759
1.026408248776206
1.006727376516646
0.2061549357415699
0.8618257456335683
0.9962191658098971
-0.6978482749647917
0.9076441046101947
0.628066333474334
0.6630558980795933
0.462976440044666
0.2034713782001569
-0.05765654503565831
0.9389030051060993
1.046296699332925
-0.1102669445834171
1.197924448601055
0.5408592883473162
0.7519336078012414
0.3186608173260339
0.7533273336359113
-0.605804640060442
0.4968319982930277
-0.8940523778302313
-0.621534249965691
-1.846834341035887
-1.421122074272523
-1.048456837411746
0.3281392506365595
-1.302101295362502
0.2182338633439359
-1.491800893344344
-0.8570330110816926
0.6725114561852188
-0.05282051125205534
0.4520006522353201
0.2016706660165675
-0.8823364115778609
0.5245855306643775
0.3919973574584995
0.5346729348844158
0.6919781580451579
1.264242665192427
-0.09966358248774425
1.170916174627525
0.09429716735017149
-0.4825787355508415
0.1919011798518834
1.525621215151672
0.3702476967661208
-0.2979177230150096
1.486732072084774
-0.3645046922182609
0.6315911131975049
0.1248327180108551
-1.149125680008982
-1.805716972816299
-1.382138887030216
-0.460413987279743
-2.52370557302854
-0.300323464389962
1.291507579087356
-0.8819116081419851
-0.1051422905952185
0.2134392299229183
-0.1739323587964148
-0.4106208385601898
-0.2285432013544894
-0.2003401752405802
0.4627043900614176
-0.4589420099269123
-0.6145212403005603
0.9300446484865389
0.1147542220528234
-0.1409071217177862
1.196395573671771
-0.240701754057904
-0.5212820637428287
0.4869614494980851
-0.39758974722281
0.4400491313535144
-0.7952317458547163
-0.4327000077449438
1.177265935568509
0.4462008565732212
-0.6797580621915422
-3.20070960977792
-0.1886316319040432
0.4661507773244971
-1.407811661102618
-0.04198109132324346
-0.7825732750709815
-1.549413593692225
-0.1789345539123748
0.205341988344065
0.8759463742800383
1.098958787635032
0.923124824273392
0.2041468978938445
-0.3094453499736977
1.136262115194791
0.8933372138686002
1.123231822157849
1.282491650958016
0.6246586283658205
1.058302895387671
1.238411969410828
0.1924960357218703
1.049783727497758
1.170834621532353
0.2622861342102248
0.4028310870062453
0.6305825639595953
1.044091844962494
1.577724534943401
0.4730249338225233
-0.3849295284668855
-0.500943319853648
-0.5041758605894961
-0.6674507272625085
-0.5042387259710642
-0.6785001572762195
-0.4784628976790402
-1.764753235209062
-0.5896973921261377
-0.519760162360579
-0.7572152314983989
0.5774503724852492
0.3606891896199553
-0.4618656554791413
-0.4962642580812865
0.8692866018236031
0.1514502386161601
0.5912602868295329
0.2735186294388082
-0.2016287826094632
0.2098156989373051
0.1809962897239327
-0.4463679640350189
0.2478526778198883
1.467826038393168
-0.871952908202776
-0.4814915733983166
-0.07919759229320479
0.4781158810430756
0.4621597428702701
0.388377805937811
-0.4327427648542987
-0.5208014982011465
-0.5215130074272692
-0.6684202508477542
-0.5429848269391404
-0.642463066091288
-0.4733386676150312
-1.82527972805003
-0.6038436430137151
-0.507288858731582
-0.7616200902501954
0.6261974479574633
0.417841212163872
-0.4556816473061938
-0.4682179538428811
0.8768676593176802
0.1927404626867105
0.605319631689207
0.2692593873125494
-0.2303965929126552
0.1998888470179918
0.2000309860904956
-0.4674578031477414
0.2723714018254026
1.494021392146029
-0.8784328297538302
-0.4671598089470063
-0.08680141504515552
0.4733151945215145
0.4947453146458326
0.3584120332278317
-0.7329905358754791
-0.7088338572276381
-0.4616218555284267
-1.43840652765545
-1.908268897314587
0.07801589809644974
-1.209567623234509
-2.488879267405189
1.255076915127109
-1.354149945698541
-0.1329480620420445
1.342806823599458
1.177185442710563
0.01458684127286863
-1.154594273725864
1.313030270345154
1.040486634263756
1.28391381923556
1.389894255238383
-0.07521152762254346
0.3914285990739964
0.007288979784961421
0.09827849113293037
0.5916275953087653
1.376945246979291
-0.1411611778433494
-0.2728735248770227
0.05654769183894034
1.194379981832342
0.05300348319773585
0.7515416553841624
-0.1795817915315359
-0.2495730251973216
-0.3966536547908234
-0.5874119957366266
-0.3111451920580035
-0.7007918754059357
-0.2812466185189356
-1.618603488193674
-0.8613186651178153
-0.3943420831807426
-0.9679550546736644
0.7200917230776346
0.2893079726671572
-0.4105887617747247
-0.3870586141103483
0.9936339796868311
0.06207523598108366
0.4354701712669437
0.4548965379853878
-0.265676021146246
0.2600517104069379
0.229185718039194
-0.4603347852152473
0.3731292049288275
1.527564701248879
-0.9161356658597198
-0.2302387208707762
-0.1370614285128164
0.3853778997175717
0.4597724205408689
0.5346061635662352
-0.6712047310074962
-3.270563222566151
-0.5067366969690064
1.407880340802653
-1.071421098966285
0.2704744066713489
-0.3747379933233378
-1.6585764526759
-1.339868574725211
1.532641866453959
1.355634229299129
0.5042330698547377
0.1998038216917971
-0.224233366532339
0.1769570631588181
0.2955191897373798
0.4338672150350922
0.06282753856423828
1.123683873166368
0.7639616831598963
1.434588769179916
0.8845085943068959
-0.25833892221106
0.9485250068666439
0.2310280513624211
-0.1933863747048945
-0.2146921392811003
1.117737382249546
-0.1725896929802102
2.156024100590177
-0.0114592239619955
-0.5954203632126156
-0.3822161132503604
-1.887088234947951
0.366617072531988
-0.9396615678312736
-0.7514936948410587
-0.9616627724843201
-1.106376311647587
3.492958480409443
-0.8540618967867142
2.161418562759335
0.2411193676537096
0.7584353609813607
1.98648703976353
-0.03313411978017883
0.2137226163074858
0.7048894364451137
0.5664642927509085
1.312601053493591
0.3575927301900123
0.3754708518089608
1.14618410914967
1.942279928101677
0.2221003482027914
0.4969140582255558
2.541672132773214
1.166424209199815
0.8254582967385661
0.5510090596871012
0.2667909955356754
0.3324726659843228
-1.451300523055136
0.5035034371360312
-0.2890253839945238
-0.203487788981135
-1.992025431743208
-1.372940798028623
-2.681544705252895
1.786974624108635
-1.473317434078217
-1.668816140211951
0.3190016159772924
0.5409258845509558
0.6388579948776838
-0.0544822755376603
-0.9857628447789948
0.812854528603242
0.6030477779113965
0.4284937870295952
0.677841597183471
1.606872676551399
0.4433604857808748
1.463843451290609
-0.2795769787250944
1.191378216099739
0.440523579833872
0.733937531512915
-0.2580158994838793
0.4915097815521092
0.4630832104570623
-0.2475605185056657
0.5028657457643948
0.9724973617526992
0.1704467114129728
-2.798757876571331
-3.005938599682198
1.049443123850351
-2.547592795063812
1.095008617697217
0.6639100641947041
-0.9867297160946672
-0.8988244932127313
-0.462522229212769
-0.05176680037700067
-0.4296152594809496
-0.1879455532200233
-0.3900100742622993
0.1894405555671908
-0.5809555103361205
-0.5577507523740787
1.552859673948128
-0.2485365927487483
0.981837978179648
-0.03449041281117275
-0.3265262809922566
0.5300249618699071
0.3733109676374008
-0.8291212710058307
0.2681569955667298
1.747693088940608
-0.539907021652938
0.9872484164352604
0.6116539772858269
-1.198492884237359
-0.6769194383596121
0.2586153036148612
-0.718763873228207
-0.9074307410144683
0.6858609324042966
-1.560110726466881
-0.3920341980412517
-1.253336068636061
-1.831253996352148
-0.5124502576058785
1.104871712862694
0.541650748568299
-1.421954985416132
-0.450362726262776
0.4662880211161392
0.8297160197341592
0.8682858307339877
1.256613382605027
1.396764343286315
1.391817749495545
0.1034956368712532
-1.32574422035567
1.984739900128505
0.2802677177268342
-0.5908279233512552
-2.038179505573881
1.911404769515341
0.4794116456469065
1.483899295702759
-0.4473029399413493
-1.447448840965599
0.1091582054537771
1.725031751848139
3.443503913810231
-1.005351284339166
0.2879503017627341
-0.7768359965390207
-0.7562512190219438
0.5323836619584632
-0.7267192831482032
1.359805245142569
0.7674242861750497
3.779619236409459
-1.653395132653685
1.230994333408485
-2.401011551550532
1.539074011561476
-0.5095893635602478
1.427451149285474
0.4304006902644495
1.273737924971115
0.1949217653021445
3.388370924577509
3.459992308112941
1.473035402734919
3.218256596096491
-0.5549036574865398
-0.3859963637584703
1.633464478624411
1.30497900216361
0.6630564119849773
-3.401524637635828
-1.178687069708101
0.6850239910952219
2.310356521352388
-3.05457951276828
0.2125681225095823
2.605231666834278
-0.5007016445564256
-0.5144125659037078
2.40757987361484
-0.4978608475164155
1.106831743822864
1.48247124794717
-1.108025060246932
-0.6756547551029811
0.4151968813888837
-1.965588290727868
2.066375329740222
-0.4376473665257887
-0.7577875953962816
1.631587528719848
2.399631582839798
1.767423297756436
-0.7424787853588402
-0.7959218408697519
-0.2848357355792826
-0.3123712718690365
1.871981858566175
1.710337727518486
0.5390128103002015
1.981337697971694
0.470587889402894
-4.222420797552151
1.085123000354044
0.8350754381173027
1.594283110327119
-2.007728136864232
0.0583796574141537
3.913911559261106
-0.294662124238579
-0.3058071505123751
-1.425077938895297
-0.4437813500010293
2.456624887345883
2.313261278131847
-2.71832246332787
0.03991581829793774
-2.733521519307454
-1.724797918813585
-0.3868873464584924
1.565378760249251
-1.465254164106662
-0.6976471042231743
-0.02674356537730269
-3.360872020541222
-0.2775141281225
-0.3047164750009304
-0.4532364368084036
-0.314808954573353
-2.441138951076808
-6.244673415339603
1.941147923220231
1.375138807304457
3.275083280067505
1.407772787944485
-1.653988944950364
0.7476456092418821
-1.307297559897078
1.306127612538038
-0.9975879103830563
2.508883728605322
-0.1909037886467381
-0.1979610312380703
-1.057766044528116
-0.2779999116258597
3.023173226064053
2.278522153797576
-0.8125807596854079
-2.288649203017845
1.428403634422418
-1.517323609877433
-2.46393562121073
0.2509563297777174
-1.186711859746252
-0.5406904689958857
-0.7822661486503434
-2.446888998808324
-0.3136591866376158
-0.331573351176656
-0.3895800980905244
-0.3219476237423505
-1.762889133222939
-5.289466122328177
-2.391174721874056
-1.82448500243413
-1.323777742486328
8.140770160702894
-0.2913366857200836
1.14549701014666
-1.273789462406259
0.01756495452357419
-0.2591511399736716
-3.657043899572471
-0.04437349435071
-0.04022307960591778
-0.4593682253344728
0.005466305119860069
-3.556328393876868
6.020144206415559
0.9024731640688746
0.5330424811139972
-1.140072094222958
-0.02726820647388695
2.738570232037546
-4.45020893243134
-1.04998090726958
-0.5959749896344031
-0.8948905048661318
-1.839767939959144
-0.311952880257662
-0.3143676431473266
-0.3408019086907551
-0.305382714441457
-1.548603248088868
-2.62984557180628
-1.736064983263808
1.186668849234412
-2.222706828706124
5.760684929704807
