1.191359274494139
-0.5120464858543455
-2.519190245637584
-2.683638351507131
0.9458005977510247
-3.280692333547835
1.025205087348489
-0.1255976041842713
-1.67825554118432
-0.3985468571637738
-0.2152967576686592
0.2963085988773735
-0.4935119284819869
-0.4939372357153842
-0.05046940347400058
0.4614704288463353
-0.5705910814166761
-0.6073600393589633
1.351793418363027
-0.7609515769208521
0.7723325356945638
-0.2562176736865073
-0.5811813007200098
-0.1271385652867915
0.7888926455393888
-0.8987143851231792
-0.05713424874280157
0.9105583986766252
-0.6996245326685959
1.859744127081317
0.4257564145322411
-1.357992622957438
0.2647646821047237
-0.2597426120298557
0.6946534151283144
-0.5402391258440403
1.650689210710638
-1.199215243146206
-1.505448068967233
0.5325671682596178
1.785158966126513
-0.029188964968908
-0.01070878871935661
-0.2352813041125786
-6.565771472588869e-05
-0.3689408008375573
-0.5991682057865686
-0.2774903145979128
-0.2539578430065931
2.736969467252152
-0.7421550651568295
0.8103826638621433
-0.9101802172316403
-0.002143957594507008
0.7163000504498349
-0.5873193439367905
0.01380324686590654
-0.2107857306551431
1.384854747909203
-0.4676547691635419
-0.07363836462350143
-0.4063775057169802
-0.9857770240086139
-1.798139804125872
-0.4566918184266519
-1.259901356450366
-1.111920144787001
-0.08514890155537845
-0.01793396864423094
-3.041447686136825
1.648873207349956
1.141013733253113
1.018614324455954
0.1595233447150194
0.8754748949246354
0.956912300785246
-0.7616491820240343
0.8811175350607419
0.6499318358542077
0.653650683746784
0.39076125255425
0.2363022461015809
-0.1525168658704027
0.9015121613394432
1.013982736212439
-0.2091984343396323
1.184532932828866
0.4647113842593388
0.7186246802499526
0.2206908611237446
0.7237310439628815
-0.7267536465033239
0.4599819094339165
-0.9103716607062028
-0.5903247236034691
-1.910368701193425
-1.591856174357851
-1.07027639923684
0.2723065520283489
-1.319784510372422
0.285235240826307
-1.538500720371774
-0.9053517992686227
0.6728766938982002
-0.09582534079382338
0.4474802387723814
0.2433248196455566
-0.9267749847579523
0.4892834272887545
0.3743872007717657
0.5490958961812712
0.6816353733078641
1.203321417194131
-0.1553644490060713
1.179063685155261
0.1266023991946425
-0.5655767257484403
0.1553426730578271
1.633952926565565
0.4390254898757923
-0.4150061331793073
1.591579874462667
-0.5448730998575665
0.6361619145944458
0.1826506966169888
-1.153529413568234
-1.818256222274895
-1.410012110643996
-0.4104258743997429
-2.623297857268452
-0.2398352832125837
1.223634952742031
-0.8314155508531778
-0.07448061500525985
0.1464248099784221
-0.167122139096487
-0.4383335351674859
-0.2460927570448597
-0.1791074168858531
0.4852844843548791
-0.5050206440744581
-0.6248858122578159
1.067871509873811
0.05738476570059812
-0.1382881722323937
1.23496916086887
-0.2532682065873065
-0.5259929666320218
0.5435008008377344
-0.5005989840112506
0.4638045256093548
-0.7856823031836041
-0.4170705732452434
1.266258283694938
0.4663093151055903
-0.6756760527346964
-3.346838330854721
-0.1684686832228114
0.6226151466180475
-1.39071495897637
-0.05075969551008477
-0.7796966668236056
-1.569260371341429
-0.2693114009770188
0.1911512699700927
0.90082639026011
1.115728144854764
0.9280465632045942
0.2058044042931888
-0.2821541140579945
1.149604186357264
0.9072643283348384
1.141582531564042
1.270103631809955
0.6031546711551381
1.084475250720693
1.324645617312752
0.1995814098443098
1.086737349512355
1.183044357167292
0.1979401814235833
0.4331675373288857
0.6579144285226268
1.045396525566934
1.690550136996067
0.4811536211621134
-0.3769783040355021
-0.5013586769865438
-0.5170179994365534
-0.6471572123107935
-0.5033649966090475
-0.6982415808627909
-0.4720619392875986
-1.811080545740691
-0.6357511917454262
-0.493585804918693
-0.7882508322486497
0.5758636970141069
0.3808741059362619
-0.4526219959659529
-0.4861331846514101
0.8945036329539322
0.1518025508215533
0.6293462956523365
0.2865284286435091
-0.1907858729050681
0.1970022818658583
0.216713423980083
-0.4418684701498275
0.237584412631217
1.572893625056557
-0.8769641494126537
-0.4812005962244383
-0.1221170809532374
0.515569412400513
0.483752462183489
0.3856978031217254
-0.4256030381505212
-0.5225516721658695
-0.5363488208956705
-0.6480653442289798
-0.5427809805106794
-0.6638915039628597
-0.4671670133916205
-1.876002480414371
-0.6519800853170807
-0.4803770344270603
-0.7917962899652734
0.623267518182282
0.4381616166738478
-0.4460626920071675
-0.4579042280170953
0.9012356421037232
0.1931492812215955
0.643460833584432
0.2800443178182428
-0.2199641293138782
0.1857756436173319
0.2341489958988943
-0.4627552606294772
0.260394087323509
1.599358841076724
-0.883663460929665
-0.4663154135330295
-0.1313160824237082
0.5105684827343029
0.5164444912318211
0.3543016845671442
-0.6743022078588221
-0.6415603498937794
-0.587135377647597
-1.516326590273705
-1.900523419501357
0.03064332735901212
-1.200563213888022
-2.462822341981058
1.275182798951149
-1.405001821445082
-0.1279373477061605
1.408173376563222
1.258197660302272
0.05470964604410272
-1.156561550424387
1.39936270655272
1.095436520891052
1.346323971307136
1.498191509556092
-0.1318786981948844
0.4528621135730138
-0.07706174770232528
0.1277504716141376
0.6843285831993109
1.477152021438375
-0.08104219237946383
-0.2260592521781991
0.1247816609442932
1.25925093543455
0.0416408683428485
0.7943896541761369
-0.1649094834355552
-0.2289376896414174
-0.3938746480568728
-0.5542795011094338
-0.3254559607723143
-0.7690457711400824
-0.3015732980290715
-1.598171814175278
-0.9804013067721387
-0.3709563279170994
-1.105638038253665
0.728928643977896
0.285168216198909
-0.4148867713059646
-0.3829533507822909
1.028791721401596
0.0285223385204901
0.4392448101612315
0.3955189443357632
-0.2757724937601557
0.2369531841140594
0.2931937941786686
-0.4756819961532772
0.3757053669398771
1.635418158761422
-0.9520703997376956
-0.2238970421614464
-0.2248020813557433
0.3910183651396709
0.4103958987577887
0.5542202438355102
-0.7265382459164229
-3.37776761554882
-0.4844132461019249
1.499775479449675
-1.133992882777694
0.1045187126317392
-0.3709906003804194
-1.725603263734315
-1.53257749505466
1.557086827819192
1.410707051663652
0.4543942016277397
0.1569282824535039
-0.2584020694613584
0.1855578018857838
0.2154395190167746
0.4313812019376737
-0.01894282919531545
0.8965234778594032
0.7514866693768175
1.409493401082291
0.8897847928843228
-0.3079818751649807
0.9929270564964828
0.1065362991174525
-0.3545207048733227
-0.2726081720927963
1.085558685960277
-0.3217494223518099
2.149125089442527
-0.06638906802417334
-0.5365502710487013
-0.3084825154278236
-1.925501273521844
0.4512081291805246
-0.8495039069801061
-0.7386276794778364
-0.8966027069988661
-1.099000678783886
3.541236830499643
-0.8809172249285734
2.243512869345273
0.2854934378796963
0.7574412451778503
2.024317537385029
0.006138821895540337
0.262511832862408
0.7018856851627884
0.5648699871131051
1.264667062849661
0.3356642312336455
0.4200769719442411
1.211275979156367
1.975573698846924
0.2160206955667583
0.5556043240969748
2.691427847719526
1.219577499936627
0.8916652043083088
0.5576325277001811
0.3851283275151378
0.3808942247648411
-1.471941664341432
0.5850617748474107
-0.2216308859643898
-0.106237042994901
-2.125123354626509
-1.441218783587526
-2.805289519075567
1.93152357388159
-1.42743159746077
-1.683546316667355
0.2961980596966814
0.5511417649265733
0.6034246221189472
-0.05608209658630806
-0.9905846215242849
0.8048527348620377
0.5758301194944273
0.3511960564825058
0.7857384475810626
1.643874277253161
0.4560184707512095
1.425740953554899
-0.2958440272789133
1.265141851112356
0.3910382858728753
0.6893247008018266
-0.2674282179465355
0.6026280863988943
0.3187038005941745
-0.2970741696702476
0.4981255700553655
0.9839611216031832
0.2476881366652471
-2.841508369749067
-3.007670832233881
1.030568583523295
-2.528865133763756
1.125810669980298
0.745257611144182
-1.040546655906965
-0.9205853122951497
-0.5119087570388865
-0.04523558591565783
-0.4660158544481395
-0.1956109628385663
-0.3930558466581731
0.1658818555323439
-0.6130021415948108
-0.60571209105428
1.648547518186204
-0.316973813567927
1.039124785788716
-0.1310611243132379
-0.3375364153963141
0.5627066324797934
0.3516627873764491
-0.8840385930164333
0.2711910618914832
1.857554710099006
-0.5919876305880041
1.003806681197468
0.5867970313798015
-1.291725284884911
-0.7640097335259678
0.2092231246603398
-0.8388332725678511
-1.000395568647138
0.6992216318100388
-1.689490520253089
-0.4812563200425606
-1.243639283856698
-1.859930680087599
-0.4063035207885282
1.061599172824196
0.5620597383933409
-1.413009608793964
-0.4268318921235396
0.4174496713392957
0.8624551331374853
0.9268852199489912
1.252148183521495
1.469005572862516
1.404639437500779
0.1573130614430037
-1.29870342933586
2.028541196779792
0.2118685579451446
-0.5607099462192041
-2.100304381132927
1.97577149730579
0.5344467150276034
1.478006047155797
-0.4993259985817844
-1.443698442175267
0.1736595670219245
1.712265394461395
3.451731562509872
-0.9895728568447113
0.3408203010005103
-0.7946889468310282
-0.7753563006781977
0.5378524733113059
-0.7394477141914978
1.344360211240627
0.8407767846417432
3.880028441307576
-1.735852204992698
1.322199494412422
-2.317540085000649
1.51030710499806
-0.6021310275964734
1.462810548959431
0.4503882834094025
1.273821437725404
0.2119975117602913
3.443338148012327
3.515675647867336
1.425931682201878
3.262140685259705
-0.6420127454347112
-0.4229140653579025
1.760406397781678
1.300588607053599
0.7041425879566422
-3.444748596391224
-1.22572658949429
0.8394378963410141
2.359327355218155
-3.001637758942907
0.242889914332769
2.703654519932592
-0.5035598741314948
-0.5160387425605952
2.302276612933482
-0.5392445384476511
1.062049869104357
1.532974161718049
-1.109672847153489
-0.7512814326106986
0.3527382799390226
-1.946886973180944
2.042446852325313
-0.5876293207118878
-0.8489001826924638
1.631915934447898
2.347413210382904
1.73591599573053
-0.7746538775103391
-0.8297111532158524
-0.2070459362536185
-0.2802072029077942
1.967123813874982
1.736812380392447
0.455797880389478
1.977815775874398
0.4193021874080777
-4.295944453294262
1.159250392458039
0.8170716212414635
1.667478507624951
-2.009236126730289
0.1664450436029513
3.936495243733396
-0.288068128564159
-0.298779193368806
-1.424753131826017
-0.3889421845342258
2.49793771127783
2.30473324869393
-2.73024882255288
0.0604429698346285
-2.639079146746916
-1.74569541874313
-0.4196293948773702
1.678355797457894
-1.466176861937279
-0.722109270496726
-0.007888540966296822
-3.46321667887289
-0.2806183306692377
-0.3076434324489488
-0.457726121654963
-0.3271613679303622
-2.482612243746692
-6.365129853448189
2.016423681251919
1.423688770116934
3.252928512186946
1.235637683852358
-1.62680101617746
0.8553816644018877
-1.243852189117253
1.224799158598464
-1.005268738156181
2.589097969861293
-0.2066829285113151
-0.2131346466955655
-0.9442738466066216
-0.3581611291539176
3.079804338214164
2.303177581251298
-0.919476710378166
-2.326770086119183
1.472477649306053
-1.558305605275822
-2.464422919729002
0.3071747133090775
-1.192932247696619
-0.5435965593185473
-0.7930196898125699
-2.475765928035827
-0.313946829695986
-0.3318445894158046
-0.3978198392312534
-0.3239334940783564
-1.763398766572767
-5.298798544799313
-2.513498676055632
-1.894865411404822
-1.279843611796201
8.171228037691215
-0.2587337824695385
0.9853956631411281
-1.374162828290406
0.05947635315390622
-0.2816099673988535
-3.609511690695493
-0.03228549207676618
-0.02854025721092679
-0.4798121750544747
0.0370069254542621
-3.462604629948002
6.176331891135285
0.9616150615014226
0.7138169598819761
-1.220875259531884
0.04438487736494649
2.7338658598215
-4.525426893041582
-1.059556512538845
-0.6091670892608368
-0.9748830787205958
-1.995737783773749
-0.3135448441526236
-0.3158693806363551
-0.3522971674384063
-0.3191990351715631
-1.646093980820258
-2.785784157474117
-1.771824781866625
1.211314615243307
-2.320746447182028
5.90716339869851
