-0.2376639504911341
-0.2946289569943137
-0.2444916079931054
-0.2778292995509393
-0.1591437845601195
-0.248231348727702
-0.3519403811388402
0.2337029094003325
-0.2655576486232505
-1.752766591256782
-1.846498471032219
-0.0499782671198414
-0.4844387436890543
-0.2372746797221678
0.06243771970002843
-2.012295762864533
-0.265121513583529
-0.2878602951623918
-0.1469246468739559
-0.2058493932809692
0.4536105019136994
0.3563822780769475
0.3219090305347814
0.4713077060578308
0.489329721786989
0.4038403301989821
0.4149138261824642
0.4746529725475888
0.4025851307666414
0.3485332872945034
0.3656833538434328
1.029913633615518
-0.9361269226351323
0.3030891904431006
0.4863260361926188
0.4511255743491827
-0.8467710414197075
-1.207314731094137
-0.05428012857802001
0.3094399106646407
1.033735189703131
0.3684727496907606
0.4958385723473964
-2.631890730917341
-1.042435357332348
0.06531229411323948
0.1565203114719379
0.4121993030460488
0.2362675515253234
0.3570337433637091
0.07739144594687
0.5673994685167822
0.6368340212900138
0.3863729857436765
1.462875388767974
0.6520611823186253
0.4361341175770055
0.4391053264348272
0.5087282099960286
0.558076901069952
0.50739986481124
0.4882596339643718
-0.5866473153009035
-0.9385854775892587
-0.2956034661690973
-1.607962059618231
-1.144039234142507
0.1890154752116664
-0.9697412455733273
-1.491289205345899
-1.312941770847921
0.7888202582114894
0.1215625025586168
-1.545745780375364
-0.7292364541528359
0.05616990888645738
-1.724441918688229
-0.2324713471284329
-1.426445819445407
-1.997808130874711
-1.372017689068007
0.1982651382650117
0.9540563627985026
1.016994618755541
0.7914016570713053
1.402098744771616
0.9116533665422174
0.846261644138624
1.030420394904207
0.9216631164329665
0.9788967841370632
0.8714805158622401
0.5170344293076425
-0.8118194968418802
0.302836013150448
-0.7589794513012181
-1.552315156464183
1.155954744018295
-0.03682752303228504
0.324848817960007
-0.3427168882171338
-1.445655543282046
-0.3266300349652303
0.09817502108096687
0.2393840427573758
-0.008662037374577701
0.1924634687873774
-0.2171539307255485
-0.4854663328545272
-1.379336730184887
-1.662195500152388
-1.48043746873808
-0.841187676459499
0.1699428242217862
0.3777333089918509
0.3571257993871453
-0.004362122405222126
0.1673519197911576
0.282443313173927
0.2461332076278955
0.1633737278800632
0.3209993780330854
0.2868667355567915
0.3941164674762466
-0.852186441178906
-0.1907724604507952
-0.4394939469081101
0.7720234403566261
0.554642602929354
-0.2025562767654992
-0.644544000921453
-0.0354104630036309
0.4905734694506783
-1.361244026623831
-0.7797746865174641
0.8292896296732275
-2.034565827605226
-0.732302152303304
0.3313723218993687
-0.256666195534336
0.6853646302599743
0.9172896011061977
-0.1718424445081179
-0.1346409106181274
0.7382286590388695
1.780959357811356
2.055124210713904
0.9301631821543483
0.7000951443293033
0.9287238293179757
0.7726283104838498
0.5760851264892171
1.06857933128414
1.200335232975324
-0.05647916675273934
-0.7415165348588593
-0.6859631593619576
-0.7869714495627292
-1.422829876690504
1.330580729642958
-0.9686276256611934
-0.8410212025356419
-0.1103511386392394
-1.306366323510657
0.2328419800794773
0.5979525147104243
0.6793338987134477
-0.5411764730736398
-0.5939841624525874
0.04728301738582891
0.0134266461410916
-1.258799860399436
-1.614895518271753
-1.011841971392007
-0.8763221693420142
0.0168463994715913
0.1847080453748818
0.2636777728704041
-0.04952902352230362
0.01068361339109507
0.1173458401010849
0.08100390666640386
-0.01794846863158859
0.1501110440444464
0.1432191647060976
0.1792828937424924
-0.2728168152310326
-0.3284374734695268
-0.2921101717947478
-0.3638004234901928
-0.5562283068586286
-0.2811194300617019
-0.3494994481083271
-0.163985218141744
-0.3009712324778716
-1.258026482435496
-1.395268367551357
-0.4786526103303216
-0.5880804596396265
-0.2832385127329598
-0.3120003187267805
-1.67109876067136
-0.3238038057089639
-0.3553955609243717
-0.3294811379170958
-0.2929620421544138
0.291727051429425
0.2232081737351314
0.2195095279391864
0.3983763064311082
0.3221981235347613
0.2455373299225833
0.2663642249687534
0.3253685147016661
0.2685310763247158
0.2022220339329878
0.2488715080015341
-0.5861504223199896
-0.8186356242659645
-0.4930470142160413
-0.7034459923257783
-0.1146768858762505
0.236868699635633
-0.481335358206045
-1.039679030842896
-0.6705544233587882
0.3619983797428228
-0.1149500261825101
-0.6327094467829891
-0.5918486527233824
0.1922507472365863
-1.057940485512244
-0.02709940433879145
-0.6280286731758177
-1.053004320726437
-1.217641191164561
-0.1995503547867363
0.893994579187386
1.126850369280154
1.057988676279535
1.525416813356916
0.7932703181724445
0.8923854392909123
0.9756346575756577
0.8121939468543673
1.086848826749902
0.9922146216402254
0.5397959151183971
-0.9098632928158973
-0.9837938346808178
-1.698943752026519
-0.6348558674639841
-0.8463760908983718
-1.977126889255608
-1.059571374165112
-0.1804078814502282
-0.3026401982278839
1.332085262568284
0.7295762269504791
-0.186138465262613
0.4952492323769135
-2.194673029575054
-0.05448348916131548
0.3607204297358834
-0.5459740758162928
-0.01959562515808418
-1.344728108892125
-2.602439592246734
0.5976987190389461
0.7514118119937687
0.4610558375814959
0.4835545298693383
0.7549254131441716
0.4981113790220669
0.4548309714718765
0.7000035958577534
0.5002530862207946
0.6318784644596878
0.8863291611450648
-0.3985005331998389
-0.4710291333557059
-0.4500448320913826
-0.34298868618544
-1.70804295147202
-0.7033736865821389
-0.6459261358289403
-1.111334449765915
-0.3426687176671835
0.05603269375677544
0.05151081885250152
-1.114307805762477
-0.5509994209420456
-0.7450250691703389
-1.027832679234451
0.05207000362136482
-0.3695403341655334
-0.2689904500928205
-0.4340281073800882
-0.593644746590602
0.3927977304865048
0.6940967309858433
0.5424269502160891
0.3307315605231163
0.4086604614214355
0.3994923205511153
0.4027079131673998
0.4174308343772197
0.4808439343063499
0.5537447984298975
0.6295068425507028
-0.4357227640718554
-0.481203518790748
-0.5111564422692462
-0.565350851329138
-1.14209110693262
-0.687655315398352
-0.6086354960182578
-1.133017022138012
-0.4774833740217393
0.8079575590618867
0.8419203442524831
-0.8138030200695546
-0.5467893932438436
-0.680162853215295
-1.003297694211435
0.7192883609179724
-0.5165435825224742
-0.5605817608863979
-0.6311799067378842
-0.5582709355607892
0.1216865764047941
0.4024870480222822
0.2578944667335904
0.1910659762410337
0.1349048432576649
0.1721165198188453
0.1628693207653009
0.1511918002898382
0.2130159331806932
0.2809724465883151
0.3387612943583962
-0.6893606215000487
0.1711525413930294
-0.6778520563494962
-0.1842874027160567
0.04294929267833825
-0.4095379540476258
-0.008432872596122628
0.5350787529235436
-0.2074188705676476
-2.250976319162067
-1.797765777649218
0.005625300061179216
-0.3324191171473972
-0.4131338961735443
0.5127622124799294
-1.374412202589894
-0.1624095620102466
-0.01622670558325411
-0.4403114146235494
-0.6930921900279852
0.5606267710920589
0.755024864990591
0.5999959355599616
0.6671760913353468
0.576962899488241
0.5471111623285446
0.5504466959959248
0.5893475976385506
0.5957253760452929
0.6169561929476691
0.6312357563052817
-0.4028304141387508
-0.4241840405144792
-0.4357671183688543
-0.4776833997430464
-1.495756994729338
-0.5568756804763449
-0.4837044455037988
-1.051104294267975
-0.4589928595404593
0.1785370117126835
0.08469303090890654
-1.295151974342607
-0.5795901607928426
-0.5804572847933619
-1.089653988988792
-0.5688512005628408
-0.4582074257405561
-0.4394093498757028
-0.5320482082107312
-0.4871638504936097
0.2438489780728763
0.3426838766967763
0.2826380036575831
0.334573453935267
0.3065744810441769
0.2317174836246132
0.2477405248747837
0.3283207466649688
0.2610322763017855
0.2625881063124847
0.4177681606168586
-0.3690218174527604
-0.4004455891751614
-0.4245963639197256
-0.4983580248603816
-1.465845018350478
-0.5412359602196859
-0.4732680360396013
-1.053708213708033
-0.450456971970387
0.1799956119728376
0.1235916146045715
-1.294983083506245
-0.558699399590416
-0.5791685013639518
-1.085149315737119
-0.5632522175105802
-0.4356754391468755
-0.4850355991620123
-0.5466832380986157
-0.4820705619120485
0.2371050329476636
0.3541006447309546
0.2759905893046041
0.2846695095762655
0.2971884972032651
0.2495269929478918
0.2425477625619016
0.3520717317756092
0.2481547907133493
0.2726761877930214
0.400085220460574
-1.662014978195383
-2.050195825201973
-1.623856515463412
0.6916027756595068
-0.002900172236007389
-1.214488636037067
-1.368182307466012
0.2007722394895834
0.2185105854109569
-0.3735033156090987
-0.0859362412195004
0.2411554700230753
-1.023921558702396
-1.135036042601235
0.3371752410069557
0.5484579776338113
0.6040874499419653
0.7579279744330757
-0.4734610119166425
-1.262355482148331
0.8717531770661702
0.5279220206658604
0.5785574625652379
1.092819610299174
0.805853042575202
0.8676892405183483
0.862814154159822
0.8348252113190212
0.8199657032105431
0.6982225903655433
0.3227829729242254
-0.4238371106627927
-3.95170141684705
-2.646718466911725
-1.326051116681173
3.911538931824182
-0.4785573923730243
-0.4098448657610694
-2.919746125241974
0.6509229725812751
-0.5776784317162069
-0.4334755281723343
0.7848692452681034
-0.3820241504317982
-0.3795213657119212
-0.7921585417909293
3.259221650127744
-0.2496455770704082
-1.612147202669391
-0.3281433810810657
-0.3100499394282079
-8.001507371950831
-0.6334588121976819
-0.3263878470914643
-0.3249601202613943
-0.7998354834583808
-0.3397439000677424
-0.4209393109767776
-0.2926118166230735
-0.3852612287737081
-0.370105106745011
-1.442929158072609
9.579273390910847
-0.387581676272729
3.842843457742102
-1.049715558872169
-0.523994818861539
3.491047386700923
-0.9212939952690382
-0.29829348573909
-1.754755206844309
-2.090475576335016
-0.534965570250082
-0.5535961047272072
-1.563019519801921
-0.3306524138953638
-0.3454637837265084
-2.631845547248705
0.6009078587576308
-0.3560029914900699
-2.400532700299945
1.294559810699395
1.441743024650443
-0.9705445021971844
-0.6677783337819005
-0.281759069169206
1.560012753816499
-1.315350313464243
-0.3658983859271202
-0.5719570108398183
0.5386311923630653
-0.3974197239888744
-0.362964616630899
-1.258603084208215
2.910663647443825
-0.5864643460407618
2.976698887238352
2.44094962018577
-0.9892932128641401
0.6719463805036895
-1.198327428293713
-0.4481741092430734
2.390963695609951
-3.339156590716022
-0.4316194516376584
-0.4882136394252719
-1.813463615971273
-0.4494784506371066
-0.4085733531435281
-0.5730506252590487
-1.437468091876279
0.2030069600059041
0.7107134214936626
1.307083551102657
3.482744782346632
-1.2136114307963
4.426466545160637
-0.1307027820830546
0.6420511955457994
3.115321864704166
-1.416915204738817
-0.4777271195048926
-0.1395406139763324
-1.332012487787573
-1.337204935558328
1.633312773240724
-4.884263474673227
-0.02927392163657337
-0.2987094569493717
-1.538462385451457
-1.661637029025713
2.739824695001432
-1.221539721475457
-0.2449016175846716
-0.5628220430074139
-4.002360599604009
-0.485600759523614
-0.4775435959696959
0.7547647215275881
-0.3215025834233861
-0.2886384144278658
1.804798495020874
1.216302116501965
-0.7514166226819345
0.4897146560903136
1.098193651145069
1.378362078817316
-0.7160270688874084
1.70413458406858
-0.1931697258287257
0.9238024583612078
1.141776826028038
1.987223462099448
3.221605194192186
-1.456731035168217
1.795449075094083
1.765278546657488
0.5568788873278318
-4.370055611657973
-0.8718833197289495
-0.1837559815695815
-1.173390059931435
-1.945323999648241
1.154192760840073
-1.869586966534825
-0.6921733990290125
0.1107205685499317
6.025979402924359
-0.09677089695733697
-0.6506956563195607
-0.2019219315865231
-0.2675975936983586
-0.260051252366593
2.629217873959026
-2.391252244145079
3.416217569785143
0.4195066485455715
0.559223311210547
0.6045256146612272
-1.027219177945608
0.8322839849414024
3.057322721189276
0.02054570482120352
0.5896464215058872
2.193213599413196
0.8611630186195725
3.394921168285951
2.079833775838949
2.025278182150587
0.006236193369255271
-4.512458874035648
