-0.3460498753296921
-0.798357647549999
-0.08191241747701783
0.9305011083272378
-0.3933414353696372
-0.5441478167433789
-1.239617358848702
0.6215685038107348
-0.1440322121183777
-2.322864792698751
-2.477034148807909
-0.5698460581417955
-1.280087104243783
-0.4985118826731255
0.2228671447142495
-3.070794053945537
0.7961070713937541
-0.0180664456789761
0.1584622336401968
0.4552434990683142
0.8991225231889067
0.2887610710763567
0.03531797396934924
1.059340775266443
0.7547667232104953
0.8848255243466044
0.908140625502085
0.7432004604553609
0.9239272704998915
0.6439614449980129
0.1861260664118383
1.534739913875833
-1.219993131139788
0.1273700089417497
0.9389567456974146
1.133971625373842
-2.013842307553126
-1.930668313967869
-0.2176708303369689
0.4746869463630717
1.647560922972692
-0.2357887084163861
1.078438869036838
-3.331261429509572
-1.733095136345355
0.02095163301355308
0.4104591410311595
0.6877515375043675
1.004649543199712
0.4999680344784429
-0.3222471966879072
0.3246315696574611
1.03982726901347
0.7668082231791011
1.441693957714086
0.3679035497633163
0.298786511192854
0.2277147739645669
0.1839898953327085
0.5228066009929156
0.405666686119305
0.376377568257538
-1.34318078742582
-1.635762130814032
-0.7345438494943191
-2.192237410197079
0.005383384968745291
0.5821162085270269
-0.9891034742669104
-1.435651334951632
-1.633767897430159
0.9934246220019607
0.04416034616696277
-2.108969861406166
-0.5974335161203395
0.5357094396589968
-1.711732720402252
0.0705862681144005
-1.912090608024628
-2.483502526484644
-2.211941977678329
0.6720730729921028
1.199990948893249
1.50447712331916
1.061073900323419
2.031961674322454
0.8668340731613619
1.003487889242159
1.36528172827667
0.8801660350213828
1.219764238662288
0.8868895488439638
0.4194336513103018
-0.5815977483944124
0.4603937725883456
-1.066270815251264
-1.544258251194314
2.173449710041742
-0.1869966192112282
0.5206921230750436
-0.04687479634099272
-1.818815577695481
-0.7327182718660853
-0.03373989529923725
0.7079590364853572
0.6302872808521894
0.5847356791842053
0.2273645762743783
-1.422858229447994
-1.383987100949758
-2.21183924249639
-2.658448048401342
-1.073836430735033
0.2173239296072187
0.7595983540162444
0.7157609712953779
-0.3668414763915225
0.3080434638068009
0.434154493322407
0.2931813230832781
0.2504146306912717
0.556509491830149
0.5864195043872756
0.6447484902660499
-1.186341017933687
-0.1224486492756177
-0.2478126047631411
1.044297266736264
0.2214859774422003
0.1162884603272845
-0.5467450193365699
-0.1839709097307947
0.9596501981171144
-1.938008944554938
-0.4349549244796044
1.560522976980674
-2.884572782135047
-1.01204042194353
0.5959966002172881
0.1162022222908842
0.9377442568860718
1.730370079471341
-0.6595992774471415
0.2784293147234975
0.7099218031491893
2.428589902380591
2.855581932241377
0.8817979189877725
0.6977926674417443
0.9204652768135569
0.7520213374087562
0.571658176436334
1.070658866653063
1.285765412875613
-0.1005208789486773
-0.8993539745262561
-0.7521698788566432
-0.9587304790897989
-1.695512669896504
1.300297958529335
-1.60742745897758
-0.8971609374749169
0.1982197476143872
-1.999448712469504
0.1414645169768426
1.033351963506329
0.5524601129179382
-0.4782873440400553
-0.8278570113524409
0.4147416561946685
0.2564718464968814
-1.478983765300143
-2.270102851785464
-1.139768762586436
-1.218666755617835
0.07913549503867398
0.3479574315945956
0.4033473652169459
0.02680621445782628
0.05837725763986532
0.217842123928708
0.1374807707094742
-0.02115393344695161
0.3072462423922934
0.3038965257729123
0.2589992677656427
-0.1735343011396065
-0.3896218173174364
-0.2856489165149118
-0.3615420460022916
-0.5738647232915506
-0.5883881614265905
-0.4561460022756936
-0.1354512549858887
-0.4069262853531675
-1.733559636971071
-1.954628489502622
-0.5654929348276638
-0.2615570363053126
-0.1472564821503573
-0.322393039607079
-1.813016720552628
-0.3422397025292439
-0.4893588877882076
-0.1203707166636796
-0.469580349861025
0.5619467877816062
0.6612888692987132
0.5130893196490873
0.4736682571391839
0.6894564175186281
0.5059108090837503
0.5031473625883031
0.6930534717340416
0.502810136131146
0.4754071065378023
0.4983933476457657
-0.4755430220551548
-0.9641037302441926
-0.4407764591096069
-0.8973577183870923
-0.02931962658046884
0.5944591743931774
-1.286335436022758
-1.650141773535754
-0.7981332638302128
0.7932552122183757
-0.441294215941094
-0.8091902193519929
-0.1464015700115393
-0.02278265886787971
-1.889339182767786
0.116209690845076
-1.00411977091604
-0.8261187064894656
-1.197523355664514
-0.5387184478797448
0.8005793428732352
1.604817662047525
1.594990382297988
2.550237644545182
0.5498081948975272
0.8287301292980885
0.9225326301546148
0.5610045677423207
1.224331726666444
0.940740669148442
0.3694666959104407
-0.8123313255615607
-1.030466373103637
-1.877453182034831
-1.238235839395767
-1.184380845150929
-2.985832802754341
-0.9753943874437561
0.4849149382596351
-0.2191550530641952
1.396421488498874
0.9784786295213912
0.09659543666568478
0.7270079386142422
-3.109866715575524
0.7295115685465248
0.8368939893187977
-1.017088673272761
0.2340574175734262
-1.795294987324862
-3.510518984432812
0.6127576000067636
0.8958498230962112
0.6497660384799828
0.5998958766165041
0.9162791386410166
0.502531173052038
0.3969828910027345
0.8599779270939348
0.490651782393633
0.7573194349950906
1.043283279660372
-0.4223905440383676
-0.9628264195772407
-0.6754559479425873
-0.490391526085253
-2.554956320867981
-1.105116774082258
-1.12302825404747
-1.735783963482345
0.4278559382289711
0.6268256222762746
-0.09484893548927026
-1.951380862840498
-0.4284080617009293
-0.7989855131451016
-1.707771974422476
0.8519453227314774
-0.4899670629080874
0.4967001615358756
-1.060995412787771
-0.7867499411802007
0.6689268669115992
1.240446300724823
0.7886762444774504
0.7941046826531413
0.6794894389662294
0.6635426338266943
0.7281472168357709
0.7102163916597177
0.8222136318216919
0.8474060045230132
0.9563532647758689
-0.3292774166347357
-0.485874519137701
-0.4447885044244836
-0.6351417246986171
-1.558589266434079
-1.112448547239224
-0.8779218375242587
-1.429683630397556
-0.7086501330500286
0.5814790245040043
1.341942624300382
-1.101752254023786
-1.3068347678777
-0.9799576122245048
-1.249070784148326
1.053718547409868
-0.5559716200046412
-0.7923037152887421
-0.4363349609043969
-0.6679678327733654
0.2845528053316146
0.5120322830382105
0.1653216689618839
0.5343922308178456
0.3319537589945724
0.364076149157341
0.3521428843405219
0.391849283633626
0.4038829555025624
0.5002187273907256
0.4395790384497906
-1.650677720705889
0.6771314792859873
-1.519125726381251
-0.1033911113528098
-0.09605534003210631
-0.7038173495903938
1.155522533291704
1.262511895134412
0.03124615888533416
-3.08203477191733
-2.230132425174023
0.100949366552813
-0.3847275257064547
-0.6376426487785294
1.361217019066431
-0.8746845199307669
-0.2136343618778443
0.6909531170106874
-0.8250179662634686
-2.054750062778172
0.6216406752411713
0.8844188317895475
0.6098725243758568
1.217951312463806
0.7370569623968667
0.5112861856773643
0.5070207137221214
0.7536105078291124
0.577392598709954
0.6083568503056129
0.5563931310039525
-0.2088539144909825
-0.4030210187698763
-0.3546003344107102
-0.4654445907203285
-2.032865124008841
-0.7804448572252572
-0.601262727824814
-1.173358808153252
-0.4890015425738801
0.2235242711874957
0.1417833099544745
-1.532488351413848
-1.034054576534026
-0.5094072588624419
-1.202717217120172
-0.7555843313754718
-0.4359267510979534
-0.5650743628899578
-0.3110571877574012
-0.575554442230894
0.6167043444107786
0.4639397050761098
0.3336956445822585
0.749015099474456
0.8292755793189003
0.568909953820346
0.5649352692158464
0.910115290595125
0.5124924834346155
0.578394128699824
0.6402425623388217
-0.04267053025489246
-0.379340829036016
-0.2137963232481356
-0.4696676555859347
-1.953834452913038
-0.6969516590587481
-0.6129836414810699
-1.325443874763043
-0.4601276686033317
0.5253891510857339
0.4465405232723393
-1.433571859371443
-1.11557638889121
-0.4537925872133191
-1.352524035280259
-0.5195184072707428
-0.3944924879412247
-0.6337218107045975
-0.174333643917082
-0.3973372035676702
0.6414306901699194
0.4148903639584033
0.3204392080487152
0.6743429717829948
0.8132960761917596
0.6168262548715077
0.610359300988727
0.9285501574421174
0.5311984177089442
0.6023402502836841
0.6623521595712007
-2.506812529463679
-3.094507885788661
-2.297529375387642
0.9393049902092594
0.451436024359974
-0.9229604348370971
-1.747104602933758
-0.006357328305084491
-0.2978724135807892
-1.015674246157521
0.107052087179575
0.7087758564526745
-1.585980132831272
-0.8352434150941294
0.2727462907634656
0.4281685518299708
0.7598531143410826
0.8617055836473919
0.02044979400357909
-1.704116116821244
1.145207697658452
0.1283733387397846
0.1847247814187341
1.806415929014678
0.94615675162254
1.152294418252821
1.190871620451612
1.008909669497327
1.091550733381234
0.8223271441826476
0.06926491010403001
-0.619341127068172
-3.217179687408421
-2.961059347455818
-1.20224416809829
3.806086886549698
-0.07506155460088482
-0.5746279598289368
-2.797785753310583
0.1290523526424984
-1.299264559226328
-0.4842438868051464
2.661912302002967
-0.4302035411585688
-0.4438185647580521
-1.275236916031725
3.075633604433594
-0.1015567847282289
-2.112012905634277
-0.7000043656478507
-0.5009581952187082
-8.245580018475342
-0.4061106249305922
-0.1182712926459986
0.05888233340774697
-0.3029293518014316
-0.3918354828512421
-0.479448375834024
-0.7099671085654913
-0.4011259832532961
-0.4054669921237256
-1.308953055635441
10.43430006061252
-1.434838677210076
2.991729639160467
-1.024630215871855
-0.7137704133047135
4.500902957144376
-1.296502245904333
-0.3592711740711641
-1.368690344662169
-3.479614204137443
-1.539745799755841
-1.021672847669908
-2.145675868646866
-0.6458933423145992
-0.8684518522061481
-1.838950378525456
1.386149631292223
-0.7040354466893148
-2.226341056252869
1.68276879626472
2.133379048938425
-0.5176070412541559
-1.994956758320674
0.01222153613472482
1.388527523747163
-1.756890709948706
-0.01841440538407117
-1.067363905145941
0.7572920463206468
-0.4983480168524082
-0.5454747167117507
-0.9465470163597688
2.415661336937103
0.04847702423095587
2.776955377201666
2.210932536706043
-2.014933045866733
1.299091547723059
-1.47600224085657
-0.7754603807650005
3.013740379700617
-3.839501414127579
0.2164885173301829
-0.3529418901231147
-2.372726492999567
-0.07604446908952106
0.2944766307969037
-0.407725460131752
-1.066748425897045
0.1024981476440051
0.6834293177379061
1.545475998576585
3.501348362723049
-1.479283260567414
5.35138160505861
-0.06934219431678382
0.1789146432504346
4.009982122506345
-1.996257705533064
-0.4678948907122428
-0.2594747703099985
-1.824792373764706
-1.623853450633847
1.917001860629364
-5.177980121231687
2.314571893644704
0.03617110693466499
-0.6215853238435287
-1.236608231827643
2.758971137628164
-1.1697166063204
-0.08438417228563243
-1.073308255950942
-3.89819049651205
-1.876142272648983
-0.506561043859853
0.4991664051517774
-0.4152515007885284
-0.4331070440272236
1.879476417532257
1.476796716485705
-1.049704386508684
1.263121087396637
1.028188175923891
1.354112120463109
-1.195183538927648
2.687472892350683
-0.2874164242234122
0.3830709354944138
1.649290594957014
2.433182270853887
3.862330353530149
-2.05734103135029
1.852326406070757
1.882323568336891
0.5925159954941749
-4.967562437201557
-1.894557419456511
-0.2001609454020135
-1.711442541481166
-2.464557582258987
0.9022046199626133
-3.009728981789772
-0.9655016510944611
0.9675137682209969
6.068269160418922
1.931334887410066
-0.5837769087716704
0.1164296498910699
-0.3878477747326725
-0.4046707664812658
1.507779179997345
-2.276776405824007
3.301605740348305
-0.003081620959228169
0.5149363789243917
1.295257488417269
-1.789962686690686
1.36156697955885
3.253969532756352
-0.665052348548106
1.397000870167608
2.471899010499651
1.110193642268098
3.516282662823143
2.836514814180545
2.586077088305532
-0.1875033606305178
-5.32860359225185
