0.001645168489517933
-0.01171935763939465
-0.02848241755277128
-0.02274701320541208
0.005765110916055945
-0.04021010813451429
-0.03760920845864067
-0.02887860587935834
-0.02427323485805692
-0.03669312138157966
-0.0006290200304160623
-0.01909956297949106
-0.01921399393193301
0.005103376766951429
-0.009085294724907027
-0.01959453244844582
-0.04813315415139593
0.00628716082976311
-0.005199766988952207
-0.006763990443221885
-0.002900262718591063
-0.003507471227716791
0.003123205679472494
-0.02296787395795299
0.00645086007690393
-0.03709743746074826
-0.008314832823801464
-0.02375878921310475
0.003269195274593428
-0.03457068058626733
-0.01653745236008171
-0.006401377135095336
-0.006964716520623414
0.008250310199446215
-0.03175253971117543
-0.003826735457740323
-0.04597238435373926
-0.01925487021721864
-0.04400498269834334
-0.01716586999782505
-0.01270165897048032
0.002409060937757659
-3.560613244438751e-05
0.01166787133684563
-0.005900077449052705
-0.01791097647544861
-0.02045965586052554
-0.01513400276580655
-0.02287154310299779
-0.03081137484799233
-0.009253878453394674
-0.03587307960983127
0.004725353632198519
-0.01792825895901774
-0.01451353685077601
0.001106134684858983
-0.01208585343428905
-0.0293770609202573
-0.03119068132657429
-0.01535549855095054
-0.0157465655830615
-0.009378347158333048
-0.03390059367258168
-0.03176494836322674
-0.0011876997694154
-0.01868329672076539
0.006856357302193033
-0.01190695510903089
0.01031700643134654
0.001956191947118329
-0.03105201535033419
-0.01037163977785329
-0.00400283245914271
0.007275330760045755
-0.009821501478566324
-0.02628381348338775
-0.02200054326026556
0.006680311496679446
-0.04497726720116607
-0.009856355969211469
-0.03101311368213466
0.0004676446940677234
-0.005040843627301323
0.01051265051257159
-0.03149512221148995
-0.03134118459040451
0.001887793367220805
-0.002723317075469463
-0.01411786360743706
0.007822707665711416
-0.03548886182634688
0.01360524596801449
-0.02150706065671337
-0.03308267048604167
-0.04484503657808149
-0.02919447803893403
-0.008193864605769338
0.004313525701329364
-0.008705087848669172
-0.004579830098238215
-0.01469834380924743
0.0096894540373802
-0.02513047470072407
-0.02546468648365646
-0.001810346109826619
0.002008779828248516
-0.01380624532855887
-0.03524217585094567
-0.01082287340015409
-0.03413429919158294
-0.005192787699063633
-0.002156901739804064
-0.02333805951170822
-0.0350929859761006
-0.002486832638906326
-0.0244390758719062
-0.009940888415991483
-0.01942217245478664
-0.04174736074278693
-0.04852907895014805
-0.02506844264354318
-0.02320759445287526
0.00901034476797135
-0.003224760072278981
-0.02854149252489223
-0.04398158571736319
0.01440652928366915
-0.03885087236980947
0.009597570454838713
-0.01275645391625356
-0.0425291099481322
-0.01456131543938419
0.003880142856709844
-0.0209729585964707
0.00738360898807991
-0.008120038645814273
-0.02552827426963023
-0.02440487817061444
-0.003149974728310517
-0.0003972406952169224
-0.02141418051876945
-0.02609356971809192
-0.004592481678210539
-0.02066821924054486
-0.02009572662023283
-0.02262615277085389
-0.007811853934203706
0.007693904942795939
0.0008303162354775871
-0.004709242744683255
0.004160369345074812
-0.03380761780201618
0.002152619673797782
0.01148481305384882
-0.008689502573121176
-0.03470324705009534
-0.0001660256515158232
-0.001181551804089103
-0.02258108985089052
-0.0001766869340967402
-0.02528200502138428
-0.008774766913535185
-0.02771662789409512
-0.01863344594495187
-0.0335882698925651
-0.02803228800585357
-0.0409245794265732
-0.02385740346723411
-0.01528047017296989
-0.006236168176008289
-0.03440533417648813
-0.03844617620734979
0.01182924781166584
-0.001462094233162262
0.001413546474947105
-0.02721544016653747
-0.03451775314419837
-0.02048703962117272
-0.01057965022251789
0.003733501085169962
-0.03359931907519933
-0.03355407440281647
0.00753908229523124
-0.02236055879479524
-0.02562614932812086
-0.01335173360679371
-0.01466677369075653
-0.03269378814638053
-0.01224859229910273
-0.03437775588035712
-0.03503265627462102
-0.03797101032104321
0.002208645709033097
-0.02071095819049236
-0.006713660911779579
0.01057832859496565
-0.002826347871506056
-0.009948732205157769
-0.02059909190857368
-0.02285561668019611
-0.02313718137631809
-0.01843478575318171
-0.03121825343484834
-0.02458507544004207
-0.02541080381394689
-0.005785417131736094
-0.01308373238969709
-0.01561324424784787
-0.03328394820937863
0.009280324447361646
-0.02337886947693049
-0.02295122421379886
-0.02800600401942616
-0.02434241382812725
-0.006097049293101339
-0.00827851957756795
0.008286950989640921
-0.0457881178648773
-0.006905370711276565
-0.01683068052947008
-0.03994098566448277
0.002246185191671564
-0.02427513435355467
-0.04432269121244979
-0.03373958858018872
-0.03364508469046323
0.008980277601347536
0.00784132993286857
-0.009224683708597511
-0.02230473814345505
-0.03203835507966193
0.006352922723245887
-0.009299378956956152
-0.01698652227287938
-0.0343321562748095
0.009338682853404638
-0.01036800267692229
-0.01662957266548708
-0.01987124430815608
-0.00983724405292272
-0.01036577856729103
-0.007536172792307073
0.006087182927600798
-0.00659963332957316
0.006035575129525014
-0.01573071247404271
-0.01953316433489929
-0.005685991348306456
-0.01835713054632005
-0.0346871081422053
-0.02335015862552934
-0.01107770432555532
0.01276516995357884
-0.01168388763712555
-0.004821040550067898
-0.03495586346078015
0.002691097413647103
-0.005827202597709465
-0.03038769068145913
-0.02439717940657575
0.01393346451493852
-0.028851740226004
-0.02628932745800847
-0.009249081779005219
-0.04430022200983412
-0.02795729076558284
-0.008288666639615021
-0.00149049362336992
-0.005334317999421412
0.00805920869858359
-0.02487357274724064
-0.02611089721325496
-0.01092543059491356
-0.0267318318215749
-0.04165728032211111
-0.01452356617355676
-0.006074546882673067
-0.0128406972479291
-0.04117268523889771
-0.04151929462273321
-0.0183962363601419
-0.02743582149146094
-0.01262548377846863
-0.02148141158939743
-0.009939917477683094
-0.02455775490589442
-0.01551904693033719
-0.007518416153460867
0.01573111177927868
-0.01610959156012942
0.009496296646606856
0.009229780521920241
-0.00759899786768378
0.01211884734581549
-0.01509943886071962
-0.04980660171342007
-0.01996664167051903
0.01485314382620895
-0.02816969392554654
0.002544434129041407
0.009901451023145649
-0.02057366291873187
-0.02096412338812663
-0.0189275077188943
-0.01433146624425054
-0.03897302310893675
-0.002721653610616224
-0.003797763803921498
-0.01883568393900284
0.008750926765907482
-0.03311680290155833
-0.00557503812441258
0.009367479081153186
-0.04864158990534667
-0.03071044151917422
-0.0143085478422688
-0.02363567287476371
-0.01661489014801223
-0.01916333113039858
-0.02091999437353864
-0.03583523502804212
-0.0359764070672068
-0.02296476242977121
-0.009972242474173516
-0.03777305767142469
-0.008133739148101742
-0.05842181175717191
-0.02770789548181918
-0.004627495449625334
-0.01674019696831585
-0.001633653183087207
-0.01227509936668883
-0.0004421076593778109
0.00933178063876073
0.004294122517721091
-0.02373751335086485
-0.001099051183455038
-0.00868691002529637
-0.003352940505108108
-0.02206349645309467
-0.02654279376877562
-0.009744663571933333
-0.04722018514370498
-0.03213931471218198
-0.01095855145938504
-0.02909884553666977
-0.01089560969750279
-0.03191033978324105
-0.008834864573383696
-0.0313750264022114
-0.01346186823813255
0.0003881904858505501
-0.02920521156298361
0.001900911489005448
-0.0235739509478337
-0.02363131871834317
-0.02217135062526604
-0.04099814247582961
-0.016370584484383
-0.03289419451108167
0.009411568704949778
-0.03749772977282355
-0.003188699527550054
-0.00796828088882875
-0.03592772461038428
-0.01333064028076217
-0.04094817058385811
-0.04865615714515473
-0.03291917445085463
-0.003164368741474572
-0.02450248397447845
-0.03167896962059064
-0.02127563702638953
-0.0235602083552296
-0.007958375445337139
-0.0287145353039333
-0.003096826486982821
-0.02887717173165593
-0.009079388581336662
-0.02267926979396627
-0.003812977650990515
-0.02861608240782839
-0.02223909234982222
0.004838910197909151
-0.03129987474518477
-0.009555788038742097
-0.02632717212840526
-0.01443280882775445
-0.04277592354567566
-0.008246972780310823
0.0002275669774647866
-0.02386497259693024
-0.003847826115033857
-0.0160255623887169
0.009315717219287622
0.005838159377157685
-0.03474017214055705
-0.03483247037743679
0.003366143355089105
-0.02470237901258385
-0.00499174802804347
-0.01958607137934151
-0.0224156849934028
-0.03095133675703109
-0.006579185530339698
-0.03249952023773524
-0.01269267018735124
-0.02084557186483914
-0.02460408258594201
-0.02914975823061337
-0.004192610617095838
-0.02998795680024742
-0.0121260561987362
0.01197728006421337
0.01326536562902531
-0.005211631948712613
-0.01218983992390294
-0.02789770951647784
-0.03467151127328893
-0.01860378917817653
0.0003348947686439938
0.007321738201605584
0.01207339663754972
-0.01336351407329963
-0.02119386450817188
0.006132206051733317
-0.01064831734211578
-0.01730627019458735
0.009012350398999409
-0.01931829191560807
-0.006175840776962541
-0.002616799496581883
0.001570001812575664
-0.04269696926484197
-0.001236615570865382
-0.0309554369711824
-0.03334990735997166
-0.0201540207300819
-0.006528533520442444
-0.02758150730560622
0.001670386786041694
-0.02962972001380051
-0.007650599384659483
-0.02104985637580735
-0.02451107978415679
-0.01340066159852696
0.01262523062129079
-0.00078880919725869
-0.002505579058609324
-0.04124984239020837
-0.04500202460077096
-0.0142398643580532
0.006677339292629788
-0.01530974800631812
0.000636335565828604
-0.02534454736178527
-0.02785692734219561
-0.01902305514687462
-0.009770919575922339
-0.03139080175083982
-0.006519742425731127
-0.02808348526966996
0.009610568552632894
-0.009915798089821721
-0.03781987805404011
-0.001641537386967889
0.0007813110959754727
-0.02217535305738466
-0.02144763047949369
-0.0105703936003455
-0.009535738344737392
-0.01762350122473981
0.0005868035621837785
-0.01543173463370121
0.007363364634610882
-0.02921923512825956
-0.03897733852023742
0.008361809788647411
0.007161546059826184
-0.002306299576418233
-0.04180002924505686
-0.0324328850455392
-0.02392186656318079
0.009206470159185231
0.009421999882524458
-0.03716315960420787
-0.0279905850177476
-0.02945468917043685
-0.007034199788714323
0.003774620784866098
-0.01643595552015438
-0.02542020509349797
-0.03520105797981713
-0.009279573008776115
0.01150381155523979
-0.03312020178083418
-0.01450220395095594
0.01029997313332251
0.001895783598841366
-0.03543177495592937
-0.003940387544245597
-0.01671193177697845
-0.005613483530566227
-0.0154492080670803
0.01638725596602505
-0.01078633166538248
0.001204440029675921
0.01195475522635302
-0.009999841894649426
-0.004809839989127478
0.003653532701203953
-0.01602116457441406
-0.03711368360536137
0.01061011008729714
-0.01454257291174491
-0.02691101304452182
0.01376013337272609
-0.004734551468842111
-0.01723636617958491
-0.009309579070315654
-0.01038238626527986
0.009737486013946048
-0.03468589145499182
-0.004701893159845448
-0.01865802977014964
0.02223827877351634
-0.0004503325859227094
0.002944988018232594
0.007796731663419104
-0.01788093842244956
0.004011410684090953
-0.01584560629671616
-0.0005587085259218464
-0.01985356708642248
-0.0003795037280251841
-0.0005716222717153897
0.003522397429215964
-0.01648846325017463
-0.00764313835134742
-0.02584475387553146
0.01060782566936448
-0.02249067094553191
-0.01191477552981347
0.01098319626153748
-0.03105201685995061
0.007340554127165515
0.01438405171621579
-0.03665759377906769
-0.01213121845055771
-0.02453126451389532
-0.002818478414403202
0.006181305223893156
-0.03380744990847984
-0.007929961722252061
-0.01874030242776479
-0.01645765758837214
-0.002156149167453239
-0.04275774964952216
-0.02767764091365813
-0.009698409170977291
-0.0143344657358928
0.01308178740447804
0.01323052338753661
-0.03347880906346209
-0.01798636542252258
-0.004507602589540257
0.004705545830781915
-0.03004480592782621
0.0194016851775974
-0.02257515187631709
-0.0174412594187524
0.01021102701478981
-0.007575668921949143
0.002477368093220571
0.005844867328102133
-0.009630657577374429
-0.002817167167557557
0.008989572829801652
-0.008505367840014069
-0.03232406552769636
-0.03190935957179541
-0.03053024814488363
0.008634481330829107
-0.0293557704517349
0.003927719459975691
-0.02397552765323455
-0.01776221485956028
-0.008297451429694914
-0.03879584882857065
-0.01607653806629596
0.004755596099694704
-0.009799835780864992
-0.01732227713530526
0.007664077637015534
-0.02411310679282549
0.006011415074769416
-0.02010716456974034
-0.02164320060579627
-0.03643473534990756
-0.008990300616436958
-0.01518537815815525
-0.01591059948906403
-0.02192634771151286
0.0136751137175714
-0.03649683348267172
-0.04752139795290429
-0.01038989158039236
-0.001041021213294792
0.01524013675274133
-0.03868761175089212
-0.001236172529835032
0.01026793511015356
-0.02751942498207098
-0.00796350620717157
-0.03724493771768901
-0.03844295796883948
0.003600894789031593
-0.01648753233127132
-0.003685192864725681
-0.007497013066918897
-0.04949533461177587
-0.02611279952923838
-0.02179680402911255
-0.02072736655859452
-0.0208817290607593
-0.01837858009135728
-0.01235761567525424
-0.009220223991015835
-0.0365968497511977
-0.006959474825080881
-0.02283174772713988
-0.01443346314433119
-0.03365912389992919
-0.01283992159096164
-0.01038482522097148
-0.04057115940712037
-0.03262749325230514
-0.03268463103858805
0.004527142962875562
0.0006100186902401229
-0.04237118372697489
-0.008647861509623458
-0.01146436729599809
-0.0109609612789601
-0.03049629144057014
-0.01113694504434441
-0.02082863235666514
0.0100987043306809
-0.02808507679429327
-0.02643517580374369
-0.01428912920236001
-0.04276295187831253
-0.02074747217612319
-0.03831394035326778
-0.0594232197281969
-0.03920676864879959
-0.01912282723465202
-0.0140102915693257
-0.009847799200147363
0.005092650942628453
-0.02566622537062446
-0.03410739151447306
-0.02176532920776555
-0.01662513805445175
-0.007254668111123006
-0.03936956282213074
-0.02049484205919459
-0.05488861839584
-0.03382714535410367
-0.01834605805460834
-0.02568454584504193
-0.04122715990738206
-0.03601208484529073
-0.04870453274132776
0.005173157692038462
-0.0289841820699509
-0.01357555458377493
-0.03365377186416778
-0.02748597032024476
0.01165738722682499
-0.0104387922469889
0.003234075109159846
-0.03498012946602799
-0.03139233207674672
-0.03464174610661898
-0.03599261484507397
-0.02009277228148691
-0.004082600105963074
-0.0002334408618607359
-0.03557290216053406
0.007158360856656313
-0.02658911976313082
-0.01778746780945017
-0.02642215625375769
0.003449827466566619
-0.02964142357122724
-0.02099339509265132
-0.02591388696126926
-0.02754968549343409
-0.01715483565397742
0.004115742090721868
-0.03483515715109961
-0.01602660726184705
-0.03568020218572067
-0.04027050894760151
-0.01636831278401302
-0.02471561936168959
-0.004950873242008644
-0.007296295896967851
-0.007343604191041223
0.003116818505149208
-0.01506792800481866
-0.01677648475947278
0.0008381937163115022
-0.006960189794555192
-0.004482947142561988
-0.03903732403925494
-0.02915376923497852
-0.0240318395222176
-0.04080190189801954
-0.02532867723238245
-0.01559337926325279
-0.0190428606939992
0.002871233901036747
-0.004007358581452274
-0.02393052434542929
0.007777954406818848
-0.03525005548655012
-0.01304722052398362
-0.03228191621474251
-0.01565220428614597
-0.01216216817126754
0.0002514117510084224
-0.04212136514859803
-0.0103891623603121
-0.001726490636968442
-0.01297127101444747
0.004679356278175241
-0.01341030194792173
-0.03115580817324079
-0.01281705769152133
-0.01900410665456637
-0.0007909218570929828
0.004725386794930845
-0.03450565670725372
-0.02036370071266367
-0.003625653042552143
-0.02556503544812295
-0.006220281626415736
-0.04191736762616702
-0.01145014107914308
0.004469345919710203
-0.008640253986850952
0.009846855272029316
0.002024155806437888
-0.02902891850578546
-0.02521823482242259
-0.00768665752984661
-0.02507779231625698
-0.002174529568102438
-0.03305251654663651
-0.005210127569740157
-0.0231449193524121
-0.03278431189761142
-0.01182354133248941
0.002021580848575186
0.0007424171704216126
-0.03745050106377829
-0.004363419105109807
-0.02153553498987297
-0.02794440047006799
-0.02927274442555811
-0.006613632109537525
-0.03244283434066626
-0.0472875549900793
-0.0152440176469486
-0.03018104857300555
-0.007100499278753543
-0.04549425741120618
-0.04007348231533032
-0.02375293163644058
-0.004225263756828329
-0.004095717827796001
-0.02439176355083401
-0.003008066520705298
-0.006363621214814488
-0.01993417059050803
0.009033057725489612
-0.02995914633942778
-0.006271703084499666
-0.01068784766245127
-0.04450717140171059
-0.01651648020381823
-0.0424777630945272
-0.008010465053759373
-0.003301252976708829
-0.004840974362086031
-0.02567973831533198
-0.03712449646518308
-0.02073849332274831
-0.009855219227291911
-0.03538139225574919
-0.01184021199948869
-0.0179081465273511
-0.02034982834311552
-0.0161478734529303
-0.0324427922719341
0.001484442815457038
-0.02150664609091902
-0.01896168266882612
0.007698294830060328
-0.04382978870802062
-0.02286805938089021
0.0009298973068482435
-0.01442389160942028
-0.02980259252195392
-0.008662194087825457
0.007016772266438241
-0.02726478461829294
0.00355010785847701
-0.005062344893288557
0.003236773288759389
-0.03006146537633751
0.0133570687707298
0.005940175151617642
-0.02881115696953198
0.00636483253300763
-0.004153518535354211
-0.01031960616449534
0.01179161280914109
-0.03102772026657958
-0.02348440726552605
-0.02351577133326958
-0.000406553678836797
-0.002197200898999245
0.004143322564878775
-0.03383201452525449
0.001801566352724557
-0.0112627523064663
-0.008338719633054667
-0.02278452401997629
-0.01137498853874106
-0.01689384534843937
-0.0003514743340535808
-0.02683056916213696
0.01257669380505723
0.00755945943823064
0.006965302025475553
0.001893021608960766
-0.03098073744700769
-0.004688142038857914
-0.01232302207029918
0.004182014895674564
-0.04665681433507474
-0.01479047046670436
0.0004635248631937201
-0.02252112448334705
-0.02396825732230267
-0.01552378196780539
-0.0001819278569777158
-0.02141745613147353
-0.01046654052968364
-0.03651441848443175
-0.00684555837422802
-0.02348101372582704
-0.00411534340639473
-0.009311370472196949
-0.02472116238630385
-0.01920066452145739
-0.03941046713444787
0.01032605945714503
-0.04999815962402428
-0.01017090286975164
-0.02656056034066407
-0.007286437044107323
0.001893402576888913
-0.01481441783767814
-0.00291747780962381
-0.004274270606680196
-0.02246440821757244
0.001789474590143241
-0.0240821348318924
0.0008845950611714526
-0.009527620003947405
-0.04999355730587314
-0.0262171236669404
-0.01581744046039165
-0.004712565669955295
-0.01484458449585418
0.005748387637019715
-0.02152868424358508
0.01004476732430544
-0.01884992419444258
-0.02085710415556698
-0.01195694909342217
-0.007637994474775994
-0.02998678131856301
-0.03249939520921883
-0.04479696682499312
-0.001441546084266964
-0.03072413609498076
0.01344792089669804
-0.003518420437387732
0.002042550888551242
-0.01609846201550978
-0.01562047646232933
-0.008192900873056979
0.01284647324567885
-0.02390445551255997
-0.02299434862180584
-0.02064213301180677
0.01450473799495736
-0.003199367500848658
0.01675735088245803
-0.006461902012904732
-0.0608724298816463
-0.02022486425028246
-0.03038042208474536
-0.002121022050893192
-0.003536710681973409
0.01478833963575597
-0.03381467063979073
-8.483987282398139e-05
-0.02055529482236578
-0.01320125032898713
-0.02707687163310888
0.008073684525616855
0.002818861212846704
-0.02165841877907038
0.01540439832730395
-0.02996175881558962
-0.003325960107579099
0.002070501919196737
0.002518274909348129
-0.02538054309904621
-0.01789873467058429
0.02201004602307653
0.02047479478224358
-0.03630084768706694
0.03761948066804878
-0.01417878907587295
-0.006277759695675243
-0.01634259246677034
0.02107413238750692
0.002706120490524387
-0.02147403499575302
-0.03869674449900378
0.005344141401419351
-0.01635851539712857
-0.02182602759463823
-0.03658171687714572
0.002746472628704368
0.006256089717015867
0.01383853428243521
-0.02141033229668651
0.0331901457887591
-0.02846197657454409
-0.02960208894448909
0.009748698102623514
0.02122684904578611
-0.007409474384619055
0.01794543114066372
0.03465420309354324
-0.01901790493351698
0.004282140044793364
-0.03388178144747651
0.001686521259120573
0.03041943944952372
0.01686891503498483
-0.008124825107083958
0.02853410260816544
0.02519833627232584
-0.008841116777736942
-0.02974147609794153
0.02025957399708906
0.02494909613369386
0.002089496120168355
-0.07433709677756449
0.02090615525218617
0.01014065773208611
-0.003684395268193284
0.0006320564888104732
0.0009589806970526078
-0.003856447173554062
0.04158261278250942
0.01577770259596352
-0.00857936715652576
0.01146784698722494
-0.01521511430080098
0.04211233620387982
0.02724920875832051
0.0251140887398992
0.03150567481119283
0.04297272060314005
0.03955469079573164
0.04269082525267138
0.0413965205072469
0.03256244478413262
0.02846673525955691
0.03945200535268639
-0.02468231942956129
0.07579992084599491
0.04293939168851265
0.02918376485221974
0.008002824439332073
0.0206756557118795
0.03236070441527392
0.0235973268533475
-0.02153232427115826
0.01977860643100393
0.00356053927575782
0.004935765111188027
-0.001543290633857204
0.04462767711048905
0.02455440474252326
0.04729953166686077
0.0189930372273849
0.01208344612721815
0.03886501322325514
-0.006618815678747995
0.0250844509145653
0.06233022524162972
0.08376293938985241
0.006070313930978508
-0.00974402288524895
0.002877558583231042
0.01830727044831325
-0.005548962708451366
-0.01462316122890126
0.03412754052900095
0.007712090729398513
-0.04456246411862268
0.02756872144706092
0.01336549801094018
-0.03569697873220643
-0.01151949376608865
0.001678237858823831
0.01942072716246149
-0.01604111734538596
-0.06696759574320409
-0.0362247608794252
-0.02294495292641889
-0.03281868790992283
-0.02648691112087568
0.01268387694601925
0.02460798728314621
-0.01653388391770954
-0.02969531824289671
-0.0084315261235686
0.008645217816350297
-0.02290315287020997
-0.005416944498442009
0.02892505240600423
-0.01014801511775909
-0.02579807786988092
0.01657948495481981
0.01524014058874696
0.01242474041275246
-0.004965996431628525
-0.00453372443948788
0.006710739866645873
0.02672817793166975
-0.009823236501261264
0.01456492108776506
0.04313970210464709
-0.02795512014862189
-0.002538194524717852
0.01185410632812931
0.03380429876913381
0.005698215211343705
-0.04423719521247414
-0.01482698397087564
-0.03514158592144514
-0.006265570813935304
-0.005068526391539738
0.02667433666104937
-0.003109559787543441
0.01704620665933018
0.02019273120294929
0.02193324070981826
-0.02042453902893268
-0.02806553092477439
0.04221649432592769
0.01830242214637645
0.007978891404196194
0.02233291865403158
0.02758214666149711
0.01415316527198095
0.05269459350741622
0.03777837211642994
0.03758553416943618
0.05969129400857865
0.04033594059641213
-0.002105799923900838
0.09831632203298077
0.04561550305349256
0.02467774120366944
0.006153578951035626
0.02505416080642918
0.04666946224225626
0.03253452912886731
-0.01536532429197589
0.04515921209632352
0.03851037786770149
0.01968342246405824
0.01411722107335229
0.03572477165194322
0.06388179511762847
0.04847981031612952
0.01622607739102682
0.04536007436760595
0.04473083671394153
-0.01121820869360735
0.03381398123529857
0.04240746771506911
0.07600761060238566
-0.02336220609308083
0.0001834134850237097
-0.05281995651563933
0.03016153018165871
-0.02187738098529193
0.02164318575217364
0.03064629316465308
-0.0176400358596258
-0.0303502948504202
0.02710237126196878
0.0161998452401084
-0.03734676466252641
-0.02471585466317081
0.01249757677566017
0.01132653888310788
0.008120470383253706
-0.03516676596202385
-0.0154330763478875
-0.006262562044575083
0.01116335579832302
0.004364971652353982
0.01563827349388669
0.02047416015140443
-0.003886790858038077
-0.03153573946759155
0.01582702430975589
-0.02111300549498572
-0.02344809388766195
0.0007669464525437727
0.009416933368388994
0.01190117253798044
-0.01860517734163617
-0.01104584162469492
-0.01297202536981308
0.01171347908341322
-0.03344881342662955
0.01543894835211234
-0.005084736164961579
-0.01745263518752874
-0.05012733375722334
0.01037716918850021
-0.01435157482081045
-0.02969204267146941
-0.01627359664315049
0.02136493221041123
0.01542585662164041
0.006880528014841254
-0.03238411737795955
-0.02260256196500863
-0.02872468797079813
-0.01697847205196016
0.02167789278227959
-0.02532429052560298
-0.004098361321962111
-0.02366171244251402
-0.03067910956292795
-0.01787040413259769
-0.02503809112899795
-0.02348695202753455
0.001134227632444484
0.01489823413044859
-0.02609929187379844
0.0001147801403108701
-0.0131170181036694
-0.03305754626608501
-0.004084589911438414
-0.00700421781972478
0.02029951621494009
0.01271534649954787
-0.001170679130249678
-0.05276025145951914
0.03838286986569673
0.0119335943549149
-0.01401867210852992
-0.005745531117058424
0.01483731059297152
-0.01131508383864792
-0.0002217772311794399
-0.05737057629015694
-0.01264754347590973
-0.04690581061816557
0.009506785412099813
0.003251452891809085
-0.01056208329678451
-0.01032437356218249
0.02226468989288387
-0.01856112593104317
-0.02619925849214564
-0.01048699888467071
0.0003798654398724951
-0.01680607624135116
0.01321869346549852
-0.01367424745579859
0.005854326396015338
0.01229096771079908
-0.02710009224859323
-0.01136989908611477
-0.02158512489973779
-0.03031877524377778
0.003442371219646553
-0.02682690720067055
-0.04271600684847073
0.02789769093776555
0.01196257683283115
-0.005863994995194251
-0.02574563293811167
-0.002413428314983581
-6.945069448163106e-05
0.004996586636703175
-0.03169633252500873
-0.01497781061616665
0.001341844858615602
-0.03477617706592227
-0.003629065431558655
-0.03856946840719452
-0.01000487490639132
0.008825879922501364
-0.01210870868298849
-0.004587880763310586
0.016213803122407
-0.02222957503549994
-0.004915078847177686
-0.0007622847784736526
-0.01500931359677784
0.002591144597113526
0.0009368153996409741
-0.0461974781097612
0.02115850453286793
0.01074842398851595
-0.01137105158703166
0.006150480412996101
0.0168603707528288
-0.01801088605215001
0.04162168728090754
0.01304958844314074
-0.03621877865382689
-0.01380959629223901
-0.00232151185112134
-0.01982394777701033
0.00651083025916555
-0.03220036772367851
-0.007134986406568523
-0.03105301803496285
-0.03933097584580248
-0.0006669084782834266
0.01660274844510701
-0.002971192408720718
-0.01669158255973668
-0.04674401116965216
0.03383073642768331
-0.01703944224494922
-0.02090843442048885
0.01441551237780022
0.03884176554616452
-0.002065639546915537
-0.005043140189887729
0.03324664302876164
-0.01087186252486188
0.01475911350269201
0.005481495544422389
0.0158668478154842
0.02277458004007612
0.01569367526073739
-0.05386471630880778
0.006571750208044592
0.03387527869309239
-0.00376326800076795
-0.05151895110402411
4.50296606870983e-06
0.01097342820043194
0.01847970582281273
-0.01020574172727699
0.02677322951742876
-0.0108959240042367
0.01565689986532158
0.003764736767847564
-0.005408942869172341
0.006463293233895222
0.02229540057293733
-0.03426702580380207
0.04155099219681938
0.008778595172323024
0.01295165707166852
-0.009539866992540509
0.04516337907129533
0.008166932186651767
0.0212345815936484
0.01722836540086741
-0.003163442383717519
0.01344633878806539
0.0187147947310138
0.008893385381984729
0.06007220896404515
0.03134528185470867
-0.03234386870262561
0.02530480033461618
0.02496213173896562
0.02986063143322256
-0.02175973663135336
0.04154362719639863
0.006104310864407807
0.04848901748984638
-0.05155448959413519
0.04195250412081161
-0.02791099185284219
-0.007593697372567484
-0.009164751760297423
0.02980186863973708
0.02893947099552761
0.04326767555397327
-0.004229353307344604
0.01562926793152189
0.01794243285122614
-0.004325878677131318
0.02165809554708558
0.06359686897826296
0.05521123445136361
0.003596197926055559
0.0553836045887983
-0.009831507627144964
0.0374354777755236
0.004756069241033603
-0.01640816275297321
0.0295436950530153
0.01642819431961181
-0.01850469174474416
0.04271764531697674
0.0377227982175945
-0.003131052631521004
-0.02618330793787678
0.05492938847072309
0.01900840621974976
0.005878302160288542
-0.0005209954700525129
0.006676146950891072
-0.004182792250100753
0.03724752999054336
0.01001368482860383
0.04426837858475394
0.03635526744499298
0.02329589569139653
-0.005216848820096464
0.02399451871275372
0.03020477621096971
6.145991374040205e-05
0.0211301587207497
0.07280017277586587
0.03304086149338514
-0.0421681593938233
-0.007896214657107842
-0.03804737936528622
-0.01537149010147908
-0.02499747856031896
-0.02760949915011146
-0.01610943856635615
-0.01183418373174089
-0.02056538976275415
0.02858949260008447
0.006955494276199507
0.002675871390941875
-0.04013114130568109
-0.007422723925959499
-0.0212084728216877
-0.01088669608413376
-0.06342964005670709
-0.04243625392234408
-0.0541145111997312
-0.03826818569305836
0.006884115664954439
0.01220739769296063
0.00473035257821619
-0.02400944915219588
-0.00767240816609996
-0.02448949936462614
-0.02056009529228351
-0.04889330734492379
-0.01275894642915929
0.001919640348961038
-0.03959350281343649
0.05542304673984687
0.07676241318592966
0.06715114870743867
0.1041186479942865
0.0782199627518612
0.07824048998643439
0.1363854308244962
0.06059094191605428
0.02710902047030255
0.114256938579013
0.1440620280377578
0.0716628678208755
0.02722974543794719
0.1215594567046851
0.08191413759614782
0.08788514282773947
0.0293292308561889
0.1361492889235047
0.0660244806892486
0.04462738686753936
0.07668302972021594
0.08395940903720707
0.1051874547105264
0.07864029502603419
0.03366067375718564
0.0611055969919219
0.06199764655814592
0.09160678444898375
0.09701013991448666
0.1658565276422683
0.2247053114022849
0.06041316638454274
0.02303100677612815
0.005292492272291669
0.04827394670637657
0.04000869731459252
0.04146741659469184
0.07857872543253203
0.07830882317952713
-0.009155543797822154
0.08078516755402387
0.07135737259247256
0.06238160144803058
0.01324290327634002
0.03165498634745224
0.02175180759640569
0.03029030230098854
-0.03162572726501875
0.03823771758844875
0.01576850927255453
0.02500900974268103
0.01094573316403131
0.1006352849065263
0.04733643315447048
0.05627008071761057
0.002603889955951298
0.0525653696671285
0.04738814565248523
0.02066383672482562
0.03793332296164346
0.07526429974172864
0.09659663470493778
0.0155445921919964
0.01169327592170461
0.002200418269347446
-0.01078470702970637
-0.02197785207350203
0.04082911179220679
0.04101148190367915
0.04315959879295218
-0.03895704499734191
0.03882627801604047
0.02890570989975557
0.01549688587015895
-0.004585265659737897
-0.001972607168803943
0.007453607660416404
0.01719827130107356
-0.04180720807535053
0.01671600460075699
-0.02061147186685671
0.01197984363321125
0.01043567922624879
-0.002271343322401859
0.005153278652895353
0.02285340198669702
-0.02057564062327388
0.02826769734072622
-0.01179296784442079
0.01296800875431942
0.04120103663817092
0.03332646989040829
0.01826466671244631
-0.000104865234480389
-0.01196313982754954
-0.04522705884514413
0.02894928727591478
0.002676735953400353
0.006927738106653853
-0.003811220710247711
-0.00149311233076067
-0.007194319792668815
0.02284774350111796
-0.02964722447455794
0.005802409348445029
-0.0202293953097579
-0.01342068121928782
-0.03757112024710729
-0.0301735533861062
-0.02684081453725621
-0.01587284108894109
-0.03174805855493262
-0.03321578959798549
-0.03536377786439839
0.0007696903250649256
0.005069557532175546
-0.02844820594672894
-0.008371101925626767
-0.005966016790960185
-0.03437885290701662
-0.00909044213313967
-0.01319766895156443
0.00237617822792494
-0.04622566630173783
-0.05231134239978318
-0.02666151081988482
-0.03601748808523374
0.01524980714620566
-0.003491225118498061
-0.001761276461906384
0.002319100068424936
-0.01251164641897371
-0.03251380916237304
0.0002459193057616506
0.01147475773950406
-0.01969057917952504
-0.02089628273624398
-0.01861973220539568
-0.003706865664897861
0.003983949071153024
-0.05550177821678984
-0.04850013419623238
-0.04563586741350752
-0.01804162693482095
-0.02732399302127444
0.01302622751967329
-0.008619408142926109
-0.02263413593643245
0.00543070163129541
0.00656810886092069
-0.01945463491392804
-0.02118401214733384
-0.02916001876925307
-0.02482511852455677
-0.02037188118586758
-0.01793053868169551
0.009887539655103134
0.01810680942594897
0.007435530581781638
-0.008809572306079297
0.02530083611890328
0.04603244279236961
0.03478898886892376
-0.01916925318999601
0.03362444349128574
0.03689618778983721
0.0114317420843511
0.0139128034383945
0.006793005097608098
0.0132005770916167
0.02862432459954997
-0.04044599079144389
0.010191766180636
-0.02779718148886695
-0.01456973222332475
-0.002797733006576145
0.01535395846963473
0.02982564281935899
0.03404590653349866
-0.01941585390744876
0.01110693246247254
0.0001895175023065007
0.0215025935013046
0.02454860951525299
0.01358297068811121
0.04966438406330677
0.008887174960078801
0.001122861124211778
-0.005374593270569362
0.02510864719541653
-0.002773362489778273
0.004176118944853585
0.01208113396056776
0.006978291808956316
0.003196285005532006
0.04490448934256704
0.0002676186338576688
0.01588662754027639
-0.01282946195518709
0.01831519053283618
-0.00353302967209775
0.009003550496869605
-0.0228137507872719
0.02339802775862482
-0.006167858696282897
0.003544706495502437
-0.0139503903940807
0.03019360373043139
-0.004267485971771743
-0.008205353589979109
-0.02595972115471725
0.004416565038092274
0.01064375888206603
-0.0340572752927115
-0.005410158375509943
0.04030754911896105
0.017269894186812
0.002278803019014526
-0.01124761747105162
-0.0177483215978279
0.02911936986166595
-0.03479377141575189
0.02291015674894922
0.01094717494342362
0.006647161388323226
-0.007177802018417354
0.0002568028401221366
-0.01279823769808662
0.007854697412712084
-0.004350485323967461
0.01284652972703023
-0.01081344536671375
-0.01347199312503775
-0.04817103159817791
-0.02895845863326192
-0.05509521034846196
-0.04432646478663792
-0.006178203418428055
-0.01502683985892622
-0.01492740255227018
-0.008739331333058145
-0.04004912086541102
0.02744415811725141
0.006887973768325015
-0.03839115634735892
-0.01507869327689551
0.01938622227646703
0.01094357953806013
-0.0004896243830450265
-0.03612891201089852
-0.01401074351351986
0.01051504953020576
-0.02721331459634706
-0.001986513385223007
-0.03142233839064752
0.0303482126865732
-0.04714234061924197
0.001939092062646144
-0.02789431108837499
-0.02186460242677218
-0.04587313217314283
0.009367385208732879
-0.004413801979554268
-0.008673708228914093
-0.01157442269103052
0.001600658621562042
-0.04355893242078102
-0.04545351494189051
-0.007906780325562615
-0.009742942356814211
0.0008022437839190358
0.00612543348879674
-0.0007170599899637073
-0.01789608011077171
-0.00561838595725742
-0.003516381673802196
8.668786780887284e-05
-0.01322794598625876
0.00445588773481002
-0.02213836354951032
-0.01247931611780241
-0.01941424318439358
-0.01468032106484875
-0.03676738404243865
0.006172544803843332
0.00039074221919544
-0.00742655270314766
0.002511049004722609
0.03267893828309062
0.0052402041109732
-0.02327558801976937
0.004299751726410434
-0.02130111823395473
0.009920361690149414
-0.01798870128083947
-0.05303253804642398
-0.01176343252730883
-0.01646140589210308
-0.04518277994305309
0.009605714500880267
-0.009776974539381589
-0.001166374563538418
-0.001144831842809955
-0.05601562981128647
0.008488673350502083
-0.01787173812529393
-0.004458674555013297
-0.01108142598383876
-0.004666294404721693
0.009721984143918861
0.0005900036405158679
0.009428224584031223
-0.01839322085531699
0.05543752959974067
0.01167543747064394
0.02106261781443002
0.02412905849592745
0.04318668046508856
-0.01370058941413078
0.0698595701657206
0.003269557913053058
0.01846898737446873
0.002367026695999583
0.01809200285177868
0.02431049954501029
0.02274116399742447
-0.04739410460706896
-0.004039977860570634
-0.008915770440981565
-0.01288303623275055
-0.01871495608513982
0.03884230358830776
0.04152249631222985
0.04270150047451204
0.009652947196027927
0.04284794852053938
0.03548520692871909
0.01983267708840429
0.05192883661298984
0.05775113959785598
0.04512511146503696
-0.0145760087791853
-0.03357549550498903
0.002065988249881412
0.009986716359512858
-0.0134800358270639
0.0127103301217999
0.01854743996639873
0.004244581414524952
-0.05341219581715209
0.02691356832863401
0.03852791349087753
-0.01552020963033062
-0.04904707642482251
0.005343669006876803
0.007385092049385832
-0.03448185242203446
-0.02766580599827208
0.02041522335209534
-0.02028659974604078
0.01424326830708594
-0.02495917479696689
0.01870642172587725
0.02291388990694639
0.02072872743428058
-0.01385837032087075
-0.003094356770017799
-0.003081866356145547
-0.04091633017198682
0.0005061460380685045
0.03322087666563917
0.02029562541606634
-0.008288820701586415
0.01910389578422302
-0.0136905988789486
-0.006708121819784666
-0.01641520779207187
-0.01024042577049689
0.0190521490347255
-0.009559834210631796
-0.01755329460194536
0.02034686392576848
0.001862656058690021
0.003259263137400808
-0.02121827751836904
-0.004612742275235238
0.01006874336919972
-0.004756236279592927
-0.06534667046175439
-0.001449403369105708
-0.0472613304757479
-0.044538021776119
0.0009398621963309828
0.01760336810665986
0.01039314095069096
0.01993281925467105
-0.05609360839557297
-0.01293228621983998
-0.01992601126071151
-0.0422934478011243
0.008718131831484286
0.0304808502904512
-0.02662255212235767
-0.01975610871625075
0.02207658237477826
0.01321420383164492
0.03728275841775711
-0.004889759733796152
-0.01190624792621691
0.01883812476193852
0.02156775797086703
-0.05095750670992956
0.06343911810917853
0.04188329605632966
0.01692505209150402
-0.02593008263902673
0.01529415040027656
0.02152435856133479
-0.01227920273761641
-0.03998405043028755
0.01138611710295656
-0.02116931048995762
-0.01650009581289555
-0.003443536831006851
-0.01976083300152744
0.004873762472417545
6.781172633618811e-05
-0.04058301754307527
0.01269218919071862
0.02248930532666887
-0.01568092894461451
0.002538839820437174
0.04309811118315808
0.02289590603222576
-0.007817950558347758
0.02469226651674293
0.01124302746679739
0.009101186709094745
0.03065552179818331
-0.0113530869484605
0.02415538661837815
0.009378672668479015
-0.04176182175977677
0.04789438684965673
0.02078604596356979
-0.03354201093778968
-0.01497483959988683
0.04737998952661893
0.03268889911590219
0.001551279041342775
-0.02924140624010346
0.0199456515295383
-0.007722421121912761
0.006785067475270101
-0.02241146331770945
0.03686365271637383
-0.001649233488834901
0.009420025318449227
-0.005019462122778305
0.01788582707765547
0.05426222311191452
-0.01978783536475168
0.02254525736953849
0.04152817697159545
0.007763980355996784
-0.03843236496551321
-0.04749018792096718
-0.0009004317671407737
-0.02638764184815736
-0.008568249717102202
-0.003102390610921818
0.003966767193784096
-0.02889424234160909
-0.01790478228047569
0.005498623555514387
-0.01307810555735767
-0.00969980027545574
-0.02702393591401859
-0.01249718861933472
-0.001392799945482454
0.01200387010730906
-0.04305331325676189
-0.04128973789977751
-0.04120112508161602
-0.0398419579595526
-0.01641184175596684
-0.02374787579611789
-0.02871758143013191
0.003961710877671819
-0.006433612826581128
-0.001894034265417661
-0.005571958980151229
-0.04139258610891651
-0.006479413629525096
-0.01060329803855507
-0.04700088686028771
0.01114398372591736
0.02246888206022144
-0.02463847398724902
0.04407312301988353
-0.01710362516330065
0.02937402003220458
0.04594162092111227
0.01986354133725686
-0.01846406928669967
0.04521146927018622
0.04918500545327756
0.02321612648056118
0.01501062821985456
0.0125994208019809
0.00232805023461496
0.02625604442824936
-0.01491669923037674
0.02130888625605522
-0.03369897483650301
0.02621185595370712
0.01947900239055157
-0.01860641742872293
0.006182581716892076
0.02906689978966843
-0.0294476799096255
0.03210595816809227
0.004388574329677084
-0.003975184400011401
0.02804434218207973
0.04473622111241211
0.05614841983892935
0.01593306782227873
0.03021532715131533
0.006019079643091118
0.02641265211883871
-0.008216432161683645
-0.02241065368902668
0.01820024313331075
0.03933465053106444
0.01142094966910053
0.04252185308840358
0.03351290013222254
-0.01740994230719388
-0.0263747467147772
0.004277842102598832
0.01330158734354258
0.009932128457947657
-0.01875012645730045
0.02507565861680881
0.009477899484500377
0.01584340231395746
-0.005342194069163956
0.04089617081008747
0.03838206354772653
0.003810756749109138
0.01012123106786606
0.0429106026380441
0.01113600218503391
-0.03748769877034805
0.002550689556578847
0.04113709412171842
0.0284802747373757
-0.0009847715243702167
-0.003879548454876807
-0.04527859751066043
0.0164008031696535
-0.0340269092279132
-0.007608471144161439
0.01283924195533044
-0.02540202677618353
-0.03131669426487835
0.02377497038893887
0.02662814216107873
-0.008354184163473093
-0.0293375530050095
-0.02281255405268465
-0.02002520815542085
-0.04041674557442718
-0.02528397435594534
-0.04165129810573752
-0.01899758877898459
-0.01071859948749971
0.001923783777110848
0.004047374792527617
0.01169886277020298
-0.01778616141261884
-0.02426956146105397
-0.01030874561231411
0.0004540147067168772
-0.005852524392379951
-0.01316675001687306
0.01547500590864665
-0.02194293835607164
-0.005130040655165758
0.03472614270337965
0.002265309002442583
0.05839930429750777
0.02549162488651328
0.05775829830730175
0.03972084342806222
0.05022945190174433
-0.01224492425507144
0.06554118344210641
0.05843697422715894
0.04341713703286402
0.02892948376512589
0.04378963879837198
0.01427265045418419
0.05394792652074012
-0.01190909398462415
-0.003303309947642665
0.01698425119028836
-0.002386219211348301
0.0348790406988285
0.02557517899425986
0.04702748652483497
0.07432875471090122
0.02912318536810567
0.02762746514611007
0.04609578222928454
0.003502363563898138
0.02647161766750956
0.06325450641287916
0.09335061097860498
0.002224999318230898
0.004109280211997539
-0.000524310835190227
0.02373524304174276
0.02693777580872961
0.01763763801968726
0.04038973397973975
0.05618546212783469
-0.008221886190314666
0.07414509059446069
0.03619529521740731
0.004455012753579304
-0.01265811448040553
0.05909648931389509
0.04110542501693398
0.009362470213816693
-0.02874145839307336
0.05543360658692858
0.01112172867424507
0.02132447523192652
0.0296598820042422
0.0146939459335153
0.03881379118662517
0.02803792420506394
-0.006440115771541771
0.03664953105237961
0.02699883437971387
0.01740293884267605
0.06481785514996574
0.08567796992374033
0.06311862107294068
-0.01819525065320891
-0.0006034985281215223
-0.01331711415831609
0.03249850597878026
-0.004147850046644781
0.0149686698269356
-0.01923270546156466
-0.01627480505852219
-0.03120374118214572
0.04536230584342233
-0.01043732438452058
0.02379437066730515
-0.007367371404082442
0.001115407181573467
-0.01242915077393464
0.01965605000539736
-0.02246684785778599
-0.02212654453691332
-0.01232265707359845
-0.00650249053302454
-0.00491466459190993
0.02119815174457875
-0.0009324848144354046
0.0001388382649854823
-0.003363159462187077
-0.02044143910623375
-0.02158252321609432
-0.02585992564788961
0.006162694300038632
0.04678633123421509
0.003284046074583223
-0.00634296376882483
0.009102929338933348
-0.03051015349546823
0.008904477761795671
-0.02328078428339231
-0.007353970830111185
0.02659509268816139
0.003092729612852914
-0.0007516524187833108
0.02530686134726991
0.04004143162508387
0.007438232281762032
-0.01923975119735801
0.003631595324780842
-0.01458245493399652
-0.005439717964114884
-0.03993871111551683
-0.0200204129712484
0.007873281974096594
-0.03519179308079028
0.01352475892089623
0.02123490802931163
0.007638194947842572
-0.02538054384598268
-0.02230625747647819
0.0190867528936995
-0.002029871927091157
0.01016909675590298
0.02339425484834097
0.02345199856470484
0.01535122630954041
-0.02754081346684341
-0.02630592144719998
-0.04338734918250634
0.01962179081852404
-0.006443261087257356
-0.01016799510768272
0.01188625268760832
0.032482429862383
-0.0367760135363505
0.005830952324896545
0.02562969275164729
-0.0003298845047655023
-0.02222113135228359
-0.008458669170240407
0.004122376371809238
0.005745522361607019
-0.02934837312761658
0.005930403302654332
-0.01382534466218262
0.005123994865582206
-0.009249970956174242
-0.009712083406589045
-0.003507725814826614
0.02233988530120274
-0.01511255210067415
0.01791986386689731
-0.01096594878856547
-0.01426174727702472
0.005566379853798688
0.02419383713372055
-0.01805667157267252
-0.002547082231684009
0.02545122954585768
-0.02077630100205576
-0.0005299766000661824
0.01661313640606837
0.02080047497309242
0.03991374885714367
0.03801702389954197
-0.02869388200777953
0.0696545684934041
0.04243306831730629
0.00146948720546216
-0.02837530853851248
-0.002171420146302692
0.04136247096986224
0.04868220355026855
-0.03003202979226205
0.02392779391585841
-0.009934427337458439
-0.005515425991678998
0.01209756863192611
0.02277586523453945
0.01537465273292685
0.01096747603990199
-0.02099861007335822
0.00787430416963145
0.02825802505930026
-0.03708336782347871
0.05229017443767015
0.04029685226375097
0.01145740510960563
-0.004459164393327939
0.01968359320749943
-0.02511467612528449
0.02367703360933528
-0.0129671402503853
0.01064273966118726
0.00881623354801868
0.01833260194131207
-0.05624294223269471
0.02176240754398637
-0.00268105775749452
-0.02399615149921059
-0.0127671658180264
0.001487809160933006
-0.01145752610579938
0.02705281883923161
-0.0548968876747743
-0.02245267143067803
-0.03546644027597069
-0.02912286960519843
0.01657077826222183
-0.01478118708089379
-0.01366681884449773
-0.01267255372732306
-0.01230280475889056
-0.007799852540241663
0.01949581259627265
-0.01147338954951512
0.01024809323069691
0.00611056527242486
0.01482401288349995
-0.05451437665130076
-0.007671708854133677
-0.04505124831973555
-0.01944608239410348
-0.02877873456020969
-0.004702259677146155
0.01313226035229963
0.0216293799249263
-0.01736796525801583
0.001580823592744723
-0.02281143769359211
-0.02425148585554404
-0.0601518229272548
0.009034039549355369
-0.01456522047349289
0.00280113293472699
-0.03478900655747583
-0.01507221849804064
-0.05226056436487712
-0.02955488277849094
-0.02370087770981608
-0.02365558908408997
-0.01304463397873344
0.002848251620258111
0.001066595568886234
-0.01948690552003338
-0.01657153556755119
-0.01599637321289183
0.009373821803602111
0.0152764571818153
-0.02561670133342962
0.01444066057730826
-0.004848622385996933
0.004182544895261373
0.04474186796049554
0.02256844682583821
0.01259948272765422
0.02924555563867691
0.04471585960902301
-0.0326351325886889
0.07388860753967963
0.05859630528673008
0.006196190480773468
0.00603687308145892
0.04816458583927468
0.01654159590512566
0.03458136789612763
-0.03501444006312431
-0.01771584666692859
0.007353200749974456
0.01190901123418033
0.01609074353660963
0.006227283821994403
0.01349323849744339
0.01600244709349567
-0.01859675500901806
0.006685634380738803
0.02759101628623241
0.01286387572263529
0.0007972514988405417
0.033552789243594
0.03080317058742197
0.008194405494932161
0.001899104866278322
-0.0228371162974685
0.03451308964008504
-0.005682093576273608
0.001169488098176692
0.0157184563473783
0.04008768185278051
-0.008249354316337628
0.02585033620875534
0.02752969687978366
0.005241550426324333
-0.03244427763629423
0.0006980198521402664
0.04016989677793227
0.02271638668686646
-0.04984297123189058
0.03340554256220425
-0.003383131756021458
0.01833238488804488
0.0122453241336691
0.04754374862111419
0.01013560293608706
0.03585666120058199
-0.02581710838558842
0.04364672336610657
0.008018295738618626
0.01313091723301102
0.04158494574197841
0.05691423633437375
0.01985893882795207
0.02359205062779379
0.0337205331461055
0.01748918244896527
0.05362490909693921
0.01754278329725567
0.05269157679382544
0.06123116520971168
0.03230292667795068
-0.01114013274874674
0.0759088970827539
0.06803113841059762
0.004171665067214503
0.009379020550453769
0.03850957936835964
0.07015917794072883
0.039609107097493
-0.04881293637333433
0.07441194768019302
-0.0217187367439006
0.00271077218109906
0.03303853207947219
0.02532180539464293
0.03702615989983723
0.01147995824911701
0.002469576302206605
0.03062495288287704
0.0693586480860401
0.05013382392047892
0.02893077030804152
0.06670373387968136
0.08138489093876319
-0.04053918117152583
-8.103482546584677e-05
-0.01975970225405801
0.006088480356759657
-0.04473209658372154
-0.03389329143550745
-0.01397683801037372
-0.02071981941485072
-0.01927094535340755
0.01777072569240836
-0.02604985880739318
-0.001810954158731955
-0.03303035148035391
-0.01073544245561574
-0.00244731496004379
-0.01731292171715495
-0.03476170750282417
-0.009649531305853155
-0.01576206792809805
-0.004906581752198974
-0.03092905361833702
-0.00246228734922754
-0.001306954018093313
-0.006262725655467163
-0.009158422687670316
0.01130373762127233
-0.01589154644423659
-0.00586661241308992
-0.02122847203632903
0.02348678681555736
-0.05184567786252051
-0.02649742709017453
-0.008625441006824386
-0.02606525032071446
-0.02150712059370955
-0.008787914245736527
0.001544181742646898
-0.01316256912956946
-0.03799784553233006
-0.03989670982114268
0.01164465085815115
-0.02923720583162326
-0.03158423949250271
-0.01461638914960816
-0.002386185568945864
0.008925741179239862
-0.02985385659525096
-0.05569930293709895
-0.02265755830770722
-0.004895496058869219
-0.002573602943679422
-0.00353102273504397
0.002728584802603495
-0.01050550825108474
-0.01479449290127007
-0.02695914033021963
-0.01581310006346374
-0.00866019225622207
-0.05103401485452704
0.01014450861636415
0.01667045144976508
-0.05056238420955032
-0.03437031650696126
-0.007897891174290158
-0.01846654020679449
-0.006812626320627516
-0.02392404724275201
-0.01060800589613061
-0.02127222716881783
0.001155407885172729
-0.03076799079136519
0.0228597039367081
-0.004092491074225025
0.003088994228279891
-0.04356492909429834
-0.02523712159318128
0.01801979586128973
-0.01021561321740746
-0.06882002309783442
-0.0279291894369392
-0.0340620804197691
-0.0359730849933455
-0.01835220915963382
-0.0159000605261374
-0.0003646275191605487
-0.006718220306952548
-0.01796861266461248
-0.03347353228110343
-0.02190353353754742
-0.004994572526019475
0.02406346447032811
-0.005059665557781099
-0.04462547924788225
0.04183427544875033
0.0860852314878786
0.05459568045248989
0.1043484665455878
0.08533710723117258
0.06109426806226012
0.1092550225023135
0.09720216706335034
0.0562718399863525
0.1138686057926623
0.06798968193737553
0.08117564924497062
0.07525678570124877
0.06238575674346623
0.06165372780610449
0.09288380406248739
0.01484084384356452
0.06360831151050431
0.07213310873459294
0.04367403610674911
0.04054073931790988
0.07175459686389823
0.1029668528093803
0.110487586738663
0.02823704460773475
0.1092762786372041
0.09710138140319136
0.08148891867782833
0.06775311396508056
0.1249310360539651
0.1721052298409611
0.007160774070767677
0.050601778471423
0.02221667013897182
0.04058200764473555
0.04073061164601488
0.05286608286693508
0.02759771480550349
0.04422660505960748
0.02039424866295986
0.0595309783280407
0.05693812548336234
0.02097346495706547
0.009476405871867143
0.03862488054178637
0.02824422083623527
0.05390642634320946
-0.005394550892493728
0.03422826597905689
-0.01616515896295052
0.04794605857285647
0.02664144879088485
0.05486653279661234
0.04823376916176233
0.03085729405699288
0.0373466715806827
0.03318662605317176
0.05213823645362103
0.03066131028254403
0.03356346826299516
0.04640577106814374
0.09592197112605606
0.1051853308548715
-0.01129262672876405
0.07545651879896891
0.0312225415998902
0.06712661952434108
0.122134703696014
0.03758881908181191
-0.01219046838679935
0.02084069500304663
0.01822045060680886
0.08442082054122649
0.06969303515449253
0.09920529079925812
0.08416931788359122
0.08160702221627693
0.2299745175880576
0.1644532692589318
0.05617439864661116
-0.001325404150989307
-0.007425596206042192
0.05931757882777272
0.09743834825795855
0.0666371477507441
0.0236707399708469
0.06082361612983398
0.0398016644925512
0.04117177743565417
0.031592975596018
0.06181151469717872
0.05723598671774349
0.002454749974912959
0.04076428090382327
0.0678324646155451
-0.02042618734177199
0.08793679179521842
0.02856811046501551
-0.004806199255837499
0.08522208333855937
0.04794616826374409
0.04786358209486413
0.05965722517102337
0.04102607622315516
0.09611366873535217
0.1162157557111261
0.09045887144780961
0.04662435064019268
-0.02655333419118946
0.02570602272038727
0.2431226161227263
0.1003636018350118
0.1529401770317708
0.1493645498088643
0.150431309278555
0.1792638401091503
0.09481492561158701
0.117270545173778
0.1461460405747689
0.08887189905035614
0.09650939279638965
0.1138356516923937
0.04991193307960005
0.1467657612545926
0.1603867668528246
0.1571918576809795
0.1804942494240495
0.05635284761923175
0.2384030419236272
0.166502462120839
0.1512472015395496
0.1059187807937467
0.11642539689187
0.1178239267224724
0.09680852930862052
0.07558941877493654
0.08797297824958501
0.1256581116241972
0.186947128816412
0.1559901945269464
0.09277956665715506
0.1169375165920792
0.1532586729872479
0.08408660629545936
0.197302768664823
0.1525486515668029
0.125785825419098
0.1562860402683265
0.1850300408205419
0.1392733034865775
0.09724829783537696
0.1149827401845872
0.1377377665459584
0.128824076165251
0.09791726841514557
0.1668842532437834
0.1235673686926095
0.1790845314375555
0.07719600144325582
0.07207752381103073
0.05737999995734334
0.1688624484870969
0.2381774925173697
0.363029494348282
0.08464402349269073
0.1444615454408657
0.1493803640509012
0.07114518040932399
0.08250357264843168
0.1502651593367119
0.07879351940113853
0.08343315943693039
0.05655434620694068
0.08467358212131575
0.0898151726045144
0.09817431863009503
0.08274016501261526
0.1277271214510949
0.01255565750895188
0.2429425828028845
0.1873248777063606
0.0949573231303297
0.04536360526527568
0.02974259048719657
0.1010264150797119
0.09903397675782896
0.05400258633794517
0.04342426386463706
0.1134493877280949
0.1192235587542947
0.03615929940602788
0.07078749472770246
0.1212968163787547
0.08183771546386981
0.01621847884116626
0.1370924240213902
0.10133564647754
0.05512448979193042
0.1492810504398593
0.1019995950013117
0.04614632051852383
0.05958243258863429
0.03827515661530255
0.1194553399666212
0.106697687355532
0.03928911308392281
0.1293184436112279
0.1167581393491605
0.1064249192936108
0.06668425474946044
0.02674106010975654
0.09166330918618718
0.2039188498261846
0.1652527986564002
0.2340279750298192
0.1318107229391864
0.1448168903988528
0.2025305001235938
0.1393672223130277
0.1271114603939047
0.1742124543783649
0.1315905308982584
0.05801754640701168
0.10542841204317
0.06453245957227317
0.159998642297927
0.1309040643496862
0.1116956856923684
0.1493993283191695
0.07737032081315114
0.2300107463510443
0.2164325580899052
0.1793746258855469
0.09123915727173179
0.1000508564774752
0.1237305184158083
0.1219517292457898
0.1166830805201494
0.1211967028154061
0.1216400645977846
0.1369875592865573
0.1592837818738195
0.1281504557498589
0.09496379241209456
0.1424069118691401
0.1120287030198592
0.1469656118679789
0.1545852208324467
0.09710460135791722
0.1459860533678622
0.168020223239696
0.1584295102641649
0.1244719137336092
0.1032100698480869
0.1700412400913063
0.1030359546067155
0.1261746651109309
0.1509825398255472
0.1722856836632301
0.1590024190259677
0.08517661820896168
0.08245989026954527
0.1012338186509616
0.2081591542318673
0.1916739362961982
0.3440476751703408
0.1050435581313385
0.1274793794412866
0.1930550948246291
0.09738814442654285
0.05859670635651032
0.1897648191426503
0.1266041045043034
0.1125895965980595
0.09120875642887104
0.09595213828237929
0.1015087475024928
0.1297257277925831
0.1768776046346239
0.1709189108852863
0.05953116020092467
0.2238606339075445
0.1771333428061421
0.1295969947879463
0.08067136289076944
0.09915796279784508
0.1348507787584167
0.1268339501308347
0.07306774690745983
0.07155469504528282
0.07840542077623534
0.1913217009669215
0.13222654315072
0.1375939114351726
0.1197762250154236
0.1394643183416198
0.06637928022206581
0.1635315802522041
0.1166527277992
0.06598053491054437
0.223953495643871
0.1677892739165454
0.09198622361960476
0.1348945515620026
0.1351294251644287
0.1132096062447412
0.0920667497047256
0.07011468558280959
0.1458093124081494
0.1590634036402647
0.2360290788029465
0.1336768826333293
0.09296388484479676
0.09282652792115356
0.2279687202763799
0.1911130641041171
0.3249986498168458
0.02134107658354464
0.0783631816019779
0.1299540128540383
0.03663265725321373
0.09442087579579833
0.1463640957845511
0.09158784310570245
0.05719805965788757
0.04400821353281209
0.05737269028163031
0.04686098956682769
0.08933331807288494
0.1421926688701241
0.135735619314463
0.04538240577185561
0.2573160558556848
0.170493320504597
0.125425781791293
0.08580317897826215
0.0123125941769319
0.09298107534381331
0.07451406447691762
0.1090206094582088
0.03082486509189482
0.08663934607348357
0.1212975476787571
0.08427943263907545
0.05826743270325731
0.1499745527728117
0.1194936649524064
0.0699661453728843
0.09539780571669274
0.1195746375239213
0.06303256431171383
0.1604488434924772
0.1299660662579244
0.09878677935995632
0.1033834294911801
0.07763549525418077
0.1540663590122066
0.09368163167457746
0.06893461235681785
0.1197502195713762
0.09937408506883903
0.1537132291042153
0.04042834163718119
0.06385349033116827
0.042449500140248
0.1687889541143604
0.1622204603959716
0.2647386668930939
0.04169040517061989
0.08695401818687082
0.1434874074132549
0.0167522709228003
0.02006541865020843
0.0897496989689405
0.06477814847358872
-0.009803316700999144
0.1061923835512341
0.0592435119169235
0.04532511394828431
0.03148039926610204
0.1044192173083187
0.09767174811638119
-0.02850954689298738
0.1283702189160778
0.06737577788625491
0.1002874794488227
-0.01005848774483822
-0.0147907793341732
0.1064718085036778
0.06936523325197846
0.01074679654778537
-0.001300276658994306
0.001886758795155657
0.06240184720352917
0.006187192825725698
0.07218963662814976
-0.03958383024164078
0.09103458669523988
0.003170338797548662
0.1204932045813734
0.07174279356977141
-0.03765659555051615
0.1493450119406576
0.121607880368898
-0.0620925738589238
0.1284113822955721
0.05327483122160825
0.07441753240723331
0.05642906047813151
0.0477665402311893
0.08447747965131536
0.03766192875041029
0.09714003093742843
-0.0146073971648066
-0.05355131531563199
-0.04317760657333789
0.2134447866739715
0.1223137057512427
0.1540720284803665
0.1565023809853266
0.1238375542868275
0.2332910717816175
0.1328144002299552
0.1652385073002436
0.1958965548117095
0.169120549290851
0.1135629096708184
0.1529093859820527
0.1356761857898168
0.1876592649193645
0.1360799537609862
0.1708662984813411
0.1520974689470774
0.1188159116078426
0.2739077354932635
0.1801008558092125
0.1049356724458755
0.06297223991463784
0.09223352534007405
0.1528135991496785
0.1686178956527699
0.1380723801826179
0.1239761646137681
0.135959029521507
0.1387354326316433
0.1632718754926337
0.1464906671018616
0.09596960033744246
0.1551498996228948
0.1027267032039398
0.1259367080423731
0.1304650948032408
0.140843249256579
0.1816966928721705
0.1962424834780015
0.1065956865546837
0.1408777027356886
0.128379908371489
0.1230035042146011
0.1146674189777822
0.123372691396486
0.1663582668439645
0.1420608528218416
0.2181131966530503
0.1311753092871975
0.08338442345551476
0.1104711965953284
0.2781018498882123
0.1102359045634951
0.3357397778458422
0.1004560313394377
0.03727695906403854
0.117793771112761
0.12259783301365
0.08648183119850641
0.1265467093492744
0.1188255378197593
0.04555355411236064
0.1176677415544031
0.01684507493890823
0.05665373936228618
0.1191587378064489
0.1171826598029253
0.1102369655261042
0.05202399580612416
0.1558302291762844
0.1585812272075773
0.08344058429940453
0.03176179394081127
0.03912242537640821
0.1076118307033644
0.07679664867787984
0.008709965407384007
0.03217155681673919
0.07830554792425486
0.09815535954527721
0.03861248012097673
0.05424550116658144
0.02252461614298987
0.08402602402932102
0.05597653786077209
0.1210996957690764
0.117245974244949
0.07981281611783034
0.07712119243682661
0.08523140308887482
-4.119498917091456e-05
0.06960975964993725
0.1006039497550518
0.07013719465259399
0.06573864883956557
0.06762004892110034
0.06126158360679449
0.07528901301138151
0.1078146056083854
0.06138696768435218
0.05915821936710917
0.05103166156842653
0.1836446163166084
0.08615109808423473
0.1994129771325565
0.1029260570508619
0.1595489493447367
0.1388053512906039
0.1262271029227967
0.1294613234684205
0.1599444872967023
0.130752917903443
0.1217748233046987
0.1345599648855152
0.08703517584921899
0.1414554455552006
0.1781716445504792
0.166278629397646
0.1203885802427109
0.06131126637060597
0.2441664914227629
0.1930232378862678
0.1270295770309752
0.1076090350934753
0.08936180131004925
0.1766051246274086
0.1449195841178611
0.1465076252421699
0.1320428522400258
0.1098587105054623
0.1572533334255107
0.1293570384113849
0.1300264123794193
0.1158785132508252
0.1485071470072824
0.1000270891983751
0.1799330288752769
0.1315917665124744
0.1191558414619853
0.2100613730897316
0.1281311294882556
0.1267485824318525
0.1400095191369317
0.1256720092114362
0.1050051099565535
0.1455427510725175
0.1212928149149731
0.1801356910927407
0.1616477717749875
0.2057677810724754
0.1036538665614428
0.1075901424666362
0.1046349298650066
0.2293903197116463
0.154773506616598
0.3551989461618617
-0.02593461487352948
-0.1320341399569237
0.04437649073281484
-0.1598677917378984
-0.1454192072709073
0.05244111550026214
-0.002109308806911207
-0.1340072077831315
-0.06596617022146915
-0.06950784971886546
-0.07103341102576681
-0.05355763357380284
-0.100040604109143
-0.02487849974396512
-0.1430054174615283
0.1264998091434819
-0.09571042281206106
-0.06901141486336997
-0.1538205658984649
-0.1888634720072111
-0.07422764273770245
-0.06521684832379723
-0.1627692047900641
-0.1568093115102571
-0.04954018494405069
-0.1802480076412642
-0.1144871794983741
-0.02407178293378979
-0.09213618195991348
-0.0004987175441706608
-0.1376086511243105
-0.08322067377879581
-0.02869254859146453
-0.1230040439783971
-0.03368791292167701
0.0006870589448703821
-0.1868606860550643
-0.06635524069597133
-0.09160372739549051
-0.09597765677341025
-0.06342901187927388
-0.08950542218691147
-0.08143702923910083
-0.1010994951150302
0.0006148813078061206
-0.1047548858302371
-0.1252839832536504
-0.1070153842796061
0.01047532275383246
-0.01364356462294461
-0.08289203765585648
0.1079016008327628
0.1397598666003079
0.1282275800139068
0.09842507833636201
0.1177314025918645
0.1425946649270241
0.1358501434115375
0.1317236985224811
0.1011116901527732
0.1177888177682597
0.1080102212498456
0.1469987643411967
0.13141532629835
0.1340357334964265
0.1191457126824129
0.22695497910485
0.172920515234073
0.1644013000485398
0.08147923390361314
0.09968826337471788
0.1534991936065305
0.1183170588356114
0.09139032800319583
0.1375803192046428
0.1045857723333726
0.1811496444475636
0.1264319348466972
0.09271722142947579
0.1444867314047209
0.1631493981076738
0.1060753572557457
0.1572912151316974
0.1475895941470881
0.1122029072146293
0.198517319643734
0.1391746926701043
0.09306496003876635
0.09632760969243347
0.1094531561921457
0.1426093444589863
0.1406321940078123
0.09948161815603378
0.1758019075376319
0.1426135374615635
0.1873599011597587
0.1021273926336452
0.0877533345737606
0.1042971617949856
0.2010537639859761
0.1592675763216958
0.3192818372645707
0.06009713164550779
0.07225273429310897
0.1207459365024532
0.07321923215346439
0.0724692414465877
0.1251317516677493
0.0903528137267415
0.02869344035625728
0.004626397886155259
0.06218737521596943
0.01806529769830811
0.07700132075798578
0.102652649574215
0.142802760275998
-0.01174285329418216
0.2335110043997586
0.1552150787282385
0.09916855128144286
0.07214068148951791
-0.006976114562865172
0.1235300122719004
0.05536004370859862
0.09323183626139299
0.03195908289242552
0.07019479244667469
0.08820178098872096
0.0516629679264012
0.0311098020097959
0.1614457949970825
0.1078571383435505
0.03298820589428123
0.1198411775029642
0.11445081372739
0.0168379435687523
0.1020261061765294
0.08733842827045468
0.03548836464531353
0.08956518038523048
0.04965429719546416
0.1109168606607285
0.05937011178361863
0.04130821167063274
0.0963948341589403
0.1074231478094693
0.1387853467699543
0.04835764313429843
0.047218186131042
0.02513785573125961
0.1812513622244924
0.1216176721774181
0.2392125033829911
0.06118057964488727
0.07451136198307487
0.1031569839521263
0.09384608124951052
0.05963413660198627
0.1674037588219464
0.07122383195162633
0.02886867410018791
0.1065651870156256
0.08807778973235089
0.05164754642495736
0.1305396028577504
0.09808482313606025
0.1406733809004029
0.05868452567394953
0.2605243325482868
0.2111214747293373
0.08370850791357355
0.03308732751564868
-0.0105279750404901
0.1358579484247382
0.085492397870538
0.1013630008694429
0.07996761173542669
0.05428658937370531
0.02321350806168174
0.0810112712724609
0.03076059891085274
0.1383903388798652
0.1257692874717698
0.001212841360247821
0.1073382262655965
0.1168368010915215
0.02276314145998934
0.1367679317128204
0.1362996286601225
0.01506101895580615
0.1111135505505843
0.1105015926363069
0.08042692926331078
0.08313749759576687
0.0650813253621905
0.07916916602045375
0.08155402519379991
0.1080170964767037
0.03016277010743703
0.003080653722842413
0.03129092544607771
0.2606381864725799
0.1522265399689542
0.2088081694591447
0.02385547934499261
0.03728449272348947
0.02781384431074146
0.02333475237126929
0.03465921934797148
0.1476130136399253
0.0554165816651257
0.07313017703609745
-0.06984245529825051
0.06647236688818589
0.03130197736948693
0.03021830787894371
0.1128838331156775
0.1585431426609307
-0.04684188340539295
0.1588688187746133
0.1532224035695533
0.08515404884616844
0.03338365968103633
-0.0385086157594548
0.05647667761650706
0.008222798517251016
0.03114276189832826
0.03693112693340817
0.03798257847107175
0.09862502582795504
0.003229184346146633
0.03116019190826758
0.09517116827350858
0.09414918339846452
-0.03722117529546314
0.07915248792660888
0.04417204891187236
0.01602611050076051
0.1002237055534557
0.08512306200945824
0.00620857607572537
0.03444765437463455
-0.05009468412962991
0.05749493242930723
0.02389264087719845
-0.02241944268793691
0.1158794571509108
0.09306627533136054
0.09286324191197512
-0.03253048704343516
-0.04206370835765762
-0.01439277364302606
0.1424301506149404
0.09874428527499991
0.1589645147626586
0.09886881192666551
0.1532057973667907
0.163685592067731
0.09204943828404472
0.1506591992112769
0.1288818525357695
0.09554856733651727
0.07254631499048424
0.07923629083247785
0.127578295407962
0.08700994367628641
0.1415551577157764
0.1655130290753654
0.1733425706496398
0.01036255570929129
0.2142969158262424
0.1474525055478564
0.1258513428028624
0.02848380912191126
0.036493711302341
0.125979260407937
0.06425806770907597
0.02773873688018426
0.09064326072035847
0.08089569419894412
0.09118062545202021
0.07920597341894595
0.1214934041988698
0.1046618434199201
0.1182255982808427
0.05697732637285021
0.1299113451965186
0.1529219300733747
0.04724287212613017
0.1493276830749242
0.1427183937312761
0.0943663549500742
0.1353101470346805
0.06991062322250945
0.1319875713006285
0.1039686893670327
0.03879889200438638
0.1401617834077678
0.09199337709181349
0.1552344609746785
0.03899414845273181
0.08361905177601604
0.08466464356287669
0.21575795040793
0.1793261358200431
0.2925044835466428
0.1356612934049893
0.07796674170925423
0.1182008279881051
0.08888520978725802
0.1016531570613643
0.1788246310499675
0.06271860558312806
0.05190445378968356
0.1085345740943253
0.05539416588780563
0.08209600091093421
0.08043768580324083
0.1586782640728685
0.1521387726196688
0.07743385417125957
0.2573139323977263
0.1746451780127299
0.1308268370430773
0.06499047085363689
0.03204667469713193
0.1274887652508278
0.1156793412351344
0.059358817961468
0.05968072758928264
0.1068709274004458
0.1253957577020863
0.1137707938881362
0.0580441091808649
0.1306102610138695
0.1726570536681483
0.02597447480878974
0.1378575940234381
0.1349422337723376
0.07640254090977273
0.1467322467036741
0.1408327816930475
0.09527723686702304
0.09592164366977302
0.08587847995542543
0.1368167881964386
0.1200233629272295
0.04719942138511041
0.1516012378355157
0.1546526557805935
0.1365508424052132
0.03711623148885105
0.01788862731191085
0.1021126969652035
0.2253546674028296
0.19518307439416
0.262267852964583
0.08870395996909659
0.114093583565318
0.1443858675692922
0.0829286326905927
0.06235315927310109
0.1267093282140193
0.09404230858986107
0.08819992956331085
0.06384212565617564
0.04737737915880075
0.0755108750046652
0.09989827567488725
0.1039651834759182
0.1451025948854065
0.02418875026083913
0.1881002905055558
0.1245467620326131
0.1115181598797723
0.02674158975065173
0.0317822902717596
0.1011272087648171
0.1316528664135116
-0.01158305772003565
0.05365182379299485
0.1135565116287196
0.009179822701299502
0.07574324316297644
0.1017732956232737
0.06188513078948295
0.09898240528696352
0.02190364155338901
0.1000477594635179
0.1042478738162672
0.06569596544949671
0.1100062956211336
0.1306928064363863
0.03796650194001282
0.112578012629153
0.08378254094553862
0.110359627806134
-1.766718080272445e-05
0.01798340054305688
0.1031403268671453
0.1164476037933157
0.1444236034507977
0.05140409644553683
0.07513513883350539
0.03709675635196574
0.180041108945838
0.1584399031178289
0.2338669243077251
0.1116044142700496
-0.003122755499784097
0.1062620285478966
0.05511516877424776
0.09281192488889474
0.1548436865489476
0.07411856246519515
0.00944116290590368
0.06064722655830852
0.08274663503627801
0.08735291349169798
0.08714678479548524
0.1662039126189933
0.1181954314800069
0.0640832615152117
0.2253672096448545
0.1563441671874909
0.07965271723735741
-0.00702005006092029
0.02602160430181497
0.1061258257782225
0.1160930868820354
0.07441746601757362
0.008381126420610197
0.09086767235242955
0.1203059156988163
0.06506098086654237
0.04426293401787047
0.07091797778867928
0.1364542442253247
0.004352160707627708
0.1340899329114622
0.09316875607944797
0.07874311595769144
0.1673964597825669
0.137625299859217
0.08955904685046051
0.1348729813270788
0.08770933205454484
0.1379157571528883
0.0789322973174866
0.1066223544740044
0.113107419112738
0.08563783611219777
0.1652365875540788
0.1050512558196827
-0.0164604973845055
0.0493901885596672
0.2276491364391845
0.1716820023580682
0.2398968774828026
0.1099016704791849
0.1206829017431864
0.145447237327536
0.1057327744396134
0.1276826983308057
0.177136145213662
0.1023134995565403
0.1527400295692351
0.1360860157394885
0.09266653622288322
0.1131211726427907
0.1273040156128989
0.1370145808367649
0.1600569358209828
0.09750723299378927
0.2343323481524268
0.1592967562243792
0.1332036255025196
0.09677875312928708
0.07752651634334411
0.1370500997945465
0.1181270366620721
0.1023836985623338
0.1107577261380644
0.09542067810932185
0.1466869931673562
0.1088902062202085
0.1421929082372901
0.1147486448741838
0.1504284314688452
0.08219417071364241
0.1340606481378816
0.1336492759710763
0.09756110301045715
0.1446086014010444
0.1605688348435473
0.08424634743345795
0.1200622147203764
0.1001079483867692
0.1555292282953392
0.1304499776688328
0.1277791881726862
0.1361236936739981
0.1082140904027642
0.1735013575366876
0.0968555035676032
0.09953397450149216
0.08097935595717154
0.2064675073031408
0.1391683709522289
0.3105646321737537
-0.005622194310736049
-0.0683626972370589
0.02101796473635187
-0.07262992074803802
-0.04537996654349649
0.04201364150654309
-0.0008190570106839387
-0.07550490818910711
-0.04929434303858015
-0.01975765556662916
-0.0114419722812138
-0.02018348837561947
-0.08332561711557006
0.01266958934049562
-0.09306930804964343
0.06754531255723865
0.0302891887026209
-0.02651993668969872
-0.1505781864044286
-0.1041095474307518
0.0602068070651994
0.01785182631194914
-0.08450379692221294
-0.1204663635209073
0.001097658090595224
-0.03616717253286937
-0.07543073914500067
-0.04275831570470799
-0.02526247470567704
0.0335833378585421
-0.05269355708010022
-0.02059541618172332
0.04851265462717008
-0.1334152955356072
0.02660703629736185
0.01666810084014012
-0.1020045790665162
-0.04520614198854632
-0.03508096770916717
-0.06311933644236478
-0.03593971419663494
-0.04326632066143905
-0.0134128542803878
-0.003115810864418408
-0.06208330059935285
-0.06828250118715133
-0.05238476616028924
-0.07532125964719021
0.1937082100735322
0.04410815381165017
-0.01577640530108616
0.07710168460315245
0.1336354974963519
0.1648633190491433
0.1503087039239979
0.1155582978038675
0.1233641663274982
0.1042018630632
0.1110589154032889
0.1264742355439554
0.09828358633549379
0.1366057025311362
0.120548167625457
0.1677899151847509
0.166545706580542
0.1100443695530076
0.2782430894758356
0.1598514305467358
0.1338333856174783
0.09007770473531414
0.06813844364941707
0.1689063698187955
0.1323947708924592
0.1126034346375389
0.1077783249652519
0.1319204779802751
0.1390500956738991
0.09872832044774074
0.1285976458801027
0.1290258931698985
0.1383914802318361
0.06117947326598042
0.1586303195480464
0.1081342463896017
0.1297323138292207
0.1845977976412398
0.1837981102257988
0.1068808687080049
0.09759743651764488
0.1235346374299854
0.1379718200890327
0.1136463249078193
0.1044418914911478
0.1660789526836331
0.1359572968180665
0.2057943543093596
0.1085339355290792
0.07989087318676547
0.1227387040499297
0.2683105475967197
0.1503625606786274
0.3199715589515416
-0.02212332338172606
-0.09847223527356599
0.01856118226596078
-0.004667358745797779
-0.1354999261525786
-0.02918951202937871
-0.06567024091974669
-0.1060392853284478
-0.04006863985122507
-0.04859670403838552
-0.08827772513479788
-0.07427589953820792
0.08604922773041547
0.05076688282451754
-0.02027828074178555
0.2217646306913519
0.0147439442430697
-0.06414038217016735
-0.1358778256426861
-0.03629058677368507
-0.03433794358342807
0.09145140384388104
-0.1009564805621038
-0.08512329480772786
-0.05183687597634212
-0.1380221179105961
-0.1180693254966185
0.05034513208752767
-0.14943603221951
-0.04113729323291065
-0.09667918700908122
-0.1266734808554102
-0.02289722953097691
-0.05940101440204427
0.04631789889532229
-0.03261841848649726
-0.09966643564092723
-0.00602628834764827
0.02688550648968343
-0.1124293593366133
-0.09437892228150145
-0.06153378953584712
-0.04000102855490643
0.01149922261281641
-0.01080318455187354
-0.05600083590130912
-0.05756271333291997
-0.07782851433178856
0.08197055479215906
-0.07464047682005692
-0.06621776323106367
0.1234822951414576
0.03715211373373683
0.1460114925598798
0.07108390423024476
0.08059739467766155
0.1732809340657673
0.06075348420401605
0.06593995241339991
0.06028991664682443
0.08298483491087512
0.06428763458880862
0.1057343641418391
0.1047253183135474
0.1096573256876403
0.05369433222000049
0.2851638630479582
0.1201335072876186
0.1120642231059016
0.02704942624851011
0.05246929186265445
0.1058423188521146
0.1047113711167558
0.1008674027915942
0.05638059376093744
0.09136461357996893
0.092101816917516
0.09295543441287998
0.04923387331104454
0.1070622379366802
0.0973402331784137
0.01885211678861273
0.09167418650645268
0.1277673108824274
0.05349925438490264
0.1571093747375175
0.1125099594016272
0.05958151934825735
0.118858020545263
0.09300235108245536
0.08163864580561442
0.1084508630832839
0.07708902595255547
0.099114904381365
0.1553838176451721
0.1321312935690509
0.09991062541307187
0.0269915519499007
0.06404657047698686
0.2273279166408715
0.1561579370343177
0.2227670188786691
0.06630362284350835
0.1192080169106425
0.1244779416185824
0.09856716915958329
0.1123821584696158
0.1531035343999769
0.08461257439125842
0.06740596053716261
0.1488316050452134
0.09155451730459283
0.1408049933209027
0.1235921627209799
0.1106134822089526
0.1097447378071405
0.06065426525493233
0.2098832459584608
0.1675276410941105
0.128843199300935
0.01587951816386427
0.07866406429376015
0.1606590633734337
0.0931498677744264
0.08088529949260163
0.1203266439646441
0.09689494157763087
0.1192077778385097
0.1104804321786272
0.07787209805636072
0.07924488965574097
0.09985119150290714
0.04816510472450846
0.1127767378291235
0.1078000387378959
0.1062702865193551
0.1597639291817999
0.1999931838086771
0.07175881212791373
0.1137012356469023
0.1691825944621966
0.06934156462270542
0.106660801879628
0.08686723489581642
0.09305384109534821
0.08699371011117026
0.2068864024030716
0.05096383737725269
0.04227050394568324
0.04801479432015278
0.2418360906160996
0.1353012855761444
0.2911122736569838
0.1300968298527561
0.08690282938610706
0.1818472421105768
0.1089416165786374
0.1348626769193946
0.1472317273825158
0.106494341232926
0.05977992890745885
0.05175247657480774
0.09240203813848405
0.08696022398366873
0.116602015379628
0.09724102484771507
0.07325255721284815
0.02732340204142533
0.1848995290871648
0.1729190247333904
0.1049223035382513
0.0228305808321888
0.05956945528456935
0.1227206610635867
0.0887272120692976
0.03659599503433522
0.04823854106988512
0.1163346845089638
0.1027167412859608
0.04787606797523779
0.03770316959083927
0.08068952019915325
0.09347807348704501
0.0788758467917734
0.1056800648378852
0.1215863472271333
0.07941647893310325
0.1630131153368797
0.1557488886655634
0.08150665872342448
0.06016889872982593
0.09144958805088761
0.1341326334967936
0.08495343641742743
0.04514241981485439
0.09948263357472914
0.09471340842384098
0.1242544705738771
0.04506339372296465
0.06078917406390228
0.05909187959207383
0.2576296764666441
0.1241148736495896
0.2378446104133164
0.1461973788684153
0.1459336027462194
0.1592267738919004
0.1453461189024177
0.08694241286721358
0.1446396553592408
0.1252055155992634
0.08944877022832459
0.125520724377175
0.1023107868096013
0.1367808813531165
0.1468372350917529
0.1814958854509184
0.1404392478082873
0.06996688120561521
0.2246131026592165
0.2025472821971487
0.1452789795484379
0.1314924003637302
0.08238058795100874
0.1753112984027223
0.1335174291851731
0.1086851995674497
0.0977126913398299
0.09546342187134647
0.1869332790256199
0.1394352597579012
0.1515203212062553
0.1383553641052673
0.08253223007754311
0.1060955911625685
0.1755872252229012
0.1131524150010001
0.0704161769476276
0.194689135073966
0.201014214910107
0.1295966269127628
0.1341281378635684
0.08965694874941942
0.1565400456378626
0.1080319066073834
0.09467531236517211
0.1477090154550595
0.1941787160184801
0.2066550576385809
0.07186396317575609
0.05057648076279177
0.07509478826389404
0.2454690663206842
0.1736970183192299
0.335045967873738
0.1227518702711429
0.157798611739848
0.151198286707404
0.1269917006617649
0.1457616948709908
0.1450624466079865
0.1272561188492181
0.1280745287403204
0.07706172699339033
0.1079533356280955
0.08195975971943451
0.1321462441305643
0.1300458158564806
0.172149279402818
0.08193684708566512
0.2311152224744181
0.1427608452387581
0.1216627204689947
0.08099541621257528
0.04142777827417918
0.139713107586416
0.1338411164743264
0.1132869327887156
0.09009958118469363
0.1008436296130214
0.1375700559376906
0.1088582091109427
0.1238212807538741
0.1504843148352476
0.1013110633551495
0.06036870340048445
0.1186998133693349
0.09050527754983556
0.09949438238922176
0.1456558038178618
0.1665754370017663
0.06233566475738549
0.1379711975627914
0.1122157680554715
0.1093688430212151
0.1041193275384387
0.08706055380687677
0.1306825015219328
0.1388897939461965
0.1677438047627001
0.08421325760045464
0.09415333529947828
0.1071260451687677
0.2030506067908301
0.1525788822946947
0.2811350404075491
0.09857488894007582
0.05781912798293703
0.1311676019341405
0.05799611787555057
0.08680710619423822
0.1942618758198367
0.08219410371028102
0.03740623275572535
0.1278995978164865
0.08496116928088183
0.09832832570836202
0.1441327147692547
0.07540670297998023
0.09454926152556686
0.01902678396316237
0.2216935888054822
0.1430310802501483
0.1070455933139668
0.04443597239920553
0.03239804805619168
0.09732949711651386
0.1032854761637081
0.08565484664667287
0.04779041294492656
0.07209282306226918
0.08497450771006537
0.04959176275952953
0.05854629690918778
0.1001194106479446
0.1154108451501258
-0.003873593816008074
0.1578213653024846
0.1310153262888216
0.08157152928232306
0.09379129417563258
0.1140707768593411
0.06622964274754951
0.07788903200313367
0.09257566580789357
0.1226407359260347
0.1129130467622495
0.01921890620131711
0.07820322814718599
0.1336312555178145
0.1478573495609325
0.02925056718138337
0.03778023528812788
0.05713959747834783
0.2014261877532189
0.1380375266265527
0.2295541300983917
0.1130679518510092
0.1514790091713653
0.1663207225460925
0.1521119038216693
0.1135949950489039
0.1861684406855219
0.1450921236164038
0.1121981908058085
0.140137021166927
0.09456338683604028
0.1509498282780052
0.1219778722584978
0.1732093053361765
0.1503890538325625
0.1410390045386746
0.2430657888706103
0.2185233999027396
0.1876196485094722
0.1071355044972757
0.06384450179833118
0.1640289226266599
0.1102321538591824
0.1081332239905249
0.1141588228933151
0.1012045765184128
0.1514172276488571
0.1469587338608224
0.1130599294028475
0.1295743925454493
0.1779458182846285
0.1192088111837362
0.177121698184084
0.154654470295701
0.1570019195616181
0.1610127479652792
0.2011116268194015
0.1217207024364489
0.1396631046212772
0.1816131096301035
0.1661524491556408
0.1233633511713424
0.08629668083816933
0.1509460466882508
0.1662952293359057
0.1645865725134252
0.1167652687391059
0.1158468694206709
0.1554007090996819
0.259072659537212
0.192992091527549
0.3622903862986555
-0.1047089800038138
-0.4724416036948522
-0.2045647657300994
-0.7630735909133243
-0.4180930265557584
-0.1292473113992598
-0.2992951135254457
-1.072867827846302
-0.5375599556360614
-0.5534361850004712
-0.1578306617128407
-0.6020733043814332
-0.3870841294220583
-0.2912127238425106
0.1021743833389378
-0.4738570848764442
-0.3929387707138359
-0.4232336748279679
-0.2048938816550847
-0.197407741227356
-0.3036600879962202
-0.597188610121714
-0.205458175822441
-0.5230165523163148
-0.6079997662457531
-0.6703966297583825
-0.2862102424064185
-0.6102902751009415
-0.52862086900496
-0.6780519787614323
-0.8659379769589074
-0.5994813329108201
-0.3647985949355474
-0.469347730346479
-0.4802580591879728
-0.4843003469200069
-0.3815967380592913
-0.1903530982925839
-0.3849748443940874
-0.3261759585917045
-0.6342130747288812
-0.2414467700685226
-0.5719703683258576
-0.3642042528941314
-0.41190971686422
-0.3340366855552345
-0.3972620553291455
-0.4578194352437102
-0.5847415543860404
-0.2655638292610351
-0.6296856760919555
-0.0882375940871994
-0.6302701885554777
-0.2261987368636152
-0.4802204079454606
-0.4651194583256361
-0.1898712863687414
-0.6361986509788335
-0.4818512495208344
-0.3765539393361965
-0.3655355905287128
-0.8791700025044374
-0.4344203619527243
-0.3553407663905078
-0.2955888069438938
-0.6632435963240166
-0.4051329688378809
-0.07094870985937522
-0.2900185999356165
-0.6764235493787287
-0.4569618711311901
-0.4071653190412943
-0.2395074158049511
-0.4896555893688135
-0.3010791146945151
-0.2333332635627001
-0.2546446040947861
-0.2772550842660497
-0.3838958730814941
-0.2958748300526192
-0.3423298673281366
-0.4560210816368002
-0.2592797080210726
-0.479751880231686
-0.2578996169561008
-0.4872524390566862
-0.4812001534397243
-0.4610482106293337
-0.302139329231973
-0.4101937379152784
-0.3781795529444616
-0.8059447660667065
-0.7909087481348854
-0.08933149992567208
-0.4882103751757301
-0.1966362254809146
-0.7720997794432589
-0.3666971785179239
-0.09992617522200854
-0.2297792120207344
-1.066803263855774
-0.501340320339595
-0.5282206118307271
-0.1274123871106499
-0.5785471881651137
-0.3611448227679653
-0.2684547494032016
0.1188409212804101
-0.4720713144458666
-0.3630384128885692
-0.4018730298116748
-0.1635832809048036
-0.2008174165928549
-0.2692726348497526
-0.6236489932741713
-0.161329321433115
-0.5110269724848424
-0.5996017610136222
-0.6087016824904241
-0.2846087425736209
-0.6204651949541574
-0.5359577878449081
-0.6902967842277593
-0.8707706186053825
-0.4110015079700277
-0.2840824848696007
-0.1544978034174882
-0.5318733029273071
-0.1976401087609375
-0.02868917273106892
-0.1933038519946578
-0.6151148037129269
-0.4090743840322694
-0.3077316916371035
-0.183328634926477
-0.3536372881413756
-0.1426621388440188
-0.1427173135009132
-0.1700432122976074
-0.1122357007766888
-0.250448512119714
-0.2176067674411719
-0.1969061919039955
-0.3096010609910289
-0.1688305576668724
-0.365581094117141
-0.2230234258133011
-0.3825365100590211
-0.2728147686504378
-0.3048747481252946
-0.1929945321451916
-0.3535958888953567
-0.230460825870148
-0.6443560770093956
-0.6697339716214585
-0.07147130451486665
-0.5065699161496092
-0.2036196779002047
-0.789940358008368
-0.3950661254574546
-0.1670338549086537
-0.3338578076785841
-1.110566689745529
-0.4897626254063528
-0.570870179128157
-0.1942610553704695
-0.6041495830190169
-0.4607870525663471
-0.2912388852843728
0.08332021600133206
-0.5362463269425696
-0.3543936064005579
-0.4353544319166272
-0.2047373579907518
-0.2140338137486114
-0.2956126547349182
-0.6211227907276677
-0.2177834799604231
-0.5019856050659772
-0.6857739322801983
-0.6878283439029584
-0.3172947324599125
-0.6490032905092594
-0.5182268931928758
-0.717663561062868
-0.9017780257706089
-0.2667958776539397
-0.4495617266285084
-0.5188595899176445
-0.2935208025161941
0.1587946312671089
-0.8426451539521997
-0.2483587853590126
-0.823825530791903
-0.3994981847764514
-0.1621096223751099
-0.229482669921278
-0.7187347092645995
-0.5655180217379039
-0.790471353181129
-0.4747325722335536
-0.4473706085043634
-0.7830761457345224
-0.1794260470790743
-0.5991016895008722
-0.8834377685909157
-0.3894359467660294
-0.588311060201539
-0.3661511153703839
-0.6968400039476482
-0.4837929997745278
-0.4656767304731121
-0.5917285071446157
-0.303679042296552
-0.5169113693342415
-1.055520969378795
-0.8899510370140244
-0.5670481332033737
-0.04150264171192002
-0.3798842952709388
-0.2446923047061273
-0.2711547719033066
-0.398417616312554
-0.1406745915330394
-0.1710781596636666
-0.3152452437180052
-0.4719000540930721
-0.2898942112445115
-0.3551120080650448
-0.2996854474828311
-0.3137951456400188
-0.3823772609308066
-0.2469510796004442
-0.3981730698564808
-0.4988376402489956
-0.1853588324913405
-0.5748022551573198
-0.1350229828940772
-0.4366846288259547
-0.3056359782196541
-0.5232135153684946
-0.2669274034676076
-0.1172029823587179
-0.509237874193068
-0.4621587486194693
-0.2926660634598181
-0.25409489244119
-0.686499263536119
-0.3877626164963258
-0.2709515455582699
-0.2135622590638346
-0.6565730640842516
-0.4836669312877587
-0.007793007557249053
-0.3056207926150003
-0.6871815346684085
-0.453825396130223
-0.450506681828405
-0.2187753192060217
-0.5395752533702709
-0.3371218792994219
-0.2226579442773427
-0.2235869617349605
-0.4273729390942212
-0.4006334251040506
-0.2971148404600432
-0.3524061843774235
-0.4995326241471197
-0.1877271103769924
-0.3994982570708533
-0.1707499455609409
-0.3995930353978849
-0.5317195423355286
-0.5613493026589791
-0.3356658259187802
-0.3510430726346963
-0.2955614459442246
-0.7992420905332741
-0.8240228797872128
-0.4811855281564068
-0.256389185547274
-0.5217323381864373
-0.0472844010338765
-0.2649565069592152
-0.662620838601067
-0.2032084485020169
-0.08105789911321268
-0.2929556322089449
-0.3490800200728731
-0.2917394498594426
-0.3891331323756829
-0.4022523702317239
-0.5124448786632502
-0.4261710201127918
-0.3763493797918949
-0.5079929268186754
-0.471130884215741
-0.305654257070171
-0.6220442583935628
-0.2366049087310489
-0.4768900328699405
-0.3146245667231241
-0.3933049984766117
-0.2392815668260568
-0.05411374862767192
-0.6146016951153557
-0.3042593440151817
-0.3554425688433827
-0.1634917454399721
-0.6313116358674817
-0.4840955358051387
-0.361696532257883
-0.2922945331206265
-0.669874446112803
-0.3852553562311797
-0.0769697543368443
-0.3343272742532655
-0.6851474341790524
-0.4701536209550428
-0.4365426656562163
-0.2061166273296369
-0.5604406105495959
-0.3114222047338365
-0.2598460173069321
-0.2618973448757471
-0.3229944189209622
-0.4616437767890857
-0.3360266889977962
-0.3331686150975899
-0.5037473078583433
-0.2817498400325769
-0.5050240960462692
-0.2816814082861339
-0.5183316770395678
-0.532273551969055
-0.4937501776390856
-0.2882871239147442
-0.4511088836919553
-0.387131741392878
-0.8226643528812163
-0.8646601094656287
-0.4430699125850003
0.00145638216572923
-0.2119458727024657
-0.3131360223548578
-0.1931082661349512
-0.3077265663046333
-0.09118767320122201
-0.1395145334340048
-0.2260976424829959
-0.317934748596311
-0.240643094769032
-0.1512607640852986
-0.1157010022256665
-0.1619294195509566
-0.2934315487540721
-0.01818496328692629
-0.2126775594905032
-0.4105147352606089
-0.09856594221608909
-0.312182952048191
-0.2302631006777015
-0.3191091132877485
-0.2471698401268815
-0.4207691145526327
-0.02352359947456117
-0.03461557959151879
-0.3669141971972715
-0.3677005717464015
-0.3262444255878579
-0.04278133974127821
-0.5464102097953606
-0.445678076458151
-0.3600881123129736
-0.3147674427349404
-0.6629933216676243
-0.4519226862140689
-0.1237542108074096
-0.2988680667792642
-0.7255069893952423
-0.4487936616021479
-0.4630721055325355
-0.278577513970428
-0.5461711321226054
-0.3250345281131086
-0.28866872111118
-0.2792654130364992
-0.4042717787763445
-0.4543871883656841
-0.3388925880425386
-0.3929331040677043
-0.5580195255692381
-0.2795633168317038
-0.4377394882467508
-0.3083604335759121
-0.5104603070943947
-0.5191882249050553
-0.5223680160999611
-0.3460996840567659
-0.3620796932543527
-0.4115888772648995
-0.8237456064850172
-0.8247062636941356
-0.3222582815405737
-0.5364090138371248
-0.3211574734661303
-0.8889342951095994
-0.5400737124403309
-0.178380379606401
-0.3378009019032557
-1.102557199149586
-0.6361361578332095
-0.6627130004843441
-0.2325844735914886
-0.6765042829147175
-0.4208036977744379
-0.3790084084207684
-0.1469538187285911
-0.4756063651833936
-0.4839952404507972
-0.444580041021572
-0.396057111088272
-0.4452501464722824
-0.3531895956713058
-0.6947005288651645
-0.2957664264811452
-0.6456141523378583
-0.5911967848433405
-0.7155835852859516
-0.4306837822504785
-0.6750522240795553
-0.6147718441480328
-0.8956657575701628
-1.028221274784705
-0.4434544092544438
-0.5070066915773319
-0.1994370286434
-0.7404442894012984
-0.2512472496977403
-0.1781088724171683
-0.2327057236085776
-0.8496403966250829
-0.6664118484564469
-0.5355281261529498
-0.1863820182530396
-0.3994341927970992
-0.1495746169429783
-0.2312576049264407
-0.1033255657386439
-0.1984051233737154
-0.4017120148999146
-0.3307929191184468
-0.2316993778950682
-0.3683308698118562
-0.3357820771344098
-0.557168956089675
-0.246076420403202
-0.5236162972296594
-0.4004901274679603
-0.5133392736577048
-0.3167728552790599
-0.5756476056646235
-0.4445155472634885
-0.8095167498583049
-0.861534137215706
-0.6381210308457735
-0.3413369371841136
-0.66072656838405
-0.1192261256466331
-0.4045719430301781
-0.7220939972049983
-0.2828813284460004
-0.2335898499857078
-0.3973037963728143
-0.5548390625474866
-0.3031060210592287
-0.6108369505229845
-0.5277760107581845
-0.6823951679685382
-0.4636872327344655
-0.5163011459749239
-0.6603165668714925
-0.5739685545122077
-0.4536852515354051
-0.8325762861725322
-0.1430507293765051
-0.5969759119112602
-0.3350902403451049
-0.4798663913515523
-0.4175127887517542
-0.1331189970589085
-0.7546402983602761
-0.4381483655903498
-0.3694972974061784
-0.3544695321329278
-0.7918816891209531
-0.2171435169949167
-1.420027902274422
-1.129652554655284
-1.155476419049346
-1.472173524543639
-1.39407140365556
-1.38949718114425
-0.5757721765206255
-0.6172948134649996
-1.165740839047108
-0.455002892780609
-1.158236037791381
-1.389587301744424
-1.146027674985326
-0.621479470692346
-1.263062426876757
-1.069348480926108
-1.135042750821198
-0.7898390980276223
-0.8184282863940828
-0.3696432599457383
-1.30946245936507
-0.3303929011953805
-0.6578005706162088
-1.093103990606473
-0.7899283385100359
-1.154928826810452
-1.591269358386109
-1.227110378499959
-0.1982275810573083
-1.576538816353553
-0.3312232879657783
-0.214875412027658
-0.4327735576931652
0.1033425009566634
-0.01369973450359663
-0.6999710152551831
-0.1539226758784853
-0.09086198080288493
-0.1982736533741756
-0.04152395580335413
-0.2413643234900222
-0.1791407928615377
-0.3390997897476022
-0.529172254979542
-0.4299107876824031
-0.1383547101463889
-0.4082506607455206
-0.2278948019263979
-0.3732218328908471
-0.4051026557973201
-0.3154196685378643
-0.331186719991526
-0.2554803469135961
-0.3408184862803346
-0.1196388859000722
-0.04103819014813537
-0.3764661577501528
-0.2450285933950813
-0.3172279302767038
-0.1415976438789538
-0.4101390996074643
-0.3273508655062443
-0.1357210230160344
-0.1265932389078544
-0.3109571048298536
-0.09880297213741361
-0.1313110668403355
-0.02999284878519589
-0.2739588928904878
-0.2452980694508024
-0.2563870824592512
-0.1587331374205919
-0.1925024932788029
-0.08483875937926523
-0.1518616536362254
-0.1492867874176244
0.01528918385813603
-0.1699336771434164
-0.2543352468582807
-0.05732220947682108
-0.20961830524231
-0.09714375733441026
-0.3077259103613184
-0.1526964761629161
-0.2882132891398689
-0.04622576797760804
-0.07609900979235486
-0.2428248953780515
-0.3089348133133393
-0.2104895765793961
-0.2542254551790221
-0.5175682597815063
-0.4629464158135135
-0.3559408740530628
-0.2941125063014566
-0.6763391285316043
-0.4255647205970319
-0.08191240783486585
-0.3219505120083904
-0.7093746077634514
-0.4793385480473463
-0.4293350528163249
-0.2317641346849802
-0.5249240441978514
-0.2918502253141779
-0.2643633162224553
-0.2768353155572335
-0.3311697331109398
-0.4071869405271252
-0.3407115802318283
-0.3538886260516557
-0.4747591957133989
-0.3138769175131991
-0.4781215044634977
-0.2523457563639027
-0.5433508307847223
-0.5096157713833972
-0.5045777000827922
-0.3179951989474679
-0.4238786894734516
-0.3873859144452437
-0.8415498694221616
-0.8275357161283152
-0.6785504752830395
-0.1967577657678208
-0.4572205531322343
-0.154476288839525
-0.3530124862118537
-0.590380392157478
-0.2050870887918092
-0.1757582976889283
-0.3379934930388226
-0.5221074799323625
-0.2708258171739957
-0.4387340763206909
-0.3659507415234791
-0.4143568842464785
-0.4325606820888683
-0.3216252923991574
-0.4979474425414258
-0.5507543414569542
-0.2679637903342915
-0.7081868242018754
-0.1320015009943109
-0.56883647175618
-0.3284190086960314
-0.4800058970600903
-0.3114907361729873
-0.01669144627489301
-0.6582285052008585
-0.4716832596691461
-0.3126729703754795
-0.2566289183013817
-0.7236279077742035
-0.3936415999499239
-0.5463078136063003
-0.3318875275036139
-0.8171495357813902
-0.3176381144759323
-0.2794224769855356
-0.2612754933050492
-1.001313700467092
-0.6958838780407176
-0.5986165032397999
-0.2212650605593165
-0.5067665313708456
-0.2467746224320423
-0.308426469664264
-0.1741182689092559
-0.3548852322818794
-0.4831729978968461
-0.4340429358043472
-0.3355431285144547
-0.3774717245444193
-0.398431210150112
-0.6573653505300937
-0.2445478911800403
-0.6437884604330047
-0.4827292849096034
-0.6375036679393074
-0.3474246454648126
-0.6367077680588186
-0.588788174169388
-0.8654923880310663
-0.9539264067566915
-0.4172735135266288
-0.3377586053455821
-0.3018193792347887
-0.4920943885177777
-0.3742497312040617
-0.1727922043833635
-0.291874973007187
-0.6032176245015268
-0.4076937305786607
-0.4632962420137103
-0.2434251507547965
-0.5706359466020287
-0.4190152863555487
-0.3336462714943622
-0.255374790483399
-0.4205660491791858
-0.4570307600677883
-0.361323468865744
-0.3176872701767391
-0.5870411244538641
-0.1079760271810811
-0.4498521255039759
-0.2443366024562649
-0.4540713108354796
-0.5459301540877133
-0.427837034599741
-0.4223163088305302
-0.4231741121657959
-0.2862573150736387
-0.7592340521581402
-0.8063535031486104
0.01044656558070966
-1.200005680710409
-0.631057181390674
-0.2865318348804602
-1.734582672316058
-0.03859420322350414
-0.4835988332746554
0.6356316289319914
-0.09497173231378689
-1.761869484764331
-0.145181906444289
-0.7303381175704073
-0.09830683621178764
0.004299572489386896
-0.03161555684095204
-1.027861946624879
0.3947115782099363
-0.6090604878954335
0.008160373531420741
0.124317590409564
-0.06743217534679727
-0.6875174850778855
0.299518671511181
0.424277804465291
-0.09615924101709979
-0.3001877882766606
-1.474338205219487
-0.5355641631698702
-0.3108921765588758
0.7050758228669408
-0.70955061226698
-0.384836941532645
-0.1780949008047243
-0.1979803229268213
-0.3512001836269801
-0.1692155991380082
-0.2206375114191562
-0.1221774281274532
-0.2924240268138561
-0.236100502913976
-0.3294571214450224
-0.158760350322893
-0.2706989673043639
-0.1700746947314984
-0.1966769452112993
-0.1743187847063333
-0.1062219134134018
-0.2566517051668344
-0.2841838646694057
-0.09811486330555932
-0.2890297160706432
-0.1569756856336724
-0.3480281513565832
-0.1805384132129838
-0.3568938630485328
-0.1702831318639741
-0.1377745766229449
-0.2876894635504307
-0.3513907935600286
-0.2500439597899395
-0.3066927865332206
-0.5604905399556122
-0.4452959090250594
-0.3597731037469449
-0.3728391264075177
-0.4591477881109491
-0.3167946919303491
-0.2302842026279237
-0.2884304158570348
-0.596457860455291
-0.4301701175986944
-0.481476900458179
-0.2611130233079627
-0.6161978378473123
-0.4748233948737899
-0.4095711904568517
-0.2792634015747946
-0.4565059482476005
-0.4902539547219382
-0.3784263939127189
-0.3440261472627987
-0.6367832749748168
-0.1256815474225699
-0.5160059921993275
-0.277554802528486
-0.4816640001976852
-0.5547202380853345
-0.4145104366587171
-0.4248967907341978
-0.4383457832594992
-0.3225672179677099
-0.7504406561039895
-0.8206210355606975
-0.5913773413526667
-0.09313462927912305
-0.3624043675185085
-0.3438641001388344
-0.3685063390151586
-0.2956617245005621
-0.3045401613491283
-0.3295546299925781
-0.4042335686439723
-0.6205795029441352
-0.3195809856565427
-0.470169408530565
-0.3714418334954544
-0.3576677285474142
-0.357470914949375
-0.2815613156667416
-0.4417754891223786
-0.5499484047917818
-0.2420775359467611
-0.619942855632809
-0.1281592318666162
-0.4281412243231871
-0.3676968319595934
-0.5793676327934257
-0.3905213728200517
-0.2763012015008925
-0.5297169646339107
-0.5586170961232578
-0.299920371879216
-0.3640084911320594
-0.7906089262593934
-0.4229595289924182
-0.354678141783784
-0.2917267570116187
-0.6005959676527519
-0.4376438031354207
-0.1647452384504613
-0.3089741378484088
-0.6159580711937712
-0.4417113090155596
-0.4455389922034886
-0.2768457517497714
-0.4793292734205266
-0.3100531408104968
-0.2997433774822427
-0.274945514621233
-0.3515523928549141
-0.4402659202649343
-0.3286427730873822
-0.3919968764642607
-0.5118104764708671
-0.3155134674869993
-0.4670930715221668
-0.2784300779675392
-0.4824426012829688
-0.462546434718258
-0.4752046929726373
-0.3327447161390497
-0.3724415180140191
-0.4114320005859027
-0.7366709859116718
-0.7607632744899588
-0.7349488411453653
-0.9929861946479693
-0.7199815171387483
-0.2132072825700839
-0.4796563861968499
-0.9098738545281847
0.1071469807549281
-0.5244438475686026
-0.282827181367728
-0.6898809917590727
-0.08713274311267388
-1.037982767347689
-0.1889783183800959
-1.013510461478321
-0.7164120322227107
-0.9475728730900951
-0.9396969080799253
0.1770226217340725
-1.363093623309228
-1.0726766348938
-0.2290402824544303
-1.009741730553321
0.4707700282523846
-0.375446701636628
-0.6414675419247067
0.1988072714722342
-0.9670144437443365
-0.1731910617395973
-0.3872795035498057
-1.33746864313375
-0.9582612438128316
-0.4242425268790321
-0.3298365535570311
-0.2586181086811098
-0.6681175585645688
-0.4377463791021681
-0.03177419853415294
-0.3150911214858598
-0.6886861630049379
-0.4307848488633201
-0.4230664055324355
-0.2028553511390545
-0.5162615551192674
-0.2958217977189256
-0.2471676283474472
-0.2472533582866608
-0.3562751616324118
-0.4216409386263691
-0.3325841988964103
-0.3398283462053936
-0.4861575414156589
-0.2693821528113716
-0.4688250967405813
-0.2259808736161125
-0.5096069272343365
-0.4881482953998175
-0.5117062535068423
-0.2927925080984802
-0.3806531201583979
-0.3738728842604777
-0.8211457623336886
-0.8132985265755125
