0.448106167459286
-1.625240002517425
0.9022925727230476
0.0475311159882738
-0.289127460294299
-1.216638486464964
-1.290150148772605
-1.352318356565119
-0.7118571200105331
-0.9693924680312184
0.1508270839082422
-0.8731702652581556
-0.7972807366616039
-1.753281508496257
1.869559699917325
-1.002538371272304
-1.52078926018634
0.4658472569660329
-0.7040933178606437
-0.2015932212838278
-1.088727263228667
0.06390784619799886
-0.6556537034633788
-3.944124185499688
-0.538436309514971
0.2253403334072765
-0.8895490781338873
-1.1974820835025
-0.5976168448544101
0.7017221906734917
3.062670531429939
-0.7612678463731662
-0.2269562651292974
-0.110100850464464
0.1693573827729563
-3.068969205902781
0.9086969556930589
-0.8232851300613675
-1.143670454114874
0.9441890128575562
-0.3915431585191338
0.8510324911855399
-0.7433406814186135
1.560707077842999
0.01406795642992061
0.2819394103953642
-0.1871179937284783
-0.5308665492342189
0.6000340708928816
-0.5177519213588623
-0.4922482459581318
-0.277407899726251
-0.3582114533318288
-0.2538618625837726
-0.4001546509499722
-0.9430516831823622
-1.234575530539817
-0.2208309324656559
-0.1161729512315967
0.01168065158949737
-0.4961622757393728
3.857472536192569
-1.022462511595773
-1.818467907961849
0.1526266876181625
-0.3489584478274395
0.6562341634258214
-2.541428047653062
0.6939941230821458
-1.769279755602131
0.4738889766141529
0.07176356748838648
1.626708838674541
0.5012265454186035
1.35603999108794
1.46654342601922
-0.9228347518119774
-1.716182419302601
0.7653882086249004
-2.038393349956894
-2.011001718489924
-1.576690995627932
-1.136125440033583
0.453060597482017
-0.957282196789521
2.251358145989532
-0.2776614197712582
-1.056913452855105
-1.124876472135254
-2.821931148632539
-2.464607531536353
-0.9845140789249205
2.318685328623721
-0.9009269039903007
0.3172327335827294
-0.1607942593988729
0.6450745112847814
-3.163912086635119
1.468856647628159
-0.5889618584709888
-0.7404942530695703
1.268406159430032
-0.5116924996667327
1.022640472170215
-0.3763676804205903
1.806643689070064
0.2175346203914882
0.07224133852983836
-0.02948285696333617
-0.4989518680038576
0.7020044578401066
-0.2209868704510622
-0.5234096801152528
-0.01390864419267424
-0.3246086172279536
0.1772684809809967
-0.02156482398898817
-0.8881030199034528
-1.330643103568658
-0.1818595347431098
-0.1548998004447009
-0.0249268120262008
-0.9492690399267883
3.740698997924897
-0.9052063014908722
-0.1515072253566893
-0.6030771958040332
1.305325927470995
1.618592991842636
-1.109934576310502
-0.8506320740065768
-1.502786856317541
-0.9810802571221099
-2.823846963438704
0.1171388435913342
-0.4790821787489001
-1.308439801599054
-1.833158222227802
1.205438885638231
-0.3171160762894492
-1.648375905223686
-1.168716537918709
-1.584037013288021
-2.128608820466669
-0.1781547411993513
2.227962731423482
0.3533629742783041
2.11328899902276
-2.216892204163793
-0.3662807426715813
-1.726910661096562
-0.9361684430815862
-1.066807748904019
-1.461120235144103
1.996291684002637
-1.649698892068594
0.446427080152288
-2.159339245370581
-2.136975270162054
1.374726504485335
-0.2223644382986768
0.1589986884059025
1.777105500421021
-1.185795770837231
-0.236516562345339
-2.364343828792101
-1.521653467466018
-0.4021180698129029
0.7508030224276142
1.813150181360928
-0.4273943088470535
-0.4668352123993621
-0.6435103919588538
0.448205402258819
0.1761811589617982
-0.7151009473974032
-4.066716707863348
-1.366550356184597
2.102231240590262
-0.1278743038243281
-3.127475034693155
-0.8324759938053893
0.5924577242459276
-0.1702943307135953
0.02717980855027088
2.074309100876726
-0.5502232780857131
-0.3494362329611618
0.1646157863095764
-0.06510302139908923
-3.011649301324003
1.004538794121798
-0.9295943177889679
-0.9550670510197666
0.6530713596243019
-0.4229126351580041
0.8121749368039809
-0.7536781459063833
1.19397415040391
-0.3356820893664924
0.03872120092055666
-0.2057095804238305
-0.5779378782426166
1.005480306142365
-0.3870852119874389
-0.317932859208416
-0.3876770506330645
-0.1656951917807183
-0.3702574981562866
-1.095039133010773
-0.6910521445259997
-0.8800472785491095
-0.3218193855629125
-0.1096393545200097
-0.003329569064143026
-0.3244000392874794
3.588466261115287
0.03551977364666303
-1.374481541302258
-2.323359827934691
0.622191896514805
-0.9258407559147918
-1.266505236087437
0.3893104488543319
-2.510869273818755
0.1353792880748805
0.7264400413309192
-0.1202387134543481
-0.1747537394846035
1.200872774508509
0.03561475444270682
0.3399965647137262
-0.2223021257015864
-0.1391458448696105
-0.1270076989004787
-1.970120347982763
0.8680823212524502
-0.06912058165992287
-2.019867740223966
0.09363874443230064
-3.030740019927905
-1.878706483729505
-1.508943906867722
0.129230930174814
-0.9517311390728446
-0.4641859228240734
2.819298136501061
4.256031287946154
0.5437478137598508
-0.9554506825350236
1.034420172214749
-0.02572490634472332
-0.5739067851913998
-0.7262447210909085
-1.397892440497504
-0.173497364581874
-1.11449589704362
-1.041554307806756
-0.6748494746870959
-0.7199046986895155
-1.609350157748564
-2.263861163300987
0.9862925190698328
-0.8521817151645451
-1.301433668315243
1.225057416404869
0.3133809631134571
-0.05967372758668859
-1.076062756833498
0.1258689536777621
-0.6342772684349198
-4.46186492197843
0.8520163597395726
1.089769978994063
-0.6659985828162015
-0.8914460498927308
-0.5111342248803465
0.01768879907017283
2.276089426424767
1.982916574163952
-0.2403770903665761
1.542677310611953
0.09976353404867455
-1.920594448714383
0.5077952136968072
-0.2571293262157587
0.7176569338964345
0.1027908778505201
-0.1747791692942673
0.7426916869983179
0.2072872955372976
-0.398295182404262
-1.08328056584704
-3.223347728303649
-0.6841680234969042
-0.08953787140304889
2.172483889798052
0.988499150735351
0.7247900192825224
-0.7664451999091604
1.911949741436174
-0.7601595412004517
-4.621122358595299
1.948636424715851
1.516149793089394
-1.338394695471286
-1.121969677401055
-2.120843706161204
0.5006491595214054
2.294045394255128
-3.306973032749711
-0.01389860087273631
-0.4637040594939884
0.1653784445780483
1.370643086747981
0.04449662926221731
-0.8652852263474271
0.5313151865960566
1.896883075163341
-0.5415812210716708
-1.506075488459304
0.08283932480566242
1.913891675034443
0.6019631365663789
3.244061017904833
-0.9270719670604711
0.9323036827685577
0.4840548114241531
0.6279238930407355
-3.641193507643421
-1.196377614434549
1.016712965768965
-1.14636851366518
-0.1638233855597328
0.9615031577828301
0.1556967078121052
-0.6676538246658629
-2.573057321495136
-2.216076371925811
-2.274921559313686
1.95230655844427
-2.204920855690606
1.247320763626531
0.4810218972097606
-3.205097306009641
1.456908185826529
1.805706022976155
-2.049651498273063
1.709245727199134
-2.461590838375449
-1.091743978489353
-1.588703005121778
-1.970347730369586
-2.66859042442782
-1.263620187422964
1.789500158786791
-0.7792097754970441
-1.973934559272058
1.156285309411347
1.71144165537645
-0.3220436378973736
-0.8490248643776022
0.515399832070272
-1.728883146748845
2.254094570662282
1.21919882338985
-0.162050408301606
-1.288428949668875
1.007092257894587
-0.05671956061034838
-2.67625560040156
0.04543295595524044
0.05000391165831879
-3.147458061516514
1.037293516919246
-3.865642145206272
0.5233226821039765
-1.744169825977781
-1.325505465513773
-2.146263588709431
-1.00934869490652
0.8711960083039857
-0.1049491093902012
-1.882366777138534
-0.2843882397354853
-0.4216872623833882
3.170509873686725
-0.4479318628659767
-0.6837758592001552
-1.684149032747039
-0.907488921178646
0.4468171708615481
-0.6924077186272944
-1.268490353883142
-1.465612206272232
2.615553504820761
-1.650388957884984
-0.07940966914775341
0.2446546865988098
0.9748906480302418
1.462705940486881
0.1261933667543038
2.025845998886068
-1.590823116619666
2.412415143212667
-3.813354022823766
1.108415033491996
0.6888148303842664
1.012429364781171
0.0918642854871833
0.9641416418713301
0.2791235101513905
-0.2177875753711235
-1.616970291265569
-0.08986276875081134
0.1407001965495433
0.2514042306900081
2.017354756499655
-0.405444157275421
-0.06169882958260448
-0.14889855331268
0.7845507758119652
-0.3785049989315516
-0.4729597455469097
-4.612263698626341
0.1525470414870861
-0.3351673851802227
-0.8339839792306638
-3.578405295917306
0.367060279227085
-1.199207367528986
-0.8381647190934904
1.521708141172876
2.751510874399807
1.238756124188354
-0.4203499764019872
-0.4903157359666245
1.403766847867989
2.78025670029285
-2.085566104237629
-0.1961101532363489
-1.388870070311424
-0.665502950864408
-1.847608565529688
1.111503475255956
-0.5557555268529347
-0.6249828879571394
-1.741932587960779
-1.385296129700859
-1.230388618465906
-2.362768188446387
-2.848477956605668
-2.53364571799433
-0.1265724170572089
-0.7682666143030389
-0.2240487476895076
0.139760574263554
0.572405903642099
-3.455462895809792
-1.141482642540104
-2.059480975803076
-1.771065092105442
-2.040993166505121
0.8937247267922179
2.412473596680389
-1.262279679712094
-1.422920746837503
-3.510946282766902
-1.41045801878698
-1.819989786356269
-2.67545499467045
-1.462783448765123
-1.143982296382078
-1.619943260952975
-6.285265672820873
-8.042469198459338
-1.115536912867647
4.925154752704326
-2.342980981476364
-2.427420859555557
9.337821636827739
3.008216094462115
6.066013357916781
0.1700011790820123
6.253296563349986
-0.3887931731917995
0.389741691758815
5.682725686582348
3.532637242145285
1.706358720938325
2.603720046379448
1.712447695094784
-2.082259583334713
0.3964926079681194
2.112729063338686
-1.610190398949494
-7.923493702240595
2.991595500434425
0.06905604850610646
2.365405051274097
-0.2793895787138252
-0.1150216874985575
-1.635913187997983
0.2394108070779595
2.879853037001495
2.338820813289115
2.314888214361446
-7.815636595691223
-2.044626660391004
0.5309717884965517
-0.2079878809801227
6.591312213284694
-1.07872167048759
-0.0782118119887011
-0.2466276921904247
2.29009936096334
0.03998219163347615
6.467311402793328
-2.109356041829542
-0.5172059013488853
-2.575138459541596
-0.8216480967680242
-2.320258193044927
1.509461340791341
4.552760237351673
1.453306769236935
-3.307273776798843
5.232874593184124
-1.875854151749283
-0.7566222344304785
-0.7689075686257324
-3.385834327646796
0.004370264360726639
-1.451938854988349
1.49453954863015
-1.112083018560927
1.012938197286086
0.2657488854176462
-0.904508850265215
4.526774698487133
-3.3279400121712
-7.860905946903793
8.104800595443944
0.3286081574462282
3.119972328209418
-3.292579084182859
-0.9858823220221549
6.797968138627995
-0.8565571798039779
-2.318004380495904
-3.412519105489815
-1.221185517715491
-1.537403033583636
-3.330196654712917
-0.8264204122582187
6.198042906994086
-1.972980784780664
0.3419324819284506
-4.427451382568395
-3.277455192394176
1.93305387165591
-2.206465265838465
-0.5833385249034687
-2.612468440100405
-0.6081738207271448
-2.079955270308631
-2.592792209143342
-0.3875547512328752
-2.208246277647985
-0.9210979096849468
6.782345674651256
-3.093773041595924
-3.518639029844992
-5.146082687107145
-6.125090922308084
-3.064017255719639
7.779928285247803
0.3406412683742633
-0.1102354661155937
1.637905383505296
-0.7312175925219635
3.986223610736486
5.68890818798233
-0.2792627756559786
6.049893570558647
-0.3153281478267332
-2.078770638935261
-0.1634529570634212
-1.954392522433601
2.070940918340708
5.743589561841675
3.078356592309216
-7.013821830750621
3.592910815115705
-0.9265719069930615
-2.966588922633005
-1.226767478901101
-1.597465052162344
-2.108801591880685
-0.02116634074919408
-1.857145549646315
4.896591501360836
3.514499531643749
4.097090771746095
5.114216277707953
0.8943182911085019
-3.557204329829974
-2.893377340338391
-3.081703684125811
-2.314811119978463
-1.072432769299825
-0.7944952709848713
-1.149139123502497
-0.7041616020685906
6.929060038221995
-0.9095372763306235
-4.237175160924367
-2.222159636881722
-2.839514651034462
1.103856370112714
6.486132594695904
2.400835348088291
4.029450698497756
-1.991471966219797
-1.199743111456279
