-0.113906077117036
-0.1220680261021492
-0.02876054957031619
-0.1163382850764503
-0.1292567039673718
0.06038111062980495
-0.1400657191655711
-0.04478058276886154
-0.1323250808450791
0.02434079713025726
0.03075393396126772
-0.04485354400172311
-0.08233155797209465
0.07651524489432032
-0.01707188316537732
0.03939434135063347
0.07803262019342527
-0.1491438947116025
0.07076006436819637
0.1083325678792911
-0.03589725583003896
0.1292680504464326
0.1672843258177986
-0.08602700284349943
0.1616639968725818
0.02571295161931871
0.1990935525226484
0.1584784755305689
0.07785254466801997
0.09846268257967543
0.2457645254045092
0.1829705692209982
-0.09299614552320146
0.0780547590430721
-0.08641826877791171
0.05891023538197667
0.1341639856946849
0.02916874957256619
0.01811001511524501
-0.006132084050637712
-0.08379919156628923
0.001995914065091192
-0.116565109630683
-0.08765391236465074
-0.1035271663535394
-0.0175544351727693
-0.1124142967247879
-0.1607572671705839
0.03826092152611475
-0.08954698569357622
-0.08952633711359491
0.05568009885193611
-0.1681864053302766
-0.2292423692274901
-0.1907189850621154
-0.04023081383692763
-0.06629438055559062
-0.008785152976929805
-0.210951562647874
0.06258564893485774
-0.1104931946910444
-0.1415457196818058
0.02858032372429105
-0.08845388131236298
0.1283204192330912
-0.192478399466047
-0.02368157461218504
-0.1032668068002122
-0.04880479913821051
-0.08091699705315941
-0.01091602339238364
0.05325488591834421
-0.00514389275926542
-0.09136892920558295
0.08093062889779361
0.03913062923083391
-0.08567766736735583
-0.1427046435581443
-0.1377749483899937
-0.110535100221163
0.1016135671049645
-0.1080117455797549
0.03506295258387421
-0.03062619122362921
-0.06589989578720255
-0.08526262729048739
0.04357087365009594
0.001096295948794232
0.1122074659533424
-0.0123784329307237
0.05803796144435101
-0.09192679834528571
0.05289427305179593
-0.06973051025357901
0.0257472900239924
0.06890221134907334
0.04549053903867348
-0.03823859592889153
0.03880202217786951
0.1114546758318407
-0.01351405950165625
-0.06687219264624347
0.0130889352276541
-0.06138959536383816
0.05103844969617786
-0.05777827484393015
-0.1195616444324027
0.09893076821980901
0.116780181022715
-0.0740737485522488
0.08756557965940086
0.08707511577232235
-0.04731570987804647
0.07618293522128347
-0.07619826902002461
-0.0193065630360425
0.1112621289559039
0.084668030934736
0.09627575062274477
0.08806934889952224
0.02848255238002811
-0.009777539641208361
-0.06648260440809912
-0.0222358309461969
0.08868695926227717
0.2345734075400658
0.1641249114888116
0.006010731609357189
0.01761745910178275
0.2018029032266102
0.04376374140688072
-0.02376553924500642
-0.03130487205601205
0.1588546736787312
0.03901380820024576
0.1209134559769296
-0.0350706970221847
0.03051045555172615
-0.01359912167084147
-0.1327257547534401
0.1271315461438547
0.01467107128840378
-0.1756761776745248
-0.1570818619422497
-0.02480941233723025
-0.07665427870240166
-0.06498887415954396
-0.1093671538120589
-0.08587380925152788
0.05564804298688222
-0.1016614394523434
0.07814515694104593
0.133610027777241
-0.07600613402590282
-0.1983156429504973
0.1173634710290621
0.05199601759820802
-0.03248071283483517
-0.08352744387961468
-0.08180408904093628
0.07371850659461908
0.1398049631851578
0.2224774485860537
-0.02783043577790262
-0.01632401157595313
0.05756323817932221
-0.03250646618019769
0.05845374198985726
-0.0339489699038927
0.1778624573574155
0.1513150891481742
-0.05367456447837626
-0.06567821701716579
-0.1032879781794299
-0.01003156890381489
0.06432787275365595
-0.08576555998753051
0.08153344985608356
-0.1374336394301031
0.02471084776273572
-0.05465207016574725
-0.07785388814761995
-0.0757642618594656
-0.01751578358185996
0.06814590409130934
-0.03940326763252146
-0.09456606237594607
0.1186861682988028
0.005754225782979417
-0.02437052719646857
-0.04439361507728033
0.05030250142396313
0.08796478606868793
-0.09092723313415124
-0.1148184128138301
-0.06499850291356471
0.1203383533155902
-0.09887739717657136
-0.1554797675813896
-0.07925012037168977
0.1309712899088979
0.04176503477803303
-0.1087619476967443
-0.1082069383743397
-0.1779930478613768
-0.01248120597452351
-0.2001409456930731
-0.0705262019224636
0.008069995535470836
-0.1046428224082183
0.0779510239651849
0.1243821619295501
-0.09981138249563702
0.1319600655942644
0.05671089428731892
-0.09984517284759581
-0.08245716138235874
-0.01654446701203716
-0.09265047741523065
0.1827993611985276
-0.007929462788527073
-0.03111527439999703
0.05363087972252348
0.05866180479594568
0.1068599188139998
0.04092335076437061
0.02835308870256539
-0.05073216998640171
0.01962685891674269
-0.06308547597808863
0.03040933934429006
-0.02416768440961055
-0.03830697848491885
-0.09447824479748056
-0.1492522052490545
0.05273433365587776
0.04570414504677486
-0.1528870008256783
-0.1383560865380017
0.005518223808644155
-0.06127386042066674
0.1697499439680622
-0.01844182225737102
-0.01810301776985079
0.1022559912514732
0.08702569402300102
0.1391130989454312
0.05554821252067649
-0.062987088379258
0.07185022132218971
-0.1359350267927242
-0.06834590301439504
-0.2203669284055963
0.08141612214695443
0.05409713966200962
0.08364994209226947
-0.02165824007703101
-0.1257654885450898
-0.06719223917204295
-0.004105427993799603
0.100450518172435
-0.190331502835595
-0.06670453237283611
0.08759778721098345
-0.05642903805149601
-0.0410287638257356
0.0874926471382574
0.08546941609995164
0.1206366622864609
0.03839001969762752
-0.02982890367796197
-0.04019223887958717
0.06173126273782205
-0.01249882222966758
0.0207802079484464
-0.04409150444645093
-0.2074975016845121
0.02393554499546177
0.02905769571683733
-0.09833542118379342
0.01009500142959226
-0.1589529465313936
-0.2303479216148427
-0.00894244757720062
-0.0816752996585471
-0.1163223223050467
-0.04831321657697227
0.02138793812925479
-0.004455576039136044
0.09287481037074609
-0.0928149045579799
-0.04960367317624212
-0.1321482735769178
0.01836909446310888
-0.1261519507162931
-0.02158249242937374
0.1512716801613887
0.0889375162300704
0.04372815528386548
-0.01440613991515368
0.1572748267968303
0.08676244903897215
0.008704420711990799
0.2199196402368608
0.1851311029671133
-0.03482183361625119
0.03441282571968242
0.06561221593012634
0.01988733223891694
0.2305175977495696
0.006311518156662338
0.08663365242737017
0.04038168865063672
0.09524889633098831
0.122172768543664
-0.157493971747788
-0.06677276688324049
-0.03695615714802145
0.05648407848122614
0.001028942222506798
-0.07500074483285148
0.0008748886054881209
-0.09239366809312223
-0.08083220214678925
-0.1362388627505848
-0.09779858703660958
-0.09182462201287477
0.008695800273112782
-0.1337515317990101
-0.06745693665460666
-0.1347229974342824
-0.1484432763130242
-0.06073892885824575
-0.1436499842631996
-0.1418060814380923
-0.1210270205943348
-0.07673496229683641
0.07102384591946791
0.05311553986049436
0.03606846912104227
-0.07567726279532434
0.05402435200820722
0.1041814438147072
0.02642371448011879
0.1632784426665051
-0.08439794505675775
-0.1296742387297068
-0.02504423026357574
0.1178626787952598
0.007359094593357811
-0.04523955101345212
-0.06007389019724575
0.1353915410348579
0.1070408115877107
0.09252329780478738
-0.03308811171806068
-0.04979455656793066
-0.002847015790382407
0.1221365538705379
0.01389586297705993
-0.07275278282178721
-0.06641966414367857
0.11714088814582
-0.05914132383274754
-0.01389980734646665
-0.1762037897890297
0.03023585366212164
-0.1182748307613807
-0.08858716392298024
-0.1024391263837176
0.002794939413082495
-0.03631437570473349
-0.0916681305777621
0.01485254610365801
0.09387844366817172
0.08356480269581559
-0.01662805294994931
-0.04815890788053898
0.02510244360927447
-0.1148635904334815
0.07668390505986974
0.01402734272805014
0.01072334629967856
-0.03681315510012471
-0.1101090415741897
-0.05842469463824669
-0.07688084214693038
-0.05782202682098895
0.0230448281030489
0.06862022496841196
0.0603059727089184
0.06535873605379348
0.136925378844436
0.09042471381796158
-0.1686626805692079
0.004844647368653344
-0.006532752494972055
-0.0004117460710277407
-0.07548554142810743
0.03455040062669121
-0.169694761144712
-0.1328427244837067
-0.06103588039327607
0.0176852982388855
0.3441054656320769
-0.06286535323589665
-0.1607676608089481
-0.1250150835858344
0.07607223390245359
0.1938835694678244
-0.01247909238554501
0.04412257147065524
-0.1093057320886559
0.1364886773268565
-0.09641640295832508
-0.1267464133854598
-0.1250615754360529
-0.09358557013935122
-0.03763248203130637
-0.1296847159885095
-0.1288263648359869
-0.1262283368567527
-0.1491603241539313
-0.1234146377509945
0.004910703174373878
-0.03255835816233647
-0.05540704786424736
-0.03622317199519533
-0.03889419742588463
0.02893460795307456
-0.01725345119147122
0.07772318689212808
-0.1048468413630315
0.02069292638457031
-0.03857126879174701
-0.08532393496675664
-0.05211373213302824
-0.07451414947121432
-0.09764511860671451
-0.06665542381860734
-0.1176502565132165
-0.01298488329697896
-0.06849629957660382
-0.07922809649510996
0.05219468855321329
-0.06983419283811694
-0.06634357426597973
0.005684922093861432
0.02363933526603895
0.03793094839198479
-0.06347600117774199
0.09113972581542709
-0.1060265940227677
-0.1016428168420445
-0.106133431023299
0.1672634460714363
-0.02281535776510303
0.01971628933661267
-0.06311724599546388
-0.08473485930640363
0.01363381763493276
0.03349999712317889
-0.1275431266326268
-0.03028506176517866
0.01442202780480742
-0.04589239470551736
0.0411568464592118
0.07594305280607476
-0.01195262572873301
0.09344970260789549
0.09442627444819809
0.1112221870909782
-0.005459179590379603
-0.07398968195830183
-0.02791732145727719
-0.09468334526412173
0.1016103603024876
-0.002108808752357804
0.09005533493046451
0.06098053883352763
-0.02876641336775135
0.07977832000576271
0.04925442695887448
0.004491036723057072
-0.1165113527721833
0.07080649635554936
0.01150897270766918
0.02957560392693848
-0.02634811514287177
-0.1259647873924517
0.07955623473451787
0.0701614803613259
0.06371860510261684
0.1161692267961072
-0.06666408086464298
-0.0504580883698625
-0.04899275141432653
0.05019293654292598
-0.1146242991374385
0.1213859043681526
-0.008676336233248899
0.1210880604425185
0.1580390418072705
0.1889171102392286
-0.1007346518769
0.09325225313883748
0.1222636458102929
-0.07625263106720227
0.06229896420600727
0.03119485011511248
0.1644255347125009
0.1332820869782813
-0.002782768932712852
0.00458582674400362
-0.02487367297534
0.04604354239878286
-0.1048953686174055
-0.1393394054183325
-0.08488146072677431
-0.07711599945233032
-0.08627765080021425
-0.05204425018883768
0.04155912996743812
0.1759636318731734
-0.1574225802442309
-0.154614608318847
-0.1983315133594977
-0.1360717740259164
-0.1267970048439061
-0.08948044924020757
-0.1956464136375086
0.01953326493305345
-0.06140991666328753
-0.02950610379546695
0.06122480683431498
-0.1297261600425845
-0.06972191022677063
0.01613514693389736
-0.03008781412654785
0.03723720741673667
-0.0663634277995251
0.1186703951503956
-0.0541324740424472
0.001125842478991306
-0.1314423842582026
-0.06876976631582495
0.01019240396827598
-0.09082457835349171
-0.1680752772276156
-0.008144371612228642
0.05579775113936709
0.1925650789413382
0.2201801856790075
0.04875278708719877
-0.008456226557738885
0.1493207407151603
0.1369508419572385
-0.04052501691356471
-0.04797759414953899
-0.09247934984489246
-0.008593083686910995
0.04438048527042669
0.007801810679747691
-0.01443405305702902
0.1299946527885587
-0.1489023598382028
0.1315779989319738
-0.203146548707609
0.007129683281305206
-0.1489119496451356
0.01097656222196252
-0.1279857779445195
0.07223179906620783
-0.1056083278380243
0.0206056995527792
-0.1217299207768707
0.01103202412464883
-0.0838908735891471
0.02995946575990257
0.02104527077960569
-0.1077643267955971
0.1603552521436217
0.01682581381285264
-0.1690813641008507
-0.03471838965120904
0.1136682387765732
-0.08809844541170217
-0.07232703892994743
0.03508003378316998
-0.01119636893083953
0.01749401738861273
0.1012798269351809
0.1726095452990194
0.07199517442374098
0.0978817139041738
0.09326450489000918
-0.02157852351176456
-0.01398544259195338
0.1837261688009079
0.007047115780810177
-0.0430656576772312
0.04515968063685331
-0.02185611071228245
-0.1801663871311242
-0.3341104415956154
-0.1082731520593755
0.0308142463387608
0.07465674398124131
-0.02685636693862526
-0.01972380311463812
0.04817129865744161
0.09245981818923774
0.01140258090768378
-0.01487431799249312
0.08785640004081011
0.06292939665701894
0.065572200211179
0.01940342995815384
0.04103098575487323
0.166057117106707
-0.09653045509031959
-0.03386302752267796
0.04250656440119892
-0.1103449518280602
-0.03851434430023143
-0.05951032941906791
0.07814251727566436
0.02362213782567826
-0.06964512975546013
0.04899845629989429
-0.05135810672614748
-0.04125179144119379
0.09114791552134856
-0.04498914131547792
-0.08014431861940205
0.01544064934869449
0.0994388719613377
0.1121110970328039
0.08900680728866994
-0.08565481720571169
-0.01249425222303833
0.08052939975445435
0.1154202845349649
0.03254342480529149
-0.06609240548443622
0.03295827632211998
-0.01870308046852752
-0.0582268186745494
-0.00535497886723833
0.04852419259325288
-0.07265949144519872
0.1498468163815919
0.06283251913476227
-0.1954554499620006
-0.02837613564412782
-0.1137645389509413
-0.018212778049497
-0.07088642692380807
-0.07418113375244635
0.0058102603974123
0.0784817467855793
-0.07011188808435706
-0.1322567016192519
-0.02342005031584099
0.09938952157863962
0.09044050663513599
0.06158226359998364
0.02406190655664974
0.2296474057640673
0.1349320452395109
-0.05386832812923376
0.2748349529495472
0.2710288295692336
0.2194700177288683
0.1345781888054005
-0.09525486335122159
-0.07940830417811585
0.1058763160007045
0.04169623336983126
-0.06346645528673635
-0.06892468551142039
0.1038615364830298
-0.1046359580779617
-0.1592841565886862
0.02838458953936976
0.02141029063456555
0.1367750591788486
0.05988656255256015
-0.04145605224139517
-0.1343890426296154
0.01751988000370438
-0.08937262225648947
0.1983694319206691
0.1322319575547566
-0.04788378378240682
-0.1117713021322831
-0.05245568289409632
-0.1446756350202869
-0.04780576725135408
0.1112223095080216
0.09550756086433092
0.02960653548498963
-0.004110134910842288
-0.1002613725836533
0.04118518300695809
0.01312347460090141
0.008508005152293732
-0.2166588361884391
-0.2229024475528139
-0.116830114172832
0.01347056902546239
-0.2538754364774067
-0.2035128531024743
0.0334953184378324
-0.02977311024415994
-0.1269165905526793
-0.05456068746786531
-0.2156624048935785
0.03859982868129955
-0.1179592749322036
-0.2033769470758998
-0.05667929282733691
-0.08203709316319094
-0.1381935363256844
-0.06689939498148824
0.02539953296517268
-0.02944658194102286
0.04572022950825173
0.09818926583848964
0.04078609636777408
0.00925090809006663
0.03192807274259284
-0.02807475957413378
-0.03483776211290406
-0.07606208568154656
-0.05146180284366524
-0.1249591860504914
0.1156482180004616
-0.05528578120754191
-0.09311689270125871
-0.06240846583225394
0.1191188025968328
-0.006915958884805277
-0.01318815737959248
0.05825245504519216
0.09811064035770074
0.02580383734627102
-0.008684480707370263
-0.1430540893830025
-0.0717876706438791
0.06436121137906339
-0.05440681501476222
0.03195636693480832
-0.1441847429679745
-0.1030349479738635
0.08134573766160559
-0.1300492392316208
-0.02323352898991009
-0.09621828485594969
0.1166864940693545
-0.01027448427378723
-0.1863718031292684
-0.02075109379113384
0.02821024234494604
-0.02744093135812924
0.04946608153236528
-0.1710412506577969
-0.01002580106489235
0.09269362735021255
-0.1373240604455016
-0.07144157187490406
-0.1117384633631068
0.01775981867952573
-0.2318827741965764
-0.2768140476665575
-0.211756247162103
0.1822399488404561
-0.06632909745357209
0.01249968208491141
0.08680130742473281
-0.02033713287252636
-0.008385686567339692
-0.1065677597823582
0.04790686645425368
0.03447643317999477
0.07895931450540856
0.02527617159121153
0.003644186094652222
-0.005966581969242366
0.001810019606053029
0.0856456850668165
-0.06215314296089093
-0.1234363292338996
-0.03048367385922051
0.03542160763211807
0.1370237734205459
-0.1695712164660564
-0.05168691923842884
0.04209354323392373
-0.01870027362419821
-0.08809531204998008
0.1100496220626152
-0.03241471755575308
-0.03397861894834803
0.06921723531952784
0.07152278145290886
0.004270420281893638
0.08223312529662201
0.08260700959552925
-0.1035969044549256
0.06370755461530575
-0.07552864728415123
0.01036633182847676
-0.1297479241707266
-0.1019971513599103
-0.08342089479577287
0.02337722934343286
0.1242205831150225
0.1597365716985822
0.1186532654222542
-0.1013824317253224
0.05897765734745457
0.1068850629810147
0.08104002704557622
-0.1150717948526464
-0.08160071397138856
0.08809881230996355
0.01068600278945573
0.07098574921263107
0.1169559906343154
0.0248000565687876
0.01514487275807386
-0.06225498948298341
0.1519427351524186
-0.1244604178108323
-0.07142564834613498
0.03239166578476543
0.05444703159505201
-0.04753243671951928
-0.1434500049367337
-0.04243002473748896
-0.1498456132909906
0.04368699784387473
0.03708450595017639
-0.05042307235166588
0.02997024582926919
0.01265235376770439
0.1454750110460354
0.1044062138658766
0.0845033705747386
0.05497139779765291
-0.1155717865653045
-0.06670286597940447
-0.05676240295536045
-0.05057428683653619
-0.06634922819460029
0.03019087408774701
-0.051295866859168
0.07947965053018911
0.0108099714231074
0.1182647553590907
-0.005491679355831544
0.1886389704643827
0.03246529767779113
-0.09132848378278652
-0.09713897867471138
0.06370788245228208
0.01294709283476217
-0.01092382661910138
-0.08567311459269084
-0.0995793577289073
0.01123378303099534
0.02690809315339327
0.05731813497105014
-0.07934002198906888
0.1228891281941413
0.293825016151071
0.2027242687395035
0.03916359145991614
-0.05854345871306978
-0.04914670743238266
0.07944606746546641
0.09786804703973463
0.08467702508185723
-0.1427710306810381
-0.005749949743107669
-0.1500255611862343
-0.05773429235570793
-0.07007384888089228
0.1839829948323183
0.198293136470031
-0.1028206215956846
-0.1238588379009282
0.09347317819285468
0.1034982841111972
-0.0358589972240256
-0.03138030054403067
0.2399425026188814
0.04680773014212492
0.08227869956909555
0.1107100977249852
-0.1264287924667643
0.04369455818562903
0.1561959161624648
-0.06628085777764577
-0.01136683399729986
0.01774574875090699
0.08715653073206024
-0.04737722155592143
-0.02520048740701167
-0.08670601911027442
-0.01220233820416246
0.06320441086030723
-0.134716834886205
0.01968092493351004
-0.1253692361723159
-0.0725544688750155
0.1000309884094007
0.04188322386790636
-0.05596398486780802
-0.01321337250783508
0.06777706182252878
0.1956950240863292
0.0710474832892698
-0.08106763182795469
0.02029857316126467
-0.2085980486557018
-0.1102363088022403
-0.1687521209323941
-0.1010794313614607
-0.07310842584903332
-0.1142080557257404
-0.02347326776488221
0.08656337942314173
0.08602035448453026
0.0242657440276392
0.07722042882703357
-0.002050387768345235
-0.03886620175243297
-0.09622614464032044
0.07777718380811424
0.2370729291278127
0.2351841640112059
0.1288667838271114
0.03275834203534952
-0.004260116103058648
0.1206912760328289
-0.01828631063799137
-0.1111959292459414
-0.1707554917667654
-0.1211440923797136
-0.1374080557029013
0.1616654991667045
-0.02065545401006031
0.0774043985766128
-0.04921684043662746
-0.03965374649486043
-0.1301531897569004
-0.01515970130781277
0.09524363113994877
-0.003234131369521255
0.04238100556933685
-0.08841282155223472
0.01429947096269681
0.04386951350315042
0.05539858310984065
-0.04828016704836213
-0.192628598313257
-0.1322938291314997
-0.1044367541715096
-0.1392748013769151
0.1192808664686805
-0.08801980826812181
-0.1740221715237232
-0.1106341128597442
-0.1158759253425473
0.04842095728155133
-0.1250548766512253
-0.04956991766568077
-0.1248862609624178
-0.03566595672239588
-0.01281220649104688
-0.1517700157761021
-0.1010593430333731
0.0182673419386494
0.0640010528659704
-0.08537601284980809
0.01342586415523019
0.1676412024142772
0.1062452453396724
-0.06284207834451463
-0.1040191000028593
-0.03064605160300745
-0.07772667563265678
0.04480265342402582
-0.04798193742359046
-0.1547632067688832
-0.105960277650375
-0.2326017782294347
0.05444322064918881
-0.09658258037234224
-0.07323176218440043
-0.09829039322896883
-0.01319707946176558
0.1732510615091113
0.1159971277949891
-0.05173078710211884
0.003440749763137048
0.1524830708673034
0.06123360864407173
-0.1171615088537429
-0.0522199648039619
-0.001932138269850621
-0.1103860994626005
-0.1084784965923998
-0.08754896759722294
-0.005049730401576544
-0.0489650957085263
-0.01759655797903441
-0.1252723246114714
-0.05362057740591675
0.09497016008248961
-0.05730746525228479
0.1298123544569241
-0.0673144826617935
-0.05392163529198794
-0.1893687095678122
-0.01073684481947515
0.05420404335322852
0.0582407200165167
-0.05041837738317809
0.02811882399005982
-0.1437002160821837
0.007432800339824697
0.0200712548178538
0.05628666078842001
-0.06502913790898421
0.02108104630844903
-0.1813867175792745
-0.1047518511246517
0.08115489030628366
-0.1473694611957841
-0.03536948622539194
0.03922077078109528
0.1036922090570964
0.2058920884349659
-0.2727960977708523
-0.1099375376510368
-0.05503720401517981
-0.02709488535595021
-0.07850042155409434
-0.04720303034451492
0.01341196516725265
0.094179604001967
0.04860094350811538
0.1700308362859959
0.03448757309349865
-0.08092402597270498
-0.0002976272965873382
0.02793859067925423
-0.028083819603392
0.03153356940122205
0.04841936872998343
0.161056436625226
-0.0899709682965938
-0.04079408273617504
-0.03337838295801597
0.1110492466005812
0.03089432364650043
0.03327695674275643
-0.09635082956231256
-0.2964910509573603
-0.2978260045200844
-0.09406231376695404
-0.1332417507298707
0.1246964477094329
0.08896087233229152
-0.07581753050102302
-0.1680434555142709
-0.1440641470378657
0.09117646524078429
-0.02158234200406477
-0.009881848898483071
0.02518351591086937
-0.09188315413433892
-0.05549209503362272
0.02543299612586268
-0.1213213767469779
0.03229417989216481
-0.08005416844117966
0.115204620421383
0.05728573846024768
-0.02113484138602145
0.09951393486421352
0.02477635242873018
0.00726595289022269
0.03819695345602337
-0.01373587313971196
0.1103171570082034
0.004966251071357006
-0.1238787031326422
0.1022335740104506
-0.000213237762240101
-0.07883497589196849
0.0473873751418874
0.024637684151808
-0.1049523123426129
-0.02149016098507645
0.07040661408656232
-0.1121092544196007
0.009054275084322326
0.08375682994069082
-0.01643010269308178
-0.09120025813883793
-0.02975060804749847
0.02354926251731185
-0.01824127824299812
0.1279325607434151
0.08167731141252757
-0.112592641188161
-0.06754994566441622
0.05188944489428567
0.04572871116355667
-0.0311062365376168
-0.02961624880604919
-0.03927176164508921
0.1846096755734523
-0.1078349079543485
0.005741846604126065
-0.07468441664501178
-0.06994247134177134
0.1427247747684004
-0.0291677209907049
0.04404845612852619
0.05636279487747896
-0.1248896455402385
0.0424175308152961
0.07209856260915115
0.006495079512028042
-0.01286614542600176
-0.1722562217628325
-0.1370810255333063
-0.1187363689809351
0.001212254404495323
0.01623704477910026
-0.08104784661595232
-0.1687771470522487
0.01340798597962792
-0.02703982272033239
0.09727319378072945
0.03628850152130701
0.05536614939899828
0.07288653103998703
0.0372175038977088
-0.008529796752067437
-0.06681634711899842
0.1140848825113095
-0.09889894476993794
-0.1290404070248244
-0.03143424935035093
0.08109073258167418
-0.05200802209361676
-0.1945949976148241
-0.1046257812480269
-0.01432022564538762
-0.0683559572377771
-0.05135575462441789
-0.01357908887826344
-0.1955582210777266
0.09579854869477528
-0.06823477371578626
-0.2811179868403393
-0.1570616612094553
-0.05927287508359436
0.004264472364955
-0.0530410223356642
0.1261278161455761
0.113945989040597
-0.1220062390785059
-0.07975097537376617
0.1017377834147929
0.07746350615324371
-0.07215572278380697
0.03329252196176823
0.04960190100706438
-0.01286041824982237
-0.0800441602269204
-0.1568142698024313
-0.06296753929122616
-0.01308812478136652
-0.04917880416610398
-0.2167079815875392
-0.1107016673552402
0.006309011674640226
-0.1155609452697939
-0.001324662808015582
-0.1233473070822982
-0.05267038603612471
-0.07907231009667713
0.0164241041054484
-0.1100303623294367
0.07208515324840462
0.06467093108838419
0.1058539661404751
0.1477563085596301
0.02015048335867097
0.02345482209957026
0.04624941274224353
0.001362192274796526
-0.008513078779973817
0.08508430400400101
-0.1223586172521828
-0.1281793573243335
0.08529535415897573
-0.03079842137952938
0.01526769016551736
-0.1240501892197446
0.142598307886151
-0.005364895390936463
-0.05269423362608124
0.03117095708448276
-0.1437854636409581
0.09768134674204941
0.01374926383924928
0.06986826305805333
-0.1170104838127704
-0.07679500963127375
0.01926011010060892
0.01280330572037582
-0.06846783811757548
-0.09677400981287552
-0.05757010102592588
0.07641558373710873
-0.1512747897113194
-0.0111792983262677
-0.1023029686526628
-0.02990593295003914
-0.1594763755111799
0.07766901910954967
-0.03702919811964299
-0.1326018947565371
0.0133068601780793
0.007791242663399589
0.08356237360022573
0.04777519662862933
-0.1430395601654751
-0.1058936341866827
0.1244074548212626
-0.05557301427429091
0.154555014536116
0.1004354204047629
0.1722146518121883
0.06955220207946537
0.01583950307815775
-0.003235191062578803
-0.0130278570224007
-0.06902065152055381
0.05364492957416011
-0.08234110285225828
0.09595633963379577
-0.08031751377863303
-0.005392544641877908
-0.01534599431175734
-0.005062871199210978
-0.04212772701044736
-0.07273085758919756
0.04345884796802058
0.1042337871626925
-0.04176488349443361
0.01898947094519507
-0.05020583443938374
-0.04654220476366205
-0.1122710624918805
-0.07996881060648563
0.07423804438122435
0.03351669840062874
-0.06090544833110043
0.00277968791587294
0.120256286707101
-0.1029065017037053
0.1338529773955676
0.1734886178268872
0.005982411015672854
0.05588568812614839
0.06688081510201756
0.05406347337222572
-0.03073166933163102
-0.05509254257940383
-0.08134936518575324
-0.09142166554322274
-0.1838816577490025
-0.03898105136954009
-0.03359545111654335
-0.1576240595962672
-0.1708348207683264
-0.1813753017584059
0.005388071700496069
-0.311565635280898
-0.1396445791591988
-0.160019864971758
0.05806732595604445
0.06783691954273813
0.02165930624115108
0.01962048379148839
-0.02508281587520864
0.1195674157033641
0.07450772519579936
0.06931177572323061
0.08562290851709842
-0.09217516681412191
0.05110765609646706
0.104178423582953
-0.1972576246316458
-0.06073245779681814
-0.1518348873594806
-0.07727682834043736
0.03565792250038596
-0.003588512504922973
-0.1351267331030316
0.000560162204517244
0.080621797175048
0.01706568996592171
0.05933844150395275
-0.02776548446690046
0.03688831944672476
-0.009416070395322532
-0.07806145286611263
-0.0172310854791805
0.0565399659089808
-0.06603827353957395
0.09030607288082075
-0.06977105113408848
0.1264607644583645
0.0886130702207224
-0.07696393568724712
-0.08912129918109442
-0.1181419282425077
0.196345437985752
-0.001416537124898695
-0.0679914084672507
-0.02176899325651225
0.01853709630755885
0.1927947129360391
0.1224479040612703
0.0124863250283425
0.09663095203833255
0.0312579686362498
0.1648538844417658
0.07163789511068232
0.08073826878466149
0.007577819787109022
-0.06682906499138321
-0.002883597927695733
0.1256357285933191
0.07676325870905942
-0.02541537521864016
0.07324096952540972
-0.02976424555200584
0.08357737866871497
0.02665585848637832
0.02466696875562766
0.02859863353517106
-0.09675753713517608
-0.07708135314121634
-0.1034177132700379
-0.1079463084792761
0.03367890599856819
0.03470545602663056
-0.1266733577524363
0.04514203994379968
0.07018467075238312
-0.004461877617329227
-0.04537571966490735
-0.008659844834236508
-0.1220675584267313
0.04154058930626985
-0.02627524653844143
-0.007880131002362723
-0.01932869477729886
0.07894321988392901
-0.008030919229454449
-0.06185581261894543
-0.1419039720547376
0.1076730766424529
-0.1175356115580549
0.02917182788272551
-0.02302933436060698
0.06513417065604506
-0.1246904848604256
-0.1502335615235892
-0.03005521966366326
0.08061649685076978
0.1039927218862856
0.05153770890092892
-0.06981881354062655
0.007837525998384519
0.1197587645691208
0.1682356075805768
0.138804880299093
0.2246144777089038
0.2368082297778135
0.1133910623430685
-0.04147057422146955
0.1997397205718239
0.02848801984362513
0.02102478805005658
0.03909888204625169
0.03965593208368117
-0.02804919413360564
-0.1129069368584148
-0.08613862817469112
-0.1300945218107037
-0.04348024559995658
0.02320452146753442
0.01664174315862598
-0.1245107237592666
-0.1198620555965341
0.191830678812257
-0.08207986721207254
-0.08061842940111667
-0.1803083470616998
0.0183626766735993
-0.0270769286220989
-0.1315862171501278
-0.1120435532162978
-0.1381639385083175
-0.165601691834572
-0.02153417001722516
0.0003944165096284095
-0.0750671861815089
-0.09481158456782329
0.1415312016987502
0.1187507043286758
0.09043427346400859
0.07965044277080729
0.1136040863054503
-0.08444443419263659
-0.02746649461184229
-0.01462393015291349
-0.06563158935939541
-0.004265658051649604
0.06465905528663592
0.04102679916452551
0.01691137293321134
-0.1130301528467547
-0.08062366699810475
0.06033647676944751
-0.02332702411489355
-0.0907825060743311
0.09459527059605555
0.06134002718565378
-0.09548114892437357
0.03762105680316316
-0.1023676926100686
0.05818889982077249
-0.05160924521206483
-0.03393144288468422
0.06347684191112024
0.001179002787901008
0.08050980070798514
0.0125970450237553
0.01617228324983314
0.1038504512704483
-0.01470948132034371
-0.07668647118152352
0.07949030588133713
-0.0307092762173247
0.03232038876579132
-0.1460264500326606
0.1092270740987077
0.08137605781616422
-0.03294155896467401
-0.03385039835417061
-0.06110448354190375
-0.1884913929384611
-0.06817846104863906
0.04166962644926912
0.07000920001033444
-0.1015669679205345
0.1137649245302966
0.07361193818436006
0.136280997053667
-0.05278963645408313
-0.04800753068983493
0.05774341811804615
-0.03433685401912503
-0.0442457086137226
-0.02035559470472054
-0.01342936356602185
0.1804019484432212
0.06726529753856716
0.08922801505981323
-0.007445024606100305
-0.0614882439011262
0.03260674481756551
-0.1374450347313553
0.04347048926172455
0.0648854327237201
0.05622355789604504
-0.1633319820422015
0.0376205789058217
-0.01358824383584077
0.02087358275613567
0.03505824628258229
0.04974001959147484
-0.03392723287990647
-0.1307985587161254
-0.006733688111349331
0.07882902921553747
0.1026824182256317
-0.01617764803374444
-0.1737691419976677
0.02918120606454838
0.08705818850567076
0.0422995963236077
-0.2017777462033671
-0.160721922153333
-0.106093724049119
0.02018705114125727
-0.1325864656312652
-0.05257533342537901
-0.1193702645407175
-0.2188705474670457
-0.2097082167232779
-0.1665201679681598
0.008724443435251203
0.05215004723969215
-0.02349402552302858
0.08397889145930494
0.02698692192984059
-0.01315257146658772
0.09494755699807883
-0.07620999178002599
0.174864144736782
-0.01727471551124054
0.00847864754196492
0.0659862374138156
0.07999381043449197
0.06782143081619282
0.09963653286407778
-0.1591645823329193
0.05664081094652677
-0.1552924905162895
-0.06868036027675134
-0.05836603355430332
0.06099880241552121
0.09732749554822348
-0.1344231935657675
0.04841249639874513
-0.106927185950362
0.06992910409689423
0.001226419187965851
-0.1386838189284405
-0.07439687982856755
-0.07931062580190019
0.050829708279107
-0.1146605137501321
-0.03026199460306883
-0.1175111382747637
0.03652158771146928
-0.05744279647510176
-0.03153969747254577
-0.07037353910327024
-0.02705708763171378
-0.1355923934375341
0.08061228660642815
-0.1046807333294406
-0.01420926588706285
0.0004798791825854347
0.1404858220905279
0.1522323318111806
-0.02038920040499685
0.04811274424661113
0.2504263289024556
0.1844154770785253
-0.07263564773471888
0.03489350952523305
-0.03403839115648125
0.04009388463174935
0.02386899627744741
0.03311399636199368
0.02377315276035639
-0.02736904077769192
-0.1055146428076062
0.1957075910367695
0.08724467274655176
0.1145133838688262
0.01882638205881429
-0.0839427922746689
0.1096388090495974
0.09658703683159907
0.02862061812440391
-0.02834052440629666
0.000657289866203057
-0.03491760495735314
0.1315232329621885
-0.02835015598933074
-0.01782205748675695
0.06970216513020867
0.07077908681622233
-0.1881448588687346
-0.02910491783536015
-0.05092598848091485
0.09929754689556425
-0.05764323139050211
-0.02598772448154271
0.1323660841097524
-0.1023511706275748
-0.01058016419465247
0.03919476842055254
0.05103251718216224
-0.1361698972696949
-0.1091597018445178
0.0428693339008072
-0.05052235046777828
-0.03489285649567497
-0.06760742513559881
-0.2051279812348139
0.02853892084885759
-0.02705053477581923
-0.09620674693218202
0.03590059302372824
-0.1593852802348827
0.007231957768973383
-0.07006793905741779
-0.1241976883815352
-0.04953601923409961
0.06244619545598042
0.05380703605794201
-0.08372752130212877
-0.01945624108378146
-0.05135707515513859
0.09790385279382903
0.1159947232787385
-0.053628846578806
-0.07010992705533454
0.07554971572907014
-0.01831179705594849
0.02761913707471689
0.02426087225626905
0.1254291046853945
-0.00353485260198475
0.08470033427182837
-0.03165242574695429
-0.04859770611652055
0.1064012385068486
-0.09320339547634914
0.1156753396799456
-0.0464453257266345
-0.1146674566714332
-0.06163167258311974
-0.03893396545085104
0.1806959360648576
-0.0200666387136132
0.05589171313107509
-0.1455576066530857
-0.05556927243068725
-0.06053418890858547
0.1296002869532306
-0.02206700563438167
-0.05279544116761765
-0.107015655505154
0.04344805561098596
-0.08531711252501077
-0.06626096657417181
0.0845557849126239
-0.1237955800714636
-0.03921180356371029
-0.05692795868668712
0.07948070936569417
-0.07758140345487077
-0.09319571669496676
0.02955285045647437
-0.1041866579715064
-0.1438063327955393
-0.1925275354819348
-0.1355500993114582
-0.01133346871353138
0.1133699452295785
-0.003780378431685658
0.07140405881260463
-0.05209433518317554
0.007425866980928396
0.0462423793800621
0.007491165750464965
0.0358064127247081
0.2260769372329203
0.1783541902193208
0.07234164882393546
0.03020340352650414
-0.1290980936665012
0.1862353166538094
0.09148867623689382
-0.05058248581119423
-0.147142574798747
-0.09186978495329201
-0.03163367193224595
0.0004611056834540792
-0.1116424663597036
-0.008927148318346659
-0.1533833886530565
0.04672505738230007
0.02399580667847316
0.0532688184833935
-0.05476160869279764
0.07125134625264019
0.09375307213695047
-0.0143712628564212
-0.07209547926244794
0.02227525807067266
0.06041194702955566
0.08410142663967667
0.06528723552523948
-0.06623608391338458
-0.06168409430731162
-0.1107549203823235
0.03068061010538889
-0.09719542876052131
-0.1168192925967543
-0.1573475107631503
0.08834700970783201
0.02026255488932439
0.129510039291637
0.04567744855924111
0.04673291414105973
-0.04122312336436566
0.204402542535732
-0.02853749897399872
0.03711715208302459
-0.08227066420296321
-0.0946371631912661
0.0861348711683953
-0.1208451946300973
0.0688876623647012
0.005768530394217499
-0.05609240723335355
0.0231846787637743
-0.021835550176363
0.05264971910699559
0.06258304843709298
-0.08290773609545343
0.007582310784315151
-0.02069290575549083
0.08783148250722338
0.06822585577192182
0.05632758796918363
-0.1337932900827059
-0.04567741906821106
0.09329428179173953
-0.09649758346994564
-0.05266616808193768
0.04141375561792938
-0.09800813013455309
-0.1117128445366007
-0.05437773753316427
-0.06642189825580289
0.01503047835021025
-0.06586847582337838
0.03702461824995034
-0.1240939750900892
-0.009999683648194126
0.07076847410544428
-0.06614035200265546
0.07789063150399213
-0.05743763327944312
0.07147024696198928
0.2012256978217601
0.2150478054544095
0.1221405025330418
-0.01029949527006815
0.05491071084631189
0.07853667191582937
-0.1755670293871037
-0.1789043733280132
0.04396131910055259
0.02111830277479102
0.1169786185919029
-0.04847478234390334
-0.004136750729656151
0.1398117962884198
-0.1180868419034516
-0.04943096312624089
0.06090779355594098
0.0149224977381921
0.08946428742413791
-0.1994893195124554
-0.09629328306624474
-0.004014854180663967
0.05243215780338259
-0.110074918198407
-0.07024466084694161
0.0490911949803781
0.06751324613589391
0.0409896841601592
0.01977238726983831
-0.1883608844958505
-0.05785698903302547
0.07298585960151427
0.1528464427868916
-0.115728622353239
0.09108101456557612
0.1786461191904417
-0.257411134211097
0.01189134761387466
0.1268727849088347
-0.0731665662703702
0.03941930869178888
0.002100202726018795
-0.09084457503056871
0.07969430296820969
0.02768262282366699
-0.05060306036690977
-0.08483967365205002
-0.10618769559709
-0.003667957863761168
-0.06176777085029406
-0.03829307954393639
-0.08907638206573172
-0.03472698836525063
0.001346652458841371
-0.1730309669325581
-0.17588342565989
-0.009752176371400216
0.04287703320620037
-0.04260178592920495
-0.1862605461487798
-0.08612773286662748
0.1091067516333504
0.0271082197280665
0.1287613934820679
0.0872867247893175
-0.1751629512606375
0.08143543005490778
0.2304822339742759
0.2102758841540388
0.03613165643721964
-0.1237153623834635
0.0528236543035943
0.04349255755062013
-0.03548214813007946
0.04180056227065383
-0.03150659825129573
-0.04786477176307358
-0.1226610018839157
0.03937786295320915
-0.03800053737457569
-0.0519389588060637
-0.24932860741999
-0.06679791206669417
-0.1467634578641508
-0.008084930952119415
-0.1525054181748865
-0.03215816507119249
0.0171180105978464
-0.1076121122639286
-0.09835921145288168
0.1002315128941312
-0.1217946101890852
0.06319462885655268
0.04492574471631381
-0.08696451705217388
0.1445455827108806
0.1227887436760647
0.089976465602966
-0.03187757192967668
0.03611721615590151
0.08402891093070106
0.08829206062335165
0.003575471620336371
-0.02926970715418247
0.06265343406021047
-0.04476449429653927
-0.1504819720578568
-0.1172111424585043
-0.1437659871505087
-0.1104245296415826
-0.3292146120741134
-0.1825652341653348
0.02276857679421526
0.04237552516654403
-0.1224509494583247
0.07673946675149999
0.001370601218325393
0.1276534253304599
-0.01089159940929958
0.05606787144871406
0.01709791041922363
-0.1470085338290351
0.1319441833767241
0.0002439740346631061
0.09372613129294495
-0.009172803165190179
0.09783300056115179
0.06252220219592562
-0.03880498900672793
-0.02934698289258093
-0.04749567411275372
0.00320055892800278
-0.03602413559913212
-0.1122063686327309
0.01454095228768589
-0.08600790478280142
0.005633844843772409
0.1405623195907177
0.2208162257974889
0.06033170001459802
0.2119456600173693
0.2660159667440052
0.00801856603928764
0.1721953014256096
0.04222629577410161
0.03626822468628453
0.1470225039196044
-0.04113851894249609
-0.05320945452588251
-0.07351329089774659
-0.1975557571693611
0.1062599316087308
-0.03399754918829292
0.05723188139689778
-0.1439061770094124
-0.1202835970302861
0.003511705231986822
-0.02012636338995358
0.1341271720786569
0.127709752308237
0.02210544246169188
-0.04512336932758081
0.06640930341290613
-0.192879505947331
-0.01721190129424506
-0.07524836325863606
-0.08010959462732362
-0.01426810917028399
-0.1743603398905126
-0.1488763069263364
0.01167341661389841
-0.1524622029584806
0.135236346827688
-0.1604377247060058
-0.08933261429493029
-0.003669282759035485
-0.003944479534753818
-0.02733796261636494
0.0624562374218564
0.06895426604772613
-0.009155711681900139
0.03191590835563419
0.1060629966803642
0.09103361609757714
-0.03055756390065811
0.07956975488067572
-0.1308550311580977
-0.1532013455417269
-0.1199380208107007
-0.155871140252314
0.08229182815561145
0.08509329515828516
-0.0023050124539814
-0.05928522942445437
-0.01092760525782127
0.02144441805965124
-0.1059712648775515
-0.1977698955322693
-0.1012924203656235
-0.0530794375967188
-0.08922060213963894
-0.1535901271769989
0.0585493569583236
-0.09483524838320692
-0.1051168110440121
0.04721704413835341
-0.07563645465119473
0.1557171198632385
0.1116342822101266
-0.1815784780697577
-0.002527189230521684
-0.05105556745500637
0.08753301875226052
-0.04682928195712447
-0.07012320497466244
-0.02155983554606825
-0.0790817022721553
-0.06632656945321978
-0.01552402037844159
-0.04470773702490664
0.009704273306645897
-0.009536110450440505
-0.06431527875042944
-0.04502777429179075
-0.07502352734812237
-0.07617573648194174
-0.1189560581716392
-0.004300869015241593
-0.03091290157255289
-0.04851336232784752
0.1300705572654618
0.02718109993225063
0.009947994502984512
0.05328787742834374
0.04891764321719905
0.08879600924357031
0.007753757823231526
-0.05807402017253161
0.13830005448871
0.060290096284496
-0.09310498142107589
-0.01930774859179219
0.09317012624666259
-0.05570298304551248
0.03754460142479698
-0.09979808469630194
0.08661587221232543
0.08270609046753535
-0.03452305982800752
-0.06557636230563008
-0.04074909109284836
-0.09680655607198867
0.01937087986641885
-0.076038035820761
-0.07705084118662696
-0.02509310763919859
0.08998455036336866
-0.04610939301446682
-0.02440080202520451
-0.06876322136643621
0.1561766484598216
0.008261484280951232
0.03252739136153276
0.05131289506718762
-0.03004751865138658
-0.0717165917035136
-0.1678768367983197
0.04777072966454582
0.09103755107433038
0.1112340135305171
-0.1839251780575555
-0.1342872692740531
-0.008872679855188763
-0.08438859357098992
0.008325555771158037
-0.2128935056316476
-0.0983072117233847
-0.03502006959967691
-0.1295727735574677
0.104036903399366
-0.01607997726483264
-0.06584823965597821
-0.1458131878636321
-0.03918657514681836
-0.1531996229603521
-0.04077186690299733
0.001087764548079674
0.1089076853654846
0.05285983496295232
0.06011605860074863
-0.1814062840439843
0.06193183219583658
-0.06111700773561471
0.06031103696651845
0.065202046232404
0.005570823131048584
-0.06381251741603707
0.08692688739576501
-0.09685901636749389
-0.1022549753089679
0.103340406919039
-0.06402957178099566
-0.09955554017460119
-0.08617188427911925
0.03920148547997068
0.01359638848271302
-0.08697922152519517
-0.08857741974257874
0.1279836215556277
0.03216466382761934
-0.08833138800436152
0.02346560582879527
0.07573757716170043
-0.1922897932407824
-0.2580506345694222
0.01421919338711767
-0.06911154874351917
-0.1562291667701677
-0.07493373892149788
-0.06854855529125958
0.005806857638031214
0.07257451680687194
-7.913358401580485e-05
0.08672758439005741
0.1042750539569436
0.1150081550730683
-0.1004828368143595
0.1601259724074737
0.0272439566612229
-0.03573851206295089
-0.07989995173608336
-0.009166013201589407
-0.09849293704651928
-0.09460426766048996
0.1071229614803089
0.1401559654338027
0.1152218882152234
-0.05244412163763008
0.09647872959226668
0.05405205281439214
-0.03078658053641016
0.1135539744022192
0.01838342192426526
-4.885535524115619e-05
-0.07653537117939582
0.003633352745953971
-0.104027888960703
0.04381154685234905
-0.1199642793627709
0.01476706153904626
-0.2077876129432347
-0.004999994057278415
0.06139811515154264
-0.04877849944363786
-0.05741149916263859
-0.1284815661264548
0.0456575547530772
0.05833094983753603
-0.0007541922577233999
0.0333069354727006
0.1082070161796558
-0.1028400874523164
-0.04478409453529473
0.08766019156697571
0.0007845619868159017
-0.2079535949376534
0.02853456988156836
-0.1327429236626738
-0.1770053476567506
-0.1214177619466144
-0.2324676638565682
0.0202840317899756
-0.07535027754810333
-0.06239989373054568
-0.1708126689760952
-0.02587219473451687
-0.1524458356541682
-0.0654584600051923
-0.02671333848484113
-0.1322696773462486
-0.1581817291669962
-0.005099851771170775
0.0452112779852703
0.002142407782603292
0.004484802045630838
0.06405242494484507
0.09970551874925632
-0.05550067926418776
-0.1396619924042517
0.01999204886027869
-0.1679324636305753
-0.1247500759681094
0.06272504408858323
-0.1165082581255197
0.03549731674992514
-0.168692981759931
-0.1594424909953039
-0.06579803390019628
-0.08657872798303771
-0.1022525950850187
-0.1194560458475839
-0.02888031559997908
-0.1680650054827599
-0.007906839184680065
0.1635402788129701
-0.05265404681035346
-0.1324981999971884
-0.1075567448368242
-0.002679750589273455
0.0133528089634096
-0.1801317201561708
-0.09012927036892858
0.0520876862441734
-0.02929932103725674
0.1707875719353311
0.1365096166366263
0.1301176582433714
0.02605316454175595
-0.07858916292565261
0.05248919906699512
0.02046072905067517
-0.02926093470935975
0.01176898433419345
-0.1018821051010916
-0.05942634648034712
-0.0370514143430007
-0.03353394471159497
0.06560080099179187
-0.1070912046205118
-0.1084177649956833
-0.1077010484741369
-0.06653077453509416
-0.01558943354506941
-0.05975795132692836
-0.1665766269726299
-0.06083785509259682
-0.05316272302581472
-0.03684212085536072
-0.06313706440556406
-0.186508301570381
0.1064748952116912
0.05454450013502596
-0.03596665676734478
-0.1820850959668516
-0.2336923763060895
-0.03376521113159373
-0.1412671405565642
-0.04255552133547185
-0.161590987173486
-0.07230395958843371
-0.09865998482262418
-0.06933257874694053
0.005645865266660604
-0.1798267187918963
0.03330358432125882
-0.1920031111361082
-0.005322477883399702
0.0603597082949255
0.1075226309847874
-0.1679553495759467
-0.04253425835266614
-0.105877433190135
0.01977671572923927
-0.04235026847363216
0.1606515424420365
0.2219686735710614
0.0431573673974917
-0.01463334115011907
0.141726685260415
-0.05826703214243734
0.03745998111134893
0.1051976113450138
0.04407111686977536
0.08903646517874027
-0.070759733422322
0.2237963862724747
0.09923606830320719
-0.06347083053053196
0.002053967889161492
0.02344187723002574
0.09433552620725287
0.1465042617595012
-0.1001041507084201
-0.1193172511692676
0.04789656283754729
-0.1781060248532254
-0.06719202569165127
0.07380776842117238
0.05071123374823266
-0.0422285267551637
0.02221991523446627
-0.1953717506905562
-0.006394989926277401
-0.01326086287812893
-0.1009329836628601
0.06833485118200738
0.03495399854964926
-0.02416354555922183
-0.08514462132598455
0.01309168622607901
0.07412782547684757
0.002011042688979959
-0.07826560308946351
-0.1283792462301669
-0.1151482652457069
0.003632147563128854
-0.1148592384962837
-0.03942015205347584
0.05669059422811212
0.1587588553598324
0.1386797793961969
-0.07885518768968255
-0.0005470367680845773
-0.1411078579543565
-0.09302440626788902
-0.02235828075322346
-0.2028040729019059
-0.03043723594537288
-0.201542130418055
-0.03360750134147192
0.04133302004027491
-0.02020445238072515
0.02324673212999067
-0.01331481876490967
-0.06337560861057263
0.05293231327013633
-0.09019547513691029
0.04110206208133513
-0.02194180696297251
0.002134574109805553
-0.02428597749824734
-0.118616829177392
-0.01013315057889029
0.001881512727556563
-0.003940616088939921
0.2011814462597261
-0.004376629669213481
-0.01058545092803115
-0.04571407351763115
0.07422354269066768
-0.1552098723777074
-0.1707752699210412
0.07498704298526242
0.04973336349045113
-0.01810580817820192
-0.1933132734407658
-0.2369670960187832
-0.01252884637224037
0.05381060395741265
0.02811372952770826
-0.1369381790860457
-0.04915090014855975
-0.1055127721266924
0.1296210040911728
-0.03339148724070347
-0.03536493206338066
0.004862067343669191
-0.05626452982532962
-0.1576240363619129
-0.08089033831192657
-0.07393948908825621
-0.0611558113905189
-0.06852837873574957
0.1388224105035976
0.08882058746385699
-0.04415909632328003
0.1211120553636186
-0.1099180309034614
0.1681302348574747
-0.1020927541181984
0.02814108169360772
-0.1637360227182608
0.01077630821642001
0.0202356494879622
0.01858047441080966
0.03842964174560097
0.03285918322282882
0.1109012314519195
-0.0591089944868116
-0.02309847185267533
-0.06755283794492073
0.006999065140366339
-0.07259425666016246
0.008686404144900258
-0.01895293837683963
0.004933414940468862
0.08991184734594646
-0.08814625608133443
-0.1042243223860983
-0.1174393076503644
-0.02336675553819309
-0.0497147873868885
-0.04323432191223524
0.01327680817077825
-0.08003420303094472
-0.05051881540747852
-0.07800507909604075
-0.1060906792154343
-0.0460731923781662
-0.1374655317175547
-0.07133163310480063
-0.1025042358090452
-0.1026788871372869
0.06693337783556431
0.01893141719372394
0.06505820656695045
0.01670050091202693
-0.04131647773472538
0.0516008158476679
0.09156203845881955
0.0730778061456388
-0.1212463101798378
0.02741195606194689
0.1339701346685666
-0.003248895601432384
0.0738696266247031
-0.03540995722375812
0.08284756180195205
0.12536065858985
-0.04673546579207249
0.1121599520694722
-0.03930153861568343
0.09335110907033571
0.185586405927532
0.05415280687592215
0.1713964189611224
-0.08218224030656111
0.1602786664258158
0.1948672863411406
-0.02159862980172639
0.08553490184783301
-0.1148649391376749
0.09838077305599634
-0.05651042421335546
0.07723438168651028
-0.1470798134533261
0.05054260031175729
-0.1342710885576827
-0.04603089058824279
-0.05045073011664704
-0.1166156625497677
-0.1044752557309739
-0.08282606568602342
0.01272097188116396
-0.05771421510874221
-0.144333813954997
-0.04177039425751344
-0.04591728847120848
0.05676847643964749
0.01558155480987794
0.01270221560124161
0.05811511999377154
5.944271164323292e-05
0.1004572671843023
0.007307255050294429
-0.00991022610073217
0.06441874883728779
0.1062112111193782
0.06182858045501386
0.08085101934160198
-0.08318530769865419
-0.07794324845665365
0.08266842086540868
0.1003557526878874
0.1829396677024934
0.3126695772067323
0.03665838670700278
-0.1974765874048245
0.007263550820949666
0.2173921502425526
0.2014373096511667
0.1326463490994294
-0.1124810003879867
-0.141824744589461
-0.03597702076365435
0.1793810961573335
-0.06969805816392391
0.02869194012967599
-0.05421380586668609
-0.1384663654742961
-0.07861059148674147
-0.0226795748150664
0.01647931781035573
0.07899870031800145
0.05268572801654969
-0.1303595666487637
-0.1225090283302184
0.06144467668406774
0.0993404929761189
0.05249961034812792
0.02222644075253315
-0.03274076839069363
-0.02223939990011517
0.004509779267050893
-0.03709400593053688
-0.007261892435571962
0.02829895059647886
-0.1425705555692696
0.0497474891149147
0.126498175933764
-0.0964518455032848
0.08863409098929359
0.01178660950449012
-0.004270868820735417
0.02303116424811975
-0.1621485274312003
-0.09406046868937905
-0.1380649262818899
-0.1599605162681682
0.04762453964204906
-0.05612229785865736
-0.06948933315625622
0.05994910080422887
-0.1675125437257277
0.03487864083233799
0.07830884320021271
-0.0968414214304756
0.07350592027271939
-0.0860200020354052
0.2132347373794617
0.1745649337596706
0.09695253176581188
-0.1407128206193069
-0.009772104345681643
0.005240680289561488
-0.04176567865480802
0.07573562502006066
0.07156781530947759
-0.006006158144967261
-0.04737459803637691
0.01909190151106189
0.1175641908454323
0.1213042948230781
-0.07605027527738013
-0.01364941005277316
0.1038266450247753
-0.03189158861480544
0.08687486587947116
-0.1140178516092019
-0.07136574154081736
0.01210942229457458
-0.01527509929533761
0.06102933696662449
-0.01372821177550092
-0.02992823841373684
-0.1088644692387693
-0.09974061159086677
0.02525983013846073
0.112376673855415
0.007644493002870514
0.02976620024653195
-0.001583656067716023
-0.04286052469322243
0.03859949206738528
-0.1369586920992975
0.06113268225856713
0.09414040691966352
0.08286350613747193
-0.001527352336184102
-0.05617787031881379
0.08472351956011251
-0.08291080558228367
-0.09309778171822083
0.09631334544840384
-0.009020835103572461
0.002404109037669051
-0.001991843063848975
0.0309110605427249
-0.02386842451280062
0.07552287143012805
-0.1286801757013436
0.08415270400895017
-0.0957922782932112
0.0831081858955558
-0.03421146338560568
0.02163702054853988
0.07692165566703783
-0.01536052981669761
-0.05134746905716247
0.08100697830054866
-0.1398239338015488
0.0913531474183661
-0.04531406467230015
-0.03486170356840124
0.01239247684725089
-0.03640991840935776
-0.1043943493481755
-0.03299028828119845
-0.06840480533559981
0.03966469291092588
0.05491100425088396
-0.1027951669337875
0.09563418425695916
-0.08478454461689472
0.1113891065658624
-0.0625036422763847
0.02394691575595333
0.03879687033482477
-0.1354178402832274
0.08792328843967065
-0.03383956036485145
-0.1185924349449288
0.0975244597555773
0.003926871697394546
0.06317071490374387
-0.05939222794634506
-0.05392523491734036
0.0739507670653847
0.03839712088830245
0.0138241209571065
0.05059057195978183
0.09328361699242721
0.0188150658141868
-0.1373757108204482
-0.06392223661017347
-0.06474107812147652
0.02394595961742702
0.01695235277407833
0.01684102278043514
0.05014535228617604
-0.04315464480050143
0.06677289247325623
0.1291348653144547
-0.07250696654405991
0.0456244911210547
0.1116705764329141
0.01643700190608076
-0.03176075543836127
0.00719625943765874
0.02523903117108319
-0.04505762470670866
0.1110565186142483
0.0433905206737796
-0.09491391434846512
-0.02028510792837643
0.01013533072774023
-0.03866926250288698
0.03702650352193412
-0.05321702266249557
-0.07648266801203546
-0.04125621900108147
0.1099310845661497
-0.1202697204665302
0.1086270256170445
0.1323386537829186
-0.04636681289557618
-0.1079520024536458
0.001134160700909358
0.06967991013256172
0.07752652906129
-0.04235089684262015
0.1299183705517996
-0.04029978763974328
-0.07001280882293241
-0.08023714451028188
-0.1036907900889552
-0.08753571353146752
0.05031138435654828
-0.0169221971340878
0.04554950564576021
-0.05398973982508131
0.05798845995166449
0.01875062309799004
0.1118463381468932
0.1156827695109745
-0.08957108610004899
-0.002501917427456908
-0.07386090292681276
0.06613627148984534
0.09732135746816692
0.01376307801769865
-0.1156569263073349
0.01674426323160138
0.006398347672628212
0.1583274494671038
0.09874434976439804
0.09832905859327119
-0.1416336048728725
-0.04362283230797631
0.05583607407965879
0.1288218325339936
-0.0001217510149747249
-0.01173552577011923
-0.05961455168536995
0.05844552887506202
0.05474886715884267
-0.05419211134180226
0.03354024945060471
-0.04763576208313004
0.03296732009727738
-0.002320231204623984
0.06487732565891215
-0.02294936788702849
-0.1120708533035308
0.03928268661308419
-0.04096211049805687
-0.09298372395661529
-0.1041525094146284
0.01488489840419439
0.1086774818932684
0.08525575527448398
-0.1120111833586217
-0.1295527913009882
0.02688288166101335
0.04730865693015708
0.1524433621437268
-0.03640559155971939
-0.04446819682147529
-0.1077541021795215
-0.001052943985220897
0.1230316226912182
0.08553866821938619
0.08322481277901563
0.002790276194881292
-0.1182354699533611
0.01555454399486845
-0.06913715310961585
-0.05962976499123331
-0.02460999578974727
0.04409876605361529
0.1154444980282785
0.1060939659548872
-0.03363514183515954
-0.03123329384302151
-0.1240341880876166
-0.1170127162310297
0.03644235908707563
-0.09127339710310906
-0.08425541282137979
-0.0626900786392547
-0.1181978722025551
-0.0958781350575833
-0.02905725684163808
-0.1231595609104338
0.02189226677423578
0.1179719146543766
-0.1006201670178121
0.09986260615903342
-0.03612165662702942
-0.0807373483589644
6.648966534814677e-05
0.007481509509870486
0.1392039673758249
-0.06824469477570294
0.09012242202374195
0.134554474661751
0.08777099331262801
-0.09503979051502934
-0.07160537556125239
-0.1034707188126238
0.049220215126185
-0.07318189064256264
-0.1179202609421873
-0.1056842087327027
-0.001778575266368491
-0.1172371611795488
-0.08473021747884933
-0.0739245514608219
-0.1028112548623457
-0.04639003669310095
0.02759364537153127
-0.07280712799465405
-0.05853835845807649
0.09952375305031026
-0.05800257919304871
0.1189870239834119
0.07337624823239099
-0.07183648886836659
0.09696865952530423
-0.06612114750811204
-0.02194378187156322
-0.09327323110731321
-0.0006529091692387513
-0.03514198606331553
-0.05991906508753535
-0.06014869374966617
-0.04219776511703221
-0.1203205527988889
-0.04404816427690483
-0.02603130029947899
-0.08844382048734269
-0.07806271653834976
0.06764740488243319
-0.0585850296334107
-0.08540137727513027
-0.04863908980734311
-0.06793464304858039
-0.02076806014308391
0.0368846771902089
0.01297456645458574
0.09444559287436466
-0.04858199059746698
-0.001989147388304724
-0.09060320547917217
-0.09132349855944946
0.1446927541797333
-0.03325098620477408
0.1291907667924526
-0.09048420750291954
0.1129603144435334
-0.1167318592441412
0.01568508625141038
-0.1090084591119764
-0.000306316906863469
0.05528459080135312
-0.08044684552953557
0.05905511332329366
-0.1184787926315105
-0.05502338305285977
-0.09543324810753129
0.01687721518092633
-0.04666558364024277
-0.1191315455357774
-0.04815038750875769
0.00851047430580119
-0.03368749229240704
0.01942338999794782
0.05608538612580967
0.07675012765875329
-0.04786942900897204
-0.08507375728948001
-0.03534440175372608
0.008362885681204078
0.1030949725876013
0.03218833119538503
-0.01116084559070048
0.01768376029514312
0.03047760452106715
-0.02303109698220272
0.05413464354267129
-0.0209910525844575
-0.01557919172218026
-0.03098931650569506
0.02088539812450494
-0.1491124982757808
-0.1029482849406726
0.08174414531995518
0.107303858315174
-0.07043665477017305
-0.08639331890430162
-0.1221680972022053
0.09414129701050661
0.02093220913336834
-0.05222499243844221
-0.07283272632116106
-0.08634669415880629
0.08236179108730018
-0.1399861659610234
-0.1485439606580753
0.01699006720551594
-0.05256386580620018
-0.0686990745580279
-0.1140745070325624
0.07327860774238257
-0.123766245801669
0.06462019688769791
-0.01199569437679779
0.09461078994665566
-0.007156408234490506
0.1243545368582582
0.06420712217139952
-0.04277599115351417
0.01953278799854649
-0.1280705091997317
0.02545034780597411
-0.03792845269710082
-0.1027923335403714
0.02156057570341401
-0.04988957348737318
-0.03915951511822963
0.04427779702034079
-0.05691751807679627
-0.07172536357694709
-0.05057610875812447
0.0005607725553598987
-0.00607601706576631
0.009955592387981393
-0.004791869724316468
-0.009378441860802673
0.002915400834022211
-0.1305240075662631
0.1265832490876105
0.1076055460994532
-0.08557816815294614
0.04045586628062314
0.0874996928147027
-0.06814502938526056
-0.01636033501731603
0.03661063035247553
-0.004023523669042308
-0.08936703103839787
-0.05746553726091973
0.03757566081234018
0.04296445404142987
-0.05529176303130236
-0.04411519510449313
-0.08508561489217317
0.02143987654919262
-0.1330288058951698
-0.03034737694300847
0.09580086819460547
0.08307522913492613
0.09894186240602254
-0.06939856346945888
-0.1046986230122616
-0.01273705663167655
0.1198553603622971
0.07780485024778683
0.0997662442773897
-0.002123811607127344
-0.01424174681402939
-0.1182273047912731
0.0149486555129002
-0.07390098231427274
-0.02994145460234665
0.0009764441292779182
-0.08686108823091346
-0.07004254680905646
0.06597552451430003
0.09885931767969278
0.1211634368798623
0.1272807002929633
-0.0979559747466809
0.01803525953481841
0.06057964445543682
0.03614759584130754
0.1315223804439873
0.04214323267615923
-0.1273381376077082
-0.0698238296279429
0.003258130683037525
-0.101544623627681
0.07279212868896788
-0.08017439126835188
-0.02199411053323614
-0.07263062455293916
0.05561510214505273
-0.0400182704467875
0.08575245819716332
0.02457134345551057
0.09776737219978503
-0.01981506226479686
0.04885114137671449
-0.0560812369351945
-0.005313585547394183
0.116226925800985
0.07709917947198759
0.06209025128538603
-0.1050993638244042
-0.01394333847271599
0.002917136970287722
-0.08424922117647769
0.007668970843553178
0.01050182161784202
0.04685170221975979
-0.09814119169041628
-0.1025316855967037
0.03318363780851628
0.13900633244418
-0.09176257369271708
0.03493174893319847
-0.06942747561560479
-0.1158328483188062
0.02807182512660822
-0.01496608152664038
-0.008773989873216174
0.06287593264359491
-0.1043227544312632
0.03950877491887682
0.04925609167246278
0.09251840031123447
0.05169767344379104
-0.0927887454586397
-0.03003019457509418
0.1179468902479622
-0.001929579283437931
-0.03897275165925632
0.0691729387727502
-0.07077043739811005
0.003387047472705724
-0.06046369163546897
0.05109369214730348
0.08295899338087491
0.08212896205411531
-0.04255371417015799
-0.02006931245204441
0.1502526963189508
0.03235981924611338
-0.1021989655360877
0.1227959018639961
0.0274512310767489
0.07017146977646041
-0.06700791196258056
0.05196381308855428
0.005467552277401115
0.06642887246031035
-0.08966459415987718
-0.08654350143172851
0.1046746305042484
0.1298770541084837
0.1186761906310982
0.04834656899441519
-0.001364081463208471
-0.1276878971375448
-0.08792524427807595
0.02048921213508853
0.02428156418866602
-0.009847401915088788
-0.03444082614143536
0.0974491033271538
-0.09229101971264674
0.02396216675248077
0.01850339864133498
0.08387014755523702
-0.007698060095707917
0.1190998279762218
-0.0617172801523636
-0.006049602700440249
-0.009101409581374155
-0.03598898041181092
-0.008061598978764607
-0.1152412981405161
-0.0777756736670864
0.06812676757227544
0.06368472937388231
0.03793127946229839
0.01150118546285812
0.1148519175358097
0.09515482949129336
-0.009252176815083562
0.09554748151040382
0.08194977311401849
-0.08004642154345207
-0.01338276402918569
0.08093011573376177
-0.04953401103953075
0.1248687321654959
-0.01331080054983434
0.08197394515092071
-0.05262720128867286
-0.06157905018668716
0.08723621409565595
0.1081019507601423
0.1266571618232143
0.08309254133111026
-0.005573559819167398
0.09475415555314926
-0.1341980401795239
0.11523244944916
0.003719704652740015
-0.0178609506987927
-0.03719652520957929
-0.03696197242741685
0.04156692696470837
-0.06888034378172259
-0.08773840745229428
-0.07248902748857311
0.04533600761646995
-0.07490757650702609
-0.1028314046104696
-0.08778580790309427
-0.1229515952085517
0.1084335120046472
-0.08132964640364956
-0.03115124315980718
0.06476668030830686
0.05396904433960954
0.01274572688982249
-0.09924309136907958
-0.01768215463960586
0.07127572044859359
0.01429854928638888
-0.01811893098790977
0.05267841102221175
-0.02778587581883199
-0.1125922023008347
-0.06770616170758505
-0.03912268993364601
-0.109004075562266
-0.08267952596981558
0.07706095446746294
0.001147867561789756
0.006824862078582325
-0.08415486991737459
-0.1058775482044441
0.05410555543321666
-0.04519616405195202
-0.06111817075525035
-0.009923854380093532
-0.02470907525110149
-0.005321199411228102
0.06549895020129577
-0.01228167957127987
-0.04176499413421377
-0.1218998598249194
0.1198643709631102
-0.07921829744535058
0.06514607330401377
-0.01676528242987734
-0.04285827542967682
-0.05900430124455121
-0.07222610568694296
0.09342209415449777
0.01911490359350105
-0.1341726048491501
-0.02785189523223178
0.08461346649657894
-0.06364934061486031
0.07419370292234966
0.1103037634462926
0.03301286825063039
0.05780955771093502
0.005217890092611419
-0.1259529173069545
0.05233777768398425
0.01426634485855116
0.08522744870200155
-0.1041238710920132
0.06271888822700369
-0.06973760034954786
-0.01222719075699555
-0.04506223314412107
-0.1183962569356286
-0.1250630248906272
0.04207885424653606
-0.1086676789927464
-0.1204525356436041
0.08960441523105936
0.06398350544307105
-0.02811547505114457
-0.07553820351760279
-0.1197533450408436
0.04766744209472294
-0.1053027081944634
0.03796910096930071
0.03506216459294292
-0.02642620836682486
-0.02572720693313074
0.1117942009556012
-0.07186521249730426
-0.03231853105597815
-0.02224580293914539
0.06166189696038822
0.07342516905322809
-0.01328277211546324
-0.03275804707134856
-0.04758169542474441
-0.08070641581788415
0.005182069977994265
-0.05401706920815537
0.01190952629142298
-0.1201942603788245
0.02478599576676489
0.03312496522912208
-0.1066189846057842
-0.03344307702494053
0.0668797533294507
-0.07804854396497132
-0.07136886705100555
-0.002211990509153647
0.03839539762407954
0.008392041956413104
0.04149739065761777
-0.08763481185044281
-0.08010341716263264
-0.0937003789006018
0.2175731844662602
0.15225931450359
0.00599635406668286
0.06549389585247549
-0.0649159574966123
0.116561358878988
-0.05179461194158121
0.08436857662683046
0.06408556162902695
0.02756423164320929
-0.06429295699641976
-0.0410623329873447
-0.1048113272404988
0.01982625637797443
-0.02953447010605204
0.07432184503141916
0.08076927015226829
-0.1039432065011019
-0.08306945943533822
-0.1636324263900219
-0.008065779387946979
-0.1387781563606238
-0.1056731601769869
0.1409301110070115
0.0201936579187333
0.01319332907261053
-0.1382525070441889
-0.1840171426622779
-0.1384511924220529
0.00942260845628776
-0.03771996711016713
-0.1168951418948444
0.1119303628221954
-0.1508490226267981
-0.1655763180003797
-0.1021983047299626
-0.06165182554619867
0.01808018757956317
-0.1942208266182739
0.03744391626051512
-0.07002430136414244
0.02382961551104697
-0.0703712307818366
-0.1373950128125928
-0.1624279059674336
0.02859245040302459
-0.04499517823800329
-0.05880527397663294
0.03992767203060936
-0.02348350688552884
-0.0739575308838359
-0.059076733285926
-0.01532758362652425
-0.007806757556777284
0.001468907606566136
-0.06753924467627918
-0.06680478134703104
0.01722237962462352
0.04802689686484853
0.01655190614777575
-0.04776150322491918
-0.14346222345772
-0.02653357880954861
0.07757334504481615
0.002038991913786379
0.0469161362506971
-0.005746311103923935
-0.07152222892917773
-0.1065559010871834
0.1078233887364105
-0.04455246817998409
-0.09185045528894188
0.06899071202087415
-0.03686075719919726
0.02409815473826086
-0.09827751823775419
-0.08407429310994459
0.1089959008384546
-0.04788558098776675
-0.06252899669393083
-0.02775955912165882
0.0290523450408844
0.09149153183726642
0.07576779100154961
-0.03371738475194212
-0.1327758933661956
-0.08998764112923713
0.003470142403132877
0.118782569187586
0.1698431985751392
-0.1333013503388728
-0.03290348613485785
0.08156641360958253
0.02742836712776122
0.1885726603086354
-0.128305722651491
-0.1054634426489977
-0.02343731287046553
-0.0505062776524212
-0.08396709640110391
-0.1113239568124477
0.02176649502652412
-0.01289491874032789
0.1421512342696804
-0.1281541064369175
-0.09240366129718044
-0.08399851205396862
-0.09365902242693239
0.1132098919406328
0.02829033837404742
-0.04400597386736438
-0.05992594217208496
-0.0407662968358045
0.1178325172134979
-0.06674503458403844
0.0241798647791552
-0.1184250364394417
-0.00353039244408989
-0.0944386982555792
0.09433745444786289
-0.04649085630887838
-0.09434229280802474
-0.05405098251381771
-0.1035175076942948
0.01216531580684578
-0.1426497560402639
-0.1906269033262628
-0.02224316538863964
0.01990672974160832
-0.08107943950707609
0.07086952984814714
0.004420765072367171
-0.1261606873226197
-0.06436283980495437
0.009782201545744941
-0.0964294608005524
0.01391531285588496
0.1650159499347609
-0.1136103994602373
-0.0342574032057101
0.0324741279429589
-0.04109949177373478
0.09372292406657028
0.09025725585170134
-0.01172002553575711
0.07770160177264368
0.0001663806004428886
0.07692422883671264
-0.009380160371427875
-0.08600958284774664
-0.1235300505349604
0.08463028924230287
0.09993737697692728
-0.01091960656188923
0.05347196976772356
-0.04295161184638874
0.1058397092966842
-0.135993073038987
-0.1032018451346633
-0.01326381788813779
-0.02667073697271663
-0.1028666267149642
-0.04914014790258414
0.03793979090212277
0.02801972695628866
-0.0861962595923859
0.00617091945166807
-0.08657604507452241
-0.1067168794783852
0.03554666729419421
-0.006511189678973265
0.0221019598970179
-0.085424726109257
-0.05105099866531464
0.02027270156417496
0.03845554049217441
-0.06507085597634978
-0.08581044157297339
-0.0650518737906271
0.05423854914202433
0.05199091779029612
0.02857290073362358
0.009054024534271491
-0.005578311283308491
-0.06090249111921105
-0.01411094091713166
0.1030177494543413
-0.07586866238255907
-0.0001384814713256479
-0.08457869166838734
0.09754996789096894
-0.1265852419359452
-0.03767080539857717
-0.09108606948638384
-0.005957912453969439
0.1052891573721347
-0.03926154005487884
-0.09147039288560242
-0.08836043067658608
0.01949230086042035
0.1313108638712079
0.08039398193392419
-0.03351932670988693
-0.1066829805690892
-0.1033127552096883
0.06992091022931105
0.1192216377176314
-0.02854137506046293
0.06957366235638528
-0.1356697295853597
-0.0824244081634508
0.01645917268250862
0.02940951385147341
-0.01081696615844503
-0.1171163469002043
-0.1355005730850092
-0.1467988301772701
-0.1671326182908482
-0.08805996538362912
0.04274384254123409
-0.0713753375441519
-0.1617629536611373
-0.04655575026340428
0.01339794097330382
-0.06764221062090986
-0.1169224065212917
-0.0007592302519506994
0.008483707964400995
-0.03180171315092392
0.05759547838968183
-0.1099924401898881
-0.08258042415445536
-0.0270235900361547
-0.1111334263420233
-0.05214553293017556
0.06386387112929143
0.2231788048255585
-0.004413203834538451
0.09237184881482897
0.05622962608162763
-0.005814156584124736
-0.07657190274593943
-0.01586089823100676
-0.09034499156135732
0.01837783302655953
-0.01459538236909133
-0.06250143163641256
0.07631336750823049
0.1093657291778906
0.05687477401322961
0.01505316464323229
0.05334618628294631
-0.02418729065450279
-0.1102772746064969
0.01527480358328626
0.1243060735982443
-0.03163460294360416
-0.07554335724622616
-0.05269763958970305
0.004304625312905463
0.06926219530895034
0.02272228830992862
0.1460114321619306
-0.08959123960454664
-0.03433691766873242
-0.09808578099011653
0.06750335486271006
0.02085839064874264
-0.01980078581874779
0.01642161235507128
-0.1783131583365621
-0.1719750432842761
-0.2249490890717145
0.05893599225742936
-0.0659788362160191
0.09686138998169881
0.03301288582975093
0.0103622880605529
0.01002994413569349
-0.05896973096459303
0.0201197452969905
0.02739183688809034
-0.03192137991334103
0.04729616104488408
0.003144989713393925
0.1001534361638548
0.06634076421737063
0.04234981305713831
0.07656224631709808
-0.09139869980014387
-0.03170322519700994
0.05612872653855092
0.0237357624784645
-0.05986403897748023
-0.09442825473532342
-0.07007008143091423
-0.01521680666672766
0.05919653773005672
0.01254341266322351
-0.1086931633983601
0.02122669866888567
-0.1796426615694308
-0.1695986713301733
0.1166189987099982
-0.07579081866676673
0.01655609691305093
0.02403817768937858
0.018471007711231
-0.01596693388811393
-0.009400602376788634
-0.1518282873785818
0.001120583612698279
0.05256282690221903
-0.07755549424907274
-0.0294361311579537
-0.08153470090593752
-0.09762705538915151
-0.07620143936115802
-0.06202472707132134
-0.1522998736848849
0.002875681697917774
0.03638237174692902
0.02277579455538262
-0.1666657520188967
0.06196602808349679
0.06632605963453055
-0.03758082385686677
-0.0412669819523797
0.04727891363895202
-0.06868332205103186
0.02785580887873594
0.07572858635520152
0.01145900192050005
0.03085457351417408
-0.05415317213779212
-0.03679163347051672
-0.02383760161837865
-0.06350849143928869
-0.05599287137071311
0.09495527367942205
0.09559678972337042
-0.0787158763926739
-0.01014819641679224
0.04247602100110969
0.01345945671282398
-0.07643396101217753
-0.07273397204093954
0.01390662888283141
0.02828664112378988
0.0192445367707083
0.08361937266549004
-0.1417385602771563
-0.124151182705399
0.04560364977908597
-0.05188400377466474
-0.0886645258570916
-0.007541014003426966
-0.03116993318985217
0.0022811310518855
0.001403431228889503
0.08563951743301838
0.09461691330404706
0.05920932663526907
-0.09042889546526058
0.03429201921722478
-0.07590641676761066
-0.04110516647757518
-0.1271801790756911
0.08587867990962975
0.07049822223000868
-0.1123933713376544
0.01242197337742074
-0.1251056514289351
0.0524567834329432
-0.01634928066956182
0.1073425283489623
0.1036290443794963
0.0645923328636636
-0.01085468995252077
-0.01107913532536075
-0.03672616615670322
-0.08004329383891061
-0.008282434701903891
0.02674353621178843
-0.04983926092259684
0.02477115464229031
-0.02487187421365143
0.02282161130305812
-0.05817839373880323
-0.07693999755108621
0.04152953025665234
0.04450922754931981
0.09845822982462621
0.04877490683337785
0.09746274514173106
-0.0136655928225389
-0.07456131777207323
-0.02134732820657831
0.07329407325136947
-0.09943743688674443
0.04128918463088509
0.159000497325055
0.06494630638785934
-0.01283143150765321
0.03748249991036349
7.784907270471823e-06
0.0931755392573444
0.1623515927280362
-0.06227623542327649
-0.127211371352693
-0.1783637527768611
0.05441297057511481
0.06147619270431972
0.05288549272690217
-0.07852361158908869
0.02266270735979327
-0.06432494293016175
-0.1222614573380899
0.00481742200132031
-0.002662459048315129
-0.1662612275581066
-0.09864667239332939
-0.04865265086126967
-0.1546876612974691
-0.1256775509203987
-0.003571467590804735
0.1173698139262157
0.009565723531449608
0.07151022778098041
-0.02414283484350513
-0.047786577808266
-0.007826544402037236
-0.02906805868290245
-0.1587415972997016
-0.1580410736238984
-0.1061171619081042
-0.02705535180752006
-0.0382974608735112
0.01978165836062448
0.007013599840473826
0.04540021611821209
0.04745393017602912
-0.03477539749285674
-0.02326832390541365
-0.08015959548356624
0.06802146182874479
-0.08669966322014486
0.05138721013901806
0.1118952104149141
0.0225379980387127
-0.0755582734117419
-0.1452659287455857
0.08573654239553652
0.07874968254145556
-0.09619810756487734
0.1084174732719302
-0.06333007028434809
0.1317109421436373
-0.05689718945472643
-0.04057598521808373
0.0002610304828820508
0.02461185770894973
0.05181077794499173
0.09860734555264716
0.0158055908772717
0.05516936328149669
0.08235628062630292
0.09061386544744514
-0.08100385905320696
-0.02911059417187701
0.009589849181566001
0.04895313887757139
-0.1248904019841176
0.1190179777141059
-0.04859515088483985
-0.005437321372516391
0.07414058857288508
-0.00461050004463509
-0.08110239460373828
0.05302720663119249
-0.09107954421601401
-0.001414177064029826
0.07457637554733218
-0.1099397307769864
-0.04540826768018581
0.1182162043653593
-0.1162105325179757
0.03937782900143916
0.1183390035346116
-0.0477464391806092
0.1001727872123803
-0.0153923718227495
0.09201470422958503
0.01941010362767378
-0.03271370486164472
-0.005044673067241945
-0.05243590282576326
-0.05173110117338121
-0.05545992029690683
-0.007807212080903101
0.0481831230902885
-0.1365806159278537
-0.05541607351070475
0.1780191063406992
0.1285400139237773
0.03123730544245073
-0.0003147515695999729
0.09362846207561988
-0.05362278383771529
-0.009161643006210885
-0.03048795747509228
-0.04409743020937509
-0.1516990596222363
-0.07579997848582254
-0.04175580240444703
-0.0882458982861708
-0.1280223350231119
-0.04115031587814177
0.1186105483420994
-0.08806360051335292
0.03575442021793632
0.01504065477370427
0.0001076622445592315
0.02601355044303972
-0.07246184415449287
0.1098315670941275
-0.03605199327573073
0.1510438259465501
-0.09326232864247264
-0.01094523413800941
-0.08185975421480869
-0.111881261517479
0.05891005492551823
0.0823519300406817
-0.1227284349482776
-0.002619878730965813
-0.06462205679644646
-0.001841000146398549
-0.02908172566588632
0.0205068605435924
-0.1123603765717209
0.05100708746092703
-0.1190372615038756
-0.09099796256043563
-0.1154883463031048
-0.02093497635949046
-0.05828724252128582
-0.07971956219874969
-0.1255357354934272
0.06845378937727958
0.01886017990512719
0.005449566052279965
-0.1620009232607728
-0.02437096908355784
0.08174763109501565
0.04147847358383641
-0.103931469080713
0.02336930749643972
0.05254858136689806
-0.02256555194806636
-0.04829177593695522
0.01597617017871245
0.008806060692345595
-0.05608697140766015
-0.02347225737790166
-0.02669221306048365
-0.02339318462494943
0.0855454629636523
0.009889909440566622
-0.009480657830560135
0.008281171820361035
-0.04487765806513309
-0.09195978394441351
0.0954988860397931
0.05274756929682678
-0.04639416353216202
-0.01862547201053359
-0.02129472193009856
0.06848371827188716
-0.02557096296753823
0.03604823761410492
-0.05186092153118667
0.05835927325436426
-0.09304478319727395
-0.05281131083995962
-0.09589962104512958
-0.1066616584717664
0.07450970533044853
-0.109427369489611
-0.01218490961000387
-0.1019439805134583
-0.007938214285016358
-0.07114163194907372
0.09115347148296668
0.0315827928774037
0.03057196192692584
-0.0007895141404329471
-0.003988902078173122
0.08742697271480614
-0.07284478895669677
0.09837650726762895
-0.02542965267726039
-0.07291252429862093
-0.0841898144278925
0.009739534945584249
-0.05565357189271544
-0.08224897956349243
-0.1754111725343035
0.04562622357495836
-0.1115317740405481
0.05418327714469406
-0.0144427365004617
-0.1259624609413467
-0.05668426046755724
0.1400439421931678
0.0652311135647773
-0.06785617621402758
0.03693116839686372
0.06562438216123068
0.05874204748151997
0.02620727204367531
-0.2040563249149585
-0.1277821904672025
0.1049520685685237
-0.1816886227336339
-0.09369327029704375
0.07981250968343791
0.06817810095861088
0.08865193265109483
0.05381368727719752
0.1108468277364949
0.1112684803332155
-0.0283009568963099
-0.0205191421184227
0.1030914000842458
0.09351948221709545
0.1031453432020161
-0.05950546762754471
0.07980618059127854
-0.05116937486237187
-0.05312897665739291
0.08411577173713604
-0.05620151983583578
0.09935186345227683
-0.1667892897090196
-0.2007559712079069
0.02976312665831991
0.001084559800415123
0.09675556412322361
-0.1106064468715975
-0.08421905377113127
0.04898312683726896
0.06390190232994013
0.1471445275080302
0.004501648561832466
-0.01814182478981764
0.07096198257750913
-0.04857159333135063
-0.02562139665391558
0.04419310522841675
-0.07950326296203629
-0.1381013322333337
-0.001778781053000173
-0.03301870005417544
-0.0470461499984161
-0.02201505303586621
-0.1252146885824377
-0.08270109359761549
-0.1048082953852932
-0.0725002314338503
-0.008186185653312776
-0.1041615684497541
-0.135526231261565
-0.1364564942070512
-0.0508178127357719
-0.1362555552216321
-0.1111717282424197
-0.0540529727229477
0.03437347430906152
0.04498142796859646
-0.06601130807413777
-0.1358105805680067
-0.0221058822426965
-0.1188456159567378
0.03283795052725825
-0.1176760846119294
0.04298144347467681
0.02271246602856433
0.0002152799344647259
-0.06441236195016967
0.05473436344528409
0.09166140776522864
-0.06743686681204467
-0.08876107070207488
-0.007019211375895959
0.1488358777507001
0.1223804145332807
0.1147174781982567
-0.008763616447836554
0.2853328220303324
0.03424074830143019
-0.09261646605445796
-0.09201323662187472
-0.1163120482950882
-0.03314329445931762
0.01441515005923817
-0.07469305356248829
-0.1209621356560683
0.09902553865450163
-0.1077029076297812
-0.09770542042972247
0.03735439778854784
-0.08489003849817742
0.00442988811677129
0.02887322732486033
0.08109270251353071
0.08806505336854617
-0.01062568108802812
-0.0332367261274432
-0.008920860960471179
-0.0155095449220694
0.03179989921664527
-0.06860100496273025
-0.0020348702226626
0.1131150980104222
0.05426259531474271
-0.01240486896367632
0.05496665497906525
-0.01100555037080751
0.04347168473114885
0.02273946852441398
0.01161401647339516
0.08854961410571073
0.1138068891234079
0.08256074850576413
0.1034214307053775
0.05970321759478816
-0.04752122898918881
0.1324269067014334
0.01875706026032957
-0.06201127858485115
-0.1028205201492052
-0.1092673149730611
-0.02999911089216799
0.09124001434991005
0.07452208138664707
-0.0627503244052353
0.04432247468182002
-0.07899790619646196
0.04564770276397845
-0.05305082859140664
0.1029245279474605
0.04600380447619858
-0.04406905570561422
-0.06063047741818488
0.02091779879162047
0.03833375149802976
0.0700983808580054
-0.1593771365107158
0.05795601452493008
-0.003515362271159194
0.04215389940803347
-0.09097045857479072
-0.05013650604299889
0.05973532200028657
-0.08972535451383859
-0.09180055941248734
-0.01191681253210377
0.002841241534820098
-0.08043066325524675
0.09986530522089125
0.03702243950679824
-0.01125129698378846
-0.05586571106420336
-0.155095483815567
-0.1101134251105832
0.0634889328567288
-0.01924484081758351
0.1639057189402047
-0.1200552645801928
-0.1123443242800564
-0.08401351146598651
0.06226125491677324
0.09401616352045644
0.1092328545845802
-0.0785517081152691
-0.07426321264390455
-0.08462200564797755
-0.1492853059414751
0.04865717373054828
-0.1583632025628274
-0.03989229277428248
-0.07873812412968759
-0.003334006468708128
0.08403329452725458
-0.09831861746472705
0.06640726240707394
-0.1002046577442123
0.08248706930451472
-0.0586137509648316
-0.04630430507618262
0.02408638238326805
-0.1238912516771525
0.04156091958407014
0.03646613203842556
-0.08798133354032726
0.08225572981273822
-0.03399538851439368
-0.006172739912465397
0.06978660302991688
-0.003469476222380989
0.04124170246699609
0.09338844632951802
-0.04721772489127533
-0.01268102242505507
0.04399178667914991
-0.02445357841511916
0.02884855987967626
0.09044288093149408
-0.01165582841276593
-0.02845726959449213
-0.07839086405131239
-0.09206122788886856
-0.00114296507774714
-0.01703994746873539
-0.03771236321249596
-0.01083758217855781
-0.06302275832806899
-0.1258291708026432
-0.05036989530511572
-0.01812993827374297
-0.08600768134771089
-0.1949028288839367
0.03728181937546568
-0.0584477930663476
0.03369608141963975
0.02793506919894871
-0.1032300282840284
-0.08396817168102309
-0.06299042687890873
-0.04757966452006947
-0.0649602879533558
-0.1461299561367018
-0.001839874984555418
0.0876756449613928
-0.06361681804674402
-0.05882226104188951
-0.08559653715960294
-0.04559627435449948
-0.044759385749741
0.08290468353403334
0.01957629238269257
-0.1083981922101088
0.005705684573565786
-0.1089162544937053
0.04390471625385733
-0.0105982917401461
0.07352658745766601
-0.08434727756554135
0.03194996151433497
-0.02432679579437294
0.1314634931761265
-0.09764500503089697
-0.03910254779737251
0.02226679730777071
-0.0633383470202299
-0.0929981657401811
0.03096235652978042
-0.01612417320414713
-0.03589161576329894
0.1134243660682806
-0.068012902101817
0.1259702696951037
-0.137803537034268
0.005585334667289887
-0.001675165254397052
0.02962344722093171
-0.02372861226789163
-0.03967952337802873
0.06616130478932618
-0.009984650728829803
0.08499710814702596
-0.01756119525557789
0.09406057432036227
-0.06354291545808033
-0.06100153917955576
0.001193532096102017
-0.1427142645312235
-0.03025573183749116
0.05960657973884203
0.02402180528886122
0.05057248870267313
0.01746258318446141
0.1182450889340571
-0.1267951846608617
-0.098224178142662
-0.08704092521646091
0.00946543869720652
-0.1111998148044429
0.2542036238541106
0.2603337339175005
0.2216583897367822
0.1468742113135713
0.05813391789525891
-0.0117916450802642
0.04766570079212661
-0.07315989474235061
-0.03093879405605844
0.05707791930555276
-0.02490359207738949
-0.03627046418119236
-0.07048624354223582
-0.1215717434805033
0.07776580533627415
-0.07652746821258133
0.03735960426121877
-0.08167288811771764
0.01775226605247067
0.1012537091452469
0.05253101749466224
-0.03151037427827767
-0.0292264288497541
0.009330679860886598
-0.01325109715377426
-0.1697081566368474
-0.1916629163782923
0.1684720607180852
0.1409054154185612
0.1061686792038156
-0.2156104382344659
0.01340406492968955
0.0190287212517259
-0.08494450753095904
-0.02446544483299377
-0.1502168869748738
-0.1311697967363564
-0.1300141730879885
0.03298918107464265
0.0733980595601904
0.0695293675371369
-0.09334204915211058
-0.06749970441313932
-0.0798733962767124
-0.003162369900850913
-0.07294499337495571
0.002213583770103631
-0.02282139803751264
0.04754392459020962
-0.08628508026222953
0.2031221604067248
0.06895781523410155
0.1240973681617652
0.06239456208913557
-0.06297811294927694
-0.05751128402445004
-0.1094322593033707
-0.02959909103181133
-0.07771152865856219
0.05991712660885613
-0.1224387391713128
-0.08210687094147857
-0.06144764924256602
-0.04065814051288266
-0.0998815910470507
0.08126035017020743
0.05583795134358484
-0.05297312934192795
0.08688225060171083
-0.02371029734280979
-0.09561088989672693
0.09636103850867744
0.08418807362526447
0.0245711486119045
-0.03555243596776854
-0.1721070084328134
0.02702101384816702
0.01943117460695012
-0.04095539059114003
-0.05977453800174247
0.02293503753651567
-0.03051537999377756
0.04441111119831698
-0.02861642040419467
0.125790574544905
-0.1520430784727999
0.05091272359742539
0.0441449946219098
-0.04868141750644667
0.1415829749754456
0.1817388606435021
0.02159791844391155
-0.05679473278989089
-0.0535479341060745
0.07674523104595463
0.03322983081578283
-0.07565540065608647
0.02632130226026679
0.01310778619431941
-0.1829022723529364
-0.04591696695058093
0.1157539933391175
0.08829120871728605
0.0715301470166716
-0.01940362442308634
0.1074897778306791
-0.1534475990999275
-0.1408565667079432
0.0003971859424216755
0.003769977255622492
-0.08872698054170947
-0.177939051656076
-0.0004954117749309624
-0.08255767646109002
-0.02805730653024204
0.02705646790229683
-0.1710105935580703
-0.06510971061973179
0.0714961702374653
-0.04970386844687142
-0.03305384781264162
-0.00271154681418156
0.08827532993884131
-0.01238021786227883
0.04202711735108806
0.06384252486397818
0.02652192305016951
-0.2107222506906814
-0.1190936601699452
-0.03686939500485594
-0.1304909678149436
0.03322410395657777
-0.002533401535781122
-0.1366612823738136
0.005855499842810592
-0.00163358447257179
-0.05280209091653246
0.06618128923597998
-0.04823282591258157
0.09897609652282544
0.005200575103842037
0.02228443077171675
0.02878877437775154
0.05135575273337044
-0.0238475396591309
-0.1175864996470253
-0.07890309328211945
0.004900907470644532
0.002824645373307972
-0.1182152376665148
-0.03370525223196323
0.1329482003218699
0.07420663507433026
-0.2350858335831082
-0.247976329525766
0.03773451124246561
-0.1296395528311277
-0.08089703021656065
0.02294551413767551
0.04250022168494227
0.07690124146565824
0.1178752884176421
0.004569388501466144
0.009358227151087913
-0.06601788632379503
-0.02847882256788832
0.07805264485403975
-0.06832193153125926
0.06548305307481703
0.06792798232522755
0.03655382364353869
0.06098979464773813
0.0003739712757875807
-0.009516935669970686
-0.02232427516314234
0.06633339186383683
-0.01774028605382835
-0.004915900522053722
0.1163690513582997
-0.08113417448938889
-0.03119859658864894
0.1014752110024507
0.1484360358860881
-0.04958396139370552
0.069013839639168
-0.1136159232198409
0.1043231602414841
-0.1123565316917551
-0.06256449338619791
0.008230778227264895
0.04225940482873998
-0.09029531741843695
0.05845093841533375
-0.1054731077225944
-0.001899431117598718
0.04689267424032823
-0.07688396572142081
-0.03618261126836218
0.06615302287717055
0.08142480309223309
-0.0735921542505113
-0.006813670733374594
0.07675941305220085
0.009455421004267191
0.05850445873884645
-0.005608866674965974
-0.02655529078028134
-0.05092086246820633
0.04653905203824695
-0.1129248773729343
-0.03494687557259627
-0.08553003681349085
0.09202310391472385
-0.07896067302153416
-0.03235116999731402
0.09972848884607113
-0.04199393576636548
-0.04440215543241367
0.09822023607791559
0.02110496396902966
-0.1017146299914382
0.04553217289694834
0.06442793198276524
0.078443589016455
0.06771999969177965
-0.03150492441255879
0.001279317629969301
-0.08504523759056229
0.1554157924966638
-0.02566990236876504
-0.1959404463971534
-0.05296833565558715
0.2011953038832452
0.1237704204852493
0.02875130390151166
0.06888569796164386
0.02669649662345815
-0.06325642569751486
0.147298259533046
0.1256069133290124
-0.06450095415814884
-0.01409703533213322
-0.09363912375149398
0.1214534082479383
0.0005465921271928826
-0.03457516500398381
0.09707356969411814
0.08310415654682871
0.0425766951593477
0.05819865522532903
0.01090568876513406
0.03659104984748261
-0.1237207593218434
-0.2167558016308822
-0.03848039472481932
-0.06713009260803587
-0.02107145149324702
-0.1165214871193478
-0.09778354801815191
-0.01836920350023197
0.01881381826155903
-0.03400020980703865
0.07998841102255118
0.07215812678976662
-0.06712799953522099
-0.07766066837322652
-0.008747150280083603
0.06545745107665553
0.01044055919291526
-0.0480613217719978
0.01133807239057254
0.03821851140842186
0.01973068588662906
-0.0506432832501384
-0.0709349077489097
-0.1770839865529885
0.04840782764358881
-0.02808325386772964
0.1931903877677089
0.1341142115225224
-0.1297102886682182
-0.06223197071983588
0.001669624733342568
0.1136094978861043
0.003271905064624891
-0.05741658703421889
0.1429513946527861
-0.07005271018073121
0.01986406320986214
-0.07269257673502844
0.1068721514876073
-0.06934415843407969
-0.05534217766807447
-0.04600295715896005
0.03558474631020317
0.1349471066751593
0.08601258858280708
-0.07693626431687133
-0.1102103180540668
-0.1404149241557866
-0.06571851290897823
-0.07988642065550015
0.009314237414829542
-0.1728018090355694
0.02080997052988425
-0.145114375986439
-0.08098721391878734
0.02871609750763316
-0.0818593588739519
-0.1565753637036787
-0.01618001784810137
0.03413714758218024
-0.06216375322875505
0.04771834560527503
-0.06716664518155624
0.0428321432250881
-0.1627615135196468
-0.07342555779677856
-0.106571272113529
-0.04097044110581299
-0.05582594923698748
-0.00134743865908971
0.02515335342538705
-0.09448621851676925
-0.0975504005179522
0.04402127854537667
0.006086712452409448
0.04652404056345793
0.08471083094812086
0.06614134839181729
-0.09747835823340707
-0.06118543662819171
-0.0113858563403066
-0.007944020012826828
-0.1267653981810183
-0.06436578145650709
0.0513992042555654
0.01847371898976113
0.05700698102472459
-0.1314235124142095
0.03221168747645491
-0.09010952898595907
0.04047721721017145
-0.1245785016659453
-0.01913251500099975
-0.1204546532818963
0.08684369108935172
-0.01285962556073109
-0.0583102644594832
0.1047439758578133
0.02215697579859064
0.08737442763130211
0.0491080041684499
-0.03196300714011948
0.1070432379012623
-0.1081054835168913
-0.08169661582884118
0.002174226697287109
-0.1377356508801622
0.09046878466068728
0.03161651114832559
-0.1075457678933267
-0.05334680989111094
-0.110169331895434
0.05933545876340816
0.07820673068018709
-0.1038358367517918
-0.002705397050661876
-0.04959974551648134
-0.04051066320268897
0.06717949855709213
0.130515413903929
-0.03686335068864807
-0.009551550218005085
0.1265942048077739
0.07771022790945542
0.05487750753965216
0.1146069684620357
0.1560764818623981
0.1757180637265885
0.2392369483763685
0.08738925123561077
0.05529777042388614
0.05691187385083558
-0.05343938084787619
0.1008123191570163
0.07672038264606913
-0.02871104218857879
-0.04255277842563222
0.04263670232978059
-0.01928325828587029
0.1134090503804194
0.07182701036002111
-0.05703109153444034
0.1039909750308581
0.03895818672910556
-0.09040544967685252
-0.1179475223933781
-0.1179329587250072
-0.06446658116406538
-0.1001580312789433
0.08053724369583916
-0.01484167514117494
0.1101104619342076
-0.02013646345773303
-0.03434226310207331
0.03570981536533854
0.1165204887391081
-0.01805693575457867
0.04121375168301415
0.06573835743955384
-0.1114951997393549
-0.08384987860989576
-0.04110179149769586
0.08150920988136706
0.006512110456903212
0.1022870853090326
-0.06827814978799117
0.0006798863501723583
-0.07618542470782154
-0.09390518911147479
0.1126857418430859
-0.1060571274893612
0.08735107221665356
-0.02329431757159801
-0.1313916394961743
-0.03602765507563487
-0.02466821767673543
-0.09451082274697087
0.03111068435690728
-0.114924417498409
-0.01096202254941167
-0.07780697208614877
-0.03273334366763849
0.02107906439367247
0.06724410684536947
0.01697167543378925
-0.1159045975741705
0.08085088846550616
-0.0973272445870025
0.02735946324400855
-0.09380756962089955
-0.1817399110535298
-0.1344438865498659
0.1026184797730967
0.0239627943626171
0.04028077201706309
0.16024701824761
-0.004898697461727894
-0.06116658432807191
-0.1273211045445378
-0.04416647342086423
-0.08271486327412789
-0.0649562773262492
-0.05857411018844566
0.01300803144100913
-0.07205521780335762
0.08199858525498065
-0.09431429904262506
0.01370460801192303
-0.01133090070073264
-0.0783103658940547
-0.1007244845122091
0.09028511544637492
0.00932452789371653
0.04172858047519546
0.07314304017803852
-0.02736207633288281
0.0645998744943071
-0.009541087665166852
-0.02561295167291184
0.009710753600780943
0.1105962745054924
0.01442319549008719
0.03687001963752114
0.0884624579149323
-0.02878387318924159
-0.05208581706958131
0.1037593960281372
0.0261568303820108
-0.01020521310376497
0.1090170814889818
0.1111684271810586
0.03949495679747522
-0.03425026903620992
-0.07808737285140956
-0.08701680943069029
0.04912545867981297
-0.1064622568515786
-0.04690564736390854
-0.1172378628809368
0.002301668931056803
-0.02985727690092425
-0.08773186039095966
-0.02612027490962644
-0.1570044891818052
0.1317754817459835
-0.07452834885134423
-0.06163587326352402
0.009900945178416354
0.01321848200922436
0.04165811679145006
-0.02788307973333135
0.06142102016739822
-0.06296515251266811
0.06277301632099125
0.02050524424101205
0.07440623339173197
0.1308912245014216
-0.07468984486372922
-0.104534250798432
-0.00624050223320418
-0.01783208953369761
-0.03624303310586089
-0.1470058811267181
-0.0017073839397866
0.01222396580783576
-0.03273668921022913
-0.01687867471305746
-0.006910993535572984
-0.001035611738184148
-0.02585314921162305
0.1322937828971963
0.1122841836019825
0.02187507437332484
-0.008837782758689499
-0.1038757824799712
-0.0190905923758184
0.01882029499822365
-0.04391532216166542
-0.07660784504756274
-0.05630492286101638
-0.07609066027921715
-0.06583490205782155
0.08222850353398788
-0.04152431532791401
-0.1267334351580853
-0.02897003517032181
-0.09269579447993861
0.1060202463153252
0.03741625814569251
-0.06223789026171674
-0.03602326449419478
-0.08394730702792576
-0.02276051342972235
-0.05427072195926415
0.04291833120219855
0.08713995572632721
0.07796330602430038
0.1256521792342859
-0.08538919441368817
-0.1376292738879614
-0.1916939742750975
-0.1317875921753651
-0.1135993589631749
0.01748884547032556
0.003408947245784918
-0.1220651171323041
-0.06521463025696088
-0.06802060464432504
-0.01081213642536677
0.002384555040197661
0.03637860765063496
0.107186706090028
0.06653364182426251
-0.01856485740799544
-0.001620560803451631
0.07615860045186339
0.143507672221923
0.02624549514693415
0.05643971040678299
0.1369232183911955
0.1221272312803722
-0.0507838979318002
0.1322675634601038
-0.04074883629265254
0.008292417903351888
0.0226602925450718
0.1332626261378148
-0.104780786240377
-0.005659099940452276
-0.04495045287671715
-0.08718427796586052
0.05667421697277338
-0.0004715992832176695
-0.03297128184674645
-0.03483505834669277
-0.1102899410781168
-0.03915517509211469
0.07639362236578696
0.02908916253059338
-0.1507480470806802
-0.05097823120644809
-0.1222933249251071
0.06868301760577578
0.09640818364282039
0.04085301415513537
-0.05571885846243183
0.06322098664313262
-0.01420776986159855
0.02721131263682289
-0.05035986540883229
-0.09808568482557826
-0.02143883572211598
-0.03664001245465245
-0.09516213106094545
0.01488945243532102
-0.1335600794305551
0.02344525354855616
-0.008233874883713894
-0.1553472498479335
-0.08593727745302122
0.04807076334815345
-0.1417380789792141
0.0365318553626776
-0.0885478398187851
-0.003119867482230073
-0.0005804613880018149
-0.06133258435846661
-0.1918820972531293
-0.03088302141802151
0.1104102426437463
-0.1359294833582853
0.01611132078527546
-0.1553881078329967
0.1116337774311779
0.05873331599098377
0.03113762102147537
-0.09829370862692191
-0.03528824598545584
-0.1357668007425526
0.05766714847035832
0.06407977680864146
-0.04958097204524996
-0.1209212866713813
-0.06460994705811178
0.001422304224563032
0.02928457628767237
-0.05573623878658596
-0.1007145518796363
-0.02233451963170878
-0.01409153991042176
-0.04562367416230247
-0.06962139121457829
0.0283552789285778
-0.01875014526968319
-0.001197962738555439
-0.1008420616400663
-0.1435247344609825
-0.1275459408665882
-0.05712359920511008
0.0545329128295558
-0.05832991304563533
0.007213208824824248
-0.04414952278726515
-0.03575517133820453
0.007569997200790914
0.1413129990983509
0.04522645435416996
0.02567006062463203
0.02555586467192742
0.1117739994115733
-0.1052378201102224
-0.08061272272042089
-0.05101261300960593
-0.02329764681514579
0.028823905725463
0.0345664945105715
-0.01206551599251317
-0.06447185309206237
-0.09603833158381787
0.03449703152201665
0.06917848616761292
0.07690242288687378
0.1360455267932112
-0.04160996077914542
-0.04853921881292127
0.0119163736196088
0.01473529308897647
-0.0893899420118718
0.06441142461960236
-0.1533127726438555
0.008124272270339478
0.01845513031353758
-0.08480322616745116
-0.1691159101926894
-0.1256035535308483
0.04241779029981504
0.07197122079751127
0.07583377007875107
-0.1312765228393834
-0.07430406661765127
0.02617919945548669
-0.08589442854456462
-0.02475303006622037
0.07024406350051476
0.01536467386030432
-0.08619098395292622
0.02253459045091094
-0.1204759383072268
-0.001337189719381988
0.1117317178998993
0.042594816616713
-0.05712960470390394
0.07760933437500925
0.00347263355006485
0.000226271826308238
0.06360118935893598
-0.01587171746941023
-0.0957549517257021
-0.1228349711791858
-0.09286520025870787
-0.06584738391534473
0.06242143231201251
0.1505271416821956
0.09020228306338635
0.08254012364522365
-0.09113408634237716
-0.0549556907208246
0.1395607069755987
0.1698510703980963
-0.02566969796840895
-0.1083443530088936
-0.008697510701610281
0.05490856338576738
0.05292906736707115
0.06013995945875668
0.05727020967650236
-0.09274794346128329
-0.06913447880007617
-0.005547733932142733
0.0006227006891538294
-0.02916649373742684
-0.05309329096520682
-0.02199109820421712
0.06152225329880022
0.07525762202406179
0.1694009391421185
0.0295050357550855
-0.09556187369008748
-0.1104895007576865
0.02922810665216054
-0.04891004789938415
-0.05690456621962515
-0.06438364610306334
-0.1234334043056031
0.1269826907459022
-0.0355456494689828
-0.008131043712270369
-0.05363115806070694
-0.1307507253272724
-0.09967570064177229
0.03265686941878122
-0.1104004978217884
0.01382991341394284
-0.1163675595932149
0.09796915726778072
-0.08318272605057621
0.04538566150598841
-0.2242024230643181
-0.1285839965362059
0.03945334123328811
0.03222951529569385
0.01533714173897485
-0.02220452151677599
-0.1804065090746909
-0.0131351710645425
0.06100718551736879
-0.1105830828838937
-0.1577766255576625
0.0363549894443789
-0.07004173605058618
0.02220994027981071
-0.1044004511403823
0.01811617617040814
-0.1025565770319543
-0.07759428725898379
-0.06303195639734166
-0.06663706095712914
0.03377609937895046
0.03778631141508403
-0.0307558592480297
0.07114691032431063
-0.06819256761670665
0.0005522439111516803
-0.0278859202189794
0.1171019516434021
0.05439427273160768
0.06977601869045218
0.002344775071092734
0.01603978942361686
-0.01966149408754729
-0.07319355813057037
-0.0686015826876583
-0.1218791207279164
0.05625303063216808
-0.06066929487102147
-0.0166148215210138
-0.0242824604260604
-0.0199170936683553
-0.02168130926459566
-0.06222077744161156
0.03338438233732843
-0.09681014772362354
-0.01319947186142244
-0.06499120424102872
-0.05789006438268864
0.09217711798394471
0.01313938763295822
0.02707704011884742
-0.01545861505250634
-0.04130986217421376
-0.1156848557944037
-0.06755825415843757
0.04467402805551828
0.08600811773620272
0.1063308678548065
-0.02462842334389368
-0.04386477667416901
0.04015711796307209
-0.0859364532182626
-0.09046862491636025
-0.1163620717484443
-0.06813135232694896
-0.02327042890581697
-0.1135107849812609
-0.1102325915271424
0.04677785418132709
0.008255120418919569
0.01129716361638604
-0.09836037931471793
-0.1210923447903138
0.08054204874224952
0.03672002530289848
-0.07944619642323235
-0.05326870614488954
0.08375725572923536
-0.02516744302970563
-0.1198985314501666
-0.01344661755087032
-0.1042350978652927
-0.001542341763079544
0.0932258321824174
-0.09117247959817755
0.0754958808515985
0.01784684677576046
0.1040700134068757
0.05315248453920102
-0.1193410458655031
-0.04131342182241758
-0.01571129896454317
-0.1119669739162884
-0.03849316623295899
-0.01331889927239401
-0.0535191000023358
0.06955033777314218
0.03252222243834958
-0.022589278282121
-0.03428663831970519
-0.0815486972129609
0.07107464695782727
0.03985228032831162
-0.07405602262519048
0.06874738949661074
-0.0840011358489635
-0.0750910419759856
-0.07802980800019392
-0.05437003727785383
0.08665992975275236
-0.08692468236694299
0.03441029888651553
0.120940743354077
0.06431088016389926
-0.01830880989867742
-0.1151848239708328
-0.04687394569000176
-0.2107522122623234
0.04314896304348746
-0.1387616278563084
-0.1799193794217689
-0.1253403605212858
-0.06183346915631931
-0.1471710377501311
0.01357073619024954
-0.1571801785901812
-0.04839149381611293
-0.04114473971963315
0.03504199683132833
0.09617212852938282
-0.119267190863703
0.103012345889172
0.1362464781942113
0.06519806338904766
-0.09632413555938593
0.02149515442395987
0.06803956828296678
0.07762275738704277
0.1458214914344311
0.149446058235476
-0.03191387872676087
0.1436681317446332
-0.004981943932480378
-0.06870436896315157
0.07436112102318379
