0.01469077980364768
-0.009628137253635892
-0.01674902280758906
-0.006687580180937448
-0.004317735154603513
-0.0209162767142473
-0.02869508625522756
-0.01566251078150058
-0.01295987361795264
0.03412320033351504
-0.006989401245542831
-0.00515815617401934
0.01877107364072846
-0.007791281363969774
-0.02135514452080385
0.005294710294674684
-0.002217880470268263
0.01578997756047616
-0.009900034033309392
0.001272896665363105
0.007736559302336142
-0.02374137569779927
0.00400933865303963
-0.0184495102533617
0.01282676977833314
-0.001803601415345243
0.003484195899787735
-0.01449408850462585
-0.01770957320713835
-0.001622765229776742
0.01641684234244598
-0.02088081426074993
-0.006604941532407446
-0.005170670269117085
-0.007658968742352545
0.003762500332971814
0.02395591930099636
-0.0125969019807977
-8.924315289309327e-05
0.01841554312820107
-0.006255541477299916
0.02426200088963579
0.02144451826044426
0.02221486236292396
0.02011376077261554
-0.004541683265783808
0.002664169009184796
-0.007457708718686913
0.01359896502875239
-0.00929712394541303
0.02602715571566684
-0.0005487683323571417
0.02128966230032464
0.0006655097182325366
-0.01924875077408441
0.01406306748077251
-0.01739425232941796
0.03986708028833454
0.007487742886070708
-0.02228275938257702
0.01105309507940569
0.001841044456098224
-0.009089243075169737
0.002476225308980693
-0.02540206960395713
0.008670738550106725
-0.02153541122350641
0.01472652415911645
-0.0006280358957515388
-0.00492328709157719
0.01251232649551416
0.009019006040301477
-0.01561949979116815
0.01438197026042533
0.002825052779361114
0.01971187088882433
-0.02867035978119047
0.008936497793499656
0.0009525601075734081
-0.01467722881372532
0.01722211658804589
0.01205389063256782
-0.003103570067997713
-0.02828754907765074
-0.02612377757075713
0.006116543457685256
0.01853401486535557
0.01054874034416036
-0.01767178297992762
0.01703544653950975
0.02474534464379696
0.006825194606699145
-0.00657478368333323
-0.01628738919054371
-0.001970381944622541
-0.009707285272132883
-0.01873701355557597
0.02083001873588325
-0.02161116122902879
-0.02444786643740504
-0.001642087093043404
-0.009631317279293238
-0.04177201778854582
-0.005089900611615334
-0.001108438681734153
-0.009739943013165754
-0.02146975081330543
-0.0440793762449199
-0.01258219975149392
-0.004699068720247599
-0.006655961274005125
-0.009480791450523933
-0.01565301024424076
-0.01088342131455636
0.013984706134098
0.01075008295336529
0.009988628207132762
0.005547559479243716
0.0006331403988468277
0.005735429334332579
0.01640841094988085
0.008008881495259105
0.005293930395656537
-0.007522859742795387
-0.0119034854949212
-0.01680066187889287
-0.03074138524143413
-0.04941468740289288
0.01600660204450263
-0.02114043975137268
-0.02266761201931874
-0.04348132270738524
0.008362249266918264
-0.001501738387062103
0.01916787074266548
0.002870982015190171
0.01343535758014865
0.009610548017369925
-0.001134796872456319
0.02046536448495921
-0.003486585738952124
-0.006301796113940506
0.0212826492102954
-0.01572126937215644
0.01405618880700982
-0.009430111552368062
0.01876891076479621
0.01108876382642333
0.005738270817791939
-0.0006273632647037755
0.005237039553162181
-0.02365744436634431
0.00238915363610439
0.01417699128921413
0.01248258016405882
0.009486055558927167
-0.02002166045224015
-0.02486517914052983
0.01955369427849312
0.01673820476641147
0.02188735378604323
0.01333051732660849
-0.018396585920292
-0.003639171470780519
0.01341216933577593
0.0372839759505162
0.01946959656858003
0.003624999179985276
-0.01702004271323769
0.003738097106094569
0.0001118036365027606
-0.01010026078240107
0.01660690401214699
0.02342203682331535
0.02120042604224513
-0.003477457193026628
0.000314774040152442
-0.02778403986803185
-0.04450407325911287
0.0193877775066701
0.006240422159510936
0.006214839323527492
0.01212324170243306
0.03983957802250223
-0.003624107554682202
0.02725392812905521
0.007094988786526119
-0.0001705442713269117
0.005851913674467741
0.02486138734735862
-0.02530171417655175
0.004384372674999491
-0.001042572679529649
0.02071194326649618
-0.006380781923705784
0.01023652109005821
-0.009735048151739447
-0.03852077796883182
-0.00605874345311219
-0.02774552206842383
0.01607904513294263
-0.01769106008055652
0.02589236108808042
-0.01737000260351975
-0.01982842379593599
0.001514568664021454
0.007994359750886772
0.009464244537755413
-0.05287377970799153
-0.01392672974538175
-0.01436489708444508
-0.03435691414519508
0.0282529098822939
0.002644631270609129
0.02796801743268361
0.005490094415700079
-0.02343138087355716
0.008487256123990573
-0.02005642801707426
-0.01448688728609959
-0.0163902913280826
-0.009750462404797646
-0.02380736665577185
0.01166753277127624
-0.003545770324350469
0.02503563641969194
0.04053257448979106
0.0341286915279763
0.08348290713450318
-0.009444316120315837
0.01595099324345285
0.03312200956034948
0.02921236089855775
0.03464433739522971
0.02496218667834545
0.01173823871602579
0.001603250754864158
0.02404111707911149
-0.01052159363011717
-0.005664883601183755
0.001818208990047913
-0.007484390820643622
-0.01295394894390201
0.01671258878482717
-0.008284549101057831
-0.026283608449468
-0.004264523007878305
-0.02718172380940864
0.01793714316966147
-0.001179364833836673
0.005806809661511114
0.02904198370152392
-6.136068391573684e-05
0.02996048398804053
0.003983827422129677
0.0002606418843450582
-0.005473556968873079
-0.01134292363958515
0.007254418331267667
0.02778525066712649
0.002458062888062057
-0.01816173771409537
0.01919854428250764
-0.02762307532796907
-0.002874410564676369
0.007441901847855546
0.02500453078131976
-0.00396665838365666
-0.01459391888730952
0.004712151351556657
-0.01034702953007701
0.001174234473681876
-0.01756439814270894
0.007236647842726139
0.01114008946823318
-0.003215991726032705
0.002127106764578427
0.006287017677877532
-0.01147493991075781
-0.01444540830823822
0.008427538380915629
-0.006993563167371697
0.009981707156476567
-0.005867810538117194
0.02042299595561351
0.02464413907001893
0.02675642288011928
0.01767660872998018
0.005036244217900406
0.02439447940603373
0.005504791118807382
0.01688708013750409
0.01962812227627647
0.02179611388311036
-0.01446277429720494
0.01089569626010596
-0.007856916811011963
-0.001044036860084028
-0.02597733210671594
0.003023594200797646
0.01765020836518062
-0.02719619497834837
0.009265789032216098
0.02417780692023163
0.009429261464556327
0.001522949115641239
-0.01484891354044534
-0.0130565608402058
0.01044185868046266
-0.0132035685726125
0.02519345491146805
-0.0003449007747034307
0.02915025948241287
0.02099565580129273
0.0006442963576797732
0.01255824901639087
-0.008455683924821822
0.01514387430507821
-0.0205635120121142
-0.005268526417896834
-0.007319460604709747
0.01336011366447693
-0.01672730288748619
0.004595848719331686
0.00605168254701765
-0.009481311438870666
-0.01601364626640399
-0.06295854605804764
-0.008665404695838298
-0.01866307381748064
0.0255046773682999
-0.02371565622620529
0.04465384758784725
-0.004369370689986193
-0.008099245337898709
0.02829992260695401
0.01728446239704638
0.0150244227483524
0.03216928888862745
0.02104014949186088
-0.01894495482663687
-0.02285508958018052
-0.01845606636752241
-0.019548118268291
-0.01531333618381239
-0.02291822748346682
-0.02993920561532904
-0.01148290027357884
-0.01212808840088867
-0.0267595884628485
-0.00173750350714084
-0.008938511939449698
0.01715460783590823
-0.007386772123195067
-0.01660389291789161
-0.0007784157566324765
-0.04421374155876999
-0.004609562947745949
0.003700021002374823
-0.01017528185095061
0.001340405379040887
-0.03683461215897356
-0.03471436904197112
-0.007188826831451447
-0.02523306539438895
-0.01332630613541457
-0.01887490283615332
0.01196256999362146
0.009898384245077952
0.02527155342915811
-0.007841430675004469
-0.01270862548209668
-0.006034271728433627
-0.007760339327667089
-0.01022882392360772
-0.01159645298813476
0.004851835063254986
-0.01162715867191669
0.01866637443034253
-0.006266742215641741
0.02384643165466566
-0.004657662950068455
-0.007238087863374276
0.0006307660879282715
0.02264696799079949
0.01153144357006457
0.01730232864900071
0.01052926327896879
-0.002883622646903636
-0.006242578249213889
0.02509582920831268
0.01793553904734776
0.02043335323515805
-0.009162483798810902
0.01586604263874926
-0.009771692536966536
0.001959266276691284
-0.01685178401633304
0.007357176220860235
0.003382521064268691
0.001437112016109694
-0.01420745096417281
-0.01918695965365701
-0.006960566975156531
-0.01823202422492317
0.007772937384744823
-0.003980353481911472
0.01151585616754115
-0.001797331557735974
-0.0188029202910786
-0.004952944227959467
2.339970902102637e-05
-0.004609302059535005
0.009562515265211057
0.01601423054806512
-0.01332923028782823
-0.00423312795119167
0.02418076653515398
-0.0183523161109047
-0.002109641168585298
-0.02221258880494355
-0.02723670567965551
-0.009422784403130859
-0.008688164963566671
-0.004799666096290613
-0.01642762002707787
-0.01672339609124875
-0.03242956519492031
-0.02311092774194396
-0.01738269847945297
0.006099204244857905
-0.02169485425874111
-0.003988250093351279
-0.01871703632984261
0.002218368121449608
0.01663635189540019
0.01228381732084778
-0.005360790087994205
-0.00715700147832179
0.01908256646794531
0.02183895082151239
-0.007702262511539115
0.004320481319063451
0.01472612589929116
-0.02253330361150486
-0.02279523747474374
-0.02254295059243597
0.02062200081243186
0.0219694148439805
-0.02123633628101123
-0.03991368759347951
-0.04397033529233083
-0.05925353942020726
-0.002390154832437018
0.04449004985291669
-0.01406167352877056
-0.04961287726560989
-0.01401310925644453
-0.02215872887002739
0.00181860278152842
-0.007033705184900833
0.0009024135898689179
0.03788453438097752
0.0284301747883567
0.01779735283309886
0.003735498389121318
-0.007894189818437241
0.03378692834271579
0.006303903260714104
-0.01516185032738596
-0.04849224353654379
-0.005150940717636959
0.00448476971320173
0.01622622138690483
-0.009678212524419876
-0.008667954223818984
-0.003916156102345904
-0.007772526248861107
0.008825287213901892
0.0263911571258372
-0.007783873082862529
-0.03814395088145711
-0.03788527825603342
0.01369054031824435
0.006156154739471953
-0.01789494075263849
-0.007483828371182465
-0.02021544095328824
0.01786674511680044
0.01229328098253195
-0.01102803600233374
-0.003926155214938915
-0.01497268025131146
-0.001761511244642079
-0.004147393872372461
0.01855088723207994
-0.01500954619097011
-0.005501995162209215
0.01666422165184861
-0.0015720586823672
0.02143529999291305
-0.03585552919985704
-0.02636083996165838
0.0136417139215634
0.02133948385414435
-0.0240530891074046
-0.02659543958153768
-0.06926116557802904
-0.004219614442067796
-0.01221233856159889
0.02888268183694201
0.004615451825532475
0.0110836396441742
-0.009029482354231583
0.00361042394620549
0.03125854578538842
0.01048472207792113
0.009329192676974568
-0.006006984082455199
0.003186149737902356
-0.01522273930276838
-0.007155940028277618
0.004657155080901335
0.002389026611264108
-0.01706437341505711
-0.004815187668728558
-0.006254186140768864
-0.01856751620667067
-0.02260960833093426
-0.01158247909006187
-0.02060295385338415
-0.04116240182911424
0.001577821456803593
0.002414463106899615
0.0164250777524552
-0.044196514807585
-0.0412680043125207
0.002248568657481697
0.02426054593339986
-0.01181664523554446
-0.006949393775131252
-0.006023503990007068
0.01932657793940155
-0.004870432389894324
0.01400681757959073
0.0147932991483699
0.0006166276448174497
0.01682882577007104
-0.02216601147740887
-0.01400773753884051
-0.01993430693869953
0.02446619716470867
-0.01570893976046599
0.009930994476928717
0.02013452299392716
-0.002219792294716509
-0.006809593998344511
0.01398631537944855
-0.017742375645039
-0.003750411963848891
0.009731970009132701
0.003965208437207069
-0.01144266443160077
0.002548624951164709
0.004226089134236576
-0.01648695859527555
-0.007618453133201097
0.0004134948903047394
-0.0173493419202507
0.01514811325346827
-0.01163259903086752
0.02148921028752589
-0.006992095786160669
6.308123955820734e-06
-0.005106351970290518
0.04710592304422817
0.03789431161533787
0.03159402473238125
0.06604852183453633
0.001308001966027181
0.02618670969862523
0.03538735124243718
0.02005875978676099
0.002556443925577787
0.01762641744246159
-0.001357247654763019
0.00747493256679856
-0.005465974426676928
-0.002523807699079996
0.004301349361501895
0.005376713934742665
0.02695026501076701
-0.009740278902624506
-0.001762340462822757
-0.01507658290597756
-0.01045791131323474
0.01094073635256353
0.004849065934287826
-0.007474475106183576
0.02215247864330354
0.004302740533423245
-0.01747596117234554
-0.03051558002881561
-0.02643513290108059
0.03290407416973135
0.00552509487965471
0.01995970240570917
-0.008888048419801529
0.002129808027205294
0.0177408739823736
0.004137308738531969
-0.008314547441096514
-0.02276854852554938
0.01129083903166393
0.005543058129181175
0.003687957756053307
0.02138523214839626
0.01157498112148546
-0.0108364103533155
0.01121424587502087
-0.009777331366589204
0.04065829360049451
0.0111635634535149
-0.04852767501215288
0.00274199466250641
0.01962470417248805
-0.002287885747771607
-0.02102024474150132
0.003474308379641064
0.008210884640462407
-0.01547359674501742
0.01811493803686803
-0.002431984837741182
0.01662642201939146
0.0008476001037970656
-0.004985329202742734
-0.003519853375894192
-0.01123710525411538
0.01158309765782316
-0.005344792215955018
-0.001455962971904436
0.03157030290536454
-0.00695893033099582
0.01800036453803989
-0.001337499644083939
0.01893360162105415
0.02601764206230563
-0.04663996538605839
-0.02060588247011549
-0.01499861044421453
-0.01338374433988223
-0.02074564391408142
0.005916142690238174
0.02161274003897693
-0.01436764632304647
0.008778501413594014
0.01586825902879644
0.002102933333459919
-0.01608656168580154
0.01883555511990111
-0.007728105751310984
-0.02018846013807271
-0.02188245555555186
-0.01179860504236409
0.001973231551530658
0.003361365008944166
-0.00783266549453202
-0.0224878304475096
-0.002695433983769841
-0.01574114837418795
0.01081464507933123
-0.02092620243766558
0.00840280622022717
0.006338492227134989
0.004489986175029091
-0.006001633431663086
-0.01258668040896998
-0.01533315084523862
-0.004828342898282592
0.02442366685180073
-0.007255472695156847
-0.01504187716853188
-0.001200293518897433
0.02019809372388476
-0.01625428352515044
-0.00727109917247732
-0.003315980619319423
0.001505014151924397
0.0224656957368125
-0.01604790159699629
0.002635910011898603
0.0002604602683632639
-0.02429714050956193
0.01439143755624111
-0.00635624160564957
-0.009419896679241592
0.02429390113362399
-0.002391795000535176
-0.008464248000537895
0.01932402024619949
0.02239044509304836
-0.008741187222870461
0.0108654721362376
0.01242290889379052
0.008137006195933676
-0.01190433553765379
0.02243306435696878
0.02635937559674846
0.02100174320003147
-0.014087603494942
-0.02184369912299867
-0.01518752405417478
0.01943593744653698
0.007146117161727222
-0.0208884247227392
-0.008483501186030048
-0.01919001413314655
0.003050686097630741
0.01470508882008185
-0.02058201487966463
0.01132562592860997
0.02480093455883078
0.01492550440163093
-0.01681456629221987
0.01517017659766037
0.000877853780009687
-0.007722253117651388
0.03273586510066466
-0.005404328877338262
-0.004850732643568906
-0.008538357838685699
0.008189778723632189
0.02743423784866588
0.01082658551518919
-0.008234144516718974
-0.01164343878617402
0.003260243054064868
-0.02319742177334311
-0.028867730833321
-0.01958217360242571
-0.0044121800101883
-0.002695683844207718
-0.01898185035711252
0.01265108418225982
-0.003118700800851098
0.0110122700071337
-0.01552839255861686
0.004075216841027987
-0.01769684184005224
0.02730447591057885
0.02748327246134123
-0.006349185885567855
-0.003656532626026193
0.01664538190839601
-0.004354883030595147
-0.0206190215182155
-0.01667645490697647
-0.01826141699176329
-0.0224182242272064
0.02605286255062258
-0.03282074570431866
0.007654084330455012
-0.04169821168686131
-0.008975742191931421
-0.01712623982168732
0.01850894272071685
0.01806296569431096
-0.01541414853630645
-0.01543934693046682
0.00413799571158976
0.010094433952494
-0.03126061690343719
-0.02239901112504119
-0.02923352412449995
0.007225694735398165
-0.01402373417487522
-0.01384978636035758
0.002264929625618663
-0.01428001401510609
0.01412090031423612
-0.02541771844503063
-0.01843379041671293
-0.01005408876978976
-0.01739963930812824
0.0174288893045239
0.0002206594024099485
0.02037891621432467
-0.02329627178453956
0.01494597366177059
0.0165406358448009
0.01204881623907562
-0.006761081007910444
-0.02580161340139051
0.003638404405893355
0.002259991996486561
0.004687625807649409
0.01676191467622558
0.0194587134037192
-0.007862675218254296
0.003490392394110257
-0.02118784309513134
0.02142264645571275
0.0124515562015243
-0.01211389182288852
0.006650556286059187
-0.006019045839687012
0.002588880763281537
-0.01589657003073145
-0.01257806531231181
0.01528161402010494
-0.02003030948479549
0.008421437264854663
0.006398215711938181
0.02009110638529211
-0.004798548508589694
0.007895521019717747
-0.01381542764432598
0.01015062859105945
0.01123223455688616
0.008028432673477777
-0.006698727156367968
-0.003910933458744101
0.006364998714530611
-0.009174891496963917
-0.009596639305079178
-0.02046805377064324
0.008930330508939781
0.008407131831462121
0.02444210316858571
-0.01003427105413122
-0.00854879265246733
0.009553801984478987
0.02652588793994382
0.01527695322592431
-0.02061436469991015
0.0124255885713726
0.01044517942462823
-0.02529791689091283
0.03297345604159654
-0.02731189324930303
-0.003463873851671774
-0.01498168236351697
-0.03608472831763228
-0.02684526376439578
-0.0308386330785629
-0.0184832670353807
-0.002005039924780459
-0.0241328627867572
-0.01886607759526177
-0.01466693287380143
0.007468174318752577
-0.01502536549911876
-0.01392012226920556
0.0318648296525058
0.03397902787829431
-0.005899534668876275
0.01326949364573982
0.01458295327773831
0.03415145440377147
0.02162981234721108
0.01362756397698745
0.00670900269840527
-0.01145765431102848
0.02074650647211106
0.03875517933914138
-0.01511317174736958
-0.01464463570627927
-0.001461797881620627
0.007754584598127771
0.007027606830113369
0.02146071512739363
-0.01094963896323219
0.02706300041576095
0.009685253687291786
0.01768195909708833
-0.007731399900662234
-0.00775182355338049
0.01501387807807123
-0.0106309973799098
-0.00494089612956919
0.006225955014112049
-0.002512626257257231
-0.006397606022198282
-0.000414494633985573
0.001066183010872389
0.01254497312509749
-0.02196138798113934
-0.0007913568927375557
-0.01907905291043486
0.003635820858390192
0.0034257961504402
-0.0087008354612709
-0.01168019199510473
-0.01300336032625496
-0.01208709991103864
0.02515942051535403
-0.02223853079588434
0.01385871515544147
0.003066391048981047
-0.007125653828065999
-0.01244439374906068
0.0008955072130709273
0.00114906109435718
-0.01300508810152264
0.01087285149660554
0.01036209194980307
0.005086708539169277
-0.01240771861045498
-0.01842941199716779
0.004525672913689559
0.0158114951984887
0.008039332760770315
0.01819325796034501
-0.01836343975391161
0.002884895933225599
0.01355899244787493
-0.0003837929999474951
0.01453819717164248
0.004180713935834282
0.007112007910811611
0.0040938493910683
-0.02029179525738425
0.01078649623986103
-0.01741297117574626
-0.01390413471969851
-0.02213942063783189
-0.02007744500223148
-0.008014010409022884
-0.01731898605462354
0.0137716290767656
-0.02000809886810146
0.020518602931611
0.008565476595944381
0.004082213650668122
-0.006975434971824387
-0.0187270599129265
-0.008649473179561249
0.01735377151198349
-0.01489247857836434
-0.01531094826183024
0.002801299321807857
-0.01289968783266054
0.01059111285721863
-0.008228614428199646
-0.01740771265678293
-0.01863955313971533
-0.01554012461260383
0.005048681073574502
0.02512110655912553
0.01177014482896799
0.02469401091949586
-0.007010611282742712
0.001141479786091085
0.01564191484311956
0.03263599451481482
0.009260450531430105
-0.0189744735770588
-0.01112634974591475
0.02420159986316448
0.01327805272343782
-0.003603787565240984
0.03113001388562445
0.009979110980195438
0.006905798363581659
-0.01321266277733596
0.01772573721424514
0.01626850184650682
-0.002106313847025506
0.009740197553921011
-0.01213970049095239
0.02461227032253423
-0.01462826725483241
-0.01476394272733036
-0.0543080952548767
0.004525338458099021
0.01017652994042231
0.000458597492214683
-0.0132701431450839
-0.01935612893234034
-0.02827996247451526
0.005177366402960109
0.03302296680805843
-0.004546344979698055
0.00162524838903856
-0.01415754383741987
-0.02795364618326003
0.04062220693590611
-0.003403265995338525
-0.01540960456199538
0.009632930327730459
-0.01131851099741432
0.01233141939962103
-0.01586070949426117
0.002741942169023568
-0.009617831213334248
-0.00227800906375723
-0.01131562145000529
-0.04392021328421886
-0.03533527382511417
-0.004038454887157426
0.01155745861450856
0.01155497331114083
-0.01980928500589161
0.02042821637989097
0.01431117813368313
0.01809888298306548
0.00873330511793192
-0.01705865966317544
-0.006850968784549921
0.02516586600866767
0.01775543629284206
-0.02146001496054156
-0.01419711514263119
0.00509304284578372
-0.01552386933758669
-0.0142748708490261
0.02451729075049585
0.01684877114993276
0.01846244619555155
0.02524879274397789
0.008294499430759789
0.01511674340757786
0.005852246098963725
-0.01813077516623951
-0.01037307141175716
-0.006491346346413491
0.0224380232372003
-0.002834117991196101
0.0179075605820578
0.01527918626877709
-0.01158745213521472
0.01248656138390237
-0.009020174417502889
-0.0143818392924124
0.001351279429622746
0.01685128525963071
0.009307742204638333
0.006753746284795753
-0.01144128301737442
0.02610624351449489
-0.02297228610718089
-0.0226880333516961
0.003904038553471838
0.01953206793100028
0.01642118236718387
-0.01645472072493732
0.001928872667796056
-0.02001942738564231
0.01803247830714116
-0.003481585615134888
-0.01876897443633621
-0.01839527750181077
-0.0005443075955543899
-0.01542263424431813
-0.008038149078233024
0.01374518650434356
0.01997742271816619
-0.0004977527652405728
-0.02143119307922032
0.007042628419912047
0.01335317087958209
-0.02129024335551435
-0.008147773473107535
0.01216139878209859
0.01890154572771935
-0.0068354090848059
-0.01592117570348166
-0.02637949356133927
0.007967030371893257
-0.006829422885891828
0.002314398557183046
-0.004374992847428484
-0.00987381215768323
-0.02030518974428253
-0.001131880745253627
0.009564622832406697
0.03203492260561729
0.02569449709935692
-0.004522175596788584
-0.02266151746175724
0.01484837665355266
0.0149938475207411
-0.01416332177328434
-0.00679634475653592
0.003544391376777
0.008631016001164433
-0.002841385189140175
0.02348806618392985
-0.01421537926711823
0.02385376236062238
-0.006274856788773642
0.0122733036844162
0.02841410160006966
0.03486814856374004
0.03781771601078874
-0.01003225440303844
-0.008530514904176296
-0.01689142405584729
-0.04819268817596757
-0.04529460024840199
0.006343274116802759
0.00193213889669122
0.002155802029089859
-0.004754742327750345
-0.003911775535612326
-0.02406438410025002
-0.003228399797578805
-0.01736988807780328
-0.01346934354704584
0.02748853131218627
0.03754570588383903
0.006364770340415282
-0.006564525753401397
-0.02000007057245295
0.009888135034425267
-0.01125842180653728
0.004295618931737257
-0.003693290639462242
-0.03475894509800725
0.03645922772536606
0.003473396856624529
0.01145832610865776
-0.02999453333946524
-0.0317969836358631
-0.01569252640215353
-0.012574010603826
0.003992796702349702
0.009753200482740514
0.006865180482032321
-0.008755641513704979
-0.008700996369570288
-0.0005472524738729766
-0.02726044175000065
0.01120781578001233
0.005708993676876757
0.02259538099882594
0.001754992250853544
0.003628065672937537
0.01136578520731501
0.006365329872129046
-0.004775838976921802
0.008837700360051097
-0.01677243878225024
-0.0141158282658545
-0.01211787169603626
0.016412765787182
-0.01632706960561572
-0.02074287730947157
-0.0165640250841832
-0.03168667629270525
0.006675802860024083
0.0004427864593072003
0.008684023607140509
-0.007929568326909773
-0.009337714740116555
-0.03793243578743956
0.02862947223515159
-0.001902729331200026
-0.01635583847832184
-0.003160087917213445
-0.01050576034591316
-0.01452265062527393
-0.01552705160773002
0.005938343627327833
0.00049866538398424
-0.01125042079057342
-0.0193902625810881
0.0084241837532426
0.00654498604191433
-0.03142421643031168
-0.004852280396324039
-0.005252655932796984
-0.01305759115337647
-0.0006195598542897052
0.001394175661544555
0.0289239698993593
-0.007822736868335621
0.01693764736805347
0.02284734168779336
0.009708808084855063
-0.01762128931375347
-0.0007858540369512116
0.007740741142362802
-0.01743856768399776
-0.00368684671404342
0.003182306044135516
-0.006319304392430929
-0.006727075879735176
-0.01795613702859565
0.02113569738104292
0.004927901589884838
-0.01610428132679182
-0.01163045626485338
-0.02254949967653903
-0.007532109288032358
-0.001767003427623225
0.01270249009259157
-0.0002552058974990541
-0.01744480079431149
0.01561548751987239
0.0248142028355964
-0.004953756620594666
0.002965482893958048
0.01680732437421721
0.01731524768140201
-0.01407088275979368
-0.01921859271043509
-0.00160608023970104
0.02370174923922096
0.007408504865837735
-0.02393838198432582
-0.004945710253257425
-0.001001811699860522
-0.01645406292998475
0.03020000086927263
0.01281982439466514
-0.009174135128509049
0.003918299619911302
0.02695573566391807
-0.0002997826646754461
0.02206492249060801
0.02045759195587886
0.01185299764182897
0.05146273904886445
-0.005231410803602767
0.01853672087953275
0.02333987654016818
-0.01045993990499586
-0.03004718480704663
-0.006306473216454672
0.01692791612996308
0.03560588490891477
0.01615552767007581
-6.849052661487191e-06
-0.01423848729483521
0.01603592594614927
-0.01346755568779466
-0.0002104124873730363
-0.01992598352182222
-0.005733572397877546
0.005056023004687707
-0.007440602829869931
0.007325952464985493
-0.02079812158839143
-0.004303023174930626
-2.380030964581985e-05
0.0114399995852313
-0.0180107761685456
0.002733090226522534
-0.03956468984355447
-0.01644200262022973
0.01821663304670111
-0.03517026145228771
0.01642169145756752
-0.01973961841395458
-0.01664734311225119
0.002994850356826228
0.03956618757381216
0.02964909887457465
-0.0261950988235248
-0.00191813515436251
-0.00408250481503475
0.02177087795149992
-0.03797453830855398
-0.03047193262365737
-0.01498728062422926
-0.01018397841932271
-0.007504872262280057
0.008466332098957339
-0.00249225010934309
0.01325604439422435
0.02600072653289512
-0.02604297461893491
-0.0125630444678126
-0.01273013223102979
-0.01127794750919842
0.0006892519027445201
0.006662253621333652
-0.01551849974451902
0.005037528844838761
-0.005108756703700069
0.01936579957381192
-0.02064624496253366
-0.01916097149200877
-0.01706185044453307
0.01476971216202799
0.02430027467925856
0.01024295556845725
-0.01757691122565968
-0.008023962109814993
-0.001075155609089532
0.0274280119753152
0.01455465442349323
-0.01145147710061041
0.01869975027296768
0.0001475090643668596
-0.01151805924378929
-0.01317376264225087
-0.004427950935102686
-0.02067518389454915
0.02063062044724356
-0.01231540391261222
-0.01414602464714373
-0.03489345658576472
0.01957532382023401
0.008368773958788702
0.01272318579983153
-0.01466494539312041
-0.01079276435552782
0.01978561725459355
-0.00548716484803636
0.006618891092586344
0.01942126952826439
0.02614906599585781
0.0210195628311672
0.01484867712322872
-0.02119792172222428
-0.02949152303306725
0.007683186283977191
0.007564525907822594
-0.01607644306286686
-0.0187632522337433
0.01469217381862552
0.0190164675554719
0.0125714860808535
-0.00515305300812176
0.005082220567847249
-0.009150604821865716
0.002618836487337931
0.02572019627093991
0.008960299689746725
0.01824349533719476
0.0057419899972367
0.03009331036715258
0.0253350164917876
-0.004229718530108363
0.02047247505225765
-0.01422795600541509
0.02327396792696491
-0.009660589542186229
0.0215128602958216
0.02001956360067032
0.01946418629165059
-0.01678412546909322
0.02001019404189181
-0.006518429863826355
-0.009277564366801463
-0.01641083454092843
0.0152867980159178
0.01174597268609174
-0.01648118221704072
0.02290109564021254
0.01901527468122292
-0.01626513008841539
-0.01415423267014883
0.02693170488939943
-0.002799464189244365
-0.03017848692809324
-0.02846971387575939
-0.01530186200764302
-0.0216369421720819
-0.04051594596906296
-0.03553829724518406
-0.03587009454447277
-0.009488355666837044
-0.01898731831715464
-0.02901063763131868
-0.005209233121276287
0.009865905386676586
0.01298281591348425
-0.03260362487853172
-0.008729613702395469
0.02609372025910948
-0.001330041431669972
-1.514556620146118e-05
-0.01428726995965526
0.01816114844866037
-0.005117226652972105
-0.02171734540444135
0.01232978381503187
0.00118780705552452
-0.02604635358606959
0.02611834817888328
-0.01902349352068045
0.01037696755557017
-0.01109872482970426
0.01632039571425731
-0.01800634635518931
-0.002874609142466696
0.002384337533601081
0.01059775461048065
0.01093612582173885
-0.01111785697546095
-0.02650600885606168
0.01941861654527546
0.006322290377448139
-0.004167603597973683
-0.01674838863710418
0.0151604968467362
-0.02394850091166841
0.01984754948365074
0.009010244816117624
0.01864068854108354
0.02696974220356821
-0.006237287750716526
-0.02341410180750878
-0.007961588571009351
0.007498504722525821
-0.01893451239944503
-0.006902454428503395
-0.009688568574788087
-0.01012912452668769
0.007977003189826696
-0.02063406276663389
0.009973045073462613
-0.01097005763085589
0.01449632885561317
0.0002548133504325747
4.687637705157254e-05
-0.004587144661212201
0.01747886629473118
0.01437371456416059
0.02415837294168468
0.02358704979048226
-0.005408249877383215
0.02663696133060497
-0.009022354672306082
0.01431718561016499
-0.04804333948901825
0.02702395411061373
0.001960986743002859
0.001415263317898332
-0.0211270290738634
-0.01056706015747982
-0.001917219571453643
0.02397779904746556
-1.636865025045254e-05
-0.0216688767031863
-0.03167533786685497
0.01867526322258423
-0.007815522664727043
-0.01273740424120801
-0.017514374529194
0.01483709954852197
-0.01256563940498358
0.02047686444000163
0.004717625550804616
-0.005385014617977317
0.0249847203787325
-0.01707917680566522
0.01875788641877623
0.01932761283657916
0.01552594634464126
0.01408093608466501
-0.009204208457519528
-0.03190663225775432
-0.0377796166535799
-0.0322104956900272
-0.03043312258337761
0.009102378462651967
-0.01569329858105842
0.03391752521349581
-0.029296083586198
-0.01457432821568876
0.008426076271495216
-0.003552801632005356
0.001572850054767496
0.006873464468757567
0.03633859112791596
-0.0328536834238717
6.370517111248735e-05
0.008228041672945489
0.02513325494808332
-0.00210496497049998
-0.01664278346548335
-0.01329361245558979
0.001258262733178547
0.02627388809101239
-0.01109431759146241
-0.03884199332913851
-0.008269025506344979
-0.001138084340767836
-0.03898657219677099
-0.03181616168268826
0.009448203640118287
0.003280915971538091
0.02264617170897212
-0.01308542629548176
0.02859080522291449
0.007432706499068123
-0.01081863294767259
0.003373393259059366
-0.01468443808615722
-0.05014318684160327
-0.01322130308538097
-0.01494564109290553
-0.01278138453666615
-0.003548535678423669
0.04062034336067957
0.01226049183569972
-0.01404844203805199
0.01808069983343609
0.008454396075110088
-0.008980118320306752
0.003219665557133797
0.01770544372910555
-0.00459095074519856
-0.0004112854498283084
0.02816184978443095
-0.02820430697028012
0.03945151621990591
-0.006783985941967846
0.02754569313198088
-0.005775344585638738
-0.004937806529193871
0.01172372564244616
-0.009985363187805539
0.005513731679114705
0.01403137135121911
-0.007552833803413549
-0.002840128211028531
0.003967035673230268
0.01884741189187024
-0.01774129941889095
0.007903264100048896
-0.01737131789649164
0.01798748423810554
-0.013860588522134
0.0132760350369124
0.0150591462121045
0.0007852642329259209
-0.006762556910772435
-0.01939619213876967
-0.004359912220008228
0.01913001022752379
0.00100906645554608
0.02029382051812445
-0.01337205246724977
0.007624356646262388
0.006978274996513638
-0.01132382251750487
0.0192140985991543
-0.01221684476718453
0.02446255248700476
0.01834320873968451
-0.01250009957586693
-0.01249095015798068
0.000156265379682764
0.01805401249352551
-0.01902981464327455
0.002085790777597229
0.009931876407490129
0.02453027872606602
0.03445703945015269
0.006195483494483329
0.003016929772906326
-0.004002928655836337
0.002166892921570096
-0.02467963800054692
-0.007010431101497921
-0.02150099186399029
-0.01389166773823318
-0.0293265421645637
-0.01641549977505247
0.008473454543879865
-0.0188379530293737
-0.02254081083314029
-0.002194023334951005
0.008537278391022252
-0.01672157941501253
0.0158718522790598
-0.0001647966925903632
0.007913100744086925
-0.0003601916275318274
-0.01032311736470005
0.02807053492069309
-0.001175920059918395
0.039945180485694
0.02691732572797623
0.004563249591080073
-0.005310043509693871
-0.0313264254830302
0.0284228213417488
-0.02625130101661685
-0.01393507226651321
0.005698448070668594
-0.02133799883910273
-0.001054590353954735
-0.01315831377447436
0.01365683741385888
0.02043824994088437
-0.0008380230083532456
0.03761296427317171
0.01189060184793408
-0.00447264010412052
-0.03030638601140914
-0.008096563114448009
0.02194332874056116
0.02265662232782613
-0.007903942698930327
0.01081778451817125
-0.0133969496551344
0.0193603128422377
0.008374422888644187
0.02590663026195423
0.01230013069809072
-0.02176031727544935
-0.02171831604842957
0.02901353709678078
0.02108528263313529
-0.01823358508965245
0.005387820532309951
0.04396351944371508
0.01924495787938173
0.00279420883256502
0.01912904657146694
0.001537974801511616
-0.01272444531756393
0.01009447412365994
0.02244328462711329
0.01985356603729722
0.01695959389857964
-0.03275988757284597
0.005633327786113724
0.01727035706346211
-0.0003168463298859614
-0.01729167819120931
0.01406610486474835
0.007686524899488682
-0.01179798546647491
-0.008192624888464022
0.009600719692247199
0.01260939427744891
0.01723020818168431
0.01978663672878864
0.00567122501895983
-0.01684122729930093
-0.00690018840324263
0.008709835234845288
-0.006897753900989756
-0.01370013933511784
0.02007438290815203
-0.02043382953447415
-0.007378424689230241
0.01350624836305508
-0.01193355738016563
-0.00764826139762589
-0.01281449797903382
-0.01282855968051726
-0.008590525092794274
-0.02398977442877293
0.0245078287453741
0.02235066024662475
0.02697811653473344
0.02351361904327481
-0.01852284746153978
0.02152456440824203
-0.009169884597019794
-0.02323289887279772
-0.005025295423880144
0.008390107346967431
-0.01382891192873519
0.02330123055064064
0.01020751254515901
0.01837551656359892
-0.02346495798074829
-0.009203244879476486
0.0201486325484654
0.0137009176940811
0.01061333051580583
0.0018155477072984
0.01216904465996587
0.01939018375303932
-0.004005671112590907
-0.006819164169082561
-0.001289017294022608
-0.007197685999010276
0.0211702781465382
0.01423068631563523
0.01039204480404527
0.01820565925058383
-0.01774888144793926
0.02101552112208525
-0.01706256657215417
0.02677451431478966
-0.01712849763587693
0.02445987164205075
-0.03124583574277178
-0.02011468097052292
0.008816220008142981
0.00735950810318657
0.01184325017513185
-0.01637173944395157
-0.01295401761207624
0.02198089410889013
-0.0139542127527002
-0.01631908372782817
0.0115658459954809
0.01504835045440146
-0.0003320934078119743
0.008005252557484232
0.01830479650749409
0.007242286670023982
0.007320632748702462
0.0004318528267515261
0.004743430932783975
-0.009456911090748385
0.04089578440322703
-0.001099021907334932
-0.006351539768224577
-0.005006904588724241
-0.0183957560960145
-0.04991892319660889
-0.01017995660314394
0.0004164577046590131
0.0304163959980893
0.01764855802208884
-0.01721286624347721
0.01225602653052585
-0.01538860614438839
0.02018437584035526
-0.001393386661742836
-0.007369039085970511
0.0007881982962132028
0.04015701549931553
0.0193434553743187
0.008288999958236433
0.006081636701759653
0.007295434024166358
-0.01890761704556941
-0.02918048410377951
-0.005449697312434781
0.04722957513058933
0.02130532521698639
0.005898626774751622
-0.009298177415368253
-0.0025639700193618
-0.01176591454865633
-0.02347328414737036
0.05094487933654876
0.01324389179149838
0.0113730918716041
-0.00992548384686368
0.004501549242550958
-0.03398230161562002
0.00139010148939357
0.02614198030096646
-0.009919407430287441
0.009859669086882598
0.01924873128045544
-0.004621064485453303
-0.01760401094497445
0.01576742928575739
-0.01987143162268807
-0.01156510706351357
-0.001929607634051632
-0.01638274386958709
0.02293265332029773
-0.005446231519915016
0.03522280305197516
-0.002627568648052739
0.01139264014692704
-0.02854439459514476
-0.05067215592491642
0.03186127897229318
-0.01352010334324057
2.801052503587998e-05
-0.04206029624356653
-0.006025484191084075
-0.01801507287363746
-0.001924957025818687
-0.008514375490185752
0.007792415122835759
-0.01040285500421694
0.01351436875365015
0.0001313331867899151
0.01329828820844595
0.01958532824790868
0.03161612371988513
0.005758663846778605
-0.004128968418940605
-0.0301576786824315
-0.0169724726774147
0.007622989476397363
-0.01229686483547869
-0.02506405378559348
-0.003159436380007788
-0.018094399997476
-0.02649271344326774
0.005719786695703828
-0.02737526633767483
-0.007380867349537868
0.02656581097969609
0.005538567764673103
0.0132397989878542
0.03264139779086184
0.01285823391384549
-0.005315980497584182
-0.01604427693913768
0.004584769136127373
-0.001841245608599112
0.005561489949264427
-0.004857313660503643
-0.02390815081252954
-0.003539936879058765
-0.01782226284888261
0.01913087565721738
0.006180304334323949
0.003405001412034339
0.004817636790061457
0.02252202552214843
0.0005123252346759589
-0.02128935524755474
0.02126851199921969
-0.00742563566308737
0.02375148716823289
0.002538782124065754
-0.002283245078661054
0.006468289428283812
-0.02325566866468175
0.003307618812821129
-0.007896416301460471
0.02336983273478034
0.006454674162012869
0.007895843791207753
-0.01514588090599695
7.916147245239078e-05
-0.002863667578093992
-0.05156384418589686
-0.01325416780644139
0.02876011104830016
-0.02415051889881649
-0.003323616497119329
-0.02279404931338451
0.002551954494379703
0.03526839072567155
-0.0228905065503245
-0.005780714549116903
-0.007778918989850354
0.01868240426629577
-0.009055555600654512
-0.008354592878083406
0.03767238443003286
-0.04519196303248811
0.001823948835528589
-0.02843904471732524
-0.02790868865219269
0.03538465593711696
0.003560552830324555
-0.002631832834202912
-0.01519868764841426
-0.005491229646906851
-0.02601550092298723
-0.01844665800405289
-0.01364241005112384
0.005552989842951719
-0.008099986843030255
0.02095284755677953
-0.03288780000995896
-0.02770616507652629
0.001302045880075315
0.01596516314721677
-0.04105576345268159
-0.05342790990963454
0.008964502697327887
-0.008137922512315796
-0.002584683039673148
-0.003088047238195852
-0.02170148006906175
-0.03305270473909717
0.01845090024491356
-0.0192022455128886
0.002492648256872019
0.008176930347508755
-0.008517206048873452
0.002033989334203642
-0.023422866525758
0.00099558819522531
-0.01874954480852405
0.03694524119221159
0.01039062903229175
0.0174680132315524
-0.007692579314146716
-0.01511432627247195
-0.03482444678070855
0.02330714558894521
0.007444333298341355
-0.003690855695890154
0.01626994080330835
-0.01450271808156577
0.01964864158743603
0.03559344769374793
0.04554016809961264
-0.01998523784513343
-0.002705684744688128
-0.01625353992919296
-0.00951965931027882
0.01761695199727985
0.004586067029707003
0.02658081970725974
-0.03691172413178922
-0.01138376045931901
-0.02956905483242589
0.0008950132514029404
-0.009059847392281111
0.01389921433558773
0.004205005896567284
-0.006346121729233655
-0.006504870368168146
-0.02469986963022311
-0.02636075648012227
-0.01037395563802939
0.0142099864154128
0.01171422819277516
-0.02437569571153536
-8.829452811974586e-05
0.01499919838700766
0.0001961886081320955
-0.0114423996559717
-0.01658514055667563
-0.002115870463951387
-0.01510712240173995
-0.01303375346117745
0.001325894561420086
-0.01759841257839025
0.01177529162961071
-0.006660726957187116
-0.01556751951056498
0.003800331178433719
0.02150413355184838
0.01322075698104549
0.004595625676802866
0.004057513713619653
0.0116000254152797
0.01924814018505275
-0.01684672594092948
0.02627989343642063
-0.007307156989575903
-0.02420452175937161
0.006095979214564976
-0.02401260567179474
-0.003845282584830806
-0.004697982510733896
-0.01368866572122968
-0.0009705886103904401
0.01859801182348109
-0.006084881765322557
0.0004623226130277215
-0.006124323061081462
0.007052199420265091
0.001653079545851332
-0.001911914379230413
0.008506530436169189
0.02371910618695999
0.02795429994400509
-0.008485284454388647
0.007235027623948584
-0.007850696444231923
-0.01530283521821445
0.007246555557668668
-0.01758386075494937
0.002298696403466534
0.004130965019305841
-0.02633450936530538
0.02818905278573412
-0.01474493998717257
0.006334711877200345
0.003681165491880459
0.007940255333702505
0.03234546438560801
0.0001092391466952021
-0.000419226819754956
0.004772231988632036
0.01898141319826401
0.01102910435034176
0.006121806554085489
-0.0001697865671908487
0.02607922202909493
-0.02050159881851548
0.0006837338006864117
0.03376120388724869
-0.006572209789979818
-0.01148034611907232
-0.02567843330427961
0.007918775661837936
-0.0003017053818612073
0.01876922134144611
-0.0004367611039848241
-0.01377909717334638
-0.002533619741519195
0.01044883402497871
0.005732075145621729
0.0123748847072413
-0.01111024751736227
-0.007033038207416285
0.02882461296885643
-0.00101282981878018
-0.005789609053983687
-0.01671259850851204
0.008434801715355813
0.01243863276207476
-0.02602540369602807
-0.01070451649285633
0.002418902139338743
0.02163446943939207
0.02898304528604018
0.01889944339752008
0.008569478457709346
-0.02290780698877471
0.02189591737789132
0.03728787785659414
-0.0148204207955095
0.03340287298803191
0.006194116836979362
0.01437174969589006
-0.02855975270028507
0.02972013185190324
0.01004616549427582
0.009499675625113604
-0.006056758022937905
0.02160391547185308
0.009861246930828701
-0.01160081607070562
0.01038594169475731
0.00976689051582107
-0.002003468270114115
-0.007942873373790993
-0.004980893848018085
-0.01590834682385855
0.003784750859335958
0.007222570254571555
-0.01655010479627146
0.0162577037003138
-0.0182406249098952
-0.02454163243274077
0.001791108141548381
-0.01626407650920234
-0.01000805462510772
-0.02324064043542639
0.006826517935891563
0.01199661730052105
-0.007494019627433716
0.01684707085392717
-0.01836844371472342
0.01445591884393811
0.008347476823641715
-0.01806728290736074
0.01406539344179423
0.02595642707595219
-0.01029120868249307
-0.01143271414534421
0.03087583995450154
0.009992113836480852
0.008408744787589678
0.006449506607529886
-0.04929687414428946
-0.005446957767740911
0.01709862029025016
-0.0143517080529356
-0.0116140173594953
-0.04656899836849389
-0.03718285526376381
-0.006593968905853847
-0.01434515313907361
-0.008975726870595436
-0.006700209235605042
-0.04609780182811616
-0.0247849003650156
-0.0003547258574140318
-0.009862831783163753
0.02360942914787879
0.005981177549633176
0.02789843427224901
-0.01689149404666038
0.01513779524514613
-0.001982661505511441
0.02621290656266202
-0.0004667711743417202
-0.01060577435022038
-0.02345348787743588
-0.01422300376322839
-0.01654112077371893
0.01307899137400562
0.02707327001052418
0.03215709632852417
0.03959355269271681
0.01039531250904913
0.00364746273518519
0.03247375800668701
0.03703935372047081
0.001100617891460586
-0.001476787182721796
-0.009484989325064985
-0.008354696117330643
0.04374775064020132
-0.02008511784476657
0.03560798070244336
0.0009153543154378592
0.008857322026303445
0.01595930145623586
-0.008151722716922797
-0.003609014326770023
-0.01402815365553341
-0.004749250705667334
0.009258720840789162
-0.001829192619171091
-0.01103600350359098
0.01602329018261821
0.004057910706699223
-0.02887904405245704
0.02762833751859592
-0.02914719259260345
-0.02591350117556136
-0.008923402290727781
-0.03351378600962047
-0.03166519600255042
-0.01298479709761543
-0.009823067895004601
-0.02597317203935502
-0.01391389259252306
-0.04080906076237684
-0.02521593843590799
-0.01075066835805893
-0.01598156758535594
-0.004206219716665726
-0.03140716199317894
-0.03310207432133395
-0.004535038734356792
0.01890692185364152
0.02338357861020238
0.02895474035856462
0.02114298616482782
-0.01564849494289122
0.01183355312943708
0.00191778186825152
-0.02750066118302176
0.006497620289780358
0.002027259861311897
0.02183464148346448
-0.01988334190527619
-0.001391374448662903
-0.003467259872955151
-0.002854655172204667
-0.003547785013371335
-0.03722523180512859
0.02633752871541883
-0.0009048017775826569
-0.003100402675800747
-0.009349143203546982
0.0002682030814310745
-0.0162046658446078
0.004340598499846558
-0.02206391700633858
-0.007543283155158871
0.01193048066899541
-0.0005665641324436505
0.003687626054185859
0.02010552366489628
-0.002331283963540397
-0.001469839694446268
-0.006449151085389649
-0.02490389523734102
0.002423170915938954
0.009850191560256846
0.006407516213658022
-0.008876112178149395
-0.01333451231487333
0.009648053698933734
-0.002502577295946574
0.002240919423829633
0.007446312351657538
-0.0143660435923241
1.989428542936586e-05
0.008395395563377806
0.009897409361426721
-0.005654962890487059
0.01916249466943065
0.007055611417517749
0.01565873097494232
0.01977710199726127
0.003129414608471724
-0.01274791070299726
0.01016551554834256
0.001735161192276928
0.01127897720727596
-0.008057958745498195
0.009969197323609038
0.0007282283802954324
0.0008611809340455591
0.02052266336017742
0.02308256607562708
-0.004635428263825109
0.02731095584189055
0.0225736794775175
0.03026092049514133
-0.01702216649429977
0.0004923838049808665
-0.00141215324874122
-0.007041556557876943
0.01055650811458442
-0.01644384097008708
0.02431579637797739
-0.007395231885095315
-0.03451284583347609
-0.03476638344330667
-0.001150569594441993
0.01769539394881104
0.02006009170891732
-0.01689379523215495
0.001909013038366867
-0.01538003437097039
-0.01069674993765533
-0.009577703171693999
0.02146839145502231
-0.01862093533520652
0.004244650635762387
-0.03209824071209704
-0.004200081298839082
0.02953092028261544
0.00688093341313459
0.006223615814046715
0.004226481322434718
0.01054655532459782
-0.02215986492591946
0.01429820543930826
0.02206578006753947
0.009858630994505803
-0.01810696820381037
-0.005476883116774338
0.01012375494616343
-0.003250907542354872
-0.003872313692025278
-0.003864017698318459
0.0174363155857142
-0.01425686978581744
-0.005541617790692927
0.0193982719111748
-0.007857931281272998
0.01184458968818645
0.005415701623640852
-0.001945993910108557
0.04223446876924813
0.02792008139158476
0.01012171632694694
-0.008631822265178633
-0.01503027255003113
0.01370178326251572
0.03457169236048294
0.007307060941384589
0.03842372951684107
-0.004907666599003659
-0.04059470033766489
-0.03841203713384102
0.02257446610920669
0.002595471715135672
0.02095707378712681
0.01228815188202059
0.007622140677907299
0.004299753723620453
-0.0135255170901787
-0.01676066212048125
0.01420688172995768
-0.009324083355467246
0.02221025683031965
0.005848338242367951
-0.001932398735420137
-0.009371491273154425
0.01385016514486442
0.02215327783293028
0.01804091939988002
-0.02168886769821543
0.004749076848158759
-0.009718496885811499
0.01116515410445363
0.01606322177217841
-0.01870483849915795
-0.005355999188592408
0.0187935676717362
0.005200749339394349
0.005043130592079632
-0.01011253230748168
0.008226951575195809
-0.01155925019099865
0.003139295919775509
0.001385976140589889
-0.01179649130105105
-0.004391185790029974
-0.02436995692108443
-0.02907991868306693
0.01285385653379052
0.02767655760607888
0.00317889366163335
0.002905582285237661
0.001045662060002447
0.02920019328194292
-0.002811824273706725
0.01441985351699131
-0.004417939318933466
-0.006939775206728671
-0.005514647318987149
0.01329325063545241
0.01925995641249378
-0.01906048308666108
0.001171487707915805
-0.00140724802170861
0.01031606940641399
0.0257090616568824
-0.01534048655915299
-0.01613508563135201
0.01628871112789956
-0.01283317504118207
-0.02755561789771326
0.01247303918764886
0.005081629177715659
-0.007021192533388172
0.02933483274861895
-0.01703667526275829
0.00268287043583722
-0.003165926457947627
0.01677157518216457
0.02789181624073369
0.008154817157368878
0.02418340849845622
0.0104609743768928
0.001706273880313169
-0.008421904414536595
0.01568761109170811
0.006048369208809155
-0.001764439977472744
-0.05204719666139938
-0.03438256318886709
-0.01089053072176495
-0.001607309008238753
-4.171784223076707e-05
0.01875135487912205
0.02462009453226768
-0.01070490542865784
0.02373515081082103
0.02143402626187035
0.01359813975488219
-0.02936891084656204
-0.03397125240654961
-0.006177930957751172
0.01066547234909844
0.0082450177417294
-0.009599886517816163
-0.0339105289933512
0.01950265661478304
-0.00597043968763344
0.03175939708833225
0.01626683181226695
-0.01670005344967347
0.004962085495125066
-0.011817041180549
-0.01319204612956134
0.007922051533951669
0.0197288057837794
0.01164427992853123
-0.01902802534921371
-0.02086795614607131
0.06635841539666255
-0.02875309331390956
0.0007835917912228976
0.03017445533199767
0.0001624330544563285
-0.04416927500283787
-0.003844299749197789
0.02912028854927959
0.01343866557060118
-0.0008945170045909342
-0.01026167622160371
-0.02670261195406445
-0.005046377051379101
0.01215365628714592
-0.02414898612729748
-0.02218923461359654
-0.01550425152443915
0.005278045120643855
0.005306007579323519
0.02040964652294257
0.01830964211542913
0.01686697618416252
0.006601780598018932
-0.002544832577525541
-0.002495049729256961
-0.01619574160836698
0.01284354285913258
0.01381891924531545
-0.001858049731328538
-0.03036067452663949
-0.03617600681415228
-0.00349527400042243
0.003315871340273582
-0.0001242976597872836
0.003497192974412795
0.009083841305107076
-0.02094578353606954
-0.02013662843040686
0.003157344423683143
0.03743828057481498
-0.01120788481632012
-0.01295605179423836
-0.009563157065773573
0.007178473678681082
-0.003068028321336968
0.0227116394612942
0.02082654198389741
0.0009956472640623593
-0.01158667325115658
0.01334550689741176
0.0191567843845995
0.01395855556689567
-0.02768637748741203
0.02158951273042843
0.007182196911214174
0.02647820482895673
0.04280674559484784
-0.003619751282497991
-0.0111369029324139
0.01573055148971395
-0.01349658100201637
0.009523305959082519
0.007550024211481652
0.01636204547044132
0.003609799283948617
0.008557454312130326
-0.01086195356345722
-0.01267043003913636
0.002803134619882718
-0.02165617782302588
0.02254073297298575
0.01967615147126868
-0.01093143427655782
-0.001349800611021914
-0.006079634011230609
0.007947703393719634
0.01325737984964107
0.006025955291627272
-0.0004274123193474838
0.004062223861016857
-0.01893836405680548
0.008317253063389846
0.01114099685460141
0.01145194630310796
0.02170715674539667
0.02555537909913621
-0.02146932719877069
0.006165001576024591
0.01265928526655936
-0.008160737929097802
-0.005855300193025962
-0.02198311003581273
-0.004664149151894331
-0.00810376513099954
0.01094741770228335
0.01613542295475009
-0.005907871216788834
0.01289679057607877
-0.04329315244075534
0.002272027071217534
0.02593813581360833
-0.006582971870276748
-0.03139785098657002
-0.0309963655024985
0.003731651659078655
-0.02009343273824859
0.0003643475189336019
-0.03097057414560974
-0.03290281807779334
0.02121830693738366
-0.01051002944535287
-0.04113018657870621
-0.01571652791088848
-0.003758747311616215
-0.02084199485788481
-0.03859804788293329
0.008538096906616778
-0.003215864720683105
-0.01559654663943978
0.006107559812524075
0.01042071647474473
0.0179350889760503
-0.008486397669023395
-0.02227872354375031
0.01340787776203809
-0.02988464885705769
0.009711060678056263
-0.003210560749215399
-0.003593536761143796
0.01258443010152824
-0.02104909060858505
-0.03835518823896866
-0.005219171978684287
-0.01053838079075655
0.02458291511002249
0.02310485837994272
-0.02874699853871169
-0.002062955915022157
0.001387694117974983
0.02940366369888751
0.006244872151717662
0.01231016493397188
-0.03250178976172853
0.006211912875832669
-0.01685385379789551
0.02476669660998238
0.01339419508855714
0.01522173348399377
-0.01146036191971904
-0.01650796765276216
0.01907408399236707
0.00331049394304837
0.002997399487251516
0.01213305079297678
0.0181652936976248
-0.0009144029423089289
0.0335224373497973
0.02390919307900218
-0.008541946197540331
-0.01344684773716629
-0.03032765907196368
-0.01042867620064603
-0.02800421615752109
-0.00423672780712343
0.01897197740914437
0.02185337452534368
0.007586227979129047
-0.02683465934846485
0.007662601114672108
0.01355343442124778
-0.02193558211442372
-0.007760551714019433
0.004401914150962617
0.0249002037022099
-0.02311936617817359
-0.00111680622665682
-0.006166488494549083
0.00872951399551016
-0.005303777847203399
-0.008291659861440372
0.01990029840930067
-0.01752934171799075
0.02435742068354636
0.01067768385687446
-0.01757141176737746
-0.003359650971204086
-0.01759237221736404
-0.005163011041823476
-0.01097462089427182
-0.003345117522277235
0.01546484127050157
0.02216871476822514
-0.0208911948202227
0.008131703326511351
-0.03029352546968549
0.02117945490435641
0.02443889235821476
0.0183138733037959
-0.004308520393538638
0.005126646031354552
0.01276964923916488
-0.01025385621682926
0.01320070377161293
-0.01027017413221133
0.01663082847589498
0.001825495293429653
-0.01275713045544958
-0.01678563328889001
0.004804643665804713
-0.02560732344081421
-0.0213646827334673
0.005454663909345452
-0.004205084204424149
-0.009365781458986895
0.01721264114890782
0.03378209265991963
0.008837504275979905
0.009081605554785193
0.004003501322772235
0.01728787137239573
-0.005671062252644846
0.002519636118195291
0.01472579529426373
-0.007018290877330972
0.006511326577656244
0.01062832191910084
-0.00328663419227523
0.01555099644248907
-0.004278740058650613
0.02047220382463459
-0.01034033923436515
-0.01559783770108032
0.007495046286963578
-0.0005893510220009811
0.0190105110280181
-0.01764917515147435
0.008298108014263374
-0.01863105175951702
-0.0238092232942452
-0.01764530589470634
-0.006886149686449728
0.02245464137554699
-0.01217926554465965
-0.01772369649324749
-0.01378048413601929
-0.0146548479922108
0.02125027224222963
0.005607712462062715
0.01216634534014375
-0.008193837364976739
-0.02169466317188697
0.01057311924735423
-0.02009300933384562
-0.02296407583880984
-0.01751116647877964
0.0004098425471843431
0.01049249831882829
0.01756160208496184
-0.00323681430607044
-0.02861051105232215
-0.01604946826292701
-0.002111120709428373
-0.03363940981500092
0.01823662842634767
-0.01809074807914837
-0.01776727969420091
-0.02607789407218367
-0.01090833571234209
-0.02950875644537757
0.008799014923339897
0.003241248628677711
-0.008398487681777251
0.008051508812261339
0.02615775415432112
-0.003656209154770781
0.0253102102375978
0.0008155776349575312
-0.009601837954752491
0.01203850676587859
0.01781516610943664
0.003374179815269079
0.005196679510885919
0.005183049569302249
0.01541900579667451
-0.008222313942784609
-0.0194365207043909
-0.007889763003335347
-0.02561715041793295
-0.009637123100902178
0.01256942563148619
0.007234496060310133
-0.0112203495286216
-0.03294727754723034
-0.008616751231480049
0.0005293952727001448
0.01212781635235561
0.003190339806429866
-0.01306554125773467
0.01313198679710163
-0.01614962615347279
-0.001827308675120427
0.01725704963540146
0.01879494418422145
0.001986666658348033
0.009930119539585338
0.005162943030411362
0.02290505373644745
-0.003474867879227983
0.01069713357094371
0.02439774317659946
-0.007046471987049872
-0.01609035595879811
0.01532367302941254
-0.005154351911471593
0.006070051905112695
0.003066097260299592
0.01638623243593293
-0.008642770204661324
0.02488740754666727
-0.0003285507373802369
-0.004435159653679877
-0.01152177070726334
-0.0172900460914219
-0.008760074499092827
0.03677439597113529
-0.02890509560549689
-0.006559334705510143
-0.02085621188881137
-0.001623654660197316
0.02584602058948687
-0.007140440165509079
-0.03800548631151985
-0.01300885636366769
0.0235490262070116
-0.01861720749599645
0.006829112484367318
0.003705538941221896
-0.008601235868111363
0.01120034194417282
-0.01550170369722126
0.01906203638643672
-0.02121697871388084
0.01298157806140171
-0.007923591100163019
0.005924107750979258
-0.002133169369210853
0.01019885343890371
-0.02943208316011611
0.005050871616709648
0.01598937596190233
0.02028269736415119
0.04639523838407
0.03040209270242329
0.0140990340897912
-0.03524076828990032
-0.0007988791977734304
-0.01505695996715538
-0.016283605449231
0.005374368518586095
0.01280154939400206
0.004025587270939837
0.01084394574386374
0.01481076380236234
-0.004647957959652961
-0.0102119957942407
0.02129357458937851
-0.006755377403364867
0.007541408996823496
-0.01650684916654553
-0.01052603926885043
0.04070968334828031
-0.005039460672304657
-0.01584263019373981
-0.02209158513423556
0.0144565386893224
0.0371104918527704
-0.02094518996651419
-0.02303508317209036
0.001162603614422395
-0.005454548857722344
-0.02524085696244426
0.02466390180114599
0.004545936725980733
-0.02185310954992855
-0.02454667329120615
-0.003262135435647525
0.001502604834654696
0.01429452318570438
-0.008216830110140414
0.01188993500319591
0.005121714403417866
-0.001781380342835749
0.009003556691798033
0.008266895792055716
-0.002455847526450025
0.03503423572896978
0.008533887151231151
-0.008367648538221202
-0.02633990039542213
-0.01280888837759881
-0.006865318692284701
-0.006679323088334584
-0.03107166830009146
-0.02648560249897433
0.01805780764839441
0.001841088121023734
-0.002043425197836503
0.01801783257384433
-0.004564923270524359
0.008352935978124573
0.03389935910260086
0.006810127803433993
0.02382936847190334
0.001477336616161707
-0.007985640209293975
0.008956408268888431
0.0221404886087689
-0.006427022803743408
0.02154876061809789
0.02042393659668955
0.007984094458995894
-0.001205360725272465
-0.003611232299744545
-0.005823809009932645
-0.003010505414990582
0.01536970164736866
-0.01063184094503078
0.02738922614612006
-0.01557518244458636
-0.02114102779541507
-0.01328124126836681
-0.01878750396883802
0.006022486984052799
-0.004177841907101625
-0.01339166087894354
-0.005330472145094945
-0.005502222898713869
-0.002999182438338233
-0.0141572840209874
0.02709923973064119
0.02109617244725791
0.0182489614948964
-0.001206038109539178
-0.004603757713519967
-0.008728927315464294
0.01503569716444181
0.01154274351340378
0.01376955225266226
0.008047502678473189
0.01695408860173226
0.009481130376438565
0.004239364067687467
-0.01718971701695263
-0.004569714193069995
0.003415292516807534
-0.008732539461026353
-0.004682853375129257
-0.02219346114211217
-0.01203988806484623
-0.01660183665888853
-0.01935145047588235
0.0002872383302427501
0.008048360813825001
-0.02176772183973415
-0.01669333406786056
-0.002816488487725779
-0.01627529410668526
0.007832605018901224
0.005770420533883954
0.00383262983795783
0.006629369785699759
0.0002031786750533166
-0.0319949120082915
-0.007394992487586908
-0.006638429681536294
0.009910257552765494
0.009352641003108618
0.0360928076839926
0.04247381614758457
0.0056000251207966
-0.04999683123714924
-0.0427379018666055
-0.01296641048080708
0.008827269849537068
0.006193854275090842
0.002054171643572746
-0.01629627751651947
-0.02139974899429157
-0.01385587468840392
0.00967141360607526
-0.01588912821340662
0.002277125988266386
0.01361216103441011
-0.0167935183432113
-0.005146732114421101
0.02157401422320784
0.0331651337797275
0.0271599422855241
-0.01053463325890124
0.009189345784260216
-0.0009580144065058604
-0.01116357996167758
-0.008812724045274518
0.006115074665033462
-0.01173305832303745
0.01297330028500016
0.006094272980617592
-0.002618731640132078
0.003088620286422319
0.02651885010406303
-0.0001021572602523782
0.01268118378700028
0.00696938615987555
0.01040830755566252
-0.007170455737344504
-0.007532701969833725
-0.01089533642695713
-0.0227869890606769
-0.01990328432879817
0.0008061201233604398
-0.02251011398204702
-0.01223671828286194
-0.02256447710694594
0.0005355763281159888
0.01752847149987126
0.00148520216346193
-0.005821524196234825
0.007982178798787347
-0.01587166501045661
0.003499384438030586
-0.02307689704396749
0.004146906385513456
0.02070228917654389
-0.02060662799526069
0.005697619082324361
0.02478604994959184
-0.01767548384511215
0.01381673339419876
-0.007074809132162884
-0.007226488409920918
-0.02095238187665684
-0.002144059704566246
-0.01810287092862086
0.01542880269612807
0.0153808575949166
0.01478450915208548
0.0330069265419099
0.009114834872589598
0.01163517105720384
-0.01786527895482673
0.01974028693839949
0.01043461827436143
0.007325623683267546
0.02503551747262569
0.02721420445198382
0.008838786134774767
-0.0182382229245795
0.01879401075987666
-0.01503733341317992
0.003712806760586308
0.007259554583114912
1.987793136508438e-05
-0.006768452545624659
0.01684357138723047
0.01977921572585767
0.02429486162987617
0.02315091452148748
0.01277723420961388
-0.005228098060943738
-0.00353224316146969
0.007443935142479334
0.03398249089565831
-0.003826218780908511
0.01495053564455054
0.01414425504496713
0.008884612872395109
-0.003168625397419495
0.004311444094296282
0.007082508732476497
0.01640753776019305
-0.0192825603739721
-0.00315555901222407
0.004362932764067944
-0.01035986556113917
-0.003570807449444824
-0.01109582567313412
0.01533747992781375
0.01929535224917519
-0.01443685367760299
-0.007282387157283817
-0.005177498426965427
0.01466592940278226
-0.009820564379095668
0.02014064659295509
-0.02220973470051373
-0.03240126615170029
-0.01471276498815557
0.02438695797079399
-0.002353347664904478
-0.009917392768010578
0.03016969539698234
0.01319692175322041
0.04408780511117581
0.009436034998613639
0.01392631529458012
-0.01581054283563084
-0.02072174533199693
-0.01220575811729078
-0.001426142627303072
-0.004631724093160972
-0.04168407918774327
-0.02733004122808572
-0.0168188428469688
-0.004341815743498736
-0.01097265958922896
-0.002708702975622481
-0.0005380750964153355
-0.0332754507614673
0.002572474288086882
0.006557534265677108
-0.009898982845230239
0.02625073718765928
0.02696134035601827
0.02621359798528481
0.0007404882426866833
0.02560252263158257
0.03800021620089045
0.02936042249615302
0.001454578382805554
0.01270133193136076
-0.001123859563446908
0.0001800834073167497
-0.01885365680987696
0.008858469245117859
0.001947786545293744
-0.03613283337367493
-0.02003286832851253
-0.01270779086637218
0.0009847950656224997
-0.01250583890614846
-0.0305631008486736
-0.02247561581276424
0.007519224709698556
2.207141375587544e-05
-0.004184435447165425
-0.0110014578014661
-0.0126610016580437
-0.004922107252651188
0.005970964700467045
0.008034450019445199
-0.01585430868774671
-0.007767906022726009
-0.02402829644370303
0.03054557720449169
0.02587974616972894
-0.00316461736776031
-0.006231531654935805
0.01478385147174143
0.01360113912848307
0.006349195526038495
-0.02755048525663767
-0.02786886471756355
0.007819743969088211
0.01246284999878799
0.01399171914029622
-0.01065069075694149
-0.03103957836031481
0.008376121985537015
-0.03160456131738425
-0.01010316363713356
0.03005137080842917
-0.01023212183924474
0.002778640507674833
0.01397878829251346
0.004606509074377791
0.0105571137611876
0.0003870257830544415
-0.008457723572193815
0.001103221363784454
-0.0128132433246518
-0.01987885770930985
0.0196943145607982
0.04063008517486767
0.009402004387540259
0.005071396365164601
-0.01918406626204424
-0.00173667223643437
0.008647317955070177
-0.002640691052357972
-0.02737625225545592
-0.01105761003868274
-0.02080004059857908
0.00157850772639437
-0.0322828267848934
0.01914410585618989
-0.01946738381850228
0.006896089415968349
0.01702503705350954
-0.008697576944247437
0.008686643211355968
-0.008843054894635006
-0.004155992062757138
-0.01594799124572457
0.01987566140842642
0.02292220902848165
0.01992787180894354
0.01424967092315501
0.01533332458183804
0.005329455535114154
0.02173914229397026
-0.009570339278164745
0.01262046955371656
-0.007887343694327377
-0.002191619748965673
0.02197779048828407
-0.0121351719539314
0.01822769581167731
-0.005883622303743805
-0.004167963933264872
-0.007927682367181442
0.02096784878140939
-0.03155027926047371
-0.008309483903025043
0.008960488362742151
0.01689785813052065
0.009454621611420836
-0.01618945218117284
0.0009933357719111003
0.00840830363867783
0.002534711201390759
-0.006610515818013551
-0.007882063351625094
-0.008802216130744377
-0.0005245945607180288
0.008344247618355241
-0.01634651397448255
0.0007979482858398505
-0.00513455592651875
0.004557106779641726
-0.01613195524505209
0.02753087483966191
-0.006205800105586743
0.03133009574153253
-0.005313181698116472
-0.01355464158312765
0.004642380855357849
-0.02354974356754261
-0.0340858713666336
0.01171806654743071
0.00972858271753887
0.03651133794595524
0.01792757736154109
0.005259197694443964
0.001756933539446555
0.001039148993906141
-0.00516899868681561
-0.0266023643394992
-0.01054391236424553
0.01430095668719372
0.002520208306780322
-0.0132607971661293
-0.027571831707312
0.00208102480241527
0.003980207569771362
0.01248786728327133
0.001253767448493341
-0.008328485076433394
0.01207374738792851
-0.006842920253695843
0.008512263870878192
0.005916415520370812
-0.01965986625333543
-0.0007069456839236594
-0.0006173545515177089
0.01678989694488332
0.02448811403414687
-0.008563331670317496
-0.01277772291108052
-0.01479994013088707
-0.0100495883064016
0.01143440748336653
0.005592840805194687
0.004570768937902293
-0.009236350780485946
-0.02446998982383832
-0.04533121040036059
-0.0091230847037371
-0.009382797029944451
0.01273939304303499
0.001116863297207365
-0.01510351515738905
0.03201807361500283
-0.001052746258963456
0.02754648320986218
-0.01282781769306588
0.01750260356778405
-0.01290821953691766
-0.02085366269694145
-0.002621209219493628
-0.01152394335331181
0.005497635762329675
-0.0215602142548676
-0.01095421803863233
-0.004307231766034451
0.009852044639227323
-0.01867329059694069
-0.002331980283554719
0.01874325914807529
-0.01160421914570978
0.01369654481341988
0.00214494498095374
-0.01248943117157699
-0.015057312210819
-0.02299291920832591
0.01360209597903524
-0.02257006775789117
0.009420078807836388
0.00782699730808837
-0.02182143956001199
-0.003153232975392519
-0.02043470248724557
-0.01387089811050428
-0.004216903971478229
0.01780746808251801
0.007507546551273761
-0.02774861487415079
0.01843973590113222
0.01560874361230552
0.005726375155192151
0.01228893524423207
0.01427505855982353
0.03135313043576516
-0.009572759314232248
-0.0006511676799115209
0.005577567360538317
0.04955293758343456
0.009228839257805951
-0.0004085527832285122
-0.02736658997085847
-0.0153209875123953
0.001578830230197652
-0.007625942818695773
0.003379435126730102
-0.01990400305996867
-0.001939040679869291
0.01227151889317495
0.01054690756173528
-0.005383118728156406
-0.001272510846523061
0.02383654231420988
0.008358920370617787
-0.0002193724530816075
0.01191168211289001
0.01893314310066156
0.0190109911408502
0.02005254109284534
-0.01786770290025924
0.00213993541815574
-0.02207373905240032
0.02032856273022506
0.01110952661877078
-0.01174400064960507
-0.0227124265008659
-0.00260641193701684
0.01928556468377935
0.02295015631177131
0.01907569756124233
-0.02095993062580744
-0.003019793576151195
-0.01362791482570877
0.007378500040899901
0.01740928687196777
0.02623456812388026
-0.007412435928213327
-0.0004656352074757852
0.0080623858306691
-0.007509663862232989
-0.001985165468862691
0.01058863823697209
-0.02102458192689709
-0.004073707129852314
-0.0141990455284841
0.008364785894546917
0.02356524784687471
0.02586014237797178
-0.02525731002908501
-0.00291947382574999
0.0265131373047685
-0.01481271375539927
0.02969460171015973
-0.006748583209528487
0.01251369633456378
-0.01538801184259123
0.01474649053219819
0.01020131120622612
-0.02093596224241029
0.02198186570664775
0.01102730427624236
-0.001914494923996615
0.000776958234676232
-0.01360470131212789
0.01323801907129903
-0.01700578127965714
-0.003678711688387628
-0.0170156949477521
-0.02913714246976905
-0.01560925315826878
0.0163071329607966
0.01638908084426875
0.007753005074181248
-0.0170495450938341
-0.01700526208740749
0.02210242311479831
-0.007085601177671717
0.02277214746930123
0.01763986354408358
-0.006111721921000025
0.003687889414927746
-0.01676845358654337
0.006546193568923445
0.02058706323190787
-0.004359361735541667
-0.02512414064876961
-0.003964336593607651
0.01142170124805708
-0.02038470970595832
0.01545694916594088
0.01326606129565481
0.02292395244827726
0.01900669134142561
-0.008565393513485071
-0.0009360126096831263
-0.01368452019865131
-0.001237286318010274
-0.0002683411743338429
-0.02008799791164294
0.02155308850834736
0.01831437030966386
0.009676491721482614
0.02223732370071379
0.02240380584396081
0.0004791399696767011
-0.01085796901390878
-0.0002877028622452341
0.01324793097867351
-0.02160701867293652
-0.02870702769404257
-0.01314615144932219
-0.0003095685715794565
-0.006441790681334705
0.001951945076158123
0.008941833308769506
-0.006761714510425282
0.01182946884937224
0.01245834780988632
-0.006518877901646208
0.01340451154771093
-0.0212425314969722
0.003927552907283227
-0.01454332706219265
0.02799816804252367
-0.03756427170484812
0.0005860530958453979
0.02014525813321948
0.005096793452430345
-0.007191412965859602
-0.005404290831334539
0.02253230231468939
-0.00276873709916477
0.0198668640648775
-0.002338419654922985
0.02459828714242394
0.01306559966848579
0.01849482483350679
-0.0009470823935829314
-0.00265968742372605
-0.004127142271432345
-0.02763773152189902
0.01604865449701864
-0.01864057989045094
-0.03503324973769824
0.01316908525229152
0.01730321404757515
0.00726672854487867
-0.01530598334335617
-0.03648278093711706
-0.02913346540065824
0.02561557260628855
0.01903156258157119
0.01530801940265727
0.0008035803836548344
-0.00100611580203261
0.01675154329907974
-0.005006090216653687
-0.01821759773918209
-0.002824337579370829
-0.0151813052134075
-0.03189805129399599
-0.02689614795490389
0.001916315291272395
-0.005208406885120272
0.01021488523290315
-0.04649410348071243
-0.02592606709774975
-0.0331376416794639
0.02013947666790464
-0.006839066977597369
-0.0181830353516553
-0.02010630767575793
-0.01084433948418257
0.02780553314865793
0.0109830827006361
0.01080527513665633
-0.006231861541961649
-0.00603954291326833
-0.01013550901888616
-0.03745870005364569
-0.02067056156833282
0.01750758186824055
-0.001206734951686199
0.009281655063538157
-0.02336636940111302
0.01040757141874945
-0.02693845369671283
-0.0250997566364636
-0.01559115145342812
0.01823604822645213
-0.02285747256475014
-0.01515382992338331
-0.02032621363795734
0.01203037491515801
-0.0205980489298652
0.005326299068827301
0.02340182963344867
-0.01856306661072273
0.02455235557337584
0.02127630277357588
-0.01884945837321671
-0.01099077749657472
0.01501876225217865
-0.009350330984051065
0.006315435423515779
-0.04539642061624877
-0.01145675989473312
-0.004800722159990366
-0.01799074680009206
0.01585998797550868
-0.006234655351090357
-0.01297760355755899
-0.02512108717040597
-0.005715915482045089
-0.005770128080425454
0.02254394644911817
-0.01254951228108987
0.01891923612822696
0.003787429607549703
0.00554040519571408
-0.00573963845784763
0.01653411240409133
-0.01722354347494223
0.01849292183380612
0.0113107941596594
0.02272290406872067
0.003014863556132515
-0.01237743987330528
0.01489590233983148
-0.02211904938122285
-0.02067650644470678
-0.01352317376715908
0.001472677754166933
-0.01521345321727442
-0.01231290361585012
-0.007831050781739275
-0.02476132704431866
0.01317864738489751
-0.00884194585140928
-0.00172688864081923
-0.009152214163992589
-0.01116777706762907
-0.0159962698226305
0.01364207803715306
0.003172978399792413
-0.01753929607810124
0.01715773079068668
0.01670509115006206
-0.02158919161334906
-0.01813339608636918
0.02396259236614696
0.01451965953480211
-0.009497662361871134
-0.01450663603358142
-0.004212311693947166
-0.01919319563104118
0.006314254811870389
-0.01997130167297343
0.002110440625096771
-0.024348248638299
-0.01172776610258539
-0.01924171446566007
0.0222547706802672
-0.005376489628008509
-0.009007184402712419
-0.01681159578968021
-0.01366018687155763
-0.0024527663528519
0.01480275190737108
-0.02113769544675759
-0.01689611205409287
0.03716518890299943
0.003188597356292158
-0.02092244884887328
-0.02371043721127359
0.02205233225233372
0.01482996975833064
0.02327665669458179
-0.03464877637379479
-0.002323607589644348
0.02912943148377401
0.0002321740845341373
0.0038177212281411
-0.0166567390280698
0.001240876661268363
-0.01595790168837131
-0.006260334235999841
0.002061105645750413
0.0009220537807187005
0.02733200556755653
-0.03010218629468564
0.007378375390029352
-0.01496113685782548
0.007332875462021339
-0.01481515334647342
0.005805916101062001
0.01203000726002424
-0.001194589849044252
-0.03612898325386096
-0.0174151338184664
0.01379765800507456
-0.0047470881295789
0.03485854013808565
-0.0259372536279277
0.007047604837358666
0.04177477258722588
0.006381449741722064
0.03343674486914289
0.02250130175878932
-0.01843510302976412
0.008737492172331161
-0.02304419248633623
0.009838036782483729
0.01546028427776315
0.02348189215856744
-0.01134035676289722
-0.01084024824877216
0.02068694228033085
0.008876378366899225
-0.006209336008838062
-0.007564197639761108
0.0187245868043841
-0.01813880043099965
0.0002984777834466359
-0.01381738492974671
-0.01821895612733148
-0.0224094437980663
-0.007678198933875809
0.02069670317805955
0.005726363539850511
0.004186371544971688
-0.02284688968749979
-0.01058387578371502
0.02333087891811327
-0.01010087154489881
-0.02404161710579185
0.006967237189093473
-0.003037982175148928
-0.01205901467905603
-0.01600161048807694
-0.002995945495847464
0.03369840448147676
0.006886190085345663
-0.02073024181119873
-0.004007617738598999
0.01032434253083288
0.01629366499037977
-0.01506782931280377
0.0205901841961449
-0.02244930662549509
0.01336623637131452
-0.0004689404803547388
-0.005015731195109301
-0.01047611846702544
0.02196919892759862
-0.006624761591274795
-0.01153585121694148
-0.01006399650190405
0.0001915079756490171
0.0007072494895207467
-0.01694457607928155
-0.01096239884884358
-0.002119084295928731
0.02518833082853859
-0.003165266322316328
-0.004974763150696043
0.01341334061377289
0.02228986866436579
-0.02128582417978117
-0.02412650524929791
-0.00920582232681463
-0.01050013538173318
-0.002456438579919086
-0.000854636690041297
-0.004841571214068935
0.007309584028433157
-0.01270143328235797
0.001210972312833921
0.001492544781560693
-0.009914431335713998
-0.006468005990579062
-0.01467928456721811
-0.004139509384296461
-0.01464185194733664
-0.009564504193896784
-0.03086641816771273
-0.03865079423718001
-0.0345651679442926
-0.008293383613484504
0.002672004563669092
-0.001241842820144654
0.01419358390497562
0.006238883112050801
-0.01489279973989314
-0.01684545146151769
-0.006734256206783467
-0.01025917661932189
0.02029525780986116
-0.01718941134267963
-0.007432289005944899
-0.003193493643122708
0.005146418092586639
0.01236345353415986
-0.004928017683591779
0.03805583528250487
0.01135128840470966
0.04329919648256941
0.01877329407906569
0.01417149143662167
0.01339454608755471
-0.02510035372289838
-0.04493769973797385
0.001923620652691711
0.01235278816821166
0.009140608232245573
-0.01642619139720948
-0.02653356111584701
-0.03092832198128714
-0.0004529914031805742
-0.02118604153345672
0.02013936077054244
0.01369474179054365
0.02390768849547495
-0.01263558544894319
-0.003126535126372776
0.01169298796084894
0.01134816927228235
0.03454836013117996
-0.01521786450416671
-0.01107545958954642
0.01133045607642734
-0.01489198135105416
-0.01082269184991079
0.002732165270378725
0.002850267917119155
0.004941929697810065
0.02191526049137298
-0.01079356763244418
0.01020217541976633
-0.00196972625745991
-0.01084172306076426
0.001072830500084554
-0.01136217689714201
-0.001805571681110791
-0.009110344452805492
0.008738568281498205
0.004037069788584073
0.02532306757343706
0.01892322654883002
0.003129150017142004
-0.02568029792338388
0.002408790245376265
0.02662465272408426
0.01794149085758256
0.02332700684074412
0.00894731485436118
-0.0243772517509707
0.009959677042970176
0.02549856455330663
-0.01091553482072772
0.004456654268551953
0.02504156150687882
0.0223195666860838
0.004908184678859989
0.0055976584342004
-0.02096768322569308
0.02860928516155398
-0.0007961786127564107
-0.02477561130205336
-0.01302596532879586
-0.01337104075371275
0.006141041688244356
-0.05124399228379047
-0.04619743734792122
-0.02209966259993761
0.001265749966631266
0.02553926300509971
0.0003726530006719857
0.01406090074419917
0.01784180372015001
-0.007918058863945093
0.04084682825014453
0.02283253110788822
-0.01532176044682171
-0.01687075553263011
-0.01720871640242573
-0.01203728065569136
0.01724296822097984
-0.003248543426889653
-0.02208448379727675
-0.01219426901850687
-0.01260996131487694
0.009874472695434598
-0.0236713661433482
0.002818934954837358
-0.01698568538461167
-0.02413750021301171
-0.006255086072097182
-0.01054855517287003
0.0105127795992771
-0.02063027505148337
-0.01347752722050041
0.01768619437112959
0.00765462366293999
-0.01905275079940709
-0.02395261974639848
-0.01256108419450072
0.00964709185356325
0.004214593618083536
0.002536576663459437
-0.01460231709671504
-0.02621015530038106
0.01426299707400083
-0.01166629806358135
0.01601047283717935
0.0132501831421442
0.001356056182570097
-0.002558108598567452
0.01039075558088578
0.01160164970432078
0.01666525256179901
0.01141192884652088
-0.01462188485297226
-0.01251527844975385
0.02039254225181119
-0.02451563870726093
-0.01585913846535596
-0.01270357016098104
-0.03134655562204711
-0.0399189650090904
-0.01119319769822884
-0.03279370645142979
-0.004088416432958941
-0.02279012448072472
0.0192500494326273
0.008775952230957531
-0.02825004027698347
-0.0003136441643350084
0.001020946953185856
0.009267983777848035
0.04582962909733519
0.02570455088735535
0.02046064693482264
-0.004642186039752918
0.01939957877674067
0.02471994449706126
0.01440535842161895
0.004985587151119712
-0.01085861930072332
0.0213413761192881
0.0003303149956759676
-0.01398702202374789
0.001502671274485451
0.0210742855357968
0.004689492411901549
-0.04280893397538017
-0.02757133138300316
-0.02850603238568524
-0.008622512473740051
0.001512125352175095
-0.006022396173759123
-0.01893746808013981
-0.01655963441556598
-0.004251574825093228
-0.01354980761026897
-0.01446586167318711
-0.008891039461043165
-0.01498500511926114
-0.0298567661032587
-0.01587179634360923
-0.01357821965249979
0.005857423989798229
-0.008359119976776557
-0.02624825772968567
-0.001775798077849749
0.002896487251142842
-0.02299255217259445
-0.003884342167284464
0.004898547387642736
0.01099156731507154
0.002809538408712588
-0.02938541165335033
-0.02986503036212197
-0.01441829659265354
-0.0007842717380844798
-0.01633208799643887
-0.01017648379592031
-0.003169606463520835
0.01186911731860833
0.0007406492198808397
-0.0112566468838231
0.01485802115789051
-0.02330376499886189
0.006385261939183673
-0.01112334894686157
-0.001858856956909097
0.00915497747281767
0.01421330994392108
0.003069966403617704
-0.01835492379003793
0.009220694233469259
0.02455577643772732
0.003671357048459949
0.002485885251873682
0.02497513431632032
-0.00858763442711202
0.004832002205069537
0.01666415491284723
-0.01953118260209558
0.01036927954292713
0.02197014799030894
0.02200245829526903
-0.01842177671244179
-0.0001843724372280088
-0.02942855885965502
0.007743307037932686
-0.01586530762159804
0.02211547672379127
0.0004608518492353121
-0.005723697090076675
-0.02442527379527287
-0.01248810921179763
0.006511858848389595
0.001461553596268741
0.007844347370328209
-0.0009252365917854584
0.003465120252330818
-0.01330637592642793
-0.02257773092515984
-0.0275254108651946
-0.03432199655918063
-0.01141250168991389
0.003999905957569821
0.0003622092228916288
-0.01255315579186163
0.0004768780131106129
0.02721614219747862
0.01967022795932586
-0.02210483456672102
0.01405343834252307
-0.009882495250965222
-0.007976925046901629
0.01619762824554976
-0.01867274357285195
0.00969120126744049
0.005896646048155053
-0.007037864717286803
-0.01053872786818246
0.02120309305180292
-0.01939416252078341
-0.006382009795715997
-0.01717438344319312
-0.02534919887579349
-0.006223680148320891
0.008470415616251869
0.006865852583544302
-0.02496494960046673
0.009142376697767325
-0.02430568367399667
-0.0190088761813695
-0.01009875337746541
-0.02297840177444987
-0.0107133053202809
-0.01542774007372513
-0.0248557319571497
-0.01306696779092286
0.005156454414478672
0.01793357151120975
-0.01093018399945786
-0.01679694794231847
-0.005174055590013946
-0.01859641509268739
-0.00273494291448107
0.003031498436069975
-0.00207791777658034
0.02227288170797885
-0.02739136835072893
-0.004189907822474915
-0.01741761095736295
-0.01874686680843234
0.02907139546254069
-0.01482079786455318
0.008335139302869809
-0.005662246137294839
-0.001165405605225706
-0.02248875743397622
-0.01539926855171908
0.0271474164758761
0.006368948018838662
0.005524577686005874
-0.02660981299361199
-0.0001852843395777269
0.01178207770836525
0.004221183774392895
-0.02792585281258789
0.01022111188531637
-0.02085512311145412
-0.009833330033731963
-0.02485314805794537
0.006175179093153661
0.006458429298357585
0.01816182989592477
-0.02040549016242913
-0.02895270011471777
0.003304077741556769
0.02003731838008566
-0.02010805848031812
-0.0176648279818035
0.01193782931611828
0.009057323382858487
-0.009033929822871524
0.02027590038338058
-0.007492378178998837
-0.003316679529135085
-0.001999796211516431
-0.009054309606946892
-0.0225161885103853
-0.0005687894881499205
-0.01390412752020141
0.01192745139052975
0.02481922628228908
-0.01538721671456804
0.01214503000357053
0.01925821482956605
-0.02051351679747747
-0.006914317749587844
-0.02406585315730611
-0.001520217469987071
0.002661070877073688
0.0003679445991935
-0.0137804145958206
-0.004055431588670623
-0.02083562891907789
0.01465677588275241
-0.003705049459976948
-0.01396801300550265
-0.02340786739297539
0.002741829892844676
0.01254069913214732
0.007620752491875936
0.006991969390688198
-0.01594847240268988
0.0242594773853433
0.01906276778686972
0.02253763027350241
0.01990640932822977
-0.0331873570803506
-0.02141503336632681
0.01066440264558024
-0.004478118796376451
-0.0158478511115688
-0.006450649298101904
-0.00251085920733673
0.006235724901834687
-0.02330053506868506
0.02438835307290002
0.02712305651931511
0.008508976595850154
-0.02192293176476526
0.01308876137361809
0.01284506086544935
-0.02185755925927167
-0.0002535025428284273
0.008543888159898141
-0.03030657391828013
-0.004004907101193649
-0.01215489708492043
0.003554152990004274
0.009815208513436296
-0.03759647560789438
-0.005651438682651989
0.00485054591153517
-0.008227202050032297
-0.004362300133248857
0.0008075175985010364
0.02976319442931335
0.02641646939957529
0.008479084461730695
-0.02209912262915817
0.01812177490475881
0.007787758411116878
-0.0258235070394147
-0.02109164261612802
0.00250327811211818
-0.0107342186177148
0.00269544213887592
-0.0003967679421472992
-0.01712011490698801
-0.01768549556678803
-0.00455060983947256
-0.02296128832152392
0.003109969125267138
-0.02032700110967102
-0.0139066285893957
-0.006248752958410263
0.001287488683599583
-0.01706464180692896
0.03116814723375682
-0.001875329170480467
-0.01340258458441881
-0.009951060437344889
0.00333672731601171
0.006622149726354427
0.006405644188848068
-0.02760782187917215
-0.004325998912810622
-0.01836668145118662
0.01440565030465172
0.009525121504664034
-0.0222868026273861
-0.00121887593463173
-0.02564813350986572
0.001615452345402008
-0.01511957779917099
0.02714860515501799
0.007598574245284131
-0.01134751448125754
0.0009102920208840262
-0.03973524664446926
-0.006673311081820172
-0.02346969320291712
-0.01893021080774493
-0.007914272343596167
-0.02412917683081325
0.0003941650976207393
-0.004863454698684018
0.02078431586900202
-0.01440057482678551
0.02376525515079258
-0.01640975846343285
-0.02617581081174898
-0.004526652016619678
-0.001888991675738298
0.01380535276432817
0.009417089024945534
-0.02306694604899488
-0.004478562608157629
0.007773680205574919
0.01348678367673697
0.02052121721768925
0.005832843553703609
0.007904520407250345
-0.007599638996975224
-0.003116814388960678
-0.002561056082685362
0.01795978329089117
0.02287947136413556
-0.01792354538258508
0.01628516796061444
-0.007539658535535006
-0.02436859276005965
-0.01128958743147428
-0.007498394180788507
-0.02394846460590143
-0.008152960088189476
-0.01650246435095405
0.007508407397502595
0.0001618019598842798
0.02156549541923779
0.001735094410930311
-0.0130933788214943
0.01384411764260155
-0.02395971126434105
0.02195446271159833
0.01025064125093031
0.002404108548290078
-0.02097532368664391
-0.002875727190844376
0.0008146844633766368
-0.007197425753675185
0.007226632688572686
0.009524458433568734
-0.02349166878462202
-0.01266660044942374
0.003623421099590326
0.01070629662048995
-0.01068139422670014
0.01045865287370073
0.01851723932236572
-0.01426225982408154
-0.01606140903175431
-0.004472696950700756
-0.007673696901077119
0.02250365135128974
-0.01856880890398241
-0.004804260534822359
-0.01086158846118449
-0.009219309323172456
0.008682378373872483
0.03249314563471813
0.004086974869515268
-0.03777033838519919
-0.03789983874755197
0.01047400704687572
-0.009999431958526782
-0.01318819720933098
-0.03419235867211377
0.03612206584800747
-0.03013844691329771
0.003738525900834395
0.01131813776931309
0.02965623509733084
-0.01592993544148513
-0.01415110754706946
-0.007566188278100521
0.01688869229183826
-0.02211677411034818
-0.02177520285555398
-0.01620913707614239
-0.009489625560900153
-0.01843380588072322
0.02412670043553305
-0.01112752160107171
-0.01317845436270316
-0.02638225888555014
-0.02688451165691397
0.00497366755281857
0.009092172911685598
-0.01145120759128687
-0.03072638064713759
0.01767567275106405
0.02518238471837988
0.002541396859625299
-0.04802980138293272
0.003014645030117777
0.01406095977312665
-0.01629023968066162
-0.01957314113638683
-0.01741248674352953
0.01737482640351672
0.04810004086492253
0.0221574409354553
-0.02216435762631424
0.006913787483846481
-0.002876496217863223
-0.01704916804444783
0.009017179725773414
0.004867549282327472
-0.01258159519943537
0.02484837856797047
-0.002326530761391398
-0.02148632722448477
-0.001167781728960995
-0.004442933050258325
0.02418733327714978
-0.01940828280829782
0.005300577436769579
0.01182063463486421
-0.01369111611067713
-0.001816211603899992
-0.01684205107287997
0.01613719048117067
0.02334650496656196
-0.0151777354790306
-0.02347316530053843
-0.02014658376470143
-0.008987540297279694
-0.004059601988307563
-0.01830221210437601
0.002716361417555593
-0.01060016724120262
0.01413481970231675
0.01246567699759562
0.02322631496718536
-0.005049542924027112
0.01646245844850222
-0.002357058162996666
0.01565286573061956
-0.01385489735753986
0.01315737490037249
-0.01776645084194167
-0.008423266333991456
-0.02207881596094854
0.01604332797174409
0.01926646749978759
0.01918994355156236
-0.02376091090393557
-0.0006149756247785547
0.01068412645897424
0.01155566342015322
-0.01171791107788035
-0.004047038737773698
-0.006091004876633806
0.001184497089900506
0.02302870023767343
0.02209212680803383
0.01782813841024013
0.005481450653139621
0.01138838455152924
-0.005395587444034654
-0.002313937251249625
0.01126585338232591
-0.01352732574935882
-0.02474748348713144
-0.0001783478226373771
-0.008389065222095699
-0.003521511559963439
0.005892910627804448
-0.01791465893526291
-0.01062044203416918
0.0185573058679911
0.005347567525318447
-0.02112089910373097
-0.008652141267124807
0.006932459703806375
0.0162539561984757
0.01059374731028919
-0.001544740226051365
-0.02253308527679771
-0.007858926078324049
0.01199353214851172
0.009769891196921581
0.01400283448027719
0.01774433239975921
-0.002742209950987518
-0.005262339755880734
0.007856356804232238
-0.006099779513411233
-0.02205150805206531
0.01623619325786305
0.0003780425781559183
-0.007965715680676038
-0.03732441036616081
-0.003730235770163829
0.01912722283297905
-0.01923051604247411
0.01601203230139811
0.001287145344044533
0.0004814202595604361
0.0008263978882455102
0.02052603063900003
-0.000447976500354704
0.008444630843504747
-0.0206904212806039
0.01679914995999785
-0.008057123838715209
0.01108031001868823
-0.02996948264114776
0.009667571657674987
-0.01055814821882708
0.006528248535038383
0.01701831149090062
-0.006591584947214203
-0.0476706828031743
-0.02151015729886471
-0.008266762236974246
-0.006912207793459461
-0.04376459893432123
0.02037290592688097
0.006100962105885779
-0.02579490389644266
0.008737027549561505
0.03850884075028833
0.009246014055758927
-0.005351905395051038
-0.006720790302265803
0.01429355115609031
0.01161488886243847
-0.01767028172211787
-0.004033466869570087
-0.02323739383247515
0.00598071262985591
0.03622952810330395
0.01551058326845725
0.00110015327851751
-0.004359555216679651
-0.01899013326282819
0.02077038747030875
0.0140960034517426
0.002919341159198479
0.01025388497902084
-0.04324134969377086
-0.02011476846133937
-0.005362014404516866
-0.006567038350461291
-0.004186304672153017
-0.0308659163220805
-0.007760655417189907
-0.004152458209907613
-0.002993951391049201
0.01205106709746018
0.004269205286440344
-0.002527743729950183
0.003030980560825685
-0.02371343698959365
-0.002487829803264361
0.0114241342273471
-0.003509565431663389
0.007373274114680207
-0.03767936765873778
-0.002794365162714012
0.01315258653418004
0.005225387289871024
-0.02817247232207988
-0.02849214512708779
0.001918070834680631
0.001741091077681311
-0.008041947278527434
-0.006992941135510792
0.00136434390198981
0.02949514564459962
-0.006641102199476853
-0.01935792929355029
-0.009040512870341829
-0.0157704987357811
-0.009883740845608925
0.01226789288319163
-0.006669109239002924
-0.0042340563022739
-0.01131338538605618
-0.02116950418766917
0.02118543478247829
0.003003486590295948
0.01503361612127605
-0.02346747815312056
0.01442571273716955
0.01168644324829831
0.02455150730009317
-0.0148317491121983
-0.004041001799445924
-0.00984012947316709
-0.01366357700817102
0.008168747966788209
-0.004532158638868582
0.001889362533368508
-0.02258443154723665
-0.006561972013734207
0.01177283074378735
-0.002994667576024924
-0.0213555581546456
0.02235804620294034
0.0001378904694486637
-0.017407474366579
-0.02316671151079555
-0.01466664503294683
0.01457853974318248
0.0001284862309550532
0.003867276939479834
-0.00310437257853832
0.007694704573109845
-0.002792098364241426
-0.02425021319695467
0.03761298301714611
0.0005002587164979992
-0.03686951040789816
0.02169472718953156
-0.01297473381390487
0.01788860254166618
0.003187978966386153
-0.01810150170442017
-0.01287889182295884
-0.02369066514933745
0.02017014560736412
0.01357823642181518
-0.0148499745005597
-0.02076135529836342
-0.005640078793308062
0.01027927609480671
0.008743748897133233
-0.01405051930256383
-0.006457527668413838
-0.002009461594246949
0.02444857494439857
0.02320094429083148
-0.02504011540465785
0.01047473450501738
0.02463285981663699
0.0260257640168994
-0.02106540300226304
-0.004025121763027834
-0.001312583722066681
-0.02071362488692824
-0.01209366492770531
0.02747221221806716
0.013529631473046
-0.004464719628498646
-0.04922670174952547
-0.01889433699852261
0.01587804560883449
0.0229593747764009
0.01579305100815143
-0.03110041692620218
-0.02565475020095589
0.005708561366413997
-0.009315609583516826
-0.004978856307840764
-0.01343069442054401
-0.02541627788598554
0.01679233392566509
-0.02363611445356905
0.005119976950779811
0.002420993633243673
-0.004286471873563993
0.05423269890691535
0.02434638502786792
0.002156004290994174
0.01710083346264918
-0.001272403883993882
0.02032498404976808
0.02772014273005654
-0.01030516294215562
-0.005010905356918967
0.02803890891790249
-0.001360330290202979
0.00422021383630487
-0.006594945160188338
0.01176735520156945
-0.008446518759537067
0.005142759519947159
0.003560683182405596
-0.01409106135504924
0.02096924040750408
-0.008866743693221605
0.00186072875894012
-0.01676289377251658
0.01990957869837944
-0.01100081115950765
0.007854712152662063
-0.01760836881969925
0.008879029850520527
-0.02261615401780936
0.02195688234967396
0.007173302508467538
0.02526566806696959
-0.02182975247108674
-0.004208219886402147
0.01381644769319362
0.02982202248044516
0.02057564536291969
0.001802064113438605
0.02492991753903435
-0.003553958293286778
0.007793375615173912
0.01604971711278384
-0.02024594257806571
-0.02689458166435427
-0.02109683396309587
0.01841908369940164
-0.00631214659137754
-0.01263302039918138
0.00569167428131506
0.0511779900233513
0.01838278380766581
-0.02830702092120038
-0.01096427191274773
0.03143939699616992
0.02153357837757325
0.01261678989417453
-0.002582731159169912
0.001457098753455087
-0.02689533142384435
0.005147872525261398
9.823767895157011e-05
7.78139289700153e-05
-0.01224561834580463
-0.01769799953350882
-0.008579606200558938
0.004175365849036293
-0.006432352693815183
0.01912077776741609
-0.01962219401118529
0.001240208016532309
0.0158675823743226
-0.01324416367251742
0.001311550637482215
0.02543740293197862
0.004212642632800821
-0.02778678691669455
0.005877853692671853
0.0186180956217259
0.005550057031690921
-0.004532138105239203
-8.618600279522716e-07
0.02281048565022114
-0.02542471051752486
0.0003224719460904231
0.0215558211627856
0.02290843053692605
0.01106901187445076
0.02222514988090673
0.005631091268024648
0.01806318533530209
0.002194529885396142
0.02324085449360171
-0.01119538750866979
0.01306108821278061
-0.03604960391835858
-0.04240580119021351
-0.04162261846797939
0.004416049671497861
0.008665234374890205
0.00452517995287385
-0.03604171285555617
-0.007535375068815043
0.02608474706690287
0.004683377154832095
-0.008132424936794015
0.009817324579702816
-0.0160412537562313
0.02439356097135809
0.02942963530379842
4.591769591216811e-05
0.009882778011102569
-0.02430536947643382
0.01896338220898643
0.00328153132527273
-0.009635187553993483
-0.00710708550285449
-0.01323420977024978
-0.02511590552856185
0.006767926240554939
-0.02531554088673293
-0.007865630943795221
0.01252455206568098
-0.001260723170452382
-0.0143921526883436
-0.01484899492146559
-0.007387461321626002
0.005586679289048827
0.05399527201176368
0.0007256898437161312
0.02823967622241255
0.01180210864002247
0.01345928367014811
0.02859508642144286
-0.01635793603703007
0.007148121749520927
0.008086661950381713
-0.01364955640112536
0.01392317671581423
0.01176509223419153
-0.008345879053740407
-0.01614819529303908
0.002762275483473229
-0.002897430490558172
0.00283281223674736
0.01826460990466457
0.0003606656942181771
0.007053815689276067
-0.02061886108081094
-0.005642724540864132
0.02001004510771623
0.009955338728797558
0.01069179214610775
-0.0075387974037102
-0.002269498384332573
-0.008833950731819855
-0.0149736656305654
-0.02043202730362642
0.02133432974059604
0.00678893543569164
0.02144453327848963
-0.01300269105546478
0.02186654169090171
0.02207522014647444
0.01001459650060968
-0.01250680940726773
0.005516749467516185
0.01838294075747086
-0.02136851045196055
-0.0281252376378803
-9.666391237893276e-05
-0.02702156493256356
-0.050759839061941
-0.0198517242884305
-0.02057319882878198
0.03019646623746828
-0.01030761770074807
0.007182128196097645
-0.0009560472326053884
-0.02747693627686926
0.04208641742617231
0.004567285664729505
0.03388931053687753
-0.01791962424609318
0.008286678371378135
-0.0134126732939558
-0.02982106820071246
0.008673237600986171
-0.01167794598536277
-0.02176690611467739
-0.01048256196988474
-0.01458732654741934
-0.01173444858390952
0.008083999863201919
-0.02079399643364003
-0.01149965273433924
0.003174019598420399
0.03338133034091817
0.01724447278360447
0.03083780004545972
0.004042611088866535
-0.006651605123578397
-0.03871108064391331
-0.02451853644718468
0.01393262308004983
-0.002026279870360086
0.02056922018059713
-0.02631579811051214
0.01331565373212805
0.01052617859237145
-0.01957457747593733
0.0140619739527346
-0.006566655804418123
0.01716113465763019
-0.002229906645883251
-0.01309938702065487
-0.01693662025729996
-0.005024095549600938
-0.01634560942842724
0.02013266228621242
0.02658357263508234
0.0359421737369959
0.01037531755487849
0.014311076156223
-0.009917606124348203
0.01580734755143507
-0.002471714359910534
-0.007243827894940187
-0.006234564913916755
-0.008631709384971186
0.02846263537540495
0.02788421520535723
-0.005973254407012697
-0.008722741116475139
-0.005170412267868816
0.02206948384623141
-0.006511692861572735
-0.02349059305663932
-0.009229183299022628
0.000343529389021073
-0.002623062919694376
0.00635081368352375
0.004520713755187847
-0.008537605024882062
0.01675066544002682
0.02323320439140441
0.01370979837415001
0.01369769076318967
-0.03767928161625104
0.009233084183416734
-0.007533632606186173
-0.009198084038607252
-0.003627772168552695
-0.00488163590142931
-0.01369112830596276
0.01506536566811999
-0.01875951479125157
0.01835178926755256
-0.006087880712485226
0.0128302019170715
-0.02178376512126206
0.009489460447223451
0.009586128408245081
0.004412919534977887
-0.02229323014692456
-0.02638150058502196
0.02082056104444878
-0.01641293295462831
0.008812779993198494
0.00747948580098951
-0.01677038106431021
-0.02068778004901665
-0.024646413537739
0.002402910775472728
0.007244081649587785
0.01782153965405173
-0.007898710827720094
-0.0004461566370142719
0.007677651137417025
-0.008656376232548025
0.01873853126694286
0.02853351315378584
0.02414916952188995
-0.01398045783175257
-0.02502476300824528
0.01717457487915783
-0.008356270540199729
-0.004604478245605317
0.008580720777644517
-0.0001420771396639752
-0.0240611486529182
0.001562601708057735
0.01287901351935815
0.02258081118789253
0.01716101590392295
5.054016987558726e-05
-0.01131230657975171
0.02251317978215802
0.002602625360427017
0.02685050911651974
0.01212429236832371
-0.007862789098104382
0.006847022784200414
0.01836887200632781
0.00242912409984731
0.03008859148839125
-0.007305707269240212
-0.0154501172100586
0.02314222131187571
-0.02396555302867479
-0.01359395010438951
-0.00486727129272788
-0.01095682473709753
0.01074274069610265
0.01188888950084612
0.02340838605209256
0.008703485027288503
0.002467443193826617
0.0255997549686633
0.003639933139868177
-0.0268668901064866
-0.04113786563971294
-0.01897724448549514
-0.008512429249223262
0.0185471234394904
0.006204707933902469
-0.005178637141459262
0.03037472280739348
-0.002352503387716105
0.004339012652474102
0.0035234657591103
0.03225529015638188
-0.01290738443242582
-0.01056429951428016
0.01525072763037922
-0.003053927292148284
-0.01494524140809841
-0.02270263202317984
0.008617305903606244
0.01261115213663473
0.01125140564975494
-0.01639753840555058
-0.02304110014152033
0.0242004422782401
0.02107835203647124
-0.008059295954541929
0.03179837322487983
0.03206104966229434
-0.004008382382087392
0.01128122356434619
-0.006390073586455299
-0.01874717184364237
-0.001516723721837607
-0.002769957615636538
0.03192747081625024
-0.03786338646493359
0.005921050970797581
0.01070216887910774
0.01988825366928717
0.01685509316009728
-0.01011903735834813
0.01288867225889378
0.02054623494244913
0.02145487250881143
0.005730803448712802
-0.03003285798872741
0.009046328904589195
-0.000607969544332265
-0.0044468226992222
-0.02151571296147053
-0.01305317915049423
-0.005440928725173396
-5.651306327640575e-05
0.007720635768611966
0.0008703057588862555
0.02079432273942176
0.01933709072963279
-0.02261657637906674
-0.007195210431048454
0.006763328675929024
-0.02223965641560883
-0.01606933486294787
0.01421094310923662
-0.0202501632141022
0.01068823670746695
0.006003695818793516
-0.02113162596560348
0.02087651497093459
-0.000636752515329839
0.01776649205651106
-0.0145852537021198
0.01605912258542982
0.01048543485458445
-0.004275755980695389
0.01165176498807671
-0.02624431836417106
-0.007303891614876489
-0.02444811632336131
-0.0101739926758622
0.02470480332851526
0.01047243376855585
-0.0002037282339120769
0.0158364618812782
-0.0008141868442046762
0.003993994573332292
-0.01319200658657503
-0.006132691011380564
0.01357251813965958
