-0.1152888280269918
-0.1239343706608799
-0.03614227476877606
-0.113103391925898
-0.1300508063402662
0.05288227418103539
-0.1467254508832445
-0.04661016056508856
-0.129506005452427
0.03044694348322788
0.01814994947041747
-0.04865759384352416
-0.07891111384940133
0.07969887850776337
-0.01990656216397479
0.03466856519465827
0.07167314354167587
-0.1559613354243938
0.06431193191792996
0.09934383043009803
-0.04890011312470252
0.113290261310135
0.1598459222143956
-0.0896115070088303
0.1514716936714816
0.0008861062574477971
0.1428868210178333
0.1072712584199056
0.06457677696941087
0.06815746456138504
0.2049860306910476
0.164188460221724
-0.1169788888880124
0.06198923723096787
-0.1311028563176018
0.0380528251260471
0.1270576300048045
0.01254832714704711
0.007889783253671052
-0.03845711759335117
-0.08105837314916417
0.001526374384245396
-0.1243171365115164
-0.1002101358501043
-0.1305194175252547
-0.003695933743882805
-0.1176947930160074
-0.1546261669190558
0.03332955242361152
-0.1072760007477912
-0.1034500557121428
0.03246530903153476
-0.1925723402211376
-0.2283450500269394
-0.1959547976020126
-0.04308383035973112
-0.06980920238914712
-0.01554259084858034
-0.2002429995877558
0.05843001399509612
-0.1137990406452657
-0.1632609879942359
0.01293519930146767
-0.06584419637720908
0.1523135648790292
-0.1956257208455184
-0.02814448860728052
-0.1108942687194299
-0.04582967102207895
-0.07947746504912406
-0.0163519092820956
0.05113081390348803
-0.01647805722551197
-0.09126193576969691
0.0728032037702822
0.02071383070315633
-0.09713628857310017
-0.1320192317710252
-0.1321964552298006
-0.0962526863134725
0.1012585799406546
-0.1186776253886968
0.02315258760290078
-0.02801242118115178
-0.06883480535000913
-0.07444035745160384
0.04049666337906097
-0.0133802839033155
0.1122123754491512
-0.01100297154187978
0.05397398073432191
-0.1028454931552974
0.04368184954924148
-0.07795606326587609
0.02254889585045258
0.05967110177904135
0.02236745415201226
-0.03290850886697759
0.0335915400733006
0.118853856501572
-0.01260034544718587
-0.06163349113327474
0.01707153188450472
-0.0555492568619909
0.06096474725711501
-0.05998199521716574
-0.1187223321310752
0.09946371168009584
0.121231495207801
-0.07488232507873491
0.0803733725259142
0.07936799485846303
-0.05070537372759884
0.07274685155896123
-0.0795669608440276
-0.02078964645391651
0.1078556682282289
0.08496552198379395
0.09375256220873085
0.08230662232313334
0.02085321853841866
-0.02116365770239766
-0.08143795978681832
-0.03473649089782473
0.08926874945175044
0.2245494542225843
0.1695098951432738
-0.004939062352976545
0.01839297043700182
0.1872691462602828
0.03590069501562462
-0.03226677425495646
-0.02592497405519185
0.1569098745033175
0.01709911680241859
0.1312558481717978
-0.02553016985762332
0.03701708880370588
-0.01890189410197618
-0.1396574634571809
0.1318807551892864
0.007542738565563206
-0.1762627650461702
-0.1611792248129773
-0.02160866103548848
-0.08237488397201231
-0.07105804248197613
-0.1079131007063135
-0.08550602017864535
0.05747569660860207
-0.1142159021044961
0.0573833349776636
0.1161172444496228
-0.08752726208174719
-0.2125466543112191
0.1043594181741169
0.02775015253869128
-0.04976397146932281
-0.0781082023551556
-0.06663307162866865
0.06027144793196876
0.140867464882941
0.2194859823578706
-0.02195570952033326
-0.0001464948768834167
0.04339220516978695
-0.04132212305276943
0.05881200405537
-0.0273249196707297
0.1732030126239984
0.1455953547999714
-0.0436747568135306
-0.06352569060924884
-0.09474862191113242
-0.02584192413185824
0.05653562608346725
-0.09327992246539832
0.0779541180905068
-0.1571871062715038
0.01688773348506947
-0.05789113142161435
-0.08229531841250048
-0.07450841788446647
-0.01423500037814934
0.06761417597837735
-0.04313524384625524
-0.09448686873672117
0.1217090293260878
0.004143689839759915
-0.01563782318259187
-0.04464146874179128
0.048228960991907
0.08464657945037256
-0.09422299983814952
-0.1151063214389417
-0.06497374841946935
0.113935120926985
-0.1027639556189035
-0.1569961193079934
-0.07188656419250851
0.1342056627171168
0.04753774905708553
-0.1326157452654042
-0.1254990591416449
-0.1925004692242476
-0.01690614852285207
-0.2245364947339502
-0.08297957358501654
0.004261359512925412
-0.1092416138091648
0.06826611012445108
0.1290014832408734
-0.08688596822991186
0.1380061703245793
0.06413584330097863
-0.102959572862001
-0.07709024604885706
-0.004209032812350689
-0.08151635652838095
0.1700737597651454
-0.02249700686257314
-0.04327212273711638
0.0623819376806969
0.06512115505393283
0.1051653251326896
0.04295642671595553
0.02333393517996719
-0.05520202156080758
0.01603846010667819
-0.05471000008483926
0.04374525788643232
-0.02353210634403139
-0.03704747672196609
-0.08937326844331525
-0.1567687930963928
0.05251418539535599
0.04887574888054189
-0.1644322695815519
-0.1495109086735606
-0.004880611645179332
-0.07408827098079158
0.1646711222767314
-0.03612882890293258
-0.02588940524081534
0.09172191234961766
0.08538774080496526
0.1353586430208629
0.0733754584070777
-0.06878234558857041
0.08110002610555238
-0.1340969949393366
-0.07758555242732197
-0.2303368325368506
0.07825277427042271
0.05510801223576766
0.06250098845734317
-0.06000867750977963
-0.1611934075491857
-0.09014202052569205
-0.009857260916135801
0.08959613712330991
-0.1946142255615378
-0.06026689549423448
0.08400544813402472
-0.05447464615726821
-0.02400326667114856
0.09907415547278398
0.09049474188121094
0.09596996799636469
0.02635520585379256
-0.007767180110868518
-0.01832493124068305
0.08733741599301179
0.0008340255763443742
0.03608061154936816
-0.0513734700325864
-0.2178720140994327
0.02652059288996624
0.02609084807251421
-0.09907938817700225
0.007320088125086193
-0.1615375938394105
-0.2347847427644154
-0.01424799628112067
-0.08127310249027063
-0.1271648439041568
-0.05129769487981438
0.01743814021496444
-0.01279958773788019
0.1081467977676539
-0.09486459320465669
-0.05410083998579963
-0.1451961195235558
0.02098119976502286
-0.1133215543522767
-0.02774252110454913
0.1542380470886484
0.07920680451426319
0.05535688519669889
0.0006329906212919747
0.1245371029735206
0.08854547049272668
0.01319747273971902
0.2073758952695529
0.1622436397195835
-0.06084440669676359
0.03674660541094184
0.06184180642515012
0.006621933374558425
0.2273480922003818
-0.006085578968828585
0.07900999465320553
0.01856537654571541
0.0935531365475212
0.1382097675277575
-0.1781548290350829
-0.08260306630527102
-0.05600799930093617
0.05843698353649849
-0.004448278451727977
-0.0776738270050378
-0.008186650738427805
-0.1029467506829788
-0.08324104715845801
-0.1417736152736835
-0.1040332779088475
-0.09469512912244585
0.009133538615562483
-0.1351042836900168
-0.07003695177070217
-0.1356638805066445
-0.1464049833936942
-0.0595240545891273
-0.1450407901857914
-0.1511031625829372
-0.1226357458947439
-0.07516670606994105
0.07078057649409004
0.04897463109343307
0.0343843762230705
-0.07974152795641185
0.056052607663121
0.1097231303558812
0.04234930742502102
0.1884130933469069
-0.08875550451713279
-0.130574634245711
-0.0308432765728574
0.1283976852682571
0.00912525253197574
-0.03475490632676266
-0.05413076742284814
0.1569080707342154
0.1226136120104353
0.1044902765090849
-0.03074725431452383
-0.06277750370672859
-0.004428250940949167
0.1165972518670421
0.01372054615366452
-0.08529845371233277
-0.07524768590792559
0.1163679460395119
-0.07015037788095445
-0.02153056223122304
-0.1940300924845526
0.01515433881008841
-0.1391035410186676
-0.1091419556440134
-0.1112804105544408
0.01062465346359299
-0.04173028998091199
-0.09430497806849984
0.02035667960163648
0.08892137877459202
0.07080117238318305
-0.02206184937516795
-0.05227405689351612
0.0283067833854816
-0.1266161795104156
0.0778280236267158
0.02301494673330626
0.03222588749894459
-0.02455563238056003
-0.1214433702525748
-0.06630488637736642
-0.0834516966926824
-0.05068885665118065
0.0331824158392296
0.06755902074770052
0.05510355276285983
0.04997325512764788
0.1283071366397233
0.08265331409598632
-0.1737838730117255
-0.0001036496309429405
-0.02080555639051579
-0.01334731722306091
-0.09415031545834432
0.01774296341362152
-0.1695277933758816
-0.1152667858401645
-0.03697777947669599
0.0004816294690395911
0.3192344493106888
-0.06154014019099294
-0.1617648997827142
-0.1313829718350618
0.06282341574018889
0.1925075035455705
-0.003881082697812603
0.04654694045288937
-0.1075896065874872
0.1438563114973943
-0.09956186393810078
-0.1369995202477714
-0.1274581806109014
-0.09983937557650721
-0.0478289543364547
-0.1465697523748141
-0.1330586863877624
-0.1233170219730318
-0.1467916322670414
-0.1237933208897525
0.003052586833087192
-0.02797081016519021
-0.05787200235344811
-0.0384525265711739
-0.03870179032750504
0.04197421036828221
-0.01222295259591015
0.0805492405928092
-0.09867318722209106
0.02686759552067417
-0.04200646172926428
-0.0789515279997916
-0.04468999171201445
-0.08082373123936085
-0.1036422125740761
-0.07383279588449702
-0.1287937456359974
-0.02617103023699841
-0.08066610464358204
-0.08263332674691026
0.04950573479476987
-0.06887762576452591
-0.06722956719825152
-0.002887514121548636
0.01143892913004482
0.03088663480990408
-0.0584683502944448
0.1000887338068406
-0.1152218104563433
-0.112611030773501
-0.1262470082920274
0.1789868768777431
-0.02964159226643021
0.01906426992365353
-0.06811218606775706
-0.111274595383351
0.01444094512884676
0.03222223585294366
-0.1392038059258369
-0.03325275537708515
0.008558545880144807
-0.04268826546180732
0.0418713655528842
0.07318639798031644
-0.01995565581877892
0.09694504050473027
0.0915766848266637
0.1141242706189481
-0.01476609389176761
-0.08629157947576768
-0.02146896596512108
-0.09461679694843185
0.102392734315897
-0.0007287168050330859
0.0910283965342816
0.06254641391514698
-0.02864406991696485
0.08187492426039808
0.04909585792903273
0.006144779381659436
-0.1174099544014127
0.0707668734290833
0.01237585719955991
0.02903886123405022
-0.02602348937113952
-0.1242568824057909
0.07957037083157735
0.0700926750979614
0.06302118693451243
0.1166022385970953
-0.06585005546045236
-0.05047260806145632
-0.04953889907595663
0.04993044059786236
-0.1146830693012666
0.1212912299371463
0.001179728217868727
0.1420632088858927
0.1727329972339045
0.1890667761964128
-0.1050368046730589
0.08803396428326056
0.1063509177075131
-0.0714145411556556
0.06229573340866804
0.02831286890371199
0.159043771606798
0.1073912726084317
-0.007998893946425702
0.004816250871772117
-0.01991333353302755
0.02033874165079156
-0.1362953086256807
-0.1406858723217968
-0.08741112017644263
-0.07794398987284572
-0.09666648152229713
-0.06121985577029147
0.02807192798113955
0.1475549289607211
-0.1640816425253911
-0.1722710754682421
-0.2008127722699578
-0.1396530148754527
-0.1262404350607623
-0.1060724858187689
-0.1914712579607482
0.04690170931201125
-0.03424264086502916
-0.02220844716514285
0.06921194151350972
-0.1268101092857071
-0.06332956472922088
0.01160340907871116
-0.02875679731580495
0.03470572541042647
-0.08704123852160205
0.1071773022130177
-0.05219369623260031
-0.002499259101352882
-0.1307515064178225
-0.1094498439266951
-0.02793957334066109
-0.108955284820778
-0.1780011361722175
-0.0123236027021124
0.03942034493581539
0.2111214249788696
0.2177220519539206
0.04589086335869384
-0.01330898315953691
0.1238708496583021
0.1319281348960458
-0.05015777401298229
-0.06913935496817308
-0.1139359936301289
-0.02547616225989347
0.03450723358943243
-0.003918917744212464
-0.04799473715254066
0.1150447366150991
-0.1509229122974687
0.124600575399558
-0.2327336073564157
-0.003473922687704115
-0.1645329279233361
0.009451994153120218
-0.1283362670753565
0.06266643849300289
-0.1082625688690363
0.01291090726929936
-0.1209615698895238
0.009913527400698251
-0.09728026971966228
0.02208618271126717
0.01173923224649087
-0.1237006484621025
0.1407146322584863
0.01295948472469815
-0.1731638015427592
-0.03899794573714799
0.09613835397808382
-0.09138108779761642
-0.06476016833545012
0.03891990023027313
-0.01567536079704484
0.009615031880348075
0.08431844455267988
0.171449417227728
0.08413628165900934
0.1145706390585613
0.1117770125326271
0.00149952007270715
-0.002956433223404418
0.2049001236151498
0.02651041695520901
-0.0455450809316876
0.04307894396844136
-0.02506300141060619
-0.2028469793341946
-0.3348528477860131
-0.1073410510149755
0.01978670536382
0.05105670282244349
-0.0336055692055588
-0.01537904270111403
0.04140540223117467
0.08753560117895973
0.00291724175858266
-0.01496574153573384
0.1067063521666239
0.06429270435106064
0.06040039747178336
0.01472262599979975
0.04190749828273732
0.1676021577262653
-0.09214261015157649
-0.03742645930613647
0.0395729509591861
-0.1100150346609242
-0.04342379669422006
-0.08799993889088557
0.04490612648544973
0.01665216511616981
-0.05972425000098572
0.04355129600370014
-0.06556419685034272
-0.06050143519182908
0.07735092089958108
-0.05372365823711221
-0.07137863129361571
0.02406124364166439
0.04717565325983611
0.08916672131935351
0.07156875836387165
-0.08676783976149556
-0.01306578941589709
0.04887039617092422
0.08865254401552815
0.007243760789742001
-0.07983000193553105
0.04213648317058265
-0.04097288162979635
-0.07454516352042601
-0.001991107280747543
0.05498437347796704
-0.06572097616783058
0.1067043678118935
0.03955725655452747
-0.2263875353307371
-0.0612760682047455
-0.1188428345719572
-0.03031912533877369
-0.07942452105763544
-0.1179684132821517
-0.006861994669355303
0.0697350826336931
-0.08141434330997492
-0.1301128407436528
-0.03843562262529857
0.08397342450198925
0.08250783602621263
0.07100263996125106
0.01394624036776447
0.2208658707918197
0.1099457309881251
-0.07814940631687656
0.2935298295356821
0.262991225480152
0.1744040803694046
0.09527859373618049
-0.1079639573870317
-0.0659582534977483
0.1109620191822003
0.02807776551906439
-0.07719720770437304
-0.06346433093144803
0.09259353804658732
-0.09527271415405797
-0.160862249088564
0.01304091261432148
0.01669226044695776
0.138525187990691
0.06713053237244683
-0.04911792350913716
-0.1465911858815039
0.009027993885513834
-0.08564585521165143
0.1913948824008316
0.122051931232416
-0.048259320508307
-0.1211366995300549
-0.06366829681381383
-0.1738273355251452
-0.07856614272357577
0.1092300835692815
0.07941632037739822
0.04928936556716854
0.01209756120695209
-0.1053239314657566
0.03831847662668587
0.01105035680786514
-0.02759623877193525
-0.2500366416555365
-0.2276614023920336
-0.1261747345716833
0.00851721033101879
-0.2934930801364481
-0.2164480144531775
0.04352013849113513
-0.02409853466242187
-0.1232392221813862
-0.0826123119687741
-0.2215745794046279
0.040559458612508
-0.1201237331381975
-0.2133528089394089
-0.08616198292452398
-0.08569487814180014
-0.1490524285773714
-0.0694327251863511
0.0284840620756202
-0.03743826545668461
0.03964179991927493
0.1011019323334369
0.04038515744577178
0.008388804612078284
0.0208519608703027
-0.02657906016126748
-0.02926083604435855
-0.07977343451746025
-0.05452966765393735
-0.1228053973202214
0.1179694233345515
-0.06312474553372262
-0.0875655761195008
-0.05917036174657975
0.1223740726753925
-0.006599253915010714
-0.01885348023389034
0.05094395219325738
0.08651925773759314
0.03598178765688169
-0.008619480772082078
-0.1412258921399531
-0.06622636451239149
0.0623606984393392
-0.05683719694790377
0.02620619657018136
-0.1493870523001466
-0.1023069110827335
0.08622874396557874
-0.1233412401446327
-0.02965092558348383
-0.1004444219353157
0.1110378364335447
-0.003897447036870795
-0.1793195621798011
-0.03658434582768212
0.01668256343739639
-0.01413069954754909
0.04092692142092322
-0.1712932360036197
-0.02382568459868887
0.0995520277006027
-0.1409049302498862
-0.09569505943911161
-0.1178384859221846
0.0185658714746121
-0.235381949119527
-0.3205255774379698
-0.258434340122286
0.1486867728238129
-0.1148504912939759
-0.02595777055138517
0.07095214927444057
-0.00700614810207834
-0.03809566041250529
-0.1204812743157464
0.04606333239231546
0.01971404683359257
0.05885445274326007
0.02940054230373646
-0.002769846139951734
0.008603942270567086
0.002422747481832325
0.06889929494586076
-0.06921030421617325
-0.1370267459808651
-0.04347791878700816
0.03508663970932789
0.1565566461421578
-0.1733543260609256
-0.05763545749081403
0.06517104016231427
-0.02788873740393313
-0.1037829171156415
0.1020724424307785
-0.02748673621643288
-0.02997378054357749
0.05387913357700233
0.03941437148284949
-0.001275862841390196
0.08581130492325656
0.06595316852033642
-0.1239749569571037
0.06050908942086482
-0.07373725254867319
0.01121059979472005
-0.1287982373593081
-0.1084309974834755
-0.08641523928055725
0.02326059267588479
0.1319211852963655
0.1476727852354796
0.1112688306602467
-0.09952543661332651
0.06471582571332977
0.09397691984955504
0.08269506153326182
-0.1224940459970102
-0.08557558131568534
0.07531256345705288
-0.03586966827111818
0.02698835044913578
0.09042460811621235
-0.01965812734718475
0.01076588489804009
-0.0622239461391873
0.1180742180449523
-0.1739809974677437
-0.1088023686522589
0.03507445347486999
0.05154065685408086
-0.04744680936845201
-0.1405586117091377
-0.03530022324415211
-0.151632447488353
0.04253618050994043
0.03950781817387904
-0.03475703881398513
0.003257315918237537
0.01340054955703138
0.1750809596920871
0.1018076607225751
0.06764491646699228
0.02906711980194558
-0.1131843135147471
-0.06752787797098159
-0.05942942884276925
-0.07356590351820035
-0.06608222167155423
0.01117106189572904
-0.06699987290516078
0.04963607219921432
-0.01168974674007535
0.1059437167481368
-0.02655479849537279
0.1514547709086407
-0.0005192746530287227
-0.1109169288545214
-0.1225101555546225
0.0274562187308971
-0.02993821384148514
-0.03684644366553569
-0.09877373735491968
-0.1350605285190949
-0.002405833059153625
0.01566019646599858
0.04552820615092654
-0.08518310631391411
0.1158043162680368
0.2712333936832519
0.1679466049901433
0.002629675388757114
-0.06318099529346774
-0.01748124697175568
0.03478139513817664
0.07868686855341597
0.05402467355342253
-0.138071815678346
0.01408405304462417
-0.1564497506343567
-0.05107058827864171
-0.04269580586960436
0.184857662162764
0.200764119406155
-0.1227099448638509
-0.1131398219397531
0.1190380058781411
0.1203155884413387
-0.0243146713187232
-0.04316076772835258
0.271936673208054
0.0729688873686256
0.08315164390093742
0.08961177848668282
-0.1236976405499866
0.0636881340321534
0.1796266699399142
-0.04866682363076355
-0.005963702839906776
0.01708980595698932
0.07632115660665037
-0.05931520616336782
-0.005657348241561687
-0.08954990733979046
-0.03228518400875903
0.04123914124827936
-0.1325813416588604
0.01202683005010519
-0.1301775455529331
-0.09729937063644647
0.07595815963866896
0.02806936199777324
-0.06563002991516222
-0.0138339605499361
0.05746848597244525
0.180225559453696
0.05815406636297778
-0.09602207558825894
0.02867742138669773
-0.2399269681797137
-0.1342967963208678
-0.186219399966569
-0.1208036836034731
-0.1245151155948509
-0.1399360592898865
-0.018738198371009
0.06902089420795758
0.05186971147001605
0.002690728929658862
0.07198001549394942
-0.008992567705307188
-0.07485514893409716
-0.1207828492939506
0.08814895785168374
0.2282958837598799
0.2317856265866621
0.09947537375998107
0.01841786145744549
-0.01603455870382798
0.1529616629480477
-0.02034046572357246
-0.1299584528325486
-0.1648164763721546
-0.1168485147080852
-0.1234951107687389
0.1815879190733546
-0.002601277502596465
0.07596021121232227
-0.04624816088543213
-0.06490414544207049
-0.1238156529820995
-0.02807294527264596
0.0829208345386018
-0.02290439556467437
0.00816620034728446
-0.09226742372730409
0.01717569666093632
0.02597041456354386
0.04858948794695924
-0.04625033615884858
-0.1831504304006371
-0.1369517942874173
-0.1134961694792137
-0.1455803122243917
0.1336800134882135
-0.08884680537589457
-0.1892330157811489
-0.118016872861709
-0.127406924399177
0.03969486233672754
-0.132536154074059
-0.05189707485944003
-0.1169008143134351
-0.02372672094592568
-0.01985481931324034
-0.1369133066634901
-0.09353906058321905
0.01508709114294392
0.04450587095372471
-0.06242381366417532
0.02280938202763106
0.1781401522534606
0.1076355663204976
-0.08220405522242409
-0.09708565871351693
-0.03002820082125054
-0.07680950507471214
0.0497953017535657
-0.06105637212066981
-0.1637181942506501
-0.1025332914850073
-0.2300767481047794
0.05164729044734379
-0.08460467343381831
-0.09294032709032758
-0.1198444780575811
-0.03242333164985209
0.1607484051679099
0.1164462276279294
-0.08104315732609728
-0.009536356828390213
0.1411324968011566
0.04110881893275271
-0.1525278515730618
-0.05207621497664042
0.0003528071854437622
-0.124722743570726
-0.1240369348195246
-0.1189592005970955
-0.009049618497969376
-0.05247146870394875
-0.0248757941624511
-0.1388972775712909
-0.06218443052059817
0.1055000681274599
-0.04230695848235135
0.1401358777995074
-0.08004666048499724
-0.05236043413803775
-0.1925196472550976
-0.0278091659298537
0.0300255933171628
0.03500092811562657
-0.04913840294737231
0.0136517892699938
-0.16067457089377
-0.02187408802966693
0.006529597155445315
0.05287597544900265
-0.09523417138704467
0.01997066380894025
-0.1957345122689937
-0.08610944610170906
0.1013671043260573
-0.1604815744865385
-0.04056061739861249
0.01441158382548622
0.1147365801986007
0.1920661379725346
-0.2859728039005516
-0.1089788181721166
-0.06465408575046924
-0.03455723120603922
-0.09365560426142849
-0.04915178862634303
0.006283014517245192
0.0901755882347091
0.03733112361848788
0.1512708944613387
0.02916645849868096
-0.09736219304959003
-0.006514849093714585
0.03435102750009409
-0.02844291942642656
0.03384055939696549
0.03252464787314518
0.1379698650247777
-0.09228788895264331
-0.04083715479369483
-0.05752222602036687
0.08920740439171089
0.01230147823332292
0.01948239216158922
-0.1247769565049126
-0.319257987401719
-0.3271932536457266
-0.1366422210594098
-0.1692731847501877
0.1348451006548786
0.06873575041792257
-0.09933151502921629
-0.1575727376173091
-0.152739177663122
0.09253663197588184
-0.03501645612819385
-0.02774160311187688
0.01755429919736114
-0.1081776784082662
-0.05531840453407451
0.0249250655399795
-0.1402248588585189
0.02456150020488687
-0.08151835496499328
0.1045511036642746
0.05967805365316842
-0.01452345655092846
0.1009902262478768
0.02307288758125033
-0.00743853812772167
0.04065592354372045
-0.006649039967575972
0.1182167314435524
-0.001174559463539118
-0.1205215272077044
0.1022942318192847
-0.0002465720370706084
-0.0778727539271645
0.04476208298410066
0.02540455020628111
-0.1063347327165815
-0.02154407007601318
0.06950748262950285
-0.1144506141199667
0.008130486357338606
0.0861736162357243
-0.01679454715351479
-0.09479603617957044
-0.03513390738363929
0.02355243990155066
-0.01823301539953456
0.1267395494523475
0.08352610189431454
-0.1115111431152399
-0.06802039783974428
0.05190695656569379
0.04564429337899884
-0.02803585486707269
-0.02995624380678924
-0.03930987904598166
0.1763911802769577
-0.1206372051491692
0.004826198178065231
-0.06689747401439146
-0.06288573103724833
0.1345260440138266
-0.04652617546996548
0.04782892853916459
0.05994444341507525
-0.1204637275327483
0.02727370394679186
0.0576834705187319
0.01499216893833714
-0.01472841292603051
-0.1784698598197896
-0.1307832447883933
-0.1151322959801304
0.01174717674979044
0.002163907544162312
-0.09268446136376254
-0.1838792140147046
0.02183932071829375
-0.01496740468016466
0.1170074907399987
0.03204244239908481
-0.01900663455285493
0.01339110362257643
-0.01063875805208354
-0.03570572397241748
-0.08962138263358468
0.0870919356918692
-0.1118116126982427
-0.1307438418652391
-0.02950400945589979
0.07691969426514381
-0.05728332200143895
-0.20235215075127
-0.1159946589806622
-0.01685498159223481
-0.07078929363605885
-0.0804769366863939
-0.02345839008688934
-0.1935484952180388
0.1015429007350135
-0.06235803891287554
-0.2974369878939456
-0.1618571535384087
-0.08677036949585178
-0.02224925292151834
-0.06973584420243821
0.1424059630731098
0.09894107860554154
-0.1373238268450468
-0.08400087918242741
0.09521049634315502
0.09914896347325478
-0.08429167631113775
0.01554982073203097
0.03596912832456151
-0.03498996869173753
-0.07510345054631835
-0.1561298954189888
-0.07039743478678991
-0.03169497031070809
-0.05441338173939128
-0.2135130169713314
-0.1040097522457119
0.004467690533828993
-0.1398677583295884
-0.03856087350474779
-0.1205915437504247
-0.06376759385986135
-0.08422425421950715
0.003400256565937248
-0.1202044187558056
0.04345955248439352
0.04232465570061968
0.08819278878721107
0.1254930463043135
0.009780147419771127
-0.008628307123831232
0.008380896975498913
-0.01540744954626758
-0.02181630883761747
0.08652092561161791
-0.1248891494671764
-0.1495883246855072
0.08577667038428917
-0.03430513059875927
0.009987090958515691
-0.1175181558199833
0.164843523379707
0.009471554422915678
-0.05094419459892
0.02747825014367242
-0.1438413444384678
0.1117668937057609
0.02719131260943819
0.07362727749326017
-0.1210409785325989
-0.07885097867229453
0.018903225656664
-0.001328484372556914
-0.09690207354342684
-0.1205057246330943
-0.06682490304672056
0.07141936136641759
-0.146676054847369
-0.04242658615578859
-0.122166871723275
-0.03470447636056431
-0.1509998120461989
0.08690807781121755
-0.05388352404640626
-0.118615381991485
0.008076315200114044
0.006494761740408104
0.06918013739973526
0.03792079964156253
-0.1492561653593533
-0.1064026128663866
0.1222042459533507
-0.05635455253915832
0.1400001240799542
0.06787598833190231
0.117937443375792
0.1031063012427534
0.03796899891715244
0.02794868499854656
0.02352002587500509
-0.04857129578054795
0.04992880029446595
-0.08367411101011786
0.1209707857436046
-0.08444546340391236
-0.01218527960351734
0.01987343513662337
-0.0006798341297977289
-0.04460634723694021
-0.07382444154074397
0.04157666458414087
0.1371387988783577
-0.01929652999953247
0.01054656729352075
-0.06807304635465006
-0.04088668861660693
-0.1051549725274941
-0.06775276426279198
0.07831317775790865
0.0357739268322079
-0.06759036210938806
-0.01525825147560919
0.09547122012529748
-0.09433362442319439
0.143152676579809
0.1709880205191813
-0.01887007407140269
0.06028404952466426
0.08631896874308552
0.05638767539461026
-0.04265688159420238
-0.03290490938507724
-0.07968012444454749
-0.07564029389207461
-0.1761851207009489
-0.06956850062273107
-0.02794778483018814
-0.1510331389907165
-0.1404390377487005
-0.1773865054790708
-0.02499002398035365
-0.3096870208343441
-0.1200016355991857
-0.1093341307894849
0.1015938045228368
0.05092459696826396
0.006429616908796506
0.007216557952623062
-0.04257988775834519
0.1273437952355206
0.0566022580296152
0.08346796587736233
0.09493470288998007
-0.1129617647213789
0.06647659285150521
0.1059329159755893
-0.1715484156945343
-0.02389591532208412
-0.1371766667088853
-0.0606054625128879
0.03679931038698195
-0.001465644595851641
-0.1351109936101017
-0.0189099711051002
0.05133966957942825
0.02569664845667865
0.05725307360311672
-0.05861508032656121
0.007909096327268187
-0.01637543843514879
-0.08164527874096245
-0.03371290517684728
0.03706988062227739
-0.09770993153117696
0.07665084462343418
-0.07539988578238015
0.09775646777056494
0.07778674623159756
-0.1056845236878994
-0.104323322294206
-0.1274355736821561
0.264944459527825
0.04032994475836275
-0.04282381414754328
-0.01065667785323163
0.03608939048011194
0.220835240536182
0.1160881348549968
0.01552487516636627
0.1037167669128854
0.04134816814752083
0.1898560308247564
0.05744564341193329
0.09285294005343901
0.01192624825100728
-0.05238100001556579
0.004404226040593705
0.1220787098502986
0.07739750140275863
-0.02297087103704648
0.07229804957589779
-0.03732239481056343
0.08259171390903017
0.02746678169380293
0.02668298931218311
0.03021589384180609
-0.08765886297446308
-0.06665917659996756
-0.09135298311376358
-0.1039258182787077
0.03036253303179435
0.02883026008238654
-0.1270869609124345
0.03650770865197086
0.06189004414655064
0.003525571064048116
-0.04511201166717105
-0.005417775304425128
-0.116836471715159
0.04916160989952038
-0.01908296897569193
-0.008049997730832653
-0.02467753682624586
0.07908565442314169
-0.003898102360142614
-0.03815245833823065
-0.1551824259585166
0.1018241602775108
-0.1172184304035084
0.02978284813070817
0.006159641320008027
0.05607354205362762
-0.1306041707089201
-0.1753306204139735
-0.02213362860451712
0.1017167485249498
0.1191569946646489
0.03700652309979962
-0.0914526629266396
0.04729638328414735
0.1874357526691486
0.1695853067625599
0.1340527589393986
0.2401697783955283
0.2844308254701047
0.2039556464670707
0.003992608267339698
0.2100370407519783
0.04194238011997003
0.02551613036319071
0.0482633720889284
0.07699718599736162
-0.002562951601806963
-0.1085201942069644
-0.0976611599766537
-0.1457348555058506
-0.04171110991597627
0.02888774647642536
0.02332253081381259
-0.1378271175378158
-0.1281635355796222
0.1899992415222244
-0.08455101877224185
-0.09317798101070633
-0.186271026431902
-0.008860348327838351
-0.02771222379894999
-0.1399308323916507
-0.1134859924007536
-0.1573187000642268
-0.1980105389275703
-0.0164003862657657
0.009682065053723729
-0.0713631698576933
-0.1092393288930812
0.1534326484716947
0.1225846059569427
0.08119997735746726
0.05694575609225114
0.1100420726328523
-0.07720210124157224
-0.02271875148506135
-0.003964264343119897
-0.05633982512049843
-0.01298504708357429
0.05807431564344789
0.04062164260837592
0.03303937932836592
-0.1185433491402781
-0.09109119278114713
0.04651886414883248
-0.006435953385318084
-0.0825966886253954
0.06886626280072805
0.07849303812135883
-0.09808029357327661
0.04302549915506024
-0.09549348743498171
0.05037054479525806
-0.02420646969013267
0.005762383938291748
0.08418970251768694
0.006004580568916902
0.1041408927989991
0.02639211938871508
0.07861167760552716
0.09775154301689781
-0.03285888050360016
-0.08112438641881113
0.08050210705468144
-0.008913594420326529
0.04664235945558379
-0.166691848995096
0.07825040335222518
0.05666934989951974
-0.03342747644194707
-0.03343214166235607
-0.07156701399170406
-0.1878461021219562
-0.06578338176379661
0.06569590134299974
0.06969514834136036
-0.1035446237244229
0.1171891314707988
0.09489808418377293
0.1716585372597956
-0.05653574066468381
-0.04202471827926146
0.04563425478082606
-0.02733138426524338
-0.0192438480773733
-0.03388925971931227
-0.008501171455180156
0.1954018295631278
0.0842894691025919
0.0987966025301289
0.02629175767267938
-0.03327105692453872
0.06775839493166928
-0.09495175320919125
0.05138435971835952
0.05658930996370635
0.06808961955883717
-0.1412112952068415
0.05598070070867117
-0.01614572383923669
-0.004685042105295754
0.02310963654858813
0.03988444986202647
-0.03614156861318141
-0.1425743604169744
0.02143219763495919
0.0921648716683177
0.1129744005130964
-0.0004365741226457488
-0.1723316063841928
-0.003814576449511282
0.08075476080526343
0.0464880074103209
-0.1805599385232886
-0.1519406754182412
-0.1139734930108355
0.01653652395568439
-0.1349159380120611
-0.05135289392429088
-0.1202999920146729
-0.2179175452548807
-0.2054344973537309
-0.1719457670297342
0.02011180937127094
0.05240705636677583
-0.02336656269076191
0.08254956615403229
0.02268255204240819
-0.02301930143187294
0.1081005348487891
-0.07758453817061715
0.1700866290447607
-0.003709929772213115
0.03454442712024514
0.1017122172073694
0.09458722176893994
0.09209444544896761
0.1326561728610622
-0.1180030670716697
0.08309596092477733
-0.1767638258569979
-0.05772839863069274
-0.05486358150971705
0.0708283707891473
0.09716228118238976
-0.1563583972507127
0.05682158127594968
-0.1162935302896328
0.05833768337900197
-0.01139901982690594
-0.09658531570726753
-0.05303665901324266
-0.0919330891430717
0.04652575425428122
-0.1221491795292205
-0.02309966902730793
-0.1166767133678352
0.0405709923131206
-0.0517200810923507
-0.05441424202518853
-0.05540193472830375
-0.02539643058515995
-0.143425553254193
0.07518824552367441
-0.1036690851959688
0.006088104441201432
0.02161939898892482
0.1216840633315184
0.1354054421203719
-0.02916343460485115
0.1005946688386228
0.2899460860293686
0.179088088802188
-0.08476146807173533
0.06348730462809264
-0.04179825477928454
0.02780718938246318
0.01878258301448781
0.01714513707084576
0.02192095628986642
-0.06878282149174532
-0.1337567924123177
0.2161523771387263
0.1219969028648984
0.1325355686030022
0.04334603620327843
-0.04688784909864174
0.1499398313199968
0.1189344435321726
0.01820030224764719
-0.008695168378466289
0.0250519604986503
-0.03275837883161209
0.1363060327035621
-0.03156095011955835
-0.02316312702498416
0.05046612668321063
0.04766270376715023
-0.2078419528440583
-0.0261380151859886
-0.008506879984053889
0.1345890075726938
-0.02983219928744276
-0.005900887568434108
0.1369926342017972
-0.1045344655642833
-0.004497478878103319
0.0365022005564862
0.04507982419334734
-0.1183950265127504
-0.1162048705232731
0.03779249616435116
-0.07124208709702089
-0.02524074596788701
-0.06088572387911877
-0.213242809818959
0.02040236415823531
-0.01573943399650867
-0.0842286848953647
0.04589585228260543
-0.178288099397465
-0.0004350436938339478
-0.06336096771444165
-0.1293127702444408
-0.05297388857677816
0.05066382742733207
0.05678675460788021
-0.08564211137649098
-0.01913868019074722
-0.04633309809335483
0.08706961663778702
0.1112443329496672
-0.07040974536729867
-0.07229675351283124
0.08224212998575536
-0.009120919759767625
0.006337757283358528
0.01434465807346447
0.1143597712056967
0.01238233777498907
0.08615344096147066
-0.03940610018459523
-0.06150756950327263
0.1012734875117665
-0.06279729778851421
0.1090722071945122
-0.05761719104427529
-0.1215759329985978
-0.04818069286436485
-0.0176282796959909
0.1603867473979683
-0.0457234903877618
0.04857671409673763
-0.1565125376499371
-0.05778040522352951
-0.0551532392576257
0.115899527363521
-0.02512395271206597
-0.05282940976350871
-0.123767934489899
0.047172922319156
-0.07794728946300022
-0.03822638972000123
0.1350720571652057
-0.1007971275109983
-0.01511092571525221
-0.06507285103622173
0.09695028899345727
-0.0607695857365842
-0.06475507898047575
0.001868068794292113
-0.1161670952580572
-0.1416821433097029
-0.2109309408466482
-0.1417927010504198
-0.03201860777525728
0.1064033845873821
-0.01584952949842021
0.06230072011468577
-0.04763281006982849
0.01129125222755597
0.06088549630130451
0.01691494301322888
0.04895580501517936
0.2579674598901335
0.1666703064719289
0.07664287101124934
0.03564900124084579
-0.1087897024572919
0.1902862060575609
0.07255398461982622
-0.05812086864169034
-0.178160562796381
-0.09525407956463851
-0.05337707142281656
-0.03074517163863947
-0.1551828524468808
-0.008462272233231455
-0.1593899312263084
0.06493648175701383
0.02750987050402626
0.03923938446095456
-0.06222017086399104
0.06763319893197181
0.1018759705762307
-0.000688787939000648
-0.06980307968552085
0.0259710351983475
0.06590188471219741
0.103975934400624
0.06369344434719672
-0.04908191868288136
-0.05727373668971674
-0.1070201038944315
0.03418431905296002
-0.09150002043209171
-0.1312865701983459
-0.1593933689433969
0.1122884739308585
0.05819105753940165
0.1259532228005963
0.03772228059784483
0.04003946358797311
-0.01524256197237453
0.2537305790092375
-0.02874967590380733
0.03530186146513278
-0.0822299657891386
-0.09697074577084465
0.08590682476507337
-0.1206777313084238
0.06790237226522357
0.002343892684051056
-0.05775589535084782
0.02439660005642167
-0.02188761788713587
0.0512468608015223
0.05529743003854753
-0.08187515108686869
0.001200506361187636
-0.02093319758631607
0.09066293027342721
0.06682893022903974
0.05534843781827736
-0.133768396646027
-0.04639424826890087
0.09069870089297546
-0.09207100842700469
-0.05249794783975081
0.04172977165751929
-0.09023595178263574
-0.1139758901858027
-0.05576631005657064
-0.05875407007230114
0.02288066057954717
-0.06404201282175369
0.03074680861074364
-0.1194350599966869
-0.002740123895474766
0.08789983753587181
-0.04568871582285213
0.09247715405377764
-0.05353433807551401
0.08075223854475798
0.2250776781522884
0.1985692451560435
0.1155876423604634
-0.01552544005574006
0.07960156138970062
0.0957877645318166
-0.1787799168729149
-0.1835301389887188
0.04115054286148033
0.03754238154024078
0.1215243944463681
-0.00372271099579934
0.04982410795186724
0.1837886105518979
-0.08095188393359692
-0.02474594122535992
0.0866497265682144
0.02243790037128277
0.09675371183803524
-0.1959191637259915
-0.09070611154674496
0.002326114652270935
0.06045100613939301
-0.1296851606199178
-0.08845907587275166
0.04050595694919144
0.1022524367296271
0.05011056878615691
0.01704569651074401
-0.1794774608519463
-0.02819223723086454
0.057491764039254
0.1227945856398538
-0.1440388041403471
0.07485894067623824
0.1906320038940894
-0.242049704921163
0.01284535442729086
0.1275832197163171
-0.0877152085946578
0.02192735913129553
0.03598896117153393
-0.09492300858132888
0.0646753570583315
0.009722500236493672
-0.06267304277557631
-0.0864464723538439
-0.1220622828423484
0.001171719875549618
-0.08410315041151943
-0.03926285240225555
-0.08155453140262599
-0.03713841729726747
-0.02876359613469363
-0.2073301204704003
-0.1573034120356664
0.01456651785326779
0.02547355914946428
-0.06221428010721882
-0.1877756825647056
-0.05891994041436806
0.09730969775756038
0.02551059627249903
0.1201089838460383
0.07845996319372558
-0.1826734381978025
0.08060904535615029
0.2465492318731562
0.218670748778628
0.03600872993812067
-0.1220946475025172
0.05680715372079843
0.04339819175976755
-0.03810604762731105
0.03377421983169215
-0.03664649010284741
-0.06746455872061011
-0.1303471512856645
0.0336672861680504
-0.0420076316880626
-0.05685659042614671
-0.253764846933108
-0.06209954270934662
-0.1383316812392461
-0.01292073771569327
-0.1517935619460222
-0.03256516864544767
9.948283425046874e-05
-0.09824562846691731
-0.0848131665356836
0.174859304161639
-0.1208456175688402
0.03189628414635964
0.02608421220271576
-0.06745120102212909
0.1796860944882522
0.109605574255626
0.08022425846842225
-0.04367578357163473
0.02264322827001833
0.07957771854580108
0.08687014335514327
-0.01265325842477151
-0.04850618618436758
0.04969774040208711
-0.05429177170820584
-0.1719274012385262
-0.1422934240835432
-0.1764023687472698
-0.1186138840566283
-0.3179796143000225
-0.1500738025956425
0.05557490945104727
0.0705542701056756
-0.1069565055034807
0.06687864622132637
-0.01651571279056637
0.1800957912446414
-0.01103845874115505
0.03619791501209464
0.01507516040063924
-0.1572890639996825
0.1308669729583789
0.02697183864310569
0.1210193481232194
0.00975391037528853
0.08312198457865624
0.04127808069819273
-0.05118859019894076
-0.04354153041456187
-0.05211078864933801
0.001700490711341457
-0.05726088674368615
-0.1172319558833803
0.003154191128683463
-0.09560568241269311
-0.001673669208010178
0.1424084774301505
0.2328991418359898
0.06196895492402869
0.176013063413223
0.213841354772363
-0.02484041807986962
0.1668764010437963
0.01596170112811598
-0.0146197011640072
0.1007693408709555
-0.06590107192192141
-0.09398145130518801
-0.08868349914144708
-0.2243358015807234
0.09520630919486082
-0.06117989406109033
0.01301300907206259
-0.1654453547927676
-0.1564073526146021
-0.01604437559073984
-0.0286253816237218
0.1231897018040207
0.1022855334029893
-0.01012673627519766
-0.05929496851986112
0.05693806256427732
-0.2011335881216416
-0.03498910265063603
-0.05837321812442095
-0.06612573135946481
-0.03487598581696473
-0.1848056462678823
-0.1679075547935565
-0.001140231339691066
-0.1430375507987423
0.1271849256120673
-0.1915848512273003
-0.1081201648639639
-0.03520750486938341
-0.0119470389918981
-0.01240607883973151
0.04393825191385318
0.06258057846372098
-0.02483946129045001
0.01595033988880315
0.1582256751795598
0.08439658589826636
-0.0190680672053063
0.07156358208046208
-0.1489558865052097
-0.1621103531512879
-0.1237651781641383
-0.1369151871529376
0.08595912885623323
0.08509051068266753
-0.03359217438706621
-0.058628209130627
-0.01872907977161619
0.01610949988261813
-0.1117497085627674
-0.196092327984961
-0.08989602222823267
-0.04887279803893885
-0.08189848275980242
-0.1459144362203654
0.07652981687756479
-0.07534491438248658
-0.09736616917357892
0.06020566459183541
-0.06855641585705538
0.1819891426227866
0.1138006436311863
-0.1962635676645295
0.006542548831255503
-0.05972365196491148
0.0882705696511773
-0.05328691401927585
-0.07474520141651927
-0.02624431731396244
-0.08230434130906265
-0.06116723372892516
-0.01304984954391692
-0.03821212737167281
0.01867806946526456
-0.007378212137571942
-0.06848195201230889
-0.04373949561275231
-0.08205633759337926
-0.0917325511225896
-0.1216256071310586
0.0002219636513123767
-0.03570443442242695
-0.05903305832256108
0.1288455285599055
0.0389867200702785
0.006223226730758181
0.03885504402834201
0.03934361603389616
0.0814135356410807
0.0004200247669383494
-0.06569985392797917
0.1191451495076051
0.06715633274978737
-0.09456825364869803
-0.02641671912085567
0.09481963591251112
-0.06513788406062652
0.04039185382798745
-0.1049246645463097
0.07215068445447638
0.08679222353012213
-0.03200372873180071
-0.06695964652155385
-0.04831280173194569
-0.09936063299689915
0.01630866122878552
-0.117716846548907
-0.07433124878004271
-0.002299795025099254
0.08526681636933181
-0.04059721705529718
-0.02240197783745052
-0.03873839575549253
0.1990682190625904
0.01424552005119319
0.05415223025300036
0.1044158670031694
-0.00377472144513372
-0.06134534135084704
-0.1817200677036108
0.05073922374962288
0.09006343929394611
0.07717594156711698
-0.202782852011217
-0.1294746175529217
-0.02521943674598107
-0.07561085201119243
0.01326484146370252
-0.2181090764260888
-0.1250344007175188
-0.0381862315150249
-0.1461916873177041
0.0855633867936224
-0.0483717721586685
-0.09629702428958362
-0.1490214548347598
-0.06132780876313126
-0.1747144088103642
-0.04902701761080214
0.02212848701102062
0.08851710563908924
0.043714734747885
0.04630855355624926
-0.1561539042321258
0.06950620510001065
-0.05909707893033106
0.0511490791365623
0.06805619435004835
-0.004531441959842412
-0.06847051341134039
0.08696971507441849
-0.08685708530517851
-0.1017133083835041
0.1234474982903664
-0.06142671111166052
-0.09997282271052481
-0.095291955072451
0.05039468840585277
0.01911864304145576
-0.09381445616828332
-0.07231560271204687
0.1217963804648794
0.03617126315343754
-0.08287629614627784
0.008720267277653567
0.08052363512842786
-0.1861455857260569
-0.2365980713304661
0.01335006294527916
-0.1040548185712835
-0.1389335449373583
-0.07913969036314523
-0.09739630220271554
0.01484990457986324
0.06878989045032385
-0.01126775378985498
0.05808222640264121
0.08412771034291924
0.1082871366784765
-0.1029985154503658
0.1707685627647539
0.06850537222789289
-0.01577729523506949
-0.07557999902625293
0.01578321826873002
-0.09288842856385184
-0.1064091290968704
0.1060005041581052
0.1392427953230236
0.115396269679374
-0.04397737445766726
0.1063124554219176
0.0572563802322992
-0.04246925327055424
0.1271798877624694
0.01829289290404798
0.02104221753230243
-0.08096322419074763
0.01622582143618776
-0.09803446527305476
0.05134260326465838
-0.0983901825486528
0.01685678845384027
-0.2062280898273555
-0.006388072541813283
0.04177125081595457
-0.08483642925247849
-0.06860315649145488
-0.1200106242874744
0.04433535234993575
0.06343363025319602
-0.03213689719267927
0.03339328794891882
0.09807981738300144
-0.1121296809568703
-0.04287550474661264
0.09758499852227304
0.01384176074858542
-0.2012420415518693
0.03381864201572304
-0.1584366952884414
-0.1571160414503099
-0.1345210284159717
-0.2246362804811751
0.01410596329576383
-0.09406869650583712
-0.05484875483792682
-0.1665970112377181
-0.03118545147997046
-0.1543742662391429
-0.0565496561968374
-0.03463824818127065
-0.1465675069821906
-0.1793920496550616
-0.007609502187749283
0.05948774762534337
0.008742762039951214
0.01925541297807983
0.02059270552432779
0.09758172500879918
-0.05891503324346285
-0.1424814524971546
0.003624251354667839
-0.1694640065815753
-0.1342734839527699
0.08155158096044088
-0.1252605069857417
0.03975881466826345
-0.180025937267495
-0.1546047755701547
-0.05919419586996562
-0.08690673777890622
-0.08339811597210413
-0.1240818318896656
-0.03862550083123111
-0.172053559902195
-0.02094815390547088
0.1631460227610404
-0.0519813950059442
-0.1324409583858695
-0.1044360376297406
0.02774186789366221
0.02950846557901754
-0.1479113444908385
-0.1015900527259611
0.0701522473198046
-0.04403165999495019
0.1274311430364577
0.1526053271827645
0.1566550432614393
0.002988336615705637
-0.1412709702843282
0.0105886602889356
0.05767210572415762
-0.03132233776252551
-0.008213580757842367
-0.1336104813267776
-0.04822759846558465
-0.01962771629006771
-0.04764950167133203
0.03708356496262271
-0.1223182338286217
-0.08584164597877267
-0.09887802889047355
-0.08257610731888386
-0.0009152196189157882
-0.03732564001993976
-0.1471484288967574
-0.05999646118503554
-0.07483586856066723
-0.02722903797285114
-0.07876627937371804
-0.2025996860060418
0.102300046640964
0.0532604227269904
-0.04544023651707189
-0.1964204995338724
-0.2356425280828298
-0.03316732997496914
-0.139526514776059
-0.04448278072093952
-0.1475798376385973
-0.06791777352182334
-0.08888226198712962
-0.06863877155376247
0.005924886803770722
-0.1594655196163894
0.04837686164112619
-0.1915280048535443
-0.01621179648065459
0.09010760722147271
0.1372038200742674
-0.1499788151611796
-0.05346695565082233
-0.1170734250346395
0.02554371850141878
-0.0286715691088914
0.1793003136605918
0.2524589198713613
0.04295026305365613
-0.05044113808571052
0.1195529860874851
-0.0939022453030238
-0.01245130589279938
0.1166212284831696
0.04672007189363785
0.08292893635133272
-0.08467907792572436
0.2057589036128753
0.1133164168323607
-0.05779985218998787
0.0004641549086725183
0.02707419339586005
0.07303228816134995
0.141314519076898
-0.1052094024954828
-0.1239404348039187
0.04313461963859625
-0.1871350317717602
-0.07354703579500148
0.07271040526662986
0.07105300945332851
-0.04715180966509121
0.02138661767161214
-0.1919539437019844
0.0003063891339932893
0.0006470508168130426
-0.1085114290156336
0.06723137097417242
0.04205278632559988
0.004915733226359546
-0.05869165209576228
-0.004826133135173253
0.06058690576710705
-0.02903205496374761
-0.06704320781526063
-0.1630875299460567
-0.1322509720662932
-0.02000545545478045
-0.1298372936207103
-0.04912406299201359
0.03915373337562901
0.1456774596095789
0.1433346779627743
-0.07820262942741836
0.01342668392849804
-0.1374803435296214
-0.09195428716418118
-0.02875584588501504
-0.2106568760795182
-0.03086562053356214
-0.1990530225986401
-0.03383396329945656
0.0160068977452709
-0.02661687717237683
0.02156342483733877
0.007163362344348357
-0.05416408436796284
0.05112397614066654
-0.08015364422947234
0.03259334674549234
-0.02049379889297412
-0.001966531581461209
-0.005407862730295256
-0.1012435434683001
-0.0001183674443971051
-0.002875708492699195
0.004207633029798513
0.2108737877896212
-0.009553216205182851
-0.005218850342920064
-0.04688540068570957
0.06753944406380391
-0.166122778048907
-0.1870039180867379
0.04533045062340639
0.0244703499399948
-0.02603812440488259
-0.1935627094134638
-0.2451788399131129
-0.01199348162941616
0.0375361501836694
0.01310353503896336
-0.1168176658945022
-0.05429281220216826
-0.1090424315647679
0.1385763899963705
-0.02065953263295536
-0.02602627475257489
0.0001659634765352214
-0.05132446752748295
-0.1687928807408134
-0.07806755544683183
-0.05634346723827765
-0.06265934965290394
-0.0710926225573259
0.1287758639086433
0.07483706712122387
-0.04740474340580493
0.1206622229382457
-0.1153096683073395
0.1718341509686997
-0.1107265785951375
0.0247610115292063
-0.1674585381537008
-0.0004278072158181971
0.005501021493378097
0.00784034925825885
0.02957528459878555
0.04426968288294415
0.1073782682485012
-0.0671409252615061
-0.03474321370522111
-0.07143435647725875
0.007971036182317627
-0.07183490239431009
-0.003475056924483704
-0.01984800440716901
-0.0004424494523696623
0.07324977543929045
-0.08811126484220087
-0.1040785504741701
-0.1174577533983154
-0.01969124799821606
-0.04878714125614241
-0.04351107344955177
0.01298955955169937
-0.08128302640761001
-0.05053911036178403
-0.0759686717846441
-0.1060831898222086
-0.04518907151696454
-0.1350392170689245
-0.07138981493134007
-0.10277907795742
-0.1022109828654277
0.06769777093834384
0.01854014305659783
0.06579847105526589
0.01291451547949911
-0.04151318323432152
0.05213325206131722
0.09010878638617896
0.07296885112411133
-0.119951665938796
0.02746061727144919
0.145397608959516
0.008955961817478186
0.09735569538099442
-0.04109694928124811
0.09810454894449971
0.1669619902978625
-0.04725842125807064
0.1143577253618509
-0.06023401880398362
0.04700269474741361
0.1797766571646984
0.04360991413779568
0.1506816484242099
-0.09331455631377139
0.1707105008666497
0.2034005607366367
-0.02547434925185288
0.06793234134564076
-0.1069328173533068
0.1055468251591573
-0.06651638131996387
0.05207115739385765
-0.167138130016574
0.06948938519992155
-0.1485993732113634
-0.0605815117779607
-0.06077097262184814
-0.1239930589765053
-0.1214773321001011
-0.07546176872185076
0.06072857327000475
-0.02851239938428431
-0.1423318585489825
-0.03703993792351069
0.002194346056830969
0.109699415100884
0.03623187036110321
0.0121440623491959
0.03186965081608173
-0.02362691374032356
0.09304870933504913
-0.01857243767342822
-0.02443956871213538
0.06266833308546307
0.07233774839018174
0.05122174998596434
0.06782530133120468
-0.07602921895873889
-0.07713518930062328
0.09977508447734308
0.07003516421433091
0.1553290724951645
0.3462797785895613
0.08122409388771858
-0.1723959235942213
-0.04302843335436886
0.1627056305501706
0.2230694240148126
0.1763911183171776
-0.09960731681159581
-0.1747720968065218
-0.1068223684198499
0.1890774165763738
-0.069977735636536
0.02765441809327458
-0.06741624013822102
-0.1649734974023175
-0.0871054121084337
-0.03796990966174939
0.008966743340603621
0.07428425651513682
0.06583858572651016
-0.132198642410198
-0.1285160583855878
0.08235755368981991
0.1164569883515491
0.07293583407732306
0.04158197666115176
-0.0283082834429272
-0.05142863272542256
-0.02013400056332614
-0.01563886764301962
-0.007224013104227427
0.03908076440257315
-0.1751450161766652
0.04877830047753354
0.1178979115025566
-0.08771472347246689
0.1003396285907286
-0.00537659610276626
-0.03551307193285647
0.007664494182365231
-0.1690366420520266
-0.1039298128858316
-0.137168567277372
-0.1782794193980847
0.03038883217711601
-0.07007281930621151
-0.08805301922419234
0.06873034424353741
-0.1747225590600199
0.03409066885194376
0.09940285041735714
-0.0889856683717298
0.07426736816991224
-0.1024057811157116
0.189874410601354
0.1580618883556808
0.07507370825164769
-0.1595824255863053
-0.02162142688824916
-0.01321589021328452
-0.0620285382457972
0.07717531765019789
0.06994843845372596
-0.003025972168305539
-0.04199093105839813
0.009024504520530375
0.1167916167339746
0.1262596160267318
-0.07281604714980276
-0.01168999661182536
0.1019629447161537
-0.03057770874043032
0.1032422446072429
-0.1094392808551262
-0.06808694905191405
0.01264322959831849
-0.01719962531545416
0.05865010965033617
-0.009599943925597619
-0.0217327484592698
-0.1077893871469214
-0.09922828634146535
0.02514044486899393
0.1088455383984219
0.01025569769231801
0.02994546444975005
-0.001974727527984198
-0.03907297633958382
0.03235983808182898
-0.1367075886500807
0.06083863389426346
0.08973306294762894
0.07753927955072454
-0.004367436910460366
-0.05753987477139617
0.08195361931438847
-0.08589907383107984
-0.09662307979722637
0.1098415112481252
0.003981480033150639
-0.001592250956888122
-0.004895465282138871
0.02999668003903029
-0.01573666561568115
0.08011792003729729
-0.1280358615498028
0.08564194395488781
-0.09561364821712827
0.0812277974521539
-0.03602416451861153
0.02360167204725107
0.08354956623895282
-0.005165629560956263
-0.0529223001074864
0.07514646327024511
-0.141741711292735
0.09679590763466135
-0.04048270247856114
-0.02212968278779403
0.01492290970837737
-0.03491051263243942
-0.0995351492236777
-0.03475727101275947
-0.07082265189350025
0.03688438756283755
0.05201760752245554
-0.105996536279136
0.09607436902688814
-0.08588204093178675
0.1090693435780076
-0.07140401673521563
0.01739551938168038
0.03564740317632428
-0.1307133809592481
0.08869993281112845
-0.02879907872301968
-0.1201153053650624
0.09221367440452857
0.009322947241373138
0.07399341972844305
-0.05332906624815476
-0.04844324665961187
0.07117968266551473
0.04110147207716797
0.02187948962288539
0.0583372872962014
0.09858043540671411
0.02385188726962759
-0.1338915258583036
-0.05980321768217751
-0.06193248898135698
0.02406848368833884
0.01860044683646677
0.01127349958442906
0.04034244640827408
-0.05394531262306736
0.05878069342239118
0.1259797418079288
-0.06842336873863859
0.04939143737973575
0.1101246731998533
0.01561939882006541
-0.03561520262821174
0.01413958073672987
0.02950902952293778
-0.04425095555142402
0.1084625926549085
0.04264563211431557
-0.08746098568370511
-0.01327975131497858
0.009767246679554259
-0.04256081821643996
0.03677581080655946
-0.0512933510033923
-0.07547825830617727
-0.04034745534895166
0.1123429828451849
-0.1205945556262875
0.1036803199921854
0.1291871299638977
-0.04432952232380873
-0.1010245225496513
0.003858544481820068
0.06962073456631428
0.0775688283930652
-0.04439442361881987
0.1289068480102793
-0.04164755595487829
-0.07080104914595699
-0.08120447294448652
-0.1035049315547806
-0.08713638153246035
0.04985050795931809
-0.01553160254508939
0.04674965958391471
-0.05654716098055534
0.05669917216814158
0.01870161491533875
0.110232988349344
0.1126035612088605
-0.09155813503153484
-0.003417156297718205
-0.07361700335260617
0.06669953132446596
0.09715266841378285
0.01539821993212895
-0.113155726613454
0.01662025077996469
0.003226663878212045
0.1603346751192068
0.104922195022557
0.09875847148780592
-0.138158695393193
-0.04670248491386625
0.05894308190864084
0.1290852862134729
-0.003826414219582559
-0.01005097201733176
-0.05756668016330306
0.06225604941131727
0.05223894715586314
-0.0559916736179366
0.04266629597827654
-0.04272381406732655
0.04064596001812217
-0.005001714605056526
0.06169236135777502
-0.02835686623290256
-0.1124709051953156
0.03983416170404725
-0.04030995457640138
-0.09209779347345985
-0.1065075263063681
0.01673862601014536
0.1111150611894613
0.08369380447420789
-0.1119852105566431
-0.1286807217957981
0.02214517750588956
0.04003072964195427
0.1472702315176568
-0.03681798288395668
-0.04686028518867632
-0.1064142584223961
0.002311456695651873
0.1245141139897071
0.09011657955326467
0.08580412142902123
0.002227789681907505
-0.1218127500080597
0.01458797440423402
-0.06622323221517555
-0.0585190023199397
-0.02494442586432373
0.04397551065146756
0.1159896598718822
0.1092337301133049
-0.03035914674061644
-0.03063874535783252
-0.1246759786839024
-0.1148258742469968
0.04111051418130773
-0.08727925422876494
-0.08425844891953303
-0.06247991132151882
-0.1189107347435944
-0.09609521886361212
-0.02681380417279981
-0.1230807244251392
0.02165006528750817
0.1132594571697208
-0.1097790106421729
0.10417791568883
-0.03688939719315049
-0.08033797424361308
0.005031941909863344
0.01720889369620586
0.1506910500157071
-0.06704893380104282
0.08740028813362502
0.1313685256868767
0.08917101911321962
-0.08863497589763965
-0.06960158500264517
-0.1063843861172506
0.04943128955872372
-0.07308831331406848
-0.1172917713313052
-0.1073543066448287
-0.002037945224798952
-0.1141062802398879
-0.08414546471018253
-0.07322032936302247
-0.103807806272483
-0.04839645543898675
0.03147205150875727
-0.06918982978529067
-0.0583354856429917
0.09935922304613141
-0.05572349676343776
0.1202250282182976
0.07419280418712988
-0.07060578158732152
0.1068981083424473
-0.05212672770666671
-0.009845263924683309
-0.08438872384575102
0.006334455420923053
-0.035395561773363
-0.05856015231623077
-0.04994867641217108
-0.03425266840386847
-0.1133768313477126
-0.04561675421919093
-0.02901425216658253
-0.08967212428949113
-0.0779927398646936
0.07144574280509035
-0.05086919239236961
-0.08699978443117698
-0.0524838982157355
-0.0705817198098553
-0.02017010251055772
0.04272641923990295
0.02121175221962375
0.1122831996845167
-0.03823095837503352
0.003849096847147275
-0.08828583731008287
-0.09198319413907891
0.1492375988526535
-0.03890908649309365
0.1247173939242312
-0.0910353992952138
0.1058956973154671
-0.1239510245310674
0.01145491652224604
-0.1108355720201147
-0.004310460659604567
0.04739360230194802
-0.08771154990906237
0.05742871407824349
-0.118638260905149
-0.04399604153750762
-0.09092239416000329
0.01459089572358653
-0.05052339050754746
-0.1221731990578494
-0.04635530454003929
0.01152846016166151
-0.03428492648738513
0.01506428525242249
0.05259571354235534
0.07434516678987174
-0.049005823559599
-0.0875159343740447
-0.04252563791958725
-6.998854771564872e-05
0.09979039413220825
0.03253217354184149
-0.01293194897653242
0.01616635510359225
0.03048702628833842
-0.0232048511613396
0.05783267390531704
-0.01844726824747988
-0.01440503120981371
-0.03220300793933045
0.02338911488804523
-0.1510860215932105
-0.1051876820224516
0.0765227899393244
0.09680676554534486
-0.06459885325020648
-0.08979778541307713
-0.1218091660232336
0.09561367924918802
0.01978452842333001
-0.05204473095326251
-0.07474292672674021
-0.08831443858264761
0.07886478010020265
-0.1434236400383589
-0.1479909450295504
0.01148067796384334
-0.05344324470988587
-0.07254525089286294
-0.1205444353788216
0.07244875030376763
-0.131637949211687
0.05762850875563845
-0.02294575029612581
0.08947104264564648
-0.01348516416700842
0.1138043515754737
0.05434543664491866
-0.05162792629882307
0.01867831569118379
-0.1255085331213424
0.0233163587626152
-0.03918960167467716
-0.1036579682273065
0.02182242312051653
-0.05164148384331066
-0.04050573507166267
0.0405432299064993
-0.06189488056186884
-0.07218123036709605
-0.050011387481299
-0.002105648149997526
-0.008398610509814249
0.00531517719693652
-0.005188774235604084
-0.009016689663312233
0.006189705359861944
-0.1327697836863782
0.1203392780470848
0.1069392100512744
-0.08514657538889964
0.04096727254257349
0.08581547016032189
-0.06834040244042718
-0.01030888936109126
0.03853943405821076
-0.001515108480812343
-0.08480896694169333
-0.05977028242157535
0.03725977791120718
0.04726468644698478
-0.05506960756045943
-0.0481839518593241
-0.09285104025976469
0.02166172285228547
-0.1325396988403598
-0.03342937081291324
0.08942069452479262
0.07785956268514642
0.09122545081341218
-0.06908267103370022
-0.1044749083263835
-0.01509659391655882
0.1190147254647282
0.0722763783805158
0.1054327238346518
-0.001619313263634873
-0.008781034320571191
-0.1108561597284205
0.01204993841245901
-0.07421130839220957
-0.03058972392838615
0.002959209202114837
-0.08467762698637352
-0.07376333642828441
0.06922151609927608
0.09817702943219825
0.1213912387812387
0.1342819155496218
-0.09354736552691645
0.01787217973416758
0.05865167315777223
0.03342506378367259
0.1404306678037161
0.05259516263980482
-0.127597090394081
-0.07229400224777553
-0.002069941759848744
-0.100034440074843
0.08017025358240629
-0.07958204261810285
-0.02145097961398328
-0.07479764933416856
0.05920202292027037
-0.0374648959168454
0.08844379197173111
0.03490256096123048
0.1140549005747374
-0.004926065720413925
0.05416594675464109
-0.05763559017983291
-0.004130975602989154
0.1141949042369607
0.08041764395275043
0.06835900376946664
-0.1001554983983266
-0.01277250442473759
0.0004257492713090475
-0.09170831024103697
-0.002905703916497417
0.02103342136558187
0.05311410187096316
-0.09695348415208818
-0.1047927022781848
0.03597864386093971
0.1403911416555043
-0.09034282115391228
0.03644087670419296
-0.0686017699739099
-0.1151420995354598
0.02690981529408985
-0.01313595517811543
-0.00360340408020543
0.06804897991424168
-0.1002049295077977
0.03895317214030419
0.04943108052257321
0.09274901670581445
0.05695246430962483
-0.08785875880414654
-0.02673422984726586
0.1211182855381934
0.003472420811976545
-0.0350061876909077
0.07533875740579941
-0.0615740819263606
0.0108527515243602
-0.05921026570334263
0.0532978697858815
0.08505472959610275
0.08993598777955562
-0.03714690282474686
-0.019642856117636
0.1514755581703249
0.03159112112600931
-0.1036428537748735
0.1222533470088215
0.03076149288696071
0.06960974551307954
-0.06812494100370202
0.05180491363101345
0.009354541404626871
0.06814640193194546
-0.08924739184595927
-0.08745504882429275
0.1042953832568026
0.1361208010331754
0.1219495353339121
0.04797853299980497
0.0005420006305088562
-0.1348075254257032
-0.09144945017049075
0.02062347988624598
0.02416720418950142
-0.009310151078595851
-0.03466795401448396
0.1008760559194366
-0.09480642536175236
0.02223617643879834
0.01813377647464697
0.08388574270723598
-0.00774048192726384
0.1190378826593951
-0.06197469466147881
-0.006107292030265825
-0.009068569391247117
-0.03594829722851919
-0.008335594227969824
-0.1145189982427458
-0.07685163011141341
0.068183512990525
0.06375004809810549
0.0381552807094603
0.01260291791436171
0.1135052781726024
0.09516528632520231
-0.009061904939991891
0.09564169816895492
0.08188008058441232
-0.0810894303569992
-0.01324830796221141
0.08084424742522865
-0.04944143585415941
0.1240079398837077
-0.01338342752303012
0.08552366579626854
-0.04708294708120261
-0.05629152575646117
0.08930231760052615
0.1093122806985034
0.1282097523706131
0.08454228211445053
-0.006935279986848977
0.0995925509312018
-0.1343824420556173
0.1183972461394964
0.01056798556142323
-0.02146212368948289
-0.04166891075419776
-0.03897086317408838
0.03990748561373104
-0.06814573878698649
-0.08834240222279204
-0.07310793388257339
0.04758613429251866
-0.08036161878134618
-0.1038242649328432
-0.08876027652128052
-0.1232947631814996
0.1111684629152366
-0.08145149987357718
-0.03486313706395789
0.06890312586956915
0.05237225359089044
0.01186530889989623
-0.09072304851570295
-0.0104992766913784
0.07894536184952974
0.01902078367998247
-0.01456143825298234
0.05808008080160034
-0.02515318763888271
-0.1094346371585059
-0.06704584419642262
-0.03854980036691277
-0.1095940458653478
-0.08894011847185251
0.07313251296853841
-0.002837391373180626
0.003204687415236391
-0.08332763673733162
-0.1096551422082287
0.04931331119347439
-0.04906586781413555
-0.06304647186187995
-0.005252808176645037
-0.02681196236295643
-0.008015050636207851
0.06161519809050045
-0.01623797316841777
-0.04323241981959271
-0.1270345386474717
0.119192320078741
-0.08023025485853584
0.06459969259169229
-0.01630030742760622
-0.04852674177875688
-0.05920433762527059
-0.07775338693933538
0.08951180403862666
0.01986020518960156
-0.1380235804268701
-0.02924990319808111
0.07944121478684157
-0.06830297403225249
0.07408254499207362
0.1131122244436058
0.04053301552691489
0.06304979632710614
0.005755285947152479
-0.1229881439093767
0.05759793103812324
0.01680781543923397
0.08758966602112352
-0.1038802797057806
0.06106497819747876
-0.06735683316555244
-0.01193523815943569
-0.04417476236026459
-0.1194686533640448
-0.1236758677378098
0.04193942497845421
-0.1085833364802751
-0.1196522579527619
0.08974530178253443
0.05869922166130623
-0.02986700655328002
-0.07643065463145139
-0.1209618024424812
0.04831913206011159
-0.1010644207916596
0.0368119293489849
0.03682351677155477
-0.02288167768255326
-0.02264779482912598
0.1119766630644081
-0.07251520186359844
-0.02928480587743997
-0.01752349161648857
0.05724260823944542
0.07364323692801006
-0.01502881215326574
-0.03246091051484624
-0.04721126097879331
-0.08264676263401116
0.004149728564293261
-0.05413054277118122
0.01131060572165886
-0.1187019061717427
0.02397017021843043
0.03099718653359988
-0.1053539580699405
-0.03028853099951178
0.06763930117677698
-0.07542509596588352
-0.07160340689231708
-0.0009788223370468506
0.04556098568120499
0.01798159545883742
0.04721677015285063
-0.08337977972928017
-0.08266534996903679
-0.09157225660245669
0.2202223292640592
0.1473739592338481
0.005900706070919243
0.07738670676137718
-0.06206257326055054
0.1186441752480649
-0.05219114047273505
0.08360658349116674
0.05221195063815141
0.02708789988484262
-0.0633671333128184
-0.03851369357183043
-0.1050084353101005
0.01553253755511393
-0.03563934098462778
0.07246670126212078
0.08445789096704982
-0.1040651286510106
-0.08288231770659013
-0.1713559767508452
-0.01509158558592549
-0.1398126125931126
-0.1047534374949759
0.1094570464461976
-0.01354133051618025
-0.006484820903150152
-0.1427035665325138
-0.1925561110295683
-0.1637571134506428
-0.01734153833134582
-0.03798194306549349
-0.1268616429712199
0.1071195669306496
-0.1719049376827927
-0.178914666880717
-0.1128346408154827
-0.07771266318264339
0.005029648752444533
-0.2070354779779878
0.02956002005542934
-0.0772398707221727
-0.01201843463916263
-0.08303655494916945
-0.1444766638336392
-0.1692477692729449
0.007074042119334331
-0.08563015116838574
-0.05909315412010525
0.04380006759028049
-0.02864836394223604
-0.06187074624146265
-0.05452608721707652
-0.02246012321279098
-0.007805962737564224
-9.412611404050466e-05
-0.06315234426617047
-0.05971290765386726
0.01734182059210125
0.0545923400251787
0.02738662714620075
-0.04019205091099295
-0.1410408530557666
-0.02860089001327173
0.0901665232044714
0.02976836136562975
0.06303969089641352
-0.004024510627393382
-0.07181310143424584
-0.1166450158626986
0.1223873016278668
-0.01823216822731891
-0.0849679520968243
0.07085858018039805
-0.03568872848885047
0.02876313343180043
-0.09764284125906485
-0.0823512611181189
0.1035522997814706
-0.05586078049174113
-0.06102867556740169
-0.02597963026904282
0.03095327127102375
0.08764219192388549
0.05877761265840371
-0.04464351900962559
-0.130763970297856
-0.0887903012719308
0.009826710719842242
0.1168694738299136
0.1744148156461618
-0.1309783878407772
-0.02760305897753461
0.08484986743525473
0.01943711432622462
0.1996004538639451
-0.1204446429143123
-0.09974722644593483
-0.02103186935702203
-0.05073597263760874
-0.08406575081955306
-0.1121463362190881
0.02445719836551643
-0.008333444884583169
0.1402816835122155
-0.1296666520481804
-0.0862799371882641
-0.0824874602495811
-0.09232990104652811
0.107106629372785
0.02616916701173417
-0.04320364140568686
-0.05727232297695403
-0.04033054598249339
0.1176124736722832
-0.06707928289976496
0.02544777565855693
-0.119452024247222
-0.003258321252920968
-0.09348432872145403
0.09577708268973818
-0.04797575261924041
-0.09392565044071663
-0.05002585758525924
-0.103536535128449
0.01292837139259461
-0.1445994012734534
-0.1912745907930319
-0.02208544017268496
0.02183765421653279
-0.07966712013083969
0.08109661880161123
0.0008387363035199678
-0.1233273707261819
-0.06086814638964926
0.01247733433392313
-0.08596494997515601
0.009219846784255156
0.1589012246167149
-0.1130918116233119
-0.04579540553111953
0.03477747854872875
-0.03361389691159999
0.09700265180253369
0.08334199250523762
-0.005994928983445172
0.08011469667297398
0.01399587123448945
0.09361029319866236
-0.01193244553294982
-0.08373683282412413
-0.1111478453363983
0.08855659569671477
0.1019814233844486
-0.01549911402588892
0.04879872182248798
-0.04309387555055973
0.1071952445569181
-0.137494711532969
-0.1042716545948218
-0.01438368307848948
-0.02829053045383077
-0.1035060607381764
-0.04695771017420979
0.03764125048736452
0.02622789078492363
-0.0859092607279533
0.007831822581977451
-0.07739693903255547
-0.1090890549247353
0.03229053198590834
-0.003513308748185596
0.03612953156705236
-0.08903323765065271
-0.0590352418468871
0.01941587524750401
0.0325226417238779
-0.07389027540429621
-0.107035514907916
-0.07635579758664955
0.05029817627667135
0.05430703938165773
0.0434330324729677
-0.001747950136312388
-0.00753365238891931
-0.0614114598949139
-0.01408846528010405
0.1107262372719631
-0.07479342504325982
0.001108028966702141
-0.08305699408894154
0.1050664305460633
-0.1270894063496715
-0.0353512571714964
-0.0882207484587883
-0.0009694801368519359
0.1052535943930115
-0.04534292827613991
-0.09469983063701007
-0.09716666154967331
0.03455333361548938
0.1220792124410501
0.07555329600474259
-0.04301254904794101
-0.1192319880455016
-0.1020635321763909
0.0455234622031229
0.09829024837380394
-0.03487128241112565
0.06413331429004654
-0.1473014330419085
-0.09017436494674475
0.01797388585824367
0.02542993615726329
-0.01458411256653328
-0.112681386728182
-0.1337042188730898
-0.148491321272508
-0.1680371972798385
-0.09090281461118456
0.0444337041181096
-0.07196675964726156
-0.1619002611527361
-0.04162356545015519
0.007833095993980941
-0.06693479640793538
-0.1150100356157083
-2.285743978601749e-05
0.00709943325004603
-0.03251705591253903
0.05998286048904909
-0.1013546672436131
-0.07748005703792904
-0.02806630926752701
-0.1114610691428381
-0.05543235293678012
0.05756937421055418
0.2168319621224757
0.001032819225747126
0.08783178367050037
0.04297132309917981
-0.01917956608644663
-0.08297923251028459
-0.011372417691283
-0.08058052316749406
0.01542278743709281
-0.02933878679758784
-0.07477705894706674
0.07680521600776953
0.1082845679929999
0.06607336792720354
0.00664350578715949
0.05296738423354054
-0.02590363541601767
-0.1215718821414003
0.01280665606511835
0.1070439202475994
-0.04262024006074889
-0.08026199045454983
-0.05864060103205672
-0.006503110434690815
0.05708637250929714
0.01338922907198566
0.1410323711677429
-0.1007423152438021
-0.03927510329771026
-0.1073928652630617
0.0648646948628018
0.02078815691003528
-0.02223529381955468
0.01455961200720298
-0.1795564095213943
-0.1754959460284425
-0.2290740160092758
0.05869904950498346
-0.05353883124532856
0.1065948548973504
0.03380831780696197
0.01145804535243758
0.01696394038731196
-0.05183917825977131
0.01869311974503178
0.02532519167726845
-0.0257161245285508
0.0461882599153343
-0.004171093564629747
0.08200665348847178
0.05916428260233395
0.03658905070252783
0.08001126610646106
-0.09804616375995691
-0.03952686964803408
0.06425538934706486
0.01813765727130163
-0.04984993008123922
-0.08466955875893849
-0.05689159320342513
-0.008302928527062251
0.05445763300965629
0.01645994966420841
-0.1040238792725977
0.02098690935208836
-0.1835511247252453
-0.1731149963186944
0.1256807640115168
-0.07528806056244924
0.01871135362599799
0.02441799111718004
0.01948432340502037
-0.005433849022771906
-0.01360771160527745
-0.1525148092523569
-0.0007647131094630992
0.04867967362822456
-0.06689890960190191
-0.0342267632155412
-0.07400321636474858
-0.08938556319140524
-0.07442010173143937
-0.06103182505100802
-0.1668283921214586
0.02068749739949366
0.04474920529854131
0.03000321224176497
-0.1614059526791469
0.06526891564552122
0.06695236768794703
-0.03780231951297762
-0.04314467876351341
0.0487892219687112
-0.06957822278701473
0.03120177858339504
0.0829840853683739
0.006293826247038799
0.0301411554546163
-0.0552469141411468
-0.03630434737816676
-0.02184004426426889
-0.06263279543649547
-0.04971263122495034
0.1159458638139152
0.1169445174500828
-0.07839855663217522
-0.01165429750129963
0.0586524614544426
0.02662661673110825
-0.06733789946782388
-0.07155857204252999
0.01550111612595451
0.02658926506620481
0.02207431787732653
0.08100348518784012
-0.1433396996688417
-0.1243772782721457
0.04173054943216985
-0.04615780942322211
-0.09008773725380516
-0.006782871148014231
-0.02883646988347178
0.0003782894473094102
0.0057377461541044
0.08144718724897217
0.092826174478887
0.06125298237182881
-0.07905001465153406
0.04775088747049468
-0.07158151324973791
-0.04193199378222086
-0.1221896078318538
0.1118292626717141
0.08346524762191621
-0.1102538858265813
0.011546407291986
-0.1193584463938881
0.04851106036276547
-0.02359696841555338
0.1104000281480684
0.08938782767595735
0.05775138968357155
-0.01483579887775284
-0.009205827125078394
-0.03043070491857508
-0.09260897261512306
-0.02369324602188208
0.02773291117568767
-0.04463930885792537
0.0266710007797452
-0.03189609034529348
0.02353380834509528
-0.06459067508005725
-0.07640642206398253
0.03904964973065984
0.03205394488408284
0.1069547027227245
0.05371436529505399
0.09437165636015778
-0.01654819485243984
-0.08648488995766952
-0.02778041676119664
0.0741052240250523
-0.09711761976937075
0.04807890855323361
0.1661940345696732
0.0563086710714064
-0.02158337441887264
0.04496519103418447
-0.001775601677536689
0.07861189210909882
0.1564372850233783
-0.06115027391946209
-0.1431396935582558
-0.1847910414696428
0.04796786655857609
0.06123086076153784
0.06786454427895208
-0.07077146198438791
0.01297343144755447
-0.07228548225695433
-0.1248301513705048
0.02493497823473027
0.0007896369107713135
-0.1656950659784033
-0.09999029905989362
-0.04994069151291287
-0.1561366790663941
-0.1247426743507565
-0.006606930081343608
0.1143112379482355
0.003341060542935275
0.07108983168559965
-0.0233636934320098
-0.04692296440714241
-0.004630015226230763
-0.03136552149287501
-0.1548049191587877
-0.1515871810195031
-0.1005412516210172
-0.02253450681369853
-0.03581630771133684
0.04818365333876104
0.01815214545227785
0.04712135810986458
0.0461435302369003
-0.02693432552972618
-0.007106821399170199
-0.07577652685674062
0.06193310219242176
-0.09756533519785067
0.0524768903663642
0.1101504501532652
0.02286174845932118
-0.07994988720347437
-0.1475758520358483
0.07323515884800344
0.07806593716399636
-0.09329873067896179
0.1106993765389528
-0.06827045104275187
0.1129165403459731
-0.068190865521044
-0.04796854009720181
-0.006390412920476112
0.01916675674087167
0.02564072820916256
0.1020612730260635
0.01840590952238777
0.04502379469077753
0.07353000831057285
0.06797296514092496
-0.08163063362710082
-0.03169412643052941
0.007252020342608448
0.04792082576283085
-0.1392978337779459
0.119034921980999
-0.048577599475841
-0.005426783533619991
0.07427699951515476
-0.0045361203413642
-0.08060110071613982
0.05292451597420175
-0.09031872762300111
0.00102682393203142
0.0744365526453917
-0.1103338340802362
-0.04499796963263455
0.1197728668043748
-0.1114155197911327
0.03974360642045723
0.1183976271052899
-0.04738785582604905
0.09960644059096088
-0.01660291750050326
0.09205905586231446
0.01952412699621079
-0.03060605765002223
-0.00416773605498374
-0.05174242975205921
-0.05150418739526716
-0.05592229437371025
-2.148897404197401e-05
0.04611972502734007
-0.1406940050689662
-0.05199345895494059
0.1714256610775229
0.1255540148613835
0.03165908866682546
-0.005056901218112464
0.08883364835675393
-0.06204541307130724
-0.01617627392605459
-0.02839123897281127
-0.04835818211168013
-0.1515644376993615
-0.07524274830235071
-0.04238416649950517
-0.08854573203747737
-0.1290053411391937
-0.03465050572148196
0.1218679057029337
-0.08739216344805302
0.03618163404782824
0.01479942881572232
0.01223088264852952
0.01726504121129102
-0.08661840420559661
0.1104296359766286
-0.02590772816039096
0.1713628461245055
-0.09115153674248726
-0.004904449764419642
-0.07088500783385376
-0.1023091279565769
0.05916710162431413
0.09206292592780058
-0.1200931551999899
0.003832493368926014
-0.06665094240369077
-0.01132664699136986
-0.03403950175851099
0.007067689697175824
-0.1180512677195233
0.04841490062259543
-0.118849327246465
-0.09161955578466954
-0.1150287401031542
-0.02064137539539515
-0.05793968223731873
-0.08095368831261437
-0.1249432381171387
0.06626748269910908
0.01164493457765023
-0.00253664697380576
-0.1639311737332701
-0.02154068892540164
0.08383733651925677
0.03665956122599932
-0.1097477535674887
0.01722534647159997
0.0651018928259342
-0.008099806803613172
-0.05371407024985551
0.01641132074117928
0.006727951451007982
-0.05226347369735766
-0.01764476095015743
-0.03386191887893532
-0.02136707026031389
0.07698388366686826
0.009880597695260502
-0.0148174959325333
0.003054693667287588
-0.02940552954030832
-0.1067212196637317
0.1033339624415799
0.05525050447829051
-0.04144222461824287
-0.0217329567657735
-0.02233068188505574
0.05684893203430246
-0.04353408576304556
0.03839781439597869
-0.05064773396660095
0.06004734976228126
-0.08967753309968102
-0.05216977227005138
-0.09538197783913266
-0.1061430608695591
0.07452842130055375
-0.103401576430755
-0.01173794514444159
-0.1030917167503488
-0.008121760279174679
-0.07136827659602843
0.1012160394228873
0.03710449984601273
0.0308732872676653
-0.001011362818382522
-0.004183142654179179
0.08844284622477024
-0.06969934057917829
0.08361575255435251
-0.01885912396579958
-0.07084699120967845
-0.08344873202407053
0.009341057305076278
-0.07180653580432519
-0.07878655778536618
-0.1723494151304117
0.04575201584508135
-0.1137801777108841
0.05842754053783356
-0.004265639480034716
-0.1253078344998595
-0.05497521426380266
0.1482099460357908
0.07641571116229004
-0.06189213620656273
0.04088327859328159
0.06985854268447847
0.07010856783063212
0.02699085273230812
-0.2037962527801351
-0.1249628003736969
0.09746672057966928
-0.1849877135920637
-0.1029937046366379
0.08036577544370974
0.06078015060044471
0.08884378624777577
0.05413863539823432
0.1092886349491698
0.1164672432601145
-0.03251380204885103
-0.01091410272704587
0.10008534366098
0.09813568526309353
0.09906878551154692
-0.07804503075388633
0.0733924023755768
-0.04771886100979484
-0.05252456939954624
0.08678022025494669
-0.04600708227527132
0.1117427373254279
-0.1538460468068597
-0.1968545348693866
0.02948560483174168
-0.002097342455308975
0.08830917431568301
-0.1330181177700433
-0.08910981179245808
0.05888662196500245
0.08377175625386099
0.1855030212699168
-0.003913461305136582
-0.01959411311234559
0.05936122274594397
-0.06298846899038564
-0.04081007610231049
0.06121807017374298
-0.07230872618707448
-0.1435451305175387
-0.01192304141830683
-0.04978899962320125
-0.04846550608184627
-0.02408809678409408
-0.1236478262750424
-0.07260200865713638
-0.1172879345505867
-0.07688116693098675
-0.01655317203502959
-0.09240223037042686
-0.1248329472656425
-0.1361379241902123
-0.05818137693280991
-0.1357391500678071
-0.1191059004428052
-0.0485489794410813
0.02223513361807811
0.06020310703452032
-0.0686106801681008
-0.1501892479760686
-0.04117290248225561
-0.1321769281857526
0.04799262148267125
-0.0818524878899887
0.0556497955375714
0.009423641506101393
0.0003164349918695232
-0.06019661813153904
0.06900839403290734
0.1071518927271261
-0.08506203927870921
-0.07424431461579475
-0.003587627971643013
0.1366898051661178
0.1268086988680953
0.127167551515908
0.03503064307058218
0.2739815616564676
0.03192619800964411
-0.09443654728795227
-0.08737094490788121
-0.1108858225741319
-0.04190178100039432
-0.006200660890010163
-0.08441881555594022
-0.1125986589795465
0.108586006413698
-0.1004913759136654
-0.1047909775777095
0.03051299173077275
-0.09041983187532039
-0.0007284373501187667
0.004524229852601354
0.05326426994737423
0.08747858802623859
-0.005423346456109279
-0.0386450178141635
-0.02662700041422477
-0.04643899278241433
0.02187714089912493
-0.05346800557704077
0.006639971855580139
0.1131493855825219
0.05199913929226656
-0.009518249325474133
0.05456915922053113
-0.01137695852950268
0.04741048604451729
0.05029440071022106
0.02703249358442848
0.1042172115431569
0.1202562466627334
0.08127665112200633
0.1028025358379873
0.05385014935233614
-0.03892800054904461
0.1425979340603791
0.02217994455170828
-0.06483509526820286
-0.1010715032454043
-0.1096793544936658
-0.03078838064532074
0.09167290416950247
0.08399662202257617
-0.06210621512780309
0.04534096948690677
-0.07745212276919103
0.04491348918704208
-0.05851492677343393
0.09644138225606168
0.04413295584341351
-0.03910783534143084
-0.07263525698837146
0.02169496095259518
0.05063068955275137
0.06312044907313658
-0.1573500683530168
0.05198711699151067
-0.01818400152835786
0.03488818570532935
-0.09775889542073109
-0.04811302203314385
0.05784594536067366
-0.09577933122974473
-0.09301724625749004
-0.01121925257759034
-0.004568810035036717
-0.07916346421167303
0.0997572184650774
0.0354861491882803
-0.01855335014983342
-0.07650855132143129
-0.1775862647491818
-0.1196597806897442
0.05553654092193162
-0.01799059826356082
0.1781682795694817
-0.1221454104051694
-0.1147610809557029
-0.08839216186237712
0.06318744185919771
0.1077976398214545
0.1178669185551871
-0.07365010970650705
-0.07890534123738475
-0.08814071716671457
-0.1462361951515674
0.05297507359072906
-0.152918039624395
-0.0436989228409499
-0.07831742946087573
-0.01183933848103287
0.09306699028323272
-0.08091655049362534
0.07030654397602647
-0.09461688893543244
0.08450341027464676
-0.05716018303251699
-0.05213741184728306
0.02096732523445809
-0.1246331038833429
0.02874479101223358
0.0498146594911448
-0.08763358282843833
0.08381611904548918
-0.04127992541568447
-0.01604542735239076
0.07451050165930387
-0.001632204445509417
0.03559844712694794
0.08525987380620006
-0.05257087095840308
-0.01194227345234213
0.04054926844708374
-0.03276200991229816
0.02363459250062687
0.08966048709736574
0.00178067460639751
-0.02414349364896457
-0.07187434856668384
-0.08717370061923443
-0.006659036857409833
-0.03165364512864104
-0.05077785508624282
-0.02124676212439583
-0.07532397876537537
-0.1075382984092603
-0.0567211734372287
-0.02389021025483117
-0.09381805523490817
-0.1986603320496819
0.01993091969919447
-0.04623059091425716
0.04332923690669705
0.03903709099330449
-0.1118896213619167
-0.09678617710024273
-0.07204196859710851
-0.08832439664268829
-0.08269801784169142
-0.1534513687261057
0.005123000952778807
0.07620905799349489
-0.07169483372713335
-0.06200312649066483
-0.08440274056568101
-0.03095880644661417
-0.04767830985659498
0.08983841089770106
0.03039389385627792
-0.1088129643836568
0.00337983952200568
-0.1125212041530658
0.04386532299353734
-0.01052669962456704
0.07099466263924331
-0.07431255577856595
0.03458193562264556
-0.0212357132186224
0.1416652713488254
-0.09088540567969643
-0.03931082226131964
0.02903217723753184
-0.06435580943003193
-0.09174254306223054
0.0395406890188269
-0.01619159937906845
-0.03765466183926311
0.1039350523944926
-0.05604478018077595
0.1238332477880645
-0.1456226583171993
-0.006925986320194355
-0.008267309126683801
0.04799840934709248
0.006683785405018335
-0.0152115230214999
0.0604390250969547
-0.01957031574706187
0.08330056482955622
-0.003139730707883154
0.1047210700276233
-0.0616381043957149
-0.07127507965059221
0.002328178826263981
-0.1423703274130647
-0.03285619584670717
0.07175435663864574
0.02740414883153254
0.06097042754502685
0.01492934089728776
0.1215252019151259
-0.135815369617254
-0.08348180815419662
-0.07384847638829621
0.01529663854649284
-0.1030698910704351
0.2655637789524883
0.2507210005583211
0.2049192912327557
0.1665399401572196
0.0913101512658053
-0.02795758414674182
0.0228846328425629
-0.08969888141373177
-0.03771258895651512
0.05135535182866906
-0.02193670642906963
-0.02851603179504747
-0.07130091288288654
-0.1269663744892239
0.06656772083104248
-0.08862284608994948
0.03157530595201343
-0.08665296187940809
0.006796324850999335
0.09923006949359543
0.04014995206989875
-0.0500411096477747
-0.05239289607012681
0.02845775488272332
0.01830236321510883
-0.1897551708880128
-0.212267796609954
0.1608984843115474
0.137706579384006
0.1081348952402201
-0.2172552384501546
0.01060286917739061
0.0186623854044955
-0.08674578619184341
-0.02866832503145779
-0.1545283762174112
-0.1378933647885078
-0.1300795924622549
0.03153751601179054
0.07496194358323016
0.06570628988148326
-0.09436865558842339
-0.08268642469233285
-0.09339845489504341
-0.008560266650399046
-0.06970163276904949
0.01437366679203962
-0.01809957726048943
0.05006487999850363
-0.0897067424441616
0.2211078456519825
0.07935882055344734
0.1545176128551444
0.0805707715125049
-0.06814393913398892
-0.0601830511245035
-0.1223171676664533
-0.03092197054996504
-0.08048594999293145
0.05615356706749414
-0.1178134364641155
-0.08472825870497652
-0.073763193224855
-0.05623750022239474
-0.105362620911427
0.08863857571865932
0.03918373136654931
-0.07562621745654914
0.07430123464843209
-0.02205773628770042
-0.1157928175054245
0.09972962825868321
0.1073021899192523
0.0297509654400529
-0.01094639615237667
-0.1849251873612884
0.01099921677691068
0.02024603505255041
-0.03561448053194083
-0.05386791933499014
0.02111572669158664
-0.03323544304001716
0.04874064891967932
-0.01624384550161036
0.1455025719992741
-0.1400306103757279
0.06568199564180986
0.05570925835334065
-0.03968173180135987
0.1605558361303061
0.2086188517235017
0.01773894298080395
-0.04507643609081567
-0.01963249626756007
0.1047713270734596
0.02994763221607976
-0.07086313636256074
0.05673830473566849
0.03449050061010529
-0.174834922637778
-0.04236285354088756
0.1259596837554063
0.1006617722692778
0.06400353450390353
-0.03417569474190393
0.1035992796432848
-0.164089478269245
-0.1435783070878558
-0.001548819266034094
-0.004982636251475342
-0.0886225412438786
-0.1906447353757683
0.004632545803471146
-0.08812339361137424
-0.03418529980480584
0.02880217243725547
-0.178876520135059
-0.05708417547357551
0.07697807314779
-0.0405493503850653
-0.03736975471150429
-0.004677285931279663
0.09875613647608782
-0.009002307032580087
0.05890438446876515
0.04931685801953405
0.01273693570623281
-0.2243637849923085
-0.138047371951835
-0.05154966069454579
-0.1374001132783327
0.0485525152234809
0.04386269572706309
-0.08005086908853487
0.0362580517849555
0.002885960855057535
-0.05322784702469597
0.06872905284521913
-0.02928686515690353
0.1502334194450492
0.001096158999203943
0.01441127462614842
0.04508096580924737
0.06830258686731261
-0.02072986601662873
-0.1190449951269559
-0.0764633967669229
0.0103241698395309
0.01345693885462046
-0.1194376494466483
-0.0447713452946857
0.1289341864787418
0.05868969542869602
-0.2480572328044456
-0.269385427829312
0.03468267773702481
-0.1326435789385016
-0.07477212795170092
0.02954176251973971
0.05359818995405914
0.09290538003209435
0.1301291290850549
0.01697739265967515
0.03144376756738532
-0.04876680150074304
-0.02651384563007724
0.09195238857498371
-0.05116535748283037
0.09412398058297211
0.1244970978477148
0.05043295919812815
0.06970439680651147
0.002520075007725329
0.009187845914181314
-0.02472937664784903
0.06533431863505228
-0.007381016422309475
0.002806392082959685
0.1278803838228347
-0.0685388132227726
-0.03298003907884943
0.09716271698645973
0.1546849546113515
-0.05086692189072972
0.08742084892735784
-0.1230579688903445
0.08950518012735879
-0.1202638853049992
-0.06454326657031226
0.008913240520675729
0.04431536268160305
-0.08822629791637375
0.05943524745117479
-0.1047517735504201
-0.0003746899332854492
0.04525351389290224
-0.07751219483095861
-0.03739783368123129
0.06305907657377187
0.07289145300741816
-0.07369550835821752
-0.00706860958172982
0.0766115213585503
0.009225084362301508
0.05808378282901666
-0.004357153539913157
-0.02459819600214719
-0.04720921074846959
0.04652122731173149
-0.1139780291048068
-0.0347944006406477
-0.08586989233783293
0.09202574741170577
-0.08320036824831283
-0.03412155528644112
0.0998305283065201
-0.04214348168471598
-0.04509155200884923
0.09780119723010072
0.0206657081345592
-0.1017482409326823
0.04580813148747117
0.06452263408029831
0.07860455289688234
0.06748122036362833
-0.04901963084154298
-0.0145468254180298
-0.09252798734593719
0.1634064316867599
-0.01230163791827392
-0.191651895518154
-0.04091154486923806
0.215753445469373
0.1260671949305647
0.05299222837347115
0.06608227345582214
0.02167697937521491
-0.07042639814471259
0.1449848441257713
0.1337291642962189
-0.05999533244678957
-0.01331619485576624
-0.09518645856753799
0.1200178153350969
-0.003306289531442133
-0.02331995322250238
0.1033332460462362
0.07369612268752268
0.0441775492792642
0.0488096383088852
0.02529192341591658
0.0226184434989716
-0.1512178264118978
-0.2489213007111055
-0.0612007687963348
-0.09479950823797399
-0.04488085853430312
-0.1220254693291299
-0.1034058244140869
-0.02087826185612038
-0.01303610763491776
-0.01449346451884239
0.09722219080135241
0.07865191541398517
-0.05291485460199134
-0.07881220316647138
-0.005123603307623131
0.07033129816365735
0.01583712885975802
-0.03032206761861861
0.01746990556060232
0.04860938777560105
0.02239404863524654
-0.05002963378834536
-0.0676509628291288
-0.1817183865536088
0.04342501218848339
-0.03007831124864989
0.1901032771879951
0.1403648457986807
-0.1327626047536898
-0.06153828948383001
0.001359057063662396
0.1181562607651331
0.001928841731654416
-0.06571579433358653
0.1364206349044893
-0.06721480224732192
0.01505519063987558
-0.08084869781367765
0.09604118633108004
-0.06618856832100717
-0.06178246993699408
-0.04850415043758768
0.02980939025831211
0.1265045253653844
0.08112630152039596
-0.08138196867886524
-0.113751074329037
-0.1452091818958144
-0.07228629082699911
-0.08047851361492059
0.01841543902936096
-0.1764662657823607
0.01355976844215034
-0.1475827090787211
-0.08329513516214475
0.02883408715206853
-0.08310154452349638
-0.1656416292427784
-0.01250992001417742
0.03920382669896948
-0.06140136203021576
0.04628065448464808
-0.06986390578231029
0.04347074791321023
-0.1609366955750622
-0.06616283557907221
-0.1030078488777172
-0.04024253791081409
-0.06493759658498818
0.02527757874165492
0.05425818535832688
-0.06991394257639394
-0.08690427362723339
0.04618646811331791
0.003079292935022712
0.0434201235785921
0.08218775041661912
0.05895398080970815
-0.09833406515369032
-0.06331072002146583
-0.005553807636174661
-0.0080080326397575
-0.127762917518847
-0.06418641881648336
0.05187444245712219
0.02748857029402649
0.06295620770287452
-0.1382535459011801
0.03321892419265559
-0.09305939835410146
0.04577741325458855
-0.1163836729382621
0.01339128601640763
-0.1154713174239855
0.1009682216143162
0.005769209847982896
-0.04750755689143883
0.1151922120301644
0.021861518606385
0.09906234959134411
0.0578054964854038
-0.0260557029280612
0.122048461065049
-0.1013269073436224
-0.03224408182519926
0.003544727529139105
-0.1533681440919631
0.09232032748134857
0.02335820553078394
-0.09319425304038542
-0.04008529027106571
-0.1088567269466742
0.04996745510147686
0.06979012235457049
-0.1007687712561012
-0.009994708892806632
-0.05721445022906647
-0.05214780729919691
0.06944713671213477
0.128005979004016
-0.0423723088331841
-0.003591761865109185
0.1283465623018475
0.07409102676421137
0.08720146977297551
0.134733784034431
0.191133582274548
0.195639503749528
0.2387707340185099
0.106312768403141
0.05363264374748852
0.07532727444032426
-0.0444875565673722
0.08177999063329537
0.08280027452585892
-0.02883077292696594
-0.027562610098177
0.04717140200616134
-0.02497404352210189
0.1239645522157983
0.06488313355685843
-0.0532031857870633
0.1248856470977814
0.03768184399658496
-0.08500737765040439
-0.1129854777443384
-0.09782951693240718
-0.05539745047686425
-0.08624158439789381
0.1008101509335911
0.003107609109690111
0.1072008687883089
0.001666510550488063
-0.03428132072353061
0.03394314921721819
0.1431454555927728
0.00191513878356493
0.05158026518091319
0.06410355319723289
-0.119623527324834
-0.09000000152608831
-0.04213463904136468
0.06716866643672205
0.005133579381422027
0.109124889440678
-0.06405752072125943
-0.007822910946357566
-0.07046706461108941
-0.08655160484487663
0.1421155370071874
-0.09014429276571866
0.09735366865681921
-0.02406381016544656
-0.1343581376383833
-0.03811818806186962
-0.02364104762054529
-0.08268899183338392
0.03192797179534399
-0.1152456576622291
-0.005105478725330228
-0.07072301832860114
-0.02103934919853923
0.01525038507427397
0.06750347606652127
0.001528459891004446
-0.1057135787265187
0.08422516657798843
-0.09893653962666789
0.02539900615954622
-0.08081627331182828
-0.155711985405475
-0.1393678326674338
0.1082196901947678
0.02815695036389224
0.08467326835137486
0.1708218918734492
-0.005525357372316062
-0.06094879328849823
-0.1184457543517599
-0.04532698646505329
-0.08766726258489024
-0.0719400796105242
-0.06308834536267449
0.00937746185370333
-0.07167017228803023
0.08339719360181096
-0.09576304321559204
0.02218265688622532
-0.003310598239662695
-0.07728442291237367
-0.09701312319092904
0.08064206358375199
0.004512316661965252
0.04621128951103248
0.07959700907634788
-0.0203417981708507
0.06176469993142505
-0.007022001533059504
-0.01854900839045953
0.004476330296559894
0.0919920655510164
0.01208330141407228
0.02586404237706277
0.0772829994478111
-0.02591340172176826
-0.05247793024333507
0.113533233577219
0.02532165946570093
-0.029826379599157
0.1116199976994653
0.1206224428657337
0.0432693865009902
-0.03606945129474935
-0.08917129381402071
-0.08122794999885839
0.06035697216745325
-0.09755647067316234
-0.05506162124867237
-0.1060627788237179
0.01530724874352967
-0.03717603557381226
-0.09848259031319684
-0.03029670548051837
-0.1275644423692171
0.1381697428907648
-0.08542435970483442
-0.07035108064561139
0.01755427197726226
0.05865664472477516
0.03440730607739291
-0.01293418618947154
0.09415820903763987
-0.03196388838049077
0.08179614888629608
0.03646875487330331
0.09907476981012031
0.1108232586915841
-0.07624384826433045
-0.09244130645840751
0.006674235010150613
-0.03470046444563038
-0.04377262464925707
-0.1582021182697194
-0.01733994287208085
0.03040512267551447
-0.02788449665643762
-0.0233034214117908
-0.01789043549126985
-0.007693191214223174
-0.008657170123348748
0.1353317201537925
0.1054069028172186
0.02232065440990365
0.01333670318027248
-0.09759976641064885
-0.01840287412267637
0.02629328574807306
-0.03686074284463656
-0.06154850763851532
-0.05632271508706149
-0.07568248352424084
-0.07058612783940357
0.0861086946990224
-0.04850153249805105
-0.1224497940509645
-0.02667858028128309
-0.08421901151034079
0.1155300666647351
0.03511048072969439
-0.04888112936157789
-0.04561177940972107
-0.07429841012790617
-0.02012476829786424
-0.06804463484939864
0.0471864354390155
0.08329179845629263
0.08869706987545656
0.1315631689418531
-0.09012859628140238
-0.139073827276703
-0.1890426693838687
-0.1056465741840269
-0.09903494722709828
0.004636450229436448
0.01200409488281787
-0.1015376737391683
-0.06631247798669228
-0.06833844956825881
-0.004704075230473769
-0.009607648905952348
0.04589553256018291
0.1072504529620744
0.06519996642472636
-0.02034726959585767
0.002560739483330376
0.1001824137937126
0.1464783729652606
0.02739365374484434
0.06455321524449706
0.1531425283076455
0.1229332238798867
-0.04868559513547438
0.1375090490414371
-0.02497919717804127
0.01163573075009612
0.03132632075651794
0.1344137810666129
-0.09293268808518958
-0.0003854011210163669
-0.0489756210050194
-0.08255063661673714
0.05240328878797375
0.02275039922022699
-0.02152837377574569
-0.04291706872254188
-0.101162090064816
-0.02758177978128164
0.08595856457806521
0.04112348916969198
-0.1743018799505208
-0.06139047549538932
-0.1301475132175438
0.07574755543237692
0.09654683100658204
0.04723696147807092
-0.05530621271131508
0.06553690733952672
-0.003696561086345999
0.03223470794382224
-0.05124388455377204
-0.1118485620458992
-0.0238998952961176
-0.03918878344089919
-0.1006564283518617
0.01913999619292104
-0.116203563201135
0.0009780291696613879
-0.01861742471632122
-0.1599061890690333
-0.1065323273150156
0.05942732653743937
-0.1464453183340069
0.03860867046405001
-0.08671912809492718
0.01253970343511101
0.01152226481546626
-0.05898734828815504
-0.2044849627073259
-0.03824255698085437
0.1398092610252054
-0.1170435656081916
0.02748123302208521
-0.1504912287454718
0.1284162545371328
0.07471067623249084
0.03628787434086338
-0.09162335233322244
-0.03452341755477485
-0.1352414475505052
0.07491760075752175
0.08592220577448834
-0.01879948756175585
-0.1159318828255798
-0.06507495211315642
0.001220504742675631
0.02361753270591968
-0.05175919677265702
-0.1132726370033322
-0.02832645696679412
-0.02960722731999452
-0.07313630439861259
-0.08626273306015973
0.01903082109787844
-0.02515693727440533
-0.01231422377348826
-0.08833106015284566
-0.1197528603646429
-0.117153750323754
-0.07843397717839806
0.07262942611265596
-0.06286378437488412
-0.00866178336324859
-0.05438816307650525
-0.04489576414786129
0.02298574498107609
0.137738771139625
0.02553031364090465
0.03227213778011347
0.02496714465690042
0.1231997716617837
-0.08728992174286564
-0.04033080304036262
-0.02230172996857799
-0.02509258830056224
0.02947151235204816
0.04166536267158118
0.02413220188747111
-0.05675165439553303
-0.1048600141003308
0.04661010352103816
0.1097273552693842
0.1093579814261499
0.136790537929196
-0.04762710049211118
-0.04036742732583152
0.01414594491272573
0.006676897726170869
-0.08683293400386213
0.06770901611877934
-0.1414245057821167
0.03911797259519223
0.0322909336379732
-0.07383441897642629
-0.1702143467714173
-0.117401128712087
0.05623400544719302
0.08031665802418216
0.07981693678558233
-0.1464055430045493
-0.07328675756212222
0.04414565743938136
-0.08145783426581678
-0.0241633711937337
0.0519290338378549
0.03363449824961847
-0.0563532685718379
0.03626018108082067
-0.1255382310076049
-0.00354996550773588
0.1450717208803783
0.05739553817781298
-0.05693686098577987
0.0748005934185427
-0.008555530735932805
-0.00636029398741894
0.04148428018603303
-0.04755277112596683
-0.1108515800708033
-0.1244642711266987
-0.1065999106669803
-0.07774189310595102
0.0529582133792179
0.1533564113305994
0.09281660328927865
0.07745664071384893
-0.08614451731847488
-0.05870923694696951
0.1540267987864185
0.1877309081707361
-0.01430309029319384
-0.09537481394359398
0.004424339066133636
0.06463892147538626
0.06231118847016149
0.07068666927036828
0.07337586918289926
-0.08823805045597817
-0.04919643667801466
0.01767062413225967
0.01461796760837261
-0.01862730487261839
-0.05906284713748405
-0.02050978093389577
0.06971249931641645
0.09076146790609627
0.1643777824934678
0.02139841917851042
-0.08751091036458809
-0.1109140688475601
0.02543338477479799
-0.08166526750270399
-0.07067887402932571
-0.06458515003115538
-0.1227557218529101
0.127599178734407
-0.04452856336358837
0.0004645065161501048
-0.0485924161388527
-0.1284315300137968
-0.09296101090222508
0.03116805727144576
-0.1209906331461337
-0.00292140980317031
-0.1367888925291715
0.1062534989703697
-0.0789594969234199
0.05123078461251902
-0.2296713557399282
-0.1191823309256254
0.05324048692830332
0.03581442642970037
0.007865436174554569
-0.02756666732111101
-0.1635886247263312
-0.01340701836618851
0.07224841705575794
-0.1001617785046163
-0.1625357220082029
0.03082545335115442
-0.07221856912851893
0.01705454225182315
-0.1033067899170988
0.02406303042039643
-0.1020557158324632
-0.07750967710337595
-0.06466453168800826
-0.05597040548809951
0.04156143514661391
0.03568928859078389
-0.05511197974043022
0.06298551904845573
-0.06641397090268143
0.01356847909329193
-0.01929438452246125
0.1125617895311495
0.05141004750688768
0.07130018264237081
0.004079115752647245
0.01440311538149239
-0.01909456334055811
-0.06632963213813711
-0.06457948792848633
-0.1148890940173731
0.05948752904308462
-0.05870563728098729
-0.01435120732212567
-0.02066817239607346
-0.006565161176644098
-0.03439761599550269
-0.07554341121615955
0.02915548978321579
-0.08675654360832015
-0.0080328609119047
-0.05573229456119511
-0.06051506700292445
0.09862078911880896
0.01185135855076208
0.03731074928399703
-0.002522278819013826
-0.04718131748059633
-0.1087800769894208
-0.06844870140934654
0.048614463163271
0.1180504919041988
0.1037574937440635
-0.02433539406214811
-0.04339980695230148
0.04926284638087811
-0.06997634922436645
-0.08828731647965928
-0.1301225390201949
-0.07675515656891427
-0.0199974677462107
-0.09819888388614981
-0.1098573236141474
0.04685722078833168
0.008162008425698409
0.0120813851632343
-0.09292901250421499
-0.1217738800607932
0.08126995175502043
0.03650898778410094
-0.07286279327911004
-0.04918068733559788
0.0835400451701666
-0.02497869098195752
-0.1186077222993613
-0.01363468733676215
-0.09814515386556016
-0.001626134638053029
0.09262030712593274
-0.08978088707686976
0.07879553849483968
0.01821393859905276
0.1044404180592932
0.05247458685166301
-0.12170645308806
-0.04124446741187185
-0.01557393022479773
-0.1227406852786086
-0.03911069411688416
-0.00834304605563441
-0.06046316477768866
0.05550970911265221
0.03725419308449569
-0.0003434085984445722
-0.03782120717482974
-0.08027081700577936
0.07016590188946523
0.04590244600626404
-0.08668304542609204
0.06769094694153972
-0.08500456237949394
-0.07321505209635451
-0.07156908013749026
-0.0524439061796196
0.09121062114345778
-0.09456189578302952
0.04942808430816929
0.1500214239310973
0.0869905575734236
-0.01924116567996123
-0.117220265143027
-0.01654664373040446
-0.1998448263065347
0.06233961088784921
-0.1314922883328069
-0.1812492975257823
-0.1252243429217447
-0.05960284101429011
-0.1360743449789336
0.02330513374069029
-0.1648091326966065
-0.05546863852553321
-0.004304082820451179
0.05411217028970276
0.1110762069873057
-0.1173145885346312
0.1116817269521469
0.1484070362083785
0.06572468459611402
-0.09383587784374785
0.02245590348815072
0.09736141120269336
0.05389351275390836
0.1253970648865197
0.1322939800155506
-0.0231426865838632
0.1573229221433216
0.00137948240244625
-0.09659736774671319
0.07449844585105395
0.2537017663500854
