1.742959812334913
0.6929870264729672
0.1181708716713783
0.6334359743894314
1.232133487088146
0.8278134654578599
-5.942585977179442
1.272051323094812
-0.1988466402273657
-2.434388692580859
-0.1276311025107369
-0.7357399639540737
-0.4208637786789947
-0.6871489746861239
1.456888922810058
-2.502011632882298
3.434286289627041
0.9372856568526344
0.5806401704723074
0.5580491301152396
0.6033010236108256
-1.306692172522991
0.402189442648411
0.6545978136873298
0.2465423731264771
-1.539751100159
0.05655812411389745
0.1556286532047004
-0.3062201378110888
-1.926155365701325
-0.5542802610604165
0.1905507170272336
0.002629298219797272
0.308470264710991
-0.04046667893400974
-0.01795084899944408
0.003586400801675161
0.04937734068787349
0.0336003332681178
0.00594515778048044
-0.009608688612930519
0.06361358133485759
-0.6121180079457744
-2.31975434708523
-1.784728405224031
-1.282165195071245
0.1144644680975861
0.3548384735056412
-3.928425007234873
-0.4633854173730552
1.580142342001622
-0.8290969059741022
0.9692909998061218
2.433846076166708
-1.155880538660042
-0.1321964325917395
0.5481242467239408
2.01764944454386
2.495863102795797
-0.5921515913771322
0.4253939250466806
0.3684331487966184
0.3759742139026583
0.871913287938839
-1.053698163645877
0.09650320218095927
-0.8944888707819354
0.9570988196835745
1.017213134152367
-1.220572647452717
-0.5509738977551339
-5.404710070185989
-0.4769506519220802
0.2431039845215733
-0.1219351346882483
2.260739755691391
2.742136660395843
0.1544769766732507
-0.07183098631632669
1.740798934883332
1.485318160658591
0.5095756765822756
0.5006433626018634
0.4921391974749596
-2.21487569530294
-0.8458866151691139
-2.052416478841725
0.3108890544877395
-2.376539993384027
1.334306131582343
0.6115758971312234
-0.8112900945548105
2.805352137603768
-0.1330608865825726
0.6188021979080915
-0.6655305278767916
-3.316652024836072
-0.4602677231390776
0.3252472231521939
3.992241573792954
3.762580763818455
-0.4692071541429208
-0.03232386722328189
-0.0195048647702773
-0.02380674347563824
-1.852311940218234
-0.4239248638136768
0.2287910486303174
-0.2424378396179727
-2.343875783344792
0.4615265689969865
0.2331763531474104
0.07617883721064551
0.0001315100768920713
-0.4123241586704402
0.3551230043666224
0.1930786920906075
-0.04838331247897789
0.2223226995594319
0.2575046621413384
0.3405359954669019
0.4024905829363317
0.2271926063495752
0.2670058935302813
0.2301555745679972
0.2987553785176069
-2.206176161831631
-1.253400727367087
-3.089637510248543
0.2382015477184492
-0.2933023164489983
4.967176415646118
-1.531059558655122
-0.1406812036474847
-1.732410163735091
0.2789525081681145
-0.2462804992250521
0.2861601542487086
-0.4039614547764218
0.7023000652440985
-0.17874363687804
3.52236946741945
3.10723020385228
0.2293852818832697
0.2504142094085613
0.2197277651458057
0.1471459458441157
2.283198676434417
-2.278645823384857
0.8228046989330182
-1.250418747582158
0.8994079901943408
-2.198524611646571
-1.165867855491138
-0.7259515311361416
-3.038287709768185
-0.8601838733294066
0.4589678650245766
2.797652231195849
0.1330376916075121
-1.185828971418475
1.03235906448477
-3.092072988428788
0.9622725746072411
0.3512260796401317
0.562450081242506
0.5236805164274537
0.4519162194034806
0.349825889006879
2.115187821391855
1.454495448817653
-2.558575039344147
0.2622361529994959
-1.086987116906334
0.8695084155021779
-0.8708273195720319
-3.381222111628217
0.673924696959238
-0.236797456530058
-0.1242035796765705
2.640404577641215
0.1043797864796579
0.41038159700642
-0.7943332852772442
4.631532250800507
0.6776785447356388
0.3337484411234984
0.3374875892686939
0.3080175839100348
0.4196169965142188
-3.618877165163595
-2.462160775493664
0.4397626906527742
-1.223729843503201
-3.589590163315043
0.945390175769879
-1.702465297277177
1.277570416192175
0.8499255360630492
0.506101172645971
-2.352869737399888
-0.9080810970412905
0.369487743556164
-0.2061752696169177
1.524179204357136
4.54198685965074
0.1754757770468418
0.01621863320722521
-0.02192953497482151
-0.06322730273048037
-0.7819567828095442
-0.05463468750797919
1.431210736218101
-6.448364892782903
0.4788196958503874
0.2671960873778472
1.143937739321803
-0.9715012425695549
-0.5581694123347336
0.3308241839291208
-0.1369435906545381
1.984680254049757
2.023906485845612
0.5226394494762666
-0.7325265802364088
0.9160520694572745
0.791821432037248
0.3003910327107447
0.4022690356943478
0.4289134410991252
0.3917469870153518
1.914613018056735
-4.923344707471057
-0.9542730627329521
0.5619836374725827
0.05268165267211972
-6.348964969060145
1.850506846069266
-1.001356796972306
-0.8352942771755356
-0.8041098731637164
1.26459692587968
0.03491717303506248
-1.074872239974543
-0.2776434717475117
0.7511124118579096
-0.7921951617061858
1.91560654949721
-0.3674018447987131
-0.04302718019462672
-0.06547033154816466
-0.1395198039710527
1.300182531875039
-5.49082283415214
-0.4275192272504842
-0.3026354796764675
0.1464686157778279
-4.596739784700945
1.34193275303193
-0.3065518985503296
1.843736599481857
-1.256553400758819
1.608851756640095
0.3231959016733429
-0.7725897244921731
-0.1704602833672288
-0.1837319830131345
0.4115752700946645
-0.6699139127665358
-0.5052942982358924
0.3042434752198359
0.2847558450592299
0.1578380010507833
0.09624612235210529
-1.791450139567571
-0.6646419166490156
2.48639618260555
0.1669180400729937
-0.2863863343249924
3.449058561537632
-1.490720098000306
-4.744627709636912
0.6057031037041916
0.4688974678343034
-2.103187501590075
0.751888872419041
0.2861758971833954
0.7482397707401572
1.02622817745467
4.177679534333965
0.6370017217888583
0.453307467169811
0.4262396914209174
0.242611530370364
1.754410351540002
-0.4442385400446245
-0.5207395117005699
0.701503667184165
1.157696547113584
0.4499747631641069
-6.053439924030647
2.540118945063391
0.2556681944569223
-2.317173058531361
0.377081155325437
-0.4284811748685879
-0.7977926012033904
-0.09013122706371682
0.3742394363110528
-1.185684194745713
2.466789236520793
0.7480523543837346
0.8530343108767557
0.846462637272651
0.8424629537686721
-3.953544094976937
-0.99620764087489
-1.070481823322585
-3.030529177470857
-1.13883201305317
-1.197036027933164
-1.900958089892744
-3.359949916483038
2.242308718482791
-1.808245464166084
1.446640318478687
-1.830564485752125
-1.517411465181398
-2.429741337490186
-2.88689741520057
3.718169905020032
1.899516105903695
-0.1270380404678883
2.108157013829397
1.882218746130591
1.949029535161664
0.965616814608506
2.139153601590596
1.372649347486561
2.025322884101452
3.406600422296451
0.8687124769000608
2.393472686171664
1.52449780821228
1.926210049146624
1.257231440853699
-6.70804265598676
-1.491707644624739
0.002846301183330323
-0.3628114620462423
-0.4443634528402797
1.051396192328001
-0.4420397934581951
-0.8868741328196071
-0.2897065002686918
-0.8909234136557024
2.702627153211841
-0.5726589432915878
2.157890879748529
1.847326924481377
1.02956289874671
-0.9511892680137334
0.6366870577671148
1.754300209114562
-0.8355079196876798
1.567142184922184
-0.9198047110380301
-0.7992945729439276
-1.245110952709326
-1.803600333215454
2.190151338034927
-1.461878252787051
0.2725379503055274
-0.8130751286286175
2.054007573036746
1.617105919649964
-1.265118750543019
0.9017412663241745
-0.3059776621274197
1.997018978869422
2.789581688234777
-0.9924506681646242
2.602047332985146
-1.790194214668988
2.066635115041969
2.373706857818457
-0.02345075432402427
0.1785766955381763
-0.1925523753386454
-0.890465082804342
-0.3033126814980515
-1.221562608094684
1.939589031915335
1.178368500795875
-0.7822666298862869
2.274237013427564
-1.255783967349205
-1.313219512071396
-2.870573324047547
-0.2247027612240503
-1.956882578355815
-2.102362504088497
-1.11954021581907
-1.947418229902218
-0.3399401178836129
-1.964081273906894
-1.61053301306184
-1.202048376413172
-3.043819258668078
1.216980643779074
3.349888287202726
-3.153579447863974
-0.9750392292984456
-2.194166348283104
-1.682781531479982
1.928727012858315
-1.283222731403091
1.899182241203734
-3.748939408106235
-2.607969428483269
-2.089670461901776
-2.329433401293914
-3.4051723473876
-3.185729506252041
1.30664933026237
-2.376190093085968
2.880955250928355
-0.7132574005375338
0.2245302173215724
-0.6589794681101667
2.269683547323327
-1.65998298434073
-0.6050785857187284
-1.025920133724832
2.371947999612381
1.769425019714681
-0.08563268934335347
1.477939237855936
2.339271978928879
1.579238254100115
1.86344810993479
-0.7788506172385992
-1.807560504453019
-0.5241082563732419
-0.6256920750902858
2.186674523328936
-0.05415795918661032
1.921177434733492
2.085789655253595
1.274187975258484
0.09962065783813261
-1.143434079584832
-0.151402182080856
1.132456447805587
-0.5977836802348049
1.227852392230238
-1.19315626476442
1.219415900609489
0.04863425124290249
1.910987203768281
1.856564396916673
0.7037141603393899
2.217018731473993
-1.215499842724265
1.571972414854063
0.1421670338156105
2.502661038564511
1.805412066006579
-1.80037527626878
1.567070912409362
-1.206253929514128
-0.6889278406118731
-0.08817411830274688
1.283585325859218
-1.054424492614869
