3.888104353016102
1.094373448915173
-0.8369274943137232
0.673127442039679
0.5654303887364324
-0.3562939454224518
-4.851568800682896
-0.5918547189962416
0.04152156078414179
-4.159358774801765
-0.4159137213493249
-1.634772394384938
-0.6098853872484495
-0.8413726755397856
0.08178627696352866
-3.385949310359685
5.357421107611609
5.923489104612112
-0.4292309038027627
2.553149115624189
0.5912342897518826
0.6306687050750295
0.3404670893080844
0.9181533381275038
0.449030430765414
-0.701188607200995
2.153639579185159
0.4286040529201926
-0.4338442617841219
-3.602293058530918
-0.889551807587326
0.5421439854645203
0.7415705082076941
0.2949526623619343
0.6126470824779401
-0.1436316181917039
-1.520394434923507
-1.800264435718493
0.7164234667586191
1.91179547155353
0.418014355320004
0.4515563402660636
-0.5066051105944539
-1.625502851689554
0.03538081915434012
-1.222004562366106
3.096289921990882
-1.478094428402203
-1.98347083898109
0.970443986570384
0.9636359206795986
-6.373379567003213
-1.04379075656454
3.87893336542392
-1.143349469354135
-0.372594239841632
-0.06981936637833763
1.450732396766498
4.139317746573418
-2.063855849042501
-0.08286239650326729
2.926319916417762
0.2801655452009773
2.027881597948207
-0.811455638935359
-1.531952423572725
-0.545347853056191
1.732484100804176
0.3809362941865529
0.1329772236265005
-0.3488037966167052
-3.32968502094172
-3.688343928828786
-1.717453848956061
-1.558107722515891
3.222795380337291
1.171809563647355
-0.6263464210951201
1.047496465740481
7.572018074661999
3.393394107798668
2.182444030432236
1.703813081518487
1.547199847263595
-2.533697537845797
0.8716124272923177
-9.653937646813908
0.3415389523535048
2.200578983496031
-0.2541782972374979
-1.607878982178655
2.222773364993853
3.296030877030991
-0.2608757907608442
-1.426350482408387
-2.998332798944709
-5.979834419384497
0.130971285761032
0.1363424298035795
3.966711177779497
5.783468956737256
-2.065496573188172
-3.059896010709102
-3.813470758752775
-0.727657859338295
1.705228769325521
-2.591341359825674
0.4397341326809095
0.4347637460206286
-3.636766972865172
1.274394000670638
-2.989272065847647
1.848022291567605
-0.5601291642694256
-2.608615431274297
1.807595954637099
2.57001904739057
0.2889931039153973
0.4743731731940226
-0.5433062506953232
0.7481962793404182
-5.639415503219927
0.6966085843148807
2.28572590044086
1.125917199850621
0.2052730164099279
-5.108950106216948
-1.491702585383011
-3.577688484811205
0.5669099122573941
-2.08090954026957
4.022731389754322
-0.4368044245622156
1.503815999074229
0.03171179271920924
1.279120277212511
-4.794011360259918
-0.5022606826776616
-0.306847533965295
0.4410370216043942
-0.08093719665504533
3.504482600215278
3.804107810361206
4.220529505876676
0.9487709757591043
-0.05436074933257534
-0.6407000667456739
3.981302806935464
1.549478683308045
-2.384906878083755
-1.074631066549322
5.186474705650647
-2.275881681105619
-1.185093433997213
0.2889109889862377
-1.257539399579867
-3.596494709850088
0.7795556084012766
0.2758989766885427
-1.779041119588306
0.08309689761410123
0.3411368700573341
-4.018091548580118
-4.293767436408968
-5.857847962644257
-2.921751933797327
0.5173238675034509
1.096375670581057
-1.005945722335968
1.392809973125889
8.311542444702084
-2.302362899260157
-0.5436840526014314
-1.366475774646586
1.894683923270607
-0.6927258214165825
-4.081756285110201
-1.079683192739446
-2.512486043064495
-0.1725740358977799
4.530569857645591
0.4035030774549231
-0.05363079710629443
-2.438499038766381
4.279880555942447
6.659163782724467
2.990599195484914
0.8484338849479752
0.835513877225147
1.565777402622925
-3.629334289502276
-2.984789032413337
1.193361623916851
-1.961934548137197
-4.94002209504736
-0.8277567980934597
-5.520759030121388
2.771394445039885
1.724764895038924
3.824422651784427
1.106147858899128
-1.601476311173999
-0.7776805295375675
-0.04038197303164059
1.580650826725385
4.689573377581394
4.78943429192236
-0.9875136139198838
0.7841268411780417
-1.665447346180676
-4.483132193881647
-0.6931026859708027
1.453893456883609
-5.547150723107478
4.709813327099477
-1.404218039800267
0.8590218099029056
0.7482433835625997
-1.376872471220107
-0.7963912046666058
-2.932386762487079
1.390342589212284
2.313665263516763
0.7558652154903739
-0.05564842066042788
0.387078548661167
3.342515660840483
-1.544402954853489
2.446787641049313
0.4832099509730765
0.6549702128168374
5.16494421733367
-3.101310209286746
-4.317689493849862
1.024701418774983
2.620189532003601
-5.208951510210531
1.964697411188336
-2.365255724242654
-2.687033398814106
-0.9456880191423879
3.480311946521883
-1.547192998536958
-1.98281954365837
-0.1710935496181558
-0.3939070564807035
0.1840274688625393
2.273173617933807
-1.363701070758971
-1.662713506013358
0.5152726457839789
-0.7048803588261648
1.102893405318207
-4.329793206807794
-3.967966276679337
0.3021592559969161
0.3219938014697004
-5.697750708342021
0.7131850269612406
0.3507473877834003
1.311829839938199
-0.09597982529549332
6.335030044737748
-0.4765744903243413
-1.217987810412446
0.463426785917098
-0.9396518475216361
2.223833765967361
-0.1170409706184
0.5763895150048753
-0.2309117675080019
0.2824366476901321
-0.7848863396897375
-0.5552190158567234
-0.8014838521694022
-2.746051184743679
2.264566206198912
-0.2439576597657424
1.282259152067649
3.156350675024127
-3.364480688840421
-3.655343124050509
1.953869304185429
5.189128180710406
-3.876186863945659
1.498880782012744
0.4771793310106192
0.08330825467559511
2.650597179731288
4.957341526751262
2.747265211430728
-0.2051350356021108
-0.4967310429352632
0.2669180300979211
1.941447159452012
0.5056551559400972
-3.045823366634856
0.1038747582565927
-0.927455090323098
-0.5743035449066219
-3.71459924985783
2.844050994671326
1.180143692845599
-3.914956775782267
-5.490113589636881
0.2266144385459778
-1.002735512636278
0.5541044792030956
0.2239001130680539
-1.412539637569092
2.914086766908069
6.732215061191218
0.8489843510497054
0.9242222452961437
0.3728000766055214
-4.604742460995698
-2.365636569104935
-1.501375363412507
-3.700697764093859
-2.465695870367156
-1.843036855039031
-1.787200339863378
-2.2973437148673
2.107186910503655
-2.380591070443959
1.366851803026735
-3.989853650007712
-1.955432989865269
-3.215261484480448
-3.179308593175746
5.074694634966071
2.098704367654989
0.1926308452084098
1.56163058252832
2.244103449773733
1.541719339942797
-0.9773468775983237
2.302822021593374
-0.9034247626780925
1.801064315678823
2.914169999982642
1.428422127141121
2.897879742276561
1.881211262379239
1.967832815013399
1.45001889899501
-5.503036181035981
-1.451066099554165
-1.364972764192655
-0.9652665410628062
-0.5890121666534436
1.201762580128593
-0.5862693052265527
-1.087241793544952
-0.1611594555806623
-1.906897164086345
2.702341240954524
-1.001805978407564
2.662222735598116
2.247668608022548
1.601570319753762
-1.505782925990611
1.401782060664596
1.963396318978307
-0.4982315035138576
1.912218108818876
-0.6396896331628351
-1.117547093691923
1.646221480516016
-1.800927006828594
2.582268672649537
-1.427942631802356
2.440137633527496
-0.6748449748765687
2.852772922389109
1.82389206523681
-1.610846635316537
1.071061685697142
-0.9080450361946355
1.97212105785742
2.262434282616169
-1.562112538729877
1.824245229311892
-1.689851977292697
2.292843470229965
2.273193583536911
-1.334606408503959
1.637554844491096
0.507525050722472
-1.953148170238713
-0.5630419000605567
-0.6528842512654721
2.025892282105485
1.413098894559826
-1.159613288997679
2.575116177338259
-1.585207218760872
-0.9226428584803831
-1.366107361717992
1.875677564789922
-1.726285212111093
-0.7741165769665647
2.494893266337935
-1.892342948313195
-1.012065864270074
-1.504936413562101
-0.5421826691909543
-1.338490122018321
-2.183378046867239
1.643756206842419
2.118500186279376
-2.820340981640429
-0.07759551775084035
-2.441916502698374
-1.493725226690908
2.162625004813447
-2.722440122618432
2.477936484592797
-4.838612485573544
-2.206359713668791
-4.883737615333354
-2.48328656405099
-5.781529662588109
-3.893132916988337
2.359818789981902
-2.022779811529661
3.552039234479943
-0.6399227014153303
2.044269076606912
0.1120096434488222
2.227172013082005
-1.840716241552941
-0.4173206432200881
-2.197715991539034
2.600998386023754
1.543975319657108
0.5406437394277092
1.571428528777846
3.047141914569839
1.9652236646029
2.160890121338804
-1.264229105048962
-2.199820517345934
-1.052003690452543
-0.6650354162793271
1.776773230983488
-0.2538288800182825
1.671664714331097
2.218161964425808
1.839787820675485
-0.4216310334620449
-1.33645442802917
0.444943735220381
1.44851475002742
-0.2658031811345361
1.198894493702388
-1.453303191024026
1.14612724466258
-0.1529902809527125
1.958600678937091
2.115598516060583
2.004260839025575
1.716298542021127
-1.317814234973329
2.076115430823284
-1.137855685710379
2.274061122190976
1.649637475001526
-1.359419890956245
1.725910455688147
-0.3265832714134544
-1.296608311685174
-1.607765280267403
1.312233189670753
-2.247448004768302
