-0.2860604003787389
-0.2750654006336962
-0.2232279284111057
-0.1835540967924874
-0.2859526594864368
-0.3395440659565628
-0.2755963307393566
-0.2150739397118701
-0.2337319930428889
-0.1645091684332745
-0.08439981359919171
-0.09197639287798948
-0.1901824179617253
-0.09378609152747505
-0.1083511645419863
-0.03217416877660844
-0.0227109162739046
-0.1184143221541015
-0.1657846092820517
-0.1312514369529475
-0.06038230942959793
-0.1328248124025149
-0.2595262611476329
-0.4618247570024575
-0.5947565592283045
-0.537834501174983
-0.4602358171433102
-0.6352629158383184
-0.7406508816497496
-0.6358597814981816
-0.5879904685222314
-0.1903161270479559
-0.05991165861736077
0.1619571481992526
0.1676729115250596
0.1377491231517048
-0.1392523550364451
-0.03048727315762546
0.1147216117573929
0.2253532620811516
0.07130323920227499
0.06848833449143277
0.3676515680939206
0.3145970137090746
0.1172512598077006
0.06018576102177114
0.2235903635252009
0.4236215589690536
0.2456525521377373
0.09649875043451468
0.04468494572349972
-0.03484884143513924
-0.0952706234067828
0.05951943304010844
0.2112266130440156
0.1569570744668998
0.138342948469068
-0.1431662697102931
-0.07129631142214406
0.1759969709402125
0.3117360184593557
0.2180522525323469
0.1028038442667847
-0.09719745259879571
-0.1195822370265541
-0.1497742660420965
-0.1533264964599687
-0.1703692324797141
-0.1285298119098688
-0.1647042650628112
-0.1883121396546584
-0.2891661837116503
-0.2734052238523919
-0.2340430388475924
-0.2328727684430958
-0.20763195459294
-0.1758561561630871
-0.1733083930765405
-0.1641907397070223
-0.2075682858370554
-0.08911647374422248
-0.05644957988710328
-0.1018715225385117
0.002022664452530216
-0.2131665473769507
-0.3151477999514977
-0.1847913129767428
-0.3052661896133627
-0.1451290096806315
-0.3839614592319926
-0.1568467514075789
-0.2258219128952894
-0.2533893018656646
-0.379176710910602
-0.2447042423792981
-0.2311754880976754
-0.1921072583627328
-0.1169374957036968
-0.08496933214171364
-0.01774876538489252
-0.0517723317324223
-0.1186219236340031
-0.02871571395385895
-0.0801165741740849
-0.01203917487423186
1.751615140086438
1.229899816471749
-0.8509142540969722
-1.078471879033029
-0.9728595433312852
2.142172525457613
-0.4743095609134228
-0.7200444275200159
-0.9044638111091861
-0.2153164371659176
-0.5274956599388344
-0.3211287811782831
1.340013259689157
0.3834417333357443
0.1706530516689603
-0.9982612509179526
-0.8695993278863209
1.687373694139771
1.561533296247241
0.8063233413992849
0.7100798666483146
-0.2565383386783497
-0.2580196695893325
-0.07988579358229687
-0.1253578583263494
-0.1917435637431295
-0.2834293608811565
-0.1724389538767531
-0.1200016084177303
-0.1129074935681011
-0.0743759475098883
-0.07325579501122845
-0.1482803101416667
-0.213865503788345
-0.2321583939925551
-0.1946889489117806
-0.08722534025946939
-0.1521574968167363
-0.2510878449744468
-0.2829206974187741
-0.2197032717982292
-0.07569198973174823
-3.516402640124574
14.64724619022087
-11.38612748236846
-6.69898696868848
4.999460876049242
59.84364523377411
-17.4433574285323
8.872140008031103
-10.85847503638299
8.704085614355462
23.94813884638586
-19.36341487172743
8.746560569147336
-27.91213019160492
-21.87075672502605
-30.63830033889516
-41.25166872641817
0.6134971934508279
-8.186030262643431
-50.99215617102641
33.30585202194076
0.9073884971697572
0.7285664980772019
-0.7427242770680414
-0.6128652035872073
-0.1627413310178271
1.325154200738953
0.3257506498038917
0.001423977475611634
-0.5256917293471103
-0.2177247908492224
-0.70390171858602
-0.5017176292213348
0.4166560046925225
0.3677601556586513
0.1977202439095928
-0.4977829170767851
-0.5294319478746081
0.7610781416424821
0.9665367660534034
0.3282926975554631
0.3719723563687916
21.3141589098148
37.75597632072348
11.54219617847781
2.170234246290299
-9.445690986258461
-6.551239741200079
-30.69770652639768
-18.78140608014283
-19.67167417336215
-14.85429967042031
-6.745033238421936
-19.19340126757965
-10.74458194857294
-11.84861592488722
-3.537339565358703
2.952821655391225
0.985292855728223
13.07463802132359
16.43952451151383
14.45969608905754
10.07417600340398
16.49388664012703
16.98540715014077
25.64445740325949
25.53619545706626
26.49138344688178
0.9504400296388762
2.12598126778121
-0.4191525230563149
-3.268773141281584
1.394919736981599
-27.5873553121216
-17.84667627855119
-31.47301569303925
-26.50757449425702
-34.22027934661389
-20.42263745358493
-11.92468803572351
-17.96113657755104
-10.74352184517786
2.642239189087353
-1.715963065956416
-1.277454429700442
11.40455814960816
-22.44496502671481
-29.45290830251799
-27.43889528052242
1.047674228792645
-34.47301695332948
-21.97609536896792
-21.11534516668527
-13.97399647644348
20.20885922385855
-0.9470375064275987
29.35550166078027
19.46066644462762
14.54293488212943
6.482484898877871
10.3906977855833
31.13245030441391
18.85134001123505
10.2578604267646
14.98024174293233
1.230692174386574
0.9594800705187134
-0.07140968259904129
-0.2778488696464939
-0.1091693318102408
0.4493048288032998
-0.2806768478465127
-0.5280716333000006
-0.8592301545928251
-1.026488027660989
-0.537700431154879
-0.08507768788584576
0.5622737005468577
0.6533218187830673
0.7017373822872309
-0.09980918886137527
0.2040568882836205
0.9459715490374732
1.462222917473818
1.196885789698857
0.3479864437667609
-4.434926445477398
14.54849326867233
-20.95171030440368
-28.01492718726897
-23.55830105565125
3.387099506578209
-39.91217222633213
-29.1414207168545
-24.31449918147432
-18.18540838802513
19.4039887380242
-6.900589319682642
25.43190377494795
13.0278355631939
12.78806676484311
4.951007123898647
4.482034321179516
27.10432281214945
17.92246986041042
0.7307799856559508
16.76196316832648
14.36937018658426
11.98115836550591
-16.71695484303983
-8.029834937525933
-9.223719619472991
36.30208055342577
-9.73685172011762
15.82542302395937
-27.19950134821445
-20.31525514429042
-3.989677520225753
-36.80287423681594
-1.381528577224207
-22.46958396428125
-20.21121551961027
-7.041020252246817
-27.7763276732624
9.211598792387919
17.05272771248424
3.646435929653378
19.69822392314295
-0.07744508943976869
-0.483512194103224
0.01023519753637223
-0.1172606145103968
-0.02536188456889836
0.3453638120618714
-0.2820012147886974
-1.515840800234241
-0.05907662922287633
0.2268960957751355
0.7270046780967828
-1.266516489777511
0.04478484004096522
-2.009738248923118
-1.029145897546817
1.035181572097644
-0.1459587526109873
0.4871096201105604
-0.3114865800670293
0.1031528312030206
-0.05946541346618708
-0.09862308283463803
-0.2615628717728019
1.558692325684205
-0.2326211748626881
0.638363839951792
-3.181449383436383
0.8984958532055453
0.1577788010011937
1.132957218711365
2.12888630935624
-2.577171630198439
0.193925413675594
-0.3222791364299237
0.1751072575308152
0.01433006413741748
0.01986617190914776
-0.06208539280324279
0.1583593884328829
0.5688979701897805
-0.03902397951037412
-0.5275319579017472
0.7043376613337713
-0.6473639079190473
-0.2959740551923669
-0.1130377211196479
0.1142570544408785
0.9404401332082766
-0.2872778325148364
-0.5256234941945377
0.08569591360333383
0.2360869082711842
-0.2210646843794903
-0.23918397239275
-0.04354401307655068
1.230132995716307
-0.2866537503673623
-1.541346948041596
2.03437954871308
-1.148951974546618
-0.3934389386841243
-0.4712157481002942
-0.4880269091201021
0.0683631674236695
0.08251431019433818
0.2377234488107671
-0.1383085344200693
-0.3323945690462914
-0.2507947486906258
-0.05085552812171988
-0.08870002191839066
0.1866754511748815
0.1980786916565009
0.2872930434835921
-0.8506085078730991
0.8043851802610181
-0.1254451477911562
0.1403955654203028
-0.3474797445698974
0.1120043739794083
0.11747905143484
-0.3817860732344657
-0.1691632176846009
0.02473022771357729
0.2357752573905524
-0.3024049556990274
0.4339757071975857
0.3590083236075426
0.2945514605225624
-0.1225304973883611
1.835695543012466
-0.1547689788226055
0.2006461608565401
0.258607960127462
1.052939265574425
0.4557033130002895
-0.1656232728828383
-0.1555250925920433
-0.08371917199408903
0.2195584553645448
-0.1444303508396708
-0.05509852947108736
0.3222931697583588
-4.962905529591133e-05
-0.1261260413503064
0.7150537993274916
0.7764348512645394
-0.3205502621759052
0.0111194599607578
-1.040044686789448
-0.3095470422981568
0.3208768502826698
0.2095726112577055
0.4004879753224665
0.01979348315977521
0.05491036005133004
0.6016211112467038
0.03789760195570259
-0.1150955639727892
-0.9820519713555823
0.04773229043907055
0.5238930941000227
0.4506416304895514
1.165759223803897
0.3427606922195489
1.426015280594018
0.1651887634833693
-0.7195436514993805
0.03531229615589503
0.24091326996045
-0.004316301977999098
-0.01088883600312348
0.1629168169941256
0.375613451091008
0.03601728922908629
-0.5904919707355182
0.04495575155875303
-0.859918960428949
-1.309636335316878
-0.1213652742860093
-0.03267121111576123
-0.6253983888716389
-0.7454028533483362
0.8950585809140381
0.06166683163552486
0.5676858129362893
0.3311107867739457
-0.1103924919057366
-0.2574104524560256
0.08750106843741962
-0.1455229986946671
-0.901545681873302
0.2126250464149292
0.5972882401702359
-1.202339635025487
0.7978297370573506
0.1549867876423071
1.253696104125897
-0.5643798543966103
-0.6163054824917088
