0.02206214500743098
0.0004750958116229139
-0.003120231205760851
0.01934637432100894
-0.0115093214954361
-0.0227790231959129
-0.006878597254695979
0.02560805298788214
0.01959439155488815
-0.01674490554431813
-0.005824026645614723
0.008453349137823585
-0.01591141492172215
-0.01098758965875154
-0.009225821162029094
0.01421425339531849
0.006872041022795965
0.002396928135973222
0.01137458398883545
-0.01573987633317029
0.003647185751516421
0.01058206089755887
0.000811187144343131
0.007585768941691192
-0.02239482184054049
-0.02214605347117556
0.01205812387981798
-0.02236545572445606
0.0215786931496488
-0.01228080833336371
0.01663664474946156
0.01579001721150337
0.01767752119221839
-0.01474988451045187
0.0009490424697074576
-0.01521266736420395
-0.01503553393665374
-0.02364012862361434
-0.02554737951287783
-0.0156118216991335
-0.02207328925205945
-0.01065381339220541
0.005021978506539736
-0.01729551719211793
0.007657756483797004
-0.03149528624776986
-0.0004452027891564525
-0.02331280885150976
0.01033130380169514
0.007840695972655099
-0.005059279036816113
-0.01714887494661718
-0.02043409372126791
0.01685321156817675
0.02064468687967459
-0.01630222522359394
0.0199358357999175
-0.001394369890465298
-0.0115392774830133
0.01363481253478631
0.01539586185122984
-0.02148570574549563
0.005066466578076515
0.01010728759981317
-0.01265697681414882
-0.01118278455096338
0.01871632253750377
-0.002655330795495503
-0.007358781923311979
0.01938985427119346
0.001671312174545103
0.0011538197526615
-0.01318246057027799
-0.009043576225115056
0.01287778146334471
0.01348432977542989
-0.004347488321879958
0.009764304825096711
-0.02499315882840742
-0.02440323289777374
-0.01191192058858948
-0.003475220548029018
-0.0121971469302463
-0.006659881254950617
-0.01275714332412154
-0.02227460410779844
0.001784190980244437
-0.01406976840186055
0.002500032808529978
0.01519306249482113
0.02093062985167966
-0.006995944781711824
0.02046940290019298
0.001092453989831072
-0.02160440363969063
-0.01768707260210378
0.02048332142925966
0.02299884380759921
0.00365626843369808
-0.01749320612679336
0.0170504969239533
-0.02256813159169936
0.008469604534875918
-0.02053545080106244
-0.003487214417196737
-0.003519497869958803
0.01670237740263679
0.01981833275111686
-0.0188098856087795
0.0199838195707075
0.01851387581794408
-0.006804333039439317
-0.007960891206267178
-0.02230300415711732
0.01328460571612597
0.002742017370038237
-0.01784882369789654
-0.01139743555208501
0.01102399816795401
0.009827654670358243
-0.01952915166925174
0.009262804904681867
-0.0188104842821206
0.02400036227131537
-0.01721970352446462
-0.02106472873363451
-0.01537671238789342
0.02775101629196059
-0.01539684522373466
0.003345344911289425
-0.01982806326379771
0.0244354982444167
0.01568146495482305
0.006890338805509546
0.0251776599587618
-0.01512942939319135
-0.01344438629696707
0.02403978737064892
-0.0199854428412839
-0.003585492749331879
0.02100733013946786
0.02412086186778806
0.01673877916253011
-0.01777365392182491
-0.02472187984045347
5.500795158180798e-05
0.01733971220720799
-0.01083800393849758
0.00843819018326742
-0.01304113069499774
0.01540471424377392
0.01513901528028232
0.026565606246322
0.0235088226956661
0.01486867215551357
-0.02182079479466455
-0.01961578487350992
0.02145671981285167
-0.02504242916226053
-0.0191790944954695
0.003394551599804679
-0.01577557214796637
-0.01839736107559143
-0.006893651612331825
-0.02053995998435086
-0.02426262722119164
0.002241099294208261
-0.0153330221798151
0.01593241838240636
0.00892167734097509
-0.0006742573870148895
0.003377487710800744
0.007916278480842729
-0.01803685883274858
0.01875548571712641
0.01623732736642869
0.01082459235889228
-0.009853862756813412
0.02021091110715551
-0.004236457348963545
0.00799869331402412
0.01601192205534751
-0.01310530738413063
0.0125728476230301
0.01200322667146358
-0.02223246801783101
0.01373370329740004
0.02069405941367967
0.02043741385186679
0.02050601487654186
-0.02231826518771212
5.228145674206762e-05
-0.02363836838151672
-0.02091270215952569
0.02250057566107231
-0.02221127355986946
-0.01855499205937435
-0.003661876551486224
-0.01145144164041493
-0.02283798187805862
-0.01872919750123031
0.01862332131005283
0.003365793664028676
0.01937847907538727
-0.02591766170339794
-0.01078859913496113
0.001799938776554007
0.01341007743935878
0.008934355661759142
-0.01982529641443121
-0.01875646011645406
-0.004317357253256379
-0.01350333420997218
-0.01202990737642677
0.02005453626373773
0.02145313363717318
-0.002553892461551532
0.01117209945910379
0.01362444187856607
-0.009910730899419426
-0.00301457197005523
0.01808093500172701
0.006995267936153365
0.006344078465829634
0.02663768889903501
0.002748116455365393
0.01521445533343735
-0.024908379521309
-0.03912217522144133
-0.02815479833396381
-0.02008103418502483
-0.02014617364893976
0.01598059797022795
0.01492069725735693
0.009997008147855247
0.02305806142082426
-0.01307239215341091
-0.007362292724362065
0.007341126411007677
0.01019218220780712
0.01491251840026667
0.02122066275030662
-0.0116805251216905
-0.02636779212823144
-0.01848480210523641
-0.01433360169330414
0.02409072879139287
0.004174448739295121
-0.02532615136612533
0.002259776673001492
0.02004295616739295
0.01082747765916191
0.009844279951647772
0.007252240552410646
-0.0188238342676928
0.005787966376318968
-0.01059310657375938
-0.01540662367584286
0.006563132526568923
-0.01784550891193774
-0.01987802787545104
0.01808529714902033
-0.001217741799169304
-0.02412484960599576
0.000625237054108964
-0.0080204178287442
0.01905998000162848
0.01688082074826485
0.01157277668860168
0.004862905002772763
0.0137156636302905
-0.002388224108959044
0.006130021854786976
0.02857295348846973
-0.0004108170648054606
0.01317225931697092
-0.006027170463731195
-0.005329608999102165
-0.005600317283257013
-0.009623712051614086
-0.01510494325134016
-0.01757260098904339
0.01876726877432906
0.02700180060782364
0.001627548844150085
-0.01383073859547742
0.00398911888334593
0.02465434948009638
-0.008443097383578931
-0.01688928041408281
-0.01152142150105361
0.0004153369464325087
-0.02162053121836846
0.006223800196270269
0.001847624238912676
0.004583605366623617
0.01713111084463481
-0.00240057138751998
-0.004829255652038746
0.002352701019850057
-0.01251490263791854
-0.01396794673264731
-0.01888259336424004
0.005348862170946548
-0.01603307360993837
0.01192335667151593
-0.01382515573775627
0.004510562320307466
-0.01441512758053788
0.001762591055335362
0.01696199213999369
-0.006504970489136524
0.01695686689961918
0.01047079529525287
-0.00559597328369351
0.0007558954500288675
-0.02127210352932386
0.01925298358841133
0.002158162861569047
-0.006949432814886128
-0.01225164975160676
0.02204692408050537
0.03743144755960625
-0.01258266639991286
-0.005294466985891393
-0.001531130840044886
0.02479689634320274
-0.01138989233206924
0.01654995305234228
-0.002148507871006834
0.02508887116394611
-0.02246229476097029
0.009855931444390911
-0.02814509937850797
0.004094178980437902
-0.02550277036166779
0.009253912323601659
0.01669511246932489
0.0004446529391228361
0.01907223114887233
0.002346001990972497
-0.006866685703153044
-0.01281205173274254
-0.01387197292106018
-0.01888726603439892
0.007904905043986516
0.01652612352180296
-0.01506041113973071
-0.002877009698832346
-0.007418851238174493
0.00621154501067215
0.01515972298423726
-0.01756099209861869
0.002469844642555058
-0.02153880805827194
0.002208184081889591
0.0248292587663514
-0.02253239951623966
0.01839680544167856
0.02133705845042949
0.002869588732093353
0.01572022139188244
0.02421413133715934
-0.00850456066708441
0.0198394907847682
0.007943107599702315
-0.007177056134642438
0.00604629723749091
0.007324085462122053
0.02079145281282037
-0.0009842285133648107
-0.01351819698339108
-0.009905456911947207
0.01388688425521423
0.003075777463063989
-0.001095816038810289
-0.002410439117124149
-0.003467381599153766
0.01476504652000108
-0.02247842552095739
0.01732017741084276
-0.01002852760148614
0.02103752780792839
0.01383812599332044
0.01714578209810428
0.02181673960564365
-0.002692344119346305
0.01397129960375391
0.02164922707371352
-0.00849708079145662
0.01366828242102863
0.001508894946725157
-0.01750749933902384
0.01300062887353663
0.02371882512920856
-0.020140811493179
-0.005270013357799593
-0.01230002184162281
0.007655531389644023
-0.01700776024653836
-0.01845421224442892
-0.009264490864535929
-0.02167078462346156
-0.004058405929590456
0.02270919867815305
0.01477329665309414
0.02658065248704061
-0.003888375452920034
-0.006663784051558233
0.004430933090977923
-0.00139902693459414
-0.01500603204615971
0.02299979305297284
-0.004960437795007504
-0.02289802790821223
0.007326756058835383
-0.01239010711378314
0.00110949562932923
0.006628189919694586
-0.009689616624152499
0.01531572263529478
-0.008261937865960958
0.02609942920654626
-0.02705969957496084
-0.02195377881360592
0.0103687532392796
-0.02022537536686562
-0.002390628750910212
0.02203233884834522
0.0121585361934868
0.00272212673882483
-0.0223465055748456
0.02064496347058004
0.01708145440918767
-0.003362046210086974
0.02028315718094714
0.007321565075529659
-0.003656690575708276
-0.01083879961424785
0.0180624375105501
0.0248464474576833
0.01326398336832544
0.02485122743661861
0.01725567360025114
-0.02155005869837308
0.0234977708843069
0.004919430563651302
-0.006820277952550663
-0.003618552377032671
-0.01685160913125534
0.009805315146461813
-0.008880719101363288
0.0009829358378789859
-0.007540516707517239
-0.01295322070344121
0.006281753943689294
-0.02375917671134316
-0.01221500148807537
0.02602177046371867
-0.02115422249983872
-0.01585820916422174
0.0004448804058424025
-0.02426024419676323
-0.01734539097068257
-0.01150579276882232
0.006878371396876293
0.0260156319574085
0.02549819966634316
0.02357240403140721
-0.01176632619525797
0.02205858748374328
0.02718342785024521
0.03033483126658372
0.01262863808106625
0.02139584868679586
-0.02394879946759495
0.02478258818472643
-0.007688863583664913
-0.002484885130214862
-0.01116429033365604
0.00217383973484342
-0.02125345777574245
-0.0009941874547268604
0.02876252264148179
-0.002212731820586953
0.02394823331934625
0.001457184337321931
0.001552968147465692
-0.009313149137704589
0.000400946342952716
0.003765515415431915
-0.004007812545881594
0.02205126803958815
0.004932387823800912
0.002536447409516179
-0.02416954947924898
-0.01981399284402732
0.002206363487915709
-0.008779873776517724
-0.01715335065067529
0.009253679057583036
-0.01995075496274327
-0.01411559876144164
-4.761754920458998e-05
0.01637427377128923
0.02798512137303137
0.009794913056447146
0.007591233055125421
-0.01127804797172241
-0.01840855928784064
0.02595462810445363
0.01806864413883905
-0.01494073073976745
0.001381531896383483
0.01966350476454261
0.003530705469899486
-0.005837583553253272
-0.00743990739049324
-0.02094949571398195
-6.174569845231623e-05
0.01169283691870552
0.008885335326305538
-0.0348606167672492
0.007187982114987552
-0.01148317721248886
-0.0003636403391793631
0.024791964777579
0.001837368842828134
0.01996195194271317
-0.01541290113674829
0.009440180244947244
0.004243595552731705
-0.01261373547648547
0.01493485461338631
-0.01263557070608819
-0.0177026917923643
0.01354755720471311
0.02352940682562462
0.01697602532862441
-0.01762345281806593
-0.01834831547851268
0.01530104445160854
-0.02231421507661005
-0.008446473025475996
-0.008503073822720393
0.02171716148632286
0.02428106362600706
0.01044465839668213
-0.01029539323379796
-0.01566865266268598
-0.004484357245572175
-0.01589112180093987
0.03624309203554209
-0.009075043178652578
0.01604850417048506
-0.00564686957898842
0.01952651160971896
0.02251718480626177
0.01658820274517326
0.01452767738820784
-0.01655938009373369
0.009435310821076832
-0.005551099079704431
-0.004599368423588989
-0.004664541887605979
0.005872195462804447
0.003064959615697129
-0.01822415873918723
0.001256449405212602
-0.01672627859122904
-0.01153411098862349
0.0142798663793286
-0.02566681185004867
-0.01944268615721267
-0.0238984137534831
-0.004395103548254503
-0.01291746306275423
-0.02408320460495091
-0.01883593349625562
0.00190377694798801
-0.01482383982662074
-0.001241126377318462
0.006743468265457807
-0.01805306654712486
0.01670208924762019
-0.000508717023822524
-0.00254356029499968
0.008967583503571262
-0.007795036042177247
-0.01149032685389545
-0.002234188621551549
-0.005647223386785441
0.01473341362057383
0.01580588965940072
0.008568255259011576
-0.0184053761286505
-0.004083373146443376
-0.01961921135321886
-0.01258049944917922
0.02439406500865899
-0.004393650140088542
0.0006441574584313012
0.0008518873640640099
-0.0103423811814585
0.0160539925411618
0.01363827656331201
0.02051940570681159
-0.0276198965380708
0.00389697450409528
-0.02446893723624599
0.00569450645740912
0.02334723711436909
-0.004575909139061713
-0.01505716945590578
-0.01783506973634489
-0.007009778080170253
0.009499158514777169
-0.005091182466014517
0.02168846733850195
-0.018217982805796
0.01913067545563965
0.0002674895417423043
-0.01282662532322459
0.009165822296348516
-0.003772898763763897
-0.02100282708862778
0.006098309309832974
0.01566093539028857
-0.01565089110631253
0.02198959973542629
0.01575381449589708
-0.01293522631763848
0.005363708761164545
-0.02077445903206564
-0.03282252687599572
-0.002914579767251237
-0.02765765070179457
0.03849414850488239
-0.03442983346497785
0.008308091586539786
0.01588910673475369
-0.0002993931909424435
0.008039458125818705
-0.0100620025159058
0.009792543202325941
0.008932308358000567
-0.008018949145330884
-0.01173066221996365
-0.01165269089709906
0.00697363805824711
0.001158368585303923
-0.01374249781531942
-0.01633212035637614
-0.03109687179281466
0.003019065870630448
0.0003326476829164827
-0.0191284467975672
-0.003465513919692583
-0.03661823409328981
-0.03910079393069624
-0.03352936068213791
0.009877706891491632
0.003102853098053316
0.0184728933286892
-0.02581814039126161
0.01508822523637701
-0.01341536988395904
-0.003355058939273406
0.05007954364183287
0.01156900211395546
0.03462514143015955
0.03060514397818701
0.02858123147484978
0.05598211404367844
-0.0025435960587287
-0.01530550579094042
0.003479796071401924
-0.02265041859083197
0.01870886642166316
0.02149617865885155
0.01429526875234829
0.002259713639285229
-0.01974384167984774
0.0240607534535017
0.005805857316844251
0.01817394021987588
-0.003022940816757036
0.01307519939185562
-0.006662859763964569
0.003955838114481279
-0.0213859931124947
0.01674103267083617
-0.007308146625540799
0.02331803941680725
0.01390389591525657
-0.0006783242613304488
0.02036750490850885
0.02118704596842824
0.008598836460845175
0.01494550712830822
-0.007087196316359276
0.01250896172917391
0.01577871895210505
0.001453684367927227
0.007421533015076522
0.02223527253700766
0.01986829094116233
0.03183336409778706
0.04257276210749923
0.02134601748887099
0.01835556331167714
0.01976078393125468
0.0008524391783294723
0.03454693269098364
0.02560555290292051
0.01538529944604801
0.02256565849724085
-0.01500690502517905
0.003563961880558927
-0.01510965100792381
0.01238804275755043
0.004659978524850299
-0.03445561761473456
-0.02292297687333437
0.003584006073450995
0.01743056285929108
0.0007867393201239369
0.006923385500364211
0.01327058153137513
-0.009464134646952988
-0.005885213544991295
-0.01820110723507708
0.02927405014462126
0.03348795933978379
0.02036767675516781
-0.004073513890788096
0.01886691150944849
0.01065785457229616
-0.003566576119540138
0.02769143627349801
-0.01355124701727987
-0.01817109990625277
0.01532710834409487
-0.009314775391279801
-0.01321683578619985
-0.008999039526656699
-0.01562927683861645
-0.02398268652477905
-0.004318137340449849
0.01374436164481225
-0.01430968564411643
0.002323022800633701
-0.008859469183308415
-0.03130714134571842
0.01018210746766387
0.03545311122255998
-0.02439431099947514
-0.03816602346963651
-0.02356336529460331
0.005157195754605355
-0.01603979439815532
0.02697241601410449
-0.02011932799589584
-0.03951442214753891
0.001847037318529752
-0.004657933459625613
0.01265651664878813
0.007944611855254914
-0.01609882528099377
-0.007365691885395772
-0.01935725807228089
0.004664944177420602
-0.02485886471640169
-0.02993728034214622
0.008210332731627848
-0.02462215806378294
0.0001988889231316992
0.01696884356879629
-0.01589632573997695
0.03292778400157542
0.01881554562187203
0.001447516860506581
-0.007740606198250073
-0.03172760063876767
0.003168705944795779
-0.019978730684392
-0.02465481060628348
0.009803390271086581
-7.386094361504615e-05
-0.006363347145883109
-0.003109459124749582
0.01738369230388808
-0.0155525101857813
0.01011775914040752
-0.02773829249790839
-0.04030538508006105
0.01135022672163271
0.01993438572891366
0.005604238164542821
0.01588638841599579
0.01277288744367326
-0.01472195452480224
-0.01083207724632438
-0.0003383498220942285
-0.02561314978635439
0.06032492865304413
0.006232375320647984
0.006435335650046764
0.02523118251627949
-0.03764514829060151
0.0005047948544227165
-0.01023565828675064
0.006005281211940022
0.007421284890086958
-0.0084373221477294
-0.02226781843569072
-0.01846779959885118
0.001796684787653033
-0.01738728655076244
-0.03116969637165422
-0.02680384427809937
0.009897056555027522
-0.02023744887325386
-0.01584877352608307
-0.003051392323842429
-0.008673572510775414
-0.003074713800834815
-0.01551477423310963
-0.02221766050121422
-0.01910517456070169
-0.01402278450062156
0.007346362079348144
-0.02404884672712112
-0.02340698261533294
-0.01615684848566086
-0.01200618014267294
-0.02904113703331123
-0.02393405155454814
-0.02919619970189991
-0.03713430981796673
-0.02303594402359451
0.0008957662765080281
-0.003715994580968459
0.01062485813459929
0.001138618898960056
-0.02781562774092298
-0.005798375998395503
-0.009913070578216812
0.01915143646725417
-0.00969442333361248
-0.01187090676652037
0.01892599653259058
-0.02068156411521934
-0.001952079029879376
0.01493230772500062
-0.007925729796924534
0.008122584962610159
0.004060732220221246
-0.02765975493956922
-0.002297844925551746
0.04014723526803302
-0.02743493231807661
-0.01105371769799383
-0.03099197380062543
-0.0260208174011932
0.007817738817492641
6.586168676580297e-05
-0.006156403069457183
-0.0265665345307447
0.003413946994077459
-0.02908592587975071
0.00790906051148263
-0.006644511249951151
0.02709721401000906
-0.01913554538381204
0.02382047080873346
-0.01136384400114286
-0.01126182876990407
-0.02997685977873358
0.01441124917070162
0.02877897254255427
-0.004836972878589295
0.00455964058149319
-0.005543416694657298
-0.009834304054599325
-0.03083779586970382
-0.001328100278022288
-0.003234920946019593
0.001298048404333737
-0.0199375622399948
-0.02451027086837186
0.02100699951134729
0.01247553852957838
-0.0238733367435884
0.00833599069615544
0.002429438496452066
0.0359990744424422
0.006662799254031951
-0.004610927249555752
-0.0284663526822205
-0.0331030632840366
0.002777095366325849
-0.005652454991951386
-3.102587167091382e-05
-0.009331234174817189
0.02545618284389176
-0.01149741237171858
-0.009394269320756581
0.00423483453734004
-0.01487691483968034
-0.01271014492437777
-0.02497725575323657
-0.03899321482851837
-0.01568676416015412
-0.04501370065434546
-0.007216398049973564
-0.02409809534459325
0.002373410960979838
-0.007272747730439887
-0.02658190425496304
-0.02252332008543605
0.02010196164648355
0.02598654083947427
0.008472381249021969
0.02375894291676577
0.02032288466368277
-0.01500425464823856
0.03243595537398315
-0.01878128429510297
-0.0125488058843234
0.04387401235235363
-0.01411925715092657
-0.01148466380914418
0.01046228573860261
0.02332354201413684
0.0002751829459813373
-0.03810456044016454
0.009223689110833152
-0.01352584413499586
0.02490436778015088
-0.01089526158791907
-0.003176951786518029
0.005923002705973713
-0.02620057689013154
-0.03525336615249101
-0.01305870368628067
0.01401976239208538
-0.007657346588809166
-0.05681419796467346
-0.005724145972651965
0.005092659514854391
-0.01905797466265157
-0.01288504827534779
0.01183954361150756
0.01126887640249401
-0.006035566520760672
-0.009835408759936506
-0.01854569814900967
-0.02196562435181438
0.009977907065481762
0.02225569054732445
0.01787512688482485
0.01820674797461728
-0.0309113772362276
-0.01467681503315081
0.03662775232778393
0.005613142983159156
-0.0060587893918302
-0.009369993055141693
-0.02992558725347598
-0.009439185095935939
0.009063722329236756
0.02588722334864025
0.004651348639253186
-0.001232021901730275
-0.01827960231019023
-0.0131468356713287
0.01595459053782079
0.003598669927600704
-0.01122650067732021
-0.01439372562373961
-0.01374973557839252
-0.005920956978794993
-0.0009863933423877006
0.01489424124195046
-0.01891698150636003
0.007825077260424394
-0.01739426022676262
-0.01022753324115654
0.009616743100264747
0.01206427049479518
-0.01942946807048401
0.007842675286722247
0.01111680373611753
-0.01799314066163441
-0.02464952372595311
0.008370669040938977
0.02021196890338864
-0.005919977934266259
-0.01774747022772796
-0.02355134747298177
0.008742343986268827
0.0129567889555986
-0.01837712667213459
0.01068015305545093
-0.004656555245717725
-0.01957115693194866
0.005980737214160915
-0.00452312752788968
0.00748294623440017
0.02763630088834412
0.007708082332564323
0.01882437758467663
-0.006989395648599762
-0.01465841085249702
0.01162071134438849
-0.005373389645911946
0.01433517018197551
0.01849652926515041
0.004981325261713051
-0.006322106246548753
0.004377323687328153
0.01736529232426386
-0.02374172666782365
-0.01745267052920646
-0.02567134433483748
-0.02360226982231235
0.01622316483859669
0.01648556046762453
-0.004693847349213383
-0.01502220730030271
0.04436584214000073
-0.01072663043277342
0.03507389526177227
0.06780933332584428
0.0160140676864589
0.01812562839371657
-0.01495407720853124
0.01062595531221045
0.0640543492863174
0.0277398625122859
0.005546051340550659
0.01714933455464969
0.00324762616395817
0.03849437860949104
0.02393300509878383
0.01061016464245908
-0.03240198380682847
-0.036784880091122
0.008028261260407062
0.02687459940836947
-0.02852483067711361
0.02038073595029374
0.01465387869657588
-0.02073169146551754
-0.01417945222014225
0.01584841653400228
-0.01012387704869822
-0.01709540624975012
0.01132646023413401
0.003868607983401364
-0.008909581762239837
0.01211514194705269
-0.02242375509511552
-0.0174460387226371
0.001353071352085176
0.008580067349345308
0.01664597769330433
0.01542641769131946
-0.02589342027966344
0.0116777842858012
0.003242137918844041
0.002595095531271672
-0.003388018074613652
-0.009855036731946296
-0.01367219748245212
-0.01691022568454576
0.00890189688991261
0.01563757580750753
0.02139448133397859
0.01835588931718021
-0.01051827069369937
0.01231920440918034
0.01912158754291639
-0.02321650829942809
0.02737572769776127
-0.024369663382377
-0.02209623952962669
-0.01513874724960112
-0.02896004238338589
-0.0282926530538242
0.0170665830327232
0.007087457558344772
0.01648256754287519
-0.03557800172571622
0.01530662176862027
0.007598615579582082
0.01156985059644662
0.02127113983977443
-0.01803501213290456
0.03093231642897529
-0.00316090261534199
0.01586099561752735
-0.00555511032297749
-0.04688739398461813
-0.01110854422158717
0.02061248365416809
-0.004917576071325844
0.0143256421463575
-0.03082475719263246
0.03720934721676177
0.01510691464157953
0.01895363024057273
0.01702130556782369
0.01266845577486158
0.03023220820110518
0.006836794419745999
0.02708288033844575
0.01384489036310487
0.002492460141202637
0.002551849088925665
0.01070820481249568
0.03823467827263201
0.01230366486607015
-0.04422107953611634
0.02731192486988807
0.003947499163801305
0.004313159658795545
0.007412014271940368
-0.02576618125876984
0.01005608989805944
0.009939917752689818
0.009894462293135189
0.02383625487881878
-0.01629339632442553
0.008497631659810578
-0.005558620728129494
-0.0008490618749216859
-0.03054828128481753
-0.004476898424972517
0.03532203745560744
-0.02385963002670973
-0.0266640469243651
-0.01175098740355125
0.02560897477632527
0.03631067323644722
-0.008767231917984107
-0.005242011303073668
0.01862564562540606
0.003929959827867858
0.006208560556692532
0.01996505672554842
0.01709802345592274
-0.01197582272986532
0.002418644587620682
0.018359550115506
-0.01767913333816074
-0.01941488707815677
0.0005627342321372382
0.01661299650351613
-0.006052833574413424
-0.000313801163822906
-0.004442532890683022
-0.01551306261772868
-0.0001872763914320097
-0.003980705957942598
0.02416328878230404
0.01403950309650759
-0.01829808837228053
-0.02530109307047756
-0.02499713705337734
0.02480441100520641
-0.02289996684595585
-0.01191356281339315
-0.002323752490649996
0.01500337615323793
-0.01158269318843552
-0.001908746529173621
-0.00547736849160243
-0.01681632568313119
-0.00346906765096934
0.01737097572679578
0.02101374684652932
-0.003196774708296715
0.01860434791807585
-0.02000549215357954
-0.005877280010829204
-0.03340600723895146
0.01661614488385753
0.00579177475395129
0.00138937351917783
-0.01856456712508115
-0.01248877512904863
-0.01462325404831786
0.0004743956103472931
0.008188522770368117
0.011663032320705
-0.02315059871148632
0.01140207498506877
0.03320773838943946
-0.02035623838873959
0.005849785969785354
0.01749889096786553
-0.01038413035099715
0.01375606946217711
-0.0101780433868007
-0.02258265002896355
-0.02125434861899468
-0.01009135577889352
-0.006353170873374914
-0.02083483335933389
0.01287293105832497
-0.02209661546606525
-0.01575651603872513
-0.01568826850849852
-0.03010458002522225
0.008716527656410263
0.001019874613534598
-0.01989329401968051
-0.007468816153291437
-0.01744536826857853
0.02467867045438037
-0.001525250441055604
0.005470826193026853
-0.0117341528058107
0.0001123521112006492
0.00023550072016588
0.001449240100036523
0.05346333320541868
0.00411264380218533
0.02789067410708116
-0.010935142470078
-0.00326901106644807
0.03049527323649493
-0.01375405487169193
0.008271607079055748
-0.02402185667046914
-0.006744811190601692
-0.003942996626937536
-0.02594949949466837
0.03323789903740419
0.002917622008371731
-0.01877807512931474
0.0131355572330181
0.007167690215898247
-0.002014422343337788
0.02251679634815412
0.00935991019075836
-0.0306827700323137
-0.04858237689835627
-0.02033728004015799
-0.00857700550170847
-0.0247254243789745
-0.00271055176633755
0.01907288408371879
-0.004150706970867249
-0.008582801074510349
-0.01691340019034693
0.002710775793238305
-0.02366369455911351
-0.0143026772700456
-0.0008895441125256997
-0.02102088919675222
0.02437300615131115
-0.01086682182965219
0.002214234898789824
-0.01215109078109146
-0.004275956562227892
-0.02041531216021444
0.01667564635087619
-0.02279128435166532
-0.02602803294525177
0.002446685553550093
-0.009484492325409925
0.02364089791590653
0.008411164536590446
0.01684775860854567
0.0219768193101621
-0.01758983197290203
0.02033897065730553
-0.02761633407897017
-0.01339702359372315
-0.007872276542992478
-0.02028538251752262
0.004658622851083423
-0.01853082302008813
0.00219238188067059
0.01305053811493874
-0.0003097391518299299
-0.02378796279353497
0.014603483974694
0.008682133122189191
-0.001713243652615713
-0.01375862773543572
0.03204751757130203
0.01613473837069785
0.007259888225641658
-0.02506687719147235
-0.003377221413998433
0.005134172743498389
0.02238079152137332
-0.001039425644385684
0.01203696748184157
0.001305751760897176
0.01919314159156352
0.01168911360743124
-0.0210233027317843
0.01438885404254403
0.01114440801643084
-0.01142553228976205
0.01181557542880559
0.01417285556679863
-0.0005129558511305076
-0.02379074964403926
0.02110616907757256
-0.01648406937893461
-0.01260114468249285
-0.001622665260108979
0.02467072207287329
0.01501163592933009
0.0005605042676600459
0.01826642276783682
0.007052034414152232
-0.02320411111216543
0.02092933391532262
-0.007627319985726898
0.02051931012450392
0.00264226266252647
-0.006565736664795646
-0.007050694533623448
-0.008917058882290682
-0.01180425004071274
0.01706415874231143
-0.02299278374990773
0.01672329317056979
0.01631324678491642
0.01348689145235477
0.01807233565332928
0.003254603179524546
0.001267717664983763
-0.01505870613350115
-0.01244003390525219
-0.009377657572717453
0.005509694816614934
-0.01187152637068333
-0.0157137817011549
0.01466856504366813
0.001003044988718915
0.00709383324092503
0.01494361039027192
-0.009155881168433633
-0.01597944871422864
0.007476953788931955
0.02311610670012857
-0.01408679524321628
0.002534031780161406
-0.009240194338926297
-0.01919163055668419
-0.01853411299661743
0.01156625156670316
-0.001250520158721676
-0.001038147105431254
0.02080552558278105
-0.006401098072958855
-0.0004267989358019408
0.01184187646355527
-0.02193311436318949
-0.01339065554006444
0.00511308133260992
0.002415033852017043
0.0109512933255218
0.01054539023611045
0.01673597626010798
-0.02496458528321582
-0.007797729784194972
-0.01899190397020209
-0.01392804920945475
-0.02199103489161337
0.005046837458522362
0.00982437997495794
0.01990900026771291
0.03991298938060796
-0.02923571324011452
0.00741585482423782
0.01621406255052184
-0.00821768824708306
-0.009162674315197357
-0.01199458093019812
0.003568362238390449
-0.01178152508758653
0.02164047088143936
0.0166594661570146
0.009943726882080881
0.02173588507212099
-0.01713868902029303
-0.01786063471798159
0.003283436107824489
-0.01646953947864538
-0.006857927357931959
-0.01814682474430648
0.0331585522276678
-0.02256463667034542
0.02053318828864893
0.01023725957447642
-0.01286921135151752
-0.00920218184161236
0.01814065476867193
0.004849250935994033
-0.001411247051694613
-0.001348468617011777
-0.006224462319717874
-0.007148047624342876
-0.002586956989166856
-0.004255531203572803
0.02204749433698271
-0.00309955133649596
0.0136724282327899
-0.02396081207558022
0.009690258050625927
-0.0177075826855237
-0.009169165494317367
0.0004041344049062356
-0.02633986908879383
-0.01822182246507846
0.004348758105783881
-0.01452181759431873
-0.01763862641759382
-0.01599543629725271
0.003872647402175714
0.01337354558065488
-0.01379393018362886
-0.004060025825656775
-0.02460734800181485
-0.01462619588672934
-0.01476380040260976
-0.0154577993170505
0.0074946336808688
-0.02414940883519068
0.01438011737282249
0.02044549473524864
2.007069015981547e-05
-0.02530335954064031
-0.01538928172565443
-0.02316428836599988
0.002425727010724547
-0.013053901590516
-0.005729535376223549
-0.01322005182974659
-0.01173504189523802
-0.02019801524742615
-0.00233250309937131
0.01079960539908672
0.01364625926333169
-0.001942610332436186
0.01670502473296256
-0.0117490892545623
0.003184360704167203
-0.00917058943355001
-0.001183927519287296
-0.006600110237994699
-0.02641086724096574
0.01530884715468892
0.01764375182316371
-0.02273714599158031
-0.01929703314942631
-0.02358971544754038
-0.008998138047866356
0.006333749935810042
-0.02242294664644008
-0.02419705590667868
0.006689278489510442
0.006716512539677296
-0.01939508446152638
-0.02723846322971024
0.01250825902137024
0.007826387819177546
-0.01579469016923772
-0.01881258401102584
-0.02928441222106428
0.004826929876107179
-0.02202155052750928
-0.001281382815221435
-0.002837588065944475
0.02102708731627136
-0.02504243350358983
-0.01993269444409869
-0.01142002680957236
0.01588253090167577
-0.0075853327807256
0.01104878969773759
-0.01497864974175486
-0.006417907024726563
0.007385512718436778
-0.02078964625638168
-0.00474361335222911
0.01428807491860163
-0.01495631659208096
0.01193208832252504
0.00311335629147057
-0.009394394803228796
0.009126983685278209
-0.006973535383948557
0.02050069282373835
-0.02413028606284864
-0.01656351770137121
0.002755407925965325
0.02109807466545413
0.003346826851229657
0.007201573495034124
0.0114086970746026
-0.01408029507038247
0.01279463878380139
-0.009676399967881787
0.001951412471015053
0.01339082686125991
-0.01357695686469128
0.007947877784718255
-0.0142045464972795
-0.01220979362602694
-0.01981696241179482
0.0227300060368291
-0.00670226595182025
0.003386130826237576
0.009565119542409311
7.054615246865893e-05
-0.02328428322109669
0.001228505485509846
0.01413882343778515
0.01495204553855611
-0.01768604068002219
-0.02987079377749055
0.01858473592271811
0.002948309813092771
0.02154802378840701
0.00876099816741888
0.01244736595709189
-0.0008995954131577827
-0.001646908055777045
-0.007455094898067576
-0.02024313673916255
-0.01254839169785775
0.003664494745039401
0.01912674280344979
0.003346996160004893
-0.01981366897413455
0.0108780415797057
0.01945718191639951
0.01847502826877238
0.02004122046697704
-0.02087347301445252
-0.02294514991178856
0.01764023464156318
-0.002836373203545717
0.008621443321394391
0.005431593686243256
0.01425950328029583
0.02775618732007737
-0.01809451807751794
0.007335787380829935
0.007733141786355691
-0.008712413177673191
0.02146052510879434
-0.02075229002250887
0.01680800258195304
0.01166515692787894
-0.02139155067608308
-0.002715510952615447
-0.01941000269398852
0.01447813409982194
-0.02907197437427017
-0.008859532364953834
0.02662428704861065
0.003218560462670425
-0.00477909508608496
0.002071307925781789
0.02544602553050649
-0.009609806362129677
-0.0008293570406942549
0.01292772972612435
-0.0123580943695038
-0.004167446746863502
0.0252203324919111
-0.016889077705804
0.02387016286809213
0.0008424299056228322
0.014923303929191
0.03566280345162464
-0.01181195821942788
0.0241455907720395
0.01111576266919292
0.02036140314525611
-0.007043673931584026
0.0003582663903802942
-0.0109065858845967
-0.0135329895690369
-0.0077414291243963
0.001185719229502837
0.0205933514523217
0.005941164919652949
-0.02015422807820896
-0.02054874525667996
-0.01465454414245683
-0.02051687050744472
0.01078868102834138
0.00467451478426765
0.008716257586454638
0.003497818929736584
0.01876407076851076
-0.01683565487261572
-0.008254028416494417
-0.01965440226054112
0.01016300920079959
-0.01638851064007502
-0.01130799156246684
0.009818272814142793
0.009499192031944466
-0.02157243990687753
0.009315627978441845
0.02323591549019067
-0.02145983942446486
-0.004023716582446599
0.01894205927096727
-0.00236538875151072
0.02240687162218868
-0.01655706568197359
0.009963672837196321
-0.01222811331245275
0.004860485915232205
0.00618067390886995
0.01944187838597019
0.005023417718441028
0.008051957434741321
-0.02528618798503129
0.01402004838405989
-0.006908521333051423
0.002918315595986988
0.002104313301934572
0.02185972515096347
-0.003710849957512856
0.00651616366043503
-0.01037074482141907
0.006097674026313118
-0.008508701109721125
-0.003757083366433941
0.01647485650547149
-0.02402654709076509
-0.0171160753306018
0.02093908875378914
0.008908411696924586
-0.02099518240700816
0.02501126566883046
-0.018534756250065
0.02321706512661592
-0.003834602266536262
-0.0176923145945273
-0.01443845734016012
-0.01438918043985775
-0.009951515054557852
0.008470810070551745
0.01324445465450272
-0.003991062937144676
-0.001120768772502368
-0.009486092318760291
-0.02121747513321967
-0.0136711213917227
0.02129271732712636
0.01507030665759342
0.01660704830070736
0.00885460472647737
-0.02193644569565567
-0.002623798275286176
0.02941682035487938
0.02294668161220883
0.005520402805878715
-0.01255607081212361
0.01084406643245384
0.0195204419123983
0.0002437714622163236
0.007380182024924286
-0.003701325379526194
0.005764454903552152
0.007215284796628415
0.003265318014149254
0.006576317457982009
-0.02184815455779207
0.007927994595925084
0.01211028344605422
-0.0146437213120139
-0.02441690904408623
-0.0006907635604743819
0.02449635589379269
-0.01326539804694112
0.02140269986109003
-0.005003526154826476
-0.002147575222220204
-0.01548936640402095
-0.01626040225183412
-0.01125100802970962
0.01993327287938631
0.01910657990489349
0.004624191051709573
-0.01417996687992676
0.01935734357399425
-0.005094438665473093
0.01945477427965762
-0.0180175636841402
-0.02163695063164737
0.006452894981019097
0.01442707536986098
0.01069895682064846
-0.02517180983314204
-0.009051821681295088
-0.003566677251877114
0.004496242484986994
-0.02832956726845698
-0.005195978995829957
-0.01430736219791024
0.01196929800133105
0.009051926951867904
-0.01448167468767999
-0.01527049143386344
0.004794861343271751
0.0007973964768491183
-0.01625771952849286
-0.02240395325857652
-0.02965775914516319
-0.007444630493221359
-0.008883660614323285
-0.01153517222773572
-0.01215597753566509
-0.01633003502198293
0.01594194029146854
0.001326016906303962
-0.02599843236189857
-0.01350568288270175
-0.006823107064306979
-0.006291015254927437
-0.003104699382560171
-0.02777608288762397
-0.02157833228411198
-0.01481429601516679
-0.02276561353250781
0.0005709547274476203
0.0130447089848152
0.02162407704937271
-0.01469699405540245
-0.007407979222788552
-0.01653382708545042
-0.006391363788579205
0.008616990531985513
-0.01487307365860967
0.01645484311527009
0.003172028895483548
0.01874506788926945
0.009941323668029895
0.006459029135959402
0.02189708653957224
-0.02044735093599322
0.02072075781909505
-0.01696389907066079
-0.01000497304776267
-0.0164383511338715
-0.02281839796400167
0.01377037100012664
-0.02196228970879495
-0.008800957177905834
-0.0090130538468288
-0.006753518241228293
0.01417194159513218
-0.01012596035373247
0.008680152774878934
-0.01336533725496136
-0.003831681469752906
0.02186726100243697
0.009501578837687919
-0.009091690000108189
0.0005570145062067806
0.02063202973125734
-0.01058658852914035
0.009070294555816679
0.01478623500626308
0.009467868976373629
-0.01430482096750925
-0.006427518855825256
0.005723616025612738
0.02168563348056387
-0.02163942034559963
0.002277332173232459
-0.02420449620789286
0.02483858353696895
0.01365253593880303
-0.005807057813884985
-0.02019812773901694
0.01689974995540458
-0.01519361970136243
-0.0143803417610701
-0.0137223078811559
-0.002475855544367101
0.003335233313369422
-0.02330156257232362
0.01357192701458854
0.02505102464559108
-0.02087710367322151
-0.01410225529766571
0.01663295249158484
0.01717012081965414
-0.003855777103731692
-0.01142348962632883
0.01614396550163834
0.008984271889452937
0.02266641872880538
8.084459614291627e-05
-0.006000830199286512
-0.01627783218809565
0.01969267959263639
0.02251967909151546
-0.02067888102405251
0.02672286757310116
-0.00176732268806715
-0.02077992979718562
0.03743063797264311
-0.01536426905166622
0.000246344816538911
-0.02602408505898555
-0.01547391346625612
0.01104425289946231
-0.01715043585724587
-0.007791141346292093
-0.01831404668067094
0.01627955813842594
-0.004681169481403386
0.02549598120888978
0.01659784042844862
-0.0009762850028190936
-0.01989669408405139
0.01220437843279572
-0.002652737330134374
0.0009899916527720549
-0.02462706296262367
-0.02003808050000778
-0.0133067594646837
0.02576324321287808
0.007742675488350046
0.004712220645692213
-0.01540027398940068
0.004497672317187911
0.00590552370704783
-0.009416104876364483
0.003473838635976135
-0.01811034821553555
-0.002735453943742789
0.007416814846955583
-0.005217728790669036
0.01792640707537112
0.004485980274858987
-0.007877087862438391
0.001443836868513606
0.02076545154103622
0.01799686620026626
0.01479424582693288
-0.002843124091547434
-0.008022781095310965
0.003530809596614643
-0.003947650512238785
0.01363709752773166
0.008396496019089279
-0.01527124739206139
-0.02602115122528994
-0.008711790645311177
-0.01309606460044469
-0.01917047298179458
0.005408214700303123
-0.01782308890503286
0.01797222027641535
-0.02087828782668968
-0.004481627606744502
0.007400176565734508
0.0120292590594142
0.01519022371994051
-0.02246174011330364
0.01781918127728855
-0.01387710925346937
0.004112565443172851
-0.009547615810534189
-0.01438544767710108
-0.01646396985430796
0.01874902981642878
0.01696188523899878
-0.02009707709123452
0.01516526904487727
0.005359184338063926
0.0176772692189224
-0.0202955315951338
-0.008316793688478248
-0.003337481469199924
0.01726740742393692
-0.01750368333046302
0.008534188538786635
0.02476323866733115
0.0003818623301817868
0.02448004917810036
-0.01416701831118669
-0.02508700971974651
-0.009714727000414619
-0.02031333986927749
-0.01451481133825455
0.01158212980798637
0.002833911766748531
0.0229882653888984
0.0009688047702168706
0.003441584958558797
0.01235171847157212
0.01164339419125914
-0.01412312065254379
-0.01999704311246563
0.02034337198664197
-0.007006796834513401
0.02522406563998387
0.0124757259347625
0.001360906469432577
0.0110850763957654
-0.004323458615459124
-0.006278261231436977
0.01966574842891918
0.01568121202410878
0.01610315319573611
0.01431864501054833
0.01969815868979629
-0.0008721741733000863
0.01026068429583701
-0.00466747148715224
-0.001776351834046586
0.02080745543749947
-0.002542731066707733
0.01133014267091991
-0.02446959210618399
0.007227141323211865
-0.002094265216395586
0.00400604751767302
0.004059654549599761
0.02346707267815501
-0.0151523296876029
-0.005754972378471855
0.01074492126260232
-0.004654090609205803
-0.000451762671720944
0.007609390610111288
0.01652320853340696
-0.001649565687688808
-0.003581956468350952
-0.006795121687693844
-0.01345476624583827
0.01716267020847454
0.01277445514556141
-0.02036045104659698
0.00553487281052427
0.001765967596221167
0.01492954152296318
0.0008101315497755985
-0.02333176312849371
0.0003450175633158284
0.02101341562186444
-0.0007301688234780985
-0.004100639578973333
-0.005679522323986753
-0.01408598184156199
-0.003290547302847322
-0.0241389765783095
0.008671347466638642
-0.02359147967442312
0.005121045343404437
0.007098827448009201
-0.0147385597730049
0.02390688848881454
-0.006735171780698407
0.005829674383497039
-0.001283726331299329
-0.02447209371434151
-0.002281366181735316
0.02227884964893741
-0.003276673121901857
0.01519386473822241
-0.01651915495402369
-0.01069549153036639
0.003117436181133125
-0.01260967367719404
0.01879086549713258
-0.02061651753633606
-0.02315214831210763
-0.004366098858319048
-0.01961503854657647
0.002754513582150106
-0.009070247902671698
0.004367875868113696
0.02398843915581568
0.009512246409069719
0.01571075982112451
-0.00538581715927113
0.01036353222007284
-0.0007345632972264051
-0.004947847028013409
-0.009431533768301513
-0.01931777002220271
0.005582286174052976
-0.01163547849029922
-0.001766355402949051
-0.0136114962417052
0.01079710954841293
-0.0007198457477126816
0.007156944204692418
0.006393905966830758
0.02130678163629949
-0.003954517852474138
0.01984498050067313
-0.01525351808066642
-0.02791514237147012
-0.01864523419658419
-0.02135758547990188
-0.01972448625478214
-0.01601850477987532
-0.004890999469551554
-0.01343332939872682
0.009637766514757859
0.01274899899815083
0.01644583952175395
0.007838578870439773
0.0002134584316362533
5.959488591879678e-05
-0.02261967987985248
-0.01696085268801165
-0.02230905818450718
-0.0003882585567994364
0.0004579735026198082
-0.01516747797502237
-0.02246585192231523
0.01242880747862287
0.009501958759671632
-0.01144339580740712
0.0004495178039080306
-0.01858777270122777
0.02139975498370809
-0.01435613356661252
-0.02496833573844222
-0.004811496010221983
-0.02029387605011283
-0.01371161828774708
-0.002996100223304731
-0.01837515676777897
-0.01079869198647856
0.002890084787323315
-0.008395996585570385
0.01420457262109574
0.007065695494715906
-0.02115904219616467
0.002762933068623546
0.003859700550256485
0.01230901768380955
-0.02135303790684611
-0.01669574159683799
0.0157241273627876
-0.01523794301855243
-0.01496085164370628
-0.009356546048648356
0.007603823705702736
-0.002765325417026863
-0.008327594288387747
-0.005474412595352795
-0.02003704088161871
0.005589986658125507
0.02203051976346373
-0.0148374281209724
0.003426295416923061
-0.01743107518762826
-0.01111744155393438
0.02527095103561326
-0.01439510014742943
0.003041964077424487
-0.003781137749066455
-0.004174652055010297
0.01426157796485944
0.02206798440277875
0.01025722126651574
0.004941593830084769
0.01013030368929358
0.01400275755375919
-0.01850180813147108
-0.01362335495464278
-0.0007505911808949529
-0.01680172026823841
-0.007198741481057424
-0.007379660984586941
-0.009611151625690015
0.00448451318665973
0.005890434800307193
0.02515707732199194
-0.02179527017085546
0.01711191821686275
-0.004065311155384555
-0.0175429920325464
0.003206176370335903
-0.005553483542867225
-0.01130431377866243
-0.01888885216536831
-0.0003362338922755218
0.007568963907463231
-0.01757294618546461
0.01140821198358868
-0.01595743653773812
0.001383971464356041
-0.01964263052627139
0.02625570091867218
-0.004256903058907534
0.02643531852790194
0.003093367827533015
-0.01894226930764381
0.01167216864034823
0.008804043129137093
-0.0005488951403088197
-0.01438254959080293
0.01532723082005323
0.01522118557831689
0.003463403610605671
-0.01502427434784137
-0.006338711743032024
-0.01743464419242546
-0.01528401088232839
-0.008606823498345333
-0.01973532402198379
0.003646070781796747
0.001921510944528929
0.006824749618886622
0.02046789295594106
0.02297757243407781
0.01449847307454849
-0.004783302175950997
0.001336797607068961
0.01944288858440131
-0.01867936326515458
0.01020573371906788
-0.00400275624329632
-0.01382447215564208
0.008245302493060921
0.01835681290755413
-0.01918204601116607
-0.01462862482093109
-0.02395148819793895
0.01351907979657706
0.01769089542871567
-0.004314791202576482
-0.0246125716969224
0.01191671537132279
-0.01732197379364053
0.001507947500989165
0.01954041246868054
0.0009898523051196789
0.01134437260773235
-0.02543530956757707
0.02869093351516556
0.01690094652377203
0.003786163919626504
0.0005228582295695262
-0.00250106816590471
0.007139347903905415
-0.004157767928027593
-0.01283282617172208
0.02376197140590047
0.02550013109050268
-0.01487117055305389
-0.01943290421003078
0.007830366507605595
0.005274464832560792
-0.003677214555207068
-0.008589100476868821
0.001028693458942289
-0.001498307874559342
0.003771717459123281
0.003161292097298635
-0.0114367452276983
-0.002009423205906772
0.0234697474348767
-0.01170562070747942
-0.01793573533837201
-0.01929270355843572
0.01472293500121724
-0.02228302268186039
0.00668329037815574
2.44018469626868e-05
-0.02293449862508997
0.001596971472871536
-0.00524622767811578
0.005180636320126331
-0.02051940325761348
0.01550945768805577
-0.01698019950470123
0.002711676880576075
-0.0238295924019561
-0.01668013540308181
-0.002123101624988911
-0.01160509621622365
-0.01018114971145759
-0.02010305452749109
0.02070503213879665
0.005812430384644962
-0.002182945930644818
-0.005511709603323848
-0.02025959840740741
-0.02448969000829887
0.02116135781952364
-0.008005888624317019
-0.003312758784798051
0.01881774570842976
0.004525906826721072
0.003536320366767945
-0.02476134768064887
-0.004253466161689388
0.0009119811473611049
0.007496828462126501
0.02169783773812792
0.006500527308323869
-0.01196355075647941
-0.01530326350592429
-0.0105888831264769
-0.008735657018444585
-0.01998752822100681
-0.0008860529178053573
0.0146861176826639
-0.01465270111127458
0.005583090058963206
-0.009127737429757169
-0.001780062260809009
0.02072103959444336
-0.002558513253710862
-0.007378413763989155
0.001991296853901599
0.02056306962465037
0.01236633821253561
0.006771364425843196
0.02083165934439011
0.009432178985713354
0.02415056249086813
-0.007391125365480446
0.004250116911113608
0.004240929232634794
0.0215430898414543
0.004976889906917276
0.02481860436079477
0.001120542496310571
-0.01179987599030144
0.02175611301032562
-0.01711467169918367
0.001157048538214956
-0.01431244565975528
-0.00275790133083356
0.01840855304716549
-0.009477825402445003
0.02187948952271248
0.01437173288917013
-0.0003662951721547281
0.003170033105203399
-0.02252398874733167
0.02363182272154149
-0.0005089080354624045
-0.001492141338040856
-0.009413608600384179
-0.02346768671215498
-0.006780323837811362
-0.0218449480960975
0.007856485882588044
-0.008993039571078748
0.01373439529364101
0.004505077730881181
0.008894907758217815
-0.007818246428119154
-0.01366926763864112
0.005132843759950399
0.01980688343666906
-0.01476312432936934
-0.01618388347289961
-0.01496068371025708
-0.01447697402745279
-0.01044191062470612
0.01042018954327804
-0.006444118728184719
0.01193287617086285
0.007290702191479283
0.01161838023925577
0.009760295892902207
-0.00890067079189551
-0.014735399041216
-0.01256130841950244
-0.004105279244204448
-0.0152589333768975
0.01019066695377868
0.01933607157659468
3.981400956588791e-05
0.01346577736658613
-0.01044851932651582
0.002066198539714362
-0.005695533809679226
0.004921949937645293
-0.01020365398036284
-0.02255995922544293
-0.01203469916680708
0.006821043773741291
-0.01197454785511646
0.0176650390720887
0.00370898161734438
-0.0007893529253535822
0.023997885194269
0.01370651909843665
0.007318331505907669
-0.01187444168035662
0.0007601198780826187
-0.02404081349663612
0.02441604021336816
-0.01917738830576943
0.01074395237607895
0.006428365980851326
-0.003479096375360121
0.0197159063467012
0.01911805618399434
0.01588997507153748
-0.02379862387777794
0.003544092459908623
0.008569401401319364
0.002170340933325176
-0.009420742962064198
0.02003950730295948
-0.0212697102064054
0.01175057881622006
0.003051969566594815
-0.003902388885886384
0.009849660234814072
0.01352224032985864
-0.02449398226445456
-0.02260737337663416
0.004648456143639466
0.005786447182681493
0.0009594596475304485
0.004070605311917283
-0.005255556091420299
-0.01863973392178156
0.02348406481749438
0.0203582318166232
-0.01919681612533291
0.01900106047409435
0.02720542908961712
0.01807854930012139
0.001683900775426798
-0.005494486818093949
0.01382884579863363
-0.004707982474903869
-0.01536728860952555
0.01560966069062792
0.02417923560409844
0.02040850839062916
-0.006919819256216574
-0.01191812769313909
0.01886538494882826
-0.005933243294034982
0.0226753941057613
-0.01135189427683917
0.01272473566772834
0.01385470713184427
-0.01981634651479557
0.01476181324913942
0.006503680067010316
0.01349667495924615
-0.004831641196391223
-0.01426472458479645
-0.0073364463637699
0.01201169846641786
-0.004857454783668795
-0.01100351072229574
0.006780032641327794
0.0003022727846712018
-0.01596275530032104
0.008808770394019843
-0.004838540868331327
0.01060978106077856
-0.02210332884580547
-0.01324842029778272
-0.02305374766545317
-0.0114083418229311
0.02672239789673544
-0.02405025546097036
-0.01088794355406882
-0.00833057262364063
-0.01211896163633964
-0.02076093806110546
0.013048549314756
-0.01042084711541656
-0.002881703621715768
0.0006731648030419904
-0.02500875205983231
-0.0001752766882472073
-0.005826459649867484
0.01026535134085843
-0.01121726802026654
0.01469091219105084
0.01718755300551324
0.01243810908165987
-0.005586795927685546
-0.0099207413363141
0.02253546543183787
-0.01631000646567837
0.01642423532211993
-0.02052432463183861
0.01593101733507976
-0.01374338399452394
0.01260084615049551
0.01968621931953458
-0.005418842743481709
0.01539789527311876
-0.01480182741950221
-0.006030982029745057
0.0166497321286184
-0.00395820239592467
0.01115062576348837
-0.01804555264854038
-0.001447837895068817
-0.0007023037555142379
-0.003995262753944219
0.01952684346706183
-0.02268956069086742
-0.004062838180787232
-0.003319341004756033
-0.00460413985058336
-0.01720415194577643
0.01309876296655465
-0.01546429462797563
-0.01748493951593179
-0.0008585006521944937
0.00971561822202059
-0.003170386648345484
-0.005626159146771853
0.02025861874137356
-0.01307083557709369
-0.001369692196984472
0.01158713357992261
-0.0008895547644797772
-0.01223930062669134
-4.622789334130383e-05
0.01830657262238535
-0.02424676866269709
0.01557146440561824
-0.01199609292710493
0.0143266442317865
-0.01389583264593025
0.02392569016488047
-0.02365994551355232
0.01161728835289264
-0.001848316887336464
-0.003571879637906662
0.003948543628549968
-0.0004204181622858148
0.01798963493403596
-0.02435114418408831
0.01960044246535795
-0.02461470750036441
0.01335747163405721
-0.02167209835084546
-0.01998995132457741
-0.01597957130009437
0.01289638847734374
0.000566218694200158
0.003174835594349895
0.006476139391337877
0.01126017990548742
-0.02331496939276833
-0.008628385114531907
-0.0160222357192984
-0.01237485173942323
0.02044789195525662
-0.02357203486973196
-0.01073299327538418
0.01045397347377177
-0.01224711779059825
-0.01778909879938965
0.02120347599953994
-0.01474152149774223
-0.01129501510583173
0.002823514828013119
0.006895027816929402
0.005225069502271027
-0.01351467545005922
-0.0163806003862708
-0.0048550772509836
-0.01449979465798809
-0.02357764156793271
-0.001291668934639706
0.02002220259271961
-0.01446945287018296
0.003718490709756826
-0.01890006215618949
0.01743931086103134
-0.02252580836155793
0.01791814348750981
0.0003127112367076494
0.01452354581394151
0.007683347857884328
0.01739618494583852
-0.02230801416848067
-0.02430466850951212
-0.01423760882934792
-0.01956552317828507
-0.008944253597691628
0.01294469391433116
-0.01228569763182333
-0.02248200374292892
-0.01479277308675161
0.01297184955947281
0.0100047089778843
0.01901627812315235
-0.02183400751363499
-0.02789696319974526
-0.002194733294443233
-0.009351333529661379
0.01051940892912897
0.009193710969772804
-0.007337905380501933
-0.007474519990780949
-0.009901332205083777
-0.0002468440768518759
0.03053831496979863
0.0244507757823091
-0.008637544264641559
0.005280594011139329
-0.01843534801569165
-0.00193287974432743
0.01880453068499516
0.01690199295337636
0.01396675837441307
0.0229196930115528
0.009438397004380131
-0.003251424020999759
0.01156677445399118
0.007533931022155721
0.0176714811799794
0.02463416762985005
0.01347423796045596
-0.01923945628279948
0.009176531553981453
-0.02834084968638959
-0.02291682563350291
-0.008893178782119609
-0.002762095078211516
-0.02181460158832629
0.02477465585039726
-0.04447449105623979
-0.04181992629990748
-0.03397162435263799
0.002565198763183137
0.02671143359824684
0.009185823797260621
-0.01124489144681669
-0.002373887395245683
0.02470672476582463
-0.01914111064534791
0.006544306904200467
0.01409492586581767
0.01381324228477064
0.003373368279157006
-0.003953481486524485
-0.003165048353394762
8.643393911440639e-05
0.01448506152187535
-0.01868750142720907
0.01391625592709869
0.005728306559597283
-0.01961740916591694
0.0005936581487391773
0.01449653467222322
0.00463033945666445
0.01969228392970505
0.02256950787819248
-0.0134459320353638
0.001013240578040038
-0.01260506751331456
-0.02371220529193322
0.01161735297775795
0.01861050829061148
-0.002006486342063079
-0.005458811204969207
0.01703004428390309
-0.01959548342170354
0.009281569772359418
-0.008284117797569889
-0.01976095704595661
0.008998536050678893
0.01628548736772311
0.01755217603367863
-0.001107193125994629
0.002091488752919759
-0.01303335844017868
0.02143301852555231
-0.02568423697290587
-0.02372809852943979
-0.02056107177113015
0.01864564145893774
0.02381434323703053
-0.0146987993708488
-0.009733861416006302
-0.001250757329201721
0.01430167773462597
-0.0188994852497214
-0.002558557569484277
-0.01880238507618883
0.01427684256975256
0.009029304855687426
-0.01918457255102485
0.006677491259067437
0.00788155501384292
0.005235074774248843
0.02394656241606382
-0.003101035085843401
0.01303836595218234
0.007801534059850248
0.01858154146233229
0.01507191106186804
-0.009485519502855977
0.01590494677525663
0.01172313731485092
0.02359897871346047
-0.003007695759779799
-0.01978987207191752
0.0262248817281409
-0.004684095605096773
-0.01594487541461707
-0.06732810826942638
0.001398324885334334
0.02063566580248035
0.01343029221517687
-0.01858210076623402
-0.03191428110035131
-0.01214673922288627
0.01536758929223313
0.01635739538037749
-0.03725364881061885
-0.01736376560617856
-0.006626717148465266
0.006597376729061927
-0.006604355331399621
-0.02316277753812829
0.0155704771698003
-0.01248765143201387
0.03704408110832396
0.01037380508691148
0.02869250692668192
-0.004054260475724061
0.01766445490952195
0.005522761335578578
-0.008299033769703736
-0.002335981990013687
-0.03980235346209459
0.0124423507230112
-0.00925579448006991
-0.02197893935497711
-0.04790491919380985
-0.01892826709460556
-0.006355329203471668
0.007710271980700885
-0.01308567205618051
-0.0003782195548129661
-0.01928396070235903
0.02518042279523714
0.007067084954644545
-0.008171901019852906
0.03943612428827548
0.01068244915828903
0.01765706081060357
-0.009354239679842384
0.03876093265431851
0.001744014587758185
0.002274486587094366
0.007748865195102627
-0.008665653784694737
-0.01238472346740659
0.01783157244622539
-0.01046989200829151
0.01674508286965554
-0.01885825185237772
-0.0004155696488279357
0.007859726096130913
-0.01429321472532016
0.01422207844033086
-0.02950479485591548
0.007432668347667091
-0.01822351424447373
0.0009761803029726903
-0.02536203571367119
-0.004781815224849677
0.02336234602266216
-0.0054496929750841
0.02852552495856567
-0.02211236494382391
-0.006360806949815672
-0.007690487585407581
-0.01359319285557787
-0.0210629611857923
-0.01991695092043192
0.03072319244358246
-0.03170863922201435
-0.01418486855062613
-0.03434930566091987
0.006264289591634735
-0.03295907874372429
-0.01441355748250222
-0.005995996007508542
-0.01063936267634108
0.01690069231724344
0.0187711647163726
-0.000104504049702043
-0.01474565522445728
-0.0240414408940231
0.03562083141047869
-0.01400672844279641
-0.01023040422451346
0.01308666588311346
-0.005754180146028927
0.003460366779779284
0.002080599340290679
0.03488495210977602
0.02276044947463898
-0.02653681927511853
0.007201518050197742
-0.01901902966789052
0.003013047647390519
0.02843073104148915
0.01558603065202593
0.003067838982701677
-0.01125675578135415
-0.04544794032606805
0.007109080510874871
0.01089264936624669
-0.0008088017628766363
-0.005656721240615612
-0.004240597648556018
0.03142593842022374
0.01807799431597402
-0.0202164852739328
-0.005524355695363893
-0.007744556731510049
0.02173372511186909
0.01869426053584707
-0.002693427659869803
0.007196808282641605
-0.04761057700623417
0.02506679104956015
-0.03213232359131325
-0.02097753442960212
-0.02276423866731325
0.01250829055837181
-0.03182024386300068
-0.0001767455832411133
0.03695662675254686
0.01550914953417271
0.02758482178276967
-0.03891608218684449
0.01409322158697302
0.008650276648452606
0.02090076512033372
0.001342817318230712
-0.00328704679426278
-0.008452976066371439
0.01232602836208205
-0.005424048225521712
-0.01111361202635508
-0.00678819610356097
-0.02464599980054907
0.02338119625640434
-0.01361273302695671
0.0286027870214273
0.0129692381711655
0.02592119912742909
0.003107724604312016
-0.03419594649575088
0.01591331047217649
0.02329582542674627
0.0007259733543480545
-0.0003364671478073185
0.0158904680368866
-0.04363069334912246
-0.02943387051046311
0.01574796176468265
-5.810332291502728e-05
-0.01496399924384302
0.0142205589401399
-0.04217371706537688
0.0006061711136030452
0.01454967748536697
0.001268414804299036
-0.008014368304165499
0.004982708581558574
-0.002937226138186042
0.01619670598679433
-0.003035902425998666
0.01308824939719937
0.02072474020268018
0.004852298769258393
0.005266873204163461
0.008170187108962269
0.02422473637474498
0.01654434002150912
-0.007388227887412265
0.02702052512042519
-0.03163835693699296
0.009060977215589794
0.01350858599937154
0.02560995884199695
-0.01609144105890494
-0.01539455362858284
0.01558480839349129
-0.002204790642538138
0.02264597851253294
-0.007316283071039756
0.02286134350431966
0.01437408720986183
0.001789411509680685
0.014073277340528
-0.00980147480321248
-0.0183690712736461
-0.0184096058479302
0.007039663442397825
0.02868477267582
0.03521784022099351
0.02997022513764066
-0.01708196232961011
-0.002152397896100905
-0.001088552364429897
-0.02200391897889568
-0.02588883754315318
-0.005743733039344202
0.007476504651490946
0.03266549470170957
0.0009492891431961626
0.002754456911506915
-0.04067328761611726
-0.01394321526389731
0.004113200241737464
0.005985795252403512
-0.01436788876763293
0.01245348369618257
0.001782156915800919
-0.004026208672017757
-0.01478023435910877
-0.0122117240956808
-0.02480126988846977
-0.003499240186676123
-0.01461829395408209
-0.02876905465704764
0.01962779615150467
0.004399724005887809
-0.001159144952629242
-0.0004595289413730876
-0.005935710467964173
-0.003394737906143256
0.02349719878224589
0.01179033163057161
0.02036621849998154
-0.003644511739642508
0.01562812350581861
-0.01327256975283159
0.01242543617295155
0.01766548172538394
-0.01671878659851778
-0.006133138813511091
0.01730634232916584
-0.0114494296773022
-0.004668202727559697
-0.006376233808441734
-0.01954918488078672
0.00891718191055231
-0.01837239126779089
0.004706581593489021
-0.01495615220203884
0.00297300917379712
0.01210148891135792
-0.003926188624241459
0.02459550841210358
-0.01130564839429741
0.0010598181809197
0.03025870573916275
0.003730772324179321
-0.009516365190377992
-0.01468502257629848
-0.01893153941818568
-0.005149272604176917
-0.0207686341463382
0.02357259707656004
-0.01389008784138646
-0.005267482927948393
0.0148261752782326
0.008623926324691153
-0.006280880116832619
-0.002780360831602997
0.02381225580113246
0.02132447520152547
-0.004236736641896951
-0.01480067820140157
-0.02620020460580056
0.02190175892088695
-0.0007162068099364253
0.012144839081406
0.03617301339738464
0.02909625587948407
-0.05368750503017447
0.02084251983156818
0.0126663858084764
0.008484102217991242
0.01095721444672554
0.02787411473902257
0.02748956451209837
-0.01614339099976821
0.01912542320599535
-0.001821950915942103
-0.001679015332432097
0.00946818454853997
0.01420922762358928
-0.004687999725931751
0.0178455211989564
-0.01413021950353864
-0.02599277418176574
0.004963314551005004
-0.01956607354626502
0.01533312881679801
0.004247229984051928
-0.03374547700134168
-0.01504328405484605
0.001716015512463703
-0.01649132742106064
-0.009868591989933421
-0.003120562502802283
-0.00885665028378191
-0.02643288133546189
-0.008636633414757761
-0.001305757045495608
-0.0211807660072557
0.01694728261435893
-0.02219424553734567
-0.001679965159243337
-0.008577459715019151
-0.02453807272704711
-0.0005730781749586272
-0.0004751489278919055
0.01504149441254258
0.006813696108483451
0.01469983123262148
0.009337116519655193
-0.0007495226300196768
-0.01079441524298082
-0.007587506594668929
0.01015271468422815
-0.005463004620953432
0.004653320693320629
0.008738454155644379
0.0164151524138864
-0.05520365032162919
0.02564948689309931
0.04312256439606492
-0.001171675522040102
-0.03365238358048548
-0.02909395432497173
-0.00086328549972862
0.01130912450396877
-0.01411679160583471
0.0008422524549518207
-0.043776131788932
0.00549487292424782
0.005970676829522873
-0.008098718319353186
0.01511814323760988
-0.002778434591301265
-0.002117901114723643
-0.01711397010306676
-4.290148554511875e-05
0.01881275857428291
0.008993945466908407
-0.01938885014423294
0.02917094507794416
-0.0004734277684308705
-0.01439865588673079
-0.02991031613449879
0.01032854327328982
0.03646933352809129
-0.00546314333774179
-0.02108069404480034
0.02474644813990299
0.01555191554007691
0.04384359357665321
0.01200730873508239
-0.0036398153989485
-0.007978814234984165
0.005112938219331251
0.01733954359124234
0.01293644236092599
0.03365464977001394
-0.02029734253169728
0.004963614817488003
-0.04904270523478375
0.0317158108259752
0.04246051732794064
-0.02621457749001237
0.01006591572263101
-0.01709664898447187
0.0009972739367243616
-0.01547818617633196
-0.03495949257514053
-0.001109051711613881
0.0208074659545441
0.01374816677327839
-0.01002739926685384
-0.01698466893473402
0.02530797149622489
0.01980879349831883
0.01958617101620357
-0.02757637288809541
0.0131968391521336
-0.01082021207576908
-0.0005800330005941014
0.003018677774603582
-0.01276465264257969
0.005865399877174279
0.01307909042219853
0.01015513371244067
-0.01314286653577761
-0.01449547002960438
0.01981608929156035
0.01088026320115009
-0.02119461644764322
-0.01113329424623522
0.0114718697980282
0.02476075759782879
-0.007137707923041548
0.009993304644205237
-0.01824901973864773
0.008346486365457199
-0.02632642954777906
-0.01137447711432321
0.0225081307867455
0.004759152399481557
-0.0248095043896554
0.002440470392277056
0.01017749443202655
0.02012057528616955
-0.009451976907501256
0.008840477257717333
-0.02155594981041709
-0.01722957095940256
-0.00994038093858564
0.003088515487456468
0.01561949537728812
0.003410953497244815
-0.001489031250972772
0.006129337790622077
0.01876991487250774
0.04438136891318423
0.01489956767002626
-0.02118612318395616
0.01855545567584991
0.02362379912308395
0.02030241637735119
-0.01037531597927454
0.01355305194093859
-0.01426562338160807
-0.006909190231535696
-0.02711796394957015
0.01076623700136733
0.000419156063027597
-0.01108037601017984
0.02549220058953911
0.0002318928865908615
-0.01916288397950823
-0.01966228161493066
-0.004186836132429143
-0.01503774565305689
-0.01453292733419616
-0.05366879241015311
-0.04695692888046005
0.009941673783738813
-0.00110928627440777
0.009865598527127093
0.002758906548524466
0.03071493320282551
-0.005941682672555639
-0.01722765073114336
-0.007375864721466485
-0.02059789916886044
0.02877765639607021
0.02906231912161341
0.018730248732816
0.009615963688320402
0.004451763681050852
-0.009863948885106529
0.01531871959399012
0.006847196689404843
-0.007892027720293432
0.01215005103664323
0.006932959956965537
0.006193316947846436
0.01804480767399696
-0.02073260539903176
-0.003492376845808629
0.002326786076965104
0.02172965013965299
0.01455794437718569
-0.01942001127910955
-0.01707731990008298
0.06094495043828994
0.01654411678651703
0.001996624253939856
-0.03410053838349601
-0.008974982000822836
0.003373468450032536
-0.007152691330838393
-0.006079646842017531
-0.03076242366007102
-0.001690811739988869
-0.002795664809652729
-0.03430821359197856
0.0007429839083198893
0.008812609581768861
0.02044650001387565
-0.02700130996156914
-0.004097358584699957
0.01428539488677803
0.02378962420411408
-0.01969066098952988
-0.01535995567350897
-0.01032113539760548
0.002994117943505878
-0.01474513264397487
-0.004625514941751336
-0.01182888999485533
-0.0178725882344994
0.01353267804453931
0.009224318212041185
0.03949113374023777
0.02191631177605089
-0.01136060234201423
0.005632436441189846
-0.01475577470360884
0.04528948790820382
0.01953443572858778
-2.773041925199079e-05
0.02901077177868884
-0.02819462420259033
0.02382930709022484
0.005393539446070894
0.00611632514295059
0.02565508558240929
0.005911241479284236
0.006081932979728321
0.02104600351718247
0.004945436087455076
-0.01691929040406121
0.007225380763077032
0.01938252561613318
0.003970556567586546
-0.000392142956510031
0.02161320554253329
-0.006381156477943656
0.02665277597400154
-0.005742140340316937
-0.006074113685545415
-0.01627138450277133
-0.01550783227929954
-0.005977687444165818
-0.01905707125454486
0.01274389619910514
0.01154649106445773
-0.003921841836662373
0.004650077124401989
0.01121409665612457
-0.02029743589292268
0.006962702112749201
-0.009179536035715256
0.01411315174477392
0.01089668055005757
0.01509679277337929
-0.001110767219138192
-0.006031620789348175
0.009525375656716982
0.01694513502485303
-0.0230215212593057
0.004551466429982803
-0.0249926843245206
-0.009988277558975781
-0.01069794578460805
-0.003672737960425544
0.01883004169039016
-0.01275723133203392
0.008845013970328259
0.01190483943407593
0.007338782036712894
-0.02320311262445628
-0.02000260070594378
0.01773152409154989
-0.01376503724435687
-0.008434490528213229
0.01619582055948684
-0.02350873499634108
0.02419220006421915
-0.01561582803135572
0.005572634604006371
-0.01594056722429573
-0.03218457775534821
-0.02272842656844546
0.02134931032053044
0.01073299591979658
0.0132633342789445
-0.01521793257298817
-0.02593550036142866
0.003396833297351238
-0.01127554185895185
-0.02796854153490415
-0.02950454011022175
-0.02013995614293499
-0.00344440522014604
0.0008255683072280107
0.003264233882660944
-0.02485518202652068
0.004980690747993346
-0.006531931444345886
-0.02312578138876825
-0.008357961839684274
-0.01534899969450754
-0.02153210020197505
-0.01051602084895392
0.007255285421377389
-0.004635258036870206
-0.0220575115956525
0.009358308904888223
-0.002795015115149719
-0.01086104329408919
-0.01327023168922253
0.01329317147539236
-0.008536363264675212
-0.01152641746925042
0.0108546824924023
-0.02233943490699942
-0.01462947501235521
-0.0193044902884207
-0.02082671494754982
0.02089662564924298
-0.001164435764028445
-0.0191420129614785
-0.02495838145832281
0.008780669202053211
0.0104424426795503
0.006312653640424506
-0.008857267135840488
0.01756526966707461
-0.008037054508681451
0.016337793811474
0.005190485422053504
0.01224348993039917
-0.02159325011564986
-0.02283426054073941
-0.04706132076459341
0.02300854549197199
0.006228207483822692
0.002958185328591881
0.003118986592378441
-0.04401327049789317
-0.007410423156476487
0.02419689671680379
0.05991080575164132
0.02257441634448163
0.009171735611749946
-0.003568690591841796
0.02613230081656722
0.02565189643754875
0.02048194560553676
0.0230464663597137
-0.0136502243150399
-0.003612514886674387
0.007354189267601749
0.01656670336940008
0.01174081416446244
0.002789846189114212
-0.01472418288239387
-0.008821292715493185
0.004793678348581413
0.01460561140716002
-0.003002428429210792
0.02914069157143193
-0.002947076795181428
-0.01229571849931591
0.04325989023087275
-0.00382598307411271
0.008548369220586233
0.0002452296849959936
0.006912612579940849
0.02822534460828721
-0.00679243851503666
0.03152139194707306
0.01728762391405244
0.001699602091616099
0.01413280576827637
0.003265461595345869
0.01036242263076858
0.01828653977332725
0.004252470352834411
0.01516839082742665
0.0108251552900801
-0.001080194181165926
0.008865409375516418
0.009580202342427846
-0.01797204175017742
0.02190369897468581
-0.001025941440374835
-0.01569397784116481
-0.008833334178741714
-0.008990291681423882
0.0371477796122803
-0.0105857036641699
-0.01529361585131783
-0.001269281060380565
0.01507792557635919
0.03683519915003293
0.004855535370116478
0.0179563503537374
-0.005691917252733499
-0.02585167220598479
0.02767286894726764
0.01828789896864886
-0.02451559685824408
0.005809528479892089
0.01312710966511507
0.01944316539359509
-0.01191114578585845
-0.00799441680098581
-0.01641527123395746
-0.01436176229853323
0.007214171138823923
0.04048861775327237
-0.02578992220815277
-0.02762098527605832
0.01032974815830122
0.003768531372014889
0.03192071702222125
-0.01186666271098167
0.002647852458716464
0.04466972294344952
0.01844986129392233
0.006771111962905672
-0.00313913958675519
0.03237588617890844
0.01973357428893261
0.02189802357306326
0.003470874347064861
-0.01932716749570515
0.0482913087703731
0.03539839338606988
-0.01402601873331194
0.003426133423043836
-0.007771354471755735
-0.05597528498423695
0.006502679837094386
0.003537925822675651
-0.02377268563879325
-0.01785522837056221
-0.02163861945758339
-0.03328149336834243
0.01213986496964111
0.01035179366464341
-0.006395662644181116
0.008977633763710174
-0.01637321302878032
0.02066551259929604
0.03483014916514607
-0.004928573735199796
-0.04560566185225996
-0.01622774327787805
-0.03294700246600157
0.04190380884882886
0.009733314074704782
-0.01915968590484058
-0.001989358046280966
-0.009038532723625906
0.006280469443005272
-0.006111589930580644
0.009149447736914637
-0.0327327376409561
-0.01480067526607756
0.0107744578824287
-0.01137409994252597
0.02293342140887537
0.002756757059041093
-0.0173502764202769
-0.008620692141141759
-0.01310440685604673
0.01253035492759602
0.01206602066060614
-0.01595186078775809
-0.0234983447795068
-0.01999970416847154
0.02192559848182239
0.02244890419864626
-0.002910761848782453
0.002612178523466382
0.02708776374043383
0.03019771915747299
0.02269578420566832
-0.01084289884983441
-0.03135781052148702
0.001618398858785541
-0.02539590931996718
0.0009371543141650481
0.01727352616019778
0.01879042194508602
0.01950471218982809
0.003645976855445997
-0.01554222442475983
0.01123938802409743
-0.006258341530082616
0.02819695440832156
0.00343534836095253
0.03331708984927969
0.03892457563281588
0.03848100055224243
-0.003883544641675602
0.02532127330143239
-0.01233387860201309
0.02954888007895054
0.009349369099389706
0.0003782346847649389
0.03550543947974084
-0.01719354567350681
0.0009944871969117901
-0.006729568764684089
0.0170133339897799
0.001221192541624211
-0.02119278271840841
0.01173497675598822
0.002839669517751676
-0.01965125063073765
0.003325692686095031
-0.03492987521576613
0.02729425974273289
-0.03967018065195381
-0.006028024522430668
0.0149765406379812
0.007072808641121603
-0.01015699322701362
-0.02922867048971872
0.001147016380082567
-0.02823580246495596
0.01357636320824088
0.03722413852463045
0.01838192549589103
-0.01078233758279746
-0.02453934125418504
0.03148655162039096
0.01912743195595743
0.03279977811571986
-0.009351420758989145
-0.01567038292766633
0.02980889041484627
0.008197561133137582
0.02187280501261405
-0.02072553457269737
-0.02087732882755668
-0.03554260299759651
-0.007920070401140263
-0.02700086515842518
-0.03389143656944524
0.004759173043829739
-0.02372733730931025
-0.02986571758825618
-0.00858852530121694
-0.0003793618308289473
0.0093535408158341
-0.01611372860752903
-0.0003684502595303106
0.03351387819204593
-0.005697564928757245
0.001166304946756553
0.02168186739489295
-0.01564583140475936
-0.01305392281378351
0.01970201787334007
0.01079654984968362
-0.009081267520239956
0.01818927749492754
0.002808084679090617
-0.01216068898375998
-0.01350791138519831
0.02045587839771131
-0.02170560636786983
0.009909954968575359
0.01178263870888043
-0.01088550337479742
0.023006809607643
0.0215813461276319
0.01016053308265029
0.02339854877765784
0.02197594537620647
-0.005946416687698631
0.002292678428831331
-0.02349315282305289
0.01759325917835772
-0.01435012728479961
0.02048131550073392
-0.01849832537064725
0.01357860253690873
0.01964839626252592
0.001942230198814065
-0.01970755976266426
0.01594769954556107
0.01200792223731345
-0.003810142616069699
0.007871352063697434
-0.01680335032297358
0.009922671997431076
-0.007961832703545035
-0.02912256285114379
-0.02066873411360815
0.00396944323662975
0.01463535160344803
-0.0284797995024044
-0.007238137988273797
0.00969457158224067
-0.008686469853250502
-0.009277163821287467
0.000467600418692688
-0.01941696898515714
-0.001009262525376902
-0.0001836872747184089
0.01154023003654164
0.02819645864812653
0.006661967137296583
0.003933482830720191
-0.01520086006218304
-0.006665940530121032
-0.01883501275252134
-0.004091572310025798
-0.01825362392413995
0.01883285794062214
-0.02270393060688505
-0.04277627145578259
-0.02036632464283095
-0.01646167293150844
-0.005370841411214434
-0.01641826509558991
-0.03185238592743198
-0.03849618204261499
-0.02471953903463709
-0.01976842758063643
0.02779146470285809
-0.02860293530917287
-0.02442365959740594
-0.01510780099858745
0.009886573494146745
0.002942035675146772
0.006963311524142684
-0.008988320740242802
0.009311945169453072
-0.02023795075839766
0.01694337921917286
-0.02074076504426043
-0.02473136681002814
-0.002906736231445563
8.410688316366295e-05
-0.01734126970312988
0.01639163062053338
0.01636820915922806
-0.02463966640030599
-0.01710470549048465
0.02017957772058838
-0.02223355358189283
-0.01601469591410466
0.002460075900528363
0.005155377498823431
0.02109794477952935
0.004416134610123485
0.01337272015110841
0.0293059183154579
0.0149746179907631
0.04298654361503543
0.01487606583240384
0.006442680300074732
-0.02610702452978141
0.007270742924727479
0.02513136688589751
0.01431028138547888
0.00723442143467345
0.02342155483325335
-0.005884131012849101
0.0425741892153841
0.01809525582618488
0.006212426807612509
-0.01850518335213773
-0.02648693491596699
0.005761188550028436
-0.009235969475847958
-0.02454451895646309
-0.02931319209045542
-0.007821314337384193
0.005150425464002697
0.03623864767017867
-0.02587834199859804
-0.003739881979281945
-0.001476717872331018
0.04945203362794241
0.01114180933427855
-0.02056113667832133
0.01855467094880144
-0.0005527615899191267
0.03027762538836495
0.007363541219468025
-0.005889283419985562
0.01890090287999014
0.02210087421110183
-0.0007885540874390587
-0.001386509629570299
0.003450459690375582
-0.02999076684548778
-0.02005240101119881
-0.003967079010164964
0.006494525134671771
-0.01877887374761762
-0.04435024510494089
-0.0206821194827684
-0.01207897695980538
0.0107947188568041
-0.01025592190804742
-0.01903903718113916
-0.01253912346796035
0.008691459555001451
0.01716477650984552
-0.01951392831063723
0.01048078218012657
0.0009125025238365527
0.01580569981514922
0.02098226930866849
-0.007046757966154441
-0.005401283513940737
-0.01142473538351157
0.009421457137501489
0.01182541012294094
-0.001096461685391278
-0.04836302025502709
-0.03415689802589337
0.001616441266578149
-0.01155513125441441
-0.004989056979085168
-0.02115883924460219
-0.003031894924639465
-0.02151669822336481
0.002298637089600918
0.01120152279439258
-0.02728173804986399
-0.005411619585438417
-0.01042618964362712
0.00129444643825627
0.01192720171734227
0.01935785039763183
0.01952303500380943
-0.02002000939797376
-0.002204133124978245
0.004336982993800915
-0.007389429135852371
-0.01152761618362573
0.01103472425431812
-0.02131752366848131
-0.02120403084532283
-0.01555879642791141
0.01270365242149952
-0.0100353166010295
-0.02406175805360234
0.003820195983796949
-0.01660485528231245
-0.0258938754721599
0.02099590026764738
0.01313426560342625
0.001243696240632503
0.01719474628301743
0.02243617965661494
-0.02352710638501912
0.03167291068268014
0.001948344507648338
-0.02064750076619261
0.0192718359578089
0.01081460972739707
-0.004404256832567746
-0.008061651078174983
-0.007495577406855105
-0.01992776354440787
-0.02319375592384649
0.008100806443511631
-0.0128446109144237
-0.001714107864242758
0.02646690794097098
0.002316796769562087
-0.0001364961556542394
0.01468693987700804
0.005657978032990921
-0.005559120753224043
0.009806170521963198
-0.0200810142062878
0.009701363613690514
-0.0233207090229744
-0.01335409325453414
0.01488973175974696
0.008698352561079025
0.03363849189025472
0.003655273212395356
0.04678563561125815
0.02990401816510495
0.006877715601551265
0.02317696809637784
-0.01373957440939365
-0.006672875526930127
0.01597998177379698
0.03160137399809707
0.006358450636742298
-0.02324078223547851
-0.02524215992154247
-0.003069207693378858
-0.01127690587382602
0.02989940511362514
0.03119020872249302
-0.03508657795214099
0.01389227413522847
0.01758556428124017
0.008497486804152908
0.0393251096221218
0.009594427296800934
-0.005203257839644303
-0.01219050916390915
-0.007334473807606494
0.001647178735335222
0.04745405036897406
0.02222839216682165
0.001171586695000202
-0.03098761078998771
0.003845441230083638
-0.008702139171376312
0.001440686955763383
0.01248216842398265
0.02636742435454443
0.0315310128751309
-0.01862792500648826
-0.00482231341552171
0.01459520276484851
-0.0004518974177658225
-0.002923396679674621
0.003274336053860919
-0.01011701664202274
0.01224421029206994
-0.03241014876109709
-0.01868720127800943
-0.02250217090254471
-0.02260620486598274
-0.03843653802443905
0.02373749567119213
-0.001838065282574023
0.02588989127369183
-0.007539115756765836
-0.002898000149136709
-0.01067571869615724
0.03075408195147135
0.003317007517866133
-0.01876589200560843
0.008853016221212798
-0.02180635010119501
-0.0001919598723693999
0.001866640546261986
0.007151060939643963
0.009890886578575094
-0.01951201727587604
0.01366706354482139
-0.003182632172524615
0.0138536737008862
0.0259167733376458
0.03202214373529804
0.0006530924414327756
-0.0004008182860809349
0.001734884988992862
0.006029069589125027
0.02530951317317645
0.00819930699243049
0.01224945771624529
-0.01690315609984143
0.01189942240722703
0.01950959417189621
-0.02476596536572873
0.004067977094416004
0.01053240276191125
-0.00224239943110151
-0.02581888829891501
-0.02198090154406897
0.008821028030983081
-0.007232029989203421
-0.01440601097553544
-0.02319414143740438
-0.006688120195674396
0.01112701042118602
0.0120643901379243
-0.01381381769431092
-0.03642401995930802
0.009933148588456436
-0.01065722599848232
0.001089444673291382
0.006284257552821938
0.02138478902626539
-0.0007656446794986083
-0.01697776356071719
-0.003691746455436081
-0.01749792208693707
0.0179339477298208
-0.01434300766305166
0.01644051199839786
0.01186510005156137
-0.01083009421840877
0.003028089668893872
0.007364033459645871
-0.007212971575183149
0.01828429926000822
-0.005783823266904236
0.01837006358614102
0.01924928139610628
-0.0001641415941015191
-0.00616584509095832
-0.00151970339360012
0.01743605104424076
0.007718977493303319
-0.01702267551998615
0.002594057587679693
-0.007924206218483054
-0.0008095076773145458
0.01344582789482595
-0.01172484562084394
0.01332817653627028
-0.01978931606671224
0.01470212426013837
0.009623145232259276
0.01109222654811686
-0.02302907635684895
-0.02856815991669127
0.01361866218593417
0.0197530166386777
-0.01038035810687942
0.009973661118308828
0.00359975562571665
0.005399425763091097
-0.01432909195112343
-0.01271822831525425
0.02392923323309885
-0.01904922821017838
0.01151835188712902
0.01561240763558922
-0.02582487631114173
-0.01540390782249768
-0.01079059518108946
-0.00512113717863814
-0.02384560365820288
0.01978315191566418
0.006779938042529914
0.003244180830664516
-0.01355898204173665
-0.01235020344307064
-0.0111112128775595
0.0009932697681033133
-0.02711078925861239
-0.0008255563832923311
-0.003715800933233289
0.01172919037820582
-0.0134472059648107
-0.003842471426849532
0.01435749416622635
-0.02042591224349776
-0.005363488230707147
-0.01744469274656484
0.01607418089195161
-0.02468109980368596
0.01529476483326658
-0.02214464225530889
-0.009117163520363054
-0.01777005805491342
-0.008908368806710507
-0.03482734754657996
0.02093679464370968
-0.02940597513539405
-0.03019912885460932
0.02228485004069531
0.01088521559887392
-0.005247154516216368
0.00064359482386436
-0.01418244606318096
0.02047150577089595
-0.01277673188238625
0.01210655224608449
-0.02798270849202171
0.01269844736501786
0.01933718582068868
0.01545355327496848
-0.01951838387661881
0.007554026368447542
0.01869214548557249
0.01314465371092081
-0.004519537244929208
0.0252609958984718
0.02403838670646996
-0.02079448504235752
0.004005985072641692
0.004393193166678416
-0.02874494828332331
-0.003200745302478892
-0.01953018544179393
0.02179727020750277
-0.02268519955780893
-0.01567065868322987
0.001981335166458798
-0.007326127135004315
-0.0008615587268368229
-0.002721324709770295
-0.008691648322839194
0.01803037619318093
-0.01628977766271688
-0.001877574292541109
-0.008974135196925297
-0.0075722374716548
-0.01663563702121359
-0.004150352781334607
-0.005883902714046752
-0.0001657377240551277
-0.02151036360169523
0.009055668136632011
-0.01095189133795452
0.02402058946913332
-0.01275743324704113
0.004046863304302528
0.03220820797212418
-0.0155685809283188
0.01721616435885218
0.01035887486195147
-0.0195086923638336
-0.01846274717365213
0.01190237055701124
-0.012627825755785
-0.01684450369384439
0.02393032056722445
-0.003780571230942141
0.01350612289637598
-0.01631403888268072
-0.02332909945712924
-0.006943144076973565
-0.009943917169514692
0.01115097301545026
-0.01019202343956712
0.01374184160397646
-0.01447213017045621
0.003156694980815678
0.0184891915271632
0.005464588537991141
-0.01836996519546306
3.150058942044637e-06
0.01249250130282395
-0.02396166354144042
0.02446996118801763
0.01649098903510535
-0.01143188158544239
-0.01092812616086557
0.01423154261583382
0.004169209717854763
-0.0004627643790467798
0.01373957083286266
0.004845273530966752
0.00603737520646581
-0.01503686600893
0.01619300558569279
0.02218881862138013
-0.01293023294207048
0.001105302555677001
-0.0103787962016244
-0.02059291033523348
-0.001461764946273924
0.02471912093474626
0.01319670515859972
-0.01716403660837008
-0.02576409816458572
-0.0334695513283369
0.0175033231429152
0.02076319795107773
-0.0183149307387837
-0.02724097907956605
-0.02528428571790689
0.0312740776220907
0.02254410019657136
-0.02903471076003859
0.01931266054846616
0.00255469126619937
0.00563633562695738
-0.003887027359194106
-0.01390598094032078
0.01838315437790484
0.01406371585599676
-0.0165883142333193
-0.006426196745437442
-0.01895695119668696
-0.01444118058989775
-0.006957290020551053
-0.01086001688236181
-0.006538335596443986
-0.02004433106725453
0.0146541957698718
0.01031457743641726
-0.01148369238927976
-0.0002287025409518105
-0.01088041071555049
0.02536892909749638
0.0161178220706862
-0.01287138433887749
-0.01704877938453618
0.0005049495219203115
0.01296638707069971
-0.002644665003087714
-0.003641922190317632
0.009919537742820686
-0.008708609452952275
0.001379248615842673
0.01491615482011599
-0.02393958623112052
-0.01988449327912494
-0.02355620854421621
0.002986848482405866
-0.01979554535989082
-0.0207280700666964
0.0008032830329989116
-0.007249787086787206
-0.009501828683456686
0.01090471243011024
-0.02129093631100606
0.01594630479592603
-0.0161554065079652
-0.02339073167819172
0.006226732437085975
0.01892664803355954
0.008794567357109869
-0.01349522571734054
-0.01755147326783901
0.01435293506388952
-0.02816532489352306
0.01148957352804581
0.01159501154410164
-0.009174258356986225
0.01915502274295816
-0.0105228912688921
-0.01742149727087485
-0.02819218108130722
0.0008194311284379024
0.011184781590397
0.0251365863760863
0.02358920315219315
0.01109513439890466
-0.02919009887509529
0.01002152909522428
0.02094345123933613
-0.01705838887910551
0.007462174333255044
-0.009811548196931639
0.01156481180871215
0.007112528098279034
-0.009266401843886423
-0.01890009782324333
-0.02558046991380358
0.0005450229023187852
-0.03813669354377068
-0.03480779569459059
-0.01271718218990755
-0.01282288766405619
-0.01136926167174795
0.007874213620188333
-0.007143361910129763
-0.01630527536932164
0.01805285508413337
0.01376699796253719
0.0007199475408147343
0.02016542323055644
0.02058050018207319
0.00779546842246848
0.006466502205126813
0.02384159154729785
0.01625270053256611
-0.01172939206192185
-0.01233510103564671
0.0129372643539191
0.0033031457607777
-0.008804473972118082
0.01553914362984062
-0.01082927462851467
0.01940323382667418
-0.01655593440377092
-0.02416056405621195
-0.01692296887116623
0.006912392851773013
-0.014915111730214
0.01340282714861402
0.008111339793764593
-0.01827261453737802
-0.0254078745741806
-0.0125767025705759
-0.005579441441863912
0.02435087165945967
-0.002977793335249769
0.003620170758738886
0.008471187777650642
-0.00876089536856986
-0.01727046138418204
0.007353799463798842
-0.01049420091924852
-0.02480006767628341
-0.0119822933633353
0.02330880410435298
0.01479020318695893
0.003104670326865165
-0.002755135423729909
0.00724175436395521
-0.02029388148467841
0.0135961344591366
0.002701824668807523
-0.002324433171357087
0.002363272043439879
-0.02364063949262175
0.003225469056231006
0.01712831978390684
0.01783063468784534
0.01230920383100701
0.01482040951144074
0.009813234549695174
0.02265341628123893
0.02970098968358359
0.007227838990043483
0.002049243959462055
0.01811286407569068
-0.01481378966774873
-0.0227576243026193
-0.001814410449539515
0.002484343340868706
-0.01706736774109296
-0.01641098118050104
0.02046004137086933
-0.0155706359582351
-0.003364889176841008
0.01386958013550448
-0.0259855339001732
-0.01971348940152375
-0.01152302122806175
0.006071199519772245
-0.02265697288071945
-0.0229969475239702
-0.01004367047690871
0.008288097647410115
0.013159841215561
-0.008196282177959988
-0.02586482381936418
0.01783573727467331
-0.01550213608384484
0.01391891891059054
-0.01776020146762426
0.01179336315551689
0.02493575414843719
-0.02470416221138558
-0.004306587142764793
-0.01164799720035418
0.0172182098878124
0.01165665626917062
-0.008477032707749504
-0.00860212311786593
-0.006818328824709715
0.004604068788001429
0.009039392757535241
-0.01291875435082486
0.02488135846792883
-0.00260859280740297
-0.0104772057181329
-0.02694039088656675
-0.009151873444545183
-0.005453305878472466
0.01195435487457497
-0.003633415862934425
-0.002143007837367073
0.02018972345560924
0.0227861101699888
-0.02335017060912093
-0.008877857771094375
-0.01912312203920025
-0.003924443189931137
-0.00469832542552936
0.02456792919618248
0.008037688562572837
-0.01266329525679991
0.01936932165252703
0.01235946729854671
0.01823338279494764
-0.01232838940523746
0.01168508118412281
0.009413976522769039
0.01622078072117614
-0.01615678599010992
-0.02056999472255355
0.003616193874363903
0.0238480610211089
0.01072025369986994
-0.006005221873878273
-0.01694004571284793
-0.01812791393834679
0.01880706560709777
0.01059111515396668
0.01611234281635065
-0.01685721741681795
0.00951237788074163
0.001895250783948827
-0.005807198314418211
0.008723388968434338
-0.009031366391954832
-0.007322827218676897
0.02431627899711715
0.01769777799688426
0.01966200118711084
0.01091397913234596
-0.001465607242609686
-0.01912429653279048
0.003010395148397912
-0.01895514270313806
0.01753253547000286
0.03129145640618798
0.0145285084074523
0.02682956188156839
0.02476094443081413
-0.02736833473308578
0.01656977545783229
0.006776285276898263
-0.009234828609810583
-0.006067085999538436
0.006469225758886688
-0.001398717465250501
0.03192815355236262
0.0004412066015536436
0.009317916995895025
0.01019718345668023
0.01386255832416109
-0.01096965508198122
-0.02063454470118257
0.01458179826808614
-0.01982142526644302
0.006683077079996371
-0.005769583376663645
-0.04413846074337763
0.0006926156846864535
-0.00606625303749707
0.02694274124765874
0.02497951514013234
-0.001472152425601921
0.01558879170686355
-0.02274363355383831
0.009189278376275062
0.008564665201523216
-0.01879206891794639
-0.01192952420050637
-0.01745102876438885
-0.01565541447647177
-0.02171633619178525
0.008038435975664037
-0.01722777130417766
-0.0114020029461864
-0.004776379146249707
-0.02040568372448823
-0.01966831157329427
0.001949710181360985
-0.02960731795698776
0.01805847708429974
-0.01793291298511723
-0.008124438881288134
-0.01269211185767607
0.01332725277043521
0.01205306053529407
0.01012873159238332
-0.006386283190276167
0.01386525212038186
-0.01793205297743961
0.009876207357506044
0.00847608159005292
-0.02004709900517067
-0.01802916900092041
-0.01295042731406576
-0.01426892937390742
0.004963813820569611
0.01591001631654773
-0.01361245682717331
0.0114518748353601
-0.01805109485946203
-0.009295224217473403
0.01253486175189735
0.007470232077056453
-0.002157356035618867
-0.01943331738104138
0.02139382087878569
0.01811491315519717
-0.01403662572150951
-0.000299104512499222
0.02221388663801498
-0.01621363085396099
0.00828801375482492
0.009585103570884707
0.01008284742773759
0.01515930023706804
-0.02907600913524809
-0.02503455667682464
-0.01391822668073637
0.02777754532918406
-0.01824637744435954
0.01351993643993248
0.006914156080363599
-0.001490584147815077
0.01908570165882874
0.01653314668134644
0.01710056815185203
-0.003883256104312128
0.01252817550661599
0.00694591532903963
-0.01821173893125266
0.01422919087822564
-0.02480739775931269
0.0264920036292499
-0.01292570786110377
-0.01498762906181629
-0.01902007932073774
-0.006952117152297556
-0.004395827798427954
-0.01599645264984605
0.02518340084511912
0.001894433339553569
-0.0003844922275112293
0.004501720785294252
0.01132738782061086
0.0162304386231756
-0.003105158116119824
0.02371386609664222
0.01537782712324122
-0.01155918500300312
0.02017219724987879
-0.02167588420270821
-0.02174927697460784
-0.006390372526727845
-0.01141679145493992
0.02598961997424252
-0.009027822560275303
0.01922845576514734
-0.01127145194589455
0.01684087164079502
0.01345929748443379
0.01068367729843231
0.02202615434338452
0.005727030217434083
-0.008869454580037846
-0.01515974043701846
0.01554474609551182
0.01357396351580985
0.0002169982362889282
-0.0007283628569656796
0.01746330278534901
0.006756349137742827
-0.0124033881477527
-0.02014275268868184
-0.03003320660630253
0.01696432305612334
-0.0289842124927618
-0.01406344028589069
0.02225935447685285
0.02355589307451373
0.006876366022814687
0.02132498483186854
0.009400210446738208
0.0197588139367876
-0.02650562624396032
0.003894434155682211
0.008268185706790988
-0.004237235963580651
-0.01493652551041338
-0.02582176356907248
-0.0171626799924447
0.02715873413584956
0.004644662899557823
-0.0216031957438291
-0.000153568406849352
-0.0149395667778959
-0.004376698905290336
0.01564097269247869
0.0004913776401745081
0.006769296547330968
0.0170711036758183
0.009442277537194682
-0.005794625504349964
0.009029227866582473
0.01237129313571347
-0.004031475551894534
0.01220785026746572
0.01669231624603473
0.0138394690485624
0.01848935756735909
0.009693118679364008
-0.01182252213427581
-0.02257987124848875
0.001801951940243532
-0.0193053435996118
-0.01556648538976224
-0.02823298360403168
0.007640516417244878
0.001812345548537796
-0.01339392338298695
0.006064830324168458
-0.02307294041220214
-0.02407800945655975
-0.01486793119697063
-0.01847747040653274
0.007716984672633758
0.002922552888834256
-0.01013273197082775
-0.003194424863888055
-0.02910931212750245
-0.01738769668946865
-0.01705940486450364
0.01388852920934104
-0.02995187161584697
-0.06759599403823052
-0.01905868657892508
0.02950141321756056
0.01810649703709056
-0.007329366452755256
0.003873133720461202
-0.01860767029943883
-0.01891846171630335
0.02066777785586381
-0.01204174153578361
0.01594737131263018
0.02307644341915326
0.0003760935374568992
0.01658928276244612
0.00670927259861751
-0.01754548902291985
-0.02263899743823791
-0.008786998917547582
-0.01618367855606014
-0.01958336052159962
0.005634374565573845
-0.0100699391143574
0.01414776576718406
-0.02337967708092451
0.009593821144570512
-0.005444100056902137
-0.01693034633871329
0.02114079724776435
0.006622389420498882
0.01151461785844787
-0.009350157088616709
0.001762382267596787
-0.01122241600934404
-0.007148775988558019
-0.01232170370122736
0.001711648688327364
0.01250610905309407
-0.005715544068091432
0.01339959128704266
0.01157925421141229
0.001582051041224924
-0.001221936044277569
0.01500076509578873
-0.01516203252221909
-0.008889515519103672
-0.007307793472153251
-0.01209033601177963
-0.002682949661028187
0.01282716342407814
0.001116757066547088
0.01277505505554553
-0.008894944757358287
0.01680762371004528
-0.005736102771206049
-0.004200366027511271
-0.001909821845105784
0.01157666952375625
0.003135874922909709
-0.002297319556186867
-0.004327838138630804
-0.006998075320689758
0.01803980037323464
-0.02501436892354377
0.009416332263960972
-0.01365569998266837
-0.008381872715993577
-0.008177767501047494
-0.01779551437344899
0.01521255549159645
-0.02271045810205399
-0.02612146686594474
-0.002223316687452669
0.01128415868869318
0.01792703589862046
0.007012823805783105
-0.0141022947146413
-0.01044840434813787
-0.02506088176118027
0.009765863662613634
-0.02913411676378297
0.01183930988606049
-0.01549626962667381
0.0006325557955756437
-0.01204398928143388
-0.003779741518054304
0.0199767045705457
0.01918641264540509
-0.003234541982196431
-0.01267839344997094
-0.02559532404397379
0.00809052205854428
0.02126111767117438
-0.00194509248674915
0.02800967063204287
-0.01886325293513601
-0.001066519060882887
-0.01561030539838061
0.01983234960785593
0.009300527106859012
0.01648082524621934
0.03486178696155963
0.01765430323848744
-0.001101045053113111
-0.0009927626696466299
-0.007630915701760246
-0.01172417186171549
0.03367440938916215
0.02785266276684597
-0.02590267209052651
-0.008888881659304602
0.02301075167374388
0.02488293868103434
0.01412309631039248
-0.008361828858876701
-0.02509224020184481
0.003553735729263013
-0.02090163070900202
-0.02015059722516592
0.01609227305739428
-0.008721480052359988
0.002340686567684672
0.001284945641619534
-0.01723453310999519
0.02257066799221959
-0.002886058449083276
-0.01063559667745015
-0.003640887261083841
0.009713270713574421
-0.005923837058817518
-0.01205560243798955
0.01228513395388527
-0.01060993723656708
-0.03262802115136723
-0.02548115338450041
-0.02181143087373542
0.002927445845595939
-0.01620915509319463
0.01458561549528823
-0.01117461314111414
0.008694439725371355
-0.003900141730262822
-0.01035363845910914
-0.01566057772822955
-0.01506153186462684
0.006104668616184902
-0.004406820458608176
0.009434025323119001
0.0008512535564066611
0.003376096855231637
0.004743780018913662
-0.02381174452084559
-0.01622584996601949
-0.01499049515533027
-0.009099243593108932
-0.02141501462337794
0.01722398863699291
0.02722751213176714
0.007983743089689499
0.006921011963887355
-0.01484925613797328
0.01937154954011084
-0.0006168010223598126
0.01119572480336645
0.0004903391483949054
-0.01094851432051948
0.01332099799589738
0.004308682252205409
0.01949142358155491
-0.01111141803860149
0.02124111821853119
-0.01117079138628554
-0.02138262807133443
-0.002070735327270763
-0.004107338885122512
-0.01222011546722225
0.01661658838905959
0.01341827793032523
-0.01676460290604398
0.01073882612600602
2.181034571685556e-05
0.02274700508429858
0.01824247389444043
-0.03553726895461144
-0.02102069610583227
0.03660581925972441
0.01840083311808411
-0.01834858864175792
0.007413518365116539
-0.0176854435137637
0.01743831088522089
-0.01830636172004644
-0.02422078247335189
0.01879461308344024
0.000300765401441178
0.03005514994787093
-0.01964081798653581
-0.00940299048146412
-0.01664087014488681
-0.02695216244178237
0.01796512891070371
-0.02817931298180039
-0.02230405280750653
0.01792981720090268
-0.01397376871384864
0.003430236656423751
-0.005149554390463484
0.005813200648297529
-0.001586334297867127
-0.02925973379393997
-0.01552265211990861
0.02135200412643362
0.003440696738910107
0.03248801276545989
-0.01477222334752873
-0.001487900222777093
0.02473959853415952
-0.007300855322747034
0.01503169232714838
0.01758761670003171
-0.005758706327352073
-0.01851768455324788
0.01501356055986163
0.009527776442507477
-0.01839044609477051
0.006540321946932178
0.0009569313485790933
-0.003187112401851015
0.02782631206119182
-0.02324252846384267
0.0009048749420743061
0.02771233550169281
0.002653821388760861
0.01371931266291288
0.005766823067768034
-0.01889207044926389
-0.006742432768612134
-0.005344779423388089
0.008683492811137896
-0.006990133165327731
0.01136381458155587
0.02721780192686849
-0.002826555431411644
-0.0185019477906978
0.002994140859383127
0.01886890581773549
0.00821699621631998
0.01824468917958636
-0.01580441198072587
-0.02788416754875364
-0.001290919705836251
-0.00450992812738428
0.0005338064599548334
-0.0002749502791969074
-0.01573591786246372
0.01318486056905438
-0.01905112429286273
0.0007084806469401724
-0.01673677980034367
-0.02427540801791515
0.02938524977990596
0.008659165939956458
-0.04141347813883292
-0.0105720615576119
-0.0129772052089629
0.02636252034135798
-0.01493070730829564
0.01329086126161335
-0.01388897583517407
-0.0261067565477081
-0.01785983773313284
0.02002452613506409
0.02369346118615777
0.01679868536714166
-0.01114246571427206
0.01282468948835766
0.0277359721847226
0.03557474664081161
0.002229146868600717
0.02877095420055713
0.02601309009238844
0.001965816780358842
-0.0009131239983029913
-0.006446566013626164
0.02228840686523224
0.030265281181325
-0.01528617929643806
-0.02547872230757044
-0.000721454322923181
-0.02356589806858449
-0.004344649351244773
0.006049695975794377
-0.02383705313308734
-0.01254175219648519
-0.03636119409967006
0.006558386341809964
-0.01074208479347419
-0.009508211441773898
-0.004534081171490185
0.004870658414419029
-0.01094751366355171
0.01387776553389213
-0.0008349257871535891
0.003792733865001287
0.009205715820771811
0.009451977590892132
-0.01220863946560978
-0.0004002764296632259
-0.004250455136947341
-0.02505191098390638
-0.003332125891739219
-0.006155539222703967
-0.004747083063618185
-0.02332684336140372
0.01646681750623583
-0.006151073812060451
0.02191812821637197
0.02358945424379888
0.002046520891298623
0.01205602072545028
-0.008040758853646197
0.01832929369706837
-0.00223524232098853
-0.0007329749802429585
-0.01161095116804692
-0.001769348539320037
-0.01824722227070511
0.007174897825726611
0.01620788139971373
0.002578687363645162
-0.01144772796711053
-0.01366847875981816
-0.008729896071155648
0.02753760052992327
-0.006223290474928314
-0.01858807101429262
0.002932757872332009
0.01859506974229781
-0.01071323449469985
0.01432634390838735
0.01931322467451691
0.01619991804871687
-0.01486218578571227
-0.01788402315872878
-0.03003939706436815
-0.01652830521421479
0.002145827580160051
0.01927784853935492
-0.01746906101401261
-0.02243229822372008
0.01137599945573721
-0.006303036309220774
-0.02101914287860292
-0.01560935818448862
0.01643648578307835
-0.01368403813754317
0.008843689583661468
-0.04650656451068798
0.02365096862247423
-0.003147770397074096
-0.003733222720805251
-0.01340551115367955
0.002611936315698385
-0.02915876114056118
-0.02655975830334024
-0.01702814717899264
-0.02108132894153922
-0.004355985493314296
-0.03416084813798356
-0.002805944291370275
-0.006689330724921447
0.01379276725671355
0.001664787472963991
0.005470789005760669
-0.01127425628658502
0.0003088663852568135
