-2.580455576101714
-1.458792270425306
-0.3896903723807901
-0.4323360306234051
1.743320320426022
-1.200798566545802
-0.3088640059079093
-0.05044740195681748
-1.708588021817772
-1.48057343545689
-0.3923718581417558
-0.362441157365321
0.2000431226336921
0.03463256876538653
0.6160317673187444
1.446089419226724
0.04596230891631713
0.7806721671285494
-0.1341194208854475
0.515764914413173
1.987691475584156
0.4231653490019013
0.5890614458831666
0.3999601543248572
-1.345605354285313
0.1252033729201826
0.6758600745387249
1.678022607591764
0.8978757330689998
-0.9393415499110426
0.05605764379896819
-2.119540309480775
-0.4910256996257856
0.1652705977481883
-0.7831494189308034
-0.9525536014723619
-1.140241766577916
-1.111184552801718
-1.424232747818351
0.6620253076203698
-0.5104409867070241
0.1377844987748073
-0.5487174342736244
-0.1318732241121085
0.1920198375088133
0.5473429521636788
1.317314574440301
-0.09120794862626426
0.2483604954922004
0.6626581529452213
1.72290739506715
1.727493316468616
0.5003121339167339
-0.4270468852866764
-0.4715488272710603
-1.560727546679102
0.03142019776569495
0.9843682199783477
1.991080558418821
0.156386002558988
-1.454620917801009
0.01579502090821971
-0.9910385836953792
0.4268366053153156
0.3869622732585668
-1.984638169162214
-1.617462956452488
-0.5544549024552775
0.3040845507359112
-1.97522983774924
-2.516363259241368
-0.9874674581857498
-0.3643172222970217
0.1781031490919283
1.010050263471331
0.8383014800351635
0.3991589199000465
-0.9894366583105144
0.2802248824943033
1.383888208079149
0.8170890395505536
1.244098031520396
1.119577043670405
-0.59511711531494
-0.4501216376137316
-0.220327437591049
0.8974894601427361
0.4095810532029779
-0.2529425740396727
-0.4668477564360748
0.5132691452201983
0.6229733963755728
0.4306610024041136
-3.091964285999302
-0.5471096973836271
-0.3119597911557837
0.7683806215107751
0.8243371724049849
-0.7380467790886229
0.5364117949922517
-1.98237018155706
-0.9429685152580352
-2.046387419212934
0.1703129681057859
-0.3941727258496113
0.5648721993692905
0.1552452476914097
-0.08759266918868898
1.991227786793925
0.1128285175472755
0.9302400001608967
-1.534469171734588
1.651963949794465
-0.09913667345879054
0.7982460610115459
0.6930214285567828
0.3716085431512998
-0.6056725717674875
-0.3553653022071639
0.6220136669251204
1.392464356346418
-0.6147303732287438
-0.6153087764805278
-0.5092368525998868
-1.564461644541711
-0.3726973205504903
0.3423840594409679
-4.667186433299571
-0.3380582856476484
0.2235289902129383
-0.4979888744188995
1.359598099046695
0.006395917915642066
-1.818690633594937
1.568724866492236
1.243518320905338
-0.02015562628668942
1.346649738405783
1.000779683335789
-0.0663662003065094
0.2579886239651502
-0.5101899348469713
1.051278384592062
0.5622377862544982
-2.009703668076629
0.8787748552568361
-0.05283860616825079
0.1273734327144403
0.4234356541295303
1.416089653086148
1.569231262152624
-0.2625628649161701
0.08089945284599595
0.808495631590192
0.286387686423824
-0.4373779064356181
-0.08944879699773169
-0.1008033250871856
-0.7413083974284835
-0.4760820230091784
-0.4665592344786127
0.8921541968782173
-0.950613132206913
-0.7115628622884475
-0.1493733973134513
-0.2830712593440461
-0.3990102894745201
2.336135279213631
-0.2682634488393703
-0.5631254109030374
-0.09371997524392633
-0.1412397378820196
1.036995030358592
-1.851256812953976
2.503462522490577
-1.488982605581894
-0.5267832913802584
-0.3160450756880074
-0.4204610175035549
1.29973421430712
-0.7848300043515122
-0.5983304980862114
-0.9096673119517079
-0.2382856564810489
0.294721061550798
-0.002053335036864474
1.457316135005255
-1.474069626328243
-2.911739323420331
-0.315061704808978
-1.849990969007949
-2.372911340609779
0.3709658018218656
-2.183589829691493
0.9833396441707393
1.687567500194316
0.5304255325551406
0.04857702216769145
0.2891225418854202
0.2163197615451264
-0.1503483980507289
1.218072854572175
-0.07545416014140796
0.2693303411824992
-0.9714982995151444
1.753208838767885
1.886017862829493
0.921137076881979
0.6839243180015879
0.6362220060778334
-0.4967103004001472
0.09703083271769085
1.27406864314068
1.598907441053238
0.9873001708267602
0.06686413698563019
0.6288786726360697
-0.3416040462653255
-0.6924049133337309
-0.6543076262692746
-0.8755873116496415
-0.8445736569715583
-0.9162164525605841
-0.05581783470144388
-0.9579503962266375
-0.5188613196918882
-0.2601810625938855
-0.01007022494131901
-0.09890369410454648
2.244235365910491
-0.3813845437063624
-0.1805933440401138
-0.5373543222398637
-0.472874555069014
0.6343213013686316
-1.546540898531192
1.2961589398925
-1.445521650917965
-0.8849850539199197
-0.5644690342780212
-0.5927795607854244
1.151068105808646
-0.3022343659552214
-1.083579935981793
-1.051847212810082
0.6044130533448661
0.3595995468272236
0.1618980961748994
-0.4715819425655933
-2.241096720313545
-0.4011260262001202
-1.062759361607376
0.4824345453572934
-0.06693024940673564
-1.926967509711721
1.253250627229411
1.824903074135427
-1.369474350107714
0.9475546988943397
1.663341515504616
-1.250245723054745
0.3776664368262251
2.916508715137128
-0.6359395792040579
-0.8640389571631285
1.17227084822885
-0.4653213758207418
0.3235129645185968
-1.138435381451858
-0.3096529114604131
-1.09911519703469
-0.8771583712907444
-0.5214141797203312
1.764235401379547
-0.5720005078845984
-1.435688952774856
1.856927094928282
-0.4589527185822714
-0.2261991459395264
-0.8575829332271828
-2.563054084991516
-0.4067014271009231
-0.2760121431429916
0.4310582030648941
-0.6298253468222692
-1.233956802468057
0.001708052202929061
0.6466845976805556
-1.258109092469006
0.4965705381945322
0.7789434145779031
1.060294696204562
-0.2862498382630622
2.014975878562554
-0.8298594478724421
-1.213530872377058
2.218107403156716
-0.4238259216642659
1.801559442026446
0.677478896213098
-1.688735999602499
-1.420479825300286
-1.285792996067935
0.5629862160678964
0.721492015445048
-2.336245298312631
-1.15053251798876
2.262702437013771
-0.1674940569523149
1.005210261210244
-1.641148642143888
-0.2395504500590907
-2.20073829566441
-0.3131621042553409
0.344021648150991
0.495334484876676
0.3561347618460588
0.8053105390342693
-2.866642979871061
-2.325480168719712
0.3685532958206443
0.832696650022136
0.2067633489032898
0.7965383133939101
0.1103719663014452
1.390274853013357
0.1118320638367561
0.4179949809342778
-1.594232497855568
-1.200495063069169
-0.8704949358193224
1.388688517927541
1.293955902861746
1.239988784281964
1.598164937926103
0.5453929601914447
0.1148769756486055
0.655028371212498
0.6376555371551059
1.913941470509607
0.09256103156114236
0.8958244574188392
0.1419014079359976
-2.457570531577434
1.947516344399461
-0.7075919478659666
-0.1404088895925815
-2.526818393714628
1.407241964652594
0.9527062091061095
1.49308144226175
0.3804281112740484
0.6214356466775651
1.619827104411409
-0.01194807900840596
0.4322100305840152
0.2602717332934156
-0.7018558146297728
-0.02280128110735362
-1.534584851086965
-1.103554513005177
-0.3423729473391265
-0.1476744260616103
-0.3017843138042546
-0.3052092547575265
1.258743632952412
0.7771672719347011
-0.9237559574948115
0.7985139981587643
1.275193561689236
1.094462905150112
-0.2377370436471283
-0.5953980747158414
-0.1002255260184063
-1.127209254044296
-1.398065675662977
-2.591546124807751
-1.552290710335414
-0.4645184833655008
-1.064119182546294
0.9203739396664753
-0.9278410097476558
2.348255689012482
0.8650033447970488
-0.6360280566764897
1.368731240640487
-0.715789757908428
0.800477377441738
0.09973601525138583
-0.330905734614717
0.03440765431106725
1.051245789069351
-0.9129889419658953
1.699677021564282
0.7081240280980167
0.982875799521208
0.8423557046599188
0.5695472593594149
0.5048161999257547
0.1565841864936746
-0.135252421602489
1.70831666687086
-0.3364478777855824
-0.8347827357157966
0.07568509179813308
0.5641305375693062
-0.1786144799220495
-1.216344639203021
-0.1055478657576984
-0.3922637525308003
-1.156237801022192
-2.23660368915751
-1.419490760523978
-0.5990051938169784
0.1657889777454329
-1.193699092440588
0.5004336556488045
1.149448687158203
-1.351840534781259
-0.1333184096020844
1.389884822559626
0.7770234197566945
0.5743317102512572
1.595615193532423
-1.138225830641977
-0.7689445216375648
-0.5053875946307314
-0.2343478739953837
0.5585343237426934
-1.515964924581246
-0.4332609549446776
0.7833300788765059
0.1334202232168928
-0.2941873343974603
-0.8326660907307264
0.7229216249047328
-1.248154049732012
2.516876777680062
-0.2705796266075686
0.5765341382768151
-0.4023496390142499
0.6177566507068112
-2.523497691943506
-1.593189346318904
-0.396129195635475
0.3592528103842978
1.82490413711536
0.09515086710944852
0.7684924220963051
0.3562023426873768
-0.3498593388635111
0.534142723787408
-1.184867457165171
-0.3897809900066517
-0.5557926135110606
-0.3237247376040494
0.3813660790837446
0.2954183583038069
1.686512090415225
0.4121533994477194
-1.143966678807184
-0.5625782237867846
1.734347854493925
1.16596012447256
0.06947700916551576
-1.065101441215353
-2.062368087076994
-0.5129325597438404
-0.9710973356471478
2.572455903512981
-0.5415214226019359
-3.729146717726116
-0.7255482539635418
-1.78597699193113
-1.389956410934891
-0.64261572921466
-7.141804759158281
-2.351628513128156
-0.6784691851205203
-1.119669366747404
10.3974588408828
-0.4943711179866477
-0.5491834906080636
1.774461800182877
1.525022679551234
0.9185559177043392
6.051864217647148
0.4551396577298568
5.830489562689375
-0.1853273036686625
3.195657277300609
-0.3558663323848688
-1.016437913570363
0.4530143923450199
-0.451767650174082
3.272094522924088
-3.833437333435855
1.938858391170923
-1.385581752317959
-1.676445124897778
-0.4746348104373505
2.156702495770408
-1.037803758265285
-3.870285416520293
-0.6859069321883893
5.30494814596139
3.670976740264124
1.832609397367048
0.9465770261853381
-4.549480173184404
-0.5039066759638657
0.5808182825577521
-0.6852181765682404
-2.155006643067795
0.5414504006972989
-2.031460043386381
-1.047365831619233
1.909867068844175
-1.123028508026821
2.821218169079826
-1.048918903028235
4.984166865101406
3.492767647864811
-4.123888569713846
0.597127212978755
3.454570455605484
-1.025557701057592
-2.845851514579853
-1.656303658253558
3.750710642676902
1.035896805468048
-2.196606766738983
6.117647721746883
-4.539150402513965
-0.5129237302285958
-0.9188693897566321
-0.4432314215650367
-1.180897017868608
0.246485117010193
3.932675761681344
0.7043834150245354
-0.7684177320132834
-0.379655042663724
1.753261943923572
-2.460257532742065
-2.070127332439291
-0.03861851349021671
-0.3121713460981203
-2.16248532225255
-5.074943348434814
0.3526975424005169
6.658696762713157
-0.03415153586442708
-2.043516961608355
-2.596298627569762
-4.91757588613981
3.645620511875062
0.4710618557193256
-0.7432109063844416
-3.082027153978975
2.624984647845354
-3.099055742483248
-1.239065034564454
-0.7246759254687454
-1.84307418436941
-3.793899630096965
-0.1094982012642363
-6.459913098667782
-0.1951395944100713
-3.733667370751088
-2.67402478320334
-0.1223829076725863
5.834457657010383
-3.336948454229722
-0.4766232525818703
3.591062874777664
3.081446968553819
2.76655990347451
2.362780859756644
5.279139483464876
-0.9527288629840777
-0.5504620916160263
-1.546788899827382
1.261823971446035
-1.463314448299206
2.835217444042733
2.528150564544753
-0.5887014888824228
-1.978791704395637
-0.8617985061230067
6.003312419543545
1.328907629738133
-3.931360975269322
-3.078320697312453
-3.495735772799667
-0.2153305216310084
-3.336502842934525
2.351512709065267
-1.00757983667653
2.615694394385258
-1.051456852029184
-1.528507118971051
-2.679230325053937
5.062068085629159
0.814693097380277
4.474355428620211
-0.6387814960431303
0.7716845198642949
-1.790209773827092
3.518159106389742
4.770764094770781
0.6099980896517326
3.125530900840062
4.122273531982128
-0.5225992465401362
1.128157823090823
-0.224522414977974
-2.732790528135291
-3.833245469493698
-0.1429514003718246
-2.376718931217483
2.953627062793732
-1.109216392177456
-4.210542015843721
-1.721818446778171
