4.961489512550489
2.805996189063123
0.1441300134209337
0.4555330500581104
-2.187499975727668
-0.07849445419699994
-4.26539656902233
-4.300836802507327
-0.6081743724647336
-2.664990157576157
0.3947368181502316
-1.247310228499683
-0.8216788737560005
-0.5897499966155444
-0.3097449401553305
-3.415205906800971
6.06233470872824
6.375853115105823
0.1847552969218597
3.406579505889482
0.7643961907615583
-0.09161559910176634
1.782462242278903
-1.241800163029261
0.9275655385855053
2.41715943226073
5.535210454530958
1.308897152125719
-2.248225637468448
-4.390448443131462
-2.103445540287034
-0.248415051447087
1.125562937530223
-1.254168842041379
1.170767999393761
-0.4343687129852772
-0.5274433127135054
-4.365510451160577
-1.009501870017318
-0.2454506613933311
0.1412307300965369
1.629870673265293
-0.03610309218225227
-2.574475996522558
0.5674850916330233
-1.328743920601577
2.816783737799486
-1.502159776460824
-2.384994583387356
1.814650002389294
2.396606541529048
-5.674618939872265
-1.65450563426538
3.640943007321138
-1.214286659072371
-0.3898034599685027
0.1105442589195774
0.917745950283301
5.893024813242612
-2.932961061577533
0.3462355244705289
2.888131990421312
-0.3141212044387254
2.097927848741093
-0.07195140511917839
-2.476740773200302
-0.4558752035461511
1.652064356207121
-0.2303711895427684
0.527175947763443
-1.823308523154507
-3.908676229357074
-2.935692247924217
-2.101479262384721
-1.193671784213558
1.478287647518753
2.395363940225109
-1.189883618644266
-0.01812099079800445
6.7252106752555
4.759599643576808
5.701483989222552
-0.3593211414364341
2.429113342765285
-2.759588423470946
1.516496535362628
-9.89474810913401
0.5234919403322025
2.736388868480525
-0.773917769908729
-0.9961468273114489
2.788294209616654
3.362928919110476
0.6454221720188961
-1.205075428412542
-3.578159281867793
-6.374088954803076
-0.6702398137070067
-0.29365639609995
3.653703497758269
5.930002045336677
-2.447207545680341
-2.003584075714222
-6.271517645774886
-1.903459454666066
2.064083642032151
-3.45634794821926
0.3604894104706444
-0.01234071725627201
-5.053052588261806
1.203996966528662
-2.785243067814731
4.056618281198496
-1.605294541431201
-2.962309443018986
1.658856918662569
2.16764877264028
1.024924933665745
-0.2665962273253278
-0.819659152295008
0.002525879182592709
-8.801691628607051
-0.1972524624062801
2.424395694755713
3.172558565064239
-1.288892411452201
-5.070379446222056
-1.721810544741219
-3.715395676171941
0.8992848275733588
-3.50831457762193
2.808534825124178
-0.2296513596413637
3.167585876072045
-0.09917431015306716
1.159192305612897
-6.03063800973856
-1.225598036827596
-0.8906806492286827
-0.0987968406087177
-0.2724748051676625
3.080207791980905
3.591049950608017
4.208228541951496
1.261886257650197
-0.417081407641732
-1.897045823090548
3.910953954533976
2.856662922398093
-2.545452646826128
-1.540941086452467
7.445651409178015
-2.642407903985558
-1.568379980774864
-1.017804941323111
-1.496048858600603
-3.170362871530179
1.042589328747254
0.3276467030699736
-3.1876970012289
0.1923328359071452
0.4522785447319168
-3.334191310031744
-4.997801618777101
-5.916480875302739
-3.192081450164013
0.2786689387802554
1.882449238600161
-0.08917586547837099
0.941299521682571
7.940782281028395
-1.297371959398214
-0.1425673059132944
-1.110283086546598
1.501939804666397
-3.058935707066528
-4.137225752657326
-1.896672113348297
-1.320501866103986
-0.3973780805773324
6.191786455244789
1.891578335025521
-0.4588229316644543
-1.993779128773436
4.498081649645603
7.036772968725265
4.03233756037736
1.311538269985013
1.407381236651214
2.764214736067279
-4.50642804328307
-4.325398529658315
1.891033482507098
-2.498720893498713
-5.699824445471362
-0.6931978253181841
-6.482182211796815
3.099819667546453
1.891316860301754
2.951565625450677
0.3179193675935094
-0.7259517994824307
-0.7618052679602595
-0.2455033953722594
1.165108249855724
3.814906369587964
5.245190718660185
-0.08054870358546676
0.2190680359881007
-1.903001913961778
-4.177972811156676
-0.6020958990363063
0.8681918473975324
-5.391224164486494
5.164440961519735
-1.521372494857052
0.3650594006994151
1.998650609760242
-1.196024988635886
-1.376624005088164
-3.346886731305773
1.866715612833206
2.50862665654587
0.9170371103416914
-0.1730350818355115
1.267574201164429
4.787091636069228
-1.363297222392153
2.469158210487254
-0.2870457095028722
0.5396893671719268
5.678251961835867
-4.521287623584579
-4.598766485036829
0.5125603913204999
4.679581108338347
-4.710350188099501
2.242162524948433
-2.005803643506054
-2.240026588167062
-0.1570927538804609
3.396935095457988
-1.700858311036149
-1.897479493546966
-1.089623354448035
-1.11989202812942
-0.2400324949312522
3.216327563509339
-0.8596276814465225
-1.830332504397444
0.4302513177102649
-0.5014609297391039
2.038733615862039
-5.640540390574556
-5.795988174628552
0.2922878796357018
-0.8213272860785603
-4.793018578263219
0.9466589979925335
2.006378213054915
0.4388509484058609
0.9805432618358155
4.66749166908139
-1.370862723549999
-1.525191430706502
0.2537708549771872
-0.6922740774316049
1.265449783627653
-0.5126043760056023
1.790497634581751
-1.390053666228852
0.92141630295258
-1.732111390176175
-0.6922422833523929
-0.9986164098334936
-2.788610834012476
2.534048317105152
0.2504254301153893
0.7012725584541601
3.863180116962401
-3.77669375621022
-3.910572315969965
2.797039143724756
4.306560223349708
-3.989955909183734
-0.2316572245498143
0.1292153520207711
-1.116363058636429
1.680748044009196
6.278948881912974
3.519090974529232
-0.4757806629521544
-1.12604568863491
0.9277185029268639
2.384669393132186
0.5110881741023064
-4.568531177326994
0.7329955848933766
-2.506395106439532
-0.7790553561189175
-5.083440890284407
2.529746107110606
1.976972631778393
-4.427459835290934
-5.096859906746406
0.2459138761356197
-2.167174732059932
0.243651966488182
0.1440496092695787
-0.2859437043676488
3.955264145180942
6.294334769554736
0.6096755950301107
1.299184354059639
-0.1389331210143447
-3.285908445868012
-1.937977909818496
-1.585235931733464
-2.493523423035512
-2.530938054487466
-2.191533934126669
-1.595892527318148
-2.824846533315012
2.188649775481266
-2.948485411502117
1.505329204031609
-4.573678598608815
-2.537686029401315
-2.559292020275636
-4.085161633630877
5.703607861110741
1.864782534806579
-1.334038237699361
1.748481533925302
2.186403530025308
1.869177020689126
-1.384942909654803
2.570995904151373
-0.9371107661700132
2.454738349953622
3.150647546072732
1.844009415923888
2.912943695122582
1.743224529636347
2.190132197602693
1.410893191206134
-5.624162721833864
-1.549825984653352
-2.294926535545407
-0.9700365195109745
-0.559619099925766
1.58286160370909
-0.5242990419429103
-0.9965237953946318
-0.3272720132368233
-1.570742356030661
2.970392671453092
-1.223812957421712
2.959822390587403
1.901300772415767
2.114282234244568
-1.840367183546124
1.361932056399661
1.815407041655781
-1.356464469530108
1.787494360191805
-1.005969788277555
-1.794185161294287
1.897557354461099
-2.522240539078076
2.729722942928342
-1.812775835508208
2.527150063520723
-0.7056395673576549
3.007521750940722
1.824270532928893
-2.07052085236817
1.28197070843067
-1.054230672028419
1.927739133583772
2.301333396574501
-2.012515538404091
2.0689771734515
-1.72838390465947
2.25047497316989
2.553660606631583
-1.679934205263655
2.021784566362021
0.6151646686896931
-1.873503874018683
-0.3320799916837632
0.2334188665438301
2.39682936663134
1.536519722091269
-1.74425937027011
2.139234281717395
-0.7742383081488391
-0.9041486024819466
-1.515193760484763
1.940751558883595
-2.058523505871997
-0.7675128110559905
2.815586346350261
-2.697864204267817
-1.025794358549064
-2.29171998250016
-1.305168584659405
-1.45759233528952
-2.347698908099864
1.793943945691096
2.698190753676266
-2.277038104941109
2.383253974507184
-2.366478177515671
-2.419504442040894
2.085406788062299
-2.486473166553556
2.584624558738116
-3.994312554173653
-2.675345143619007
-4.294702455807416
-2.469378854253366
-5.358227117149847
-3.367624139574611
2.091516688719026
-1.402561216189541
3.031768826438587
-0.4150804303809804
2.133389018756909
-0.1250694089517579
2.103189398157864
-2.02166043782778
0.3098370588046643
-2.314427111710461
2.543070371367354
1.895130707720038
0.2151740718925383
1.872847545861216
3.624913787315813
2.101641372534643
2.362820144488063
-1.420889606439247
-2.4424663618213
-2.056672298574588
-1.277381305041665
1.990655613046456
-0.2765998855775625
1.724011577585573
1.998428987609856
1.999273660915724
-0.6451561691769581
-1.701945346038684
0.5156547073179882
1.477335557777383
-0.6165029100344116
1.147185026852703
-1.996538510943592
1.590933299741929
0.2474211810787921
1.837224939364262
2.215304106835003
2.410431271856311
1.880598499557969
-1.10521720453394
2.150117514286577
-1.403275429935207
2.315696167224332
1.86779146538081
-1.811254544256613
1.787639075482977
-0.3285214413927517
-1.607797094524929
-2.136080649763969
1.198914457326859
-2.201738745655339
