0.7148715533354353
-1.333588219735011
-0.5712551428429882
0.6889502836414949
-0.2490126251879441
0.6806252297531299
-0.08245820427582687
-1.238990887943651
-0.6709248629371797
-0.7817537692124084
-0.7015295395377263
-0.9390474991848224
-0.5464136133496739
0.2336542974409707
0.4454155782684398
-1.018088457427919
1.080945195663982
0.0570900139691007
-0.5001815565880282
-0.6285226537100241
-0.9545042512315317
0.5759379096686212
-0.7265227982688469
-0.01194240325440243
-0.5898408265594673
-0.8175558066560585
-0.8991943374479942
-0.4416390086217922
0.5045726646455667
-0.7618475166854634
2.068354262444175
-0.3055767724859688
-0.2036263451262322
-0.2722421078653183
-0.4237633228744589
-0.6316946816336294
-0.164259328735578
-1.288903627762324
-0.1202706384962232
0.2642324803273319
-0.3408811061809613
-0.2702074463349899
-0.0836516838378754
-0.003701105493863396
-0.2688076506994109
-0.8769701115745849
-0.3212498540066742
-2.153362326137806
-0.4947693433158585
-0.5392135088597887
-0.2348732829920473
-0.2329359926001685
-0.6968053004740146
-0.08771362157199357
1.217410198203333
-0.4775751054119429
-0.219938653928753
0.1890341857025778
-0.07562171275302169
-0.8764337145818661
-0.06022782635829341
2.908298250851872
-0.2731296175638389
-1.031403182692639
-0.2126454121595711
-0.3525152959359724
-0.1509640728640766
-0.3319193381458608
-0.02569713383923225
-1.057212317404172
-0.1944897383693969
-0.403574358772155
-0.3137068461325657
-0.8448563729732274
-0.1583818146661587
-0.3403927598582552
-0.3201499585498124
-0.667371959745841
0.171766893676874
0.5046052835401766
-0.3694737141559274
-0.2259339569820902
-0.8796395296136037
-0.3244463055161746
-0.341148756055736
0.6510873970561017
-0.356740899048132
-0.3964179194195372
-1.142151958763571
-0.09993221107001557
0.693978746389988
-0.2414109967599534
2.286574455379529
-0.9930325009777432
0.5283779648392907
-1.305718928336312
-1.030841331245196
-1.255958264869408
-0.8209840004787514
1.727000205704756
0.7412805371473539
-1.16822122160312
1.421925228382096
-1.267776070418171
-0.01455511457069288
-1.065517462711172
-1.289058104303577
-1.743529783273398
1.768100528593718
1.119878644562375
1.161852228983233
-0.5239060108020793
-1.381167080841264
1.421843370370697
-1.531669381750556
-0.07434381107043259
0.8642564580741677
-0.2544014716481541
0.1424163129480437
0.6551284998476146
-1.065682686352736
1.915497577354754
-1.380411050383314
1.485167850991993
0.08131432869290932
-1.168046111161571
-0.3954659916636706
0.1118919212588788
-0.2794725063089938
-0.09849678737455519
0.3187904613820347
-1.015636404507597
-0.736560010510897
-0.4548775233675624
-0.4625585711093657
-0.6720632011789982
-0.5092302520140868
-0.221744437468635
-0.116474283276067
-0.9330019312053975
1.335656398710414
0.6566353332868897
-0.3501416483416875
-0.4415334757993652
-1.064439432875237
0.003620472679715607
-0.796417281464341
-0.2773910171204019
-0.4164945193100458
-0.7656408016057393
-1.483484789795267
-0.3269036557298091
-0.09620495660059109
-0.5363320279892017
1.92920974135318
-0.1121715264100056
0.04318785877755906
-0.6016495265766002
-0.1200710747856821
0.03299656455468283
-0.3041022528706567
-1.315937514571009
0.5672128816879116
-1.183552334947654
0.1547545372848726
-0.6933672805862207
1.205101264947688
-0.8871139276638791
-0.2429998929462052
0.6781972004837193
-0.2640051269089851
-2.21869041101739
0.2036468242022826
0.7778468273759882
-0.7011391883059988
0.4762983908208273
0.5540612399380076
-0.8639889644384943
-0.5704189889400549
0.4784420154391292
-0.8215907316017624
0.6090544806398864
-0.6832611942999101
-3.189030237164568
-0.9712029714371796
2.576473579769065
-0.4895927942201506
-0.001363869435489514
-0.4239425526899734
-0.5080778055089166
0.4365512966786441
-0.7849642922753137
-0.8245039677106724
0.6049455171971356
-1.407335497686157
0.4372718068968227
-0.588010578392568
1.296187527971294
-0.8680788148695153
-0.4997292380314777
0.7768092803330252
-0.06144727973165392
-2.749190603329738
0.8025967636873563
1.163532689817532
-0.559377634499463
0.6344026595851495
0.5200035839892001
-0.7392879413257744
-1.225276251105247
0.862077850365729
-0.6494647124006432
0.4744931324788833
-0.6113189130611579
-2.953385516259646
-0.9842029149292173
2.780412811443639
-0.1324942053289051
-0.656176531479764
0.06294614715591101
-0.2104610292624507
-0.0908598735319702
-0.2127050330735807
2.104824090959417
0.01649275366015528
0.2715801272585444
-0.08669213054455015
0.1488000174955734
-0.3768286879347776
0.3449448159094095
0.1833592897883403
-0.2177581028259787
-0.1037115505693766
-2.308089070685304
0.401231595442661
-0.4860233878783496
0.08419846645305108
-0.2554630554447245
0.054024514870739
0.2250871964297378
-5.549758823104757
-0.4312761501310067
0.2844712725850359
-0.02298899937041627
0.1597748500052748
1.229358968100206
0.09017377600116439
2.372821677711579
-0.3639255368075032
-0.3352708096507291
-0.4326288061588521
-0.5116489674193476
-0.7492831464545969
-0.2576063900334767
-0.8641034527157836
0.1229806230939829
0.07116227756442804
-0.3471763142288542
-0.3980444330377595
0.05244235564265834
-0.1453716095781926
-0.4114360943359278
-0.9293964499528278
-0.3814333447538101
-1.665403709213255
-0.4253503851766249
-0.5964524453385367
-0.4127417985663731
-0.2325908836452591
-0.7074231702201224
-0.1724685687801121
0.4656411678751579
-0.5220113861132173
-0.2141285495603225
0.1033910207357381
-0.2617587539372266
-1.31813769384362
-0.2320656016929662
2.686105202459969
-0.8719072041461627
-0.6745156777601982
0.279595564749553
-0.9865140323295262
0.4338640653549675
-1.029799545541292
1.601343369130345
0.01339142585812
0.06889817050515844
-0.02149305686180621
0.296389452070354
-0.1017449148257278
0.3161860120889892
-0.5223305800734148
-0.08254511228391707
-0.2065314830703551
-2.84659016721274
0.5508744283292747
0.06544166305164544
0.264743238898286
-0.291732736243678
-0.1860752307816892
0.2259247128448472
-4.799934356114479
0.07414082063559545
0.2996776330220218
-0.2874606168168113
0.2581562275136727
0.1110993204106341
0.1908995985475585
2.374906237776126
-0.6457836366385606
-0.5973374283403521
-0.04576841639418056
-0.810855112538118
-0.03894966034047755
-0.4388619725520525
-0.7859367187817231
-0.948055481750434
0.1696212094016813
-0.3660479350979877
-0.1397581041714277
-0.830341727052303
0.114665919877143
-0.6620536878691058
-0.4531473272857838
-0.3895691945853961
-1.551274067007143
-0.09567756461367186
-0.2684206368244261
-0.1082674912158879
-0.6292343784544857
-0.6912343344216613
0.2076802093370286
1.574026634094817
-0.2635918112216981
0.07136468803910952
-0.6221585798756221
0.04964426874726397
0.1245483290910614
-0.0342696426218554
2.131498703510532
-2.005737107209718
0.2676524658839667
-0.2038957189309299
-2.009860456768992
-0.2107326411059176
-2.309000016384882
-0.711201360887846
0.2998155722708211
-0.3396766049396924
1.07209696325941
-0.3214518630011873
0.3298455462588448
-0.200928366428565
-1.097643542219514
-0.681863558865683
0.8324120972665595
-0.8680994793635308
1.203890389468812
0.153360134768433
-0.2715751883120167
0.5916161009647257
-1.103058573258064
-0.5136537612782028
0.802836761162665
0.2126776423718867
-0.4915937336075656
-0.02827914883468761
-0.1172124329073088
2.490299466284593
-0.2499662282983295
1.50921626573767
-0.7862001463153044
-0.5853442860404224
-0.6383112258708072
-0.7112699744351817
-0.6937326304804918
-1.340222882263032
0.2054598855158427
-0.4511581383610807
-0.9339704718591362
0.2490609145080296
-0.766272876966711
-0.1048673832662404
-0.7278166748130265
-0.4617063596062474
-0.4584576868767906
-0.3031927674974512
1.256996991649194
1.306689002887153
-0.3321034981908237
-0.7185724015114995
-0.4068232296315529
-0.3399233337736528
-1.424357800597889
0.6884725870899471
-0.3731962135229495
-1.371760689589843
-0.9467497507687547
-0.5851593918594413
1.732768475404257
-0.7211182893677566
1.604778270955862
-0.4588842524628383
-0.3150623243352255
-0.4540133048187532
-0.5243712419608302
-0.6905167963066795
-0.4624743797390005
-0.6451346374060919
0.6276201236321587
-0.2257276617785585
-0.4463373993722409
-0.3689753291403792
0.4453993126899324
-0.3206872598971434
-0.5312129961364598
-0.764475641420284
-0.5292548693749357
-1.374138950702919
-0.552733747168793
-0.4372669124261014
-0.4435338595793898
0.05985344975470612
-0.5997909863179939
-0.2838267276796871
-1.103164699412745
-0.4633351407650752
-0.2747101091936913
0.4632408280903575
-0.3308279776282677
-2.477429708194536
-0.2945181044466917
2.603489771403664
-0.3571464028606141
-0.3055677287761934
-0.3845957482239498
-0.4988758999330034
-0.7407381357877294
-0.2751964054172267
-0.9419719474090207
-0.01598481690169542
0.1094106031549821
-0.3458175282625465
-0.3911518686739346
-0.06348344767616368
-0.1213591402479664
-0.3792105164816654
-0.9416972153566849
-0.3219235072706317
-1.767792164002947
-0.4037870761531439
-0.5801616994288178
-0.3963645903007115
-0.2589521035293656
-0.7404277526282891
-0.09131905683920184
0.7331847613890863
-0.552963634754952
-0.2234132985802932
0.06252500623872749
-0.2064000617895923
-1.153042117775673
-0.2000724938895117
2.71617844450531
-2.131453955592483
-0.7871930224340928
-1.350040802007895
-4.9903697923456
-1.871171469154288
-2.193703616276971
-2.271669637167292
-4.576828784506469
-1.319422410074315
-3.518952604969756
-1.036445668329259
-2.208780012839447
-2.275904494126147
-1.587147044234577
-1.212335244580502
10.37497923208124
-0.3926930521668623
2.407389043678588
0.5711461233161552
0.2962161943375871
0.3425974453948383
2.260249613317229
2.353634224864404
4.179472653017719
2.887452003189604
4.172637012568319
0.7365975619311714
0.1133777036118055
-0.3054208256369174
4.37028982035606
2.618280539126825
-9.322187537996657
0.299025862603307
-0.05340697493653195
-0.4354638573388497
-3.907581409014014
0.3732929709126054
4.009019693583602
4.078222283223267
0.2474269666415259
-0.1117043716452078
0.6381247954346065
-0.8318066247576776
-3.74710866328399
-1.22503988596585
0.3802799286079711
-0.2154756537673782
0.843247925379108
-1.848660407495551
1.069549924200514
-0.9967449535653097
1.546523041591892
-1.526813035066678
2.347941508871453
2.207560469393598
-2.81404395293547
0.8202921778016228
-2.108013234974128
-0.2903984566242814
4.388317779807887
1.625430865906954
0.2297418287736113
0.8203296369439071
-0.8423289243755572
4.093935210721832
-2.215160119655324
1.65721502866293
0.4302789937886732
4.136736250164906
-0.7337948641154484
-0.6535903370989373
-0.001389949672927131
-1.740856466218159
-0.541518137791335
-1.077181505419392
-0.5984056187077228
4.146608030349576
-1.346085305818874
-1.864680396643275
-0.1057604067796467
-0.7366971657563394
-1.421696328577797
-1.811179434714129
6.510547585811961
-1.570806466308541
-2.570895647960308
-3.344841581190455
-2.798959751915783
-1.097585919531427
-3.462625682044477
-1.245967500232507
0.6925739285109274
-0.9361178263878949
-1.000549532524399
-1.114944655382488
4.602046147557114
-2.085342807623464
-2.098024911913851
-1.662901409136617
-3.870720769706869
-1.738102122663391
-2.751732767475943
-2.558114071917894
4.507218116321895
-1.740231159545146
2.604148628859662
-1.547318742606138
-3.160157270263807
-2.049176548756447
-1.466478031414267
-1.797454807859917
4.351993396035011
2.342152205306749
2.632782319683391
2.067003890124986
-1.65468584059934
1.9227190268248
1.540042347183836
1.39689233309977
-0.9946805814381591
2.49831750396254
-0.8509460185887516
2.748276875860153
-1.9793890986744
-0.3875772006855102
2.043783521576517
2.650074651161819
-5.081681308034829
-1.272881609407164
-0.7853415869015795
-0.4205060528114
4.524678909022269
-0.9182523652663214
0.07675711534849808
1.220460798982313
2.608166617343857
-0.8521913677733699
3.395680472559448
-0.1648584194474723
2.179446196833843
-1.405470932468672
-1.025635983893463
-0.8356518382692051
-1.960212575877095
1.695075626537724
1.279274348618504
2.276466577460607
1.1660627513649
0.8572919114806291
-2.007012259880626
-2.381887282235783
-0.3148494796688178
0.6673272313372423
-0.3018477610790519
2.731428113451163
4.367052190045296
2.706112300416399
-0.5897698435495853
0.883419447350943
-2.886474671653347
