0.005224832690044944
0.01264464731368058
0.01922894933590374
0.00638726093161489
0.02109376362039186
-0.01165162583759483
-0.02210506404701371
0.02647150266594226
0.02283887235633145
0.0231510278583165
-0.001706762353866621
-0.008704346280999881
0.006863792060020298
0.0130194334356115
0.002951349298854052
-0.01414398066700904
-0.005291642379616917
0.00361625487000517
-0.002778726450834261
-0.01301365972880345
-0.007839763243077254
0.002030685988816131
0.00371982539516495
-0.01224463163384387
0.02333009659335843
0.01989682691591986
0.01953840595295995
-0.02044643412669252
0.01339278231602156
0.01109369586118637
-0.01772869681606301
-0.01498726744560092
-0.005816704161252286
-0.02151361411115836
0.01592549584612251
-0.01721912560825515
-0.01033580351294152
0.01906194618404202
-0.01761916811909871
-0.01488247323383592
0.01440000540514614
0.00655899217998619
0.003355786023896482
-0.006808475088356632
-0.007234881115074046
-0.01754520391180232
0.004214443767082098
0.01196091594225105
0.009763592104784106
-0.0237992747984268
-0.02432580347825462
-0.02480441295447183
0.003569544998097753
0.006568714038168661
-0.01098300422705875
-0.0006943818293168888
-0.002681817528760473
-0.01536714209312073
0.00591808884793194
-0.01781379384771567
0.01503212720481874
0.01220091979591306
-0.007835275184563789
-0.01657237508381057
0.01395030766899583
-0.0186616996736932
-0.008401304505836302
-0.02241934118743277
0.02350839904633422
-0.001241573507817871
-0.01000920319642959
0.01254615825369788
-0.0204625546047999
0.01570844896442712
-0.01953426855385629
0.0003214459068733186
0.01850136338129298
0.007947994985981106
-0.008037897311463262
0.01019867549683674
0.01088750401654896
-0.0119007385948756
0.0101911270790989
-0.009311324340092559
0.01985374234418725
0.02345970958329114
0.01692554470869455
-0.008212460350484221
-0.01934913949133919
-0.006750338139832552
-0.00199504687392021
0.0241538242251487
-0.01780946295755088
0.01244017922478592
-0.01856073123890661
0.02042937043179925
0.0183576559322402
-0.004125287196651724
0.02082495302337715
0.01735616978752179
0.02798235627558181
-0.009619690215695146
0.004678893429020836
-0.02249428294084404
-0.01644234305673532
0.01520892118491534
-0.001555807415416761
0.0239706882365362
-0.001713332155891552
0.01294044942191668
0.007890092923344454
-0.01636907433020036
0.02443024293783757
-0.005402047436722387
-0.002069478849139721
0.01580993827927548
-0.006985054794168689
-0.009639776362677266
-0.01744105017343025
-0.001384125106819636
0.005590049585591388
0.004118956718129389
-0.002456731629298499
0.01212296279697716
-0.007028414707049556
0.002275127478303005
0.008390889152792968
-0.007697807130673929
-0.02240455299113952
0.002928284841054473
-0.01691625839678124
0.02520902167744047
0.01833811746639036
0.01682835410211111
-0.02739184490099848
0.01937153585343669
0.003398435193566331
-0.001673183442587848
0.01921044005356502
-0.02431947943013609
-0.01633400137928847
0.0003243636392135346
-0.01677153220764295
-0.0195998324830009
0.01975998887887777
0.008550197900425157
0.02395534302274904
-0.01197857598835412
0.02154419640043939
-0.01975140942214415
0.01774897356996285
0.006467284057354418
0.005894184859147625
-0.01448728611539088
0.0007325930969255599
-0.02013551194249003
0.01506380639830232
-0.02117305232017491
-0.006707472109413963
0.02126040165759109
0.008726061549987726
0.002082022895182558
0.02341507292377052
0.002999879905480715
-0.008143000964265434
0.01928173357126431
-0.005103574837994462
0.024062160136667
-0.005088620335832842
-0.01519723147855202
0.02144596108680792
0.00473370863300274
0.01395154323912307
-0.01697817705217753
0.008777972379600506
0.01225766465262653
0.01437654231939481
0.004646850156765229
0.02680012288497323
0.01519920288227415
0.01019293113152916
0.008616937706612017
-0.01182217752399617
-0.007042981643562156
0.02097609858379881
0.006029253038848976
-0.002893200852222052
0.01004359087220375
0.005621544872367747
0.01306550819944112
0.003720160483542094
-0.008508015111861817
-0.007689922916809288
-0.003516511635627206
0.01632747805043782
0.0108366338191917
-0.008892597756880127
-0.01399749356502435
0.006309301619773904
0.009972711206143167
-0.001262283579243574
0.002695510833091055
-0.01106344822665506
-0.01003512222864964
0.01256325349083887
0.02154974405564026
0.02233415704767559
0.002295149687399088
0.003063278773124424
0.01676289116020937
-0.01313984557954051
-0.01207158324373439
-0.0009138271944926975
-5.460242263868142e-05
0.004059081492881909
-0.008744926763234767
-0.01777224274987598
0.02384030140703363
-0.0258414726252972
0.0148529389900873
0.01271304618052026
0.003374337412410128
-0.01969511050263519
-0.02273497031261192
-0.02410930431331084
0.02145918356141829
0.01163775298301065
-0.006750585336042904
-0.01764503248663742
-0.006417960599012618
-0.02050031627666741
0.006428758565577711
0.02322237877971359
-0.006628455455938271
0.02003522681716709
0.01017161012904345
-0.009328214213414406
0.01680889772316796
-0.0131090598841477
0.01865111010889163
0.008576751832874704
-0.001032038288385265
-0.01951020274449978
-0.01787613785458825
-0.02507728532475707
0.00979629244450838
-0.00154937668642317
-0.01805900709964803
0.00875080729055721
-0.001330887144614392
0.02747324020475301
-0.002958101953697858
-0.02483153884694098
-0.01880794674866035
0.003352901838735383
-0.01949592601409957
0.02424419168777723
-0.01528830993023863
-0.002337570855430844
-0.01534460226070228
0.003208187968207308
0.002561397734788416
0.014797218119594
0.001689324744865723
0.02002980870347012
0.007785843118910828
-0.01147297217036033
-0.01185996264304423
0.0001758209564043202
-0.00227201737912563
-0.02189841239459035
-0.01823698869802679
0.02112602771423056
-0.01683107791562732
-0.011859822222961
0.02300300223274139
0.01969597768561161
0.01373665632638111
-0.01987476816865909
0.003076396071349758
-0.01223291976074548
-0.02312156332911171
0.02412806481929189
-0.009870980458503965
-0.02126667428528297
-0.002831874646574103
-0.006715827987175889
-0.0224178600086402
0.007005826302848373
0.01517443468902226
-0.01650388114810384
-0.01479170473006015
-0.008934598168371943
0.02097307119325908
0.01199780309966457
-0.01437914042563243
0.003664879482487386
0.02367115443222904
-0.004089693186027816
-0.02172855553013211
0.001286572860456212
0.001486102342132356
-0.01425912565318252
-0.002778083203271103
0.01394828544913164
0.002411764382989588
-0.005508452203641436
0.004684881954449779
-0.01002324675530533
0.0003239766970402605
-0.0176233055767306
0.004303346837060892
0.001925222060804863
-0.01832223317416139
0.01810590530685043
0.004741069980252042
0.004126559068384304
-0.01199553868908003
0.007254106836430234
-0.01584535456564273
-0.02174953227650349
0.01471942468947066
-0.004331569009655022
-0.006757160987715435
0.009111786228129441
-0.01418730097980798
0.005393845415366845
-0.01096036839212611
-0.01827190679229608
0.0289045824005974
-0.005586243539966103
0.005229440328024954
0.0006303902347299969
0.003746523293693951
0.02573377742980401
-0.01610879449416368
-0.01863488134441491
-0.004407589439250835
0.0133242683713958
-0.004437202657207246
0.01607559252586203
0.02098305494135657
-0.0238695719586257
-0.007328159855825552
-0.02326572868057512
0.0186174060899068
0.02196591452570447
0.007012173156293877
-0.01875821879758113
0.002310670574210526
0.01996404104119237
-0.01508567852293388
-0.007811286489455578
-0.009983736104103236
0.002727112154090636
-0.01838588440359911
-0.002349035961500594
-0.02242376471649555
-0.004552949407881876
0.005736189195191753
-0.02186186031002943
0.01282977839277796
-0.01598271029995642
0.002468475149257535
-0.007384055911375611
-0.01631130159221549
0.01083331755838641
-0.0001577566018102964
0.002462179311915675
-0.001090370470754518
0.01851643486307785
-0.007563359128791485
-0.005499901498064713
0.01864319553208544
0.009545431472650216
0.002095314459693329
0.01755593356447763
0.003555366721916479
-0.02419512227878788
0.02524849026238455
-0.01459282501939833
0.02134553996339501
-0.01788818399173131
0.001671006397933376
-0.01519606742682376
0.00194445264882752
0.006298192574551202
0.01397773915638786
0.007064063952535658
-0.02631994560372741
-0.0140820054950239
0.006606435917692137
0.01520002608198961
-0.002431499464897466
-0.01996889232428599
-0.01824139889132132
0.01040124280194594
0.02172728584284522
0.01128337320965393
-0.01636551514616535
-0.001654051173859308
0.005392262483789464
0.001174814664214764
0.01681608808958376
0.003339979650183285
-0.01130189973067445
-0.01143272837109785
-0.01161024850050568
0.01956960805308777
-0.004678472504991687
-0.01642780377984526
-0.02187278289657944
-0.007953764684076244
-0.01362393497972014
0.006274579429478367
0.003156014533709616
0.01426553513985232
-0.008270106479849267
-0.01102047570604487
-0.006930842278599841
-0.009759762295708099
1.305316371706618e-05
-0.02508854544733965
-0.01822432934602745
0.022694321983927
-0.01233971804093294
-0.008613068964624829
0.003595202092990937
-0.01493937437321016
0.02662085464125281
0.01104353465903858
0.001573644818275588
0.00140659186492015
-0.01390910150395723
-0.008999601793560835
0.02387083236869614
-0.002151381250401682
0.002797472667387837
-0.01489447726046683
-0.01134148018016743
0.01918718432634663
-0.005524075687550428
-0.008805938597838023
-0.01690006625336176
0.003227800589890101
0.02344496170208179
0.01114069375849907
-0.008548938821944458
-0.01363266093848228
0.02264285859286436
0.01305582788634427
-0.002160137156652215
0.001992876793020527
0.02010765558004301
0.0151562706482379
-0.001644779537828471
0.02227686865211862
-0.02183442772786607
-0.01962018497288899
-0.02044207815349439
-0.0227934384200415
0.01712923561464816
0.003257232794346374
0.001617585694443648
0.02476552729211262
0.01810900154471672
0.005030487386266748
-0.002638988298775304
-0.008456583212706715
0.01582169337473656
0.0128631065015024
-0.01085338149321132
-0.01437278486721582
-0.02477761781466364
-0.0009170656294538624
0.01604598026221488
0.02701519840413874
-0.01647867030449019
-0.02292272307233437
-0.01486302181104959
-0.01515739390394946
0.01376977891651013
0.01231318610825254
0.007776818400305877
-0.001999306607304919
-0.003212228776649031
-0.01930013288828513
-0.003474893734600173
0.002073379307191643
-0.01616099686463943
-0.004387203427010103
0.001386935869602232
0.02279839801849132
-0.02458580780194309
-0.02044518116624369
0.02240630703265119
0.020217940781431
0.01141667258501972
-0.003920130940731951
-0.01120722539141202
-0.0001309580323205483
-0.02216035340055221
0.004625655569480477
0.0145757959715127
-0.01815094260078996
-0.02407312792752377
-0.0001281425612105112
-0.02154037859485438
-0.01270473938661345
0.003801812257583843
-0.0123992137267979
-0.002547100000409724
-0.008343508942481214
0.02154470223191794
-0.01942863487235282
0.01618522131993614
-0.004578858895344204
-0.01400934531936782
-0.01610746287177514
0.02102044061052303
-0.000250720748533007
0.00970743099504346
0.001436276285796395
-0.003655099798492176
0.01049302388579339
0.007614187220792079
-0.005470320757447381
0.001239208665468598
-0.007222305849037494
0.01605885386986265
0.01670888595372975
0.01580326016375612
0.01776791299297969
-0.006361205746686597
0.003193003299489836
0.02390961433988676
-0.005967017320689425
0.02596057633607904
-0.02193055329766777
0.005828636901346091
0.003538300629627176
-0.009870112157899093
-0.02197014157410262
0.02120206434262904
-0.0134414411706541
-0.01971214261377436
0.01225013371737861
0.007872713378787007
-0.007834852895082747
0.02323431526037404
0.006523385215539122
0.00942751514469988
0.007125180730482989
-0.01570553613848267
-0.0135453077680793
-0.009445974247628375
0.008899170397619767
0.004009013935168671
0.02104269552154834
-0.02429634724049093
-0.009688087044670488
0.01139636762710956
0.01740138077375098
-0.01785376969395174
-0.02400608760464034
-0.006501611670050977
-0.01571270322083168
-0.002529930314416754
-0.009005313939106875
-0.01509896085276266
-0.0224747434384001
0.01943383299110424
-0.002644588808383181
-0.02405125243592497
0.01591122998201275
0.01700190352980308
-0.01459025248170874
0.003607017885874057
0.0007769602676100272
0.00507847792076411
0.004789364045183197
0.0248343336018266
-0.0100734585284898
-0.0130287675386957
-0.01858700267715078
0.002165399713847507
0.003071630781174193
0.01159589496710021
-0.01971720667098196
-0.002755857974524829
0.01198044765852457
-0.002411108299200252
-0.01853021115780772
0.002776017807700319
0.005330945313172671
-0.01835462220695649
0.02041472532868995
0.01337299482911229
0.001360049178897898
-0.01176168370726444
0.02409349964137628
0.002937365409701985
-0.01410348272965435
0.001740549646822808
0.01104297578109072
-0.02283947605030733
-0.0147589201934854
0.01891046769468201
0.007498772769338425
0.005348262738576512
-0.00503098237213333
-0.01351774467457989
0.00488521305501963
0.01043759367483511
-0.005366281372050537
0.006548363006551251
-0.01039378271177867
0.02196875851428411
-0.008836738312092347
-0.005527758101179638
-0.005896666212482536
-0.02051797924952013
0.01657506157097496
-0.002834557904876963
0.007442033600716327
-0.002396628616057779
0.010506974547237
0.010169598950075
-0.01380438925278876
-0.02021392419242016
0.0187151587735412
-0.01128808690218875
0.01202205061431667
-0.02495509624556656
0.002760769737589531
-0.006088293372300619
-0.01345853992992004
0.01333703759266991
-0.01644354198689024
0.01316565227323511
-0.006602608509942468
0.01011947295222321
-0.02746104709432308
0.0186375503785575
-0.00538120025455277
-0.002865756067466625
0.00752623143578062
0.007915601202045791
-0.01252334423839693
0.02437637550407549
-0.01472701830905315
0.01568404739561934
-0.02024920327121877
0.02270181278652625
-0.01675039632219871
0.01031110501225154
-0.00224968123023799
0.008483984275491846
-0.01303619610962856
0.004652252058843886
0.01497157676093822
-0.01183836212118711
0.01220322612272039
0.001343056318248571
-0.009293966694707823
-0.007768908089589899
0.02603371571950774
-0.002138454975632214
-0.01751873675073683
-0.0126998893918791
-0.01155980936504333
0.005298630476055181
0.01882726508312953
-0.01230887331468232
0.00383019298965989
-0.0073373831964606
0.01293622047042773
-0.01766319469342726
-0.02301861685897073
-0.02198472694788887
-0.01847403095668736
-0.01331059934935203
0.01398173407592849
-0.01477285441067904
-0.01637288951194528
0.02309680763092865
0.02315391934444529
0.001663139376883095
0.008704965329912513
-0.01141018555552793
-0.0158393967610022
0.001895572415190008
-0.001190415707030111
0.0225579397173245
-0.01962147138757516
0.01606855145609642
-0.006072884036133154
-0.02059212059815208
-0.009610349798206453
0.003775319493609804
-0.006859743961712313
0.00700349161030775
-0.01984195655926185
-0.01212228861971063
0.02158450774668137
0.00651380568755008
0.01102734506790364
0.004009865561152543
0.01979096408194335
0.01477225490309324
0.007868821489478848
-0.01865219516995472
0.01926124140999944
0.002611163690899768
-0.008683716759565373
-0.02344119866765311
0.003916345745743459
-0.01455772563152666
0.008879528819662618
-0.01215543826034058
-0.001039867387859715
0.01932568249961667
0.00911604931596755
-0.02407281057548784
0.02081843943499506
0.01578897146255296
0.02407545654935703
0.005639682870574827
0.04076441098419091
-0.00567349979997701
0.01831470907605148
-0.003924556465392933
0.02419126855725517
0.02287444161534431
0.003761912815452466
0.007070533161542917
0.0125701964771047
-0.003924397884033503
-0.00862574978633217
0.002697577046776594
-0.02895555060423656
-0.01966537217434114
0.01182264467392098
-0.0282026932646364
0.006769943782989185
-0.02958779097424991
-0.01978587754950004
-0.01088863779172894
-0.01363563386996463
0.01718360397533293
-0.0004187379692953058
0.01676651018154853
0.01732966469756845
-0.01274567752268667
0.01783640761430946
0.0007826625583921582
-0.01912284220850187
0.01709029076464771
0.01914584358418296
-0.01828234694194884
0.0165943721360608
0.005528234647209957
-0.0006344712534132206
0.01062660729296024
0.005943184254439747
-0.0243951522836514
-0.005945242104013412
-0.007066543117464196
-0.003030576572646923
0.01908686002542015
-0.02684422834215078
-0.001036872955960529
-0.02239744330902063
0.01627639614351058
0.007032730911556713
0.01621276294278887
0.02945837810615847
0.03210315452491713
-0.004142199367852229
-0.009917337008173675
0.01308752107517029
0.01657996659395884
0.0342129208195268
-0.005703636739777375
0.01539350322406718
0.01359300798220162
-0.017756696841683
-0.01845862189865691
-0.002620609029679011
0.01200425430642443
-0.02483485908809359
-0.001828641342356323
0.000497835824082899
-0.002624756364640303
-0.02176057339370983
-0.02118644662972937
0.01163065888559796
0.006566821241369567
-0.002689194321466011
-0.01474821871919545
0.006919175818142325
0.00890166059625829
0.01529218521811136
0.01396919519680766
0.004823896321284374
-0.01038575035770763
0.002080966663439485
-0.01356325523206389
-0.01732632974793574
0.008418880323765929
-0.01058204700557979
0.01951934298604021
-0.01352898634330751
-0.004924683084270731
-0.01013644142254726
-0.02384051166689626
-0.01029341085048847
-0.0118964602575789
-0.01517570918028821
0.01980814065010778
-0.01905556062801123
-0.006131860482893636
-0.008860490962141209
0.01695837724359551
-0.01692679455581927
0.003882721491847453
-0.02451205809007207
0.01473753706385516
-0.01008361786056396
0.005446554592804187
-0.02481418649784402
0.02181259313095273
-0.01280099293754041
0.01655855926712877
0.004837004785635579
0.006286124484023809
-0.01357890835824442
-0.02408740769181248
0.02288958613648797
-0.005878751397116124
0.004739125499359564
-0.003816271629073467
-0.01643677196893034
0.02051729520152755
0.01746746639139001
-0.002810444279204223
-0.01865427725588732
-0.01957571359002495
0.01638284197578859
-0.004828260372735147
-0.02480914682872937
-0.01764433275636986
0.01853925021267702
-0.000820667929022149
0.02073459369683979
0.01552935631975259
-0.0209107539170516
0.02375616252575032
0.008510843894754276
-0.008265917724545099
-0.001391046555348697
0.009715800476250815
-0.0120639731526705
0.01347730013082324
-0.0006284673445163439
0.01097973691961316
-0.002636051355640425
0.01102094071960901
0.01692089772873078
-0.002980011175129155
-0.02264680410025505
-0.0008502931901395278
0.01790978265891214
-0.009325772642496687
-0.00229715975208362
0.01005330880457375
0.01979917570615787
0.01218447665472353
0.02793308648848165
0.01439044435544456
0.02204239025855841
0.02341228886094343
0.01169086913785056
0.008796984106233769
-0.01151848286153184
-0.0004862848678403279
0.005502573577216344
-0.008190303350834902
-0.002701847388732372
-0.01776841341129676
0.001288889211995927
-0.02391098019622713
0.01560913768363554
0.01570776827640117
0.01276280947595853
-0.01319206514860183
0.007037763259096797
-0.0158407204235486
-0.02415038811799863
0.0005853367961875408
0.005799475827875816
-0.01821873118083752
0.02417700816288216
-8.823353921052879e-05
-0.004999012757234142
-0.006324530448203795
-0.01589939694029444
-0.01598027532881006
0.02073969303612802
0.02502630098299654
0.01303009771853832
0.01698895185296881
0.01804154417216926
-0.001406419579910495
0.001709781797766577
-0.01914250848772487
-0.02171057174251985
-0.02112553830557847
-0.00109127624786302
0.003930066617065023
-0.01342669857302219
-0.01706093536876437
0.005673797344946142
-0.01824930261445759
-0.02158277471378475
-0.005352788538103334
0.0107689500181837
0.02535024243722804
0.02287410941218023
0.01336763692183656
-0.01382400203024552
-0.001181464813918574
0.01536735557455796
-0.01490510045279128
0.01344143035529115
-0.0296216499553098
0.005959063410497661
0.02553207735835703
-0.01647239466772145
-0.006297140120015981
0.01288435911902068
-0.02754987635689339
-0.01259736963673568
0.01120393802528509
-0.004315506093900084
0.008075860865810015
0.01974760267716436
-0.0009726835839416997
0.01997653326672268
0.001204996285126888
-0.01830033000769456
-0.008448092451825524
0.01656280740535002
0.01875877689072306
-0.006811764455328878
0.008964151384311104
-0.007738476756103288
0.02358568494895617
-0.004483192491688961
0.01294435908888599
-0.01032542247098626
0.0128060300539171
-0.01286101625431234
-0.0254156018478751
0.01294492294259366
-0.03131407381229415
-0.01692497240096769
-0.003514985024829399
0.01909467138534906
-0.007332614866655769
0.01785764183409343
0.02257717225817919
-0.004397384028600921
-0.0144263330852139
0.01617090641482782
0.02241880156560732
-0.0211167654819704
0.01911222565307762
0.00349508452101299
0.02624710315388975
-0.01447621144782608
0.001684386881946539
-0.01266326680706419
0.01296900887571198
-0.01502496724203907
-0.002784686301620934
-0.0051538696249584
0.0003027895576597415
-0.01359523556445513
0.01408595190373669
-0.01277526694377608
0.006308096720191738
0.00288901181927098
-0.002846795977610193
0.01021300555484906
-0.005508476247812518
-0.003447275283460696
0.02206373497493369
0.01952062464437063
-0.002754258970138308
-0.006380641750227669
0.02775068322662951
0.01104255469651201
0.02129916874168482
-0.02232387183538541
-0.01384238895927498
0.02221531304684929
-0.003558124738948501
0.02042658890560566
-0.02478287157242244
-0.02140060609714075
-0.01602969534607707
0.01286052284461113
-0.02051860684237149
0.006974981403737292
0.01801094064202319
0.00661974259840023
-0.0162920884626568
-0.01500532474824024
0.01699391427841606
-0.01970140319985283
0.01066789302677417
0.005521276705162228
0.002890572310277978
-0.01209776780431286
0.00861585839161693
-0.01691172748614557
0.01767551326156696
0.004135521813959214
-0.01669598737882422
-0.01056417851531692
0.01594127808139661
0.02336541206844231
0.004357293115022891
0.002692958795603163
0.02464028707249111
0.01830117026401951
-0.006098176106078842
-0.0215927884825187
0.008783481186672409
-0.003419264216588313
-0.01340308317789886
0.01659562368850569
-0.0238352710130491
-0.004475431172156802
0.006686048044052454
-0.02155893843250412
-0.01560432552311685
0.01899521127809688
-0.002524534649319397
-0.01650925194376308
-0.0171772213102873
-0.01302048896235305
0.019383816165139
0.0157929466218795
-0.009449023207419235
-0.006588280339902169
0.01758296360597998
-0.02086700097339883
0.009028871197554373
0.01432120425639748
-0.008732728024920264
-0.003881369232894353
0.01406929259212305
0.01924006155554047
-0.02974904532761605
0.01470031921537608
0.008160817068012532
-0.008716920643188559
0.0211524057989135
-0.00759792474963534
0.01469044909146972
-0.01928453881094337
-0.009189194349622124
0.02495724827046549
0.006410393772230435
0.02605594707921339
-0.02638674283472939
0.01851909309594864
0.02303556816561618
-0.006179952462659505
-0.02037277410675211
-0.03237080427188242
0.009859898278131676
0.0246659983809432
0.004982131610446658
-0.01239099644239155
-0.01879290558945608
0.008320343190193097
-0.008111437650330164
0.01396693194705545
0.008722796025635492
0.0005172735104478768
-0.006104478626920199
-0.000452840086360624
-0.00576646195480826
0.0001417595398924062
-0.01540626744479566
-0.0120696147672472
0.02345244650304735
-0.01736845133998906
0.01592020306538877
0.02481558403053666
0.005010133059628865
-0.0184117061597316
0.004401050429929974
-0.01812928672746905
0.03844662245821388
0.00885330290939872
0.01643984454249315
0.01587091148564065
-0.01666210639345782
0.02927280713736149
0.01765749473736845
0.01369556334798809
0.01292496485269038
0.004809080094865305
-0.02182564586962531
-0.02223289793807468
-0.011009941920446
-0.01011371789696296
-0.02369635165567887
-0.02439121842144214
-0.02705290794770537
0.002726573106951027
0.005053002387195701
0.001562762058055246
-0.02552011164610146
0.01481156635920155
0.01605461050677022
0.01654639359337969
-0.02519807673097688
-0.005294250161437843
0.002248187850890782
-0.003093593605928261
-0.003343958436620626
-0.01593184148269991
-0.005539367637938673
0.0007216231814855847
0.01550534037142974
-0.01077595877941036
-0.002521517396043589
0.01939318718608699
-0.008963032607118402
-0.005424496492111085
0.01488595222117113
-0.0122547998251238
-0.02424166112840578
0.02226507115531863
-0.002861410943016272
-0.002556131546928995
-0.004468301195397719
0.007391545918611395
0.007327346834784964
-0.004261405866461763
-0.0194550971984118
-0.02011957193354731
0.02163077843684418
-0.02243330015425071
0.0146522413430549
0.01007334529873162
0.02757900629494872
0.01991661121111737
-0.01750442534433361
0.0006696821080431993
-0.01168641709533201
0.01250503429807675
0.01068282140543653
0.008194601302856919
-0.0156612936421364
-0.0003923318420377618
-0.01898704223690997
0.009231840343673569
-0.005271683073204524
-0.004950930843193619
-0.02195303020261914
-0.005257761769845302
0.004240768142384755
-0.02189627063233023
-0.01406917540385652
-0.02749621494229005
0.007975926314529879
-0.003929864304145219
-0.0001777566795767443
-0.02028688586320761
0.01611961540503882
0.01055107065076857
-0.02569420678248087
0.01454564738564436
0.01092563016909855
0.01754535060424151
0.004710314149399592
0.006332231283169469
0.01421762795256704
0.01198813580237249
-0.01555057100234866
-0.01818901031735391
-0.007336138566973975
0.02285264113901775
0.01827224403850824
0.005653313279743805
0.0009012045805018866
0.02402204833101668
-0.001388041692700777
0.02551722657239744
-0.01070326548394369
-0.006423008559016313
-0.01778763510690305
0.02164998722596947
0.000957598571893936
-0.005352811508081135
-0.02152704144133434
-0.0200886962282224
-0.0217232385089571
0.008753157806740162
-0.01758850629901028
-0.02404639722181571
-0.01115438324802963
-0.006302941856534411
0.01760895943255029
-0.02931135080518467
-0.01065624723460409
-0.00690127651473687
0.01154934692171991
-0.01840549762309199
-0.02498903152462689
0.02348530776367259
-0.01383351242225609
0.0007853087332859903
0.0224394640764861
-0.02962751016488268
-0.01397985240855323
-0.005086131796805387
0.02227089410382528
0.005604102657254268
-0.01548281669352772
-0.01162136244596393
0.02172465271343799
0.002794011109531124
-0.01062624587910741
-0.007073245407165845
-0.02387989182089466
-0.01119926215579644
0.005618877447395801
-0.01803743078027879
0.02015735948624818
0.01622668048458463
-0.02288222900900877
-0.01222112509929095
-0.008986533154308507
0.02341951916872427
-0.01194054579434662
0.00329202521427652
-0.009322420595819307
0.02153527073941202
0.005945167374579444
-0.0002606205214842376
0.02183492485510182
0.01769483938492469
0.01921273234272657
0.01648620387371882
0.02092404319857554
-0.01749724159700839
-0.01249056618658131
0.01214516435570606
0.009555768559485863
0.003269203879494728
-0.01785137958924973
0.009419498704231314
-0.01936042913928071
-0.00651677029480797
-0.01662915305487685
-0.01246291177326344
0.0119009307073836
0.01611146679256158
-0.01085462172115815
0.009516337776719785
0.009331952010711535
-0.005139702508503483
0.02035434923584035
0.02002310786094953
-0.004185146481491714
-0.01491986155920621
-0.004686309967595696
0.008995140091838888
-0.01631920749928601
-0.02146716927944191
-0.01775755156933277
-0.02213439340850818
0.01820783528600792
-0.02042476639775197
0.02138618766681867
0.01657062134733303
-0.0130370816556188
-0.01553209790539073
0.007872852048799795
0.02358507139522013
0.01690627577689264
0.01465129625314644
0.007900412811761452
0.02311690292186617
-0.01645986704239173
0.01656693096271141
-0.01634806039399253
0.01894652120245384
0.008683999881121498
-0.001305642749554854
0.00204782565033576
-0.007566349677949321
0.01826214040628187
0.0001821114146846849
-0.0132872101709173
-0.01129772338425978
0.008486408239361891
0.006975208536111575
0.02486761677607473
0.01701009961779929
0.01138236647877799
-0.01895443406218683
0.02272240648008745
0.00674592520704448
-0.01319979220831145
0.02033633887465795
-0.002451887429432511
0.0001536020085720038
-0.01981168698695016
-0.01874839014696476
-0.002379726342489511
0.01874103708657479
0.01909768156120911
-0.01681826487428952
0.02128297253115023
-0.02214771196409219
0.02360401181293807
-0.02321351264815208
0.02361722719449197
0.009174475668464563
0.001099613888133808
-0.003654005210720995
-0.02770098462425929
-0.00439244561705639
0.02268629710350601
-0.01163306426775752
0.005763855078323677
0.007200481380122137
0.01993720215413433
0.007652523430539555
0.003086648326321778
0.002727072855911224
0.01224653350856094
-0.002781775191851803
-0.0138184977503921
-0.02208550484259878
-0.009299047375440321
0.005159643946243485
-0.002433162473125279
-0.001789707512666259
0.01611512435886769
0.02358108480337309
-0.009620507557073856
0.00732666336530847
-0.01719886156347922
-0.01339965720135535
0.01287781126038155
-0.02266205626701866
-0.01306312093565759
0.0107653637381725
0.01365661799715675
0.01613848893747738
-0.01754484471175694
0.01250963120943995
-0.01396971997175847
-0.01347501541849085
-0.02159342377794876
0.02004859931550942
0.01799337426931824
0.02095727832932435
0.004784815844601207
-0.002929256548240211
0.002422253347064669
-0.00521712650762316
0.0182961228469692
0.0132717869020566
-0.006619455612130351
-0.01439437139147321
-0.003751486567482944
0.01911176941351549
0.009117315382111234
-0.0123650909545088
0.02101338366980537
-0.02412824173292717
0.02390474699147352
-0.02254065963052642
-0.008760814835421396
0.01358735653979288
-0.01585356446008502
0.006526783885733673
-0.0004135699659137036
0.02649313927464771
-0.001323513968019336
0.01202561958017714
0.01605724764280209
0.0148629077061308
0.02146471756522207
0.01410887534890041
0.005475832896833539
0.02138575931956157
0.01744986082621851
-0.0111548650474051
-0.01473036827857405
-0.01011355464239186
0.009225176048431498
-0.01458708315348993
-0.0173858835938253
-0.02718044725544555
-0.005876261517506576
0.00449783462252859
0.02453444559776151
-0.01935694577753142
0.01379553533448041
0.01637139769510575
-0.01884602081810682
0.01660475060322908
0.02328727096045759
-0.003138289064372837
0.001000490339494918
-0.01862001822622138
-0.02080930542620297
-0.02279680566434716
-0.01946758047412787
0.005134984505338194
0.01887452842672017
0.02241064060650516
-0.01149355707791474
0.01383820673525099
0.01699197066665272
-0.02370390320220763
0.008625285176881176
0.004009164822796293
-0.01207126280601547
-0.02517029410332583
-0.02474734310756902
0.02424965089816381
-0.01728757105460989
-0.01778800330056153
-0.02192071212870066
0.007561273231454734
0.01646843731000975
-0.0229902847696794
0.01238456266922929
0.008603617209731927
0.02352179246235505
0.02153190181126119
-4.87808861694554e-05
0.02003700933272948
-0.003666768731707582
-0.0196462072801746
-0.02328029076006647
0.0002061116866664957
-0.01718907656027397
-0.01549849118115752
-0.02108410355882229
0.02475061514287283
-0.01948759158039017
-0.006702621923814147
0.01456618949414283
0.02192279348006941
-0.004642750966168195
-0.001910421174111997
0.005277412812937653
0.00949207801058285
-0.001306575710103905
0.007765799626104163
0.007958864490630994
0.008782366018876437
0.01575628269626662
0.01145873688825704
-0.008742637695502375
0.005138704014115094
0.01296996743282245
-0.02086700882260249
-0.01159599725679408
0.01150738772785554
-0.02324387645510889
0.01357286830556845
0.005961505961687596
-0.002728962416746037
0.01846690860268294
0.008249829843475125
0.02235698836652691
-0.02350678533490699
0.01710325950053745
-0.0240527373141727
-0.02399465254162281
0.0232001349137396
-0.005160454789679508
0.01532234454030985
0.02156632152484105
0.0147544375918396
-0.01087975743738603
0.001698125239559905
-0.001057181830960271
0.01343089687972106
-0.01797649119375678
-0.02009300967002706
-0.003438123675832652
0.02662787551618453
0.01910750909618959
0.01323072750787438
0.003773813267335006
0.007278888033632014
0.01917623205878081
0.01864202211736344
-0.00757030885160322
0.0177259018224017
0.00788999168285727
-0.02538540392739466
-0.007068879516437869
0.0002585715632487061
0.006402901620496949
-0.009949033292454555
0.00315525986210858
0.002416958709321453
-0.008043424340890637
0.00393519811926252
-0.0006881633395268395
0.01280816072238176
-0.002456867112368829
-0.00192249518428439
0.003805279296799383
0.01179537139090566
-0.02466049931998338
-0.02181225338320129
-2.752429883447291e-05
-0.01616396286025666
-0.01473819462068038
0.02228992647876289
-0.01629483947208084
-0.02070706445346771
0.01049989389937939
0.01394561308135639
0.01203977918793738
0.004277666905634786
0.008834282364849979
-0.01911560540293476
-0.0001850273381683986
-0.007747973749993403
-0.018301648586824
0.01825039829895397
0.01924635597387327
0.01586052641979468
-0.01561776862449072
-0.001348295357424247
-0.008700831607695856
-0.0009919727257744911
-0.02081054283913859
0.02125197409026703
-0.008657520745181922
0.001137451143298973
-0.01116629134900963
0.01999831480738896
-0.01053587855181314
-0.006871582915679275
0.02092899802520587
0.01123695538778135
0.001021930322246226
-0.01707552896296041
0.01219191625761288
0.007147872022288844
-0.01533294462907988
-0.004727557024620787
-0.002063893731498177
0.0258669340885579
-0.02503969898868393
-0.01935591032847296
-0.02078834089624245
0.0003784128908060264
0.0007327080511521703
-0.01413651960274254
-0.007813225683373379
-0.00782843140987358
-0.02016517409780692
0.003947819624641647
0.01736164110906709
-0.006541932641100315
-0.02021504176569233
0.02342957383913731
-0.00977006393158707
-0.003562138378247686
-0.002216771932777235
0.006688480409959337
-0.008807704445035737
0.01580246042507862
-0.02493576137032609
-0.01126368463504579
0.004034157070306876
0.001515673482599193
0.0001707617532916212
-0.008021694614954337
-0.01423405900473436
0.01112723844749541
0.01381496995401169
0.0112254403674367
0.01125331965964108
0.01336623579673855
0.01684791611203892
0.01729370933697754
-0.008216417377787994
-0.008431021154410362
-0.02065718091542093
0.008711402045682515
0.01167405546146591
-0.01845260227199426
-0.01249514029894513
0.003205168145744024
0.0004750336593244292
-0.005361278925409075
0.0009472915058863497
0.01837105762538108
0.01547911823922503
-0.02326204603816043
0.001203162986619237
-0.01666300412418481
0.01889069945105068
0.0002572985196731921
-0.001272530248059106
-0.002093978112012428
-0.01889074842511547
0.02252358258407228
0.01119590105968177
-0.01611346448370472
0.01358918778160676
0.004698298526266356
0.02332485011328372
-0.008567306656702238
-0.01143717345677012
0.01579915634660127
-0.007317987902122049
0.0112471562057467
-0.02222459163299632
-0.007084285294395829
-0.006964079156171126
0.02350158600129712
0.005688992345698394
0.004560556476091024
-0.0009701924780888245
-0.01972107028058588
-0.02069590256168902
-0.01889921232716533
-0.02531552440141344
0.01862920638786934
-0.01775281799536524
0.002744445896862601
-0.01993755511377566
-0.02544442570715319
-0.02193410479905795
0.006968949137649506
0.0008746411577652381
-0.01818496953227272
0.005199634305831769
-0.009986221530572586
-0.003775877336772311
-0.007911747959780698
0.01852544092543943
-0.005284014877664745
0.01506756606567569
-0.01198277444112649
-0.01267075109702889
-0.01789748106425232
0.02243768866426234
-0.002881786484221236
0.003716165176519725
-0.007070538051222409
-0.003721750289231887
-0.01863187640324596
-0.02408976535068342
0.02276052229602808
-0.01149313937606192
-0.0195099181884697
-0.02426470653938016
-0.009728587917885374
-0.02117534159607738
-0.01563237109660139
0.01514214876843098
-0.01871668742817923
-0.01381762000689002
0.02006102245966297
0.01430292337638635
0.008404308562112018
-0.02466745679243542
-0.004838669100169606
-0.02495131946352648
-0.00149951766018589
0.01078580752644903
0.01900907501307535
0.01825944828143159
0.003626668623793726
-0.01399960475952202
-0.01873089884453735
0.01170233037279702
-0.01655644278681556
0.006302942645024049
-0.01069482270003992
-0.0006722465946143349
-0.02305697851855868
0.002009594216951612
0.00732194043403539
-0.02613950824651615
0.0102352961187375
0.009127392806730977
-0.02079495973855485
-0.02164887452090063
0.01245011025508629
-0.01741365015495603
0.01745701916348232
0.02161678592308628
-0.003928339546957852
0.01479002271094422
0.005560724432813146
-0.01795300894598025
0.01572868548393403
-0.02107009933896426
-0.0140200053642168
-0.01379144955032517
0.01624614019231273
-0.02078683870676949
-0.01724378251483265
-0.002479754294910052
-0.01347639156528061
-0.01558059003766665
-0.02131480095447752
-0.005718915050579448
0.01937682060545004
-0.002757668654713444
0.01723332515113128
0.01592788092874199
0.02049312573376357
0.0007684375253734615
0.02212738887945724
0.006253829096876472
-0.01779518946828821
0.02317129346518488
0.01282402253915935
0.024981544299053
-0.0178667744916182
0.004102432340780283
0.01783154617606058
0.008570535756310204
-0.003053432755354738
0.002833431299522663
0.01444807929374456
-0.01509845469707665
0.006894752758555617
0.02393563985025399
-0.001237666510432923
0.002650822635484483
-0.02079427222960122
0.003886651022201656
0.01874319060242449
-0.01023722488396146
0.01837015412909192
-0.02161676419690622
0.01132664135070026
0.009113759000603943
0.004380337534577554
0.008894693112004975
0.007474624805665043
0.001240830610050144
-0.01871524301509026
0.004197689697474761
-0.01413750309466584
-0.005931283014133255
0.004384870365404218
0.02366424348210983
-0.006730080102227587
0.01548798824739137
0.008012579836456361
-0.01144775934231654
-0.002981847772294938
-0.02447202049004552
0.0160080938097094
-0.009759429130737398
-0.0115380228627635
0.0001114142103382278
-0.01242359670562502
0.01148117931057559
-0.02374261599456017
-0.00797322382923907
-0.008211210644483467
0.02036715645408835
0.008213292924034039
-0.01584061861613478
-0.02431952509571882
-0.006445640485121871
0.01903971241673366
0.003419484724513538
-0.02445611171306387
0.002989728187661652
-0.02050883491242971
-0.01552574807368473
-0.01921918095353729
-0.009002863016447309
0.00210418091047087
0.008389330641351339
-0.01015332639318722
0.0241878766401158
0.00176407530283563
0.02038591279023209
-0.01614475478914757
0.02168645956825947
0.02547496685688606
-0.02196141018016933
-0.01366305296356687
-0.01747209578324056
0.0004471792475275647
0.001404253053804909
0.02262856893604415
0.00465527378545698
0.01460240456747132
-0.00986893579459608
0.0008941229113929506
0.001681227386684372
0.001471384359286201
-0.0008964425345611574
0.01985523121646862
-0.00583437998603217
-0.01874338582132689
0.02298135030481204
0.02261524725444869
-0.01484271618637832
-0.01532310364344826
-0.0183562865585878
0.002620937209588768
0.01171758376587044
0.01700822600419165
0.01867268389421405
0.01136927996612401
-0.009161954183785622
0.01351519397460743
0.01978049839053138
-0.01078396529768691
0.01320664567710085
0.02063431949012555
-0.001324972700796227
0.02224185423032015
-0.001102412692203086
-0.02461949003349151
0.0232051608115128
-0.02259279447614846
0.01961863288398944
-0.01149829339593564
0.003032831235944651
-0.003798974738002349
0.01154745430544765
-0.02141095617188255
-0.006806788541437268
-0.01542438217750982
-0.01538713359193283
-0.01120762247104314
-0.02035803414471315
-0.00436748679525473
-0.001716696243033105
-0.01309958413528234
0.02017963372082982
-0.0165462449746339
-0.0220054294168069
0.01403066143742526
0.0220811886976393
-0.006824011803199129
0.004135036630566954
0.01607871844583669
0.00852094305547796
-0.004945394155874416
0.01195465696916158
-0.01592809789079532
-0.007191139133754394
-0.0131330427113517
-0.01311650970037248
-0.0184581476211832
-0.02379402756472071
-0.02521143155876631
0.002392351756649465
0.017565109897758
-0.006954520456073916
-0.0202407864694244
0.02036344054477412
0.02200854785197053
0.0008951955565010172
-0.02293924580808627
-0.01570200829745352
0.007318129384233691
0.005170929974641503
0.01585755889212044
0.0154187283382524
-0.0001573915128192356
0.02165523535973754
0.01998837363317244
-0.007423799526775375
0.01260510892370978
-0.01381224962643583
0.01817953003615491
0.002123968240037813
0.01968043499024293
-0.01529516703353336
-0.009562543252534372
-0.01803118467923678
0.005928863126631045
0.007428076099258666
-0.01180834629607676
0.0167475783726932
0.0199471714855327
0.001965015156499009
0.001824501128270704
0.007346338529235255
-0.01990639368373627
0.01625824680920122
0.01040819858379966
-0.0174388321331881
-0.012002360766077
0.01735008698511775
-0.010483956102663
0.01957366647944966
-0.00145298413886254
0.02184673362038429
0.009294717709729887
0.01936716388446018
0.01767596525593535
0.005803474662840323
-0.01732292340392517
0.008954638737157994
0.02013792846476746
-0.01672892051440207
-0.007432078003447417
0.01557085928227161
-0.001968508035511847
0.01546581482891308
-0.02375903013984695
-0.02165615936282762
-0.00566811208892248
0.0005922900743926266
0.02637346241673637
-0.01021729920887369
0.02532369751107046
-0.000523691716267006
-0.02188252548712785
-0.01857705430060577
-0.009232581922127191
0.01118411584935313
-0.01753895601269926
0.004052936147614698
0.003388538855043539
-0.00370094850326766
-0.003118042515075439
0.01846501992994963
-0.008044298680807908
-0.01699194262742037
0.01825931769681165
-0.009493781930690748
0.003237096732865394
-0.02487828296947763
0.025177093257135
0.00573441561058319
-0.01255236230855651
-0.01183096249305998
0.002520724508687046
0.009023021693843272
-0.01938938948375464
0.008402660412484822
0.008230077521402332
0.001526017044048771
0.02454149739495426
0.009291382591957071
0.01541251118605626
0.01883173224607128
-0.01604093446393571
0.01335001980200002
-0.02406865727594151
-0.001883402852335355
-0.004151381742779036
-0.0304357429819979
-0.03814521043783314
-0.03081227927968798
0.003367055452438086
-0.01195199593176408
0.006924839970473388
-0.03426145382365164
0.002832366068310617
0.01788380731953778
-0.02014159327746531
-0.0190945845834226
0.02033247279978307
-0.008431993271483241
0.0323617528788088
-0.01363252705265761
0.007138575678773791
0.004869117493582424
0.01988455293844789
0.02107517473933017
-0.02213359997119339
-0.003857155736953407
-0.01678692015900788
0.02157203204499544
-0.01864333926578116
0.01370265355733119
0.01201914298813328
-0.01339191044902014
0.006320221092723211
0.02339013299033883
0.01140335412233094
-0.01958715696503233
-0.01694461649442961
0.01695711851497262
-0.008305322067511228
0.01835022316196381
-0.00923842465948818
-0.01123041780611484
0.01680839138145304
0.02470149918356352
-0.0176269301298438
-0.02223950020550726
-0.01306447358004362
0.0249733406531618
-0.006099442620212566
-0.01305161846216727
-0.02076814916544716
0.01864169280683329
0.006395128965436975
0.01848114326724643
-0.0042027308781898
-0.01208902707362916
-0.02436836857043969
0.007120719403195342
0.003367012812583663
-0.0147123576619677
-0.009247477164749237
-0.004351639892952652
0.01670515271340674
-0.002892974417406585
-0.007132324746442023
-0.004029069032071956
0.005303118960339675
0.01434427104742731
0.006495896912726801
0.01632148920653993
-0.003179045989257949
0.01465622212295979
-0.0199448173712874
-0.005270856545073498
0.004111966038825229
-0.02541497480093428
-0.01474488313502135
0.009569097652294845
-0.02671966533168637
0.001151921836136165
-0.02625351669749987
-0.01653187698896378
-0.001108041646581955
0.01539110002901316
-0.0278010437887609
-0.02017240087809874
-0.004009247114140219
-0.002339427978511064
-0.0183916189966043
-0.024502596150311
0.02358990002750483
0.01339434479196159
0.01252171427591189
0.02780465829911682
-0.0157938496141675
-0.008661063469376527
0.001066868623290368
0.01464392116814134
0.03115856898553453
0.01961438467137169
0.002072575214840905
-0.006298658715882094
0.003463652823264631
0.004810878728180962
0.003427553467455189
-0.01852401837846444
0.004989201841796477
0.01976555415435557
-0.02385061244972403
0.005399916912268208
-0.0004393967841077939
-0.02104033733757783
0.01772842015815888
-0.02007239213981891
0.01441035514634942
0.02653203501007581
-0.01088825489095194
-0.01230964202397662
0.002372165667330354
-0.01260776674408759
-0.005755784128593493
-0.002641529175713334
0.02505249065391884
-0.02062972369408518
-0.01404313653830311
-0.01831490751394092
-0.0122586471353911
0.007324706287388571
0.01980062201182053
-0.01729412112446317
-2.876800231629568e-05
-0.006339053923954173
0.00431524212773392
-0.01592859712974874
0.02192448575660819
-0.01551093286699909
-0.006977404407060897
0.005983549943965362
-0.01568302009689001
-0.005321502884602186
-0.01070301795009294
0.007773534121372768
-0.001339988495307297
-0.0130517332083634
0.009994875190315316
-0.01361683395644978
-0.0178582159953762
0.02082199378734282
-0.000576143372645913
0.004887353811372058
-0.01720323896746086
0.01449039599309898
-0.02587109747545948
-0.01803062159842196
0.01366122794280339
-0.02178451625839604
-0.01860948690890639
-0.02423936023685911
0.020141547636046
-0.02627181887190494
-0.01917303931131638
-0.006155944184983289
0.001391679421108235
0.02307454510294939
-0.001904964612447971
-0.005102379960060333
-0.01852091669662098
-0.02340381097476378
-0.01097521245573413
-0.009642575561019382
-0.001363860630980317
0.0007568053467034432
0.02496127360712574
0.02724790600851748
0.005379902283026118
0.006340094543415051
-0.01974938410270559
0.01173121330197177
0.003681619834283192
0.004137773129739349
-0.006513503186830476
0.01223607459938748
-0.004611436726881867
-0.004861604690487469
0.0204296603336321
-0.01195067585554618
0.007541979805538304
-0.01504490350418147
-0.004469630505593233
0.003430113649885183
-0.006935745960615952
0.01122345431315552
-0.02227093152145183
0.02261868156932929
0.008015855616742945
0.009901283082253323
-0.00157629186699097
0.0151701931342096
0.0117632040580886
0.004225541615132404
-0.02110623897706367
-0.01969030499958102
0.02451271722725957
0.02580139721057944
0.01243054735905781
-0.00968264913828029
-0.004590419799982854
-0.02910852874838277
-0.007556317204341923
-0.02776810296116293
-0.006002373690829318
0.006911966484856419
0.02182355969091252
-0.01658672388149914
-0.02635794283334992
0.01087393839949565
-0.009175247272267416
0.01865839277865969
-0.01205756208360355
0.01144787570431663
-0.005411477220718728
-0.001331497271141076
-0.0001289207799072075
0.004571165243675756
-0.007535280719589869
-0.02304755770134104
-0.02360678208181882
0.009618501918054237
0.01630539015507482
0.003873203486255551
-0.02308314478032554
0.01195613979359218
0.01566474711228685
-0.009910332450482701
0.009257149276982039
0.004450489317497543
0.01830101601256789
0.002980578371068045
0.02290525341769056
-0.0148457058047159
0.005999657633396053
0.003411754270953602
-0.01760043878907414
0.01616972878470046
0.004517003674691521
-0.01566356721306196
0.002029493474800023
0.02096540239384852
-0.02175175998072834
0.001034569256617466
0.001858375311355666
-0.01079040060499108
-0.03190878506789871
-0.0255524007947001
0.01546132862727602
-0.01283155754232836
-0.02166515065448655
0.01936005600268674
-0.01976119775472345
-0.02442649033764755
0.004108157648999828
-0.002839189123701175
0.0260510279614523
0.005121043552843823
0.01739414439204712
0.01589965248004632
-0.001738795860830769
0.02007030016010011
-0.0007359238538293102
-0.003686107252317142
-0.01803796054467351
-0.01400551396752004
0.02281508077635945
-0.012916741503876
0.01780559931174618
-0.002114039744246666
-0.00631222655564923
-0.007756024951685311
-0.006646400318335628
-0.02291747984668218
-0.009596724087491142
-0.04452520689326924
0.007770857431618764
0.01510420257837166
-0.03717422503176394
-0.0164833759230963
-0.01719542904766256
-0.005673804969985059
0.007500151671166552
-0.005967916437112998
-0.01151811648158734
-0.003937024100391356
0.03297720716374128
0.003918169303696477
0.02123918427600635
0.01647612235552157
-0.008281457829986178
-0.005140066743626286
0.009959572859422016
0.006449877302843403
0.003219098278063823
0.005782633075596621
0.004539437884954289
-0.007401528794808507
0.02338249911504276
0.003901901775797801
-0.02792355169775556
-0.01208116406886012
-0.02795962333595053
-0.007099669918787577
0.002669460007029956
0.01582942942455784
-0.004006654649969226
-0.002470213689067231
0.009384569198666476
-0.004514604859887053
-0.02293488921824107
-0.01938399742046701
0.01869865623464155
0.008797293247441893
0.001052035315299842
-0.01044738759687164
0.02457527731265682
0.00241676080611082
0.004068910342140059
0.01449346643688097
-0.007987404918082169
0.01641224568872266
-0.01843310566165963
0.01482373269845235
-0.006271776440737686
0.01450532049159079
0.009511977141117137
-0.005047747305614132
-0.0130964192086753
0.006071816874424809
-0.02379417103063936
-0.002487773708582132
0.03224501008966475
-0.02818022601673798
0.01879843258731647
0.01179231070709667
0.02248209641688954
-0.0003732921085448078
-0.01661436653098147
0.0119310838614115
0.01909756139417438
-0.01113815124936517
0.01932033752202721
0.009072283865359463
0.01909096103602045
-0.01458578985787535
0.01678931611037558
0.0152897989376297
0.004679602780875815
-0.00429166117881545
0.005380587900840677
0.02674432050913018
-0.008429898857719357
0.0004007110101601083
0.02239508310059844
0.01441211056594099
-0.0005996952607545036
0.01616119854888612
-0.02697950306525322
0.02228683018895323
-0.005260170546779753
-0.01944603522133931
0.001703919126172136
-0.009532287863668713
-0.01664068860268139
-0.01448166473444326
-0.02088249093113631
0.03403051250423457
-0.002186524880776772
-0.01228079540009514
0.009411786153558593
-0.007779493192467527
0.004778467388413349
-0.009850540781984793
-0.0397021205425921
-0.01894976105384562
0.004547763752048218
0.02303842914154158
-0.021962282647577
-0.01748970366526132
-0.01069195766793893
0.01491322764704259
0.003431603091009254
0.005730769372330058
-0.01050493648168918
-0.002899831998741677
-0.0017352499355975
0.02739455476382995
-0.0197461845352267
-0.006785815375672766
0.01382676623018906
-0.004655435565971389
0.0008320154250188021
0.02604372436102497
0.004122171313400902
-0.005369757431428277
-0.02366641071683937
0.003791048560698736
-0.00740335075041313
0.005619602236402522
0.02183190276723876
-0.01726743772482848
0.02634904613465603
-0.005925698700433753
0.01121468344074127
-0.01671642016804641
0.01706274551763298
-0.0007034579636013326
-0.02076590742853454
-0.02016564022620123
0.01697262610203149
0.001046770796576343
0.01749878051922225
-0.0138225649336618
-0.01721328655120441
-0.01667540350448697
0.006579996498100835
8.30705493272189e-05
-0.02291627801312241
0.008990730125121915
0.01645157495201205
0.01138985116516638
0.02596396121499217
-0.01471456208491135
0.006337839920391077
0.002015492757014823
0.008873651884706896
0.01706465255596379
-0.01435108789991539
-0.02280164451225981
-0.002327289805670663
-0.01642097276355366
-0.01249336946504501
-0.006672016803146099
-0.00124803613101406
0.01822961361278345
0.001340022604837966
-0.006780356618251878
-0.01349342911297535
0.003982066996302621
-0.004890105486168757
-0.02043470849176719
-0.01851985446009112
-0.0185303733215269
-0.009456391292685693
-0.01418552238317132
-0.009465744776372166
0.02189259797564908
0.001547378098245036
-0.007968693215898536
0.007706943734157361
0.002590023835502998
-0.01654772735902242
-0.005813177959222938
0.01180441396100927
0.02051379813864229
-0.01342365812997005
0.0003899444390587018
0.003792377571307993
0.004690037944096946
0.006658942639833251
-0.01469527485364706
0.01554721041918511
0.01380992490207637
0.009792344366225267
-0.013077543836231
0.01143559509605203
-0.01387421425675323
-0.000416798560968112
0.02319027074937669
0.01079662133897911
0.02203214578774595
0.02609389757216738
0.01678254297710807
-0.01612148683857607
-0.006831707806861502
0.025334077404057
-0.0007448970050739825
-0.01105440447277488
0.007009403104668337
0.01356592174043223
0.01802111821320235
-0.01653626113230298
0.01360973168239319
-0.006997182503601912
0.01607428352646542
0.008937058406186495
0.009850289386881268
-0.01024827696734105
-0.003692289364748896
-0.01687294702237569
0.02080829093910744
0.01115828928743968
0.01640175160788997
0.01198606334504285
-0.01341528525443278
-0.02047530025862555
0.0009326836659904109
-0.01489812873990199
-0.001992354266560406
-0.008076905345672297
-0.02459759561558329
0.006584948179082101
-0.01331283680239235
0.01061108808114506
0.008240330257250298
0.008868334894452221
0.02153061579266233
-0.02207225643518689
0.02444225232135808
-0.001771311983037413
0.01729136185138199
0.02463086472609049
0.00235019138783533
0.01037944646573266
-0.01447332963412312
-0.007052852461032164
-0.003378251598853924
0.01509648507859645
0.007195266477926749
0.00970827917779
0.0175865569827853
-0.0003978497094625285
-0.008831746048812586
0.002923556634213347
-0.02460655954522648
-0.0108805777306244
0.008053861003312877
0.005794584501257942
0.00394468548040311
-0.02018533295056766
0.02212142276473902
0.008698732211512414
0.02087445473523696
-0.01430147665226233
-0.001130987808422397
0.006349156744571875
0.02215701201681911
-0.004430103800854772
-0.0006375316340273548
0.02136283585558087
0.02092222009571782
-0.005490383314852114
0.009049301275849355
-0.01795467308290211
-0.02078712478484366
0.02644023792171782
0.007841929162950409
-0.009421989061374729
0.004443443943088602
-0.01546408960653036
-0.02265949085592685
0.002383170579541522
0.01532212423726053
-0.01304460308477569
-0.01422353351552166
-0.02550033737297669
0.01328568772237078
-0.01929889653517129
0.0004646081935439363
0.003197136965084162
-0.003416541149018965
0.004128225583498635
-0.003610127690968221
-0.01272962120991562
0.02436260671439179
0.02711967147633281
0.01741176238004371
0.02324680275505748
-0.01066688930591117
-0.001443866024700812
0.02095883585878524
-0.0204839089008499
0.01310334065234751
-0.0005364112013102962
-0.01146088395285269
0.01417089710712064
-0.008402537842237191
0.0241557719521245
-0.01878456836209906
-0.0250055228871068
-0.01046184960648699
-0.01415295449628931
0.005049579549337877
-0.02231320062767785
0.008855891265498766
0.02320848396159634
-0.02125992528539777
-0.002613962626506684
-0.02516824080403876
0.01374323120925192
-0.02137092208095306
-0.002260370052972268
-0.008711951260485186
-0.003366503739151276
0.01468646920395641
-0.01111983238308629
-0.003872565037853081
0.003974846375777549
-0.01425139501321033
0.009814038257352702
0.02417547173927805
-0.02001484058651598
0.01932791065500033
0.005191847498158941
-0.003744971312637368
-0.01946367790849389
0.0008103663609702314
0.02193619908229808
-0.02281681888876554
0.009969826742060331
0.01927096145273934
-0.005001155146377185
0.02304535023108807
-0.003655953811371673
0.00360872057030151
0.002795405850541806
-0.003978224518948709
0.004168255464777297
0.02083419677669242
0.005499430637702845
-0.009669319610868567
-0.02636731271062357
0.0213518127470716
-3.892257867337256e-05
-0.01000696708487628
-0.003117240300491951
0.01193151278285735
0.01722393995216384
-0.02152496106775136
-0.03324339772464837
0.0006347137321053081
-0.01633836097700068
-0.01912882325210172
-0.009259018269533318
0.01112588124723205
0.003428679830502347
0.006765887468334971
0.0003368721240780738
-0.0002609713591999492
0.01228384777354095
-0.01309424498784288
-0.001591142500757464
-0.01109276155287209
0.02554337400518979
0.01633811587635154
0.01464723674211241
0.005535457108779356
-0.0101230432741927
-0.02532953689631722
-0.01291986885348693
0.003825150729499073
-0.009647122451083994
-0.002530624638861744
-0.00285064703564489
0.02001984990576776
0.01524099679944298
-0.01579384235961057
0.01302526569382768
0.0113330128113166
-0.003857142625012127
0.01509455253118008
-0.003350697950979144
0.002791723068452268
0.0209082075660252
0.01663936225396223
-0.001719981089292718
-0.001366700741857153
-0.004470572517470769
0.02096214125630635
0.01887486969914707
-0.01921589158787506
0.02123642714231595
-0.01630298657546154
-0.02460662816676347
0.006647903736274794
0.0102108005025301
0.008426524192370327
-0.0104291122658553
-0.02944025713012623
0.008675303536163494
0.01134349369430756
0.01180728812280392
-0.003467464845299167
-0.02742773856117177
-0.01820783692324435
-0.003320932697210004
0.02524804846348777
0.006137011861599812
-0.02598709648348388
0.01044745011837884
0.03261271343834527
0.02339952379870536
-0.01615524497829592
-0.00874399312388463
0.01104552034577346
0.0301442258954393
0.02185195449899219
-0.02115980186047115
-0.02065219784079174
0.003143062061142664
0.01650952603780242
-0.01165926987491184
0.005224286367018586
-0.02916110155430348
-0.00375833759912474
-0.008637123436867815
-0.02088997674843348
-0.0005557448193040876
0.004476449688469792
-0.01348159082131467
-0.0104854521051446
-0.001115563620061154
-0.01523539824406358
0.007649543670494099
0.01230819545119241
-0.001652794591011311
0.02333099346974123
0.01081849614446592
0.02162244353607735
0.03188489999698447
-0.006956971284094875
0.009555693640421003
0.01645903645145221
-0.009424901044205299
-0.02393441689980567
-0.005352171886467972
-0.01930314954476202
0.02053557453102163
-0.004604138624482751
-0.01431440253381809
0.0001929207146156066
-0.006110368649148482
0.003837825652212231
-0.02246796768340517
0.002333938985104854
-0.02045426764742281
6.17014748249395e-05
0.006655478630195642
-0.004785405920835184
-0.009038679638718888
0.01852336373832739
0.01420235730599667
0.01338338215909918
0.01949678299111079
0.001252667118950361
-0.005985284681885561
-0.01070004780662681
-0.004268009791643975
0.0211524346524404
-0.01660176377653076
-0.007468182382872306
-0.01148122531134466
0.02313915036377725
-0.01915830322891062
0.00352972178490642
-0.02326322994855315
0.004488102308641358
0.01246372340978207
0.02061041799479194
-0.02232066565695066
0.02506573847026506
-0.00179979020339965
0.0005752749315446217
0.001685268412948467
0.001097390699379582
0.02451710274478184
0.004809950054158786
-0.0226305469792646
0.003232645126827045
-0.02424771316811701
-0.01123347396209638
-0.005944406175444552
0.01420171603524063
-0.02532061241836355
-0.01594824288685591
-0.01841583696503393
-0.00983209444641703
0.003777207233649574
-2.555739876435311e-05
-0.01652627890384936
0.01095125364141719
0.02350174026476283
0.00884696382115367
0.003306249260399302
-0.0240767476408269
-0.0179844932549186
0.009384857761105985
0.01468691235352079
0.01738722700779992
0.01104096234928833
0.01837933516072587
0.01949907684412547
-0.01492901186522675
-0.01339180444112367
-0.0005715748810864681
0.01151865292647317
-0.01266060189737239
0.02665900630970204
0.006253878212828236
0.01276922237369908
0.02336605091774285
0.02068613064851919
-0.01786140338053412
0.01335020656666003
0.02122956477554185
-0.003348264042601136
-0.02478333373649685
-0.01052132105479639
-0.02458235533312036
0.007041309236014889
0.00505471082354092
0.0139227816754887
0.007301698084914847
-0.01626295219644389
-0.0003151374271066959
0.01298881072606105
-0.00861856085239208
-0.01211226900376738
-0.002267703229277448
-0.0152726895542893
0.01913018524266338
-0.01507275305419525
-0.02179068290176507
0.01751601383898912
-0.01378181168204439
-0.01155628636712644
-0.0004718559399430699
0.007101939545554705
-0.01377679142614213
-0.02385446715093525
-0.007413091707768554
-0.007793313146014524
-0.01173766599933703
-0.006806988078418293
-0.02298886171395876
-0.0218702194311328
0.02464991425735385
-0.0118675726561986
-0.009376002028765627
0.02885034857364119
0.01974976760107219
0.02527864747081501
0.01933788488356392
-0.004049647371964578
-0.01270931516263993
-0.006222642686380171
-0.01667648357245019
-0.003030094392864063
-0.009241080824937964
-0.005501516558812815
-0.0002576778429100025
-0.00928044803164761
0.0154892302388235
-0.002480882305445715
-0.02084662645287389
-0.01525072470342707
-0.02379730662239992
0.02357939385647673
0.009249978292406206
-0.01135674272124629
-0.01617770089785473
-0.01558794246664248
0.01701988302768507
-0.01839919314615621
0.009416497037154331
0.02605283683229654
-0.01196748472755551
0.009738408742437884
0.02158839247411387
0.003848988071468276
0.01190142989758749
0.0124614845134238
-0.002793271125788437
-0.007107487954318334
-0.01894211451897436
0.001897301883433026
0.006368563335248063
-0.009722712469405148
-0.02769584843580459
-0.02368475811154253
0.01656571199790137
0.008340998664945228
-0.001828723155662029
0.007422569580577828
-0.01525812201810163
0.01383071285058747
0.02130916438128191
-0.008777144058413863
0.01011004088439253
0.008414678129122411
0.01361082965891439
0.01433750357548128
0.01967965019872768
0.0001003379855741306
0.01953421211358105
0.004386883602814869
-0.006892610982176383
-0.01803456498848479
-0.0344428472835455
-0.02943169263963659
-0.009747448455869783
0.005521588027827669
-0.02344113378871285
-0.03474407530046152
-0.03625540285009914
-0.01745583244697888
0.004622453995353869
0.01906000803902289
-0.008755077962760439
0.00154638578661085
0.03623874912587806
-0.003128823009166282
-1.90157736378811e-05
-0.008383309168866995
-0.02224422668185663
0.02556259559702638
-0.01015900523613135
0.02610442550980325
0.01631534200246158
0.01563990551373974
0.02230620773204874
0.01106487910176663
-0.006661160557489145
-0.003581221695680737
-0.02677957116686448
-0.00930169416441444
0.0181007463491765
-0.01164802316699894
-0.007581300687782786
-0.02793503445751819
0.001963248115645851
-0.02265185247400342
0.01991029871645828
-0.002711789456731477
-0.02518075610633057
-0.02568369911496757
0.01002301481692251
0.01803455175277503
0.01440168003737414
-0.01823204905419687
0.00857051596708076
0.01297204786622463
0.00282359329003581
0.02058088581605919
-0.02216881542981245
0.008259320585175374
0.003861598836051011
-0.01388767014939523
-0.005792145439934075
-0.01087332194748305
0.01924168124574203
-0.02215884630240434
0.02616668203094581
-0.01140556547604176
-0.003753351317639121
0.0215378633415711
0.0129303231098909
-0.0004919615287790412
-0.01647623332724118
-0.01632471580391033
-0.001647734185430934
0.01657575079962468
-0.008842295856471715
-0.01028933889827061
-0.001684056040948245
-0.004354949352400068
-0.008156988997928043
-0.01628668085140933
-0.0142686023045349
-0.01397511936219996
-0.01150126832838766
0.01180640235952238
0.01568027155119438
0.009247882643628438
0.001491026585824649
0.01618946207681769
-0.008738898754861566
-0.01309445065277022
-0.03425595457483145
0.009456730374305288
0.0001006328465344487
0.02217736654397164
0.0232291604472614
-0.0108813656640542
-0.005660436441976648
-0.01240692580422339
-0.001478922267173392
-0.01573931299182679
0.004713934843157555
0.02047596383888807
-0.01233254480001763
-0.0166236995847403
0.008288248335805264
-0.004147846752288489
0.01032111285826213
0.02347838822600888
0.01327186939611092
0.01802502016894669
-0.03109176331647862
-0.03013023726921716
0.01286006088240077
-0.01488762743065604
0.02029617336692706
0.00691522432352923
-0.02963035710240858
0.001121273428644206
0.007613956472285696
-0.002022774839396988
0.008319487400118579
0.002202984577575214
-0.01016240929528
-0.006718660724172109
0.00876469197932817
0.0263448420671754
0.01258833351267564
0.02916865723555647
-0.003570329038673105
-0.009481849233211936
0.02222813637303734
0.02296543027754963
0.03082099985429331
-0.01202399844884174
-0.02020305546792784
-0.006018693922578883
-0.001152384158380308
0.002912832744010259
-0.006815643810390922
-0.002414452329793682
-0.008706858632790238
4.039399851840568e-05
7.397654185893908e-05
-0.007376817856199256
0.01456100134041049
-0.01101832977988915
-0.01616084349775282
0.01282215215983476
0.02071163634389699
0.01343089352988826
-0.01955758408384068
0.01101214134656682
-0.008077722652552034
-0.009881667829279402
0.01949555367182215
0.0191762451602536
-0.005823784448029482
0.004557618070758124
0.01019048599452153
0.0006285906527512585
0.01181910125397506
0.005020011077377501
-0.005949493890131301
0.008448106840026417
0.0122261477911791
-0.0001183006943213296
-0.02192218851609431
-0.00675193852324005
-0.01875212512029068
0.0037199734581882
0.009547975461730536
-0.005457539466735572
0.02406147806893347
-0.01468004022491697
0.01951768723494608
0.007896003214377442
0.004020246809175484
0.02790303213437692
-0.0004582474126906212
0.001849427091760482
0.008132044738841269
0.006634468142188493
-0.01384096203570584
-0.02103947794999695
0.02274737694983361
0.02495566631453497
0.01874281701944973
-0.01099924903872105
0.006528524571873897
0.01176050079721157
0.006100323307644494
-0.008519503397349805
-0.0071565363361783
-0.01244067870935325
-0.01733686719998404
-0.02634031235740179
0.01823553594413655
-0.01249814705417517
-0.001703218930946433
0.02455170743672993
0.007435339175409811
-0.00671424546200368
-0.001052396251675118
0.009547502048038359
0.001433630041790114
-0.01346169728260638
0.00333872611329674
-0.01961250800660476
-0.01239718004249912
0.02072893010000441
0.004785113414679002
0.02322894272773142
-0.002390573478113397
0.0107150915356223
0.02521010730764419
-0.005633018732526673
0.009696813023176574
0.01700028758487959
0.008150757542347923
-0.01062922496615152
-0.002284210635039044
-0.009629685955747211
-0.001122569897713622
0.01684548640488729
0.005208210508757403
0.00973940652925258
0.02489657202223737
-0.01033533900121509
0.02038070143073807
-5.881591980028392e-05
-0.009063182575511711
0.008804017000211849
0.005711386628538751
0.01113253565690591
-0.004160525486475483
-0.02361784322340748
-0.03009710148891115
0.008246119884771676
-0.01411644886478497
-0.00639022687028839
-0.002974301215444491
0.007745985991972891
-0.0157039462636999
-0.02074929019801841
0.003015874304744291
-0.01646891971613914
0.001679915190586677
-0.01646690776340913
-0.01608645086065284
-0.01340350203624384
-0.005512494891849902
0.01524244129347715
0.002173066965357461
-0.02111400122736709
0.007458977429292619
-0.02212677457005192
0.01898136657830397
0.00580115404057447
-0.005634779085325608
0.007249559395526338
0.02456617704006574
0.01028227177431166
-0.01086354145548166
0.006088222542469543
-0.003785419116709485
0.006056484481436066
0.0113633156884599
-0.002962534973816652
-0.00739220264947195
0.02035246878179061
0.01108800638350934
0.02155910734205847
0.007704508861896849
0.0231127301204345
-0.02489585074789917
-0.01999709956814455
-0.01595901483333345
-0.0008655703895773383
-0.01333484811988837
-0.009352591589041555
0.004328635796799605
0.006632963812625676
-0.0247788108234269
-0.0219652894689823
0.008989721169180405
0.003753798059548279
-0.01882860283365903
-0.004020383068231033
-0.01859415936916829
0.002563735409612052
-0.02195395824107722
-0.01987062999787524
-0.01198594339295514
-0.007593543099948483
0.01147980020982426
0.009430773587669696
0.02373295393956453
-0.001781553618379676
-0.01815435335419371
-0.008212238728028049
-0.006185935047690891
0.0181810351795636
-0.01116532694372277
-0.02306553578569915
0.01664991345299722
-0.01091798679760745
-0.01774140121545309
-0.02378990077916756
0.01354418434086936
-0.005738522136455941
-0.008023320548585332
-0.006659963300245026
-0.02364984711052972
-0.007486547635164917
-0.003484124000706754
0.01046744899295845
0.02155561516372334
0.00277248112989394
-0.0184960679711785
-0.02210584324079314
-0.01965647813424123
-0.01529903518788166
-0.01665003688823824
-0.006446645828461352
0.002188575501613652
0.01990716947490099
-0.02185818562139562
0.001182052862064121
-0.006794993289597592
-0.01496690278394972
0.01806149817275563
0.01223222088580628
-0.02155789693924613
-0.01804675997601963
0.01429247595796408
0.02026607688254709
-0.003762404552805053
0.02182793465584498
0.02157311198142331
-0.01526255270816655
-0.009233039524656964
-0.01136974375279783
0.003066296760684702
-0.007654028576698163
0.006124851232135152
0.02437505661947782
-0.02221103487357555
0.002907024050587744
0.002606113586351759
-0.01561825996337998
0.005607347627716968
0.00803462010941236
-0.005738028633415166
0.01427091477155768
-0.02331850210219499
0.02117163234590931
0.009198118459408756
-0.02015995210520237
-0.002335739195593797
-0.02245847211988418
-0.01031048782699596
-0.009311052032779687
0.01507475795326588
-0.006107679141235527
-0.001938588592318278
0.003977036141396503
-0.0114995978010554
0.01903975727223246
0.0007934247589896433
-0.01514368328123851
-0.02171782890241229
0.01637478127799199
-0.00176745796677189
0.006306208844715774
-0.01665328389355068
-0.02103734960358945
0.005876245413561108
-0.01381884062729291
0.007115441055995308
-0.01654057835744846
-0.004420139272249555
-0.01156133072477111
0.01719595501647622
0.0157409770026415
-0.02185644992001573
0.01908619016849422
0.01290798216318541
0.01309063249137611
0.02463879396094406
-0.01437114009347666
0.01550088797533386
-0.01050702984684091
0.001366690530510194
0.005219070556238472
0.007861385609590833
0.02398646266482865
-0.01570392137716512
0.02143403221788631
0.01802674615424836
0.01005933137210312
-0.01844184412614068
0.02208746653559904
0.00211211547076647
0.005823393605844541
0.004310034901299988
0.01155752224491289
0.01119508734577764
-0.01358464030837032
0.0242501910336521
-0.005455015250427743
-0.003766566295563367
-0.003806953783297899
0.009194695999948634
-0.01035310911257205
-0.01234562329798931
0.01244128192726018
-0.01637621113168398
-0.02502852946877181
2.992339921033942e-05
-0.017194315134741
-0.01494000272020413
-0.009932573918943728
-0.003100826922470586
0.01101596609190832
0.01994936034472452
-0.02059243810463552
0.01033587052293983
-0.02021017833525376
-0.02333383992637818
0.003737596017300273
0.01501716312600476
-0.01576211726199217
0.001858116291026591
-0.006571641506797438
0.01564514434847582
-0.01868419841636605
-0.0195172724904602
0.00226491168753969
-0.006503051287310564
-0.02017380011206807
0.02153052411891416
0.01454620482092373
0.0009510662608827665
0.005727366086938118
-0.02122819763593809
0.01314135852030897
-0.006953796011337362
-0.01240456075220901
0.01360419467493436
0.01850951083980099
-0.004085529281987213
0.02447366979591464
-0.01545132448233891
0.01913247030011751
0.01190376229735798
-0.01901791703672732
-0.02452807149450709
-0.00116264303670372
-0.01250598513100999
-0.02148410407529064
-0.02116797476312483
-0.02058990516401745
-0.01103857553951529
0.006836496495136183
-0.001790424075298434
-0.02026028204251612
0.01361468667422877
0.003824372555630988
0.007024629511024156
-0.01809872881203449
0.008374662149823835
0.003759777464542874
0.02145017484736344
-0.01556403248883773
-0.01558187854091806
-0.02478548873456131
0.02300879548826363
0.002713926141168547
-0.01178736558260978
0.01190621734228193
-0.003443971285202941
0.00975542826657015
0.0119496222414577
0.006825531454949366
0.004448389942220798
-0.0005620579875990537
0.01336832452044082
0.005076028963645884
0.02329154364842857
-0.02424200309473657
0.008690747096140025
-0.0224211796074752
-0.01997829059952554
0.02223130474524547
0.008856237198957761
0.002943731294400882
-0.02256822781815376
-0.001981813207957592
-0.01766109301269192
0.009499194981394557
0.00487439345362699
0.01657973071568638
-0.01095040174892668
0.002365257522445002
-0.02360282368308233
-0.001435352095496368
0.002948829254081578
0.02465984267235886
-0.02321768354740456
0.0164644928685672
0.01168620944617896
-0.001481265789773398
0.001465923536270919
-0.0007685262801106448
-0.01930432096104794
-0.01925317138216686
0.02339262744050438
0.01912728567057389
0.01124724939187012
0.02215114369661719
0.02028079632314636
-0.004807879035994901
-0.02488674107588775
-0.02409911562807951
-0.006915113462673332
0.009679347769630598
0.004898318419414513
-0.003711814142077935
-0.01633297142865145
0.01296948124280452
-0.01862657870023138
0.01486862601864586
0.005297110944816883
-0.003602941550156262
-0.007467021814995067
0.006745128287644257
0.02051638285562876
0.02077982864356721
0.006853909239868054
0.02226052723592505
0.0122190127071652
-0.006395539656830591
-0.004234719387104212
-0.01153386688106106
0.01744313225674592
0.001239741306985343
-0.005759001984021407
0.0158148579676603
-0.004663966653056824
-0.01953279910098513
0.01305967245816332
-0.009134012800550061
0.001003783095131385
0.01363480940368785
-0.007643047781093914
0.01988500798832134
-0.0004105098402400938
0.02330987201899089
-0.007672781189665897
0.009185476676534977
0.01227224215463991
0.0001097638570554381
-8.707451835525772e-05
-0.00646553073768946
0.0220051331733958
0.01752729619760284
-0.02465758229393838
0.01731512451579179
0.01327371655740454
0.006968906640254744
0.01416707305414519
0.0002047781067414045
-0.02437980028837435
-0.01508134088261151
0.01331543705206915
0.01755397770054725
0.01127248634807397
-0.01698156057497837
0.008944690947909275
-0.01824997472635812
-0.01160133139240136
-0.002448736070308839
-0.00160325781095108
0.01556428825461981
-0.01315111377205693
0.01611166454920828
0.01124444576066547
0.012036857028087
0.0151614776984949
-0.02131324090634086
-0.003832199570083663
0.002334967339877354
0.003499168188791145
0.02076492608073806
0.02031570218461478
0.0001216972488649317
0.01329990731173901
0.02097164527814611
-0.007489167074213773
0.001606637929223893
0.0033702734968856
-0.01740518322000755
-0.02208826485407218
0.005016465290277439
-0.006481508686176653
0.01730934095967609
-0.0008596561788004754
-0.01881609537716093
-0.02319392015892237
-0.01578054343020503
-0.01122286784073066
-0.008687561129181818
0.007262439442880135
0.0127726304309369
-0.01774672505350786
0.01930863453060239
0.004032508810030695
0.01824947312337813
0.006124997497223061
-0.00595957028660422
0.02203753741422227
-0.02255410452922064
0.02177732487520408
0.0008549743168250207
0.02344810677759356
0.01777832161380634
-0.02311507620628941
0.01265550245405803
0.01462758960581307
-0.004825500914597125
-0.009650974033357235
-0.005674391905174064
0.003976037707131721
-0.005599798937446519
-0.02495147577944592
0.02332957122612253
-0.01248313301844959
-0.0001025829735359024
-0.02002516403779756
-0.01055357480623482
0.008607282526624084
-0.006804259335115452
0.005165863308855843
-0.00982470732383005
-0.01991161697801136
0.01179914167783398
-0.01580409054293615
0.009184807064399763
0.005058090136102906
0.01537580466287855
-0.02148015864042613
0.002961871005141149
0.01910394208487947
-0.02305077473432803
-0.0199319993552605
0.01852436058644831
0.02085036970258778
-0.01679881382112832
0.007779139353958066
0.01192648459969625
0.004266035305674102
0.02396349416053598
-0.01825634792307741
-0.01578453831074377
-0.005978663433647758
-0.01795815741837258
-0.01740337820819019
0.006820461104838059
0.007081885273798126
-0.01232230643569266
0.02140145224535069
-0.009042220796127761
0.006304689181143825
0.002232686619613821
0.007326988537384151
0.01289008083696056
-0.009523278405102654
0.01808610365092963
-0.001313568697870802
0.02247730691595058
0.0104862435076906
0.004584204812116697
0.002240422341128875
0.006114118423919443
0.00771661234304412
0.008252799335668227
0.001353901870276572
0.004919687212559492
0.01749258395871291
-0.01554202952404842
-0.008395152857958494
-0.003161524692881305
-0.01646893429734287
-0.001572541627266655
0.00580914424869993
0.002181787826885359
0.005441615011473365
0.01356519454795348
-0.01568781725091365
-0.01242153326515871
-0.02401587045338777
-0.01915453553229046
0.00402466713813962
0.008095360074159397
0.008746947502698299
-0.01314484466177202
-0.003415062788554039
-0.02489186762559843
-0.01897173957604369
0.02131060318777161
0.02347426135084352
0.01729525304721952
0.001686422186795897
0.001574933887435017
-0.0009040992116857457
-0.01530828081160196
-0.01462876903667317
-0.02436412665599519
0.01497386158435716
-0.02215872024765617
-0.01514117594984637
-0.01843450632488835
-0.0001570183655736019
-0.006269784061684007
0.005115442175273768
-0.01935636101759395
0.0211937717377072
-0.0141701605973996
0.01940087076013861
-0.01945633249638908
-0.001566708699686543
0.02078896813520053
-0.01344281162996167
-0.02226790717867741
0.00393441490913659
0.02028142939331464
-0.01027817494833667
-0.0240852740836373
0.02087169772089385
-0.004076251040389584
0.02182493284002512
0.01892243675058171
-0.01197032316697973
-0.001694253216489329
-0.004966113697312324
0.01164300896280171
0.008100895427116166
0.005396069451571175
0.0122752173220658
-0.002564653415166734
0.007758195850033027
0.02266143226802421
0.004714819904667976
-0.01655053481265807
-0.008535902749446121
-0.01499518997702914
-0.01007437225140218
-0.01134643181427093
-0.002923019001826288
-0.01504447434591637
-0.005306542309780284
0.02172101093714249
-0.01825632891258211
0.007379849589406319
0.02467637794773101
0.01100479055788059
0.003139987660981984
-0.01007702465196534
0.01224751651675354
-0.0007687873806430959
0.01115275799277412
0.00982474507934431
-0.005895256093128056
-0.02487578974249238
-0.01597773389583317
0.01537305562537701
0.01348276048580306
0.01853846594122995
-0.002605233606675721
0.00232627841281627
-0.007024067807163855
-0.01754647004524641
0.001653599759147308
0.02440210911430435
-0.007687689366234253
0.01974078274824023
-0.01373631881853545
0.008660917309919783
-0.01517352687745274
0.009299673220633058
0.01927750832472792
0.005041029029461102
0.005985361888131965
-0.02387573599845361
-0.01253460872747399
0.005715008915338089
0.01209944929055837
0.01553796192902318
0.02033809112245841
-0.0008470809427015803
-0.01024193363889547
0.006523116382014269
-0.01602269924035551
0.008684275687166142
0.006677977651483624
-0.00696609602425659
-0.000598447686134657
-0.004500235577568548
-0.01302108436275555
0.02217341432506501
0.02301841973402305
0.005852646220710135
-0.01969832261177167
0.0004956477082204892
0.005198139782472546
-0.002361178034376277
-0.004418861315202827
0.01672879577886585
-0.01857968538520647
0.005079197290948899
0.0008183569628175743
-0.0242212400186843
-0.01466042473538352
-0.01806751462827264
-0.02308426882270023
-0.002159271146570401
0.0127561091124334
0.01440280810090484
-0.01130993650772456
0.008574703075454694
-0.01102150776951329
0.004108247981190223
-0.009155088491665403
-0.001361588413268136
-0.01152537685286685
0.02309577306878223
0.01730352468573845
0.01333891855024092
-0.005902180890722266
-0.0202458689757816
0.0108166103332855
-0.007473601847442041
0.01046555787476168
0.01610951812660452
0.018089194759243
-0.009255949231708421
-0.0111660600608212
-0.01148803604456039
-0.01746525474588894
-0.004704684580542961
0.01863974464107197
0.008295526032413658
-0.004126361762402151
-0.02110318041806855
0.01516649236825085
-0.00226369003985955
0.001671132280069037
0.002833062154996987
-0.01292336436644193
0.01536599186190175
-0.01357804913753798
0.0009216055348584534
-0.005688352559055203
0.002184951547546164
-0.02548625244082742
0.00746257270509104
0.0001460216717261482
0.0169523736068266
-0.003965291802734797
0.01914077001352159
0.02146665686056876
-0.01811002561346478
-0.0130939646402802
0.007414575461248987
0.02302580212387108
-0.02024188022874182
0.02327768125733188
-0.01288138043182915
-0.006149580084968962
-0.01912189697094536
0.007297624112450301
-0.01245637754670864
0.01434214592344805
-0.02134773241140178
-0.008358417723801286
0.004642409037405306
0.0007398988577884441
0.01897095630544992
-0.01665626642830934
0.01414417027899517
0.009584007616602068
-0.00483114066184752
-0.009390056250392801
-0.02076143023915389
0.02246777612030629
-0.009311210429997342
0.01254586944011874
-0.001623396816632258
-0.01675976640215108
-0.01599864688199988
-0.006740961804773063
-0.01921744710975485
-0.008230610320393312
0.005897173399124436
0.01362747156120666
-0.009529032750533423
0.0116586432578771
0.01254283763126613
0.003106446124106658
-0.01917691025206226
0.01893055023640575
-0.01397008870199885
-0.005994937930113386
0.008748146129565631
-0.009996599096775497
0.0108744060590722
-0.01112673430429839
0.01697465516326279
0.004622585670523986
-0.00302986958870953
0.006185999277975668
-0.01085897702118882
0.01702747996674903
0.02173481390169854
-0.006708316916525295
0.01454196964805824
-0.01259833636054285
-0.01915862701481353
-0.01214417720072748
-0.00442373098250512
-0.01014841735156824
0.006121411895486908
0.00122239929505337
0.00643434834014967
-0.01315309879627071
-0.01008497578890356
0.02190717308297525
0.02349036854474461
-0.02254818473866751
4.893802059483325e-05
-0.02062966756513484
0.02140570419017056
0.01117021159881393
-0.00178318511625364
0.005098790302465684
-0.02380652694761257
-0.01599598281452761
0.01895577983178914
0.01812017944786307
0.0135768117829025
-0.009073057672567081
-0.0007499865232271207
-0.02230515657978344
-0.01718057491850847
-0.004034432633585796
-0.003961399493429928
0.0223678299557049
0.008348041984678445
0.001745010375619365
-0.01479075892403975
-0.02107631070235152
0.01653689922837866
0.01647581324019175
0.005133451771680637
-0.002030303980398296
-0.02165326247908749
0.02006189021573601
-0.004962463526611503
-0.02334063691264009
0.0225944249710138
0.02018840927340712
-0.01899426204451324
0.01917622239250869
0.006194516998292647
0.004297387679192887
-0.0006600687468175728
0.007352801673125358
0.01351313205757132
-0.006861721367660727
0.0005913052073718596
0.002106928506008644
0.009158404496079334
0.02481761555544408
0.004571542559207298
0.01692608375444824
-0.004242561556727427
-0.02436901225635585
0.01460322894169469
-0.02046951347064259
0.00265018258864559
0.02473863023770833
-0.01664073806012582
-0.005888513858972008
0.01599746600093289
0.0133145962758458
0.01710216490653184
0.01910755311570603
0.008340434948238584
-0.01288771470145357
0.02068856072841553
0.005957539524492119
-0.01793069540356408
-0.02317600039976499
0.0001833173079227265
0.01333608126343815
0.006101537577118226
0.02437104456032656
-0.004279048197314877
-0.005597428512100096
-0.007610983489978062
0.02130700232300065
0.02140509596384506
-0.0234542936597428
0.02122666240293581
0.00126415262980656
0.01863065943320518
-0.007937490351725654
0.001909763702834237
0.008025111407682466
-0.00366907558948513
-0.02048969308489758
0.0076007313302442
0.004464318674777575
-0.001396480054882555
-0.001476015751987146
-0.007214606450518898
-0.009330192495660965
-0.007553983273865052
-0.02392484292139292
0.002722298991671178
-0.01176908443932744
0.007104403528448597
0.009861866988707184
-0.009861449934415192
-0.0176394550988088
-0.0016943410075589
0.02121894479311445
-0.01816590351115763
0.0193955262819557
-0.009237215453239512
-0.000701800310502306
0.01581410504184036
-0.01283265811036259
0.0009278269153104818
0.01175893140948849
0.01331111094252365
-0.005368199893618405
-0.02111076001533937
-0.009621658110241392
-0.02252435081599162
0.0001325702658985814
-0.005086592321671852
0.01020103058081814
-0.02023621508117896
0.0183443595889863
-0.01632967637202625
-0.002517462666972733
-0.01590391699768521
0.001406947021729602
-0.001352635539727127
0.01194580790583227
0.01462583188535386
-0.01882203439519238
-0.00303065969039691
-0.02016001291778147
-0.01152230170625253
0.02022736684827874
-0.02384585936307373
-0.005029160382974724
0.014281005105497
-0.008099615592563144
0.01911965245513833
0.004807641919997506
0.003892908069841871
-0.005011158309916447
-0.008334499464950264
-0.007767232211189939
0.0145617540145936
-0.004588235181653273
0.007614736638129051
0.01707580907676995
0.02072187802219153
-0.02250983871949789
0.002177555896526346
-0.02466419244259463
0.02082901550380578
0.01093927550940548
-0.002045536732190589
-0.01994793046737956
-0.01262788719046743
0.02168434075481565
0.01704331216273015
-0.02287913012125434
-0.02247089963302852
-0.01107347600644405
-0.01802155412605832
-0.009226277510423089
-0.01584824214166385
-0.01705395240789021
0.01068782562176769
0.02340966453403011
-0.0002908643468380643
0.004853726663189114
0.003043313770601199
-0.02139589321134399
0.0248408907049572
0.0196526884748488
-0.004105208983990995
0.01423158808846065
-0.009945783052962218
-0.02148553708715173
0.006245753129681892
-0.0143044118486549
-0.0190116420144085
-0.01653921846475421
-0.01392531967775003
-0.02312645175813193
0.01942723131449608
0.008964494559363146
-0.01804284982100379
-0.01820024860427111
0.005547912880541741
0.02400587139328354
-0.01609120615547682
0.008111029133194791
-0.0120619949933447
-0.009197341648632973
0.02390365249237836
-0.002939900853553196
-0.001180483281107398
0.009623837404703836
-0.004606868146903926
0.02355300714551933
-0.01050855673959018
0.0235443356142768
-0.02280062185416972
-0.01070335882652988
0.01839000238169041
-0.001711422876584169
-0.02142624282390126
-0.01664167735667275
0.001756564432969838
0.009868947459916896
-0.006004280015373642
0.007594255325354145
0.01830158583749754
0.00497772407410246
0.009483322597465595
0.01273861538983513
-0.0110556307115763
0.01647635569663156
0.01950867820742728
0.01965372117467475
0.01558608037481667
-0.02147693007278041
0.002793923809034057
-0.0214591365387564
-0.005686978271478334
0.001544810035294186
0.0004338671046487142
0.01809256323982055
-0.0138090392415557
0.02097345418452684
0.01672886259887047
0.0007434175724850347
0.01949786056784154
0.01890458975190803
0.01503874321346256
0.01266117472231273
-0.007985183585834924
0.01859692461093921
0.02084161033888495
0.01862370739305923
0.00338913514462072
-0.01025902676321704
0.001216295527131958
-0.003361312316451261
0.01969332942996098
-0.01430491315217326
-0.01563646293243025
-0.01634962623028098
-0.02284653068388231
-0.02108442823932982
-0.02179188585123323
0.01765989684090075
-0.01759100209381567
0.005891179052799877
0.02135674194114301
0.001967352291431924
-0.01741141537461367
-0.003110905583035618
-0.004957078540165318
-0.006134616846418349
-0.007282020270344781
-0.01333688995929318
0.01960356451651268
-0.01281353902103002
-0.01941282936755473
0.009537024387627999
0.02478240875759432
-0.002385262476374672
0.003150698506860901
0.02070773787915216
-0.008790554709291434
-0.01847419956667491
-0.0145977678217257
0.01740906365654958
0.003228523647308233
-0.01988184898902799
-0.02186265692039055
0.01256027431329074
-0.01130233417229428
-0.01958459910672205
0.01668415403934088
-0.007950392482948215
0.02302934085188395
0.02405271856502473
0.02291876498179882
0.01918615381774549
0.000680183955872226
-0.01958318554965263
-0.00912637930019035
0.02060239727121973
-0.0007909380312635903
0.008422204264395296
-0.01777652152016986
-0.006253630437130734
0.02059153730322097
-0.01218225240542753
-0.02180335760858287
0.02036305195505722
0.01038789775552836
0.006347227614511293
0.01610379947349506
-0.02342688501235754
0.01287181206962126
-0.02361295089185816
0.01908344611665608
-0.008718990474906374
-0.01832108923229583
0.02217868199844416
-0.02120780742014293
-0.004628050660826202
-0.02249712875714942
0.02020052845977082
0.01234281973841085
-0.02455804273191325
0.01901172838344732
0.01031030921103408
0.0195599251768815
-0.005308984772429255
0.01568807047537514
-0.01461830572809625
-0.009560920698958758
-0.01004606402829091
0.0188321249745216
-0.002346711828604705
0.00859558619970475
0.01444810374460668
0.01036839906743564
0.01184464818624887
0.009885764774289076
-0.004090860594425361
-0.006392263614191959
0.001049916904241471
-0.00245621398749628
-0.01838197967453875
0.002470810457301248
-0.008483887576210313
-0.00258133276039104
0.009078344718123417
-0.01113787949859039
0.001153151084998415
-0.02042393894332458
-0.008929924749176489
-0.00384338712872493
0.01709497699319506
-0.008629376622638752
-0.009692022197488003
0.002005050281899637
-0.01410331328095051
0.01001414162604079
-0.007142008713884962
-0.003415594308351316
-0.02435541692415382
0.007977451869957073
-0.009739117371024704
-0.00164510337896092
-0.00819595325221192
-0.02000146520310151
-0.01626052461233628
-0.02122612642853451
0.01489997536190755
0.004673773392681504
-0.002945845099864259
-0.009129275027406536
-0.02288662296620663
0.00329761710884206
0.01844000739636464
-0.006423871630420694
-0.0242446140576939
0.002553267712465824
0.007216995578723196
0.001999332640640739
0.007114477343635849
0.0234005044108333
0.02335629311639484
-0.001098644884368657
-0.01014710439642921
-0.01149496793227628
-0.02389694057788092
0.001031592232212374
0.02393253204154935
-0.005806842068690288
0.02253962795400749
0.02450127167371764
-0.02290726497519725
-0.01196636215137043
-0.002420608075547825
-0.00631964661696832
-0.007071073497438463
0.006176111322604178
-0.002645693563054368
-0.01736065269132649
-0.01423381560935589
0.01932193665235181
-0.001513799153488699
-0.01217950430471346
-0.002519401095884383
-0.008153868435597149
0.006291449711565966
-0.001766408661365229
0.0194359467195246
-0.01161290131923509
-0.02488791277416779
0.001388217433817952
-0.01334073845902264
0.02363285526792079
-0.02466782701160078
0.001650670933502595
-0.01279315419918776
-0.02339415524896955
-0.02225722681802982
-0.01426752304212513
-0.004258753722995637
-0.02463440833027783
-0.01492597027830711
-0.002080954758204296
-0.01188584609975429
0.007666305234964711
0.01671857373106097
0.005916823095890711
-0.01102848312014972
-0.0112645453537209
0.01360993126046922
-0.0002330859784258178
-0.01693818620226972
-0.0128183930806191
0.01238126740301874
0.005551431904348807
0.003963525143863813
-0.006368494847991232
-0.02118844365746308
-0.001390136762998354
0.007174895076096015
-0.02102823717926186
0.02493699711253694
0.01874468984839284
-0.02273158645926305
-0.02484647582644371
-0.00463605399265983
-0.0108085887375422
-0.02337551819854709
-0.002010715761215614
-0.0001865644362966844
-0.002678822557631268
-0.001870428136603239
0.00971349312885339
0.0201212338744375
0.01107184488517787
-0.007652226596603497
0.011506346664192
-0.007946792467890807
0.006385332533738086
-0.02452953862005087
-0.01926905169467499
-0.01908486512465201
-0.01646572192878898
-0.007247631452385106
0.01841221002343237
0.01408734841177536
0.02177008921835852
-0.01289672717167594
0.01775245772301596
-0.004860431040794326
0.01915260406442857
0.02159542590530428
-0.005011012980154468
0.01286557237504088
0.02386081767915677
-0.004841174328558539
-0.01675535321493515
-0.01209213720425935
-0.003359275334899422
0.006174789656766716
0.01279375092742128
0.01908232660523871
-0.02059125366126315
-0.002251346158194392
0.01441444642868822
0.0155480516184248
0.01524436860816868
0.00107850695948015
-0.01723544879108909
-0.003410442312983437
0.001518793416995504
-0.01150985723878175
0.002598220754682203
0.00992454736249615
0.006195147451722233
-0.004061564220998638
-0.00104918298379155
0.002960100094688616
0.007951033356194469
-0.0084142693550166
0.02308687058904472
0.002072716810847971
-0.01177840489951832
-0.006985764134163902
-0.01010622631255878
-0.01293901070354733
0.01308615986982853
-0.001859302436523915
1.150475059014825e-05
-0.01522984238338564
-0.02066987494812795
-0.01219326810813828
-0.02084335713828573
-0.01646541555979933
0.01040768216050589
0.01838196411196204
0.02410365140439606
0.0007429346757052379
-0.005802652417890515
-0.01823171662978029
0.0223348801074194
0.02063638308626971
-0.004777362691131601
-0.0003070677934130149
0.005564304591230829
-0.02360596763173397
0.02059457957406876
-0.02044492001231946
0.00418947085604588
0.00362710166536827
-0.003866741167216931
0.002382035949850302
-0.01943155970934814
0.009031467476468356
0.02022036023029174
-0.004597480310229367
0.0211110746227767
0.008535416932616662
0.01864083787978768
-0.003805389816795216
0.01825002853853196
0.02288442060189946
0.008998859840538944
0.02205376789160626
-0.0185325404131826
-0.005571390097167772
0.01523148434428612
-0.01941772153207766
0.02001678261309901
-0.01546134995120015
-0.01257872194436206
0.01713539603021753
-0.01970014116258614
0.007529768719742685
-0.007999359686850283
0.01079955806104697
0.00879813232431791
-0.01229277324803216
0.01511162180097466
-0.01203949316589814
0.01616111222787669
-0.01386399829077172
0.01545679221946297
0.02180315304849117
0.02025026409118182
0.01078259740461206
-0.007751020076202647
0.0164863348118477
-0.00603255974374625
-0.01418267388876087
-0.01227716997081642
-0.01298888493158188
-0.0162287116324595
0.02154198119999738
-0.01591850090670028
-0.009733272034913594
-0.00913202147832883
0.02441790585840025
-0.004297421021848955
-0.01411317049657299
-0.01609419198462145
0.008099558290235466
-0.02189431668293513
-0.01101416688980574
-0.009434570950786078
-0.004961375902089007
0.02468812062412652
0.02440791989565793
0.005023866640319429
0.02024201334740454
-0.005424312595331633
-0.002072327160486013
-0.03009457198399154
-0.01628469578049306
0.001419802695351543
0.01890459233751583
0.01394067726316703
0.0123816908851927
0.02112453046634538
-0.01562422736011976
0.01951777376108534
-0.02377287756295452
-0.002510448376452236
-0.008759985663739978
0.02120380971175971
0.0004985556572530608
-0.002014869572309647
-0.005944734922007871
0.01205132635564164
0.01322810248340446
-0.006673700066827448
0.008170814768397637
0.007307764882606049
0.0004189398772770074
-0.02136555889503874
0.01967410818592301
0.02072376958306829
-0.03000990529939608
0.01994629427888803
0.00524203972484812
0.01386649464905479
-0.02096182173149402
-0.02396229729269102
0.02133376766743599
-0.01962803678620561
-0.002802735601139347
0.0132127556265582
0.01986544512890268
-0.009649643601117001
-0.001397233989855477
-0.02503275053469024
-0.0140373836193818
0.002558487547329919
-0.0009864677849771037
-0.008608354339757714
-0.00358956336392503
0.02511451157274911
0.01977734934316042
0.01383808411857565
0.00541147613065858
0.00612911541315951
-0.01773576112171066
-0.01132723201614748
-0.01129907787840578
0.009819556173834393
-0.01164160309903709
-0.02210419169057536
0.00739499871250115
-0.008754168303698842
0.01704603689873844
-0.01235880701454365
-0.01939415677773048
0.02291795561150201
-0.009195596698457808
0.02066802563989701
-0.01992226415091147
0.01495312333686088
0.009487914025219157
0.02311931846287098
-0.02368486787311331
-0.01483416426428598
-0.02350142547230041
-0.01199518231552559
0.01042205869848332
0.006361179194176409
0.009448891815471611
-0.02575833479742556
-0.00875275308887671
0.003848598203096504
0.0183454644710747
-0.02539942810040803
-0.01918144801878087
-0.02761743791395596
-0.004886617892052996
-0.01103577153152141
0.01237771401393095
0.00560127233489566
-0.006698548895962409
-0.0004660439614311007
0.01664801048683713
-0.01049388793932819
0.01027409343387266
-0.0257302020283836
-0.0113006608931147
-0.02493430512322161
0.02472600697048059
-0.003823188584679928
0.02000672757063011
0.001810864948260131
-0.001302498842214708
0.03212855078586871
0.02295712391630789
-0.00921306670523833
-0.01683383396001123
0.01355087707130033
0.02163705423438248
0.01407386656865186
0.01200678066205691
-0.001912704401794909
-0.005025212503274451
0.004564022104194456
-0.008707182275374941
-0.004708895515904981
0.01523929932384007
0.01090666342842663
0.008849222080538403
-0.002260965757919184
-0.01116203180745518
-0.005983138564649654
0.02828003620097468
-0.01672414546346027
0.002024534141849681
0.01074412612951193
-0.01073952252117252
0.019601736240069
0.003970058775507403
-0.01752593409493381
-0.01183017156667299
0.00306957431892606
0.0176693753643748
0.0048379798339219
-0.006140358179226765
0.009777767811461023
-0.02417447030848243
0.002685179742397248
-0.01098874545374368
0.01978626905580189
-0.01004840510192513
-0.0247503559546616
-0.01062231216891095
0.004451194997834427
0.01142245051863833
0.00443774128790496
0.02059716594813248
-0.008743789555296038
-0.01587825230422645
0.01010633951030591
0.01844156754785613
-0.0008282892726383132
0.024840233789584
0.02838489288044435
0.01364381711553615
-0.008548250495296996
0.00738102079035055
0.02656299922395524
-0.01585151365414396
-0.01480064066247624
0.02547774452490172
0.008382577650538164
0.01623988099131593
0.005573080176482222
-0.0247526291706703
-0.01698114240912037
0.007976084172121915
-0.02006477949919836
-0.001360535277432394
0.006831399500261677
0.02998501584683168
0.03559047491812694
0.007396547713382772
-0.02023347135391192
-0.006274270148878395
0.001149641406332771
0.01470323929051443
0.001510745880322762
0.02124494084475155
-0.0260710610992858
-0.02728189658735937
0.013015162292511
0.003971014312084654
-0.02050822359759838
0.001944286820385699
-0.02207643965223089
0.004539608893369031
-0.02545033999353888
-0.02308896320692871
0.01377113443289973
-0.0203351153559304
-0.021140921270746
-0.01757791450410801
0.0167904012552574
0.01719618163611403
-0.01563465338477384
0.02005897180958077
-0.01440562851760088
-0.01027988738522777
0.00865881522024552
0.02610157164785816
-0.01030958675919483
0.002150499977200333
0.006606872325878936
-0.003013119508594907
0.02063305120730337
-0.01965743771507733
-0.009878573393897258
-0.006987435467452572
0.01721398029272137
-0.008299158531247151
0.002749864086558733
-0.002247705988265257
0.02197189320197408
0.005192843825868055
-0.02604702113440782
-0.01412787495831483
-0.02357826664780942
-0.02352168007781996
-0.01068795913841055
0.01395061127915563
-0.01322913705275409
-0.01113098023361847
0.02345307021174079
-0.017212213338884
-0.01856574192346159
-0.01235281553221384
-0.01791653683838668
-0.00680688923788075
0.001806370641208415
0.008696324161873938
-0.00936469159278353
0.01618633924555646
-0.01742390030334412
0.0216893242040111
-0.01122544143601723
-0.019138581073826
0.02434726472117874
0.003957076779917204
-0.001259701234274318
0.0137817142933113
0.02364162364925784
0.0250659920525691
-0.01144987763248491
0.0211748930727001
0.002780985258214187
-0.01144721566823573
-0.02011974880470622
0.004301762583542223
-0.009993196779298042
-0.00694461209109251
-0.01172973965223538
0.005384331528408557
0.01714327915214677
-0.008688739462808046
0.001894805004487327
0.01483609891278028
0.005364386079577044
0.01366748991007905
-0.02029663183369383
-0.02724513054803808
0.001947797270212271
-0.006806569301126203
0.01368272824536397
0.00279056089604403
-0.01396844068058294
-0.01624120627550327
0.003891371698378381
-0.01863847724306734
0.006806026254070073
-0.0210819991682328
0.02912698816364787
0.007290216376835803
-0.01984533081224145
-0.0111938108816808
0.004657152940701685
0.003520068286736675
-0.001203696607601278
0.003561357268739236
-0.01780247304600198
0.01348480587141124
0.02081014243570722
0.0004496804826340179
-0.01139084906223404
0.002004790874671943
0.01703738277944698
0.02162939715125729
-0.0109300980997496
-0.006533928054731394
0.00875530714849021
-0.008251903902977874
-0.003824308741274582
-0.02094954606735136
0.009142103756684302
-0.01231004319771162
0.004874730722388912
0.02248248034193205
-0.007668922722544857
-0.01331755104445115
-0.01701059541312708
-0.02554079084395979
-0.00846595704391436
-0.01424694900962672
0.01256000485760796
-0.00470820367662768
-0.01336242203546126
-0.01385211862201886
0.02472513223481574
0.01572714098045709
0.01019364547652665
-0.02577722375004149
0.01083510868174907
0.005753153875194674
0.0001395894274766731
0.01618526965332745
-0.01982344159042489
-0.002239934131831473
0.01314996951967808
-0.008849328461452352
0.01143364901164342
9.975069201022341e-05
0.01108240610145037
-0.01816085720939749
-0.0009462648475175997
-0.004623854181652212
0.005392034888417056
-0.01804630746091348
-0.006098247724562611
0.01604953416210893
-0.006206475392571596
-0.004390092165163831
0.0195172738671271
0.01144363111683227
0.002176476725450242
-0.007117178309229017
0.02340935598194144
0.03043631179112341
0.0003476621786976007
0.01280401279348919
0.01091638386561464
-0.01789141119866991
0.028514199767836
-0.009607641544313228
0.002839747492994085
-0.004169997879486487
-0.01456391982928959
0.0189301167993153
0.01229955109913314
0.01396362706531419
-0.0215893652560118
0.00799098148209903
-0.01561534943195117
0.0135622354118892
0.01345937620006562
0.01154412841963851
-0.01939152804580621
-0.02435954457816505
0.01961689496388301
0.0001166585622068383
0.01123786981005264
-0.01821256738230746
0.02302708170460327
0.004187124854990486
0.01030019563211896
-0.0003789778423294121
0.01694035834364834
0.01045693473492735
-0.0005568720351422354
-0.01523416131501589
0.0009060608261843311
-0.01732198942197056
-0.005378008787605361
-0.0009641976049394657
-0.001742106236526426
0.0254887110120164
0.01674105986807323
0.003585031186685512
0.01035203836070266
0.0134892663768183
-0.0002205398124735755
0.009099306222476677
-0.005970366910505052
0.01934362158356741
-0.006133501585565609
0.01550085329824992
-0.001158867093922722
0.0203071314417205
0.02433160175160584
-0.02693038384891371
-0.02287140364050208
0.01297609172818291
0.003645592519624969
-0.02019733892876617
-0.02566852621732607
0.0228548090871443
0.01643128587927132
0.03844840039748904
-7.22170086944651e-05
-0.03697865791805171
-0.0280260141113151
-0.00209387493098339
-0.02090574452056205
-0.001828436840310198
0.01081051566942135
0.006653603490532393
-0.009144861584443187
-0.002205885920089923
-0.01368784515096785
-0.02294087771800689
-0.0230737483276357
0.0008319648613538557
0.01664446320910475
-0.01131965939206851
-0.01995320845775421
-0.01617910871407034
0.02492411121750132
0.003190157191852525
0.01775780508075996
0.008843171357879804
0.001960016841732362
0.02181375518032082
