2.347118927864327
-0.3512562622823517
1.228633899322041
-0.2783297325755711
-0.4725034985176231
0.2440166561257745
0.3767932279385541
-3.282652607600625
-0.1185701209741941
-0.3728104421566501
1.201009752604443
-0.5325929008733481
1.458574932009646
-0.19654039035998
0.3884473355037383
0.1340007088770618
0.2089051695592125
0.7208071891327535
-0.2117263172340042
2.355690562313427
0.4742352796879577
-0.2086016544246128
0.1818171635201447
0.1907224092897702
-3.814997178133348
0.1826594368598965
-0.307981474795736
1.257214893741497
-0.5067848740960451
-0.6794440981219199
1.732888968124897
0.5622327454596096
-0.8312513028583473
0.5918227538945581
-0.5488319661624157
-0.447570777546276
-0.5611935761587875
0.343475454672844
-0.2128161206694158
-0.5322337885455105
-0.4909081119910183
0.2981218756487211
-0.8097414247584798
-0.3633264931987965
0.6311882737243744
-0.6101855927731054
-1.016580104255212
-2.07615326609378
0.7253097506078389
0.2530535357793176
-1.692460595896608
-0.6257829111164587
-0.5005792079539448
-0.6668467545530041
-0.5440714339959902
-0.5783175901557179
-2.234344301927204
-0.4563047100086742
0.6767112813548559
-0.593357930661384
-0.5322140322377082
1.033429450852843
0.7758195286081897
-0.3224800525248317
0.8831633910205158
-0.2143538137604988
-0.2872930331934562
-0.3761772274581702
-1.998496177640686
-0.3477556186704284
-0.3440433629361873
-0.2408659688899806
-1.43295850617101
0.00403317572187536
0.196531352649976
-1.782958449090673
-0.3506809289691825
-0.5009680180490604
-0.7581477584273373
1.099561962367321
-1.56468781894633
-0.05671962118344353
-0.2863106364379482
-0.3179290516567536
-0.4984205700077565
-0.3811214041894861
-0.4346302802323546
0.8008163620902766
-0.2458291199939867
0.8898119978449934
-0.1652274567758812
-0.1825535453006047
1.247319863112898
1.183119469599261
-1.196470400783528
1.247219902959209
-0.5587224849932015
-0.497736556954585
-0.3156414763103307
0.2259913045472778
0.1471385747613012
-0.3972277783399244
-0.5933248529916597
-0.3214700179417673
-0.7739349950544807
0.1680988043981192
0.5610049172079185
-0.3677497825374575
-1.258826577566485
-2.524301045952562
1.418550912300201
-0.069992491515374
-2.471291761559034
-0.4438024587359753
-0.4338060453239811
-0.4064570982714898
-0.3092878200887814
-0.2629188911271508
-1.796884591426647
-0.470284671895856
1.370649983543841
-0.4145729074034453
-0.3789446185428332
1.738654212295691
1.017276738663802
-3.366020366457951
0.6923065156763947
0.6595756622855725
-1.104084451223607
-0.301979684668271
0.1709944795026064
-0.9891842367029746
-0.1826011373662975
-0.1084625400077775
0.7244444919374845
-2.100334162843215
2.789446990106062
0.1614951490836423
0.3382870000472242
0.1538442909392371
-0.5378315060844913
0.6369548487174723
0.5295065046932041
-0.5830847666740497
0.6446768448219276
-0.4154552078883599
-0.06022817763617911
-0.06182794379635724
0.7993191226421887
-0.2169234909474135
0.2331564234635221
0.7259826673469916
-0.608961824723544
-1.207128935528664
1.958809367976813
0.859320899203647
0.4271774081159135
1.203729339893494
-0.2318624497400857
0.1009318896470477
-0.5512947490159008
-1.480803440693023
-0.2924826394687327
-0.4442994425376335
-0.144315308819329
-2.01411331184112
0.7807111402812236
-0.8301459990806158
-1.596906959879299
-0.7044349059234156
-0.2841984779924434
0.2765689792136936
1.580761330741857
-1.655222632949407
0.4606449050424718
-0.6816553460357782
-0.3197667468924658
-0.8792245457546065
-0.6142789551225794
-0.9499855027067963
1.241073433347003
-0.1218855493415462
1.100359177985935
0.04656273190339015
0.2615814703927248
1.478905856034089
1.064450525788245
1.235368549956725
1.023009819021903
-1.786645377446571
-2.415932004449255
0.2058114996846944
-0.2430394219724196
0.0783014699762008
-0.1753302410630759
-0.6688159967419224
-1.068169266967116
-1.2976569249648
-0.5065706309942347
-0.4149644732085563
0.07286416105659528
0.3127078975212199
0.593863757170487
1.484287874803872
-0.2400585960442478
1.994246051301017
0.5433922822155559
-0.2050010202529514
0.3201511440316012
-0.1495778601709744
0.1128040480032733
0.874177280248962
-0.8726552355473609
0.7851780880673962
-2.821771265105058
-2.822776951348605
0.4736652247209849
0.7495202851871487
0.05823605244787575
0.8887380400116816
-0.1605796135348619
-0.2150861915734114
-0.4176322735009097
-1.940407991651111
-0.2712564130508976
-0.2715104597716055
-0.1604764551915685
-1.534678597666784
0.07424598486871348
0.07271283060919133
-1.73779560521483
-0.3816471607803583
-0.2960139688754335
-0.1670566150082751
1.097317774532028
-1.556511661405811
0.2798705658719155
-0.3284993097617555
-0.2248278797732677
-0.562698369433653
-0.3919964456461794
-0.498197063332199
1.051631521636609
-0.120045191054117
0.9149989175346359
-0.1010141365740503
-0.1400581433014501
1.30244247720473
0.07467956022995725
-1.80360529625127
1.357447604390225
-1.469147513333394
-1.533075846916522
-0.891217956037189
0.3423598973853843
0.5365720428363151
-1.687766725280537
-1.457200714727701
0.8720501225520487
0.1546815714562316
0.466387835632728
0.1784878118545822
-0.8464395010249115
-1.380502508808011
0.3962816372019245
1.747722204398593
0.4024465958321233
-0.651813271840309
-0.7650833239543028
-1.549032381239245
-1.634753660550028
-1.152853443089094
0.7882012301970136
-1.262749052730989
-1.350278253053522
1.201246296366212
-0.1683335432030078
0.007972639472987667
2.142182057751601
1.462336780289328
-0.2997918397381819
1.249023605926572
-3.024136861852682
-1.083923250641818
-0.1895015080495256
0.4890352539920415
-0.04741855719510305
-1.219521255518358
-2.486044376688533
1.073065526332526
-1.732169000542431
0.1237658150746193
0.3722396043540674
-0.5344741882535421
-0.1513870083984882
-0.8045146427726145
1.277140478430174
-0.2505688219551248
-0.2330774338143174
-0.5081981162015642
-1.571932110220635
-0.3305801119110884
-0.4902463094995919
-1.064791293075441
0.1305342445009371
-2.300535862954724
1.438038656011727
-2.06857675428136
-1.912892127740234
1.510788987548177
1.280713546967717
-1.079178721147489
2.452562923029644
-0.09090150499062796
0.4754759339460231
0.4457391395322334
-0.9945243891933415
-1.20927931267812
0.9607359784142432
0.3894867406590158
-0.8873378201828399
-0.4069789600827947
-0.04580082930597783
-0.4935325232054357
0.06744585557658864
0.2295390294267138
-0.02082647395864465
4.382549605667219
-0.5015992658984517
-0.4368954022974631
-0.05397898107484399
0.8540875677514439
0.4657167204354866
0.304692448762579
0.0792517137621367
-0.3180279635263825
0.4592507933884035
2.049942290675034
-0.2302972342116947
0.05337786369493866
-0.5983928657776924
0.6402011067492491
0.1787455300499389
0.481013294962637
-0.7834474210060961
-0.7162184126489447
-1.381305092155251
0.1819411679124315
-0.7670352564313848
-0.9280183101450943
-0.4652207201599787
0.3352759852670493
-0.5373257516228297
-1.574145580148031
0.0968805258146794
-1.358005836763552
-0.3196247211004924
1.088766276038955
0.7322742438919527
0.2021415603588685
1.283944481657698
-1.181071148207975
-0.7164542308829064
-1.549006694219373
-1.32676223891334
-1.52889273975527
0.1071126227938245
-0.6537270470926123
0.4523259735828991
-0.9690030395800672
-0.7947848603783093
0.5854103542164247
0.6206900162858818
-0.4599112487805961
0.486589961032834
0.8296105115535908
0.3857234856407303
-1.704303757387784
0.6611857070954865
-1.673203745684876
-0.9161893928576476
0.1686878512324073
1.66352162507294
0.5563111439541292
-0.4329181141614734
0.3918498768080814
-1.136882634299392
-0.9274818528901472
0.5681576030634393
0.324257876965738
0.7969556623362305
0.4377653732038253
-1.16732528897536
-0.6663961221599978
-2.188097647745133
-1.325393990212756
-1.718900604161076
-1.408117605950874
0.2521964154265403
0.5513639893128668
1.482345666550667
1.073668082243873
1.716514963220814
0.8308846645761093
-0.1933320198834202
0.5514732628926591
-0.4439970962100638
-0.4292869937837138
-1.480361681435452
0.01678644228833633
-1.038436716593816
-0.9444528225287236
-0.2714103869165473
0.3639273093808149
-0.3620004101074945
-1.362536094694549
-0.01022080517928119
-1.341189560428639
-0.4928521442218413
0.8047697318701997
0.7975184009351423
0.1581214491853381
1.157326294544635
-1.234124602088213
-0.7454458083279475
-1.676777347471438
-1.385449683876577
-1.760821680883358
-0.1262816366100351
-0.4382652618104327
0.5485175906198421
-0.4700194347663351
-0.3640501469830062
0.8409771966839813
1.112730608649569
-0.568590271403253
1.158235507657282
-0.299224403260042
-0.3189153547959552
-0.3576875462508985
-0.7881242609863723
-0.1082638174831207
-0.3718116865706764
-0.3588046157566863
-0.5145825403161443
-0.3879863497179541
0.2392051333686255
-0.3713320135859038
-0.3759950897685899
-0.9749708519711306
-2.576575045260808
1.281692015674772
-0.7790585770308593
-1.530908138124024
-0.4001601320491038
-0.3267723992351818
-0.4051749329035405
-0.3603399877711735
-0.5041740939676681
-1.180730617130437
-0.3113547970294744
1.283603898970504
-0.2541356093958529
-0.2949324969121408
1.671083960932939
-3.323451297487612
-0.6113747555298461
-0.4982813385739188
-0.9737572837242308
-1.783413817559825
-0.5426524134293765
-1.881677056243004
-0.4345106815914592
-2.157513030135755
1.239635128666295
5.448351084300334
-0.7787551948815219
-3.682987723266493
-1.08768738429545
-0.6517076417597729
3.492292441776498
-1.421973881162468
-0.726108981592001
-0.5748305703225247
-0.8326784381245248
-1.378904285650278
-0.5471864724898683
-1.239591721279977
-0.5645828062990391
-0.3668430984822899
-0.8838749551370745
-8.186441613751896
-0.725753541730675
-0.3138835645217521
-0.6256078005694721
-0.7101388167573539
10.19642564261281
4.412619765754695
-0.6013638901258692
-0.4355840083864905
-0.5245486149190794
-2.357492576459619
0.2714536537975363
-1.948842578093371
-0.3023011793696087
-2.134645689335621
-1.747105630566517
1.697243959842401
-1.06723399490955
1.054006820626067
-0.5477174550303713
-0.4514748016779466
0.2643301593229256
-2.389206970508003
-0.2198594520461766
-0.3156608797623214
0.3263935911129284
-0.8427982958190656
0.4281302912737091
-0.7702299416433401
-0.1976978246110315
3.186209286107732
-2.120922351032479
-0.1278002190048342
-0.6235205222702891
-0.1890264934880417
-0.3120495018552166
-0.04763175895069446
3.092116444328726
2.735240540753388
-0.6962808640225722
-0.5361318445162916
-0.5640624406405134
2.489309020047441
-2.121348744101247
-2.091039199255506
-0.7827275932926242
0.04063896019769716
-3.027760624386383
0.2099674203424738
-1.226590304001853
1.673315620335492
-0.5654010427418316
-0.4631911231662655
0.785046816007207
0.1098332607281126
-0.6025015321933759
-0.158779978576494
-2.10769351661992
0.02177668006439638
0.2777684396226932
2.383839504604155
0.045922006506078
0.9207521573810534
2.718055997918293
-1.152429387778137
4.469889942166213
2.227042845165622
3.708158496270551
-1.988770608071088
-5.709112770025599
-0.9087055001175451
-0.7642196398019768
-0.6017206909946899
-1.520191289336647
1.94814265795007
-0.9960584773241781
1.393418500210566
-0.9222232897892521
-2.493058914940353
-2.740461171717388
3.113650934716572
-1.270557559852677
-1.28468412645532
-1.427351152477142
-0.9310730612847518
1.926698691857735
0.3378584451873329
3.661282019530772
-0.160249047781216
3.604998669008169
0.7388926139599695
-0.2795058504921038
0.8943878510719955
0.07475243618419926
0.5611837593153542
1.363063378172734
-0.706576643086714
1.924275156885387
1.741940531218301
2.219394059645272
2.500382490369548
-6.078100058508879
0.07374022493581665
-0.7840819832070508
-0.9804215051196382
0.01869271097058756
0.8372524964501847
-0.9528777136174794
3.142698001628425
-1.037726391488846
2.082648166251358
4.63752041332784
0.1801145845513621
-1.683607064676034
-1.79667358450224
-2.777443435997282
-0.2538651509439283
-2.390768938221559
0.2933498744716249
1.321146992310547
4.311030660057459
2.600393116006806
0.2672150102926851
4.458179661378145
0.1949151966010948
4.091101760638977
0.342057572353803
0.5789414837420285
-0.4737414877943168
0.9841180506931779
0.6287655141727019
1.487212845741639
3.019492640171542
-5.630875559575355
