-0.2269374361935777
-0.2200241820871025
-0.2059111687177612
-0.165150216502912
-0.2657093334779916
-0.2838656929069637
-0.2521705369656315
-0.1981026095880866
-0.2155659176073508
-0.1439316284692439
-0.06992099496685789
-0.07688028118329399
-0.1512573238227075
-0.06933328352062104
-0.08640016039851738
-0.02433885145904313
-0.01325807270433616
-0.07691735674782815
-0.123103924504048
-0.09777470115835774
-0.0507968021632555
-0.1420123682799793
-0.2673475724509089
-0.459868230268947
-0.5946774585601128
-0.5555475228773852
-0.5229142607158344
-0.6859765347139445
-0.7553708348027145
-0.6557675737255115
-0.5929574990232598
-0.1883560373303069
-0.04437041119519414
0.1621715366334772
0.1853660955022289
0.1640456835126297
-0.07134500337297793
0.02991897071525818
0.1386361327085142
0.249645322328743
0.09451932606685701
0.06191608205664187
0.3770725689122441
0.3239736790221456
0.1209499070482374
0.06395368930530849
0.2273035720652363
0.4322827438292517
0.2495765633631041
0.1004525558586762
0.04887678300933224
-0.03018717910996507
-0.09090064508029831
0.06282557662940629
0.2178286747408033
0.1613331355099309
0.1427466668028234
-0.1403126078828595
-0.06855662896924257
0.1830910829569521
0.3187690573179546
0.2227711842308416
0.1042832607679378
-0.1013467749799619
-0.1233404679048364
-0.1516246853377913
-0.1551744996150237
-0.1719678892906987
-0.1321865485556349
-0.1657739023146298
-0.1891045718950841
-0.2905681498368897
-0.2738822705057697
-0.2404864661638385
-0.2340913979087856
-0.2107767914945272
-0.1747910380920329
-0.1742234980129704
-0.1650022200031989
-0.208666521869052
-0.09181912945843196
-0.05861605252742282
-0.09522781301433143
0.001485222678188513
-0.1425672997412856
-0.2503345881523737
-0.1655806474235217
-0.2853466965465153
-0.122220797166151
-0.3163594348477689
-0.1284616433722179
-0.2070531754144567
-0.2322236070139996
-0.3570568010644169
-0.230506215597022
-0.2144963713240275
-0.1454890696042217
-0.0873710681199875
-0.05888258583652729
-0.01079325232082177
-0.04243747819195659
-0.07030642880688014
0.02096768326276
-0.0394040036385406
-0.0005266223058469541
-0.01076377606057179
-0.1299211916815991
-0.2989768521978343
-0.3582475525758635
-0.2231435496374748
-0.05492977321735385
-0.2691955247226472
-0.4828263112917503
-0.6496286402253248
-0.696107943368021
-0.4973826303529952
-0.2365519314402575
-0.09482512950123864
-0.1615855521669292
-0.1646084744765378
-0.3265859540321449
-0.2738808971338347
0.06085172554450465
0.1613803103843893
0.06889493624986257
0.1047498425690742
-0.1899107329225724
-0.1963009553694591
-0.06117047485121716
-0.1056814446737069
-0.1697477565994595
-0.2215418772010233
-0.1462813346380747
-0.1001377947816098
-0.09331953979119612
-0.05153354535038154
-0.05590102549578513
-0.1306202940331178
-0.1687078771321023
-0.2029232562629698
-0.167990617649441
-0.07585008911854756
-0.1404602949710514
-0.2028414182612442
-0.2324927465533412
-0.1802033395719655
-0.06497143682572214
3.906770638713235
9.215187580512259
-6.902300536199397
-0.5387016587593981
2.217287552650898
24.87796320490455
-1.020801738415753
3.538146108937898
-5.87480912348969
-0.8665800678708482
-6.071323294399665
-9.284024723170722
-0.7344311010854099
-9.664435453587631
-11.34618894030761
-17.62771147307708
-12.07237828366802
0.01354627647239537
1.263004089558557
-4.003526185036973
7.053758316047154
0.2165585532508246
0.143675722444566
0.01250048110663556
-0.005228820636003717
0.1000029331715852
0.1622163012577411
0.1070138993852098
0.0008561044922804608
-0.02893406010234817
-0.09187774018607878
-0.05839470661376629
-0.01520742072326181
0.08898931445996131
0.1106698142920972
0.1220520744732672
-0.02417364679775624
0.07634183104202176
0.1720289203622893
0.241469474823866
0.1335676584162809
0.03956333402449381
1.176268737895717
0.840706819105832
-0.5270644255143819
-0.6181753581183682
0.2739372146245018
1.223116847869035
0.1500789813350437
-0.8363482009387404
-1.055042340477354
-1.298342787432001
-1.277025809896627
-0.09807416388306067
0.7049744754186016
0.8127385991981581
0.4733369737079217
-0.8458221491327885
0.01204910553875707
1.087607258320365
1.468478124465749
1.031445169699678
0.5053752199909807
6.067070872189124
6.54762050694409
-1.998144427635677
-2.889398721742353
-3.959375343839176
5.131089349678663
-5.332707930285478
-4.322786743621749
-6.721108277128491
-6.367042790307907
-5.717988043496924
-7.335656615438395
-1.633123551963747
-1.758674582052134
-3.792422024203922
-3.300293884826678
-0.04561009690450804
5.707063946652038
6.825496949241622
5.251865417748333
2.374217264999426
2.429863738997131
4.042036199904347
-9.425406027536798
-11.68519900473876
-12.49120222009175
-3.958644568729525
-17.34588974595379
-14.65242202083164
-13.22641901651911
-9.958325717409625
1.898670417912822
1.832056267500173
8.993597908037886
8.384152515741231
6.641989062256562
1.170956360457955
8.608300990158558
14.1695481794354
11.59371213156554
9.922737917703003
4.234906145394567
1.231405781590027
0.9602605809488817
-0.07088339801844651
-0.2772022525186764
-0.1084429693370509
0.4502974930735453
-0.2798403915798724
-0.5271119921044429
-0.8582948576617377
-1.025561973228177
-0.5370903848165941
-0.08466562459058603
0.5627741899521421
0.6536087026163661
0.7020458637792489
-0.09959150605381047
0.2042715696965382
0.9464131900933873
1.462650869952493
1.197107504684015
0.3480804768506805
2.945976034586155
2.93315733281911
-6.574034655590385
-8.033175464664307
-9.575187889934091
0.1778062197849989
-11.61042224019663
-8.653739691006791
-8.695282675976376
-6.038816033082536
0.06700936072217994
-1.626094111741009
7.722664159912834
5.442809618869522
4.655710094393053
1.947036932279213
2.99583270850283
9.250931267568227
8.736215276117662
6.086510502428998
2.916676544852093
-0.06299668935605768
-0.1152821580399458
-0.1320098605841916
-0.1779057382740537
-0.1238072646367428
-0.1749255267202393
-0.1090188161665976
-0.2102713148177744
-0.2214405489986755
-0.283804448112191
-0.205372796291119
-0.1582070845582664
-0.09447189792734166
-0.1132928154793873
-0.1105665623942837
-0.09732344889130042
-0.1206238946100295
-0.0563050674973001
-0.007738407621105026
-0.01804200936478411
0.02654912475092024
-0.07625005822946891
-0.4821489980428317
-0.2480665984281352
-0.1134313886849865
-0.02400832799172516
-0.2275290275792815
-0.2807104189610004
-0.2174906924551204
0.1475460814395056
0.1643925456375611
0.3027811163101289
-1.869653415968421
0.09266305095147533
-1.628681085754915
0.02200818021013948
1.168654098443904
-0.1828948230420842
0.425129426130632
-0.1271565027310477
-0.07597521252150052
-0.1110038140942223
-0.007989311613433839
-0.2922918588540148
1.981801356651834
-0.2750369387912585
-0.2274375337350416
0.7735514827714935
1.236705409732539
-0.08426967887976786
1.503552352074221
0.07396979327431664
-2.507550210893549
0.1974130583462449
-0.3523814370343876
0.1660109267327345
0.03089105357800164
0.02405982967456521
0.3453272169971625
0.1619989351957962
0.05958312810538671
-0.09566447830921208
0.2508740547477292
-0.1653624775158008
-0.2257439250447376
-0.1243785009722078
-0.5377232260225233
-0.1132231706147397
0.630094826795241
-0.2855424001518732
-0.519118414969126
0.1530251397284339
0.2477090179919053
-0.2180517663703605
-0.235431198955056
-0.04257742779189126
1.096753504843602
-0.109294110097156
0.1540079565033536
-1.136160852901225
-1.124447090485561
0.2887913547561232
-1.105340482098948
-0.29640668738267
0.7580629546455151
0.08618361428535738
0.2533617618188476
-0.1114480987515766
-0.3123791034248203
-0.2452656806441154
0.006303222295087734
-0.08590019125635907
-0.4157687015593608
0.0296441287612236
-0.5131816382513282
-0.1445081172350928
0.2252095140202748
-0.001159074804584044
0.3601211171366043
0.4167645503243596
-0.1598153075585345
0.1278969473170538
-0.3628406310056131
0.1488365601542793
0.06851816824969546
0.2498696391396068
-0.1611492064291147
0.4414822121515358
0.07985052541985004
0.1474310986260813
0.2862633945553418
-0.1461870298816381
-0.1247758624023839
-0.5070605265389011
-0.2044085269530015
0.07027528743304344
-0.08075773196360848
-0.1635693657592543
-0.149450471348148
0.03095653077147036
0.2290047317848693
-0.1412311346204269
0.277064291543468
0.3235238968214503
0.1368382610772485
-0.3282914854859245
-0.3116560658705013
0.3682864329105509
-0.5995414880328527
0.1138425275458787
-0.2070087023029282
-0.03216093534278929
0.6304406108259529
0.2181935253148943
0.4243189132130423
-0.3546125289092811
0.101668215985313
0.6138672418129707
0.04611595915625343
-0.1068040068649925
-0.5136846309899162
0.1567496301711592
0.2093084903069921
0.78242675244412
1.255600276620479
0.2554753864057208
0.9465169770796418
-0.08990463953040444
-0.7169988552592222
0.03681283965754806
0.2451687729529859
0.1713312646754075
-0.005631045062392742
0.1645866851510591
-0.1389429788828896
0.03730892692397642
-1.108519257597326
0.3711776150664526
-0.2474928097340026
-0.8992894628214677
-0.229192643342831
-0.002682918908162366
-0.1819279674379843
0.1458186073464122
0.7199890185092097
0.06592222916706955
0.5831552148711483
0.08607213921792108
-0.08854210262057462
-0.2511708489177619
0.1343555056911194
-0.1418111969704412
-1.185936480377476
0.01018012389720832
0.1723813548872988
0.2489222071763859
1.462792331704064
0.03332576938211906
1.007136879454706
-0.2198518941421345
-0.5275121768291051
