4.470184359050986
1.248393029965583
-0.5747869546968883
0.9022683736104146
-0.3074519962707655
0.372819562374332
-5.113008588917148
-2.616187716293918
0.1369138666425263
-3.438417287176001
-0.2622249982135234
-1.472949302504257
-0.2855296560859636
-0.2078431325280241
0.1437092050187771
-3.66995481455262
5.751272152642896
6.273776923208058
0.1259007334383949
3.075136608829233
0.6494307540477633
0.2440651338941039
1.513025385394629
-0.2755628423793562
0.5054844867209632
2.109870063151193
5.25435924805491
0.9951135465841549
-0.7689944362734329
-4.312668004544682
-1.588097439293278
0.374481601446889
0.9992801737793342
0.02265954650324234
0.3231873064748569
0.04447123654771028
-0.6512537954846297
-3.174564853688973
-0.7941209707620485
-0.01106785460681024
0.6086281142951471
0.9515556012447939
-0.2930786106568323
-1.957242867930427
0.6788242999444029
-1.226744250214983
3.157570944850682
-2.304120872684857
-2.279832386873542
1.644422696059133
1.819432145164062
-5.825346981383086
-1.943011854670396
4.009290123815345
-1.054423590083791
-0.2294723068946983
0.1135401639880084
1.029482345180849
4.56421783958625
-2.110867444047645
0.3140851694784403
2.926744752416948
0.08275938775904387
2.966607101133027
-0.5892734246168273
-1.586022532168412
-0.1323287134765821
1.611701502630257
0.3864127350610105
0.2510718548659092
-0.8652634754577465
-3.745418031359304
-3.715052141256029
-1.724745105695696
-1.591827462308742
2.634386656237077
2.020179670779207
-0.7938422505723477
0.9562565588555386
7.632400363020762
3.51379309900034
3.668595614478749
0.6520698317765689
1.995721871795028
-1.961506074622843
1.105937416888529
-9.978854788629441
0.731902639439092
2.351716545515881
-0.4783347369400106
-1.617033564544135
2.857362264049621
3.362323345234154
0.2235443525983359
-1.153714713357503
-3.207508467361154
-5.954503687097609
0.2009857707830738
-0.5151311408384485
3.534042219559288
6.159175186115826
-2.429583797941956
-3.154098076942854
-5.098114627278952
-1.350767483369637
0.9966952541105011
-2.76229424870127
1.029081170495592
0.6350055225227518
-4.862332885362908
1.210843124876101
-2.706046216553049
2.691728220468204
-1.494433049865548
-3.190810648099546
2.22642719606149
2.073805261931718
0.8287077048353702
0.1193347705683304
-0.5873212462097439
0.650025810633626
-7.129030985238467
0.4020463500851535
2.627535552049244
2.330175914388295
-0.4483091830335147
-5.285476083489182
-1.847638751063187
-3.635030826394754
1.098309752579976
-2.636960866200096
3.601677037842239
-0.8944024473121126
2.447085399354452
-0.2055166435503195
0.9898205656116952
-5.089597480104123
-0.8854845839691488
0.02393572625001817
0.4945054883336102
-0.2891954282627378
3.575015857141304
3.550609707754119
4.565243531661735
0.922005494277011
0.3763079645947262
-1.179574510213814
4.309916251171769
2.666021593279585
-1.965735503330128
-0.8850286848790708
6.552258476650265
-2.255583730806346
-1.547233856657407
-0.370562640761432
-1.407806427137173
-3.08527505198891
1.433662741380019
0.9748079222584652
-1.349735182613529
-0.02855201508881862
-0.09756614616150555
-3.767377311805685
-4.648330710721716
-5.922028577058586
-2.432256742731553
-0.05160039647585678
1.506907268241314
-0.4464599183385758
1.182427702553146
8.694546271127791
-1.746107023561569
-1.073169909853688
-0.8832747582108318
1.769460807936137
-1.774024096609011
-4.443653556111654
-0.5805862688532306
-2.208552200994497
-0.2519165853866768
4.406270271751934
0.5083477422903281
-0.2976443959673244
-2.316006940647156
4.676705826364555
7.106209505083849
3.350480518138704
1.419009112824809
1.044616587745828
1.490069528380046
-4.792173541597277
-3.377994832934381
1.70633141921534
-2.401969109083024
-4.501319913389041
-0.6650335974808483
-6.024292784969231
3.841092073360391
1.643456308229765
3.992710877892383
0.890623522417718
-1.614733581139205
-0.4322389263632487
-0.1690073089556836
1.50119819652345
3.8941135801509
4.948992000941773
-0.7080299173448914
0.8059924181981026
-1.749162621303174
-4.33179649554515
-0.2381252385205738
0.8158529621370175
-5.451206795888063
4.935516704591659
-1.24237335907909
1.043129318546829
1.539409332010995
-1.579769969566239
-0.8501682675048674
-3.432756691996524
1.804124642404855
2.041754182712655
0.5064964238131981
-0.3375731083528779
0.7783792813871372
4.31673250517847
-1.192183468609231
2.885257254177013
-0.09368134626041265
0.6416687050840447
5.657716723055152
-3.848987435446402
-4.208585865731545
0.5829954334064908
4.10386128529102
-5.335439211317357
2.430448910701837
-1.960364796828159
-2.599842497459132
-0.1922639157367876
3.221919686406043
-1.094433015592377
-1.584373989679998
-0.1533293451087951
-0.6200258410341289
-0.332408849582785
2.863737598612023
-1.114546145104491
-1.736658380336429
0.6402508485026801
-0.602459576877843
1.174543587620057
-5.152810770395902
-5.067637492767039
0.5051362856590673
0.3614739764747463
-5.055970804834161
0.7185896403596658
0.976275125362184
1.167711167173891
-0.002660455038041558
5.509436245013273
-0.8336259426276771
-1.003845230659829
0.2510978492162118
0.2127734082302658
1.552678251823123
-0.1198005141093985
0.8400604192748542
-1.440799172644083
0.5946360005807992
-1.236545860994122
-0.7454075738209291
-1.197747427896098
-2.807591998864404
2.589070518545392
-0.2777592835667315
0.5800659506316515
3.656876869740095
-3.720805533288021
-4.176150794987506
2.345890372596354
4.565476933858687
-3.784409079695005
1.878593403385753
0.4675277341321477
-0.8228742241273088
1.909132047277606
5.378953468905152
3.331585575017383
-0.07054882378701421
-0.2677229334735857
0.4722915290450317
2.633244726983565
0.5902989646483363
-3.671442878015022
0.3814362195569399
-1.340110234778258
-0.5275505481727804
-4.647630268882998
2.564007166008636
1.559701431898365
-4.407629177016314
-5.464299132422473
0.1297590469832074
-0.7238614139734797
0.4509912708515152
-0.24483527193121
-0.8424449786635348
3.22426544065179
6.896217195202408
1.098897763469904
0.468160590633236
0.06455454558966839
-3.7248827186334
-1.474787421531011
-1.332016355334364
-3.137967581723514
-2.586098084324759
-2.34649643291835
-1.452059142684349
-2.174429672748361
1.967055257267065
-2.537764876788247
1.53603299697536
-4.114765923257425
-2.393467491357826
-2.419533824257035
-3.257905963981369
4.992240847007189
1.993793607819346
-1.248567569827079
1.710864015290906
2.226252107651435
1.744369919942134
-1.50747994457383
2.359424686748393
-1.026693477811281
1.918094680122805
3.054428723358363
1.45316381589426
2.776263643372636
1.838124483958483
1.953235637707257
1.433365628158684
-5.333551401321917
-1.793900198202065
-2.211912722470759
-0.9336077490815267
-0.4332951197390748
1.408778023610463
-0.3145825953141249
-1.217822736090912
-0.1529923578334124
-1.787613171328263
2.827699223887157
-1.02198582996193
2.832512539814721
1.949814969957738
1.852375226124623
-1.913743335874986
1.443842340798754
2.102940136871963
-0.7952738256433534
1.710496860150829
-0.852194794199827
-1.540409124308466
2.006670930016856
-1.707269540972695
2.537962584516514
-1.254238162253317
2.681759380611198
-0.8756323209050638
2.780967902775957
1.527947818827841
-1.579180477017413
1.318333338254588
-0.8626214593195247
2.04166575680983
1.944559589951748
-1.950253804362041
1.895600206483511
-1.713160507995009
2.544845623269597
2.181467425053256
-1.913164289572511
1.944296504433094
0.5427337675662729
-1.969740381954175
-0.5570285686889422
-0.1261066953118587
1.941549763088227
1.351429587221922
-1.495466319985695
2.478802287355531
-0.9252671382887009
-1.116803372808148
-1.576535962516078
1.969425293212644
-1.919913468830995
-0.6315045426690091
2.676468548300271
-2.074580957056805
-1.152786100659299
-1.942251103214095
-0.5864486049493919
-1.178747169237465
-2.383246010877725
1.480354498436206
2.396084256620942
-2.503038196917409
2.051486376040889
-2.051999419690594
-2.230272894086962
2.122151295952365
-2.877275192843727
2.592687469162552
-4.178017875378284
-2.373704268297392
-4.223907917473344
-2.060970658230824
-5.532783420553532
-2.965864088333301
1.947314297676406
-1.659243126671381
2.730123520752733
-0.9337303982430308
1.83867011191523
-0.038114591119439
2.410798256776128
-1.794633343254221
0.2222552699300418
-2.264552964759489
2.683531133289921
1.618953757063312
0.3073666166314729
1.640430492873073
2.875704463557132
1.747521996637018
2.120969684650927
-1.374196765684015
-2.121770991737276
-1.655630326905176
-1.075790735431381
1.917874696043284
-0.1778941696360256
1.716729614360787
1.949967427300426
1.897750630655925
-0.7861789704099889
-1.727732175389705
0.1975878232622614
1.288362245429575
-0.307036451416037
1.127990918722824
-1.536627830212107
1.102338618463207
0.4943491871888113
1.993842716752473
1.955137066174369
2.057138321332697
1.844268152840937
-1.305329301068462
2.202651714145721
-1.64943876849949
2.328957964183425
1.738890514871221
-1.783169681563575
1.875696306619384
-0.1763626002185036
-1.546873241741913
-1.851406776647151
1.583463206359697
-2.267167172910536
