-4.246562049682527
0.7346301246391043
-0.2387076779720414
-0.5228634132864084
-4.361784680896936
-5.365671712049743
-4.825820225145311
0.5344748728746312
-4.199692975292002
-4.06170781774886
0.4785569632113413
0.09667034931149165
-6.097784213019122
-5.104603089364498
0.5668826208661125
0.4530445869410674
0.3351106106705494
0.5698607563654741
0.3522118797391863
0.3665027355924879
1.164280842907581
-5.819848764625927
-0.0181233220407647
0.1083654889262127
-4.390806339399398
-0.5135491839962988
-0.02130177802186753
-3.915407739109101
0.9670389340356398
-4.132132350076768
0.5516604650327508
-4.836289525065053
-0.3852146314184712
0.362739286622431
0.2907608314792579
0.4155849298371407
0.3332868356512643
-5.000975312305269
0.3350604232750414
0.1362826153511893
-4.372004727707359
-5.365386025777119
0.6110508593196936
1.592476803010068
-4.378994656607722
0.6548498874021392
0.5105397170326362
-3.933809642145212
1.560131244781765
0.5671559306170854
-4.550478388494337
1.7192029749842
1.366869067391337
-0.06465665723170798
-0.3163547902939101
1.62987384968357
0.1208827208820309
2.056232717542963
0.9966090456130114
3.964018250264079
2.357738056395823
0.4307280380054536
0.3999081899961708
-0.3405210360053043
0.3965921661275824
0.3948798084835788
0.3680600775008449
0.3884742660611549
0.3860424996474063
0.3938456034821377
0.3857207498264463
1.688513158943555
-0.3497941921078144
-1.079247215543154
0.255154617260741
1.592734885569732
-0.2342548394466059
1.744640553629094
2.267083169387952
2.525486221840338
1.651564397075256
0.4042485932356144
0.394280594785676
-0.19081114273262
0.3613367088691614
0.3557484804159938
0.373998525152937
0.3723757161222152
0.417725111320273
0.3336290891334036
0.3899328766242628
1.704390364448646
2.186930188213257
0.4566960700022195
4.155817831148166
3.825780995561724
0.2665049620525625
0.5831039571706532
2.141135679330504
4.503014550923916
1.571455917636991
1.865545462086766
-7.677499611297234
0.7048028290085364
-0.2321161463227254
-0.4218972239464485
-7.805988819014085
-8.793276064044971
-0.1652797798896929
0.7330423175589569
-7.49893975244874
-7.720264923303543
0.5317651736584789
-6.95153162567634
-1.315979915310797
-0.1040715674392779
0.3032890297753643
0.4180167129619317
0.4250583043102312
0.6904595607602771
0.3778602088881465
0.3878239550748318
0.9021868319850233
-8.888930287944618
0.4158346044204923
0.2137489289119768
-7.823931788422103
-0.3360072774157132
-7.966211338108313
-7.080568707061015
-6.572768686790166
-6.661343013206515
0.8123362005415284
-0.1257404047756442
-0.2945328772002471
0.3894366788950578
0.3582131488304214
0.6212862036595562
0.3772402575037129
-8.30479470775188
0.3619521643022668
0.3676287673531636
-7.603508644225363
-8.957276921059879
0.7224708412516304
-7.433382111118236
-7.693756489067095
0.7490724367918303
0.3023609047912909
-7.180730774968862
-6.44833212096894
0.8680564788881416
-7.563796932801734
-2.186452802111325
0.6770172160458277
0.2078527113356374
0.09041383990156489
-2.260540470674581
-0.4734189163390956
-1.395101011766313
1.133547389876954
0.1880945179575944
-0.4606528034910332
0.1169830990267504
0.06720178754095479
0.1529853721816362
-0.2036903125064538
0.1628704738413322
-0.2252997640358441
0.1045672883520054
0.3747666696413298
0.3705478411348087
0.2874640538305899
-1.898342189943305
-0.04050108589839614
-1.366906116265461
0.206186899138509
-2.216887913557024
0.2936407027882386
0.1807466734390661
-1.572673107719159
0.144531450202652
-1.631646146621343
0.3059305065586575
0.2335340159417301
0.1712341004193261
0.2839114090696651
0.2434218137676623
-0.3054116963813494
0.00385699260297657
0.1008577930507684
0.4031008240947495
0.3223133817717819
-1.792309871147415
-0.8324689789430222
2.342253484619747
-0.8800728163438608
0.886990894782981
0.1484849970777025
0.5189409092527462
-1.668015432350152
-0.4105719032555129
-1.7940923444033
-1.469459442574703
2.458123046830328
0.1654738728326499
-0.8479097522894568
-0.4206026732057882
2.336606404596405
1.230210584553025
-1.431821328596607
0.573746260326977
2.153083823367756
1.904096305715048
0.1672706618411929
1.546885815067001
0.1968750191878437
1.210547918695415
1.702868883670805
0.4837233122662403
0.3688397051594628
1.163679528570267
0.3617581813519652
0.4096182784115824
1.264741734190608
0.5662477771459887
0.2821395155847107
0.101618538423271
2.260305731046646
-0.6933259014500154
-0.3642898543086818
2.763508063631249
1.683898033289525
2.218311273668513
0.6086815909063731
0.6084668784068911
-0.5874383793133641
0.3961694271201924
0.3107306099344765
0.7205391961514138
0.3510948037239382
1.449458754915939
0.3215782854770103
0.3775468852574557
2.521090413410743
0.6211340295721749
0.309876226117027
2.622846359803605
2.284054353608419
2.021466391101361
-0.16075183058017
2.840427848558524
0.9606001111861484
0.4467539493928244
2.007612400680876
-2.763702750329926
-0.2320335788738792
-0.5517938911926857
-0.7323535569408194
-2.770201160041735
0.57565661676498
-3.446896014648963
1.756618484501905
-0.9605907575773095
-2.187486846170644
0.4220032408822415
0.3835690404581298
-0.9135552683771003
0.3741689983060146
0.3888888249031074
0.2641838157039321
0.3096195341642456
0.3752808096365113
0.3305071365289689
0.3827624858629015
-3.177426573575342
-0.4761185202918748
-3.832860048314844
0.01649891018048987
-2.774277449272604
-0.7760457172048482
-3.058164420478144
-2.19995893703789
-2.105183586436272
-2.812951616929643
0.3797486524231486
0.3745382445319361
-0.6557484891140429
0.3571067609697477
0.3114994358659975
0.260198604077011
0.2906835761680928
0.3917330776246963
0.3180179870527338
0.3553982046270007
-2.948347200461739
-2.524857492122773
0.4573342721585473
1.37359971799419
-1.557760724903297
0.1264857180572084
1.111408978026051
-2.446586101810146
1.555383785738683
-2.955070060720113
-3.235610587687362
1.251919088746046
1.080330347724012
-0.1967974498181531
-0.1479180093374263
1.127901623352686
0.5870941735478555
0.3361823508994355
1.165998199606125
0.9930363420063891
2.112431576730727
0.4612339675313473
0.3584355400042831
-0.3301273859192352
0.5138696133217574
0.3922148134606485
0.3048045128853628
0.3781950821929752
0.4124981550277126
0.3480619828325795
0.4567371548303126
1.12533513354077
-0.1917466886618719
-0.1245379234857337
0.1435802367896664
1.005850200408903
-0.32417946173396
2.046012557011044
1.92987872039903
1.196470229924317
1.175485554102359
0.4389092778322302
0.3477312995642298
-0.2137624316795804
0.3493777090040533
0.3391796845269333
0.326747856995758
0.367522352501367
0.525155363065858
0.3869411935917655
0.3666595946791874
1.356664580637847
0.7411228431927714
2.226827970629435
1.252849536909762
1.665008744707703
0.3520078894437134
1.344932183197616
1.827351853679088
2.47865665475402
0.9346398470912346
1.469381938649155
-17.43581989934568
-17.74411621750385
-0.6399892409346594
-1.194070032643374
-17.53243741131735
-18.96083501198298
-19.7082200674857
1.102590542257952
-17.89741087082728
-18.49582880072953
-0.01425787878164397
-0.1505199037917041
-20.77067335241773
-0.9554838617376769
-0.6776924778417865
0.2894305993282459
0.09480588017787224
-0.2064476994102843
0.2533608766008731
0.3347514317687698
-17.83271822621456
-2.21204203599729
-0.2437997299744367
-0.1828142183356379
-17.58027849104039
-1.463856778896166
-19.20515802888733
-17.26240123566041
-16.08751429291152
-17.62046923175223
0.373319805378715
-0.6243243360210853
-1.199657994042454
0.3302232164947697
0.1647237086531241
-18.77005713535375
0.1229695994854031
-1.394813144329618
0.1934804045212076
0.3335151767845994
0.9741830627891154
-19.9194229967613
-0.004962933569433458
-17.81045863920945
-18.09117020556335
0.002792574911136999
0.3328934322977062
-17.25994942389903
-16.88332012220436
-17.16636453541339
-18.69514249260922
2.51965643910085
0.3944345502927865
-0.2264648202424824
-0.385673479617395
2.423089256065422
1.211750904148192
0.1324824528611237
0.6453228363365214
2.451164075870515
2.514640492622404
0.7944123721989426
2.155013136923424
0.7697288873071186
1.797462353456738
0.8308143373744894
0.5295523540311418
0.328866970432311
0.4737389469747172
0.3358448474068262
0.3953422409827304
1.054246649255056
1.07039420473546
0.1213530881435851
0.0855306866648264
2.368177170804139
-0.4873962615810608
1.931895054834234
2.830754597507759
1.172867951734128
1.511040131243501
0.5588057291252384
0.168171367640684
-0.3778794459866591
0.3542720517445302
0.2914190910001247
2.158522316617669
0.3393923943394589
1.820332314038215
0.2970782776315538
0.3810521787199199
2.426974839022972
1.379309968348267
0.5684574032202336
1.356655385849864
2.445521971868293
0.648052245479161
0.5168887807841793
1.921568843944088
1.245597706488217
0.7060324381055221
2.268008025975581
1.578909844576182
0.445778203846828
0.3084870634909647
-0.2560847781764506
1.452678267881279
0.6771243267799473
-0.2622211764850557
0.9150102749026928
1.781745718040861
1.297175288668892
0.4063906934486841
0.4069839257743608
-0.1866054485084056
0.7257812700499066
0.5098023605517659
0.4199994594041431
0.3580118471389676
0.6821305026474148
0.3459464470790905
0.375357902660938
1.004833363860335
0.09182120538765258
-0.2271659560261798
0.1295387843278934
1.38967014708416
-0.4483463634152002
1.155929617166167
2.120120124970748
1.422488665860261
1.008191094700825
0.5136571170751412
0.6192571591196574
-0.4086703673624961
0.3617264655633941
0.294622794020645
0.8519846659726233
0.3439364687758502
0.8635406675929869
0.3536366044942487
0.3786959746284951
0.9272943750504047
0.2032626225113058
0.5225303165504845
0.7491931901242253
1.597307979511112
0.6389519292839048
0.4777166918458088
2.016998252363442
1.355493822898576
0.9749843277692565
1.581950910426759
1.156608445666012
2.902237461936728
-0.3758402713585726
0.02293444802267313
1.067423525255802
1.22956539522403
0.4666182595985152
0.8475581711042387
3.129984618122062
1.413002043682448
0.9116449036679517
1.37045593586065
0.05040111156520275
1.049469387904965
0.5838160318884075
0.3859612045115919
0.459307207812013
0.8594014701288554
0.3913994512241959
0.4769564449547483
0.4818912018404666
0.2976628625481194
-1.073620753573752
0.2271223025545269
0.968985921267371
-0.3032596175559598
1.30526191989236
1.77696703798048
1.144989646534125
0.9464159019559641
0.6425383934352576
1.008344870775394
-0.3107382504937041
0.3946493076752801
0.3622670864537644
0.4886619484119621
0.4716181826717283
1.017140524820142
0.4701827005415376
0.4161360439208183
1.156641037845689
0.6390745862674695
0.4969230346556712
3.151081120049857
2.905563690621725
0.6821417153225748
0.487278857922653
1.081120705550106
4.26881973460817
0.1944414396909135
1.329028923354425
1.165206039926368
0.4688677707501335
0.4828113330510894
0.4210687050736873
1.155126650344532
0.7061387180711076
0.7294951426274335
1.092364626392557
1.417322696767902
0.901299037508513
0.4948630635772587
0.5847297618984477
0.2040653182836851
0.6725180779783927
0.4553312981805913
0.3441316474014057
0.3526256643985215
0.5035973604080327
0.3128473176222411
0.4549188074956262
0.9629555150419923
0.8418434491820959
0.571865558883435
0.1260038307983082
1.088177837193896
0.1305789733614587
0.9601464014713922
1.637186122290643
0.9596987693830588
0.889585615500313
0.4610482185203582
0.5221989338174424
0.0941092931050195
0.3473720285829954
0.3110217821942933
0.5270232363050048
0.3354809049531576
0.6947973203176715
0.365835538199998
0.4008515127745452
0.8321242186929674
0.9178793485289548
1.063812718628278
0.7819185506412164
1.360248385180272
0.4037988543661811
0.7208871327842783
1.424008046171263
1.436448626691063
0.587225174499332
1.825296031486853
3.655366979117635
2.445552537838292
-1.983152553706416
-0.05967088659963037
3.650151513972649
2.692771488085966
3.639180547945581
0.6620319261209079
1.754913009154943
4.480513924103791
0.2460326664148685
2.507669449861476
-1.942947060220484
2.03854702456968
0.2613274261708311
1.2431835640555
-0.1291439522583837
-0.2232730073105862
3.252265189026493
5.174966887801304
-1.698680979633549
2.684380047311996
-2.387638471948394
-0.2871779890949498
-0.9607059043464979
-1.696429251933872
4.307337667023043
4.628112484366331
1.483420045571273
4.317850426465928
3.482838429193683
3.191371278494669
-1.471288673899541
0.2737742922514242
0.2107443875816983
1.985297349500732
-0.1833882404628678
5.083134242747275
0.5135151848570582
1.364937995185153
2.200647513919869
0.2779978392042482
-1.706150195799702
1.820560355996827
3.8706854458201
-0.5993885103640263
2.673642179046464
4.448880414066998
1.733748698770835
-1.357131891931995
2.30858783742192
2.84666431480477
2.183831830283807
1.382430132437241
-0.949997075616242
2.726938255446209
1.720422048826503
2.282844834931549
1.196999701479999
3.069008112188965
2.354232269819891
0.4727187693036852
0.4949615435042208
0.8920812735525474
2.414615078960753
1.103867632647677
0.2146826646007551
0.2608362614291078
1.007061516615233
0.2992483776935859
0.3627431099619134
0.983616276658183
1.274827870696724
-0.1560189091183162
0.04570165572186875
2.649654860762203
-0.7713732044747311
2.355086630207135
3.458158845134629
1.83579387427758
3.730211224454959
0.4294812688462202
0.2629066789426491
-0.5554936609387752
0.3564388923044122
0.2965883295961358
0.4613059792383405
0.3216140971395312
2.067985855940428
0.2655422505493943
0.3284382050941066
2.547760875407129
1.375706194650479
0.5655042484568596
0.8534432446203939
2.793305006043015
0.802216488960469
1.016742167331493
3.291888104616169
1.161160511046119
0.747588167745934
2.65825651132629
2.175542987424765
0.4521166045741353
-0.2372157531489988
1.285755842853369
2.027689079779615
0.4221513580713257
-2.718832189051109
1.229543108149799
5.914010297176642
1.528439164301868
-2.518008972775137
1.832469772920799
-2.09440876149805
1.56997579210566
0.6684071886123206
0.07348175215037335
0.3720539740222947
3.082317845941153
0.364193114307624
1.484429542393186
3.147664235648832
0.353421428716041
1.020252599160647
0.02653397662053778
1.932946777455234
-0.9853477057429209
0.38391346470771
2.82405689486523
2.513089113269631
5.641821545683751
2.086019588447562
0.1800340436275195
-0.8561493301730191
0.3553169878730458
0.3043635223160251
1.785309258662068
-0.2948293236873931
1.368845976424382
0.3188543595265019
0.3718636607514508
0.2687886995362744
1.125582790672822
0.3889924019786144
4.180819897520922
1.299089463806571
2.980227281032052
-2.159036061869805
2.717576673937733
3.594795036692622
0.8251805238695693
1.775028234529607
1.473414855081529
-0.22052630955623
-0.7688096716538437
0.2807091863699996
1.44927352283435
-0.110965968807121
1.430589051168163
0.5981078256366955
2.192541105902777
2.372508508471553
0.4478525846435737
0.3573873711534978
-0.5177981216701065
0.8286262736283397
1.012766632201978
-0.355199314562408
-0.3187552565176429
0.8287108436336134
0.07978724723344902
0.2675493442899351
0.6016929448666187
-0.5326659761118027
-1.104223559594564
-0.5821754142252058
1.732304903935894
-1.073433328219132
2.082157728124721
2.400860613936328
0.1336618002653177
1.798149032516412
0.4180371210021986
0.3001665151946417
-0.8260828406665791
0.2566817378458243
-0.005051390802382754
-0.5685553388917656
-0.294187531819758
0.8343915283577046
-0.07314401558248912
0.3014255165684424
1.251105267986698
0.3192065628546298
-0.6610781830169529
0.9278190567257314
1.401716324079952
-0.03506505221440839
1.116170783452357
2.188032938278333
1.072938726786257
1.154200855421058
0.8951415568797981
-4.680007375003123
-0.9439553364981158
-0.5383606610587938
-3.683919998335337
-4.778000310642883
0.2592688402984226
-7.224950617801929
1.151112030000503
-2.255948786328548
-4.017703207657647
0.2402775929844484
-3.238849551126987
-1.146094141783856
-1.868447394722041
0.250486534048258
-0.4122724711038813
0.05658573063791179
2.292448961322925
-0.9358295428857037
-3.155528505674904
-6.010087171551478
-4.745865952223115
0.5951717369643124
-0.01968593318945632
-1.166098786908572
-3.748730301599785
-3.2847812724987
-4.173328521341677
-3.190803496092627
-5.891360416765447
-3.299677127608435
-1.697418703535338
-0.7635004219761955
0.2949124619558955
0.2854286996266877
-0.540212603097092
0.2458333954032103
-3.255322695660691
-1.857858828621205
-4.204561553901568
-5.012408967928781
-2.196542847592841
-0.9952935317889573
-2.369255516527251
-5.793496296774339
-0.07484259669938333
-7.173842150041078
-4.185332519092762
-2.293642279964547
-3.942213272093732
-5.519900372857706
2.079301494550399
0.4487312552688008
-0.4743793780052245
0.794514620561363
1.998343994250206
1.125289264579674
-0.5460748022136886
1.027995056263189
2.519692902551037
1.851190245492073
0.449870482716928
0.1545289222514186
0.04945745607855963
1.538883749970317
1.524611581333079
0.3245023468657601
0.3296041608906636
1.79872484090781
0.298110138255639
0.3659843481152406
1.970154649019436
0.3919356200510031
-0.1539079165132065
0.1139018577776308
1.92526118535724
-0.7652028927585116
1.465125004106477
2.756175943146751
1.444199823593946
2.104633075902708
0.4130450968748715
0.9604317928908072
-0.6876884071602681
0.3454441214697692
0.2717956054387045
1.524097438084955
0.3034628874650005
1.293229849152968
0.2693131345739519
0.3867112153580698
1.097971845342853
0.5319285772602894
0.4884013864620495
0.8933308576919119
2.035874802938135
0.4517968967649629
0.5482364181572028
2.637887805603416
1.186816452869446
0.6389981430696641
1.91571263877393
1.659728668104856
0.3787542707194754
0.3025048700076597
-0.4197403113490322
1.531072941770081
0.752861018214389
-0.1632159715538652
0.935272784751635
2.023829000042931
1.553540732985548
0.4557784862879177
0.4736061003503592
-0.1063668318011279
1.030592722674008
0.6138645032802598
0.4508416012524645
0.3980580771447498
0.6354587701754429
0.3651515738651099
0.3729974037894033
0.8688671095043887
0.1644846771082596
-0.2949477356217929
0.1231224676088731
1.498565869454884
-0.4998675592812585
1.264255289764489
2.32691034565551
1.309731588747527
0.8681310263236178
0.5309142914997248
0.9340125104430085
-0.500301192788122
0.3820291175957558
0.3547807657074183
0.770228325460926
0.4220163107301172
1.004655207885986
0.3620586711479611
0.3805246120072818
0.881524550328968
0.3872109567107689
0.5070639190627152
0.9073428805109118
1.746817244176205
0.6422260927851048
0.3822360532473856
2.179231753702424
1.444815719177396
1.040449838745013
1.59307672288063
-2.142075249424745
0.0138302067118564
0.02328080816511847
-0.2131939985097604
-2.234296968809284
-0.3781644718476277
-2.236628273502315
1.636879108633705
-0.3582654262130491
-0.9540080380559454
0.3008956258305124
0.1589929879751609
-0.1912267564056858
0.1233128178575451
0.361076818025958
0.1495344239987693
0.2611999423458131
0.1605762605279626
0.4058255461584147
0.28812479017773
-1.975939638559347
-0.3374998259561297
-2.115378147669658
0.2487177352157289
-2.094611346306603
-0.1382591748337542
-0.829990391849025
-1.685506521663028
0.5701159210702741
-2.094817517912039
0.4121321255488137
0.3235248782250616
-0.06448163153102088
0.3705619224618228
0.3549349711022479
0.1652390167667395
0.2088575368357938
0.1874220538722524
0.3369795618038866
0.409913244362804
-1.915314465134497
-1.152786834810792
0.5304431845731203
-1.071599697448028
0.2070889451690229
0.2507545258331289
-0.09831211198848047
-1.807060678056396
-0.1046281159743612
-2.10514776113047
-1.893955949701127
2366.240853934608
2068.854337143663
324.8396610271997
-8.223988269386512
2400.984856114677
-4.152420612114394
2406.612136223731
681.1384528558725
1723.072336230261
1519.299265810476
1888.329178166021
1074.323682395685
60.8161939847959
1407.589368340044
43.69846704698406
1456.96790509464
-12.84363836648072
2010.962171495643
2152.809946199348
-9.482671606406821
2009.954363123545
-140.9395075184214
-321.2602705566575
-38.04479146950199
-23.88055912032176
66.86329713214575
-27.74773966074686
-30.16635667303163
-81.5807104827874
815.6531173285611
-687.124636081595
-785.8384669312644
-112.7154318689762
3.713813069630876
817.1091012414392
-63.90162340667895
1116.332946772695
-23.50957439504931
-22.65513920848376
691.3550004781729
-26.0859781276002
207.3009729053496
-37.25149635105215
-35.01226383269123
-38.27474569551045
-32.70404078643217
-37.9586256987461
-36.28319610831944
-36.83650029633319
-38.70545724514396
-33.07091867047202
-36.34367270888248
-36.06905081278467
-38.06409844648865
-29.82469995408771
-34.78701222844407
-37.43430941840528
-26.94874786578292
-30.30418083550183
-34.54265275493582
-35.65892884472683
-37.03667911132607
-43.75230848110218
-135.0474295068348
-145.5483748837864
-95.50683896028998
-24.44452482332009
-146.2129048421679
-26.11957903171311
-145.1920330810354
-53.84973519019092
-149.1335378030442
-136.8913093375333
-159.022694417277
-136.6451265852133
-14.70375054399027
-159.1296354773587
-153.5583640428158
-151.7284966780124
-22.53060892238045
-136.5439031965275
-159.5481174873259
-26.81415117843064
-178.1937056005408
3094.872694426772
4505.476435512306
1369.149814029236
-12.59307984407368
4513.369677500606
-13.14072061217417
4087.424162425012
1165.837168155805
2349.96701156514
4937.121441844945
5010.442462388439
3668.216357831906
44.68728304417676
2327.80553348275
2368.799926148818
2377.657207341076
-14.46299094540173
3480.592298361248
2699.493871055052
-14.16075414637592
4071.6651417211
-185.4425766509238
-287.3282566467491
-162.3212661089549
-27.27682276093438
-271.8748011657992
-28.15647262673151
-285.0320999648233
-93.40025816739508
-344.2013930735693
-243.4286594076841
-248.7530502365418
-309.7139605085578
-43.53887521095393
-343.5395576525351
-339.7362184307227
-331.8893621608357
-25.11861540481462
-316.726499596401
-363.516766246452
-28.89764568776331
-380.7565581835169
-447.4564762454783
-63.96565943786909
-184.5712901558408
-23.67476360893966
-166.6170967039093
-22.18106751646565
-237.4775473805498
-254.6903527914958
-291.8284082829807
3.581248974514063
-44.80775488869248
-196.4661128614516
14.38933031691502
-354.3966223954656
-255.1787257798183
-268.9664644144095
-16.77621108052513
-200.5660341173884
-362.0830829295512
-23.09591031805461
-242.1646972297324
642.4532987141984
1683.916046934823
597.693746939978
-14.4434663168972
1538.948798734697
-17.17194300377324
1722.957281865487
243.0672732492474
1707.953756565428
1709.63306226169
1780.56346058125
1804.384001582503
41.69179229567505
1916.754981932901
2123.732686128573
1891.33801376278
-14.83974133859933
1420.454287060947
1655.884795092743
-16.62843993053922
2014.967824222635
-199.2275090323342
1408.591394916902
487.2464670687858
-20.43444557736732
1449.412710601039
-22.68417094860656
1870.432468968681
-102.9255275581809
3697.024695137757
655.0738597319254
698.0374998692745
2201.343191465754
24.7006437489496
4167.438805521709
3706.136435913375
3755.073535084072
-17.21355408326524
2528.134259864997
3593.758869834762
-25.55561297969078
2918.799768394056
-47.71873176844841
1053.315656506387
1004.188954822704
-17.42857469294915
1405.67531114472
-20.87564369655472
1365.123596640052
332.849275843703
2864.391992137394
968.0911950101706
613.9151320277285
1654.061110405745
59.79538882431598
3048.787852210083
2538.399795864778
3113.562899904865
-15.05931697819948
2341.527618539433
2820.576065051248
-17.17799581572508
2481.629045049672
86.15838366889675
17.27597243674426
-6.0278384184998
3.123459844321553
24.72204497044683
5.94496473455373
80.08455277111022
-21.44325812034648
155.2587493358896
-86.20644831258402
-62.76727297325545
-30.05610873784753
3.192666346315578
75.55385069270173
-72.02779421591033
85.28571716579337
6.256940091517895
98.72716239647437
128.1354552248543
9.081433269433871
45.28481725292256
272.8518089579759
664.3168037082726
-65.0869890285023
7.675546823290608
642.4286977963951
8.874948109750072
614.7845891301369
19.75431497138096
277.6477117545611
661.1224338885047
785.973905007673
556.9045134265898
18.06839139327409
359.1483501148564
491.6587826728531
155.2811435940418
8.790419615671823
487.9112625956629
392.5990857953761
10.59528713855024
572.6169033385913
-2.287759450772544
-4.13831608682819
-2.681499713844322
-1.588353025629004
-3.010660469475362
-1.809898664617602
-0.9867035083643607
-3.012931542901219
0.1869161062009647
-5.379570462750489
-4.530867623829139
-1.847179240514096
-2.210641117878094
1.639386676741532
1.857041160233057
0.4037254512573087
-1.800220281306639
-2.782792365163667
-1.394376250714591
-1.953340967819114
-1.824861352438082
-13.33656601095684
11.01078745774569
9.766936664368863
7.966671684184975
7.832072463196468
9.423126956635988
3.070082550858244
19.49470091630307
-16.26521404632942
28.30800351362443
19.21468646617844
6.693568503669331
7.266475369483673
-22.46604940127769
8.197597242254702
-23.29755723351937
9.266641748974793
-4.897053558841309
-21.0182990314278
11.16466782036426
5.211256957252613
12.37592490398714
6.026645474520453
-5.387827833343922
9.018460511837386
12.42599040422496
10.56293168445524
8.386712780418238
4.986321391691241
-4.998686350294554
9.088080208554123
8.235359945726776
-1.940134207330785
7.748514688018707
-8.89875123642336
-35.72052786162825
-1.557022606056289
10.12419596904191
1.179683276099152
0.4354767633952876
12.3425825452472
4.902158334778978
-33.12194711114925
332.5885668546712
253.9141868400989
9.667374055351967
87.05183483183986
11.93404446824667
171.9081408913466
121.6009460813812
-90.26871094024878
600.6316302704543
599.0961784726235
473.1128763608257
23.42584542827981
-208.0174734165793
498.2646337493489
-253.2613423566487
11.43461098202224
205.6922850190298
-255.5259328231563
14.21273750509303
156.1436708915763
-60.53159071977512
-35.21686075758328
-78.42091109224482
4.152225507757242
-60.98631578138533
7.590516692411225
-58.16101636652258
-71.09533683653352
-90.80622964510466
-22.13917664726473
-48.25837741233443
-60.20555627589276
-6.844626603310588
-117.4902698610376
-83.81077454995277
-97.14981314165597
6.781455149770493
-70.01711123849533
-93.95652892753432
10.29818786782369
-74.74421034375504
-160.264326691197
-271.3765451236103
-127.5918241524252
8.793193435666614
-291.4498609628251
10.4701498927504
-289.2802087191944
-12.6888595681271
-357.7039731595167
-236.2971181761696
-220.3741243714592
-251.9276356345343
0.1968639538987596
-400.667533612723
-366.5687162408177
-413.3159858467432
9.272990507314951
-347.8452058431985
-400.1876335032562
12.45161655401801
-388.1122859059374
13.59778672958488
207.8978534171769
10.28161133809192
9.641299087452554
212.3723905057032
11.83756789478142
169.460166990253
11.548043681373
55.49204626574532
328.0998774414554
328.447175009873
198.3741386076111
69.59092527762186
64.96530903468421
214.936011802659
58.88410248655686
11.30399552238571
84.60982201520589
68.17160747827045
13.67331436914841
171.8178301501175
13.57379899717861
195.8410684014299
10.2254565558884
9.556574717013012
166.9241088347313
11.51606530721968
157.6326146812648
11.57074036770086
43.64024767639329
222.9717951119406
244.8146797862828
181.6260257234686
17.58414289992982
14.3691316510038
221.5763031330451
-36.06406191856865
11.07302406637158
144.8971258110082
87.68638986759227
13.38589266953745
168.0270344376866
