-5.288352439517987
-5.096195894211653
-1.922956026467337
-1.753317946522782
-5.210544439300681
-7.099576262301813
-3.968652672188614
-3.165976270193515
-1.34074146551005
-1.095015265502447
-2.652958179041669
-2.409940489935481
-2.762844501949474
-1.225020567000369
-2.415220088850407
-1.82714081478708
-3.477417599134725
-4.653047679710959
-5.607177224017683
-6.029414976126504
-6.882393569325785
-5.048881707751185
-2.574809944411947
-3.675131580973647
-3.041393084691312
-6.013661588324023
-9.305266214559943
-8.235951035770579
-4.225092207363494
-1.718733364412338
0.1887140659681658
-0.4878613815326756
-4.550519509866473
-3.826461917912028
-4.060000023570666
-3.054770087441637
-2.37623983631812
-2.736526269819215
-3.601184430014581
-5.206666575815311
-4.179630807907465
-3.612232345949242
-3.209779235519113
-2.154021365445702
-1.090203381188629
-3.516277171795689
-3.39065549195497
-6.548053525560408
-8.130648088817136
-6.224061287317618
-1.809542283828481
0.5399236434485186
0.9787179164452802
1.700401758742074
2.329430904960929
2.060573469056875
1.058412315593015
1.205747999934737
1.582511204637193
1.858768268767925
1.657642901587559
1.038500423859699
0.6594614654069011
0.1516635196304909
0.6854481609927294
1.00664512812741
1.007120314991425
0.4352207710151637
-0.03511169152323969
0.1799422644255567
1.083793440317256
1.425190978877411
0.7977867615906692
0.1126895075731685
0.3387745571374521
1.343921823627583
2.209471105872868
2.456407427167026
1.311609514281053
1.334104130052645
1.566546048819315
1.856683127429012
2.026839722832693
1.859498331213552
1.285940598366419
1.072864978359372
1.222479203643416
1.417460885415759
1.271337288158132
0.7880237751978543
0.217902344677298
0.1600266216249444
0.793777218871237
1.087835361331754
0.8521049690962624
0.277720779625223
-0.02789047732818352
0.6987434579577758
1.696616494213457
1.834226437568182
1.233765271338163
-0.06506045802041313
5.37063760047845
4.527202745824619
2.482160313132646
0.8727654153401072
1.162290156976344
4.494117457818615
5.472920639020879
3.1604009344994
1.325261337603554
0.9030308813177655
0.417275430552322
5.048931501642268
5.280348115852553
2.297558686091275
3.259369490840663
2.059884769969401
2.711412802980315
4.253027168544035
4.191379633407182
3.156352035052285
4.465297254369065
5.05479401093884
2.932901133826743
3.724589097655314
4.141109295834736
4.138243084402789
3.585179540585729
4.925114886981435
5.077358663872229
2.747019899119238
1.399125592214875
0.3570269720370926
1.097139196859568
4.99339747197413
5.737419237726511
2.816276864231289
2.332646016352134
1.839892376284404
2.476276535226968
4.625563382042498
4.568465754857432
1.633145761502572
3.463870602112685
2.945500727058815
2.796561752751793
3.15927472532544
3.829850504344869
4.995635437277175
4.432507759624648
4.23924947806285
1.370628027943915
-0.8665279285386217
-0.7127468756486655
-0.1413332521667744
-0.200052485188406
-0.2512641118964981
-0.9941876464698124
-0.9970720747085623
-0.1387030345135343
-0.188101561407744
-0.1651429257657747
-0.2944389823510374
-0.8655058070357612
-0.8746172634787865
-0.2737819538889631
-0.0301438473212203
-0.02770895934623861
-0.4313361433535964
-0.8444513849320497
-0.719291239304251
-0.1344795055055857
-0.05889406680435698
-0.5027561468009575
-0.7758438131609628
-0.6850175447562065
-0.2244121258941365
-0.08640101703293933
-0.04371863074029307
-0.7429033183294316
-1.061663779673279
-0.1816132962043852
-0.08728923323316627
-0.2005361035975202
-0.3109399714972984
-0.9496207540109994
-0.8578388856149182
-0.1636694166674559
-0.04335511806588645
-0.02981099820481916
-0.4670108787976873
-0.8690817137651345
-0.7491431769376106
-0.196618694882406
-0.08486459097626198
-0.1122028271519933
-0.689764247471206
-0.7324339303834603
-0.1867616837309263
-0.1650116150361679
-0.005623375916755049
-0.2490346858063354
-0.3822056053560491
14618.01114280051
12672.34063821755
3534.967894966258
7069.120445124952
10291.07887010539
16174.75848271537
12283.13197231462
13793.9226251701
5698.648591062156
3223.820072416251
825.8085390447426
5432.941472249282
16329.75847583385
10181.77533712135
4484.173033891499
3954.859399552772
2880.034425042555
12189.0267142378
14664.69479475327
6867.813974613382
3985.717408142141
4826.401600789342
10119.20980879137
11193.4142172503
3627.736562081046
8749.898241909576
8003.089798837143
13669.29411734348
15474.80324134181
12003.7745675831
7660.54553379656
6944.700532230581
8313.626457700253
8296.97293472266
13169.79834151281
12548.09745508092
6959.299795325669
6600.966321948363
4343.327916216344
9526.827819670156
15364.88976197476
11520.30364292199
218.4911039734914
2320.179487214857
7581.654731656151
13886.17508888719
8905.149754940148
3923.896813913325
2460.796021685335
4982.648731570232
3984.934898453753
1.650151835025593
1.367271711967271
1.041385124907112
1.112549284287974
0.8147409577963506
1.130355213220589
1.444417983260556
1.144410499814427
0.9268609754467428
0.4400782456297905
0.8365568850568715
1.571085110073656
1.564789204467518
0.9324645530118477
0.8886555622970852
1.293099776658241
1.864334564576507
1.540411732109686
1.684132118170666
1.524137753652992
1.52607774938247
1.670715881481757
1.394453516728725
1.082745887499732
1.354135873971174
1.534939210689727
1.623932385840506
1.679236653833083
1.560857259166557
1.252278617545262
1.423783700213547
0.730149531978338
0.3843439203870609
1.259241757325159
1.395458181172689
0.9388159958754478
0.8451421136326153
0.8589835627495722
1.679132422918801
1.543672324884314
1.601809606343923
1.084642846392817
1.126644922845506
1.387450115930426
1.479403757965438
1.453955925426872
1.030798332591676
1.420606310007413
1.652877111373558
1.744769348745137
0.3238172472144702
-1.068467087209861
-0.9088378583823722
-0.01793628693082168
-0.4113248099959428
-1.006876870046313
-2.028537612369161
-2.088646629588114
-0.9396425872960986
-0.8197156250442438
-0.6234036983852081
-0.8628155330566831
-2.201161101981145
-2.349364122971592
-1.2771836769008
-0.6289731062157277
-0.4272496998603174
-1.109769919439679
-1.158679852078031
-1.097351344018946
-0.4340736620732296
-0.5983578276012576
-1.199088141776476
-1.227891582240586
-0.8744274145659071
-0.1246690336187347
-0.5862554025905005
-0.7321302418920931
-1.714160267002162
-1.466133623075789
-0.5580973573229762
-0.01807404318381225
-0.3874001227272426
-0.7670513726937419
-2.073424698880848
-2.22783460956622
-1.263339886773944
-0.6352737986705946
-0.6465849768586966
-1.683591794218278
-1.701729859223321
-1.825378875333604
-0.8610081604081213
-0.5908962082579317
-0.4678723981773535
-1.140305624618157
-1.026142038492236
-0.1498070793874004
-0.2036418237737445
-0.5981896049859305
-0.4978806587873441
-0.7545163399398621
2.819011006714626
2.803659089055447
2.143514140467647
2.114031644687769
2.193034555829281
1.852613941202273
1.403036406447871
1.268523074072888
2.501830502702869
2.769672745029711
1.976896100548086
1.418118259773343
0.3995007814080153
0.7091394086937191
1.907013690069815
2.158154175566569
1.777204240947972
1.036472121215549
1.57357118789272
1.843478055303336
2.48801805135303
3.023797991899309
2.423358718984722
2.931423165610001
2.918274261015096
3.249819277402634
2.735385043119907
1.913566107855247
1.889547299960877
1.344939949591284
2.037746914662265
2.885380615288523
2.204130770802495
1.477781472098849
1.141838850472553
1.137755204696838
2.316264270766111
2.454215549778496
1.820829194476266
0.8729176716663783
0.5535232048557222
1.398614145866419
1.863997661365276
2.110206058984374
2.432238193575869
2.239742770382332
2.277785896867936
2.358361123084948
2.978378098140541
2.310704272265122
0.3998629539362467
-0.3487872591837685
-0.2681518364426438
-0.1198669197829939
-0.1080329292776555
-0.07487145619567166
-0.2937565525028164
-0.2548029716855722
-0.1713233780537357
-0.1383578948854564
-0.0913710156164272
-0.04587333692438898
-0.4050840287786623
-0.458328924680309
-0.3225243434975085
-0.09930635399475508
-0.08004999554784223
-0.3130307599554903
-0.4593759956400605
-0.3808200299253506
-0.1835640776920621
-0.01768455172469214
-0.1548802715722629
-0.312919055119689
-0.2387425287712365
-0.09953291437670202
-0.07898077660536522
-0.07712240373955552
-0.1984103408715603
-0.2821346997009084
-0.1303588801949831
-0.109679716356032
-0.1227387075182248
-0.0856658452366493
-0.2181317277017535
-0.3077801872688379
-0.2343033891756196
-0.1258484421635119
-0.1331095031550564
-0.3410636512844382
-0.4728517268320195
-0.4541969610362488
-0.3257516439251313
-0.1073650361940972
-0.07118077759088583
-0.2895035437131434
-0.3934718976063075
-0.1701110121833167
-0.1296745980140317
0.01054635115474164
-0.05937882140261606
-0.1823865024964921
-0.4707516809073848
-0.6427453693226994
0.05673324813293776
0.1242178755869141
-0.02859116337504007
-0.8016220637592593
-0.6697637050013483
-0.1453314629338515
0.02494672674205049
-0.1239127020616757
-0.3143344156356493
-0.9722123186953416
-0.8626412451799467
-0.08209710767906188
0.01187907520792733
-0.1018889954006342
-0.6125490042656622
-1.033976898059981
-0.5783556499885579
-0.1480974351288163
0.2057923836509269
-0.4364514610764871
-0.6862200226494517
-0.7671781096328066
-0.1099398166005017
0.1077826399414151
0.3416381134886352
-0.2635953281731004
-0.4607074835426235
-0.1024446831112227
-0.04041747526807365
0.03967199659244151
-0.2370307350757724
-0.8639955304506388
-0.6908960304723778
-0.07472413452987159
-0.0004809855118976896
-0.1727918869124554
-0.5206201863850899
-0.9416858730868589
-0.5883875915356946
-0.1421065283384117
0.04104147337709789
-0.1327328969525484
-0.7056101662208488
-1.006366279719036
-0.2413043951095243
0.1788928902550693
0.5373039666447895
0.2257316722394802
-0.3955656853677442
-0.9566085341141999
-1.030294551663063
-0.5759489724653358
-0.5167432582243817
-0.06523042116734565
-0.7053178618789463
-0.7858589240274237
-0.1986021788174387
-0.2007125343252285
-0.1943569090638468
0.08884748839902142
-0.6021576279665328
-0.6533505429503331
-0.0993971172807142
-0.0761180299929432
-0.09044413710162927
-0.5930480932916598
-0.9637888436703173
-1.069292080490033
-0.4086694418068573
-0.2700077068001026
-0.5645165699549363
-1.08233405171426
-1.170504715378335
-0.7399780294483549
-0.5826395329513663
-0.2326571511598378
-1.103691026568541
-1.139311876249138
-0.512367649191967
-0.4950647499778478
-0.2417091183759466
0.2027293642509413
-0.4089922496617187
-0.4962659995915961
-0.05048296370828878
-0.08307590113503874
-0.2192206347184782
-0.4998235017230754
-0.6625854205504803
-0.7291578269495976
-0.1898713483216484
-0.05291481585745525
0.04709284910981473
-0.9627870686012791
-1.128435185025588
-0.6523138450807343
-0.51447909247061
-0.2623737674212139
-0.3259671073093716
-0.5261099552850272
2.881696149464546
2.958006399531289
2.739743465246897
2.629224138564053
2.004023344596343
1.799452715700429
1.232787335547048
1.611355027802236
2.079324934972433
1.866770788685994
1.444664101248807
0.7235043516351035
1.543739574699923
2.345441982839229
2.298181339761743
2.333695115847291
1.685749983354437
2.960526392739231
4.107256710100194
3.627059671345408
2.131313698866822
2.320358566397895
2.009262547188461
1.934268625498772
2.567775513453702
3.975410799108001
2.286060701067195
1.64002675580438
1.225101042234082
2.057943683350132
2.334345644585192
1.312747129567301
2.228095524614711
1.920706541484929
1.721169340074585
1.545944281022657
2.434296440370075
3.071737655906704
2.336659606684219
1.881185333895694
2.845930124125049
3.727449228838149
1.995143667947482
1.725474842569365
1.824625227420319
2.910717101422919
2.651988487423306
2.915115233049251
2.157309129986771
1.518910465913754
0.6881204128964032
-0.9865906307200653
-0.8299048623174284
-0.1308351662895491
0.3771683527766884
0.06550471046048155
-1.077479494665667
-1.241108689327872
-0.6169038387481106
-0.294328841458601
-0.009911524213862967
-0.2310082854228028
-1.093866640997587
-1.140956381447957
-0.1785167308165215
0.2276631762524017
0.05173557687559349
-0.914962373937305
-1.265259411378548
-0.8957133062861971
-0.1163080518807762
0.1807303989226374
-0.8024716027633778
-1.187605644573373
-0.9785889628432233
-0.2259512631864665
0.1642422934580039
0.07837784788983407
-0.7824366939677487
-1.107965205901917
-0.5509630788948896
-0.3123955169902368
0.3138485456807174
0.1057044414153611
-0.9376312240342056
-1.205297807892577
-0.3678660676318962
-0.03189064050100957
0.04994812623670075
-0.8510400094303573
-1.25663844548286
-1.050643374787182
-0.1287287384011553
0.218710882725632
-0.1777840589442079
-1.20584962158904
-1.176477424390453
-0.2686840837100948
0.02381287835618299
0.07355361658057688
-0.2199068336850132
-0.5235171578425367
-4.58250128921978
-4.169254682626664
-0.3588668087584178
-0.1399738226907516
-1.776641203470885
-5.711831468220891
-5.429148206985049
-3.88803944583474
-2.141117431372529
-2.457912819480693
-3.430022651985554
-4.359660368647623
-6.189716963020189
-2.890848684436087
-1.862775752293424
-1.60035779370192
-1.343535038803815
-4.173450514704265
-3.391309625037971
-2.444471438855632
-2.738049949189507
-3.828353457247993
-3.101983874056381
-2.202106876283642
-0.9062846324672832
-1.521864906059191
-0.7544163756235767
-2.565740958190441
-3.314070791922355
-2.744972611951515
-1.525182414836603
-1.777618645042807
-4.769333038692523
-6.420473790575881
-6.588569239239419
-3.132596485459783
-1.607959237482295
-4.077726977013702
-4.953756586694215
-5.584849729272381
-5.171785643429621
-3.476651599767645
-1.565237513452797
-2.013142911671659
-2.747272601252134
-3.818349045634307
-1.003292408664157
-0.4168406935089593
-0.5118532094757199
-2.193446406897972
-1.763242029079472
-6.765406288031418
-7.541635163320705
-5.022091481924184
-5.211480871688296
-4.621209504822594
-3.349906037620691
-1.833260371684952
-1.691526357369278
-3.915676927546195
-3.608976288022571
-5.141211282346253
-5.489372850744359
-7.712339453353795
-5.132705971281305
-3.863409540421595
-6.25536365895662
-7.643396738686984
-8.560689823043699
-7.718295846421992
-7.167273792853482
-7.776965478335963
-8.437434347191411
-6.824977523442923
-5.501518468821387
-5.01935668034788
-5.780943270616068
-4.174194006360247
-4.647046513619626
-4.025478294223499
-4.694066469554388
-4.735917587094032
-4.477485594935579
-4.721903701771894
-4.291700034962872
-4.486921250259992
-2.444067516709351
-4.415852868230359
-7.368860948117105
-9.113139603343505
-8.776124298845172
-7.890035291432119
-6.812287944141508
-4.568346805447536
-6.612679248242364
-8.044373820371698
-7.214211602245539
-5.533136687365987
-6.113279581896377
-4.952305309119893
-5.250272668648929
-2.057492835954303
-2.049256765011612
-1.97716312625894
0.2346854417533573
0.4752376271201557
0.2736634738705315
-1.851548233776577
-2.594931591315073
-1.192267784984232
-0.2568603497085047
0.2781254833148004
-0.3572914973910944
-1.960671083049615
-1.671202796972033
0.1084983362357646
0.286386097148125
0.1942934558509303
-1.689595832983983
-2.083464675878896
-1.355520277893673
0.3890434029552638
0.3770420949478941
-0.7156877064057194
-2.068825130430711
-1.985513474058115
0.2540016465174476
0.5272434630596389
0.4819682437413127
-1.286101272451968
-2.754604434724465
-1.607259514004941
-0.006552229433522116
0.3122190738600839
0.02068478896282733
-1.873613752583912
-1.977389295775517
-0.02214786997159027
0.2872196949895821
0.2021284498146178
-1.304162825892125
-2.013125276590197
-1.504904251883637
0.2514560774654865
0.311309177229997
0.1721316133111746
-1.936020614931272
-2.077939498634665
-0.1230082350766181
0.4097570902257936
0.4183406128753157
-0.1016059097101882
-0.7428449765776856
-8.256550303645499
-8.504017045170958
-8.099751551555766
-6.852707152425801
-4.595770990783405
-5.056502852449735
-1.166319813131018
-2.605003192493933
-5.460044466544987
-4.153899663305159
-0.2841162712867942
-0.7345001846788074
-4.871445763083828
-3.611196700866343
-4.078661107470646
-2.080468593444389
-1.281330433678083
-4.676768165382075
-6.799890921553092
-8.516654307122854
-8.818933187950691
-7.444298143613916
-5.132297074648327
-4.801647773329901
-5.720033647019758
-9.613971926879039
-7.385462144088851
-6.958114172187841
-3.955790739827332
-6.356177155591163
-7.311610134602039
-4.879467341268919
-3.537599156370577
-3.170713592815776
-3.882984461562144
-3.609429480612361
-4.837368557777139
-5.755642372298387
-3.112279540842691
-3.4753279770979
-5.453404289076548
-6.827296798398154
-5.031856174093687
-2.47319243485234
-3.315502066376432
-7.982435372795281
-6.237946514087982
-7.050458568357635
-6.909916953084288
-6.074993079978327
-2.849241283037892
-1.196888482146947
-0.8361798859370662
-0.5949055166609724
-0.483312456010801
0.1084160843390006
-0.8563908623441076
-0.6859694420915357
-0.5254593841949589
-0.7048186356498916
-0.7477276250534316
-0.5241595405359558
-0.5088911613842053
-1.114966878192251
-0.2386009304335676
-0.0955215386066373
-0.4430840067820723
-1.00572978096761
-1.065369045476028
-1.104376862920638
-0.7386416006481299
-0.2363730438521246
-0.9249194360535535
-0.7737675160728775
-0.6657114727549632
-0.3752767612930739
-0.4966067543866168
0.2029244436607077
-0.4826287015101078
-0.775945218523886
-0.532110384002306
-0.7005336263839185
-0.6485706860552768
-0.436836085953431
-0.7250648217894174
-1.051649854651421
-0.2137984609318774
-0.345483232271956
-1.231644640100117
-1.390575342878205
-0.9098026731118314
-1.104017203633876
-0.7753918715776956
-0.0433540085085484
-0.4618228501927717
-0.6863093773204019
-1.06801176064917
-0.5032038517404406
-0.2234263783357641
0.2129500956670359
-0.4361377004915513
-0.5342407308013178
-1.826130069537281
-1.732317550955836
0.4983988752411637
0.6300613607385687
-0.04414372005397081
-1.781682523395799
-1.753672644701121
-0.3036901453518939
0.4906961632616146
0.497215610297834
-0.3564707636432607
-2.024621007520207
-1.560869624700738
0.06105341727865183
0.4006440699372456
0.2135349019437831
-1.339671131044415
-2.15475076495951
-1.267419975554809
0.25768033309882
0.4694161734559163
-0.6183855539776988
-1.793829221311934
-2.027421836835146
-0.1450833603840378
0.3905945453667335
0.1004997234424148
-1.431633185995962
-1.882274961445827
-0.6502920080753986
0.5849216049111864
0.6311466944721482
-0.316284540680197
-1.83760369516642
-1.305718313808278
0.02397922619576499
0.4347037332011991
0.2264112963285536
-1.161758006494219
-2.110275622569836
-1.415538224363277
0.03906328712418819
0.4484430192741856
0.2075074955973001
-1.630249471830605
-2.148303662722178
-0.3029620619743867
0.3379513330450853
0.5621985773632738
0.1371776875785541
-0.769756571200063
-0.823881173705535
-0.7626434574278046
-0.3998026226478543
-0.38834337368253
-0.1322686521511743
-0.5528761918138293
-0.6444459373724291
-0.1949050635567092
-0.2595022846146641
-0.1519057666299633
0.1111442503831991
-0.3673473581665823
-0.5815265255620199
-0.1885459885535067
-0.1839818984905353
-0.05872232856415573
-0.4077392986078286
-0.684875035393371
-0.7914321500579503
-0.2810602559448003
-0.1342455429213116
-0.4780685747494369
-0.9122772185680343
-0.9889855058562266
-0.673150041656973
-0.4329239526251663
-0.1630338055099932
-0.8947947181292393
-1.030257973700966
-0.3710492097043684
-0.3730062965915128
-0.2404820496439261
0.1389183870834683
-0.3114565269447109
-0.4772575869088052
-0.08095735334031422
-0.1383809732154436
-0.1599867607415449
-0.309444664392783
-0.4937391181367945
-0.5586257229135471
-0.2427523166416609
-0.1408029556817291
-0.03026365141124143
-0.7485120224196111
-0.9027714439461619
-0.5031035905569043
-0.3316560799694721
-0.1255770552395921
-0.3387995190567115
-0.3950831671432034
1.301488454303238
16641.34609350478
16222.82500134066
6.59915494578052
18489.66688147662
14080.9269989512
35.34934198311535
15349.84175128888
0.9425892989141276
1.958689504467296
2.029385838522693
3933.464327671954
2.609497571816489
9300.187088883993
3.208214544906825
27.38314817278227
14.58044255415284
1.127668871719467
7.0432958910056
1.951085184602035
18924.54823869806
1.151604202292411
32582.24533533454
33467.74832846421
6.10925454395734
35036.08300529631
29233.18377820745
28.5700064616791
33339.6036933889
0.9304266693068943
1.689946797205254
1.779187466756236
17407.01867355806
2.575399555419291
11710.46628759209
-1.719868955757071
21.8602777532433
13.96430313432965
0.9259935463518478
7.030648924642753
1.688661543989477
38519.16068765148
0.3409960159585446
-19084.4381690478
-20712.76666180795
0.6157095637550449
-19447.1541175928
-19849.56969926538
-5.986776878103474
-20803.87924900117
0.1923034965041428
0.3362862749446362
0.3210977709841045
-13574.37646038016
0.4880648672725706
-6109.440193232135
-1.042235255237062
-4.082757711129148
-0.3402761403760565
0.2337244754161859
0.9758840621465755
0.2957410772314749
-24198.87214360665
-0.08958810076792094
-19173.94470311847
-19611.54270898702
-1.990109769166984
-18851.1852298437
-18578.05289444688
-19.30410934356821
-19824.5131564236
-0.1121523299665083
-0.2139438923354928
-0.3560404050274333
-13297.62857030091
-0.6834289522837732
-5713.805314092585
-6.111287687516723
-14.20866915105831
-7.008529348899286
-0.1619184781994976
-2.332299755947599
-0.2378355200160953
-23229.35114372992
0.6108230427490774
-17388.86070762294
-16864.34744908772
1.600978395845745
-16836.78271253774
-16585.98163435273
-0.03580348568863407
-17104.47695667756
0.430432147098358
0.6714510348076317
0.7237500281159074
-11244.11780881724
1.206403844033243
-5549.191707145322
3.311471166061511
-1.018695249555358
1.964163221843595
0.4666192030676442
1.974336152422665
0.7978908084849545
-20259.65285208088
0.4323062433461593
41483.75695915331
50067.06353473065
6.123154296526096
48360.23107082279
46703.99001161844
32.04995347433194
53715.11294926959
0.5891186352342033
1.040056930040505
1.092379813258827
35839.83593202734
2.478224548964268
11851.16012356307
10.75115913686879
21.53834147947584
14.74094180596731
0.1932124081782458
6.688126080765334
1.090078353139992
59173.67844262573
0.2677600115428497
-34120.25677355408
-33851.24835372893
0.4971042755110658
-34788.26421247277
-32538.58199267332
0.3917795333366279
-33936.77172435432
-0.02879381551792316
0.06351070066838901
0.04354272135044965
-23104.77606527324
0.3209452066972409
-10237.78110333637
4.041920926106151
-0.887078726349942
2.618980703482365
-0.003862756554083196
0.7531304190741447
0.07191429867729894
-39730.31088516894
-0.7185681068222388
-15539.14605958422
-14618.57068350324
-5.063705841666043
-15639.66069680813
-14039.55228645599
-28.11751528767837
-13565.03077048274
-0.6285480429634638
-0.9344510507319965
-0.9782055949917824
-8900.945287560418
-1.700711505182554
-5413.606596755333
-7.204704394526355
-21.70735072837573
-9.377650598698684
-0.6791390359213092
-5.637070290589126
-1.049126102135581
-16723.43625720241
-1.251030001851612
-17271.45428201591
-17902.96998693228
-8.022078119832301
-19253.16106666943
-16859.30508913453
-42.80152003372379
-17470.13034382221
-1.135710612452702
-1.797090755175943
-1.825273455669473
-10867.09360190264
-3.329274158491989
-5987.131678317268
-12.35774656141064
-32.19612309885777
-17.37515359385936
-1.159542447254427
-9.378593728949705
-1.952350011845936
-20994.28549952684
-1.326023530155492
-9633.825888696965
-8965.461630882388
-9.179063692912871
-11149.3848637635
-8936.862085718201
-43.74474085436614
-8559.55498599282
-0.993145532201117
-1.658526427210441
-1.612204557045495
-5376.969404543031
-3.691650044789784
-3827.214545693442
-13.07373817301424
-32.21505730905906
-19.26075417130903
-1.030582099224803
-10.66840982419102
-1.746650177708353
-10912.52489031643
-0.7483436000763873
-1170.352572580966
-759.1597263268877
-3.469488981413694
-1369.372877124847
-1028.750610589444
-13.72722783730769
-499.4063636356438
-0.4857674137933968
-0.8901370743584439
-0.8761338734692322
290.5760163290404
-1.593748626125253
-710.5235353840221
-4.140577949051689
-9.503283196925231
-7.086087921344367
-0.5185720671111694
-4.105635132728988
-0.8529946999359871
-981.5830124631552
-0.1634850923325524
-4597.485358770071
-4501.517890480448
-0.9916841405533267
-5184.356780352668
-4049.610269310038
-3.942323769789778
-4681.450683456817
-0.1066997165339449
-0.2860025229198269
-0.2740837103975037
-2778.480790232709
-0.4107154055569046
-1334.411046082531
-0.1005954694438276
-2.307188546086664
-2.077332335083418
-0.1171793927169562
-0.9689368733139703
-0.2292234453821771
-5548.881018985729
0.1700547478615033
12859.17939104438
12716.19531802704
1.292748064567748
13715.25510394258
13349.06810936949
9.421622687053334
13425.59564619597
0.1005496526048807
0.1987389521609893
0.2719652998345456
11027.95502881954
0.6649190717511566
3342.569613940253
4.897327279461486
6.497723844813843
2.843534830271333
0.1913255354851666
1.859067872824778
0.2572015372605013
15834.39795025789
-0.0351614969962793
-1358.343928524477
-1785.627456050437
0.9345751124795216
-1504.282971647659
-1023.051636462605
8.550185932696831
-1770.886596646166
-0.01935802100167661
-0.05296783834907839
-0.03989461220630624
-667.0732713948157
0.165068033988706
212.2691357281496
3.330885389640054
5.872752430151935
2.282506866795323
-0.0181779728170921
1.32254311772293
-0.04987182808475264
-1917.514856839014
0.02272858414402068
-2911.999484422609
-3526.466913562935
1.106007145238121
-3556.773703278737
-3173.394794701302
6.769812144930171
-3614.542754788617
0.04630147541269464
-0.005970856583237576
-0.003202640961226134
-1730.74632211237
0.3141766914441751
-1174.512841583707
2.773581437540185
5.011738533018228
2.161971069573954
0.03618495440356524
1.320802446414697
0.02825192543594344
-4189.76841013466
-0.30310171565404
-3743.462091015326
-4303.839609387519
-0.8632364395607185
-4027.50419525899
-4003.126381282245
-6.267588823279983
-4191.979526369497
-0.1550804574135142
-0.3416665312494601
-0.3265035174411213
-1692.738994690541
-0.4571292194257709
-2302.930066284907
-2.389581372899262
-3.613347812345745
-2.643534483571628
-0.1654305792816422
-1.106399960589235
-0.3565760699221708
-4937.343370961958
-0.2573738788023249
-5087.30476342483
-5438.626755370083
-0.4242603111904589
-5202.058419345402
-5221.841074097742
-2.277854045989102
-5803.479436714201
-0.1805570717157138
-0.3655145371898853
-0.3346941253247097
-3642.02597518468
-0.407031848171173
-1675.082750243104
-1.911000462761433
-1.21221725918447
-1.544237829436712
-0.1692392901145622
-0.5828602203025615
-0.3173079612666566
-6414.451485344937
0.4846619711165616
21057.69139176004
21222.31843723134
1.774728345113348
21993.55009711946
20035.27424872324
8.844444469015404
19979.56364559071
0.322534360112386
0.5925745049546777
0.562557666177484
16100.55126746009
0.8843585899597097
4486.775436497027
-0.16379601836193
6.080021540239976
3.224643527197303
0.4602723214217344
1.751209789580155
0.6475745797104244
24962.82703025655
0.5424241901329137
19947.81454932141
20075.3125582071
2.223944968114297
21255.5838997057
19177.90951003564
10.77462409551158
19236.37429002276
0.3978901260798578
0.8520872075883799
0.8375691047781603
13411.02835332796
0.9992115147677709
5699.801745291388
0.9309705547313398
8.1344474417324
4.243250292098476
0.480919652860954
1.891375230990738
0.7667128535053286
23769.2691300968
0.275024734340642
2129.32372288876
769.1565010810431
1.562656519662759
2706.62855690219
441.7794129154672
7.525221052655761
-76.69371248368536
0.2765583926960176
0.4688438156381107
0.5216757261964501
-2198.486436304398
0.6818928576886575
2531.517116401909
-0.888332784642507
7.040296443616058
3.196260559593029
0.3264016236106956
1.557917516695386
0.4879519876943768
1296.19938707045
