-5.288352439517987
-5.096195894211653
-1.922956026467337
-1.753317946522782
-5.210544439300681
-7.099576262301813
-3.968652672188614
-3.165976270193515
-1.34074146551005
-1.095015265502447
-2.652958179041669
-2.409940489935481
-2.762844501949474
-1.225020567000369
-2.415220088850407
-1.82714081478708
-3.477417599134725
-4.653047679710959
-5.607177224017683
-6.029414976126504
-6.882393569325785
-5.048881707751185
-2.574809944411947
-3.675131580973647
-3.041393084691312
-6.013661588324023
-9.305266214559943
-8.235951035770579
-4.225092207363494
-1.718733364412338
0.1887140659681658
-0.4878613815326756
-4.550519509866473
-3.826461917912028
-4.060000023570666
-3.054770087441637
-2.37623983631812
-2.736526269819215
-3.601184430014581
-5.206666575815311
-4.179630807907465
-3.612232345949242
-3.209779235519113
-2.154021365445702
-1.090203381188629
-3.516277171795689
-3.39065549195497
-6.548053525560408
-8.130648088817136
-6.224061287317618
-1.809542283828481
0.5399237731993435
0.9787180094724218
1.700401760991136
2.329430904960056
2.060573469134037
1.058412390197314
1.205748108694216
1.582511250252131
1.858768274992263
1.657642931788984
1.038500437796679
0.6594615205242488
0.1516636300906571
0.6854481839825269
1.006645128678969
1.007120314995484
0.4352207973675317
-0.0351115641966515
0.1799423489636408
1.08379344177934
1.425191026445016
0.7977868114390247
0.11268957984201
0.3387746235568982
1.343921832533624
2.20947110594438
2.456407427164914
1.311609526628874
1.334104218553021
1.566546075554866
1.856683127798758
2.026839722836784
1.859498333140877
1.285940694047344
1.072865129214409
1.222479246680513
1.417460891795964
1.271337335855189
0.788023837392709
0.2179024657615796
0.1600267235698201
0.7937772746929528
1.087835361331754
0.8521049692156563
0.2777208304985053
-0.02789034987952814
0.6987434783071067
1.696616494400819
1.834226437568183
1.233765277621895
-0.065060410452806
5.37063760047845
4.527202745824619
2.482160313132646
0.8727654153401072
1.162290156976344
4.494117457818615
5.472920639020879
3.1604009344994
1.325261337603554
0.9030308813177655
0.417275430552322
5.048931501642268
5.280348115852553
2.297558686091275
3.259369490840663
2.059884769969401
2.711412802980315
4.253027168544035
4.191379633407182
3.156352035052285
4.465297254369065
5.05479401093884
2.932901133826743
3.724589097655314
4.141109295834736
4.138243084402789
3.585179540585729
4.925114886981435
5.077358663872229
2.747019899119238
1.399125592214875
0.3570269720370926
1.097139196859568
4.99339747197413
5.737419237726511
2.816276864231289
2.332646016352134
1.839892376284404
2.476276535226968
4.625563382042498
4.568465754857432
1.633145761502572
3.463870602112685
2.945500727058815
2.796561752751793
3.15927472532544
3.829850504344869
4.995635437277175
4.432507759624648
4.23924947806285
1.370628027943915
-0.8665378032878954
-0.7127594674678517
-0.1413439981848258
-0.200066903520521
-0.2512717651070321
-0.9941985634464938
-0.9970744237521859
-0.1387103507769419
-0.1881158198616529
-0.1651600345592024
-0.2944457291320985
-0.8655077684474597
-0.8746283735568667
-0.2737910029209742
-0.03016014441452848
-0.02771721326636216
-0.4313397877812722
-0.8444615957176835
-0.7193061075666911
-0.1344925598527793
-0.0589141238187659
-0.502767324895441
-0.7758455128669954
-0.685020903767362
-0.2244200907319837
-0.08641922627035137
-0.04372951114954718
-0.7429069770357427
-1.061665416123831
-0.1816188906102097
-0.0873030709345109
-0.2005510735284031
-0.3109497802834714
-0.9496325898585865
-0.8578500869412005
-0.163677518477044
-0.04337236780748698
-0.02983236268311335
-0.4670239834590017
-0.8690917146523515
-0.7491556198088062
-0.1966375080525162
-0.08487686765603247
-0.1122070640475429
-0.6897667630814104
-0.7324454872864096
-0.1867694585845226
-0.1650255648989915
-0.005634179389500539
-0.2490382109177326
-0.3822142259141723
0.3982649352449265
0.7444114485490799
1.372380725162143
1.178888772295079
0.6911290918549897
0.2166129392022877
0.3922335547778633
0.8392691887936239
1.044751448518592
1.225682629583037
0.8933829666270221
0.121261301822179
-0.3177989583589741
0.2647121444351557
0.5865116898996017
0.5801999982611289
0.3155198901501747
0.0863670585557299
0.3811527776649782
0.5623493593461395
0.7269466750254681
0.7578096432866901
0.3291222855146652
0.3550147503567734
0.7604182970784542
1.051875826349887
1.076357682362241
0.5348516528994851
0.5319718929534392
1.059431825442716
1.36304298228415
1.314443025334591
0.8489696915092929
0.100039588478825
0.09962994225359284
0.4315192927652132
0.6822672798649541
0.523863102240351
0.5218856012224659
0.1550747896908395
0.04820462099382399
0.3484316292789942
0.5660180570840443
0.5621170618466709
0.3784101185050373
0.2742042316319666
0.5947572612093707
0.743334019295529
1.054071911153684
0.8907965370413792
-0.07300407313782199
1.650151835025593
1.367271711967271
1.041385124907112
1.112549284287974
0.8147409577963506
1.130355213220589
1.444417983260556
1.144410499814427
0.9268609754467428
0.4400782456297905
0.8365568850568715
1.571085110073656
1.564789204467518
0.9324645530118477
0.8886555622970852
1.293099776658241
1.864334564576507
1.540411732109686
1.684132118170666
1.524137753652992
1.52607774938247
1.670715881481757
1.394453516728725
1.082745887499732
1.354135873971174
1.534939210689727
1.623932385840506
1.679236653833083
1.560857259166557
1.252278617545262
1.423783700213547
0.730149531978338
0.3843439203870609
1.259241757325159
1.395458181172689
0.9388159958754478
0.8451421136326153
0.8589835627495722
1.679132422918801
1.543672324884314
1.601809606343923
1.084642846392817
1.126644922845506
1.387450115930426
1.479403757965438
1.453955925426872
1.030798332591676
1.420606310007413
1.652877111373558
1.744769348745137
0.3238172472144702
-1.068467087209861
-0.9088378583823722
-0.01793628693082158
-0.4113248099959428
-1.006876870046313
-2.028537612369161
-2.088646629588114
-0.9396425872960986
-0.8197156250442438
-0.6234036983852081
-0.8628155330566831
-2.201161101981145
-2.349364122971592
-1.2771836769008
-0.6289731062157277
-0.4272496998603174
-1.109769919439679
-1.158679852078031
-1.097351344018946
-0.4340736620732296
-0.5983578276012576
-1.199088141776476
-1.227891582240586
-0.8744274145659071
-0.1246690336187346
-0.5862554025905005
-0.7321302418920931
-1.714160267002162
-1.466133623075789
-0.5580973573229762
-0.01807404318381216
-0.3874001227272426
-0.7670513726937419
-2.073424698880848
-2.22783460956622
-1.263339886773944
-0.6352737986705946
-0.6465849768586966
-1.683591794218278
-1.701729859223321
-1.825378875333604
-0.8610081604081213
-0.5908962082579317
-0.4678723981773535
-1.140305624618157
-1.026142038492236
-0.1498070793874004
-0.2036418237737445
-0.5981896049859305
-0.4978806587873441
-0.7545163399398621
2.819011006714626
2.803659089055447
2.143514140467647
2.114031644687769
2.193034555829281
1.852613941202273
1.403036406447871
1.268523074072888
2.501830502702869
2.769672745029711
1.976896100548086
1.418118259773343
0.3995007814080153
0.7091394086937191
1.907013690069815
2.158154175566569
1.777204240947972
1.036472121215549
1.57357118789272
1.843478055303336
2.48801805135303
3.023797991899309
2.423358718984722
2.931423165610001
2.918274261015096
3.249819277402634
2.735385043119907
1.913566107855247
1.889547299960877
1.344939949591284
2.037746914662265
2.885380615288523
2.204130770802495
1.477781472098849
1.141838850472553
1.137755204696838
2.316264270766111
2.454215549778496
1.820829194476266
0.8729176716663783
0.5535232048557222
1.398614145866419
1.863997661365276
2.110206058984374
2.432238193575869
2.239742770382332
2.277785896867936
2.358361123084948
2.978378098140541
2.310704272265122
0.3998629539362467
-0.3444659148915563
-0.2722214540212617
-0.1230080593068758
-0.120930669118655
-0.09379328975005612
-0.2973593419837497
-0.2495538006889978
-0.179853770988911
-0.1560585249204122
-0.1042487768806378
-0.04906326386447372
-0.3949503507197234
-0.4518116562506024
-0.3249634838533831
-0.1146292175477766
-0.07680483622134351
-0.3062780480275904
-0.462300007374974
-0.3798335293321171
-0.1811423186279801
-0.03309941457260752
-0.155740694286122
-0.3091726073788314
-0.2373315658158681
-0.09463499241758656
-0.09075171890358945
-0.09657692048773082
-0.2030304742446251
-0.2741754966471431
-0.1370251064065971
-0.1259813817030983
-0.1412036667051434
-0.1003833651844965
-0.2156268997823464
-0.2983864239054757
-0.2390736695920493
-0.1437741544081653
-0.1428190615672907
-0.3402631635412039
-0.4698906759431518
-0.452699278413805
-0.3267328569848108
-0.1180008502649601
-0.06813294529028668
-0.2843836099217433
-0.3974986530096484
-0.1650769435875194
-0.1320016098478415
-0.003541433232745686
-0.06057348341951014
-0.1847564599283923
-0.474560155400831
-0.6478750587604475
0.05195403456002188
0.1188470312629444
-0.03097421479919304
-0.8054173895784584
-0.6707649292495353
-0.1479665986082194
0.0189046784137293
-0.129413764591997
-0.3153842527008629
-0.9726833341698129
-0.8668560535275077
-0.08567092196054078
0.007319270684031282
-0.1035452312515526
-0.6130632174968078
-1.037065071498741
-0.582873332813
-0.1534239479256473
0.1990429213617881
-0.4402686944128408
-0.686488831104822
-0.7675963901317633
-0.1128214147889069
0.09992548683574562
0.3366790384906909
-0.2658593188469499
-0.4627018837077291
-0.1055682455850118
-0.04607903041024945
0.03465286346573577
-0.2391977139632542
-0.8675084812987671
-0.6948776311909239
-0.0776326560719498
-0.006138976035726725
-0.1792638796966714
-0.5245677467120042
-0.9450639640285551
-0.5930476367076627
-0.1489001894060689
0.03781763378662869
-0.1334079119398069
-0.7059356661350006
-1.009553333645775
-0.2431696818967027
0.1725511644845856
0.5329364773666524
0.2243569302577738
-0.3985209532428771
-0.9566091006786737
-1.030295136806284
-0.5759489860916917
-0.5167438998084364
-0.06523177556071465
-0.7053188343204269
-0.785859153963507
-0.1986024883986561
-0.2007131085367201
-0.1943583783543127
0.08884625878443261
-0.602157704322035
-0.653351212296116
-0.09939732438801173
-0.07611896513840745
-0.09044470281897747
-0.5930483306926213
-0.9637894271957229
-1.06929273786374
-0.4086701950009287
-0.2700090484279771
-0.5645173604209304
-1.082334041102272
-1.170504716143911
-0.7399781082573379
-0.5826402829228406
-0.2326578391212277
-1.103691163428059
-1.139311871339321
-0.512367671478039
-0.4950648433099915
-0.2417100164351484
0.202727329094727
-0.4089936588712169
-0.4962671383123479
-0.05048354130998186
-0.08307682212377575
-0.2192223865399089
-0.4998246104365143
-0.6625860092716086
-0.7291584153135855
-0.1898722720408775
-0.0529157761246278
0.04709253770895353
-0.9627870645742226
-1.128435768153378
-0.6523139503559988
-0.5144796797981682
-0.2623744247563602
-0.3259672339230074
-0.5261105345517842
-0.3734685929541096
-0.3435662963893231
-0.09299219358368968
-0.07444428728183616
-0.1130562540723827
-0.3642813065015828
-0.3337836623025993
-0.1155825182682589
-0.09115296400511873
-0.1517359857764936
-0.2264212880558351
-0.5197786308302988
-0.5137824173755091
-0.1945130302225991
0.02051108763767151
-0.1264057834853992
-0.3781614338938388
-0.414079205137578
-0.3137759972983001
-0.06034102226105034
0.07329566158641966
-0.1677735344813361
-0.3119743844554874
-0.2814516543948665
-0.129115238400541
-0.03120911726208079
-0.00447769951153333
-0.268255520248643
-0.3956406475770353
-0.0995963301125601
-0.02376311636951854
-0.1173488096346585
-0.06844925408607189
-0.215924014386027
-0.3549190901461231
-0.09791728178385417
-0.03221879789911822
-0.2055098459795719
-0.4839457102432489
-0.5113429537679661
-0.4397547618375685
-0.1697498660581225
0.02349845207315842
-0.09837269482984358
-0.3395303719015021
-0.273230666056053
-0.135810975809181
-0.000774744671180558
0.1102438511096469
-0.05422999136645258
-0.2124796394639249
-0.9866078225245916
-0.8299227251077712
-0.1308478944073585
0.3771201862014079
0.06548196082110333
-1.077498868359394
-1.24111051505044
-0.6169066412103624
-0.2943571784841098
-0.009966487185511758
-0.2310266632327085
-1.093868878282698
-1.140978837753925
-0.1785405594149592
0.2276223780023343
0.05171776001460222
-0.9149711095085585
-1.265277196019264
-0.8957323921941769
-0.1163489658634685
0.180680724692911
-0.8024924281856766
-1.187605833563
-0.9785894301224638
-0.225955043665665
0.1641934174491639
0.07835087830932314
-0.7824377942750779
-1.107966013930623
-0.5509648168319456
-0.3124125863291002
0.3137952028153079
0.1056714881243838
-0.9376518701301342
-1.205317304274135
-0.3678750340523509
-0.03192635581128114
0.04988964488460443
-0.8510733744975465
-1.256668657846876
-1.050674104794153
-0.1287789710023605
0.2186705867320616
-0.1777926735416889
-1.205850830051687
-1.176494655903982
-0.2686868620871896
0.02378308899497631
0.07352456891910585
-0.2199106114607982
-0.5235340964782164
0.5727715383347046
0.6070802418187456
0.8221457193906998
1.147425758802001
0.9702322402988732
0.366902340831686
-0.1307089778751022
0.1109081975849703
0.5166649418645461
0.6255312216974682
0.5419683142302896
0.2180941984525915
0.1221757072261934
0.5403704376125232
0.5314903232234354
0.2951610984129157
0.2537186535680551
0.09475760710619324
0.6279720111499644
0.7436345750376323
0.48519894581226
0.2691485806313024
0.2425033333991641
0.4239214696949035
0.7404282085275234
0.8963177164510606
0.9436015854312403
0.7266970065925262
0.4059941324977728
0.4390536204720085
0.7089973600716512
0.9533430847174434
0.7259829554280706
0.2645833765043276
0.02335311696579673
0.3617261960585714
0.7084679850894675
0.4844775690422247
0.3327417996946908
0.1332078404766927
0.4506194200057266
0.6769272192050083
0.4549385556061963
0.2532533992051284
0.1167081364657914
0.2941876804037793
0.6951564358881323
0.7192248947989002
0.7741203148983484
0.6500304000123587
-0.004157832035858383
-0.7212780777537219
-0.7405159491885148
0.189938684126628
0.7606722949547504
0.1947691121951056
-0.8667536558452197
-1.112623603300581
-0.4857697445845355
-0.09220593245912899
0.1418674954638712
-0.1206920463398987
-1.110637219029653
-1.168507534856411
-0.3477969954978118
-0.02775093169366211
0.1489913910494334
-0.5723631852060754
-1.010268452238826
-0.7392252308793262
0.1239114744863971
0.156601695615069
-0.3219804023553359
-0.8334073275787449
-0.9971492816678079
0.03151173610990769
0.4894816707320145
0.3166402011557274
-0.4755915594478371
-0.7075911610559603
-0.3185164345211934
0.122977665824933
0.3806076715891216
0.1415989757429999
-0.9074148417149713
-1.189700995387328
-0.3913356218303322
-0.1537692808151949
-0.007592895411550082
-0.5055720355392873
-1.173170446669808
-0.8571305481209559
0.06669952864519953
0.3974670392683382
0.1065001530271853
-0.9410591153373431
-1.009947096829447
-0.2134514883135792
0.1705161277718699
0.1908725899168077
0.01773460710475377
-0.4013598734181808
-2.04930539132533
-1.97721189953302
0.234651124395617
0.4750837633459404
0.2736035492374
-1.851597451752986
-2.594932247633484
-1.192269221018742
-0.2569455891912819
0.2779538320412315
-0.3573397246544527
-1.960675979425393
-1.671267347573257
0.1084225946848469
0.2862623184255137
0.1942422164139727
-1.689623682230213
-2.083515921741338
-1.355571959774885
0.388919564920692
0.3768910085422362
-0.7157472057337992
-2.068825135935272
-1.98551355879854
0.2539975961467502
0.527094098740891
0.4818848117585866
-1.286101294561142
-2.754604516123725
-1.607259952988516
-0.006601528061768334
0.3120479806964879
0.02059885672237793
-1.873662793611487
-1.977438177928082
-0.02216827806497931
0.2871134456795107
0.2019514854397976
-1.304263226043489
-2.013221445572912
-1.505000510085286
0.2513018298408842
0.3111848131205635
0.1721062822169585
-1.936024174984533
-2.077988131698977
-0.1230110296080483
0.4096696432409812
0.418249165412248
-0.1016164092557127
-0.7428935958239697
-0.8287576673599323
-0.6698247218874297
0.2584171752714006
0.3196285311417355
0.02143524682200557
-0.9073643993237409
-0.9688021496082723
-0.3330076052186696
-0.07176345105734735
0.004372246711966171
-0.3222449541897173
-0.8108655736755521
-0.8360762163982943
0.02954625111074217
0.07959512159336861
0.1221298141193542
-0.7393160196089735
-0.8418570198767545
-0.5802026283243777
0.2404892496381725
0.1912037976116644
-0.3850361208085933
-0.8061785583855785
-0.7325851654493883
0.2036008391998403
0.4010101585174985
0.2843437423132067
-0.4735975026324151
-0.8317455725350885
-0.2780268437846479
0.04664922423439278
0.1325529148343728
-0.1422145173541606
-0.7767986335686048
-1.001623121883447
-0.2551576900475246
-0.052303747541385
0.08952960186443785
-0.7395662668826098
-0.8611166663390909
-0.7660590543611376
0.04242091120896403
0.1294828606229328
-0.02161806213104078
-0.8292761035607576
-0.8096391405187068
0.02819677359117767
0.2734139772829215
0.2497383742046903
-0.003313317524699546
-0.401524119782604
-0.4170161579565159
-0.3024598544902249
-0.0121879404866986
0.05206170794569963
0.001534687977184118
-0.3146359361170135
-0.2970418072268131
-0.09485725515592935
-0.01982097698026532
-0.05151854339697119
-0.09496927199632585
-0.3545190337028905
-0.3845261061354234
-0.1377937897598649
-0.03936180454269995
-0.11029752645194
-0.2497738152191227
-0.3696784735353548
-0.3299120037235619
-0.05898804728428798
0.0161671391199635
-0.1926320562713267
-0.3545752535932039
-0.3116440249465117
-0.05675508169262321
0.04408476704690087
0.04360361211436823
-0.2239183388096869
-0.3856718410557724
-0.1532254449251916
0.01424330219696645
-0.03884816967108107
-0.006745393411876854
-0.1951829621175017
-0.296840130978857
-0.08262850629320764
-0.01298143677569998
-0.1200531348294856
-0.2948987912253473
-0.3624100942795798
-0.3630075629459182
-0.1599862884590729
-0.02001371521530362
-0.1067787144381065
-0.2914698735345624
-0.363181805744457
-0.1384427183166645
0.007155809304500628
0.07834275392892717
-0.07394277383825332
-0.1673558689934541
-1.793280107196196
-1.686570796101387
0.6210918259901457
0.7273938273783809
0.02328618840537839
-1.74709478705574
-1.753412449260844
-0.2119136962825905
0.6215531270117906
0.5066623131915832
-0.3300344018956244
-1.969890061756132
-1.512486431306784
0.09821934376712767
0.4868969768122163
0.3018452613122385
-1.333283003291519
-2.102713898873129
-1.133859537509688
0.3900414219272014
0.5661397363832102
-0.5596059714612799
-1.79059213889507
-2.015921006036002
-0.01905647386520191
0.5285607122251279
0.1047275089176415
-1.424055181603669
-1.882505460798166
-0.6133330865994668
0.7028750408962541
0.7151141868318515
-0.1970350731334268
-1.792654627826239
-1.269544218553081
0.1465888486567778
0.5208422437475575
0.2575830927564757
-1.156884399931857
-2.061348775407826
-1.317965621964754
0.1246276648804315
0.5345574153202257
0.2541340810218484
-1.626712395862419
-2.096875218088455
-0.2143155648977592
0.4548828982649484
0.6203674520018174
0.135969550839302
-0.7384077795997044
-0.8239008627911604
-0.7626652342041469
-0.3998043042499775
-0.3883666496497486
-0.1323160779428725
-0.5529115296885007
-0.6444553601310861
-0.1949184339302635
-0.2595236843856206
-0.1519590425791682
0.1111006199418564
-0.3673511988265525
-0.5815508781868435
-0.1885549355678016
-0.1840167445358953
-0.05874293642782474
-0.4077482469029139
-0.6848967473883595
-0.791456708694826
-0.2810869106662055
-0.1342964375210913
-0.4780973979827524
-0.9122761173535083
-0.988985686854285
-0.6731528636854966
-0.4329522164868561
-0.1630605369694693
-0.8948005648611478
-1.030257513020431
-0.3710526412187644
-0.3730131933459098
-0.2405166613758254
0.1388465167363467
-0.3115066402694153
-0.4772973436687096
-0.0809784732339385
-0.1384151485635978
-0.1600496818885349
-0.3094848861917853
-0.4937612025067408
-0.5586481661312385
-0.2427861043070682
-0.1408382304158321
-0.03027613674824085
-0.7485118374576816
-0.9027931887354812
-0.5031078810907387
-0.3316775247668336
-0.125602763769515
-0.3388041451960008
-0.3951042181119663
1.301488454303238
5503.881406360469
5630.409380364265
6.599154694657427
4981.101490028883
5726.991937547262
35.34934198311535
5248.636170762406
0.9392018717968522
1.958278987317428
2.029385753236024
1.024785064293358
2.609495745371757
5267.574508038375
13.16156717357351
27.38314754948991
14.62252742037795
1.159201794641263
7.043679501010241
1.951081661816172
6339.140581043011
1.151604202292411
5405.680050253889
5525.019728553185
6.109254236270934
5054.423711283805
5745.067295385916
28.5700064616791
5485.169324380787
0.931423600049551
1.689500772683321
1.779187360057953
0.9968006952299351
2.575397593971213
5122.24397436306
11.71494360026481
21.86027712578922
14.01895452549743
1.039063884973787
7.031069947343047
1.688657725879014
6307.494883160184
0.3409960159585446
-2377.885696322481
-2290.056540280403
0.6157096187242855
-2079.460905792781
-2498.227277366195
-5.986776878103474
-2135.865103946007
0.1924938878289074
0.3363185121689523
0.3210977719189362
0.1914432326281892
0.488064831700295
-2354.360924093115
-0.2458342113381436
-4.082757732014361
-0.3365626299898404
0.2131746321159524
0.975016955785866
0.2957410859632673
-2656.857924076148
-0.08958810076792094
-2763.022535552067
-2429.629323956756
-1.990109739339684
-2256.670834703502
-2825.480532416971
-19.30410934356821
-2323.992236145357
-0.1112560619999934
-0.2139507293130118
-0.3560404047405168
-0.04650440377659855
-0.6834290027566169
-2685.314873703708
-6.06922359293153
-14.20866915666823
-7.00943615755514
-0.1655279276557149
-2.332881816921569
-0.2378355113661959
-2953.494419703892
0.6108230427490774
-2920.298155000138
-2680.282491596474
1.600978427292631
-2395.479180510515
-2994.22459228771
-0.03580348568863407
-2488.599051207461
0.4314720800726986
0.6714530720033997
0.7237500315870274
0.4280542158754688
1.206403842293484
-2862.047654383137
1.571272020824309
-1.018695247146137
1.959730990542661
0.4692635730161878
1.973978541166763
0.7978909314738379
-3144.13471189957
0.4323062433461593
612.3888648804135
2063.465382377274
6.123153711842306
1618.26621110783
1404.677608899586
32.04995347433194
2665.46424253558
0.6007612862784532
1.039115020110018
1.092379697347265
0.5592021575468671
2.478223589490986
990.9169073980305
12.82192842769948
21.5383413523252
14.75144919989113
0.5504050302836085
6.690002188100717
1.090075092241958
1734.586725666775
0.2677600115428497
-4682.628429112752
-4230.186288453672
0.4971043121601326
-4066.612627132543
-4612.479406672114
0.3917795333366279
-4158.897127748212
-0.02820288820661196
0.06351343541265173
0.04354272712960922
0.007367283342841551
0.3209452690404858
-4496.703749720521
2.104088733027635
-0.8870787050187501
2.605012982139522
-0.001470510758029123
0.7529861314259451
0.0719145597973605
-4986.504959134655
-0.7185681068222388
-3436.360003331084
-3173.752838588387
-5.06370585848572
-2889.186351015656
-3623.111868602546
-28.11751528767837
-2930.854999565895
-0.6275231600883291
-0.934606819163063
-0.9782055934096554
-0.641360593683131
-1.700711489840646
-3268.462500444932
-8.810308041079745
-21.70735071351585
-9.391037665172551
-0.668677127442888
-5.637519799539382
-1.049125953245226
-3763.629608586365
-1.251030001851612
-3376.338836857911
-3307.190966652507
-8.022078039685024
-3070.53955695829
-3666.289486102834
-42.80152003372379
-3165.876842329633
-1.134136646730471
-1.796940179772768
-1.825273444619037
-1.178236086162396
-3.329273693145558
-3152.000663693574
-15.68785235348759
-32.19612292705985
-17.39637984408481
-1.168042875521113
-9.379394647490914
-1.952349538409083
-3837.882136452843
-1.326023530155492
-2346.126851327096
-2282.741824509544
-9.17906363803416
-2063.501203932852
-2582.299469492732
-43.74474085436614
-2117.439100065061
-0.9913015326986079
-1.658450386355289
-1.612204542262597
-1.038471977405788
-3.691649575552972
-2246.278933879245
-16.49670534858472
-32.2150571377779
-19.28045210129761
-1.030449138675464
-10.66824530681324
-1.746649519627196
-2664.436077882351
-0.7483436000763873
-424.3295955048663
-468.2929967880678
-3.469488948712642
-450.0073188027732
-426.0076781019712
-13.72722783730769
-431.7394117819188
-0.485451614657941
-0.89007436661836
-0.8761338699750862
-0.5068888924245892
-1.593748497219271
-446.3672811657076
-6.187684727505252
-9.503283161360965
-7.089414633213265
-0.5336047482085071
-4.105773153808585
-0.8529944976628584
-504.3553182394041
-0.1634850923325524
-315.6491090719857
-425.139501362735
-0.9916840967081395
-392.380285251711
-327.705740578151
-3.942323769789778
-393.0467906264403
-0.1065464707994584
-0.2859497962419139
-0.2740837026899874
-0.09951198372859596
-0.4107148166447994
-353.3257087439529
-2.240807542642025
-2.307188330422636
-2.07843046117591
-0.1259098122544116
-0.9691381213583069
-0.2292230831518519
-415.9233675399048
0.1700547478615033
1771.512336608543
1493.186774353355
1.292748107583884
1253.614656510008
1952.945861971237
9.421622687053334
1432.473130393252
0.1012934879180706
0.1988218983159675
0.2719653455384905
0.1352955412055503
0.6649197093678378
1668.010762879363
2.485882010155619
6.497724016737903
2.840162248562184
0.1862157696056176
1.859814441777042
0.2572034383549017
1848.2557409376
-0.0351614969962793
531.524817379864
87.88645568831475
0.9345751596241242
208.5905412762656
576.4763337621551
8.550185932696831
151.9946205173793
-0.02036376612970658
-0.0528628938694573
-0.03989458793159813
-0.01918362238758088
0.1650682532042156
480.9325803879191
2.255642101731465
5.872752476707896
2.281050206186039
-0.04119169357712575
1.322743403690975
-0.04987103596073322
335.345128209503
0.02272858414402068
-110.2551750334751
-316.0943666664736
1.106007238409666
-220.4200937907234
-108.0249399362468
6.769812144930171
-323.0195009002575
0.04549390088622358
-0.005826163994002984
-0.003202597305378997
0.03026460125004836
0.3141770978450242
-80.14000842018466
2.222176814422353
5.011738634756064
2.161502589261384
0.0188512172346815
1.320902205025339
0.02825339336765231
-285.1860925173298
-0.30310171565404
-1038.213783288728
-1147.148563901532
-0.8632364105161439
-1039.237390209003
-1139.733767902604
-6.267588823279983
-1136.705015780816
-0.1553853675738886
-0.3416422464907943
-0.32650351061851
-0.185668311952362
-0.4571291831630027
-1041.819707622872
-2.735281449252914
-3.61334780860388
-2.643549342099162
-0.1693780378793984
-1.106680403000466
-0.3565758499757593
-1295.636298899037
-0.2573738788023249
-219.9239367681541
-458.0034450832432
-0.4242602586904294
-356.6529619266408
-245.3442752374244
-2.277854045989102
-530.6277727199317
-0.180479138243847
-0.3654521685579745
-0.3346941158531541
-0.1812963913549231
-0.4070318146573625
-263.1697825686616
-1.832698008091199
-1.212217261801987
-1.543630996758766
-0.2082940901922309
-0.5827586365357689
-0.3173076483045295
-450.2690281062696
0.4846619711165616
2384.961669478274
2128.901710407298
1.774728243423394
1635.524036067228
2632.308905172191
8.844444469015404
1659.483234428561
0.3197174122645254
0.5925530824066555
0.5625576304854012
0.3282314594083434
0.8843578950833355
2262.916287584596
3.390839979765703
6.080021285403058
3.233391814849304
0.4411340308277406
1.751699919431714
0.6475732017272343
2388.710128158819
0.5424241901329137
2981.795264702119
2745.93993486764
2.223944855840843
2323.519160940317
3253.594205526552
10.77462409551158
2446.646178678634
0.3953097725164679
0.8520123340076817
0.8375690782401146
0.3170186693451714
0.9992110733114776
2841.671533873254
5.495486511062529
8.134447291664566
4.250397855580514
0.4838309995602279
1.891763700730233
0.7667117043939594
3178.059625975197
0.275024734340642
2543.257046194272
2225.159544096683
1.562656485377139
1832.230054389037
2597.306409688244
7.525221052655761
1943.437114565925
0.2723933367792647
0.4688164811085926
0.5216757154769921
0.2152277351863642
0.6818920872722782
2344.559219301451
3.214157159861654
7.040296137854494
3.208291885851064
0.2872395101586466
1.558459130648054
0.4879512758306917
2617.353681348447
