-4.246562049682587
0.7346301246391193
-0.2387076779720379
-0.5228634132866209
-4.361784680896936
-5.365671712049743
-4.825820225145311
0.5344748728747046
-4.199692975292061
-4.061707817748919
0.4785569632113403
0.09667034931153576
-6.097784213019122
-5.104603089364498
0.5668826208661125
0.4530445869410952
0.3351106106704822
0.5698607563654111
0.3522118797391512
0.3665027355924524
1.164280842907382
-5.819848764625987
-0.01812332204076417
0.1083654889262127
-4.390806339399398
-0.5135491839962939
-0.02130177802194743
-3.915407739109162
0.9670389340356064
-4.132132350076827
0.5516604650328367
-4.836289525065053
-0.3852146314184712
0.362739286622431
0.2907608314792832
0.4155849298372654
0.3332868356512877
-5.000975312305329
0.3350604232749127
0.1362826153510046
-4.372004727707493
-5.365386025777119
0.6110508593196893
1.592476803009999
-4.37899465660761
0.6548498874021397
0.5105397170326448
-3.933809642145274
1.560131244781691
0.5671559306171621
-4.550478388494397
1.720668228823523
1.366868622107142
-0.06460361355500803
-0.3137271164792553
1.629547614316143
0.1220018314587487
2.056178081634176
0.9967461577790294
3.964035492375781
2.359298674278134
0.4307280221014235
0.3994545773010806
-0.3414165809884526
0.3981007889553453
0.3950647435129722
0.367945011408627
0.3881986418335521
0.3867653179174033
0.3953051530402709
0.3871998818139636
1.688530261835566
-0.3483350590442451
-1.077202215495415
0.2551531133349695
1.592847908547593
-0.234313281096779
1.744969685228078
2.268562520981489
2.525485955077409
1.652901876698391
0.4043999546662763
0.3913241269267577
-0.1908120557263687
0.361330494502114
0.3558105228763047
0.3733270217215047
0.3723785263112329
0.4191847771907947
0.3351819804192976
0.3903230251085842
1.705895704276109
2.190104260720791
0.4566958517101464
4.155855589777822
3.825295071304128
0.2677000174118159
0.5830989992925755
2.14259534122323
4.503001494972138
1.571455624237636
1.867005127948091
-7.677499611297234
0.7048028290085364
-0.2321161463227254
-0.4218972239464485
-7.805988819014085
-8.793276064044971
-0.1652797798896929
0.7330423175589569
-7.49893975244874
-7.720264923303543
0.5317651736584789
-6.95153162567634
-1.315979915310797
-0.1040715674392779
0.3032890297753643
0.4180167129619317
0.4250583043102312
0.6904595607602771
0.3778602088881465
0.3878239550748318
0.9021868319850233
-8.888930287944618
0.4158346044204923
0.2137489289119768
-7.823931788422103
-0.3360072774157132
-7.966211338108313
-7.080568707061015
-6.572768686790166
-6.661343013206515
0.8123362005415284
-0.1257404047756442
-0.2945328772002471
0.3894366788950578
0.3582131488304214
0.6212862036595562
0.3772402575037129
-8.30479470775188
0.3619521643022668
0.3676287673531636
-7.603508644225363
-8.957276921059879
0.7224708412516304
-7.433382111118236
-7.693756489067095
0.7490724367918303
0.3023609047912909
-7.180730774968862
-6.44833212096894
0.8680564788881416
-7.563796932801734
-0.3377035004784489
0.959836349313697
0.1889648224331217
0.2846565476271389
-1.890780560311588
1.087570837094144
-1.03064180762296
2.351324170363716
1.55015189337448
1.388852309156915
0.1165601261003488
1.270783789436491
0.189753372551909
1.08321272667231
0.16411432429142
-0.1191707354383003
-0.1308788069950747
0.4404227728585258
2.218829739076182
2.11504946310595
-1.793727880914029
1.808427563884488
-1.317968396000229
0.2063387793355168
-1.864713599420076
0.3394724087545289
2.057793561382368
0.2735285476286661
0.6873332540365378
-0.5618117689808834
0.4705154252263651
1.76083653534157
0.1619434784907191
0.331947434158309
0.2451373605336109
0.6384868700730608
0.0886884683353301
1.950077450846407
1.703654686874269
1.359186121357968
-0.8597312297229414
-0.207460783503004
2.342317079358483
-0.6091636605217046
2.615979387626529
0.2107215491388122
1.053721142618887
0.181172144121394
0.09922405970546461
-1.527080474599229
0.3797366170128167
2.458023117618137
0.1654469061270528
-0.8479740786197359
-0.420608723071343
2.336587394677935
1.23016362716116
-1.431938381011859
0.5737470005828191
2.15306473794295
1.903996719361025
0.1672710887150757
1.546895195376983
0.1968603586436367
1.210489266649679
1.702869171319189
0.4837225860816477
0.368831018748432
1.163668457101376
0.361658253208591
0.4095199085004274
1.264742081953117
0.5661479026236848
0.2821328108177261
0.1016185406064363
2.260287753598486
-0.6933313328034351
-0.3643958769521092
2.763411460740469
1.68389673409611
2.218233477972806
0.6086712406574903
0.6084376879356576
-0.5874515397058853
0.3961681680073993
0.310710042763283
0.7205356203923837
0.3510939198864145
1.449358840058806
0.3215010490942921
0.3775544853143295
2.52103856464958
0.6210528504407666
0.3098714755171409
2.622842645163169
2.283977803103296
2.021469845076395
-0.1608489643690801
2.840327964412428
0.9606094225501638
0.4467344473888378
2.007512488534391
-2.765239013837836
-0.2320624643011986
-0.5517850394020533
-0.7321987057608375
-2.770353027009782
0.5740879045675121
-3.446893091242014
1.755432959530772
-0.9620671060745092
-2.189028339227074
0.4220032384161604
0.3820031505741968
-0.9135566290037862
0.3728271072472379
0.3888871351459161
0.2639493156299924
0.3096294848658075
0.3753960195845834
0.3289740437248439
0.3812306739565188
-3.177428078007245
-0.4776501729982787
-3.832850389377612
0.01649889547929847
-2.774277654739337
-0.7760630055896919
-3.05800620666069
-2.201490772445514
-2.105033441834708
-2.812731451064289
0.3797760068525365
0.3729260383497779
-0.6557485013773657
0.3571032145724405
0.3112969354061853
0.2588710827874253
0.2907082996851247
0.3902013069281048
0.3165310112474126
0.3556071899073098
-2.94899800745989
-2.525001745696346
0.4573345287118009
1.37367299833891
-1.559182766019463
0.1266050259902064
1.111414367767589
-2.448117830752884
1.554516433708233
-2.955074167080038
-3.237142313311469
1.286748321992635
1.079726838852526
-0.1961759629177514
-0.1209498185610852
1.143709691389106
0.6071691152280346
0.3379992009813895
1.16531285827787
0.9994648325797052
2.147223797108694
0.4612408262322226
0.3702423795296717
-0.3346544527402497
0.5485724973600933
0.393329332643187
0.3032893915729702
0.3760859889355079
0.4083914656529266
0.3828212530466417
0.4919210450262368
1.126077571466559
-0.1569455222858186
-0.1051752453687296
0.1435666329427366
1.007172313689113
-0.3260832838131036
2.057441099460906
1.964801533640339
1.197404629088358
1.190079320180219
0.4450147516351059
0.335884658683246
-0.2137855234597025
0.3493418849198918
0.3393119824015235
0.3162854944106003
0.3676573169043708
0.5599717933012636
0.4185825486837506
0.3721126671068688
1.393730491174142
0.7749644619558338
2.226834646370753
1.253629703143894
1.675927772556525
0.3600472739451684
1.34377080100694
1.862168096678492
2.479642278001533
0.9344873213567855
1.50419852034268
-17.43581989934568
-17.74411621750385
-0.6399892409346594
-1.194070032643374
-17.53243741131735
-18.96083501198298
-19.7082200674857
1.102590542257952
-17.89741087082728
-18.49582880072953
-0.01425787878164397
-0.1505199037917041
-20.77067335241773
-0.9554838617376769
-0.6776924778417865
0.2894305993282459
0.09480588017787224
-0.2064476994102843
0.2533608766008731
0.3347514317687698
-17.83271822621456
-2.21204203599729
-0.2437997299744367
-0.1828142183356379
-17.58027849104039
-1.463856778896166
-19.20515802888733
-17.26240123566041
-16.08751429291152
-17.62046923175223
0.373319805378715
-0.6243243360210853
-1.199657994042454
0.3302232164947697
0.1647237086531241
-18.77005713535375
0.1229695994854031
-1.394813144329618
0.1934804045212076
0.3335151767845994
0.9741830627891154
-19.9194229967613
-0.004962933569433458
-17.81045863920945
-18.09117020556335
0.002792574911136999
0.3328934322977062
-17.25994942389903
-16.88332012220436
-17.16636453541339
-18.69514249260922
2.519656693461808
0.3944345749478189
-0.2264648670648102
-0.3856738671357809
2.423089380530827
1.211751503700114
0.1324820217518373
0.6453228358922373
2.451164065298112
2.514640752260885
0.79441238688544
2.155013219698796
0.7697288280433081
1.797462777534442
0.8308143470281133
0.5295523011362934
0.3288669164844684
0.4737388719086478
0.335845100404674
0.395342510768079
1.054246643614166
1.07039445721556
0.121353926724491
0.08553068665928799
2.368177192846927
-0.4873962902063791
1.931894624847755
2.830754855873535
1.172867965912687
1.511039883846965
0.5588055962284771
0.1681716261990641
-0.377879480801053
0.3542720527388283
0.291419095552798
2.158522285051172
0.3393923616019445
1.820332567925978
0.2970785750382704
0.3810522910970098
2.426975122822518
1.379310427895095
0.5684573894492612
1.356654973157046
2.44552208074404
0.6480521223268269
0.5168887379969987
1.921569097704637
1.245597825626154
0.706032380073046
2.268008279796331
1.584451097173779
0.4398030259117143
0.307229571332821
-0.2290126292966336
1.457866188505311
0.6796305724922886
-0.2811540986997078
0.9156249657755247
1.785451200534222
1.303325014002477
0.4063424863254184
0.4264981491489523
-0.1925309811026809
0.7366664804763242
0.5115873510640848
0.4196657077347407
0.355981345623172
0.6780022583888033
0.3514147454695379
0.3812770734077295
1.005434584625027
0.09737035191432472
-0.2312541328636045
0.129540668959247
1.391528811406313
-0.450066954497181
1.154817312851756
2.125840032199517
1.422779999447886
1.000571307619715
0.5149534322596414
0.5946232306938293
-0.408745117057835
0.3614193087371158
0.2948043329648026
0.8581777070475816
0.343774428130578
0.8690604528267002
0.3712660381665
0.386634271051729
0.9338498087964602
0.2064657222663125
0.5224994056267036
0.738546079948972
1.598197417142771
0.6547005739702203
0.4576297489822067
2.022521704628312
1.356228296834568
0.9742522443284422
1.587471730721989
1.192594923517017
2.902107015036674
-0.375226432064892
0.04775282859435763
1.095520871931261
1.260808594828545
0.4645065256258359
0.8482990305812725
3.130027984199153
1.448985879811452
0.9116354584600678
1.377636514678507
0.04907068203341049
1.087439736834652
0.5849845556747072
0.3857346343540451
0.4607022967065829
0.8641034246703257
0.4273630129198078
0.5130863045443026
0.4821154146999623
0.3336465804507308
-1.050800889318804
0.2271161769868865
0.9694216248939868
-0.3035819922833004
1.315885950145405
1.812985019005002
1.144673154157859
0.9601000173547256
0.6427434533222092
1.001093647708669
-0.3107480068386341
0.3945893130732435
0.3622838914107418
0.492406164978767
0.4718534676420535
1.053122051578171
0.5070799571611697
0.4187362564900508
1.193357747198982
0.6702898181159633
0.4969062100097101
3.15122492804038
2.906919741454018
0.690914893370449
0.4830623266527533
1.11710253875642
4.268823529223969
0.1941368650674018
1.365010452097027
1.183588023587909
0.4621617202501257
0.4829920270756692
0.43602803359288
1.179397619200714
0.71957153725873
0.722619921677128
1.093018990607572
1.429465145169548
0.9196610581225504
0.495088059130568
0.6095541133074018
0.2027380922682107
0.6986539644499943
0.4561868119623785
0.344093386303351
0.353276634297043
0.4967608156370106
0.3310841292187958
0.4741649027402458
0.96268912201159
0.8602105210220612
0.5702464828789333
0.1260008960442696
1.09026537267833
0.129545984704993
0.9629993607038755
1.655598996994835
0.9647010809210042
0.8838180045592812
0.4555960537618989
0.5144405998132595
0.09395817195788383
0.3472630889947727
0.3106287275463369
0.5385245116300642
0.3354107716020481
0.713155221318706
0.3886387108583516
0.4082900117423255
0.8506272010450545
0.9365473626036334
1.063836286339218
0.7718692443697409
1.37263587567922
0.414752973139081
0.7122494174066648
1.442365922745604
1.443396470250675
0.5851385744556216
1.843653589775929
3.655366979117635
2.445552537838292
-1.983152553706416
-0.05967088659963037
3.650151513972649
2.692771488085966
3.639180547945581
0.6620319261209079
1.754913009154943
4.480513924103791
0.2460326664148685
2.507669449861476
-1.942947060220484
2.03854702456968
0.2613274261708311
1.2431835640555
-0.1291439522583837
-0.2232730073105862
3.252265189026493
5.174966887801304
-1.698680979633549
2.684380047311996
-2.387638471948394
-0.2871779890949498
-0.9607059043464979
-1.696429251933872
4.307337667023043
4.628112484366331
1.483420045571273
4.317850426465928
3.482838429193683
3.191371278494669
-1.471288673899541
0.2737742922514242
0.2107443875816983
1.985297349500732
-0.1833882404628678
5.083134242747275
0.5135151848570582
1.364937995185153
2.200647513919869
0.2779978392042482
-1.706150195799702
1.820560355996827
3.8706854458201
-0.5993885103640263
2.673642179046464
4.448880414066998
1.733748698770835
-1.357131891931995
2.30858783742192
2.846664327044746
2.183831830426925
1.382430132483506
-0.9499970845447822
2.72693825733189
1.720422064193905
2.282844833588702
1.196999701854658
3.069008113108557
2.354232282129431
0.4727187693081725
0.494961547316677
0.892081273115035
2.414615093700185
1.10386763100597
0.2146826629264692
0.2608362592141719
1.007061516125437
0.2992483899455692
0.3627431222275996
0.9836162767720258
1.274827882933584
-0.1560188937307552
0.04570165571898065
2.649654860890903
-0.7713732045656412
2.355086628771536
3.458158857392475
1.835793874224831
3.730211223048806
0.429481271032451
0.2629066891437171
-0.5554936609477991
0.3564388923182797
0.2965883293472577
0.4613059746541835
0.3216140971082595
2.067985868178591
0.2655422630437534
0.3284382036524875
2.5477608873692
1.375706205139753
0.5655042484560434
0.853443241447893
2.793305009082091
0.8022164851147182
1.016742167288529
3.291888116854779
1.161160510491474
0.7475881675105135
2.658256523564896
2.176086272188301
0.4521572299594847
-0.2345265758162507
1.285693306646764
2.027301003261436
0.4218729082826204
-2.71825964622198
1.229442556851378
5.913986459269823
1.529124692018406
-2.518007562427919
1.832269692226927
-2.094265009825456
1.570434640199259
0.6683289121151733
0.0734733248683693
0.3720388297104583
3.082242030402129
0.3647326086376337
1.484988744434253
3.147664080941405
0.3539612961487758
1.020170741375515
0.02653397286989475
1.934572232325992
-0.9853490134902034
0.3846493592185443
2.824606259959613
2.513077713623663
5.641838503791364
2.085894392078564
0.1782730589955289
-0.8561162215506237
0.3549524746620776
0.3034285658437294
1.785309164952311
-0.2948381153885933
1.369385524640219
0.3192577454821885
0.3726075598303173
0.2686228354466007
1.126393301358037
0.3889579775056817
4.180816461097267
1.301281143654063
2.980220823663057
-2.158049378050715
2.718116225210908
3.594772139111319
0.8250862353720081
1.775567782736993
1.566189263093551
-0.2153814765712155
-0.7737774847604237
0.2730482577654328
1.440254089997052
-0.01274189969100832
1.431897423951256
0.5999940632512168
2.207997245337837
2.46458142792215
0.4478598511940532
0.372544924523336
-0.5201556321090497
0.9270423798594789
1.012752085007817
-0.3742454711180013
-0.3518409189558291
0.8497183674372717
0.1715077992076852
0.3605488562342541
0.6022268522896264
-0.4399180956459637
-1.002097516699892
-0.5822282181572314
1.732893584498795
-1.076185978183138
2.08393212125962
2.493748886521399
0.1343665960993026
1.810224044421642
0.4199549332653413
0.322433588947237
-0.8261918243850342
0.2565949695042456
-0.006109826144703238
-0.6248838361308297
-0.2968993712933916
0.9271495273683884
0.007995677958170631
0.299906843771389
1.347725323015292
0.4433037427689411
-0.6613297513624669
0.9254811454818637
1.424898030081108
-0.02763196330804323
1.115913044882335
2.280793574320143
1.088186065009254
1.153373233412612
0.9879019710195578
-4.680007375003123
-0.9439553364981158
-0.5383606610587938
-3.683919998335337
-4.778000310642883
0.2592688402984226
-7.224950617801929
1.151112030000503
-2.255948786328548
-4.017703207657647
0.2402775929844484
-3.238849551126987
-1.146094141783856
-1.868447394722041
0.250486534048258
-0.4122724711038813
0.05658573063791179
2.292448961322925
-0.9358295428857037
-3.155528505674904
-6.010087171551478
-4.745865952223115
0.5951717369643124
-0.01968593318945632
-1.166098786908572
-3.748730301599785
-3.2847812724987
-4.173328521341677
-3.190803496092627
-5.891360416765447
-3.299677127608435
-1.697418703535338
-0.7635004219761955
0.2949124619558955
0.2854286996266877
-0.540212603097092
0.2458333954032103
-3.255322695660691
-1.857858828621205
-4.204561553901568
-5.012408967928781
-2.196542847592841
-0.9952935317889573
-2.369255516527251
-5.793496296774339
-0.07484259669938333
-7.173842150041078
-4.185332519092762
-2.293642279964547
-3.942213272093732
-5.519900372857706
2.079422225752271
0.4487282849959864
-0.4743968092183383
0.7945162893479214
1.998391998333494
1.125409692588212
-0.5460880735838295
1.027994753879758
2.519700886112965
1.851311212418087
0.4498726213211526
0.1546088822949564
0.0494454554704432
1.53902276317482
1.524611178906267
0.3244971938327511
0.3295964575867525
1.798756478501996
0.2982305711711732
0.3661059557845891
1.970154433111916
0.3920561730000155
-0.1538267085374541
0.1139018593690392
1.925257966179229
-0.7652091814348403
1.465089309257868
2.756298478830336
1.444201519952342
2.104603734586862
0.4130470232490164
0.9604602206663022
-0.6876909594905912
0.3454442021285651
0.2717912636961475
1.524095547491995
0.3034608315440832
1.293350559265592
0.2694273094616826
0.3867229660471402
1.098101369368221
0.532047411900207
0.4884016494106329
0.8932953154249843
2.035922778647833
0.4518103357304711
0.5482170886612588
2.638008508932518
1.18682059580452
0.6389885759971095
1.915833348135157
1.66832094926975
0.3785826698404072
0.3024869250505956
-0.4190078302325106
1.534588401587394
0.7634212380279285
-0.1668799027614654
0.9353117282980871
2.024745242231212
1.561984948177628
0.4559010964504508
0.4786222393838389
-0.1073521520123157
1.041624939518715
0.6141877590238858
0.450444681682769
0.3973170493250249
0.6391101058131285
0.3736581302819199
0.3817618472791922
0.8688270090284403
0.1730685001245952
-0.2844481806765021
0.1231260397814285
1.498955943322581
-0.5006695113418865
1.260303367348591
2.335588955693192
1.309752173458092
0.868605082359445
0.5295237758386652
0.9353573400600029
-0.5003905375070821
0.3819986085807541
0.3547894711670559
0.769988659261321
0.421872004599801
1.013245469143307
0.3743042163909434
0.3809820375661119
0.8904072641621315
0.3983194508889679
0.5070700447112437
0.9027569982604809
1.750123706761182
0.6463103944962864
0.3812032834919375
2.18782124195672
1.445488810838606
1.0397402959825
1.601666860803647
-2.264360196537285
-0.004439987907914484
0.02737687487130289
-0.3248781754326181
-2.419405005289842
-0.3972179248059279
-2.929963867226067
1.630799764565742
-0.5644320334771532
-1.075633222508313
0.3008722460932209
-0.05870133903944811
-0.1917669570512421
0.1302034839821028
0.3609023499030699
0.2351728833933237
0.6038560237788319
0.5519157683358501
0.2868598295480093
0.1664162391430136
-1.94416738562042
-0.4591002572160471
-2.121961897781455
0.2487280173341024
-2.094485640291921
-0.1340820693148629
-0.6846370029433884
-1.807954666775375
0.4125307631288395
-1.988307752925597
0.3566776340327941
0.7786446773296882
-0.06449155934245518
0.373574936513632
0.4184186682322569
0.1000855594206048
0.1780459372304468
0.065884911570692
0.3729298861064276
1.010652026573006
-2.304251866806612
-1.500827325811873
0.5308657303143444
-1.296645759101368
0.08053603446963629
0.2527918854270939
-0.100627514288021
-1.928607446606982
-0.3559986120647273
-2.115424947941996
-2.015497635571925
2366.240853934608
2281.428128574672
324.8396610271997
115.988446737711
2806.537119915658
-4.152464656287918
2844.666619865113
681.1384528558725
2083.61256365707
1658.315423223554
2131.615855465702
1325.933612626339
344.6999219452982
1805.792250981681
269.6469787979129
1673.97999418439
-12.84363836648072
2406.201639460499
2594.975354589492
-9.498386105622339
2422.671286026771
-140.9395075184214
-341.4476233130111
-38.04479146950199
43.11750906808061
321.57360811002
-27.7477792399276
171.6367099488567
-81.5807104827874
1186.855193684107
-631.2694292545959
-742.8693971747446
-151.1202064338001
42.72036427317062
1020.766830009779
-218.0302137354466
1763.699421433717
-23.50957439504931
78.88037300197723
918.24388835926
-26.07813285397097
323.5253232561631
-37.25149635105215
-33.27621408891655
-38.27474569551045
-30.58522501689058
-37.9713248791598
-36.28319588904181
-35.41730726732786
-38.70545724514396
-31.77423462089355
-34.51198453230956
-32.95480649556539
-35.88535636884778
-28.37298916388307
-30.45264588830129
-36.36026684599352
-23.79642840921738
-30.30418083550183
-31.83429146724583
-33.78834911036977
-37.03663513134381
-41.27858673545677
-135.0474295068348
-133.0866735842282
-95.50683896028998
-23.66511422366356
-134.9506337374743
-26.11957849563677
-129.6512194614175
-53.84973519019092
-129.7654582132914
-116.0795510584705
-144.6968673664923
-110.588905182943
1.266467793654434
-145.3979206889769
-127.9954380762182
-145.8578032587708
-22.53060892238045
-124.2419703659858
-143.5325304008091
-26.81444809047165
-158.4125935520293
3094.872694426772
4620.35338502861
1369.149814029236
10.75121281160748
4666.645394537832
-13.14074518136664
4296.779646955254
1165.837168155805
2574.428731651891
5142.761903226277
5198.473045974945
3916.650224473336
172.772311278008
2491.337005854737
2554.518453196973
2730.888146380149
-14.46299094540173
3598.008125784774
2873.535697605234
-14.13996590591203
4246.515559229631
-185.4425766509238
-375.7443232318099
-162.3212661089549
-52.38950019027946
-399.9505888391756
-28.1564700939213
-419.2449474001175
-93.40025816739508
-467.719026837134
-338.5809832668321
-359.9393461230648
-421.3800375569413
-152.305040234026
-423.1979499193055
-437.5163518202664
-453.6576239514254
-25.11861540481462
-443.154136226913
-460.959412565929
-28.89766773731479
-511.7177429539848
-447.4564762454783
-35.03810702347202
-184.5712901558408
-31.80433631075509
-216.576985609127
-22.18106756823308
-235.8626913819185
-254.6903527914958
-329.4233770517906
-7.352613588606442
-50.17435494969682
-198.3178721482346
-5.886136835329832
-384.6613294671394
-311.9289625635369
-340.8123020229025
-16.77621108052513
-214.6240062990892
-401.6191828007251
-23.08820993103473
-293.9523509319889
642.4532987141984
1808.376718585194
597.693746939978
8.490795159675454
1538.853606185035
-17.17183196405473
1802.138951689801
243.0672732492474
1720.607824812726
2025.835275385743
2041.239664230549
1937.10695910262
72.17098383164722
1992.042702298565
2475.387293790045
1947.77352130071
-14.83974133859933
1401.073759168558
1554.234569557167
-16.68007355926613
2141.109275292667
-199.2275090323342
1766.617583702331
487.2464670687858
84.60769588663794
1904.33950273524
-22.68413212901964
2347.452904479407
-102.9255275581809
4308.189352904832
782.5391331708623
1041.028027095735
2593.742810906052
463.0221305246475
4723.715380823583
3874.401952169433
4416.146909414326
-17.21355408326524
3061.868576999892
4284.883740308686
-25.56135995043089
3484.056921944369
-47.71873176844841
1617.370909311092
1004.188954822704
30.07463676089721
1950.614692373676
-20.87562026624207
2022.740270681497
332.849275843703
3688.352640994232
1315.768045999045
1095.861874369281
2181.646483667844
719.5684942953709
3883.411399450215
2668.806580338262
4005.496730572786
-15.05931697819948
3223.469847377845
3796.874791405466
-17.15151470490617
3142.675801503309
86.15838366889675
23.35880033391912
-6.0278384184998
2.506151840717319
46.00606089328279
5.944966931632173
71.06001378550775
-21.44325812034648
166.6516376279081
-116.3541231462589
-44.40139521960027
-47.17848356403746
20.88575838590143
94.73312308615893
-100.4426773571152
64.46020502285329
6.256940091517895
110.4392961302494
166.2766256414806
9.082042668851932
61.44381283123285
272.8518089579759
828.9201495701104
-65.0869890285023
21.40199754179053
779.4803084044704
8.874905604632254
714.4602007979779
19.75431497138096
353.4464480264831
777.2098980117274
907.3269751634017
662.1655922808017
153.8298011605668
436.6404836747397
664.4600582709128
212.9658627906869
8.790419615671823
591.4405936756696
496.5893033113018
10.58392617612681
725.0788327087377
-2.287759450772544
-3.572729364737114
-2.681499713844322
-1.372581942705667
-2.507300863551495
-1.809898664576691
-0.6660657745557418
-3.012931542901219
0.4836968242426704
-4.869604193901013
-4.319588399479589
-1.239808319282031
-1.688063537400812
2.066687763249605
2.276818513885393
0.4413988219730121
-1.800220281306639
-2.733190472055558
-0.9866531965257006
-1.953341199896945
-1.343750454585581
-13.33656601095684
12.68101625299935
9.766936664368863
8.482808452295853
5.987667830893227
9.423128058271464
0.02765627732972326
19.49470091630307
-17.92988309788547
29.58229021405966
19.5432776285757
8.539299249195015
6.906730579435549
-17.80429055610746
13.46690861872274
-24.45435932942165
9.266641748974793
-6.023770268160054
-22.1840368234425
11.16278792637056
8.247097056873313
12.37592490398714
5.023807953975329
-5.387827833343922
7.936655419777206
10.95622082230752
10.56293179584965
6.912751561925633
4.986321391691241
-5.489815133140808
8.058662977930956
6.805007710605101
-2.512544999499893
6.650189902177453
-9.720849000027618
-37.71072312643729
-2.721731989329945
10.12419596904191
0.5619801892326971
0.1294665121323702
12.34254460978791
3.742316641833939
-33.12194711114925
323.6638104891535
253.9141868400989
15.90749719743112
43.39431434965918
11.93410115584428
173.8200008816612
121.6009460813812
-127.7274166060579
625.4616630916275
646.4205073997625
520.7228605390335
-8.913390894436343
-274.5028405853329
576.9867937404546
-389.9620127528474
11.43461098202224
187.426640179145
-317.1272506656267
14.20722417798664
158.6454131789831
-60.53159071977512
-87.19470433300759
-78.42091109224482
-5.253773610310827
-99.14112385047704
7.590516925184731
-96.6020274572237
-71.09533683653352
-127.2021731222231
-70.36527850303574
-90.94345237114199
-84.22470041057174
-51.72808090570671
-163.5464632374349
-114.3711553496187
-137.0135275512628
6.781455149770493
-118.0362332999947
-148.1775986686365
10.29769493429407
-123.531564073079
-160.264326691197
-296.67188831494
-127.5918241524252
-0.4178847843591273
-340.1851551287867
10.47015218276734
-343.4572112930753
-12.6888595681271
-432.3952753487164
-236.3140089385882
-239.7810986913836
-277.58449917205
-22.0748970369308
-459.8609688580576
-356.2415208106356
-483.516916303285
9.272990507314951
-384.2059876078632
-453.0363741118917
12.45951658410517
-432.7344860597441
13.59778672958488
447.1738193396818
10.28161133809192
33.24386301290252
366.5092161148107
11.83756083505254
246.1241883495133
11.548043681373
52.56451711125369
696.5164945886174
538.6478935579403
393.7906676474775
250.7423459960783
125.3800224601273
657.4988027370192
42.40071961564084
11.30399552238571
150.9856552751886
32.98679518904886
13.66258696188304
364.0043716566854
13.57379899717861
305.5088209192994
10.2254565558884
29.85010088898319
219.6247185786857
11.5160624220173
228.5280607417694
11.57074036770086
37.69335190284605
318.8149291474282
337.8698885361017
271.8385024716379
117.5010534008566
53.05327887948644
397.9834914893453
-128.1532208543082
11.07302406637158
207.6879757579592
123.3202092912972
13.38804346113355
270.6834065724394
