1.118066959016416
0.666631615347673
-0.1107957275566519
-0.4462551935497024
1.002858290030275
0.2356144001464779
0.3374788117990206
0.5344721692439339
1.167383938232819
1.300958449138237
0.4100681821697477
0.5035272800203611
-0.6043910882286495
0.4242685580087598
0.4241757983919022
0.4090681925523435
0.3458460822019537
0.3970155575268254
0.3523758870719488
0.3679958854109096
1.044958192470827
-0.3902255956276822
0.1754932137669792
0.1083604610189959
0.9733316619653685
-0.5135519897893782
0.5119145137647034
1.44913213394439
0.847827386862645
0.800828839554506
0.4326310431987899
0.4356489492571829
-0.3852150723316154
0.3402281606932646
0.2908473354946739
0.3611567696747209
0.3536588791072035
0.4176713353366441
0.3352456300212136
0.3859122517912557
0.9724929322247428
0.1965268723305611
0.6110396952854196
1.358208404904585
0.9859528435829523
0.2899410016575825
0.611942715015579
1.447265811277223
1.462066846192598
0.5840113997987481
0.8141506401433198
1.71804204785299
1.366879153223454
-0.06464933627058232
-0.3203290445086652
1.628713753821709
0.1203264147512283
2.056338992288309
0.9963587724282715
3.964070620393687
2.356575980121295
0.4306400681223289
0.4018936839315824
-0.3407696821745269
0.3954003066019787
0.3945418811950471
0.3683062393043553
0.3882269523180704
0.3883337178779271
0.3949534497448889
0.3846289917204666
1.68849463417806
-0.3509599298589417
-1.077873935484877
0.2551543979274899
1.59198140891693
-0.2341491297406246
1.742366931092712
2.265921913298604
2.525482335489262
1.64919587923043
0.404222133609941
0.3973771108892604
-0.190811139526942
0.3613441374147193
0.3557524005302282
0.3726295284765708
0.3722247690383742
0.4165641431656072
0.3329421101414783
0.3895686257908459
1.703024254188667
2.185910367807149
0.4566961067311838
4.155714455871633
3.826322060439466
0.2635244258854316
0.5831683792833855
2.139974656873421
4.503013411227379
1.571457747652967
1.864384490632732
0.9615396844411198
0.6210384679403669
-0.1146461911926851
-0.3843399064078197
0.8330431280412591
0.1608733673120207
0.1694818595578778
0.7330325117760887
1.140031449867759
0.9186065812203463
0.394234705723535
0.3520029778604922
-0.4729965177910234
0.4118648675403235
0.386077998994915
0.4841676946787786
0.441083930261005
0.4023509261898448
0.3781247961331933
0.3894031126037
0.8712699865890995
-0.2116099720854523
0.2051696082434055
0.2137497992411799
0.814182494577693
-0.3360073162641884
0.6381138163704517
1.558470879750854
1.243065332994197
0.8380941229191261
0.4158239066111284
0.4136922599540347
-0.294533131421409
0.3791937544540765
0.3583375096314486
0.5644734943221904
0.4356034880688825
0.3721853121989808
0.3621977396975021
0.3775298358462027
0.8346500618906589
-0.0051527502353923
0.7226131393309129
0.7083869857183132
0.9453874797559186
0.396356783626248
0.4576164354686357
1.458683792345871
1.08678801398776
0.7104035853727731
1.075242581236238
-1.917224688735334
0.4709795534397682
0.1803418678072317
0.2205205578915517
-1.991248967737262
-0.4494106469285033
-1.259222365021618
0.9231884778717335
0.5579948679003247
-0.1914856878164014
0.3087808454913051
0.1841681450164863
0.1621099360315323
0.2392657610204227
0.3102947485451406
0.05325642147535464
0.1187369354899666
0.3790003794097245
0.3230616172136549
0.3683135592738524
-1.775574686859535
0.1489333147651535
-1.373931492364731
0.2069374568150393
-2.027228131182775
0.2081552124100435
0.2814465724772414
-1.303684656571416
0.3440427430445066
-1.715741182558401
0.4072208932464718
0.2627353502134922
0.1712222586379868
0.3244635163053815
0.243658755024921
-0.04100356488457842
0.09425426259920421
0.3427209926712674
0.2944692778565748
0.3343734644866216
-1.704786001470534
-0.5887231353814776
2.342509167307213
-0.8602691121490823
1.152972652531743
0.1755180238799053
0.5625808178635497
-1.400120173573964
-0.4841183443187606
-1.734205964347636
-1.200220734479988
1.316997708112389
0.3876992466341042
-0.2152984349548979
-0.5952440831640112
1.195485468464088
0.288114728440566
-0.2990973869585148
0.5737295594528725
1.012040245699155
0.7889908210001169
0.4285280258040071
0.4253324134012531
-0.841353506781319
0.3687674675749297
0.3863986834876529
0.4170408485637886
0.3592670644734046
0.4099594838289529
0.3617210412330479
0.4094931618872517
1.195436358711516
-0.5447199824080445
0.1393068876112901
0.1016148297514833
1.119779874974043
-0.69332430198779
0.2819031956903094
1.622382723339723
1.397358402074398
0.8912599369156328
0.4352112947221846
0.4464408379507012
-0.5874383038770108
0.3917435351074742
0.3106837911141371
0.535735744324218
0.3423895253350423
0.3679012216238796
0.3214396421694953
0.3769564325399962
1.130355417724032
-0.2501338863673523
0.3098837717856488
0.657812332703861
1.142934052953718
0.3526857066478888
0.3591701173184385
1.707952075093147
0.803203169207182
0.6571902043723051
0.8664870009334632
-2.763328493599849
-0.2320327881545638
-0.551795634811663
-0.7323662931337411
-2.76982690521685
0.5760269023316946
-3.44689543154457
1.757022863532492
-0.9601875199912208
-2.187112581612622
0.4220023470030613
0.3839734018470097
-0.9135548729184596
0.3745572142096698
0.3888895710043452
0.2643628012995695
0.3098735428271178
0.3752479971549093
0.3308887725662602
0.3831369897108906
-3.177427623959834
-0.4757441908709885
-3.832857514701801
0.01650147947116045
-2.774277999899479
-0.7760453927451034
-3.058178951186225
-2.199584747137908
-2.105188266716147
-2.812952909454596
0.3797516680724464
0.3749258102146634
-0.6557484889370345
0.3571067665967463
0.3115005368575003
0.2605945068958627
0.2906628772650591
0.3921073422906568
0.3183896361428486
0.3555712717064287
-2.948349861659155
-2.524852817101293
0.4573342715137686
1.373578469752308
-1.557355112236191
0.1264812147280745
1.111407069888211
-2.446211908640857
1.555776132830521
-2.955069576571364
-3.235236322095007
1.105565225311756
1.080852661375509
-0.193676192090564
-0.3336095199955
0.9815108130488782
0.5154463619701277
0.3517898715894381
1.162677395669108
0.997869388907719
1.969255559639581
0.422943809660901
0.3751851868628367
-0.3840651285586689
0.3571268828981184
0.3827794072721878
0.3132669219017165
0.3760582514627685
0.3625355254349398
0.3431729553873432
0.3605876640734577
1.122790443576735
-0.3377477913045011
-0.01520674939885827
0.143679846188663
0.9009660320331869
-0.3220926329999599
1.933634418095936
1.783272631574169
1.194864494606187
1.115643765139449
0.4178827043370539
0.4001156900853496
-0.2137623282075386
0.350058689053543
0.3392684510059975
0.3291344413103722
0.364849166698631
0.3789739087053179
0.3512833104651195
0.3555746169916226
1.184199059072301
0.6144740682763061
2.226832176679013
1.21762762470254
1.666341271773555
0.1682567596542064
1.36018371051533
1.679929763758674
2.47754094071707
0.9359330247035484
1.323029893630047
1.619802634677675
0.3534544434467495
-0.3816560646304346
-1.167667189545388
1.523185022982119
0.258223170779073
-0.9161094026261434
1.102585973157719
1.15818124996262
0.5591364917235951
0.3818706694193308
0.3799802151129121
-1.649197433114313
0.1826440795590121
0.3017309326638177
0.3117134213056958
0.1123089836026119
0.3793401061084719
0.2614769181015872
0.3458955165357746
1.222762911245659
-0.8873003558496956
-0.2374840163452809
-0.182812341578544
1.475196217777853
-1.463856879054492
-0.1353203534290619
1.793221611017021
1.713025701711435
0.8887465317693433
0.3912224458939497
0.3850968900296009
-1.199658312958998
0.3320220136644439
0.1725564843314914
0.3510630488725136
0.1588251262282915
0.2956927715545379
0.2050465485375719
0.3501606091396448
1.151297454127077
-0.8406062526096625
-0.005141702894302284
0.8337400194589301
0.9644353152273895
0.2117031416707813
0.4436146850236679
1.794311738068688
0.8635358813207615
0.7129689304530911
0.3604800489080289
1.067148917088965
0.5245097525261996
-0.1128457925471982
-0.4686105678950856
0.9705925472135033
0.124361819278119
0.1048584512472945
0.6453135182959784
1.000139756231222
1.057465565020274
0.4100245331296914
0.429393530753048
-0.5521195302852762
0.4012722342692436
0.3908256926278164
0.397447326509177
0.3396143143123622
0.362019070469407
0.3358538565541316
0.3953829136757723
1.006350859219884
-0.3494830623388753
0.1950178780030073
0.08553465989562473
0.914622846307398
-0.487394518239913
0.4804977077662703
1.378270712833329
1.024983231753562
0.7291901654856758
0.3908301745217662
0.427590844598309
-0.3778801340061523
0.3449216933109878
0.2914389799850253
0.453163454513496
0.3389757056980109
0.401503618441047
0.297010346585296
0.3776408702284775
0.9780560054142706
0.06836940689854182
0.5684922314466448
1.029226216326289
0.993289445036708
0.2856012811356414
0.466810416882505
1.404670821119396
1.217462925372133
0.6037457845983796
0.8155005239787149
1.079516568516587
0.4287701072873328
-0.1203992722417001
-0.4521249864772924
0.9532562698873067
0.284636917590479
0.07843249069599574
0.9112467606380598
1.306330348540968
0.798006824698088
0.4311749596957591
0.4708945779268894
-0.5766881048888883
0.4124719338972522
0.4047454191094942
0.4265461166752563
0.3751205908811963
0.3822912205775092
0.3514372342924863
0.3522416752715301
0.9493584988257007
-0.3786580608172638
-0.03691149742951725
0.129560038085647
0.9024414769738764
-0.4461608150604155
0.5634857741161475
1.620678143640001
1.271141526820701
0.9050090064384044
0.3823285295810585
0.4255664194163177
-0.4086704960037038
0.3607260043833676
0.2945752637381715
0.5029798061476021
0.3766251477439597
0.4103703622535704
0.3139472937045311
0.3650159389131223
0.9017663098349753
-0.09682516310807582
0.5225392945456183
0.7327469732319609
1.126592850044948
0.3537681335133744
0.7208928714287194
1.518979204201321
1.209044151335038
0.7288821442944525
1.082558264437138
0.5470938839660301
2.910907221634144
-0.1813546413909875
-0.408580156083184
0.4578789905849738
1.348829650176126
0.3660984197232225
0.8430919829487095
2.623213087790122
0.8024016487654745
0.4162778195395505
0.5719874518928177
-0.4529276937576895
0.4836841618669966
0.4552223340557435
0.449108757326562
0.4729442691352322
0.3793466898182647
0.3868196649941529
0.4042794506244764
0.4129202682622808
-0.2694273652621586
-1.290490371851586
0.2271733316775815
0.4065428164888251
-0.3029118341383091
0.51386292889355
1.167678795798021
1.086595385608788
0.4542419002939772
0.4010234193700276
0.4429725318298142
-0.310738191941577
0.3784407039435017
0.3622301501676552
0.4858341820284799
0.467575616039889
0.4342719678197812
0.4075381542447177
0.3947156217374713
0.4513063007142318
0.2815151130398784
0.4969520462889066
3.096943503054904
2.404526629024125
0.2813089720642394
0.4370662350406076
1.045834349649835
4.264836040249294
0.3194015849332815
0.7195146264117886
0.8446635046621603
0.4451976636258983
0.4850226446085822
0.2676610337171705
0.8344807374814365
0.5121062948499053
0.7700884694855894
1.088725266570054
1.221758107862581
0.5815025582505196
0.4124129631807715
0.4393119382861448
0.0736610357529183
0.4188491200744079
0.3959933452392083
0.3208294081800647
0.3423660278129526
0.3840634818263464
0.3042896345400383
0.3592582457660216
0.8891817599057514
0.5697085631382101
0.6036811179426079
0.1259470239081411
0.8127384280510846
0.1331176595858831
0.6679561272736022
1.316497160546555
0.8740946455004316
0.6720871506689498
0.4022900843482045
0.4379200615022372
0.09410902296136002
0.3272457205512136
0.3110011417463381
0.4411791095654045
0.3225505283818418
0.4097305798732677
0.2978378056667997
0.3833043100779537
0.5435694255236457
0.7514852932066161
1.063942835161306
0.7372626849857374
1.141698617464812
0.2147720052548965
0.7694715475689029
1.100420225519881
1.33660864518565
0.5800056523227332
1.504754680856057
-1.058917417580949
-0.2268270988719095
-1.77965153239591
-1.516551317595123
-1.064204118856933
-0.2614462822891805
-1.265148776401675
0.5271599336812414
-0.06553444926040092
-0.2337341231056268
0.317894789978769
0.2235921776086955
-1.935949716366321
0.232873175907567
0.3480671040824498
-0.1460729066646511
-0.06888262029176855
0.3471918940238749
0.2468163634089227
0.3490225092826792
-1.67874619022863
-2.09648139441303
-2.417505757633579
-0.2858695843262289
-0.9117361230472099
-1.808817616071856
-0.7452946798807741
-0.08590722395130433
-0.4905510414470443
-0.5647964042979433
0.3860904732973646
0.2942096475189593
-1.471279476111654
0.3174016440746236
0.202087860337703
-0.276087652914041
-0.05197748755602187
0.3486871922909143
0.193525874778217
0.338120927507589
-0.9153379090880136
-1.975171728348355
-1.70623892815599
-0.264668302730537
-1.518480982885835
-0.1326830583955788
0.1521535077127908
-0.2652959814984541
-0.1969358688430456
-0.6744024752523098
-2.405692685316536
1.105482749944741
0.3896804468867711
-0.1855917087480139
-0.6243020106791711
0.9857239587625505
0.2619604956246585
-0.1332834316477943
1.196995060743889
1.330300578361965
0.6113468010178588
0.3905559688815364
0.4093041291219607
-0.7791038910327419
0.361329926974896
0.3702910143217879
0.3251822714017928
0.2853366050644527
0.3497494211251604
0.2994598069231801
0.3638000831086433
0.9053279841867293
-0.4176001703729585
-0.1203704671591097
0.04571512951223868
0.9072849706716571
-0.7713737638346656
0.4151687289004686
1.716987176168917
1.466054720484651
0.8260769911469406
0.3684727140361622
0.3983117453345794
-0.5554944342341525
0.3404151604310358
0.2966974931560438
0.5072838053876702
0.3166689944213951
0.3456276844497863
0.2656772846817479
0.339211004776189
0.8273023046615131
-0.2889962685113918
0.5655257220069841
0.6781994648923587
1.052309281498415
0.2793849470479015
0.7605142024271448
1.525565836219187
1.051311083660991
0.6580428197741441
0.917075859519887
1.222834682254682
0.3912382557344576
-0.2851396168471331
-0.858993120642498
1.074815444974858
0.3387367180950936
-0.5059025555244407
1.230855140876988
1.3474393075796
0.5814663557134352
0.3679681400619536
0.394542177743642
-1.120760428366972
0.3349467799205662
0.4020996425246032
0.3996745911141499
0.3267234244309102
0.3896314761642337
0.3633352256747419
0.3617814541719316
1.00543595684253
-0.5384164366801623
-0.1168906605369208
0.02653817932769737
0.9847062361637497
-0.9843124045293908
0.1789652705642705
1.870909138501494
1.764465046563322
0.7671461755296991
0.3980275188420875
0.398608554745585
-0.8561570402576303
0.3402153403054534
0.3045696317840966
0.4749025194991898
0.3405830442789393
0.4144689929419458
0.3508737423077268
0.3712960850991003
0.9056869151663329
-0.5879490365375014
0.3890185196812556
0.6168591737209682
1.04091362122314
0.3029976142214656
0.6530708211670283
1.754254341396907
1.122156748257462
0.6113309699629295
0.8223325343224414
0.8648247324578431
-0.2343898867583825
-1.054918271283694
-0.3596517209919975
0.8406564967201824
-0.6427015894153264
1.457741606613589
0.594768941425087
1.567056301551635
1.761744036091137
0.404260337493997
0.374727033618623
-1.054205607150877
0.3505671461748208
0.3860196861230287
-0.2800790553662535
-0.2561528296172573
0.3177665445042033
0.09931071004149764
0.2714878447548895
0.4206064042936131
-1.083180058392471
-1.276340866648151
-0.5825525795244328
1.112203081306069
-1.067914446431955
1.660619799899125
1.792279128316359
-0.1320995369279959
1.409999253881159
0.3537447457966105
0.3064320210466918
-0.8260833734211939
0.2520178015418586
-0.005130552741089202
-1.098131861481401
-0.2160809076431922
0.3181668486776096
-0.05144836695211685
0.3056488687808589
0.7773491340498446
-0.2721895926657549
-0.6610311866749317
0.6611422150898196
0.7916167055649688
-0.4549266739140825
1.116697579629293
1.57953799548878
0.7826004589564658
1.186114146391343
0.2865510088387611
-1.026177011630397
0.05226866653890776
-0.8920966779209212
-0.9118362276479551
-1.123597072234784
0.02991085822965259
-1.315696007270855
-0.1141076629100507
-0.2137016452692116
-0.3639666933497809
0.3512542562921601
0.2170391128533958
-1.087363164448255
0.2284831092813048
0.35285548300018
0.01751678060725867
0.09252358231805219
0.3617088516253251
0.3257422569220408
0.3575146476698248
-1.294594364452677
-1.161417197127862
-1.081065472938949
0.040919801616602
-1.006708373329157
-0.937620638135512
-0.820923090868773
-0.5196171556682702
-0.7042435815943747
-1.009342360425415
0.3896215478413455
0.3271511510551137
-0.7635074324572558
0.3404146579128118
0.3009884071338987
-0.1477899177158867
0.08224934778295261
0.3694074858563649
0.2793672504933842
0.390303032012162
-0.8264075542170167
-1.368099093549535
-0.9958122422165387
-0.296329438500718
-1.339864189587369
0.1315618974083883
-0.7107098360730773
-0.5313669969094647
-0.5182135904772019
-1.058518305034303
-1.866070536254128
1.066375214101025
0.3803076619262648
-0.301577813552561
-0.7173946613259935
0.9854176917981586
0.2236968434207094
-0.2734193544779837
1.027979120409936
1.506797254030881
0.8383490094263771
0.4166679915969315
0.4077463403609022
-0.9322399252373673
0.3615507262027672
0.376051001567285
0.3553486357709956
0.3200396615133716
0.3970855055473112
0.2978608751921267
0.3642651143866963
0.957266525854523
-0.5935700951710483
-0.1495290069735552
0.1139016089687247
0.9123509641285936
-0.7652024936733579
0.3924231973769111
1.743249750384343
1.529307172955271
0.8873378630887897
0.3784001281107612
0.4026938164764781
-0.6876884969379008
0.3631728975839661
0.2715813684053155
0.4376570657151934
0.3002192858974586
0.3499733353181068
0.2690281010520121
0.3835628036127646
0.9573093714178238
-0.3985642320348217
0.4883869273443858
0.7530703172412464
1.022933501180897
0.3631971208092163
0.6419900392391251
1.624960573816055
1.284414994499611
0.6554199628002662
0.9027863602018247
0.9901346143732175
0.517120376210422
-0.2758005489092676
-0.5567968503884209
0.8614720296944569
0.2006535759464094
0.1102260543644116
0.9348809820826557
1.354303566365797
0.8837857370701642
0.3978296789370134
0.4245027502329516
-0.7168681616195856
0.3806558790271335
0.3759207855415904
0.4787433987520571
0.4060850266463299
0.4038756243923095
0.3652750111166989
0.3719643207637786
0.8287078657570374
-0.4622353884540256
-0.1829653208866255
0.1231289541389583
0.8291926772481796
-0.4994695375749482
0.4944247111632761
1.657315569051465
1.206058957448543
0.8363257026653459
0.4239536638081647
0.4080391794944926
-0.5003016181309976
0.3675868254120804
0.354644682589092
0.4462948036840825
0.4313029127312987
0.3797716926403893
0.3568607979163929
0.3787236803599071
0.8419023849479269
-0.1568306728220432
0.5070786499465427
0.8346948242315689
1.076409140531792
0.4345570103765967
0.6634569811488519
1.511469762452213
1.337123917284868
0.6687359106252045
0.9234829019043698
-1.92885920818398
-0.02575169765621503
0.04643018309862564
-0.1921260174433517
-2.021153364585825
-0.1840677294246229
-2.188038645454915
1.51756089602375
-0.1289156558232901
-0.740782545222427
0.4097762231592682
0.3739952129807259
-0.1882044325724756
0.3781547054812276
0.3972762944324689
0.3503713282979138
0.4088175256126917
0.3956240712496341
0.3794598301556939
0.4031965809975068
-1.945474947529031
-0.144646679432104
-2.111676887465859
0.248641538054352
-2.012413020525561
-0.1430201347620255
-0.6746375112000208
-1.47261186770822
0.8013051212199737
-1.949479342670942
0.4517244662154805
0.4052333620319682
-0.0644820417737681
0.3815222174880701
0.3549656171989675
0.3876757439427747
0.4083984342322211
0.3930272087303369
0.3865977346679476
0.3865656526678201
-1.925456693217762
-1.096977073387806
0.5304412397256038
-1.096833394160894
0.4215633583955817
0.2843941585495713
-0.09377551759727235
-1.595823860994751
-0.01472449925786822
-2.065882828548502
-1.68072457299397
780.5827020575555
505.9114617503338
376.0383387316177
-8.244764584219
645.1605621347669
-4.15241983817386
475.4268492030891
475.6752455489794
264.5133314219897
732.1050621955043
624.8664955293075
364.6884399350262
-11.47876920173701
271.5353492668587
113.4592488089535
106.1021650505777
-12.27655278148366
553.4152001046839
411.7552856250778
-9.486140401446418
493.676047313518
-52.20202448861335
-54.33431000358519
-39.65007825377184
-23.88083308617663
-51.39004922558819
-27.74773762010418
-50.80408356036964
-54.97531071439428
-40.42368204804414
-49.08273231555309
-47.23515758551014
-46.54097992905812
-21.87946577912787
-29.76360639012083
-38.52701168328924
-38.99824144710886
-23.54432046307281
-50.71569468202065
-45.09441991742564
-26.0862886887277
-52.68492140144903
-36.49204689663897
-36.52683248069631
-37.46823933183521
-32.70418062659637
-39.10126825028845
-36.28319616869274
-38.21780527575805
-38.70909442382363
-36.71809426155308
-40.06208502129518
-38.2329954603881
-39.66042545972465
-29.99250230296662
-38.33491781392981
-39.08788995086721
-27.63136215316481
-30.31931394951351
-35.52915127823986
-36.92649124417495
-37.0367807806893
-45.80942179087856
-49.73156439491081
-40.88066110715972
-34.5016910008854
-24.44489903896045
-41.4361127792529
-26.11957911256006
-43.48045290873692
-38.51548882796992
-45.3915171723902
-41.15744115712448
-41.43330743968551
-38.50046796019279
-19.71937369861424
-37.96800238579427
-39.23445519414262
-39.00285129671603
-22.52662360501651
-39.10981822257262
-43.74628966863562
-26.81429811210238
-46.47083262471485
928.385906226303
664.0183472432221
561.6932901413425
-12.62083224413489
839.356533524224
-13.14072782435218
658.8920599497682
683.9622241817416
358.4229413151986
841.026294024893
781.4504335088454
548.4569115837296
-11.9029839454953
397.5080030755886
295.1613639889691
294.4364889936305
-14.91787039037869
691.3747107919825
552.4327612642073
-14.16224019825309
695.329071135222
-101.8569534271685
-86.14177544097031
-92.72311385504014
-27.27952727775369
-96.71335922687831
-28.1564730669442
-89.39293270849356
-76.82820863853759
-106.9750995389461
-99.30919258322031
-98.43278862293279
-93.4961266771557
-19.58248452879966
-100.8750021260051
-89.17840666043637
-79.02133474641894
-24.90850359000218
-86.07975381415667
-92.44964833418152
-28.8981086748176
-114.7602954236331
-464.0110488193591
-336.4445241540475
-262.3520397703923
-23.67674684947598
-335.3311612832274
-22.1810675435019
-351.4370586582673
-342.3429002808631
-255.9977818581522
-376.3624510996136
-347.5750910651828
-292.3448520166648
-16.63703429833741
-235.1663361640692
-196.9004921483879
-171.4452711756792
-16.96278174408648
-325.6049641694764
-304.5097996584916
-23.09596753010072
-351.3129874536771
139.5852944203373
117.707056579231
199.5640002417413
-14.43786718561752
137.1172305203481
-17.17194782411262
198.4560292498185
178.8786979653912
222.0678488454443
95.89000631198982
109.835581826424
212.4940740968164
-13.78702876182799
211.5483234160747
230.3362255397326
148.7550577087126
-14.99673615541419
149.3786397151675
173.4519877011204
-16.62910681517121
198.4592922352021
-245.2412907597842
-189.7970719789435
-172.168142176164
-20.41742334787641
-264.7461915695374
-22.68417784782521
-93.60501132109486
-162.5609745183423
28.6609175691565
-236.4892094307745
-223.4464506700409
-100.0535433943476
-18.93777983064393
0.3508725948051409
22.2606676956161
-34.23438819490046
-18.41359040493443
-156.6256772278374
-95.94576750715517
-25.54430566914897
-148.5458618337825
307.8388211084837
400.4139032998123
464.0632566244294
-17.4262975375797
399.5552485972888
-20.87564295220469
419.2265911270278
388.7103239312375
457.182620650139
341.8390886307594
411.9727953252509
458.1109348948955
-14.608908719638
514.2796756881502
569.0063669717975
505.4384877316389
-15.15236763767527
408.9660571540582
433.4792397466281
-17.19004939252838
524.4956168706073
6.291332735960447
5.497146498838561
-2.421539616286985
3.118861053477214
3.412333289803928
5.944964716711929
1.626994657874299
0.3212966217604439
-4.025355424527112
4.831580478582422
2.889290046817611
0.811655803175086
3.11140615361461
-4.369838114024367
-6.080929238505509
-2.091969372382344
6.1381236292865
1.470310717292784
-1.981664056647427
9.079920802525537
0.03167347461715225
73.38035025281903
26.23534203916694
-21.68574238851929
7.670167974210276
20.29089818279938
8.874956564458335
30.1730355801051
-5.109216637797484
-8.485214335844917
26.18182835982152
21.59804775970356
-4.346424741818546
6.295514969157615
-9.214723115422867
-52.22082880882353
-43.04331471860797
8.770036042102161
23.38492026903552
-3.199185998042658
10.58966059566807
-0.7471069529396778
-1.403749389383261
-1.972856819237915
-1.95765670564239
-1.588308000766282
-2.704248714328971
-1.809898664999706
-1.778110864588711
-2.167116897569183
-1.173386448194065
-2.153228889712667
-2.31133727345051
-1.711559740290512
-2.304243745413184
-1.944275060892233
-1.412532498846834
-1.316019828306772
-1.80020781644228
-2.253636894451332
-1.615138980209783
-1.953328911662302
-2.232986603694417
6.204403858992507
6.391326064255191
2.144087765734386
7.965643517811851
8.919359837078959
9.42312661272979
-0.3130376508441136
6.044005073675247
-9.696180770081517
6.810493371211231
4.615085421089737
-0.1585047609682829
6.612667058952812
-9.82184446900955
-7.853803326106566
-2.769461817965338
9.204311296411234
3.003463696545573
1.730040185848882
11.16493925425989
1.126809673568152
5.823856657539911
4.281819024973362
-1.052963616979772
9.018328499979319
5.618784309962053
10.56293168112125
2.139042158833473
2.584389145801511
-4.087503632612585
6.005928280864908
3.795759694575202
1.126180968476723
7.70894715804028
-6.284800170113173
-10.92595656447907
-2.865956057621417
10.12429188820017
1.813205455173149
-0.8688747732709793
12.34257488124319
1.282565470745326
38.23784700737811
61.98234151707796
33.38671278024649
9.687346197959856
20.37342457125936
11.93403425699928
30.28339848741766
33.18094541276275
105.2227811736395
34.24915664254269
21.61547964170662
34.58659875929621
8.0706757897903
66.02023523623393
108.6845979923985
138.9929031737129
11.27438952027521
45.32279788931424
91.35976618063764
14.22836784211822
73.59956508634995
-75.90217826252523
-74.78422813757894
-86.37477300713228
4.152616962898582
-75.23879952864368
7.590516381021411
-88.04971434099809
-82.26140961546562
-86.83435141779299
-79.09873801903298
-77.80055865295854
-80.39297715205595
3.864352238688578
-90.24159408985693
-87.80787806739102
-78.33305843882407
6.792136095494617
-79.73907713138624
-77.54951711282813
10.29903358936459
-95.03219449691295
4.17304896580434
4.477943199993898
0.02850764634437931
8.793186553876787
4.627047279092574
10.47014963328925
1.297002455444902
4.016329465952616
-7.003267964678305
3.473205764050636
3.993848925849134
0.2614690974584145
7.389974735527817
-6.741995466029318
-8.347980816366569
-3.29327585820102
10.08305326068139
-0.04483567010530808
-0.1999645824836722
12.45509159142128
-0.2733901369173542
13.55145103435604
12.49702671697807
10.24847498168375
9.640401177077036
12.11248507471115
11.83757743340365
11.79943180067123
11.53398073505784
10.90968484075744
12.31087177385448
12.25783188439518
10.74133755061165
8.489646335069311
9.59432727341485
8.526990440907358
9.723140224549724
10.97662492717292
10.49993407359803
11.19173416250612
13.6737099188561
13.1744683941941
13.4621982608615
12.23027935180273
10.20658778084089
9.551806736219094
12.03982294703741
11.51606884005701
11.77136576828332
11.55168086109337
10.82226019604047
12.37233268426738
12.23068563114557
10.52793923845012
8.382141367702822
9.697912528991864
8.484166701829931
9.839814039546226
10.83052959059733
10.61976375174481
11.1647296782666
13.38568797862238
13.07457210819421
