-0.06225407863373229
-0.2631978494263937
-0.2477905006794403
-0.4143705872692554
-0.3485715174766614
-0.3089520029084883
-0.2599685596266348
-0.384052096394469
-0.415298289797625
-0.4065800621348041
-0.2220340949592988
-0.06613212244910935
0.0003541797957935019
-0.01565495888237751
-0.09648760581754574
-0.2133993624081361
-0.2572483684588196
-0.1314161953358338
-0.0689719365242617
-0.110270101948113
-0.004143393313969548
-0.1294071149870028
-0.3155235030403533
-0.2579546677446225
-0.4212289920201435
-0.4849822980688304
-0.5150164037881342
-0.4674247936121287
-0.4642501210639328
-0.5121498787637384
-0.4232096897812911
-0.2106558260534264
-0.1324345818642625
-0.06341393261466018
-0.03759310618919495
-0.07468128495638837
-0.1197105530393962
-0.1483713668888627
-0.1243467346331778
0.01061341631477619
-0.05755493197915627
0.03185292178081565
0.6947470595453856
0.5623552425315269
0.5711967598587768
-0.1884665369876308
0.06418699685845981
0.2798675807329963
0.238497144270171
-0.03185996427002855
-0.5146633757952982
-0.3399361769828789
-0.4769056399677749
0.06281999679500172
0.1957190185098582
0.3005375683322586
0.006679983097627388
-0.1816491566765779
-0.3128718971516415
0.1190772119426888
0.4943530274654989
0.4228497104711529
0.2545260869456442
-0.1915025817145984
-0.2357412056545536
-0.2425054593470255
-0.3475897290138825
-0.2806318291110077
-0.1327742270676562
-0.201632176149748
-0.1713904944314645
-0.3528082171994916
-0.284208023714814
-0.2275649180235098
-0.1679887719650957
-0.1318353710388876
-0.1074490451330246
-0.1766685938105189
-0.1858545818726099
-0.1289529314767539
-0.0663974309728847
-0.02109654552043772
0.01343026553268041
0.0301489601757624
0.5072526838026044
0.2382227220655159
0.3015883433467084
-0.1702566736787199
-0.2442147665055969
-0.2582696217439837
-0.3284568093802406
-0.3835032820380571
-0.3777195618954791
-0.08075215393276569
0.06012189113582576
0.4083681106011669
0.4703128331586885
0.4439476299290023
0.3931626771236048
0.2833334138744152
0.3165480371669079
0.5524477446775689
0.6550449414947976
0.5742479105697311
0.1559854668213496
-0.2667758001869154
-0.885007555774458
-0.9028144033639072
-4.100697324785846
-4.839576107592839
-4.84780117884439
-5.212117023391339
-5.157946576157425
-5.323002757671603
-3.805068507623535
-1.75984851118805
0.1288092719094867
0.6020439154901869
0.878496761849233
0.5698265226303698
0.7949376846883113
0.5606537525138863
1.320414258348491
1.50118048157413
0.9954614590431168
0.7679070765061458
-0.2033099755641769
-0.1593571672037181
-0.1902250013532064
-0.1856186768983421
-0.1483477062733017
-0.1034593659464982
-0.1076311252174881
-0.1123959323440596
-0.1850840161201336
-0.1638308636497098
-0.1691800557073622
-0.1036684170190798
-0.1768929816857347
-0.1119820512488521
-0.1941954723124426
-0.2502088181831795
-0.1938438846793011
-0.2145251751057816
-0.1953260713857947
-0.1410332356215245
0.03829533773616153
-0.07368012890354865
-0.2264730294761423
-0.1019421063057862
-0.09629570038979299
-0.06089455345148088
-0.1454152207745004
-0.1729012995667029
-0.1793495470788771
-0.2879650922842807
-0.2359755763059229
-0.1792090221451931
-0.07967489538050278
-0.1166375422013784
-0.101859648738295
-0.1229538341339641
-0.2670687816512822
-0.2707463490811233
-0.199034695379102
-0.05339337774233705
-0.08297713118754575
0.03849956049314616
2.562962881293703
3.370600688161678
1.714154186061505
-31.22547551055487
-19.13404732465512
-16.25500776799682
-25.56700763701737
-24.921312184431
-26.19352146011298
-16.60187665126322
0.8184534211284498
11.59567838181935
18.33657836680261
18.57567634685056
5.901252503896695
14.45628979324826
15.66861584403688
20.77726161838314
19.39591333628293
10.47629779786601
9.849396817888037
-0.2110643068250755
-0.2031353239232127
-0.1478954797502217
-0.05691508298463882
-0.1205179087644958
-0.1143834990219082
-0.1109412864628827
-0.1274051941637432
-0.2093784179415336
-0.1842342054798233
-0.1903102176887846
-0.1381675182754153
-0.1406984875304939
-0.2031126054759743
-0.2164275995918716
-0.1731698044778571
-0.2650614303610557
-0.1614112654557059
-0.09800950690940001
-0.06684764850506481
-0.03066848977882524
12.8001781639035
12.8847931342565
13.59154990507119
-16.93227106386256
-4.71522267200849
6.74731091620804
-6.041272919818896
-0.7306534150399538
-23.25312512354998
-16.48774231381363
-22.24906127435267
-6.215748195398615
-3.648212252668172
-3.92295907058442
-27.40974206968215
-0.5612627797499659
-2.134971083107412
8.799888940393112
13.11924528195872
7.244629883968808
13.89125887065119
1.101645549582603
0.6836262396753454
0.567947346016543
-0.7123586227986093
-0.7194131484085382
-0.5683031037225283
-0.9121591387986786
-0.9813649692438787
-0.7288520558040219
-0.4924731494308843
-0.09694025246942893
0.9132668990492632
0.9221138442662671
0.7885576903405419
0.3420433981267249
0.7021743833340017
0.8644292324638865
1.187699276664793
1.261558727269604
1.070955486764771
0.3088695553772429
-0.3277583592518588
-0.7824251824786596
-0.720317368743616
-1.560601560897038
-1.383577760848281
-1.118692250532685
-1.265929660843475
-1.526547291568463
-1.563673453290471
-1.225387884977994
-0.5191534926602926
0.152290193045475
0.4556326612877153
0.4271839413787267
0.3238491826739275
0.09415859049093805
0.0926971848805669
0.4021049483896033
0.3251710127678933
0.1446578908973396
0.2067936442413825
-0.05768868967230945
-0.7849599197372206
-0.9939076241929583
-4.293991418668254
-3.735566840269795
-3.286092386993187
-4.245571991202591
-4.556437999779165
-4.652151199134978
-4.113883225106512
-2.467860833075565
-0.4286683016644842
0.478884553160779
0.5407737089770653
0.1306962930022026
0.1081558715275791
0.08400259161158175
1.243192905271384
1.539630999111511
1.104100148000874
0.7122331110178601
0.08136423949656152
-0.484402999085486
-0.1528490189324492
-0.8722648219230671
-0.7307115691999113
-0.469290489357536
-0.5760801071619052
-0.9220252289347909
-1.02404567463509
-0.9707119308004813
-0.5804130292985149
0.001312142000046758
0.09459108224889037
0.1484121514415754
0.02154289243654454
-0.2050916255167895
-0.2507201636495444
0.1231197993234743
0.2018355525426324
0.1011435730394091
0.2468537293165601
-0.02572072655030602
-0.0327069162067966
0.07121895601531483
-0.02802989446462497
0.1011642853168198
-1.402776029235413
0.1432171214279866
0.2752764415832147
-1.782808042345631
0.2521712605966741
-0.2362904220823705
0.101295460472277
-0.3389600015222903
-1.265835537868409
-0.4022557482400732
0.4586075420664194
0.07269822865049312
0.2530372292217677
-0.09943604873725929
-0.1686726171775416
0.05115911975772938
1.367358172831801
-0.3173896244182806
-0.07871404581561647
0.927933971540274
-0.1059989839527647
2.386479614974485
0.2193595491963604
0.8416701106186004
1.687539479196724
1.003458429577606
-1.151653368268795
0.3076503096431926
-0.04880130524654977
-0.04739541209202625
0.2238593659339846
-0.1979749190444521
0.2591309508442554
0.2673452930722954
-0.3723878492380389
-0.300803032782134
-0.1358223915965408
-0.5348286884897182
0.175212347340477
-0.5382978851583674
-0.5518693366112339
-0.4811520713208616
0.7178710948221653
-0.2549790997245082
-0.4982776684109536
0.2413272804060613
-0.2684513819187216
0.01797874701652736
-2.055714273851719
0.03546753756822923
-0.01915799076066157
-1.607723280435474
-0.2236913674714558
-0.7807472518443284
0.347517299367061
-1.391869180821431
-1.968278361593416
-0.7299831794784961
0.6242424803618279
-0.204838791283627
-0.4065624552642294
0.1412649025724781
-0.1865736188125688
-0.1839449613370075
0.2001525980627027
0.04784296398198699
0.1539412228412099
0.3291731897407993
-0.1597141923711753
-0.4075465269521802
-0.02785476577999404
0.1755177981170844
0.574567935539811
0.159991051027763
-0.08480301800956515
-0.1287127715613723
0.1386686710597811
0.008413676482083039
0.3193256269711966
-0.07287765150896917
-0.06314338489497472
-0.2530345350525251
-0.1488789616568537
-0.3474443839159193
0.07588805050183711
1.084760353239119
-0.2196752796517025
-0.3143095725927594
-0.5035490884945232
-0.3411516624858847
-0.06173568795827215
-0.2996414332285528
-0.1395546978102951
0.09073212700773638
0.03461444826024419
0.172925548459759
-0.6427402676193295
0.1640686143474048
0.3142092682364939
-0.4999042809302953
0.3692162258289092
0.09287867785537031
-0.5363845275340723
-0.3456293424410617
-0.1700202980667962
-0.2889082690423191
0.8706241520542201
0.3848801103536047
0.5722204908125343
-0.2960965295093997
0.1885026303641126
0.1219862379709793
1.590212817969364
0.4204181145179336
0.1526993764133955
1.494064228364949
-0.1321686196365733
1.014331341564332
-0.1388862178263656
0.5132986110366176
1.58181821280478
0.8131311457943662
-0.9030578955496148
0.1467049909308167
0.1950093634570093
-0.0005338389650700473
0.1901186108230062
0.09412692774901539
-0.9616222577230751
-0.3859215552197057
-0.1408165170732599
0.2366072125967907
0.004625275659869416
-1.612286155336522
0.167709998528437
0.1240969856134884
-0.5491038817160991
-0.08333235872691447
0.09466819362513565
-0.01187132056854848
-0.02372498457652018
-0.1444575211845534
-0.351563645077101
-0.1340821443445625
1.658218148217852
-0.09204944495912812
-0.1494316082791153
1.583690231319943
0.07900021889526261
-0.9484242083217461
-0.06902480226980275
1.330598858335962
1.125343327612311
0.3967670086767418
-0.6512235370925632
