-4.246562049679763
0.7346301246392565
-0.2387076779720544
-0.5228634132848761
-4.361784680896936
-5.365671712049749
-4.825820225145306
0.5344748728748098
-4.199692975289257
-4.061707817746124
0.4785569632113147
0.09667034931238958
-6.097784213019122
-5.104603089364534
0.566882620866109
0.4530445869421356
0.3351106106702513
0.5698607563656608
0.3522118797420924
0.3665027355953495
1.164280842908092
-5.819848764624238
-0.01812332204072861
0.1083654889262227
-4.390806339399398
-0.5135491839963766
-0.02130177801929703
-3.915407739106278
0.967038934038531
-4.132132350074049
0.5516604650343206
-4.836289525065049
-0.3852146314184626
0.3627392866223133
0.2907608314793
0.4155849298390853
0.3332868356524544
-5.000975312302523
0.3350604232752312
0.1362826153531787
-4.372004727706191
-5.365386025777119
0.6110508593196894
1.592476803012734
-4.378994656606293
0.6548498874020989
0.5105397170323552
-3.933809642142375
1.560131244784559
0.5671559306178195
-4.550478388491591
1.747956087444501
1.366865446982679
-0.06455238847713546
-0.2866166889272795
1.629547462489027
0.1478551832536567
2.056332914613502
1.000659847163516
3.964200174115353
2.372169995954332
0.4307280829817188
0.4104454555890102
-0.3444405478192241
0.4243189357475893
0.3957636670960245
0.3689958100277172
0.3875533204921
0.406129737575036
0.4215149426289554
0.4137031572135983
1.68852529819116
-0.3221203255308375
-1.059659283092759
0.2551510741674922
1.593079300125217
-0.2343285617009603
1.756331714603415
2.294785259676033
2.525503866579496
1.65777178467357
0.4075341319895561
0.3872945322405018
-0.1908646457459114
0.356476295711332
0.3555553099206867
0.3935218697315531
0.3721811380802295
0.4453985124936837
0.3608248353232996
0.3914892965248715
1.732298607190093
2.208719146630636
0.4567087436767779
4.155907372873528
3.825267375225959
0.2789360849683008
0.5831371738108017
2.168805201614304
4.503006855479682
1.571456968300206
1.893218863246983
-7.677499611297234
0.7048028290085364
-0.2321161463227254
-0.4218972239464485
-7.805988819014085
-8.793276064044971
-0.1652797798896929
0.7330423175589569
-7.49893975244874
-7.720264923303543
0.5317651736584789
-6.95153162567634
-1.315979915310797
-0.1040715674392779
0.3032890297753643
0.4180167129619317
0.4250583043102312
0.6904595607602771
0.3778602088881465
0.3878239550748318
0.9021868319850233
-8.888930287944618
0.4158346044204923
0.2137489289119768
-7.823931788422103
-0.3360072774157132
-7.966211338108313
-7.080568707061015
-6.572768686790166
-6.661343013206515
0.8123362005415284
-0.1257404047756442
-0.2945328772002471
0.3894366788950578
0.3582131488304214
0.6212862036595562
0.3772402575037129
-8.30479470775188
0.3619521643022668
0.3676287673531636
-7.603508644225363
-8.957276921059879
0.7224708412516304
-7.433382111118236
-7.693756489067095
0.7490724367918303
0.3023609047912909
-7.180730774968862
-6.44833212096894
0.8680564788881416
-7.563796932801734
0.2292181584220792
1.095068991958718
0.1812119268542701
0.6821538075901783
-1.869139120402057
1.150159764353688
-0.5061510795704989
2.351516029650604
1.935313441403182
1.951602184332289
0.1166624100933459
1.397467159868664
0.1936892612113214
1.35402841648127
0.1691157357714842
-0.8008827964344193
0.9716925577360368
0.4601592499217955
2.776681327710207
2.697608666078086
-0.7586681088577776
2.375236386970568
-1.196172267872177
0.2088565494014477
-1.757064295762267
-0.1764872336121555
2.503545012647451
0.8407930966733311
1.10810534438405
-0.005241558541446807
0.9404434859635784
1.785239691378498
0.1602759015620359
0.3368013835935476
0.3096827821958922
0.9501359419542649
1.14720450466688
2.516998576730323
1.854740087646681
1.434205965227618
-0.4276583913046987
-0.5285207313829429
2.342592739648309
-0.1937725176964663
3.738610660100508
-0.3230429464854526
0.6484700335919874
0.7483783432603694
1.282345572262295
-2.252621991423563
0.9466682349948885
2.457976923509139
0.1653778263674481
-0.8482384512702644
-0.420507720069092
2.336587400619336
1.230111808941879
-1.432135904335751
0.5737501716598695
2.152912740683972
1.903806011125921
0.1672719675866717
1.546835055132312
0.1968306897091571
1.21056001123437
1.702869574908702
0.4837212439507216
0.3688095339887343
1.163649934036359
0.3615838934417303
0.4094551881246878
1.264746559738656
0.5660737259048991
0.2821857299308905
0.1016184016097741
2.260283447312624
-0.693346352867648
-0.3645046514918138
2.763338696051921
1.683872131489733
2.21809255532987
0.6086511904834933
0.6084077455342143
-0.5876410016618591
0.3962349016261487
0.3105560563245097
0.7205106078510707
0.3510901965210144
1.449284617549263
0.3213665665356064
0.3775137528343955
2.521174158873644
0.621010189649688
0.3098533892420115
2.6228322695293
2.283745805670737
2.021491160362112
-0.1611027654347658
2.840255112961229
0.9605515653534693
0.4466159528532051
2.007438267853702
-2.80010619855253
-0.231873777174101
-0.5517607081500219
-0.7315583808136793
-2.770353017341406
0.5382881945191873
-3.44686468238529
1.720288199596391
-0.9842519350385861
-2.208501707635584
0.4220032238675843
0.3460652521245733
-0.9135542874944651
0.3370116900407902
0.3888830913493689
0.2283857403977701
0.3189950913748078
0.3856914188571048
0.2935479832084438
0.3459063218699127
-3.177404572065471
-0.5130790927571198
-3.832621322895078
0.01650438916622249
-2.774256826148042
-0.7759878462859008
-3.062050908584225
-2.237128048195437
-2.102964226233821
-2.814821353051066
0.3806996670159243
0.3369717329959256
-0.6557732489704973
0.347103629192236
0.3101440757659387
0.2211101715763374
0.2910947994777727
0.354773447718959
0.2813899205547769
0.3558329667572656
-2.947668319909241
-2.525609157571386
0.4573383044667405
1.374091185810442
-1.593459149222726
0.1277362800094987
1.111434755574785
-2.483545938602124
1.522899331330674
-2.955085564517153
-3.2725701369837
1.374829838864772
1.079485433397098
-0.1963401021394056
-0.05620176352207473
1.143707857172647
0.6706014157017576
0.3454854446060914
1.167280823627257
1.009239007285119
2.20147731407797
0.4612510917466001
0.3996180991082194
-0.3433137989777075
0.6338882878112764
0.3931199173595866
0.3042316232230894
0.374531294714422
0.4417026860040051
0.4696077653664037
0.5792441090337869
1.126305632286996
-0.07004732158728343
-0.07044388197445299
0.1436383051163298
1.013052671477838
-0.3266087032723858
2.078142309113392
2.05157879286956
1.198672343035365
1.21208714372276
0.4583197244467883
0.3549005077380387
-0.2143486314090525
0.3458241922800772
0.3418308047245689
0.3202724454240579
0.367391353475266
0.6468865373391965
0.4886681306534936
0.3807493443902896
1.481178201144336
0.8460657658829667
2.226894669462423
1.253350549888352
1.705662879519686
0.3862183628591531
1.344285603399056
1.949122496370407
2.481083389101657
0.934740259845834
1.591113278026582
-17.43581989934568
-17.74411621750385
-0.6399892409346594
-1.194070032643374
-17.53243741131735
-18.96083501198298
-19.7082200674857
1.102590542257952
-17.89741087082728
-18.49582880072953
-0.01425787878164397
-0.1505199037917041
-20.77067335241773
-0.9554838617376769
-0.6776924778417865
0.2894305993282459
0.09480588017787224
-0.2064476994102843
0.2533608766008731
0.3347514317687698
-17.83271822621456
-2.21204203599729
-0.2437997299744367
-0.1828142183356379
-17.58027849104039
-1.463856778896166
-19.20515802888733
-17.26240123566041
-16.08751429291152
-17.62046923175223
0.373319805378715
-0.6243243360210853
-1.199657994042454
0.3302232164947697
0.1647237086531241
-18.77005713535375
0.1229695994854031
-1.394813144329618
0.1934804045212076
0.3335151767845994
0.9741830627891154
-19.9194229967613
-0.004962933569433458
-17.81045863920945
-18.09117020556335
0.002792574911136999
0.3328934322977062
-17.25994942389903
-16.88332012220436
-17.16636453541339
-18.69514249260922
2.519668735951637
0.3944343241742461
-0.2264653574646707
-0.3856676087235075
2.423089381131386
1.211760342683992
0.1324813181686458
0.6453226168265807
2.451163616300449
2.514645135320154
0.7944123938025923
2.155013940469981
0.7697286327064116
1.797473590521046
0.830814529486436
0.5295521773505032
0.3288663230517944
0.4737418298082141
0.3358548202075017
0.3953524832286457
1.054246612467507
1.070404175683402
0.1213585346924062
0.08553070816118256
2.368177269325519
-0.4873966058022933
1.931893855002588
2.830764670551124
1.172868098582772
1.511037697318024
0.5588062956249702
0.1681735159803822
-0.377879641602118
0.3542698767856008
0.2914187407299923
2.158522119924794
0.3393919094353884
1.820342291533634
0.2970877266747691
0.3810519864451402
2.426985279220824
1.379320020444972
0.5684573981228566
1.356654269989571
2.445523547010807
0.6480559209672185
0.516888749718061
1.92157882027994
1.245597897817331
0.7060325380244893
2.268018003310069
1.658142505337363
0.4312798431617956
0.3012199516050097
-0.1566937096340034
1.457823614486894
0.7202656313931172
-0.2759355429607013
0.9193878119490998
1.793026487443671
1.356571733343222
0.406263414762969
0.4822268850596582
-0.1983338198958782
0.8152213373922859
0.5113083308554279
0.4217587048869321
0.3543039478961158
0.6958280871841488
0.4265032837170002
0.4574858143151933
1.006277318633488
0.1725672041820972
-0.2076920001181008
0.1296859342724211
1.398771839748531
-0.4509146378757827
1.193126677081024
2.200778041201334
1.424981094064149
1.024751619348095
0.5209813200182317
0.6226300139150618
-0.4122065732316655
0.3664775567107965
0.294323630439487
0.87141382454386
0.3433982395415982
0.9442601194508747
0.4282727073718136
0.3987331858152907
1.009113848051571
0.2536821020639258
0.5231336862276783
0.7287533287153627
1.62879609778476
0.6828907040710916
0.4496788163955791
2.09784440283267
1.359420870425914
0.9735734018356366
1.662671712892224
1.235663235179743
2.901852710917669
-0.376259348589899
0.08969053912490964
1.095507718299384
1.297679209193177
0.4663779964668933
0.850140058807368
3.13035861475749
1.47539070318266
0.911628797620146
1.386254624916941
0.04504768382636677
1.128843744394637
0.5844896757127002
0.3855138719078088
0.4588203630020223
0.8768601927007246
0.4705376651717093
0.5569969311006272
0.4825278307707699
0.3768262375437357
-1.023163618900299
0.2271055080844318
0.9731691653598994
-0.3036304929216638
1.331810212352082
1.856216857076635
1.144672231977191
0.975476237479286
0.6478220103537032
1.007605359619369
-0.3114298229097655
0.3950981711006764
0.3617256307873933
0.4984796144453787
0.4715952004327306
1.096317602931579
0.5435054602139953
0.4208954759548096
1.236830853119221
0.7004470679002186
0.4967530103020742
3.151472368155465
2.912851276783296
0.7053640936194726
0.4836948982958725
1.160309242018876
4.268856102964915
0.1946137901052824
1.408206001918137
1.247941653791746
0.4513064920479711
0.4792945912407254
0.4630174566248962
1.179412078207897
0.7598480287636477
0.7207078499588313
1.100670357995865
1.448485599950869
0.964445917846699
0.4951665777666941
0.6736340294453379
0.1983970695694092
0.7808804817491862
0.4564381701721529
0.3463167360215981
0.3546135635936463
0.5063941289617468
0.3935869196021036
0.5422988032449397
0.9602624849275702
0.9225835520495376
0.5871565056138008
0.1265465991748885
1.102770013078143
0.1281140613020766
0.9666643866267127
1.718601335071707
0.9772419619086155
0.8670149597138463
0.4337344286386914
0.5720325856506758
0.09318099128856554
0.3542918068376921
0.3087909771902771
0.5634689717169881
0.3358902187920107
0.7757162274566111
0.4408461045775637
0.4189887804740023
0.909776879264671
0.9830947409453664
1.064077313519996
0.7520560546043197
1.411284853558175
0.4357141518784264
0.7092899029815275
1.505037969871955
1.456695189947912
0.5817064677227635
1.906213796464969
3.655366979117696
2.445552537838292
-1.983152553706416
-0.05967088659959553
3.650151513972649
2.692771488086027
3.639180547945581
0.6620319261209079
1.754913009154943
4.480513924103791
0.2460326664148685
2.507669449861476
-1.942947060220418
2.03854702456974
0.2613274261708346
1.2431835640555
-0.1291439522583837
-0.2232730073105337
3.252265189026554
5.174966887801324
-1.698680979633549
2.684380047312057
-2.387638471948374
-0.2871779890949498
-0.9607059043464888
-1.696429251933872
4.307337667023043
4.628112484366389
1.483420045571273
4.317850426465928
3.482838429193683
3.191371278494669
-1.471288673899541
0.2737742922514402
0.2107443875816996
1.985297349500732
-0.1833882404628678
5.083134242747334
0.513515184857132
1.364937995185153
2.20064751391993
0.27799783920433
-1.706150195799702
1.820560355996827
3.8706854458201
-0.5993885103640414
2.673642179046464
4.448880414067057
1.733748698770835
-1.357131891931995
2.308587837421981
2.846664534547761
2.183831829919276
1.382430132564715
-0.9499969423877491
2.726938257331222
1.720422208806988
2.282844833572205
1.196999715176032
3.069008119832043
2.354232343069736
0.4727187693079217
0.4949615780792456
0.8920812670117376
2.414615275865993
1.103867634067573
0.2146826735477556
0.2608362565389801
1.007061548519081
0.2992485877559103
0.3627433197264363
0.9836162776235348
1.274828080716473
-0.1560188166498898
0.04570165563498194
2.649654861882694
-0.771373204962977
2.355086649096722
3.458159055565635
1.835793873408782
3.73021122574398
0.4294813328238444
0.2629067051568489
-0.5554936624813166
0.3564388345263451
0.296588329603677
0.4613060218766949
0.32161409384519
2.067986065966742
0.2655424188963461
0.3284382388429304
2.547761090976363
1.375706390937279
0.5655042485603603
0.853443244105813
2.793305077397899
0.8022165430841786
1.016742167481862
3.291888313654856
1.161160509708101
0.7475881665873216
2.658256721352934
2.172695077067604
0.450791150130148
-0.2290768065929658
1.285592143961129
2.027301043095519
0.4207667766394814
-2.721718543588405
1.22930125575249
5.913820478805243
1.527195610051312
-2.517980321675659
1.827862877291814
-2.093852265556457
1.567112768204684
0.6684491840778128
0.07335547786054089
0.3720237621387957
3.082090748247461
0.3613406620255959
1.482518850983651
3.147664152334482
0.3505704903781469
1.020288181904451
0.02653211282487899
1.939307757814911
-0.9853664105611015
0.3809560526142525
2.821268032190891
2.513086483984625
5.641644450667378
2.085102646403743
0.1736737906337223
-0.8534517908018755
0.353508528906552
0.3028000926359937
1.785175967205526
-0.2948592740083289
1.365993575468246
0.3181849055830818
0.3744308440003519
0.2656095794208215
1.124722165558305
0.3883593100629437
4.180801428312856
1.298480487395641
2.980215788501761
-2.160580045495393
2.714737955293753
3.594692691679441
0.8248622900634267
1.772175832731871
1.669624157135274
-0.2154931963107644
-0.7775664237467753
0.3188156619864657
1.44025759978078
0.08788954779134861
1.432677885758511
0.6209139728788245
2.219952926296974
2.548808176314322
0.4478640085810361
0.3765413992193987
-0.5546204642644298
1.034179778470757
1.010890205684963
-0.3552301963735662
-0.3626007787035562
0.8926325030923341
0.2725774659956022
0.4645247253693207
0.6019746165881629
-0.3383735309586521
-0.9435328852146307
-0.5821053389519257
1.732937440501916
-1.079765921441918
2.089901570505228
2.595510428066506
0.1343416576863917
1.845861639167223
0.4365067803574157
0.3400118337650278
-0.8269377714774933
0.2221137312497632
-0.008660465297329263
-0.6099154449610331
-0.2997824577972732
1.028698764701045
0.1048790234066967
0.3017628695698771
1.450602048972915
0.5390053582054936
-0.6618325664392914
0.9275991002894431
1.454994446710363
-0.0106814060709869
1.114098085201538
2.382425516099654
1.092579758766728
1.153729698026833
1.089452327666286
-4.680007375003123
-0.9439553364981158
-0.5383606610587938
-3.683919998335337
-4.778000310642883
0.2592688402984226
-7.224950617801929
1.151112030000503
-2.255948786328548
-4.017703207657647
0.2402775929844484
-3.238849551126987
-1.146094141783856
-1.868447394722041
0.250486534048258
-0.4122724711038813
0.05658573063791179
2.292448961322925
-0.9358295428857037
-3.155528505674904
-6.010087171551478
-4.745865952223115
0.5951717369643124
-0.01968593318945632
-1.166098786908572
-3.748730301599785
-3.2847812724987
-4.173328521341677
-3.190803496092627
-5.891360416765447
-3.299677127608435
-1.697418703535338
-0.7635004219761955
0.2949124619558955
0.2854286996266877
-0.540212603097092
0.2458333954032103
-3.255322695660691
-1.857858828621205
-4.204561553901568
-5.012408967928781
-2.196542847592841
-0.9952935317889573
-2.369255516527251
-5.793496296774339
-0.0748425966993832
-7.173842150041078
-4.185332519092762
-2.293642279964547
-3.942213272093732
-5.519900372857706
2.080030224445098
0.4486728842690444
-0.4745335486615948
0.7947175637365355
1.998391984052004
1.125841314789729
-0.5459994490089791
1.027998108583807
2.519697459149808
1.851564683015537
0.4498739786369078
0.1549790133760728
0.04939982449585903
1.539598533386384
1.524613577627348
0.3244894350843435
0.3295877968530239
1.798829413803392
0.2988042041746256
0.3666645341543819
1.970155448790596
0.3926297956245242
-0.1535730677892857
0.11390231892485
1.925270324388472
-0.7652219371688506
1.465193293131074
2.75686881234793
1.444209393362212
2.104564847788909
0.4130592047202854
0.9607519132378283
-0.6877620985084197
0.3455039717254738
0.271763049263775
1.524093690992488
0.3034566623697196
1.293924435929811
0.2698438191534007
0.3867902385084731
1.098731461738853
0.5325592714865286
0.4883940270171794
0.8932587840296641
2.036166056395873
0.4519484667736132
0.5480857980359883
2.63858081337267
1.186812010036418
0.6389636084522541
1.916407219881082
1.70476903331239
0.3766650310347785
0.3011362433945553
-0.394534011438887
1.534585155275774
0.7994508320101543
-0.1693380193922621
0.9350001135168213
2.026490717822894
1.582211115827641
0.4560137822881791
0.4912857663115211
-0.108588310347131
1.081139073085553
0.6142694207242931
0.4498827737659106
0.3947268153539035
0.6546203449007924
0.408272147932056
0.417563579438963
0.868557117580069
0.2077319719742218
-0.2562071536335078
0.1233236569077154
1.502346218319134
-0.5022822638187615
1.260401993032572
2.3703104205443
1.310248084783749
0.8699538870175501
0.5286367474459319
0.9485134749627548
-0.5015433056595164
0.3817535455930151
0.353035812059463
0.7704571240833006
0.420841404658795
1.047927775033138
0.4111271555068705
0.3821475951992359
0.9254507203663134
0.4393717931675466
0.5074554209711853
0.8986739232111695
1.757820039062665
0.6629851419015086
0.3824599473788047
2.222546222220884
1.447166043798006
1.039648007011792
1.63634871233054
-3.804635168479907
-0.01285584641735956
0.02871455322566627
-1.424549757907699
-2.41940442761632
0.08278700364129846
-3.743401691292165
1.049990658444112
-2.114940307198437
-2.62335233423473
0.3008785136671276
-1.611630648568892
-0.191456557205545
-1.464320362568111
0.3604269416014499
-1.277236278233531
-1.989323740672311
-2.054389074595274
-1.256251521553712
-1.373364665037869
-2.148439263407965
-1.998905304944898
-2.124285061776782
0.2488048980379032
-2.0943239042662
-0.1306947930537849
-1.970580339692266
-3.344635728494899
-0.7957063260555073
-3.537058361215985
0.8532049471145389
1.462314301438783
-0.06569005266524905
0.3866920356499914
-0.8759322241149926
-1.286264330794117
-0.213380005186582
-1.473907751675959
-0.947359564134153
1.704270250741678
-5.25122756076097
-1.530910898637637
0.5310411793708061
-1.769942803476299
-1.455931418611483
0.2444086008730856
-0.194547665766539
-3.468264492702982
-0.101787255250309
-2.116303413252216
-3.555299930623212
2366.240853934608
2420.859721111837
324.8396610271997
472.716477384079
3185.588522113022
-4.152776178827325
3206.883685555257
681.1384528558725
2699.104140333508
1706.236623521354
2241.116734205552
1569.142010486705
733.5350165209678
2506.881256126945
785.4552928831963
2400.253609487848
-12.84363836648072
2990.79308897721
3157.473365084717
-9.545173350717407
2974.619916791588
-140.9395075184214
-11.45665892646302
-38.04479146950199
511.1782691456482
984.0506331112313
-27.74800727657144
831.1325357996226
-81.5807104827874
1517.591601284283
-409.4533117338673
-345.9100332183584
85.55601879510978
568.1999270992321
1070.532704198778
-680.5620097972999
2090.233667947446
-23.50957439504931
539.7074996153667
1435.180244817085
-26.07369032699581
715.5858278668738
-37.25149635105215
-8.677930103420337
-38.27474569551045
-6.578305815271957
-8.686464447344347
-36.28319364129623
-11.42659376520479
-38.70545724514396
-7.377968097842095
-13.38042332491124
-10.56778966756359
-12.91705237574799
-6.76356857025683
-3.453659140385043
-14.26534608117161
0.2424015413092093
-30.30418083550183
-13.16365287724637
-2.523741040617364
-37.0366363442561
-13.09422482505018
-135.0474295068348
-148.6954577023463
-95.50683896028998
-39.39195379125307
-159.315194098371
-26.11958083288022
-156.9330219467391
-53.84973519019092
-155.7782361422438
-134.7897354631748
-164.2705417829338
-122.123984298599
-18.36678031716609
-148.904548813292
-111.2220760566815
-175.6647843857369
-22.53060892238045
-143.8385791660869
-179.8550994776191
-26.81423428946869
-182.8957353476971
3094.872694426772
4641.19481954703
1369.149814029236
31.8103890014067
4689.080757280713
-13.14081845233618
4323.363677889547
1165.837168155805
2542.34349808233
5312.499757392588
5315.829380603602
3992.081481016483
300.7028849097431
2501.263114265176
2783.633684037902
2731.075176933054
-14.46299094540173
3606.211152944123
2868.299430537087
-14.13384947311759
4308.748124145404
-185.4425766509238
-505.0653371507962
-162.3212661089549
-174.2988353088875
-621.4661900337701
-28.15644738828417
-597.3289440385292
-93.40025816739508
-649.9635624352125
-484.0399410676411
-511.1661191664282
-570.8706812782889
-303.4469713133952
-573.84440577694
-491.5749887487264
-653.0725091443458
-25.11861540481462
-617.1259273237818
-657.1602685810325
-28.89752177446699
-706.6845065372365
-447.4564762454783
3.952920917843284
-184.5712901558408
10.64961112347282
-236.0778319172504
-22.18106722636436
-161.5168139783611
-254.6903527914958
-324.4240722288915
158.8676892451718
64.82934900818768
-79.29752101384767
36.34074104864434
-272.6340494353534
43.08979759554451
-412.2578713350471
-16.77621108052513
-194.1820387234041
-440.1189440344602
-23.08567069832377
-217.9059658882972
642.4532987141984
2256.186745335481
597.693746939978
208.4297927164194
1773.975576654217
-17.17008717947267
1810.164155984108
243.0672732492474
1671.075516886623
2402.589194823338
2308.586757655686
2239.047251721417
344.3205206105096
1830.653905506068
2593.810710963624
2239.889179968938
-14.83974133859933
1506.319499683679
1640.665264689335
-16.61155528454492
2305.821535954687
-199.2275090323342
2717.809069055745
487.2464670687858
965.8332171339882
3298.13240138163
-22.68364192146444
3389.3162591073
-102.9255275581809
5792.904586740734
1350.305182807929
1907.426037968448
3604.588391429854
1417.560697256486
5821.751780631508
3865.514113845927
5865.636587561545
-17.21355408326524
4252.692452026712
5911.003005600825
-25.51663276632441
4666.405610033929
-47.71873176844841
2396.036206663313
1004.188954822704
740.9371656435435
2703.38959942046
-20.87554630190381
3024.93668383091
332.849275843703
4927.000816787456
1859.309898977221
1802.141299477428
2898.366524097151
1253.367998400561
4912.698198272646
2620.393006268064
4926.967664716256
-15.05931697819948
4201.682313761432
5058.867510326158
-17.13395524847117
4039.041641119249
86.15838366889675
56.69720207614489
-6.0278384184998
43.62032012176083
89.20227573210407
5.944972927962544
151.7680038166351
-21.44325812034648
309.3436538442693
-100.1591335373606
-25.34927089668005
29.86423781044309
79.78501549905229
233.8601975635775
-37.01184740973593
196.1960025563029
6.256940091517895
208.9155833064012
278.6348877062305
9.085147015320571
158.4582006562682
272.8518089579759
972.9313215242354
-65.0869890285023
198.1124558796163
1019.256060693753
8.873962120693305
926.3879925091271
19.75431497138096
480.4773493907614
935.9410060602926
1139.773668971002
866.3604956282365
410.6753543608312
549.8297717647368
804.7886374782792
454.1761835664954
8.790419615671823
718.9549893943519
693.0583068043933
10.62351136307342
929.8661646784257
-2.287759450772544
-2.740693804038617
-2.681499713844322
-0.2490660176985253
-1.668236398548142
-1.809898228660597
0.4224578785572428
-3.012931542901219
0.4257215098658597
-3.9663418988715
-2.443443940161413
-0.2946422204626302
-1.778361068854486
1.919895562994079
2.553136179653821
0.2110997073503998
-1.800220281306639
-1.288585616542343
0.2581661530872408
-1.953348784026412
-0.9657524614239976
-13.33656601095684
5.980218435693105
9.766936664368863
4.159490224387726
-15.72544227029312
9.423221884981388
-15.45480255567412
19.49470091630307
-36.11305872330904
34.79127710754033
19.34111856519256
1.172557363843715
1.423875848351993
-17.40447692583149
32.05989320292764
-44.25151494874181
9.266641748974793
-19.40593687974076
-46.8375695382382
11.16281415115732
2.243184855319711
12.37592490398714
7.806405222026414
-5.387827833343922
8.856424445943279
10.86194044594656
10.56293304123631
6.895093100657157
4.986321391691241
-2.015729808624948
6.728957537840945
5.043882380513099
-0.6553567322408858
6.834576576652823
-7.094195371739124
-51.64517788592377
0.4195801279414949
10.12419596904191
1.226013666400913
5.034559956230304
12.34230308330718
6.368450040557162
-33.12194711114925
288.0108965323105
253.9141868400989
-60.30350669938935
-46.18362637440809
11.93511059961576
38.31913432484185
121.6009460813812
-163.8556088301773
577.1009379609446
608.5932741604323
464.7317020374474
-100.6194499196222
-314.7290040390921
605.2751962562194
-452.2019550836309
11.43461098202224
136.321445522484
-431.9697667177192
14.21931481124957
90.84105304782372
-60.53159071977512
-80.37556076832952
-78.42091109224482
-5.149528702502135
-94.18033077893783
7.590519602085712
-92.15932432547289
-71.09533683653352
-123.143967416468
-71.46831623467779
-72.52165021646279
-62.03921004267979
-48.41254342751421
-155.670415768519
-79.18040002983267
-148.3332172929725
6.781455149770493
-117.6003995666672
-137.0551183163298
10.29498335292357
-120.9892706516468
-160.264326691197
-293.0099819499727
-127.5918241524252
36.35925766371955
-373.4732042441009
10.47025215024557
-358.7518360577846
-12.6888595681271
-445.9992882976894
-193.1962051332756
-240.2349653619343
-266.9356305064385
-47.67771706858128
-446.795498369848
-209.1031370377668
-509.5023060607756
9.272990507314951
-407.7777200473044
-513.4539592546145
12.4178432124964
-432.8962783567995
13.59778672958488
747.3442683900321
10.28161133809192
347.8920555139548
540.8836157620509
11.83728122589858
419.7875454644129
11.548043681373
122.818892395354
1292.137933488415
943.2533156169251
679.8793430926731
462.4939762789204
313.4409472452888
1520.731080065792
28.60764243973057
11.30399552238571
252.3533624053324
-93.48606349986871
13.66155782715957
663.542228347678
13.57379899717861
436.9961944196827
10.2254565558884
185.2776032713453
380.5040652462557
11.51579359371519
337.6295982201183
11.57074036770086
116.7243449276968
456.9720821520703
444.1830145256701
384.8600827307363
293.8074244328512
230.4818213883256
658.0817271425619
53.97537621958532
11.07302406637158
334.4147308173339
222.6579513877275
13.38513636379315
470.701378391263
