0.07366825176453809
-0.07366244794804921
0.07400131083858433
-0.0006535137628531679
0.1088166933146324
-0.1086578950995789
0.1092998643764705
0.00189645681157242
-0.12090161868699
0.1213441239253082
-0.1211637856426203
-0.01925536684696535
-0.2536084916053919
0.2540281467064938
-0.2542494204468879
-0.01909579059987287
-0.1347285925813704
0.1351321604270281
-0.134955591792136
-0.0194506608313462
-0.1993697908556076
0.2003087507703046
-0.2001539325045336
-0.02197609521566612
-0.2112243213241292
0.2112338346566421
-0.2115762039035638
-0.02088318346046887
0.1469319449982293
-0.14650121309287
0.1468275442600382
0.004105350728322982
-0.2352727808715245
0.2349379749287625
-0.2352562075751226
-0.02031444546527804
0.2815558133629597
-0.2812320767328949
0.2814775871845043
0.001762187158566345
0.4185572067416567
-0.4181313580078247
0.4186652859674633
-0.03270257431931031
0.2877374576728881
-0.2884248034545724
0.2883509233776635
0.0009043005125592814
0.3332978670396517
-0.3331951784816698
0.3329224600808481
-0.00645638067297177
-0.4220244069467284
0.4219065068112121
-0.4213356527496632
0.01945975787425299
-0.1533430211350762
0.152571505948772
-0.1525036001310938
-0.02030464250924053
-0.2565959752432929
0.2569902122281413
-0.2567133622684993
-0.01949345235006917
-0.09426805422734064
0.09422667154015499
-0.09485795791707072
-0.01666205671614578
0.3321085158445252
-0.3324942917698314
0.3321843654013905
-0.006711311222364178
-0.3664846276613425
0.366708629252075
-0.3669113274945545
-0.0001182383846867681
0.05984526010734711
-0.05912183842626976
0.05951127462345217
-0.001668752910667417
-0.0583117671758308
0.05742848497125951
-0.05777890209832517
-0.0139106133217877
-0.2844387171173188
0.2846591540518028
-0.2850556934700142
-0.01629240549809253
-0.1913351807121531
0.1920065471116195
-0.191488313029812
-0.02141526219475617
-0.1720746058507892
0.1718696898917712
-0.1716657989831667
-0.02144122554241532
0.4179848714453803
-0.4184122669141566
0.4184207246521353
-0.03320523003822319
-0.3021365706400455
0.3018351020091183
-0.3017504509021103
-0.01400969810766293
-0.4035940645775579
0.4034760174420866
-0.4033635393865088
0.01138506447831524
-0.4139104085536699
0.4144123228064305
-0.4137002561645562
0.01603938616198269
0.5558044989922981
-0.5554428494779537
0.5557420929701666
-0.120398671316436
0.2168573675929195
-0.2169546635193831
0.2164625440843977
0.005686631996360957
-0.1245148596865726
0.1235409743329302
-0.1244018276691511
-0.01901414683051603
0.2271200154426235
-0.2277769778702397
0.2275416861516247
0.005650080745107193
-0.2626645772368348
0.2624377432561988
-0.2618267879188538
-0.019144430370972
0.234171388443416
-0.2344757819999923
0.2348051541234946
0.005037132010765282
-0.2940497588184747
0.2934916089970888
-0.2936381898804592
-0.01524698668996328
-0.1420210926956241
0.1415865784531974
-0.1419721598191636
-0.02029891727440191
0.3141431453597885
-0.314229483233074
0.3144093294198153
-0.003201325463037361
-0.3811113024947275
0.3807990292460179
-0.3812587993296592
0.003816424450895658
-0.2435705320022709
0.243249908582874
-0.2432197980537017
-0.01996002680006961
-0.2056965420812117
0.205491360891769
-0.2053814207661109
-0.02160849089624861
-0.1764599775937561
0.1761808730558301
-0.1761403460897125
-0.02129034069484018
0.2546055770739125
-0.2542356779842925
0.2546695905508913
0.003451926468059133
0.001032699271001804
-0.0007453675882382188
0.0009223626529180685
-0.008207103784742488
0.2539486354137809
-0.2541572217150668
0.2534751318909869
0.003889668243016796
-0.4542098082911234
0.4537075646537821
-0.4544183902221779
0.03451632045235102
0.2024537936680996
-0.2026243893196714
0.2025362680172044
0.005487100632348917
-0.3302140205329954
0.3301560097597009
-0.3297216451626511
-0.00907827786909407
-0.1265743023521008
0.1261186070738793
-0.1266493557361973
-0.01937425099426369
-0.04117126864433077
0.04168104694859343
-0.04133657186444886
-0.01173743955405229
-0.0004323476991934621
0.001210735349472512
-0.0005349720480716193
-0.007659343836075827
-0.1364901446780802
0.1363429030436952
-0.1358959626852262
-0.02016313772993038
0.02771489836142008
-0.02795004782703097
0.02764853731080219
-0.00469879566177853
-0.3752182270262268
0.3752058909416019
-0.3753352010280316
0.001898747802755097
-0.1843124278141014
0.1840949964252046
-0.184747581902146
-0.02183977340724416
0.277558416617439
-0.277776637497796
0.2776336817717173
0.002063034866773217
-0.2659839751799352
0.2663102707924666
-0.2665441120525394
-0.0184376925301683
-0.1760590050632851
0.1761696388868919
-0.175896652773205
-0.0215070706199573
-0.3586021141433439
0.3585508635579651
-0.3591436855893594
-0.002160643776873866
-0.09107707827352793
0.09193119660106991
-0.09105791902309199
-0.01663745638833243
-0.2979280040673197
0.2974997711281377
-0.2977048433952144
-0.01480362159042523
-0.5046707214279986
0.5043363390744918
-0.5040066733049872
0.06523715840565268
-0.2581359973618744
0.2588130776544457
-0.2581107292216142
-0.01928215738044068
-0.3982972816103076
0.3978566743165938
-0.3982225643479789
0.009924095469835787
0.07962167523996781
-0.08022140653189165
0.07959763380939756
-5.092259056538987e-05
0.1096872172919
-0.1090380039007077
0.1094755174437384
0.002426365344955056
0.04820593934235132
-0.04736124783071436
0.04771591264041591
-0.002624585526763831
-0.1193954678665483
0.1196234102532966
-0.1197782598245445
-0.01834749009540225
-0.2908196292606353
0.2914597074227778
-0.2912603529659471
-0.01537446546129003
-0.2745489172277738
0.2740779374531843
-0.2743422977898939
-0.01804864923020667
-0.2248053163836673
0.2242433044788567
-0.2243166783186157
-0.02141831020455169
0.08816891391138966
-0.08760817778253445
0.08805808096403235
0.000252740952483639
0.1312044169313751
-0.1303782864723678
0.130983117826413
0.00407910404698898
-0.2315887278841878
0.2316310727803303
-0.2317592414084755
-0.02067305759882708
-0.4610069759018846
0.4612334720829752
-0.4607606948437081
0.03785606507922443
-0.4305776762780524
0.430895603946537
-0.4299919790021933
0.02274108095242926
-0.3757994523043844
0.3759024317046276
-0.37628914326686
0.002052941072342026
-0.3373118379906307
0.3376607660921541
-0.3376431823889893
-0.007562039863679563
-0.3061803278277846
0.3061245376911906
-0.3056214776196928
-0.01400440423271434
-0.2871410803267987
0.2870940435793284
-0.2874266774608472
-0.01643310988483621
-0.3129213480917016
0.3131935455637602
-0.3132556873687457
-0.01280416142323373
0.03110420084379121
-0.03129451127692118
0.03162225549093874
-0.004677279443393602
0.227753005232184
-0.2279524837793659
0.2277399087995107
0.005758616974449325
-0.2822111504467587
0.2819022004103169
-0.2821574280805101
-0.0165407603619423
0.2883179713808462
-0.2879599106128055
0.288300067200736
0.0006209598382977024
-0.3671028927903359
0.3664606330804996
-0.3671965039492757
-0.0003352813203523543
-0.3383141107263163
0.3390812999290383
-0.3388030978650394
-0.007511620861518437
-0.504857632759521
0.5048032009415361
-0.5045303539688398
0.06561760601889587
-0.1960871475052081
0.1962978526729204
-0.1955441689476629
-0.0214139864072086
-0.3157157561084128
0.3157971840467552
-0.3160632972494326
-0.011488319352221
-0.1316315168363955
0.1321528286538668
-0.1316056238564522
-0.01992880307602658
-0.4009504343319989
0.4002424114587519
-0.4001655579971526
0.01032943410771449
-0.1784465583624171
0.1788635684119472
-0.1784311482785982
-0.02107139447251064
-0.4455542135747896
0.4452507628388966
-0.4453998310101245
0.03036570755275477
-0.3410723055962046
0.3412014394885106
-0.3413178428508128
-0.006508774933840945
-0.3180164871623395
0.3181729307727335
-0.3174897936861967
-0.01152112064592739
-0.2143585666772319
0.2147953874880962
-0.2149706117383603
-0.02157683586067968
-0.2178109417301286
0.2173696042767216
-0.2179254802833529
-0.02152504506144593
-0.1108351749530476
0.1108265037433618
-0.1114259070933237
-0.01864840811352603
-0.2202468082507403
0.219724258362378
-0.2204255310747936
-0.02082292451477769
-0.4534801142352126
0.45321126165568
-0.4529208910813237
0.03364441824038448
-0.1257004290274527
0.1258417314301147
-0.1250958204369212
-0.01870262207631172
-0.3231227763121612
0.3227522839425858
-0.3226769578704989
-0.01061645355395666
-0.225064347769906
0.2248228109275998
-0.2251852048317806
-0.02148873735948332
-0.4932240509243223
0.4926864327694121
-0.4931457892410566
0.05745960129737233
-0.3118814285954374
0.3118661961171619
-0.3117524652622881
-0.01271653153123463
-0.03751195475586025
0.03802628226170311
-0.03763292736273571
-0.01139438792268669
-0.3358818113876066
0.3355738935741585
-0.3353811475341232
-0.008316476603889235
-0.3167315792517877
0.3162146958652459
-0.3166592475880667
-0.01173289744019648
-0.5835037117638258
0.5828050710337348
-0.5830627095916679
0.1327292992730348
0.3044341242954017
-0.3046164367817129
0.3048564304606946
-0.001440540862176093
0.3323118574100906
-0.3324342576357527
0.3323041757930393
-0.006250584614547472
-0.004492360668671796
0.003902922354313168
-0.004417955000333668
-0.007892751934456823
-0.3073168748814054
0.306915573090258
-0.3074535283248019
-0.01383065867984792
-0.07730983772726036
0.07716523739121875
-0.07653440964317401
-0.01567905947992719
-0.4517654442426303
0.4515890180297791
-0.4515979769217486
0.03326414915877515
0.03387991791205617
-0.03333342852637931
0.03315506627457151
-0.004094104011391401
-0.1028878411513851
0.1034518403416428
-0.1036258756147505
-0.01756748895880006
0.009397078784678584
-0.009331120379268637
0.008826654074012367
-0.006758340602109871
-0.217909632269648
0.2172750841216776
-0.2175458121096706
-0.02109849944596915
-0.1808662493099545
0.1800804886754752
-0.1804359228661226
-0.0212436012866135
-0.126256057052801
0.1263626676276089
-0.1258198993631685
-0.01937311727929266
-0.02367105583730871
0.02384465184979546
-0.02381388523041188
-0.009830278964210524
-0.3485281466903441
0.3475499544172921
-0.3480697508714161
-0.004900978765913737
-0.0263924266595214
0.02669426795358934
-0.02645929833707796
-0.0103719600005749
-0.4111811253212206
0.4112420596646242
-0.4110471983418923
0.01519675986291285
-0.3131302672315917
0.3128206622486009
-0.3126152976887291
-0.01253536971802584
-0.2804705746906219
0.2804052112620365
-0.2810512205361633
-0.01675609360796519
0.1600220678055322
-0.1600235112698418
0.1600267144215909
0.005228707476822903
-0.06686358992941206
0.06640956134467195
-0.06652178454475853
-0.01478791932810518
-0.3447195758865281
0.3446381193053596
-0.3450614498672802
-0.005916960077894665
-0.3786589811757433
0.3787158541596987
-0.3786952567330026
0.00294498102267583
-0.1696118010592257
0.168867368101967
-0.1689425740762827
-0.02125446753831881
0.07912510212556106
-0.07900544677761023
0.07847752872450495
-0.0005233914792508122
-0.101074332634838
0.1017517791416053
-0.1012379340794827
-0.01761311248330393
-0.4817770787050939
0.4816449144935542
-0.4819471568533072
0.05041459235104906
-0.1910068037483926
0.1907077645399231
-0.1909849920139631
-0.02123929814477592
0.03378522066289083
-0.03417467133748285
0.03421340812046889
-0.004866732362193686
-0.1157304457205119
0.1153458519415773
-0.1156626150805891
-0.01806244886673635
-0.2726636186586953
0.273367452946382
-0.273389360797027
-0.01735552456594179
-0.2794725586920284
0.2803754448670651
-0.2801198966235389
-0.01668073892243249
-0.3796651189383466
0.3793927491287712
-0.3796734522781721
0.003763728275419747
-0.2883418111800499
0.2885749530923065
-0.2888764639712855
-0.01569289207037858
-0.275367755624646
0.2747640023854523
-0.27498588359636
-0.01775694145464911
-0.4007147857178872
0.4012156770329397
-0.4012767475752849
0.0106152792297412
0.01803470869493949
-0.01805704245429877
0.01736768184702805
-0.006129359821360553
-0.3868664880331577
0.3868603642868753
-0.3867503870116908
0.006325565274488783
0.2245805475763095
-0.2244924781522356
0.2247888233006086
0.005636927079612939
-0.01806241652053735
0.01761430991197472
-0.0176812953249723
-0.009849330674680384
-0.3054009226812477
0.3060532341188502
-0.3062071451101917
-0.01354148596722547
-0.1304187155568677
0.1299632936860823
-0.1302615336339829
-0.01938900191366177
-0.08042575106798845
0.07990562990871415
-0.07995182883560174
-0.01608615343579592
-0.008423244811924094
0.008315975342225685
-0.008933803141218697
-0.008505723780386495
-0.3463037794139328
0.3459965910076684
-0.3462638468276613
-0.005840814636003915
-0.1323473166255441
0.132190038081201
-0.1324612171836895
-0.01987829663016042
0.3297806739515455
-0.3297555079061252
0.3297970181649456
-0.006511326375949363
-0.1775886680482475
0.1775631928936049
-0.1776279492945182
-0.0214190792876545
-0.1672689862928857
0.1670503189006307
-0.1665091356047186
-0.02101361710271553
-0.1547386127290992
0.154981556076644
-0.1554828353965139
-0.02089288424735101
-0.3508544956441452
0.3513070173973876
-0.3510022493275985
-0.004611498232884028
-0.1186783297178269
0.1193652699890884
-0.1195694668501972
-0.0190939301921609
0.07779791380844138
-0.07826936648907742
0.07794848477481492
-4.499349142184324e-05
0.04608751619921368
-0.0456795770159636
0.04613041511633877
-0.003180870226130833
-0.009878585306507509
0.01037093366570288
-0.01014712753350196
-0.009027221475676587
0.09224457966340385
-0.09308552993304781
0.0929522776149683
0.0008542840350120212
-0.1863311832056355
0.1867391141830022
-0.1861331150659344
-0.02151302576435292
-0.10918956131845
0.1092942811156481
-0.1087612524122168
-0.0178085442329079
-0.2768236786102748
0.2766614753825645
-0.2775841865267269
-0.01712179895915224
0.2188463135902693
-0.2189732215946125
0.2190913644821517
0.006059638894330143
0.04550938750386457
-0.0457121263310533
0.0456830549511212
-0.003574749441069306
-0.03530368619560412
0.03472545291511579
-0.03465048517264898
-0.01102633651519438
-0.1766689114515234
0.1769676853257257
-0.177319215078725
-0.02172068355420071
0.008102448653795537
-0.00858723072487407
0.008061928492386371
-0.007486549064564881
0.01970891054825668
-0.0196282136641421
0.01929271268279318
-0.006248968657200248
0.09523946011549553
-0.09604193239434572
0.09598965213779695
0.001697473054361637
-0.4749522196690222
0.4749772282687734
-0.4743320762048986
0.04629197037811429
-0.3386635636363913
0.3384268585868744
-0.3379623081418017
-0.007424408806901236
-0.3697031398458833
0.3691386189100927
-0.3690659709119496
8.542849650215492e-05
-0.1536002776541839
0.1537478933947937
-0.1543438313339662
-0.02034348633824697
0.1979298770044379
-0.1978773446966098
0.1980296938404355
0.005459697203746755
-0.2412300481793062
0.2408570950901782
-0.2415546759276823
-0.02047454635301554
-0.1062873851985004
0.1062543033796473
-0.1061893810068065
-0.01785554817067525
-0.0398990205119281
0.03991166262821982
-0.04027584392296106
-0.01163077663336389
-0.3837299553171744
0.3830109260853771
-0.3832510941526499
0.004545707888601514
0.3950699767247237
-0.3948455943473899
0.3950810855669417
-0.02367507057302671
-0.1764239239093057
0.1767320631270011
-0.1763614848070628
-0.02118784125042887
0.1194001526206074
-0.118625512239842
0.1189139803261372
0.003038104018094483
-0.0448857581306918
0.04432657535988168
-0.04452021756879038
-0.01212563281250426
-0.4623320721988607
0.4624408491524483
-0.4625550270859298
0.03913903615637371
-0.1852754140748777
0.1852261585137713
-0.1855573901042857
-0.02179648726125906
0.2830331944814231
-0.2827286073662128
0.2831685187989825
0.000810201587639224
-0.2809362687922706
0.2811360121573007
-0.2811992235774158
-0.01718026385092936
-0.2973984070330298
0.2965706868320023
-0.2973360413883888
-0.01453713116768489
0.2620848460014585
-0.2624796222379093
0.2620807166456832
0.003213958825456223
0.1261490662021882
-0.1252595037081176
0.1260978222538798
0.003231485013528213
-0.1964623108160101
0.1961069871523977
-0.1965050273974044
-0.02158147051630123
-0.3172072204873035
0.3166950023083501
-0.3175211505109115
-0.01146652303306032
0.5608691821409038
-0.5610265619339794
0.5610958513943247
-0.125410885958386
-0.1737090877819344
0.1742182886750487
-0.1738153385900925
-0.02154742209453805
-0.3324218236620141
0.3327615623263898
-0.3323989735192116
-0.008599463014930834
0.05249840777287329
-0.05190117352208358
0.05211823070463832
-0.002651042369916359
-0.007920753904418661
0.007738905494282991
-0.007810294041159133
-0.008459200306306001
-0.3802843885720995
0.3810513185714501
-0.3812619595826785
0.00353598958339726
0.05743151850538875
-0.05804019976208941
0.05747653743167234
-0.001827614814632606
0.01785413385638699
-0.01824394438890003
0.01823815243746077
-0.005700608206911997
-0.1718546326404343
0.1719181301493399
-0.1721985905099308
-0.02137056747270819
-0.0552512062769351
0.05537369600083409
-0.05504091379967666
-0.01313841832479651
0.2517030301714873
-0.2520076591640845
0.2514223718224292
0.004188918175099165
-0.2683462389969983
0.2689780088383647
-0.2690113245076598
-0.0183077406100448
-0.3179571409613524
0.3188524367461139
-0.3187750513167845
-0.01102191259044642
-0.2920335895039556
0.2919003339215907
-0.2927046046006326
-0.01599545129035359
-0.0731004556457604
0.07273252263676923
-0.07249363089493142
-0.01523974399509393
0.232034339133268
-0.2318012393428693
0.2312560298933654
0.005243184827792522
0.06259113993284653
-0.06241680974247527
0.0627118928714602
-0.00211935103001319
-0.2616883327819375
0.261316198111616
-0.2611652597524554
-0.01848955349098992
-0.2378182917792729
0.2373839427963117
-0.2376506476435407
-0.02090132148931222
-0.06088901602788695
0.06058899551136283
-0.0604780906440161
-0.01434897503697301
-0.3980992173459101
0.3982875076421201
-0.3984825298387199
0.009599741238341872
0.1345849246871464
-0.1345842175623204
0.1339155507293941
0.003554272988221757
0.4459900466433144
-0.4464198217348683
0.4458700833353936
-0.0454925358938227
-0.2919571828748299
0.2918622350263165
-0.2922921383200102
-0.01602864003576967
-0.3478618070708114
0.3487269869070332
-0.3487577692094234
-0.005339988855734459
-0.4168750674120807
0.41699522346885
-0.4168599729120387
0.01716840693707557
-0.1567989403733518
0.1566674860824682
-0.1562353629846761
-0.02097328244825764
0.0489733437116506
-0.04943031574697688
0.04896088596742642
-0.002550777470593851
0.06162847955150325
-0.06129293152765417
0.06171423303756904
-0.001415552889368101
0.2925201705496219
-0.2927675358730971
0.2928669867221414
-0.000346729543090888
-0.2942208509365171
0.293770563385619
-0.2939265035486415
-0.01526858138602806
-0.02375034699168592
0.02416450353590099
-0.02393839725440347
-0.009998165297284501
-0.360945829972555
0.361141153951662
-0.3612308047544838
-0.001730939660922669
-0.2598867740010629
0.2599323737550526
-0.2603437107089944
-0.01878014457351881
-0.4319843174304702
0.4320051035738535
-0.431120588533353
0.02353235069000814
-0.3644583066669557
0.363873391926974
-0.3642269208118437
-0.0005941310034899374
0.1928736664170508
-0.1928058937920051
0.1928873791347431
0.005641978828979071
-0.07835107000428768
0.07853200619606868
-0.07847608850041221
-0.01530756552488198
-0.3881583592772735
0.3890583368103737
-0.3887888856400201
0.006838158626998514
0.1337625591169533
-0.1342670016660338
0.1339865618490216
0.004296130722220092
0.1202785330450957
-0.1196486236644629
0.1200144756638941
0.003037342184708763
-0.4753421266855597
0.4752966417305816
-0.4752889931577867
0.0462138827383807
0.3716261264107673
-0.3717339627979377
0.3718062880499678
-0.01626373578196901
0.262146220353663
-0.2624274239869673
0.2622616716514405
0.003163263263910478
-0.3041309997914193
0.3040467327986279
-0.303901962209369
-0.01347230848265757
-0.1636516670504738
0.1628523553344577
-0.1631021121564709
-0.02129959026690518
0.137020384409276
-0.1370006900614009
0.1370134211413502
0.004027731277392445
-0.2969936924603482
0.2967259837232856
-0.2967177133757909
-0.01463309694524815
0.04111270739577344
-0.04073858504931339
0.04095107974217753
-0.003488592898665634
-0.2343453192563551
0.2345654625220143
-0.2349380981488875
-0.02090328619650782
-0.2817649178344238
0.2824646074595805
-0.2816215535836976
-0.01689970359103138
-0.2079531602620655
0.2086304618024203
-0.2081530238948339
-0.0214819243080825
-0.138419606225142
0.1380418147210576
-0.1382297834464833
-0.02002270750225999
-0.1796690428068186
0.1792313172589138
-0.179714295676211
-0.02137869964656317
-0.04222406316681283
0.04175381582946504
-0.04141545334041202
-0.01244046955768356
-0.4540910798374388
0.4534377126739869
-0.4541343588468645
0.03440634273025431
-0.3271901618623604
0.3267060103818809
-0.3270440560368573
-0.009613958801697695
-0.05286541025805924
0.05315472897621046
-0.05380139782323046
-0.01294192370609593
-0.2738225358483767
0.2730189208767727
-0.2737510664640966
-0.01813032186857286
-0.04862222897621764
0.04836752129601495
-0.04875497198052362
-0.01239544611168143
-0.2097352413118792
0.2101598219019451
-0.2100033970427992
-0.02092488240429793
-0.4299192848058064
0.4295927312471894
-0.4294787710559943
0.02231486034759726
-0.0833691477531147
0.08282147043336273
-0.08315542599246649
-0.01627998966618729
0.291936310898425
-0.2919669126299403
0.2920564002282611
0.0003890724980461828
0.1221287238495902
-0.1223772819067125
0.1219463851796092
0.003370194565773148
-0.4079237721055193
0.4078462065313961
-0.4077766692964053
0.01349857121957546
-0.2196309642815953
0.2199683559292626
-0.2195310925930264
-0.0213515906076473
-0.2401651022035407
0.2402149148548032
-0.2407556877187186
-0.02059352637439333
-0.2628281200883454
0.2624437720831103
-0.2628031897061864
-0.01906003381874939
-0.3700826124669336
0.3698371550350522
-0.3698070829108289
0.000312643012727111
-0.5840455527501731
0.5837416693152944
-0.5837841287445553
0.1337084933493694
-0.101550242523375
0.1015972706919672
-0.1020717392283976
-0.01726898505002558
-0.379384989076202
0.3794796238131342
-0.3791076236192721
0.00338287400906636
0.2081243498567902
-0.2076828124279371
0.2085518122038411
0.005448690843825082
-0.1664467108055396
0.1667529739167486
-0.1666245792780348
-0.02113008051854167
0.02590643650289087
-0.02531881472716196
0.02563061255246089
-0.005585658165859989
-0.3869415763271422
0.3868939565288994
-0.3866022392434731
0.00554896200582725
-0.2501284794985176
0.2504502689086328
-0.2504655991613436
-0.0196113248722757
-0.2702691651777297
0.2702113754952921
-0.2702917667128186
-0.01828428095292003
-0.260443145166259
0.2608882854127706
-0.2610541029841845
-0.01874111370762101
-0.006528815582115259
0.006734998204561918
-0.00710805883537028
-0.008738045531605327
-0.07040918565331358
0.06990512479747782
-0.0702123920364725
-0.01439692461321742
-0.0407092965614929
0.041530423962143
-0.0412421617926665
-0.01176421289197045
0.30328518262465
-0.3036851226303426
0.3036738696510553
-0.001373976289674721
-0.08423096366290773
0.0845114279690465
-0.08440703281739385
-0.01608243227892587
-0.1970666797112387
0.1961557446092495
-0.1969825936259954
-0.02154017917036846
-0.2449701625634321
0.2450629223296257
-0.2447593418316272
-0.02032863094016987
-0.3643966518880165
0.364534414814134
-0.3637261925152473
-0.001385987040600211
-0.0613088792566088
0.06074404092375629
-0.06110952178555334
-0.01394048259143139
-0.3865574526947582
0.3868847045948978
-0.3864663898700084
0.005565903118146178
-0.1138373708503556
0.1145439477442564
-0.1146523666597276
-0.01840108679688946
-0.0370823995356215
0.03696272764039698
-0.03779357622194163
-0.01145957165900012
-0.4012339106940268
0.4015074572641347
-0.4013890172153106
0.01098681709366648
0.1544240820948179
-0.1541324910622736
0.1545156968781364
0.004865564014538201
-0.2509437974931197
0.2516305838065162
-0.2512161834210972
-0.01990034218139425
-0.4319433134221449
0.432165936105986
-0.432166010302593
0.02397498220988549
0.005941516036816237
-0.005307071094754421
0.00546723147990125
-0.007558132395231316
-0.3502719422448644
0.3508504173544353
-0.3505282291249852
-0.004503322491836105
-0.3294806992170954
0.3296944685306086
-0.3300272639160352
-0.009304639045919643
-0.3076393137304084
0.3074756697639031
-0.3080249037912025
-0.01375980997949841
-0.2265242995452984
0.226093505566824
-0.22607556961185
-0.02056706850235373
-0.01433840531181318
0.01473954708264961
-0.01487314632723529
-0.009010639918969549
-0.2361763260530974
0.2354571271934659
-0.2362897285324784
-0.0202993278837103
-0.210966857683552
0.2111341821479324
-0.2110532100389048
-0.02134047919576126
-0.1261991860640096
0.1264403185577193
-0.1256902252206865
-0.0186387946626021
-0.1035335132767938
0.1036057948423446
-0.1037322524553651
-0.01760928692602474
-0.02016260667724157
0.02070335367925994
-0.0200070051845521
-0.01004881135506366
0.04233104790946999
-0.04218393344206008
0.04181897156814957
-0.004044560887922431
-0.4039866990766576
0.4046396731577221
-0.4036801534473487
0.01213384885670764
-0.06713576318226784
0.06696168364758905
-0.06713941825363985
-0.01434318920486997
-0.4238188100202242
0.4238084740751607
-0.4237539528176118
0.01966895466946007
-0.2619654253002763
0.2611009186659201
-0.2613295650631516
-0.01911693249567115
-0.2291802993941749
0.2287017463335099
-0.2289795221628315
-0.02050614958973453
-0.3358149578854107
0.3364107244439997
-0.3361098313769431
-0.007970978791374605
-0.2077497903329898
0.2077470318938238
-0.2074871042125211
-0.02130554061128434
0.005885039287761186
-0.005990073480834149
0.005990695713279034
-0.007536696437862932
-0.3647431496885462
0.3647032916308983
-0.3642654975725764
-0.0006506625987495058
0.0467961321763939
-0.04653607272458869
0.04628017239828452
-0.003217942278229871
-0.2629325236044426
0.2637311445356848
-0.2632282150942872
-0.01842931465471304
-0.3403138158952553
0.3395880989389576
-0.3402226289899333
-0.00742254787188153
-0.3422515657400813
0.3423392598597842
-0.3428322862413721
-0.006647056859607545
-0.09596671719372186
0.09577458387872483
-0.095505346006852
-0.01751153119159353
0.2168932335315715
-0.2163640679783962
0.2166976588096931
0.005504590729429273
-0.4221709875263088
0.4215052005900508
-0.4216950598001871
0.01910076901210505
-0.1188715537686418
0.1191194886168274
-0.1195453616302391
-0.01837012512891367
-0.1941388357225547
0.1944570623828393
-0.1944838609575714
-0.02152245432774639
-0.4329759854728584
0.4334521163395256
-0.4332876865085961
0.02441810987281593
-0.4121540983299994
0.411683998109488
-0.4113222960652902
0.01512434743496418
-0.113024116810639
0.113892792473248
-0.1139571900919183
-0.01853593164778059
-0.3462067805155988
0.3464116207683358
-0.3462905919547459
-0.005953804376194406
-0.3038700112370246
0.3043246308819112
-0.3038935160148469
-0.01377697291204692
-0.1175387300571285
0.1167799857131257
-0.1176497773008796
-0.01903752249864011
-0.1316945275305728
0.1313988629294088
-0.1312352578023109
-0.01988021550008203
0.1014569029220945
-0.1013200963701981
0.1010749989797083
0.001787754444356383
-0.371966435227638
0.3718857676676118
-0.3716953961308735
0.0008251308896064612
0.2704493689951744
-0.2708972954151707
0.2708067906356482
0.00238178794899325
-0.2378877854619274
0.2377328830632688
-0.2373650023685294
-0.0205155220738799
-0.1609321604602788
0.1614210699681423
-0.1608421277858648
-0.0212071945005838
0.005206534896888909
-0.005196477848012172
0.005138558672155479
-0.006865858876075945
-0.5489875203077828
0.5490598095446377
-0.5492442599708638
0.1004836953508527
-0.3105173878154799
0.3104965425158834
-0.3097588545026519
-0.01244302547185006
-0.09954823571960224
0.09904082634187671
-0.09910222999874936
-0.01760345809454432
-0.4968948557166934
0.4970238235965591
-0.4969315735990904
0.06011985441903984
-0.4165735724492747
0.4165753176667553
-0.4156473362668588
0.01647727673331839
-0.3415319771547892
0.3418278392484947
-0.3416287569576483
-0.006918926519314743
-0.2407882654486731
0.2405662899213316
-0.2408855655898369
-0.02053798884850747
-0.1385376618718321
0.1381604670274704
-0.1386998044145639
-0.01961826538519974
-0.1574140209258975
0.1576902331135103
-0.1579103356780447
-0.0212314268456011
0.294777881297329
-0.2952602958491001
0.2955312015711601
-0.0004031896797896844
0.02245176590939695
-0.02224226384467654
0.02234249065399389
-0.005189022232839249
-0.2670320125023691
0.2672244893086901
-0.2669412348946918
-0.01843861440218697
0.2362859687047593
-0.2360747328917954
0.2361960349973386
0.004912513485750048
-0.3251446455126379
0.3244650299085612
-0.3245271843944341
-0.01025189765642447
0.2008522684555118
-0.2012336986103554
0.2012538688705855
0.006321516954270327
-0.1136454781728891
0.1131263110460254
-0.11320042643043
-0.01855716966119266
-0.2496023685414283
0.2493081505924893
-0.2498999621719517
-0.01955742800988957
-0.4461887315547676
0.4458678256968987
-0.4464840856101461
0.03011624177233274
0.1347214261390333
-0.1342374592424978
0.1348931019450464
0.003693839849471425
0.05787790854258772
-0.05793901142650637
0.05818558898146876
-0.002415232515855051
-0.03299620358832993
0.03236408324790442
-0.03245235268095227
-0.01160524181341862
0.2318027355204426
-0.2319531594393631
0.2319022597809875
0.004777998251216217
-0.3579460661280673
0.3579153367294561
-0.3582421734161893
-0.002581423926900803
0.1867431546315662
-0.1861441067017728
0.1867900970225552
0.005625159314770593
-0.3067486639234816
0.3068028426648012
-0.3075832821826247
-0.01352158873765307
-0.07138206454951011
0.07098536511890445
-0.07122362406989328
-0.01527880591650832
-0.05754967240992929
0.05796705616149275
-0.0581181209206828
-0.01381046736529114
0.3040446557391778
-0.3039491429438704
0.303583519836523
-0.001097227326067969
-0.2034533460204438
0.2029994534805115
-0.2038358088504391
-0.02188834299215227
-0.4843687130481176
0.4844814580198142
-0.4845431285853551
0.05210536479047533
-0.3672269171301797
0.366838409878371
-0.3672650594839594
-0.0004705362640124844
-0.3573933794395735
0.3566127201538358
-0.3568734525718831
-0.002522899526246454
-0.3397506054127525
0.3397094334773463
-0.3396658653406899
-0.007026798078785357
-0.05019072286853188
0.05099603205419942
-0.05036737062625998
-0.01260259154005076
-0.3710942747699275
0.3705718714377448
-0.3711587641713688
0.0007268549255732514
-0.27407264068244
0.2741201248423981
-0.2740347372431684
-0.01752589722846648
0.1714172369755771
-0.1711682047462763
0.1713563631751261
0.005174169799978219
-0.3099737069642779
0.3101001948275866
-0.3092470901999657
-0.01293205985620928
0.2817194820836128
-0.2822930270625096
0.282268938882806
0.00108066276093046
-0.2669779246322055
0.2666931040349201
-0.2672292120898561
-0.01819916522983308
0.06693401288807838
-0.06642655280635829
0.06635266033540896
-0.0008731120522030704
-0.01799975014810926
0.01755451910463351
-0.01766898690481623
-0.009448001883226184
0.05042085143781479
-0.05112221197162081
0.05023664797691661
-0.002750573595935865
-0.03783819492093691
0.03803801852546087
-0.03839604151998958
-0.01156372810666444
0.07879628718820551
-0.07896615175388456
0.07889514215936992
0.0002892273558050895
-0.119382076896339
0.119164171928516
-0.1189097461224042
-0.01900568050441131
-0.4158405140186123
0.4150708516450199
-0.4154277264487332
0.01645339124783593
-0.3392985802742002
0.3394055974155513
-0.3396319364359573
-0.007256920052090878
-0.3425963811103154
0.3422961496189597
-0.3424404890226305
-0.006443278790866592
-0.05119336511503739
0.05093455791071907
-0.05147184922076539
-0.01263300388360861
-0.3792429776404745
0.3788201223361891
-0.3789277441587455
0.003786053416364826
0.03495978628433249
-0.03442543110141743
0.03475110223422277
-0.004231513584493074
-0.2456093679935075
0.2458640295313329
-0.2458275723652401
-0.0197644582005953
0.2130110788227322
-0.2137201958509934
0.2137359136731277
0.005464644635701898
0.04073881306906292
-0.04107997005110736
0.04117962246303565
-0.003429002612285735
-0.07376914936247538
0.07464246275399748
-0.07455620063169506
-0.01554431529082851
0.199984930467654
-0.2000430077494878
0.2003505916186002
0.005426296667436282
-0.137418065704944
0.1371883582640091
-0.1370738358100929
-0.01954240200657689
0.1681552150441198
-0.1681483144132251
0.1682572180769751
0.005357353310544926
-0.4151472391184371
0.4145818139140603
-0.41523158422684
0.01669996291221713
0.2939308821248803
-0.2935441952711024
0.2937710556156175
-0.0005033446952961428
-0.1958338956483722
0.1960764738150221
-0.1961051742882882
-0.02111029176657908
-0.263350971999831
0.2624219239375648
-0.2627563958875614
-0.01923165015497076
-0.3040221469712787
0.3047739371440495
-0.304726318419622
-0.0139933062329934
-0.2663056597106994
0.2666608623037727
-0.2663158957108808
-0.01894804011491925
-0.2063181471619171
0.2057776362082612
-0.2056778600282194
-0.02120282518026234
-0.3982642769136627
0.3984729567569884
-0.398875618795979
0.01032680104997133
0.419000154164335
-0.4190525865161051
0.4189659784368027
-0.03303302188374894
-0.05925568678876231
0.05939593905351016
-0.05933745517766067
-0.01398386964063693
-0.4366237937681168
0.4366535771702346
-0.4364429624204405
0.02537591982246216
-0.5121621596994069
0.5120383024987382
-0.5120867695397534
0.07094336081028278
-0.3609345369141432
0.3609336885970896
-0.3613713406994994
-0.002232803230559223
-0.4399598486505302
0.4398671631410139
-0.4401686888750538
0.02731988726486595
-0.3710233172734124
0.3718215677198801
-0.371868785885728
0.001301206703634108
-0.2416786573900281
0.2412287771851893
-0.2413879384810051
-0.0206698393045048
0.2576739800817907
-0.2579197494573759
0.2579024253575848
0.003356627836936074
0.04255421339647485
-0.04251305361995056
0.0423568198914801
-0.003302213955119643
-0.2011744616408098
0.2012288426616679
-0.2006672777255696
-0.02162144029417576
-0.3942598629671384
0.394772960861755
-0.3945562816741626
0.008357547437233366
-0.2893778077952569
0.2891568348804393
-0.2892767322265077
-0.01598003613009209
-0.02909666798501006
0.02867524490443667
-0.02832879162315548
-0.01118528060925061
0.374432547013819
-0.3751333118988511
0.3750196502244812
-0.01738977340783214
-0.4176880021351186
0.4174151791644672
-0.4173812365823656
0.01756512849196192
0.03737204959145685
-0.03735543110868072
0.03753441540760023
-0.004067886400266923
-0.4491316182881556
0.4491543688581394
-0.4495011649946505
0.0323778226649685
-0.144528453790785
0.1437432225899075
-0.1444428226353355
-0.01991066782488779
-0.04254789692781922
0.04306497606998228
-0.04349886386852394
-0.01255089918980266
0.2370563355875399
-0.237610120732614
0.2377168408565698
0.004700439391088222
0.1752315225379243
-0.1747783491326899
0.1748139420463337
0.005134276286828166
0.0230231892509771
-0.02310125801170277
0.02288663480623911
-0.005980187439243535
0.295752115243842
-0.2959327958667383
0.2958816016505897
-0.000510250667633733
0.06790756382723449
-0.06777977374492894
0.06828618021117536
-0.00155228481471047
-0.208275668959176
0.2074352792879808
-0.2074128417341175
-0.02167267720223412
-0.3893048208887644
0.3886276583971986
-0.3893923307453646
0.006263742600287491
-0.320073234217886
0.3198746740711792
-0.3205323119791436
-0.01084647850440532
-0.1434762881311958
0.1429253703476516
-0.1438068996685605
-0.02041253603396967
-0.3635327652075648
0.3636868288003013
-0.3640127631765551
-0.00123414433843838
-0.3747913843486579
0.3752508267674061
-0.3749943991961092
0.001904146954463877
-0.3646474759241483
0.3638527092783656
-0.3639970902553443
-0.001085765362713432
0.005341341740343381
-0.004979316251075912
0.004987732022728067
-0.006865761207413705
-0.2237754990463909
0.2238063523719064
-0.2240951160418262
-0.02090548404350137
0.2378439572805508
-0.2378973932986369
0.2378956540667665
0.004841437581424391
0.05094267164961799
-0.05160204878991845
0.05093167915101017
-0.002509987311575978
-0.1074814850852578
0.1069295861254425
-0.1066614810985174
-0.01758476721394303
-0.05002130614950335
0.04996347680017495
-0.05061685196229055
-0.01299420535628084
0.4090065427696561
-0.4084034903600093
0.4088067529255756
-0.02863966331472356
-0.1618952907038184
0.1621541722924054
-0.1623590977741971
-0.02065338828609058
0.1586300859631637
-0.1578265956733022
0.1584514689620351
0.005017989544677117
-0.3052911324437866
0.3056272420621338
-0.3055886842216042
-0.0140306302676937
-0.3451338546689914
0.3451706732771845
-0.3447890313442435
-0.005974431092407684
-0.2135194583625054
0.2142307306570042
-0.2142043946790427
-0.02087432563740102
-0.01388918124282159
0.01318362224770798
-0.0133245150058077
-0.009758137280013363
-0.4974094026177191
0.497615134697969
-0.4971754372649671
0.06008003072733534
-0.309173096422895
0.3090160564205312
-0.3096974568326103
-0.01306298064560481
-0.2213104357473522
0.2214241098534814
-0.2216657304002664
-0.02114422517467805
-0.295884384204865
0.2962676369468131
-0.2954023453895988
-0.01482553057624376
0.3134937261639036
-0.3135898767666288
0.3135294192245273
-0.003498520310104765
-0.1987525202241164
0.1990737046144904
-0.1990409912203288
-0.02126353200401856
-0.3045208112785839
0.304579860650707
-0.3040946046323634
-0.01388234413686261
0.3125178300714638
-0.312173466811688
0.3121268347979179
-0.003273056332888251
-0.4983363113781732
0.4987293767969386
-0.4985010500407908
0.0607637397671064
-0.3754300252007108
0.3749769515443131
-0.3750010014629572
0.002403726727730788
-0.2927866951916962
0.2935210247267318
-0.2934604090628216
-0.01562402885863187
-0.05919340676901824
0.05911931398920964
-0.05979004113584586
-0.01366779441051316
-0.1089408634667593
0.1082096787775562
-0.1083706981825157
-0.01842492025891727
0.04977814265049119
-0.04990644866128878
0.04999498275712017
-0.00248365641011388
-0.4514615322059291
0.4510353223196376
-0.4512210359154348
0.03341806899959398
-0.1086472930070335
0.109414947397931
-0.1095406116284256
-0.0181291869591612
0.04423388243532933
-0.04413121990967613
0.04395834845125118
-0.002981106239446226
0.07841291485625884
-0.07860983623332787
0.07834444845922464
-2.694480714177108e-05
0.09152108883302289
-0.09072586094321509
0.09161381510606244
0.001086394333602184
0.1585358589923845
-0.1593186319771047
0.1588105670460758
0.00480588331573667
-0.2338132778271479
0.2331441934911592
-0.2338228771426205
-0.02039230523905705
0.2931194799840877
-0.2937096295401826
0.2934081279534758
-7.805835711126434e-05
-0.3557823014143806
0.3562950862323408
-0.3558774994803988
-0.003252037351029876
0.01010090221009908
-0.009808979689116868
0.01017902233326475
-0.006777646619658267
-0.1446108564022803
0.1448080275880027
-0.1449701233476078
-0.02012072958564198
0.02209371588138635
-0.02252119941556027
0.02187556264811059
-0.005766112288771458
0.2490075267579782
-0.2497652093635118
0.2499578577627571
0.003850820128069391
0.06851654590522371
-0.06883196243747275
0.06847173362731231
-0.0009541930400383823
-0.2842418175543579
0.2842029050927347
-0.2841812763278008
-0.01634326583272896
-0.2304008339859078
0.2301209611636676
-0.230769499365086
-0.02118152167385354
-0.3436962930107828
0.3434653415613072
-0.343208969089848
-0.005930581052117868
-0.5035992539567824
0.5032256690723871
-0.503271158853012
0.06477120970445228
-0.05547336640264621
0.05626578086241461
-0.05576605083024545
-0.01369790330720654
-0.289552658281745
0.2894067515464651
-0.289045257471722
-0.01633123934072479
-0.1693737971680165
0.1699279396415398
-0.1701063848979384
-0.02128819660362849
0.04096831870930417
-0.04050699277586385
0.04100853458201667
-0.003912096206507905
-0.4486334430159065
0.4481566135860619
-0.4486842797285177
0.03180522832415389
-0.06167461585473079
0.06149841151085585
-0.0613504815168628
-0.01391127926205843
-0.2918426205798111
0.2922469230457287
-0.2922573620989115
-0.01598116883061822
-0.01453379365234182
0.01447786481806751
-0.01536849342316589
-0.009128827285251027
-0.06084951523457047
0.06145861666210737
-0.06178047667159634
-0.01447210958280741
-0.3840519075141621
0.3840915415789518
-0.3842574497494272
0.004871237061411989
-0.08948483272154063
0.08914047929420112
-0.08902491887428986
-0.01681914472439279
0.04138154066148806
-0.04076443843542429
0.04085116598618354
-0.004106039275489778
-0.1777464153447649
0.1773054767526024
-0.1769727393215173
-0.02123308285499976
0.1486620189443056
-0.1481813515187625
0.1480411318060673
0.004903354640727121
-0.3930083742035628
0.3928577154372189
-0.3922281988879828
0.007490189689315419
-0.03072449191781719
0.03146337986195542
-0.03069338850937281
-0.01083159323702775
-0.4440956128558668
0.4445437441984939
-0.4439124296253216
0.02903353451388188
-0.4351006732245541
0.4355660796267847
-0.4351952902132719
0.02535484582818168
-0.09722267889429496
0.09670902872725366
-0.09679498430473048
-0.01721884844783385
-0.02131938828426094
0.02132016025800906
-0.02154274880049616
-0.00982353832041058
-0.1625778597915115
0.1626880086801096
-0.1630607132821295
-0.02077743320643134
-0.1409536870670769
0.1414407627528275
-0.1415223710361995
-0.0204254677163876
-0.4856916010167983
0.4852395092817313
-0.4858480356077993
0.05231116740797356
-0.3019349514325164
0.3020964164590293
-0.3014366891176928
-0.01389863787960846
0.2509505012300632
-0.250659459316485
0.2511054289588355
0.003874583724462833
0.1713296036490236
-0.1715128445936289
0.1716917483131221
0.005968361802261065
-0.319074078079212
0.3191670262212288
-0.3190514994513993
-0.01178368532324023
-0.2987599154955922
0.2986528537224691
-0.2980025679212483
-0.01439873438535738
-0.2430341654775083
0.2423117466762444
-0.2427155027342757
-0.02061589484608353
-0.34956071604919
0.3500753517082526
-0.3500056620762923
-0.004442045350824922
-0.2873434807414793
0.2868046440469036
-0.2865737409270161
-0.01633722828682328
-0.4082358608255726
0.408126491285866
-0.4081423655734526
0.01395764476903928
-0.1247472497091905
0.124177345063486
-0.1248477585891075
-0.0187703105097586
0.03249316228376589
-0.03298467208989319
0.03280029406794514
-0.004222248603607839
0.04930135550082743
-0.04937020675294601
0.04932673099790108
-0.002509513021806064
0.4534142952734372
-0.4528074852277261
0.4531561971748677
-0.0493318299215364
-0.1975147818861536
0.1974597377752636
-0.1980386602572748
-0.02158339633828811
-0.3781549785906013
0.3776457457405503
-0.3778956238095868
0.002735557008593037
0.2895749087660576
-0.289593883715672
0.2894653593190438
0.0008768023652163868
-0.02306308516169332
0.02391868647794448
-0.02311190299047922
-0.01058300176089412
0.1412569301227336
-0.1421205601613546
0.1421120087346532
0.004419928146402828
-0.5694760099872316
0.5692830805381162
-0.5692005661607664
0.1193023609064055
0.2724716938097027
-0.2724326551878639
0.272374112129724
0.002681349887335011
0.2756687453587015
-0.2753785764696987
0.275768056832062
0.002145765973442449
-0.3169491600635633
0.3167597179439133
-0.3175804299043818
-0.01155205377014501
0.1087467591324323
-0.1088173491619358
0.1090342009580605
0.002144452319588323
-0.1154971150592764
0.1155854424583069
-0.1157576281857823
-0.01849713215940219
-0.1302015670617173
0.1298361648212409
-0.130000746405596
-0.01932270243425217
-0.1275858735796023
0.1274127405680817
-0.1276505641048101
-0.01945189083645904
-0.3556147526312629
0.3554594434714162
-0.3557973171041277
-0.003596742440173178
-0.2137684746602536
0.2143720579698686
-0.2144375948596124
-0.02129858464128015
-0.4293013775402365
0.429625321012389
-0.4295655029722473
0.02206130071550202
-0.3392386580954558
0.3384777641746654
-0.3386541708749115
-0.00712914191060001
-0.4089926061920503
0.4090330512874629
-0.4093439694199164
0.01442260886805787
-0.2812506142030995
0.2807675103427046
-0.2809064687414863
-0.0169193330992932
-0.3162961331922557
0.3159925932091182
-0.3166902666168244
-0.01159981363422206
-0.3795384020430357
0.3796029050985973
-0.3802646156024166
0.003279857110094368
-0.02674433534166356
0.026744751205133
-0.02721532982369991
-0.01067255660630337
-0.005143017155528674
0.004606901646752536
-0.004284400160434818
-0.008342460976446928
-0.3872845633557017
0.3866668828821609
-0.3870402545374565
0.005862540414635319
-0.2256643980409736
0.225114619685432
-0.2257564639876811
-0.02085970486984473
0.1736748937196372
-0.17362765615434
0.1734965488803019
0.006023475687720306
0.1951874089464238
-0.1954574746197106
0.1951496150618868
0.005499411260544341
-0.2844090665760805
0.2844035336105482
-0.2837654443864856
-0.01705361976788311
-0.4301371690770934
0.4301135477968705
-0.4300065619037203
0.02301207349951253
-0.2543875753264431
0.2540239826005617
-0.2542628952580412
-0.0196664330375086
0.4455303423549188
-0.4454467535256157
0.4455252986508537
-0.04555601216213871
-0.1983440140928333
0.1980491875623102
-0.1982387385181783
-0.02136427887757059
-0.3997411394251982
0.3999097441670811
-0.4000324685507419
0.01039384986427018
-0.4107278811566619
0.4114740494989627
-0.4112085484108418
0.01465314815545385
-0.4727832552712515
0.4727408968015482
-0.4722452931854339
0.04460063659751817
-0.1673840892583837
0.1675177820980947
-0.1676655637370576
-0.02091380977467753
-0.3407504128592335
0.3407096171134207
-0.3407303744738143
-0.006840863043512133
0.242673196423829
-0.2419328664407717
0.2426005263389051
0.004965179536201892
-0.1424945754264663
0.1422407804489069
-0.14165675742561
-0.02014877146926204
-0.508251802458093
0.5076462745245877
-0.5082691133978298
0.06778461922739568
0.2138997006944443
-0.2136452639504146
0.2138980994100738
0.005988886540895733
-0.05602579652532417
0.05554413307217238
-0.05598523794499587
-0.01374842381203997
-0.5174431663829766
0.5174976651258022
-0.5171184603588003
0.07478834273942553
-0.390156075197891
0.3903874983259298
-0.389948333029692
0.007287656485168576
-0.3940490560687889
0.3944674640046329
-0.3940823347208055
0.008378174058816756
-0.3350623693647253
0.3351151585457551
-0.3356330163420428
-0.007885140266494221
-0.4177647950630473
0.4168309602891243
-0.4175584763943955
0.01686388354678532
-0.02792419922042253
0.02757384424237676
-0.02771669794206753
-0.01081957564522497
-0.3849829379163914
0.3850929196758938
-0.3852902864584499
0.005501250386446587
0.1806722602368853
-0.1803107318922661
0.1806921264975945
0.00536971234168267
-0.5241348801034548
0.5238954794753237
-0.5243630964508464
0.07974777031688172
-0.1131239668492567
0.1130955151695033
-0.1131930333584276
-0.01797516358506514
-0.0001076443566702849
0.0003952554511079234
-0.0004263666603101624
-0.008096578527464229
-0.3290805694098079
0.3285316004043173
-0.3290002495027199
-0.009906163605428894
-0.223921637675339
0.2237254724721308
-0.224335705299203
-0.02068591170889375
-0.401233687390862
0.4014806008640989
-0.4014790532485887
0.0106131121091445
-0.4013736293807345
0.4011778102132229
-0.4009155617785087
0.01068544875165897
-0.1698404777119753
0.1704841207520194
-0.1703946108312949
-0.02143673028445816
-0.2136505133090005
0.2132724062537338
-0.2130864513201266
-0.02121654108310492
0.4385266308419573
-0.4384381940977402
0.4380171088888898
-0.04171126190074612
0.07284535831567845
-0.07229755473326524
0.0728296464270001
-0.0003045542325441545
-0.4728436235016675
0.4729070660970001
-0.4720512235044069
0.04487043862810101
-0.3225018410793488
0.3227474508444037
-0.3222535865328036
-0.01042871884681949
0.1310168252410122
-0.1305214133139007
0.1311997321085677
0.00420852429316507
-0.1179126637264255
0.117853230955341
-0.1180185989480128
-0.01886904399660504
-0.1441754534145928
0.1440995953426445
-0.1440525571423115
-0.02011092612875146
-0.2737223916977995
0.2729553848308119
-0.2735706672413877
-0.0173591426893449
-0.1806533459903113
0.1806169783713496
-0.1804941047139096
-0.02165223744152859
-0.4103011823195619
0.409956147670271
-0.4105422218421321
0.01433424931678818
-0.4681461661108946
0.4684159345311612
-0.4683896331946744
0.04231938172242727
-0.1007152181432016
0.1012353837908238
-0.1013289412431847
-0.01730054521159409
-0.06145952125763032
0.06104428259947146
-0.06118696270761925
-0.013825673569401
0.1345872860159859
-0.1338953341168073
0.1346758063869163
0.003633424042153204
-0.3171530972191235
0.3169806076886372
-0.3168826161703808
-0.01179445559745607
-0.3343456980246829
0.3348284071323626
-0.3345268022964399
-0.00785086006445051
-0.3385162653332051
0.3389407438261017
-0.3388613326328022
-0.007056126442373148
-0.2008125666929239
0.2003059037138971
-0.2008378557246125
-0.021430496663955
-0.3565177208178475
0.3560120701431533
-0.3566285330176667
-0.003418458688194541
-0.1580110041300503
0.1583009838036417
-0.1580145987562589
-0.02105056601396669
0.07887382087445852
-0.0787301159356894
0.0790753788162871
-0.0001291824319111978
0.125224471727844
-0.1250987365780654
0.1256083450021083
0.003643550677918231
-0.5004105925598554
0.5000181925012216
-0.5004043131392792
0.06257457707911918
-0.2444403181921322
0.2443558023899962
-0.2439601196902992
-0.01986976158892061
-0.1359278921424735
0.1364029860354702
-0.1359085580483313
-0.01939890519934734
-0.3197310161217278
0.3196934920981518
-0.3194762337755315
-0.01143716053569058
-0.4383596495795911
0.4379604450272316
-0.4379504250473217
0.02687632255242999
-0.01518596129412299
0.01548236632188191
-0.01598093350049381
-0.009354236102598487
0.1406831425419478
-0.1408364468404273
0.1400020325609509
0.003923989354529206
0.3668066771762586
-0.3661314830312291
0.3668590004985605
-0.0154157605498403
0.008503613727710324
-0.009162216898903766
0.009101642589440984
-0.006921437993058535
-0.1769277101932457
0.1772628185830139
-0.17735306491214
-0.02148668697453257
-0.5503023776745493
0.5507065593325602
-0.5506903090816919
0.1016587529608847
0.2548364846186578
-0.2546029760456342
0.2551131455966484
0.004188841282504417
-0.266974457162423
0.2664946466928817
-0.2661998234829893
-0.01805591503482211
-0.3101908249993438
0.3109870810306251
-0.3104964857529977
-0.01266864746281056
-0.2266240974817245
0.2272802784803406
-0.2267478071534471
-0.02070266293399308
-0.3920684497324337
0.3923284385261925
-0.3917873794724376
0.007924643948942423
0.2099728389477722
-0.2094923542039457
0.2094796265666302
0.005814365082816561
-0.2374553815295121
0.2373524075630704
-0.2368972971968681
-0.02024361680521745
-0.3557655278020114
0.3562368884186164
-0.355832459806919
-0.003491920022786485
-0.2850844096591788
0.2849990078209594
-0.2855076595620463
-0.01649545461668433
-0.3344655470116656
0.3352517184804721
-0.3349874661296836
-0.007926849061833583
-0.36015024792277
0.36090509555072
-0.3603970087769167
-0.001857920863499252
-0.01219787972873143
0.01223843782849695
-0.01239767601383901
-0.009395712510708485
-0.2336311590871549
0.2330129799546362
-0.233656406958111
-0.02031642956395571
-0.09338695842511098
0.0937308037843209
-0.09397060461992658
-0.01704747147483966
0.04683292546722697
-0.04661761593662993
0.0459213100955637
-0.003172122233290477
-0.2907321016810034
0.290440224451169
-0.290230280043616
-0.01561814305699327
-0.2830885428794432
0.2837898355463787
-0.2838591230025175
-0.01631784262885674
-0.2373425339668694
0.2375374988610537
-0.2372286079873437
-0.02065095517348729
-0.2689875647831267
0.268804542429709
-0.2695092715651791
-0.0184196851931548
-0.1936292157645528
0.1937652484437342
-0.1936620035285473
-0.02136884378900159
0.06009166671554821
-0.05963184880383607
0.05969186395886669
-0.001469188023948851
-0.2958069866068668
0.2966272009262903
-0.2965691430248141
-0.01468983393420493
-0.2562049356154929
0.2555666876754394
-0.2559800739297359
-0.01952985116040952
0.3404170255209765
-0.3406204673677217
0.3397342006975847
-0.008200301846930288
0.2818823708179177
-0.2818379249437277
0.2815880293295053
0.001331012536691642
0.1933134926804936
-0.1932544974214715
0.1933097040081042
0.005750052513296371
-0.2412351181661899
0.2415855956173458
-0.2410355311813955
-0.02076112102889791
0.1134624486142024
-0.1138091392639962
0.1137007305553548
0.002465595307605534
-0.2487624576784723
0.2487140641243955
-0.2493295412908207
-0.01964359008863417
-0.2311016952692442
0.2305442760042957
-0.2305829508100927
-0.02108593434126371
-0.2786016794353329
0.2791496183752374
-0.2786200797654377
-0.01738823089027119
-0.2560368665502099
0.2556801384894047
-0.2551133351017755
-0.0190123214246981
-0.1445247887285573
0.1448416965019655
-0.1450140336368801
-0.02008703598866477
-0.1843154047414258
0.184198274192678
-0.1850819223236666
-0.02164854974939558
-0.1192153204407649
0.1198817367461925
-0.1198963521566725
-0.01883145919633718
-0.3984203328932262
0.399297308774105
-0.3985730880648239
0.01022177906118769
-0.5444227454295227
0.5445314889719144
-0.5441818455243133
0.09599444888012078
-0.4660400028125806
0.4663509714539172
-0.4659432237491917
0.0413683331590888
0.252167711208456
-0.2522304248948625
0.2514602895924077
0.004537074852482563
0.08978304674856925
-0.08998637866385968
0.09003213124788366
0.0007144651556872324
0.04380651760957995
-0.04393310216093605
0.04312850680654819
-0.003471863795951938
0.1409356028035503
-0.1416238462884606
0.1413652011161094
0.004099024547960158
0.1510949987704314
-0.1513682593537289
0.1510777481883132
0.004907943378210467
-0.1248946155343646
0.1253283250777654
-0.1255975736873216
-0.01946339042482835
-0.3107192627326764
0.310799657570253
-0.3107669568574455
-0.01257990035831419
0.1680691758251621
-0.1676287274076291
0.1680781618423673
0.00546820062188765
-0.1456233460177609
0.1463026451500448
-0.1458489694178171
-0.02033943487543124
-0.3450467392877044
0.3445461676030251
-0.3443195985547907
-0.005768625658822547
0.04605586704308772
-0.04563389334877527
0.04571291531303416
-0.002857056683392566
-0.2643731852526641
0.2651935620445703
-0.2650748015774737
-0.018576614812734
-0.1362732049073716
0.1371014542090532
-0.1370916527062436
-0.01927925617912047
-0.1254827358899553
0.1252232887832075
-0.1256401596572898
-0.01892477558663
-0.3574323292569711
0.3570481590956978
-0.3571499698043872
-0.002618318566159128
0.1805014389459665
-0.1811538152208481
0.1806163974888854
0.005254763001541095
-0.1797820362246904
0.180698294224954
-0.1803059882559769
-0.02178128936073078
0.1090533114860928
-0.109434436469346
0.1095268696165216
0.002765442000404173
0.1972335245572826
-0.1980620694463136
0.1979797281901896
0.006290276710505162
-0.4832119940139979
0.4832484132245048
-0.4827619312759883
0.05076009164253043
-0.1816334203489494
0.1821297037998101
-0.182439924185856
-0.02175157251857588
0.390311591218682
-0.3910386824783429
0.390969721763226
-0.02267152707534549
0.05745739987606107
-0.05762817130033334
0.05689826658409042
-0.001740264744309206
0.1601293224977595
-0.1603966449459665
0.160775674766351
0.004918170601644362
0.07456922978175899
-0.07479789399286298
0.07450455922317571
-0.0002778574425933127
-0.1751916488911235
0.1749907472690772
-0.1751375953228171
-0.02104874827233127
-0.4391052719779144
0.4388760826675848
-0.4386704442318199
0.02670999177537097
-0.02340447156502838
0.02309659194837883
-0.02359525844742102
-0.01044176331132161
0.0759332710448815
-0.07574215792903859
0.07554068369587986
7.084388302265621e-05
-0.2999287376874721
0.2996583027387305
-0.3001752784863922
-0.01484247657104703
-0.2543237757826859
0.2540768953187815
-0.253779118049608
-0.0192917347369723
-0.2877448122718889
0.2884216193614483
-0.2884821982763012
-0.01646953895155928
-0.3151185857151171
0.3147646720301121
-0.3145653175248529
-0.01168507050995348
0.08367053865381742
-0.08361803220276361
0.0838874454021651
0.0004941404627965308
-0.2196316672950568
0.2191067189297574
-0.2197285953570194
-0.02108290360469851
0.2306249173426252
-0.2307454602689296
0.2310479057207989
0.00511439989159433
0.125476483061332
-0.1253755118430871
0.125156327872742
0.003061322495810016
-0.1392094237693431
0.1394732640513369
-0.1395859115722334
-0.02031304826327216
0.1856141044408019
-0.1854289746929893
0.1855539505159138
0.00592738110157582
-0.3432526924679759
0.3433170893755814
-0.3426795998315222
-0.006379835578384319
0.008624000861294195
-0.008787156812441774
0.008935590210500648
-0.006817786393022234
-0.2872245162214598
0.2866423628184559
-0.2870709567215028
-0.01642717558215166
0.0509630284719904
-0.05101349880230067
0.05135671348336723
-0.003095670684443159
-0.02523996386294819
0.02588562399541856
-0.02546997789341097
-0.01059396942012913
-0.3666462623163771
0.366842724447574
-0.3664085754707928
0.0001258339986046666
-0.3080981589728574
0.3084196604287428
-0.3084531629143614
-0.013313599155699
-0.458850709652892
0.4589421829901973
-0.4589621638552716
0.03694641319575646
-0.1289993578169521
0.1296168664959365
-0.1289382187409065
-0.01885859329668368
-0.08562919875516836
0.08545627990779145
-0.08543425852519973
-0.01595645556351
-0.2197805227607538
0.2193739502398317
-0.2203175793728549
-0.0215724743831967
-0.395414776775145
0.3958143623236537
-0.3956164660925956
0.008573851913990906
-0.3860381992477908
0.386651741580391
-0.3863802407571764
0.005493175394998403
-0.266945839547426
0.2666514893474223
-0.2672824446983024
-0.01888336912019525
-0.08612128961149998
0.08645683177546773
-0.08670926266906614
-0.0166072438916124
-0.4193116843050921
0.4190392725464191
-0.4191369220476358
0.01770251102957496
-0.4568733454725664
0.4564543437254485
-0.457005104513617
0.03606350424240314
0.1013468497511516
-0.1008755891567275
0.1010187420307573
0.001459353692950324
-0.3876643543479085
0.387863878089381
-0.3880730449538772
0.006009835412303615
-0.2177932503675692
0.2177819797341309
-0.2178023906220375
-0.02146685383152331
-0.3955095510269254
0.3957606409622332
-0.3953244089628377
0.009280563336389668
-0.3144463417094695
0.3142516183579859
-0.31356903531944
-0.01269466979092627
-0.2680691309032802
0.2674992830477633
-0.2679816095993287
-0.01847220032001992
-0.1012085577772593
0.1016285817244778
-0.1014778616668642
-0.01792210832069053
0.1406994913329158
-0.1400995320634713
0.14040181901588
0.00446610236490317
0.06788962060543005
-0.06844418077992277
0.06850628953878882
-0.001425047509527278
-0.2598940736931987
0.2597470155875696
-0.2600034624307235
-0.01872067515659241
-0.2368409019352509
0.237564044204655
-0.2376756163799938
-0.02072575278451092
-0.381602267457066
0.3819269272806574
-0.3820707081599348
0.004452206000324733
0.264057191042725
-0.2645183888843854
0.2644332518123259
0.003106022436193524
-0.2495143921958131
0.2499469285721893
-0.2491083389761678
-0.02005718219854211
-0.3750555681973948
0.3750448778500982
-0.3754153458567398
0.002261545033787731
-0.1254460263548871
0.1263778453011215
-0.1261151611741487
-0.01929308849009271
-0.2908638958507281
0.2901886887360998
-0.290392292015042
-0.01578706959862434
0.01528637438342687
-0.01474642450552217
0.01501271969934094
-0.006190702179746204
-0.001277055846181996
0.001431778864196246
-0.0009684298648273184
-0.008206976703352718
-0.3207411498717407
0.3200607179908997
-0.3208924217030559
-0.01102639685909629
-0.3044068206008501
0.3044899798171032
-0.3046099052215923
-0.01359630281230412
0.2107910150386714
-0.2100723508476052
0.2110263701170238
0.005641373771108183
0.04281888099020048
-0.04323532972742355
0.04345716816501331
-0.003662571832283911
-0.1940803190398554
0.1935648416034865
-0.1936071100529467
-0.02178511771396964
-0.09994950559760551
0.0997036338687393
-0.09978878255113105
-0.01756833399287879
-0.1811222994118042
0.1803034459227656
-0.1802969896538113
-0.02118542352950989
-0.2365012892358995
0.2369710945037575
-0.2361765998581833
-0.02024671930411914
-0.2009051069108925
0.2008678978438471
-0.2014433261623477
-0.02174697559453747
0.2472511796273362
-0.2469465333498598
0.24742160159563
0.004475257956041923
-0.1008659118329844
0.101294999347242
-0.1003650976905797
-0.0171014935238391
-0.5026097566356847
0.5027614967290053
-0.5027329696521717
0.06389712447829696
-0.4051063385069584
0.4050925971343332
-0.4046719591698661
0.01265545470098775
-0.07654402722133226
0.07687951650294163
-0.07744688816870586
-0.01495301878333256
-0.05396534797267637
0.05440443257633081
-0.05381279723336869
-0.01364484490327683
-0.2191239079812335
0.2195100379688396
-0.2198422802781102
-0.02102261147809952
-0.2828546998221007
0.2829470291943308
-0.2826010222722106
-0.0167819985909404
-0.414330932483621
0.4151520076510443
-0.4151954908403716
0.01611561220292655
-0.08636499170219322
0.08625141016859655
-0.08709983974036314
-0.01665813908004273
-0.09291596712905417
0.09309606463458828
-0.09330525419215596
-0.01714670207097812
0.06047427416976166
-0.0612628257637937
0.06138282508549268
-0.001280619477189406
-0.2383238388598123
0.2388764665166785
-0.2379352584386458
-0.02085233009726438
-0.1389178193277063
0.139450662747772
-0.1395345839465442
-0.0197764230068122
-0.2797986966872187
0.2793825331787114
-0.2797836677914011
-0.01667195538768709
0.1204842468871288
-0.1205393745781664
0.1202021399738367
0.003211065047795559
-0.3558784770794214
0.3554977592852988
-0.3560043316554866
-0.003735161146073252
-0.3419509565083051
0.3415959545663511
-0.3423170429523621
-0.006750399474354392
-0.02447047705996678
0.02454019911638809
-0.02432191866863951
-0.01045807673390732
-0.3469977701870708
0.3473360499565184
-0.3474378552309407
-0.005478392047592003
0.1033234788095451
-0.1034840760068658
0.1033757576369799
0.00174490737928598
-0.3869069524950511
0.3867147129259271
-0.3859314911107809
0.00562283490929533
-0.09614859485453019
0.09553068205651945
-0.09597156810159956
-0.01670775151743525
-0.08612346884556307
0.08634534819661926
-0.08620444389850143
-0.01605713983509341
-0.3279760829641702
0.3276104148916346
-0.3275013977480926
-0.00953931054187393
-0.2611912264319238
0.261579155189922
-0.2616884337291672
-0.01938056694120517
-0.4120406541225227
0.412149656031025
-0.4120537787863773
0.01496114899949808
-0.4996792833490494
0.499673355318809
-0.4991064258925005
0.06185456220505538
0.1193626852703145
-0.1199040742148236
0.1201248830021977
0.002767084587178962
-0.2223264915781919
0.2223305221797809
-0.2218335815579092
-0.02148621072668632
-0.2935219028158358
0.2935779573921619
-0.2928522261992011
-0.01517469346579445
-0.0563290199327874
0.05619565542340009
-0.0563896711224634
-0.01336033165910912
-0.165074057211043
0.1649890586550563
-0.1655231009419913
-0.02105919483579537
-0.03351058953413395
0.03386726870795228
-0.03398254575480939
-0.0114863395436299
-0.1163844338517479
0.1163650340490727
-0.1158656317581644
-0.01874018106174302
0.07297480323559748
-0.07290847151931194
0.07315962338012007
-0.0002485024676938529
-0.4369598177742693
0.4374317784219867
-0.4374179104905396
0.02626823147828179
0.01154677370150698
-0.01103596514818798
0.01148524781320298
-0.007104942581525566
-0.05929639983635152
0.05947141369386027
-0.05889622732737888
-0.01334118677449695
-0.2799460047328292
0.2793271753993182
-0.2793632828593708
-0.01678129393397264
0.04535068554965588
-0.04592083529711067
0.04524374946689664
-0.003431166497160811
-0.2140881866254497
0.2142958237483785
-0.2139361404217656
-0.02122325194820278
0.2305892984393787
-0.2307302128223231
0.2308953860884831
0.005034955351979096
-0.4270656027789857
0.427481927905954
-0.4275108714814205
0.0213307596791104
0.2198915674733903
-0.2199066431178756
0.220148317479273
0.005525185379408474
-0.1920434590528661
0.1917344160788124
-0.1915080300033334
-0.02146668390819949
-0.05967684025109156
0.05947841269212253
-0.05957101959941014
-0.01391796899923851
0.3146448328481399
-0.3147735472154802
0.3142237842113946
-0.003591015283215542
-0.3393336533877181
0.3391068045534184
-0.3390287870238161
-0.007131807483026834
-0.2652338977639025
0.2646715986191861
-0.2653317228007971
-0.01822351671221384
0.0489726070086727
-0.04946755792459005
0.04879949301848255
-0.003375052980324896
-0.2189046702062279
0.219207661724654
-0.2195350978157191
-0.02113823495950829
0.1798810410300706
-0.1799668027602041
0.1791407397676031
0.005924791944209726
-0.346509865958445
0.346910189041324
-0.3470639442228645
-0.005780386108740496
-0.5198826896708666
0.5196363275820375
-0.519257541173055
0.07640232073247068
0.3212125377654674
-0.3203835143596373
0.3212470682090883
-0.004875562834494742
-0.3442705446575776
0.3442121160356996
-0.34419839129603
-0.005695959447813607
-0.2912468677818819
0.2916004683404064
-0.2908484798727627
-0.01542340505622101
0.2299841125406092
-0.2309001889790724
0.2307984514900328
0.005654523368840951
-0.2884166412469678
0.2879874676663973
-0.2883977838283995
-0.01637856200032764
0.2303055995336632
-0.230541978687334
0.231000458422616
0.004861389448198289
-0.4178584439855974
0.4171631685384081
-0.4176017423749611
0.01697218408018932
-0.3843123970070105
0.3842526095794418
-0.3835021314958245
0.005304781183593735
0.2395366017905137
-0.2389225698579102
0.2395319152947566
0.004779125753003691
-0.3847645829976855
0.3843876531737346
-0.3844332797661126
0.005176234890062526
-0.1651618956091563
0.1648682574834922
-0.1652573232336164
-0.02100883874314553
-0.3316887409508982
0.3311979377112676
-0.3315825934813613
-0.008697049443127059
-0.2004753121060948
0.2006803401744646
-0.1998283087047231
-0.02140015588820783
-0.280451665980505
0.2807621771845953
-0.2801068293294607
-0.01711595656323347
-0.1524502756016312
0.1516670496197479
-0.1521686173250504
-0.02080836777331985
0.07149524447637295
-0.07124633409759168
0.07060321832675474
-0.0004677455537722897
-0.4445922694841541
0.444558499149697
-0.4442608660338907
0.02921207842094321
-0.03661569045252352
0.03686769697548623
-0.03651427581064518
-0.01119562805069441
-0.3474711470813214
0.3474355024960381
-0.347034211543623
-0.005580797057645507
-0.4299650413240342
0.4299816765058898
-0.4300558221568811
0.02270027806609037
-0.1193901108303667
0.1191679966486516
-0.1200493334242046
-0.01910728047347058
-0.2122778200652424
0.2130518311457562
-0.2127289261387873
-0.02165869279050042
0.2843501903602108
-0.2845288530585445
0.2839060840591771
0.001356982169187917
-0.1507556774369178
0.1504897926667136
-0.1504157984101231
-0.02061979537987445
-0.5014517406574502
0.5018233680293743
-0.5014716324187029
0.06346923972077066
0.07458692714798262
-0.07388177037246293
0.07473738568462916
-0.0003378548647323293
-0.3761374122971886
0.3763943185608384
-0.3770636624359395
0.002227998949197708
0.06523319525864213
-0.06597668478426913
0.06567332450354756
-0.0009159623250047735
-0.5300043621189994
0.5298196650631929
-0.530134148203933
0.08400298182775584
-0.335328636222629
0.3353370580888562
-0.3355106319950047
-0.008301015882698933
-0.4372046383736477
0.4374082954681316
-0.4376804246579468
0.02643556949051143
-0.4625803266790459
0.4623821917453552
-0.4625489949079779
0.0389820676462147
0.222888099955253
-0.2227031675076628
0.2226309294623501
0.005382136511613173
0.2048862336980201
-0.2051028564316319
0.2044819850560273
0.005796854930089059
-0.138891444369414
0.1386012291191737
-0.1388985633432981
-0.01965492457864801
0.002193247550229309
-0.002793942055074986
0.002602971725418251
-0.007750252633998873
-0.1029925056573461
0.1034870521874133
-0.1033635673560525
-0.01777772269487322
-0.233209455842694
0.2331593667674407
-0.2327753451828515
-0.02049045563548777
-0.3705801837054439
0.3706920761002176
-0.3704593416904826
0.0008505552686490036
-0.2621103852581499
0.2621763165047964
-0.2624468589439964
-0.01928954068862487
-0.1418217662684249
0.1414789857834463
-0.141594609552385
-0.0198389661349519
-0.07039452322654588
0.07065802808246899
-0.07095747375410354
-0.01504502968392136
-0.162973371485458
0.1633765915896995
-0.1635818863041043
-0.02056825458628481
-0.1452949139875109
0.1458986489439151
-0.1459583725982393
-0.01994795844194828
-0.4399892724985745
0.4400530336751455
-0.4402319771746858
0.02743486259925293
-0.4850673710656928
0.4852724491512072
-0.4853384717079786
0.05275229467427096
-0.03948138923143765
0.03964810108393535
-0.0393895206217393
-0.01164693560278675
-0.1405722041516195
0.1405602421746161
-0.1402422643353182
-0.01977938371352978
-0.06975406012064206
0.06995641419053536
-0.07033195448166951
-0.01459879713539947
-0.2807365565130618
0.2810615705502922
-0.2814948359203496
-0.01706358367250719
-0.3550348838481259
0.3543963237632024
-0.3550175904037488
-0.003815751791565045
0.4300563172736399
-0.4297373075680446
0.4302852013457893
-0.03825271353735691
0.03633625861743869
-0.03696730833969966
0.03663201457669209
-0.003831184711975084
0.08053223656202982
-0.0799335528818087
0.08049723598397879
-0.000351496805606705
0.4752582481913479
-0.4754359846274474
0.4755577114100308
-0.06167720600774053
-0.1386072447860771
0.1390469494074913
-0.1385654039841109
-0.01969861006719337
0.3314725992884515
-0.3313665941562035
0.3309080075991531
-0.006229246576857833
-0.1018749742585463
0.1019831223314429
-0.1024360561846803
-0.01797544394670348
-0.06056515802230972
0.06049095752899159
-0.06080094448043048
-0.01423168950761667
-0.0324597684833808
0.03169767530922046
-0.03219945609321168
-0.01132877635492021
-0.5427339096518031
0.5428968351048042
-0.5428728120292046
0.0945437290805808
-0.4300876495586617
0.4306753557368962
-0.4306034714279211
0.02279938287553779
-0.2413951158876936
0.2405887269787864
-0.241063683683777
-0.02003242785006916
0.05007693669187859
-0.05007034797395294
0.04974617842557354
-0.00254165653560395
-0.4710597734256811
0.4712770173207171
-0.4708937253011714
0.04349819043312284
-0.495562750425567
0.4954931085914097
-0.4957902422640649
0.05935169225877051
-0.1162102112037328
0.115603090579638
-0.1153733477647443
-0.01885000300319523
0.01876029030685241
-0.01903232827641552
0.018760875253798
-0.005702703474638022
-0.3079575683819144
0.3077101384344292
-0.3072916096618086
-0.01301119826448346
0.004081355946032008
-0.004590942865368063
0.003770444144709509
-0.007385401505941682
-0.3176065086645183
0.3173110532388695
-0.3173405359397453
-0.01126036307963389
-0.07935266008123434
0.0799990078324449
-0.07940629354529399
-0.01603324903786188
-0.1961801225302639
0.1961561288360292
-0.1967887886767214
-0.02196005900894735
-0.1618989405450606
0.1619691470317137
-0.1619851834644232
-0.02041678215848391
-0.2022744550651435
0.202488161446862
-0.2026246724193249
-0.02101737995707452
0.2265921858548009
-0.2260001498498817
0.2263316652204387
0.005004547121537502
-0.3534474555401255
0.3531974996823711
-0.3527124471724464
-0.003765733380828166
0.2673103829110636
-0.2676458291217989
0.2670809573800746
0.002987918458791792
0.1071605843477892
-0.1067549387899208
0.106996760069317
0.002142831058075072
-0.1126124489202931
0.1124469844863747
-0.1125430256894302
-0.01846043839130528
-0.2178987490045259
0.2181700479607781
-0.2180654793959308
-0.02133074922786017
0.2859260572627498
-0.285837525131078
0.2853169536168025
0.0008659148400515506
-0.2131955897307702
0.2135385072440322
-0.2136400438742667
-0.02102340985925943
0.177369780748898
-0.1781398020090403
0.1782162648283169
0.005499996398295159
-0.07932775809728639
0.07988927342602213
-0.07992483156501269
-0.01599523320259623
-0.1323457656888626
0.1317453358081535
-0.1316003743070796
-0.01921984298296277
-0.3462761149430846
0.345662897722623
-0.3459874985869762
-0.005640146883317126
-0.2245264218702608
0.2251057798028522
-0.2243329858654837
-0.02134229334686609
0.1536750042008954
-0.1537976416996102
0.1535464082586695
0.00503388037971755
-0.4496530540547994
0.4498812491000489
-0.4498844954642341
0.03199582871528197
-0.3094715482465029
0.3093667652520823
-0.3098547251815867
-0.0130244592596047
0.1648097126392494
-0.1642212097494755
0.1650068353985282
0.005086189040936712
-0.2900552372864339
0.2908053047964956
-0.290479606063479
-0.01543496087177322
-0.0859238464422446
0.0853945066754026
-0.08542325186006852
-0.01641457473937158
0.2285568785755091
-0.2289102246249933
0.2287222869140059
0.005078461513965125
-0.0939447677302119
0.09452962395612763
-0.09441900238127562
-0.01678083260886142
0.2256002978692423
-0.2257409097357966
0.2250097408367022
0.005086389748416371
0.1156233244984797
-0.1153577397612932
0.115053986266401
0.002559739054071557
0.10438780163276
-0.1041795150571552
0.1043442768677958
0.001926329661797405
-0.1341468280236854
0.1340972154824452
-0.1337059993685663
-0.01995275075896593
-0.4446858746821564
0.4444027895281207
-0.4450798945123805
0.02995060488071445
0.2329494273310062
-0.2326552774999313
0.2334602234013424
0.004709037045831355
-0.2892924522194071
0.2899094604093658
-0.2897856809596959
-0.01565592235471849
-0.32372291505392
0.3239573160779748
-0.3237138316431906
-0.01070681784512914
-0.2298491117904836
0.2303614273261744
-0.2302692308262027
-0.02057539213777967
-0.4365426066435374
0.4363310496481514
-0.4364909815775422
0.02602612328974317
-0.3867410248753781
0.3867458547561619
-0.3865211552555748
0.005825424856714449
-0.2450081613276321
0.2446240769416336
-0.2448837502163423
-0.02053650606102866
-0.1691552806471752
0.1692185023882067
-0.168712737484936
-0.02086146144817771
-0.0683752483000904
0.06868595910430635
-0.06812053547293376
-0.01470410217902665
-0.06174196514187355
0.06143116822198474
-0.06196617720545529
-0.01368637003451587
-0.2428989011530088
0.2426073766038582
-0.2428137100549274
-0.01984535659623338
-0.219988139914155
0.2198740029630577
-0.219675237367056
-0.02134709232120089
-0.4553727462941735
0.4554115799607844
-0.4554741866889835
0.03512877389395931
0.1052995418257372
-0.1051374490538152
0.1056020037312829
0.001624410472700584
-0.3521741293597701
0.3523790107620635
-0.3527244575695566
-0.003709775959757348
0.1689127622893027
-0.1687524441930605
0.169383688578502
0.005808081157978134
-0.1453480672091498
0.1455447352250347
-0.1456210851568394
-0.02062155970540482
-0.04605267662606361
0.04644131771078939
-0.04591298640983345
-0.01222434171072002
-0.1640095914485657
0.1633315892979863
-0.1635047208380187
-0.02088363222707142
0.1429235678414246
-0.1428979337854554
0.1432145325646589
0.004860526941403362
-0.3637608927457917
0.3630148847958649
-0.3634616822112213
-0.001049298625860661
0.04478393212479515
-0.04476617486268359
0.04487318701680231
-0.003409663725934147
-0.08942587797589573
0.09018744332345242
-0.0898825112701095
-0.01691508052024148
0.3110858167369012
-0.3111496402990464
0.3112658568212761
-0.002796903613407798
-0.02970026600691492
0.02974013259687468
-0.02994847236217485
-0.01089493062838286
-0.1301602486887347
0.1304802402248564
-0.1306520494772874
-0.01975428042840195
0.01797405686269702
-0.0183189976556271
0.0181625293861389
-0.006362343032677235
-0.328060601880325
0.328220732389575
-0.3284887151548007
-0.009482587959332177
-0.1445817967158564
0.1448670165362056
-0.1450137242834053
-0.0201889110087061
0.3515558360308386
-0.3515955316239194
0.3516198322126913
-0.01089361109014269
-0.1703418499557746
0.1696710825974242
-0.1696547250442251
-0.02076308895030289
-0.3458438578891756
0.3459764319646046
-0.3459397664262617
-0.006089377126226905
-0.3310797272402294
0.3309080530128076
-0.3304910839321583
-0.008677758097332696
-0.4306953035506376
0.4299404633783899
-0.4308138908299197
0.02312978982250773
-0.2430672103775249
0.2430373146565076
-0.2423971576797965
-0.01999970250921863
-0.4597146327028056
0.4600868069147568
-0.4597607336322065
0.03729407960974052
0.06727736365169903
-0.06709799811634881
0.0674725628456882
-0.001382639680905011
0.1883720545174082
-0.1879731891997615
0.1884591760585948
0.006238935091643697
0.004661869805821774
-0.00415952539425563
0.004664818285550002
-0.007722194014866214
0.04395577565442086
-0.04441381722571495
0.04380557779589429
-0.003369403564535452
-0.2657709513936714
0.2665796810444999
-0.2661713735534403
-0.01889706608994678
-0.07111016008599193
0.07164504012598864
-0.07133613192269375
-0.01523826919857048
-0.330974533611978
0.3309235987910528
-0.3303885779793205
-0.008923886295765432
0.1175230683720235
-0.1176619742786722
0.1178415507329746
0.00248850287838921
-0.1462956255264835
0.1468497667096595
-0.146910762175298
-0.01993962153350226
0.07552810880563493
-0.07610311741290665
0.07614478667782745
2.584962218406957e-06
-0.2682416930613558
0.268788655217105
-0.2691140437205192
-0.018303842429424
-0.1347338758624329
0.1348002479292001
-0.1344306344869257
-0.01966774359762056
-0.2060392141409214
0.2058171350737927
-0.2058393287785348
-0.02158255598270936
0.366687561031347
-0.3664008465332591
0.3662839462423763
-0.01514995700398233
0.2807094566851793
-0.2802913361647959
0.2807443405624576
0.001602059878067741
-0.3006691496049535
0.3013017304573842
-0.3007660779681992
-0.01417600193539762
0.02136553017094765
-0.0208908731478665
0.02139067695987674
-0.005563827007499635
-0.3437696882684202
0.3433111613444197
-0.3434903283506681
-0.00650304274512104
0.2370224368641426
-0.2365269923733369
0.2369162308833336
0.004909819765839949
-0.2051143799434004
0.2048732318952073
-0.2042366712932628
-0.02146687264739939
0.03371483048348341
-0.03410046358721266
0.03446637305716236
-0.004865418189271096
0.06246834310803223
-0.06221933392896527
0.06188669307649686
-0.001283372197087227
0.2190150247253049
-0.2188946611805761
0.2185885413188864
0.005652938767727064
0.04337303422807715
-0.04414350160151218
0.04340952015573925
-0.003235855615279758
-0.4702437589033521
0.4700095812695886
-0.4699301863036534
0.04307487152793934
-0.5276665829298132
0.5275668108890331
-0.5271359886044035
0.08259128432086928
-0.1476731801914694
0.1474932409856269
-0.1479201544959027
-0.02016821240550501
-0.05063687393618847
0.05084652102739144
-0.0514521137464871
-0.0135369660695564
-0.2318341847037165
0.2325945014550365
-0.2326292419687091
-0.02056114535598897
-0.2704319280746552
0.2700645467080489
-0.2702025902551625
-0.01849096080908533
-0.3335110643540853
0.3340669009452822
-0.3334441010041191
-0.008185535864017688
-0.3112528495606266
0.3121416680564817
-0.3116960750507618
-0.01222761081612922
-0.1462772821764135
0.1468022701476025
-0.146708873214741
-0.02006019019339911
-0.08866143178854413
0.08918565100649842
-0.08882798402911635
-0.01668385154989395
-0.4546543996104941
0.454585153077135
-0.4538067756900311
0.03421157428643413
-0.301443196282091
0.3006159809496339
-0.3015771025632412
-0.01385998188033265
0.2865512633704788
-0.2865471254977585
0.2862366354249097
0.0006262190233559795
-0.2876264347269974
0.2871779011070356
-0.2875590181307404
-0.01576221829534557
-0.1793533583287813
0.1785950412453076
-0.178699375987187
-0.02170228011654778
-0.3905852171705435
0.3899264754339178
-0.3905442443779811
0.007301702418188559
-0.3140332032781793
0.3135088312674434
-0.3137617526909701
-0.01196609045510577
-0.280301754762341
0.2804065003161973
-0.2802941497712519
-0.01733393631745008
-0.1251927543809109
0.1250834823120263
-0.1258161623378853
-0.01865808266841878
0.05822658820530473
-0.05892038984476398
0.0590607039679568
-0.002408800581013291
-0.4401869205221636
0.4400167445725071
-0.4400777032080632
0.02754379281409164
-0.2047161920236533
0.2052741163643922
-0.2049372849412471
-0.02106723181912051
0.05763561413364654
-0.05740311745238101
0.05678438304159458
-0.001743066673205242
0.1392519231429978
-0.1394884264973821
0.1392036774396394
0.004516444124014283
0.3144423099449899
-0.3149799804262574
0.3147114437699694
-0.003258883379826915
-0.4117553191918204
0.4115991330800107
-0.4110160340209098
0.01519130359854976
-0.2698303925440918
0.2706808115773432
-0.2699023379068499
-0.01769693715846057
-0.4695082148899652
0.4694270026831838
-0.4696323342495571
0.04289054790887799
-0.3463986509765362
0.3461323607746067
-0.3467183144091118
-0.005930857267681145
-0.2374504571425198
0.2372013349306942
-0.2375828392565337
-0.02093774840596653
0.2607504637683319
-0.2607507025049577
0.2607720525697482
0.003528563852626566
-0.1224499856120772
0.1221865866191256
-0.1221894560267733
-0.0188458365453655
-0.2672199882445779
0.266948582180176
-0.2677072277965349
-0.01827652670743502
-0.2354027702265609
0.2362272236693024
-0.2358586439792519
-0.02026408432536545
0.05688692452945348
-0.05673987116937735
0.05684487522857685
-0.002628942699329426
-0.3476263743672616
0.3475260468605534
-0.3472276033655839
-0.005434392690083794
-0.3890831887752313
0.3887956786352298
-0.3888513233658275
0.006505002808780026
-0.342086024052294
0.3416488749953915
-0.341632617170542
-0.006266081164070614
0.06454831394889153
-0.06451070605971722
0.06451457759001351
-0.001155782979720888
-0.5270941173606951
0.5270951194833435
-0.5267668668249423
0.08199586730933846
-0.2980545309906865
0.2976241380327277
-0.2978849930132924
-0.01525575337851971
-0.08881143964216934
0.08891916435165576
-0.08831021082792259
-0.01672295753635034
-0.4960408319840112
0.4957547895664783
-0.4958543667387184
0.05900322575376923
-0.1297537130772897
0.1299525794000197
-0.1298175071817019
-0.01910195875994723
-0.2845230737346914
0.2846025012219451
-0.2844304724265153
-0.0168792532831646
-0.3162345052479045
0.3164227918677182
-0.3166013259206005
-0.01220151728545451
-0.1660825421500664
0.1659078796274791
-0.1653771188761262
-0.02137135058299275
0.3105133150705308
-0.3106543016612423
0.3106275444875245
-0.002372829829260468
0.06498823197869627
-0.0652758441334448
0.06513378367239006
-0.001864217393978844
-0.03904629917639341
0.03951319223860631
-0.03962157834358324
-0.01154010995239424
0.006787325540773783
-0.006995288818456707
0.007390798663752218
-0.006802094473071197
-0.06394971172847531
0.06348029379115668
-0.06343880070545875
-0.01446853473890274
-0.4777495301217007
0.4779630520028292
-0.4776860689455514
0.04808665358325661
-0.2113723028610368
0.2114707518649654
-0.2110135732483221
-0.02118315719847854
0.07247146033008942
-0.07248352096255853
0.07311132737630374
-0.0002805156301759001
0.01183124821355709
0.01820621852604859
-0.02443113082588429
-0.05115758720944157
-0.02710544088663484
-0.04010125259023232
-0.04220530865027381
0.02541647793934858
-0.04765569776703134
0.05442172916976994
0.08902359253991657
0.05546168050385709
0.06616780583239139
-0.09185720332360317
-0.03085600157241471
-0.05183231418676808
-0.01945483668236654
0.06659767497169729
-0.07711811492912531
0.008303755051071693
-0.01253090334375976
-0.05835684054396495
-0.03801066105488099
-0.03450922906983464
0.08926579672724316
-0.06158170700724051
-0.0872047710978917
-0.0891351106018269
0.1338258930357199
0.04023290294178875
-0.02501565681958591
0.0420512062109012
-0.05299281855148903
0.04341953405541026
-0.06037919782497577
-0.02881699628338484
0.06217667360200001
-0.08066982259842163
-0.04866353157699365
-0.04165100520740301
-0.03522064885795199
0.04757963251514916
-0.002025600221369262
0.04823302354878369
-0.1007976716588411
0.03706192146571786
-0.06847103086125896
-0.02615219287146902
-0.009434160692737335
-0.002659586514240397
-0.02792090946044762
0.003020637670008135
-0.07975733429922476
-0.03735797865556075
0.05362194839891921
-0.05359118777140572
-0.03499498148344005
-0.07572027511162656
-0.01874795072601373
-0.06105243347417552
-0.1161808172946762
-0.05216645589848148
-0.0849703957329119
0.01269097499394591
0.01870160213016089
0.006117394256831131
-0.0238796862614123
-0.05901146456420824
-0.05535019728734503
-0.04484246136846728
0.01454539815419629
0.02222205642528437
-0.04614108117198532
-0.1028704335408391
-0.09411317557621153
-0.07981219652842146
-0.07048216942317669
-0.06253880715978238
-0.05863382224908647
-0.06400910529723448
0.003903397945932888
0.04216949932282017
-0.05737233871498292
0.0551865146507182
-0.07726056039915306
-0.07036431523937044
-0.1162875513949598
-0.03930688355165102
-0.06495085895584105
-0.02632861258137978
-0.08559391849456389
-0.03559563479674654
-0.09844258482001575
-0.07080629738044485
-0.06572868969090039
-0.04330375530482261
-0.04344333041832826
-0.02290338935568804
-0.04459095774365725
-0.1004037033246401
-0.0259845666821199
-0.06709058887231513
-0.04476820107711827
-0.1118602219703678
-0.06415899744647689
-0.00936057399826163
-0.06996951605340683
-0.06513670082871362
-0.1424152810726205
0.0596348428529386
0.06631708465670967
-0.002480262275389378
-0.06327160471073896
-0.0167968308564725
-0.1004162451931987
0.004273834681342495
-0.02108478715902172
-0.0008629081292948006
-0.04379098471916541
-0.0362993786597023
-0.02527839156236163
-0.006958706711922878
-0.07313737986681362
-0.007324465824980488
-0.08851348190444043
-0.06449292106940585
-0.05711502178909734
0.02806580658121951
-0.01422168719483808
-0.07181529256763396
-0.08071954793523546
-0.03369563874945294
0.0126381775556807
-0.02134365942511193
-0.1087633223160464
-0.03871676060913837
0.00410903470206331
-0.02326664871351589
-0.05530283762895877
-0.05686454897989243
-0.08059967193072365
-0.05909976116914799
-0.05574321203949346
-0.08583508054108425
0.001009953123290855
-0.08230034276173048
0.04159078795947897
-0.005862796984679108
-0.06248739069892895
-0.02590597120175943
-0.01688183282333415
-0.003555072756744323
-0.0727074826243012
-0.02683332032380812
0.06595010785968761
-0.03512519823519843
-0.03307880153158218
-0.03134896802593812
-0.07348341606978001
-0.02425026044579055
0.01266261074728722
0.006436221886203815
-0.004314426862764016
0.01516887435785951
-0.03707112296761866
-0.02206810616522492
-0.05598984271668834
0.03989917300155903
0.0063853045756319
-0.008674550669240508
-0.03518805387812236
-0.001003970607839473
0.001642597214844363
0.01540898488242784
-0.1062714636215232
-0.07077614820389429
-0.07845671577316436
-0.03081684495781738
0.0355788521381621
-0.04826293057875963
-0.02179392635147781
-0.00928872522992003
-0.08151465305604054
0.08276850923195311
-0.03553034602212731
0.01981000421229978
-0.01028424550468624
-0.1035141077206576
-0.03697748887492095
0.05401321724531102
-0.05695985662704756
-0.06058317420766486
0.04989581453138271
0.02178380439793329
-0.03962034192435688
-0.06532136490908341
0.1360066768813288
-0.03527025896711636
-0.06880563666850466
0.007393564209031249
-0.003504654603342342
-0.0809139551823779
0.008594144089529581
0.000808746774754226
-0.0341809934606673
-0.01232513916049741
0.04717006742131885
-0.05423298748793046
-0.06591358932368702
-0.05952116933996233
-0.01547551698315135
0.04325687863156982
0.00932253964011105
-0.05329917733885967
-0.04770440246943443
-0.0132446189278184
-0.08552553479411094
0.02274359157538391
0.09753705433864732
-0.06008605670937803
-0.07292993626306578
-0.09041961511413552
-0.03122068567344793
0.006481630669262928
0.009178357558531596
0.0562162660151912
-0.05982216067037602
-0.006813391350307308
-0.07625660416698443
-0.05261933371846917
-0.09422210271683409
-0.07643430654083981
0.03520230422884101
-0.01687093935855935
-0.08239510329049346
0.02322410874513408
0.02063699121584332
-0.1070705436298059
0.07633311025833564
0.04935933302521303
-0.06278267248626385
-0.03306984037935369
0.02324646460324849
-0.060844475249773
0.004955125626691692
-0.04698776287600565
-0.05782659083774545
-0.0415378254276036
-0.02755076552496316
-0.03558567072807255
-0.009670217436641594
-0.1008126991495795
-0.06787618889551551
-0.0119552848939229
-0.05549146087235197
-0.01086799446930026
-0.04203270382849333
-0.09416142435718911
-0.01715908344136177
0.05676911468925988
0.02089804368519914
-0.08778457080223827
-0.04403272382130175
-0.04822561932901303
-0.05277199147783804
-0.07811357785376942
-0.1424660342435019
-0.02051388606711703
-0.08006966315546915
0.03829660845619266
-0.03377956298895894
0.00303925768094847
-0.08289613922426133
-0.05082354352715498
-0.05493698577788072
-0.0529626538661842
-0.003025938560397723
-0.01517250965240734
-0.009332764003489551
0.05956130120907445
-0.01787729710668713
-0.03924137368457519
-0.04966731962173699
-0.07657400411147409
-0.01373805941699653
-0.08216090297399094
-0.02362158542437781
-0.00865487109242633
-0.08577139932642754
0.02671280933503462
-0.05051596571597518
-0.09434524898519042
-0.0008751455168629239
-0.07351340239374946
-0.06856398975724694
-0.06284964653556406
-0.04509993169608596
-0.004722322198210788
-0.04726376710751026
-0.04195794179601545
-0.02559353589457666
-0.02096316108056812
-0.005604144387442388
0.005818394387594102
-0.08728812931703411
-0.01488912379444473
-0.09266192822377943
-0.0533493405440198
-0.04590538365823321
-0.06934500081162322
-0.04119573532523418
-0.0007046415624949146
-0.07656605465580639
0.005947372088582155
-0.05330619823455816
-0.07041646279349041
-0.0711809348215674
-0.0195835457779504
0.03985660343868285
-0.09146385026452404
-0.02375698049266496
-0.03904451917215136
-0.09498290933169544
-0.08856016142275856
-0.02313075622124842
-0.07220726868231513
-0.06221503313015894
-0.02397610068480153
-0.02680605755554916
0.01654356982339484
-0.07888727812839916
0.05188880558937414
-0.0481634975373229
-0.03279290277192062
-0.00107244156844874
-0.1305009135598906
-0.06403257052405949
-0.02046073782830881
-0.1136801473343849
-0.08976449838810573
-0.07099265677002975
-0.04874112711214364
-0.0276924024307358
-0.03180920255425184
0.05685899872007795
0.001669598097398866
-0.05447615817148448
0.04432021629521625
-0.06758129248528122
0.03681968385863801
-0.02306561025228166
-0.04982399911766933
-0.0986976897234258
0.0235703474458877
0.008844607885362824
-0.007830423522690321
0.0430198305029454
-0.07521805418543333
0.03336824973180862
-0.062625273015493
-0.01499188500232066
-0.01259764834115237
0.05947997571942532
-0.04120956782632512
-0.1093454592532419
-0.07760157993616837
-0.07504505478812284
-0.07114971473311388
-0.01104012406311838
-0.0782103801247292
-0.05521368847038453
0.03042065581607854
-0.06337004154682029
0.05437295004138928
-0.05381000001613312
0.009645095351064215
-0.005856098206543721
0.007579476156511932
-0.009716502343215042
0.01209071816439605
-0.02405248832396291
-0.08979859436795892
-0.0711059673557649
-0.07183246452909989
-0.01148214971439007
-0.0800239724908833
0.004681875159955857
-0.04982924679642251
0.03895602767098508
0.005237236016004926
-0.01636893875833117
0.03589972266862374
-0.02800176387262356
0.02988296987901317
-0.09015875137582476
0.0572793876873349
-0.03979454842766573
-0.05308996386532831
-0.06292154637182208
-0.05359334183413929
-0.04158238507120472
-0.08589668372819202
0.08929002568780442
-0.01352706163969123
-0.0954841491969244
-0.1184415927127311
-0.07632186930868995
-0.09633608021939012
-0.07876768830060607
-0.04906949627055979
0.04905072022530672
0.005207727152646021
-0.0400489278443279
-0.08496333726455146
-0.05940544496764779
-0.007628674417152713
0.07752288168569835
-0.09087510357120179
0.004747477999132262
-0.09954091135281644
-0.02911210048558805
-0.01007915091911596
0.0440409404224297
0.03112687930736766
0.001828943878322718
0.05757729202431627
0.01042498760754693
-0.041761792811305
-0.08319010875724937
-0.06585915558158895
-0.02919097985454918
-0.07648361932945431
-0.07919580690035796
-0.07641310699676175
-0.001208968593276955
-0.04496949414682337
0.04477323977467512
0.007370527547028063
-0.02210453127669641
-0.01163561315295004
0.08661650005704737
-0.03267697933792763
0.02749652771678687
-0.06284271916237878
-0.07214242072905164
-0.04299061344437424
-0.004366750001878433
-0.1138790388443212
-0.06351698228493743
-0.04466444986485095
-0.06041714190245105
0.06212363356876695
-0.03942808763061623
-0.06290691867298727
0.06134925314471001
-0.1143612724552935
-0.07916096668738733
-0.06019754473593309
-0.01322871312500332
-0.0226934587716163
0.007338808356487695
-0.09980310181964241
-0.02231929793498492
0.005923327523542832
0.01218907613527039
0.01444090970606134
0.02827446085130964
-0.04714759718928256
0.05705916777340178
-0.07480132775600669
-0.000229042986849157
-0.02908316165889312
0.002043076299166494
0.04716942525019873
0.01096614721192413
-0.05834951587013239
-0.04649621665025834
-0.07134240153283139
-0.1156229599570127
-0.01220605612181782
-0.05943723549901831
-0.03374256934323854
0.005682985658319675
-0.09866958401695582
-0.01311923458382032
-0.05964275591416744
-0.005335879133140052
-0.01340511629155704
-0.08163652179143681
-0.0187270411166425
0.005515155505359362
-0.03565155205963189
0.02529399709988493
-0.08417736518548548
-0.007492414153769026
-0.09795224296140206
-0.0954703696671408
-0.01966552592665612
-0.005915023934794131
-0.03291417410000144
-0.02878066903022493
-0.11029105462267
-0.06155129897662318
0.04749734591563297
0.02999785147508148
-0.06556280392891238
-0.06067842643092499
-0.04892542408153216
-0.07307110008301174
-0.05873065218967178
-0.08829365685349272
-0.02516809951845244
0.003374834874848342
0.006485501955409687
0.09954356258838899
-0.03919937659886011
-0.08019573985811419
0.05607370278053335
-0.006562184810946652
0.02403281028761972
-0.13753881178888
0.05152578390697878
0.05265836635316627
-0.06558401935779376
0.01795640669563665
-0.02379361353624765
-0.02617147918982027
-0.0257036050702571
-0.07488175953468708
-0.04321763764882759
-0.09427822652720205
-0.07055883515415792
-0.08822390333133937
-0.05682783422704125
-0.06535088381767742
-0.08041493201415741
-0.00698062677170815
-0.003330176869555819
-0.08278680549640842
-0.04565021082849227
0.03074975050439189
0.03507418941960022
-0.05748630072133065
-0.09401372054625112
-0.05153347236788422
0.09716013908268199
-0.03991219885167854
-0.08550675325000388
-0.08900656451003985
-0.1058896650714506
-0.03321887393933947
-0.07098115353945966
0.04553909485379448
-0.0288368284036503
-0.1167604478887218
0.03883982477891393
-0.01232050318629721
-0.1200551666754056
-0.08287376053420065
-0.08400224268390842
-0.0694639292666475
-0.08996781696755786
-0.007490119661864214
-0.08231345757324555
0.03257002039431713
-0.121953903095324
-0.02281014970110331
-0.002390906120011862
-0.06785117046890768
-0.04450854129974115
-0.08609278321116887
-0.0863100809375948
-0.03431888243645123
-0.04277040794775467
0.09525929859771287
0.01143351568157507
-0.1065848472524534
-0.06710552223347106
0.02232317248675118
-0.02433811078902938
-0.0287714014856692
-0.05564223769353708
-0.03599235008389092
-0.08839361919301818
-0.10469138323885
-0.02091740457944087
-0.01312050687815217
0.02295876594869795
-0.06507129937580727
-0.06921271942161669
-0.07072634493250871
-0.04041009313156142
-0.07450644784811777
-0.03153513042911415
0.01247048763899353
0.02126097378920802
-0.1147353524805947
-0.04935702287539025
-0.02803471089256737
-0.0663891336333275
-0.09634097017913817
-0.004917150666069333
0.02411573514241451
0.07500667018530166
-0.0008901675474508516
-0.03586759431392287
-0.1309209434206217
0.04767010740810152
-0.05425074115671268
-0.06351872771445699
-0.04552052074123494
-0.08416731183237273
0.03783512217845498
-0.0480505683528035
-0.07447356464841236
-0.05772035642824649
-0.06941339120178416
-0.07570636263980249
-0.004589065903387145
-0.04725347357623634
-0.01966992473892368
0.00654450142422262
-0.05918612455787771
-0.05815676389351607
-0.04790796131137293
-0.05497283881266592
-0.0386252882613089
0.008896297097355139
-0.06063203079029052
-0.05153443891458342
0.06826185877876466
0.05435854094253938
0.03462924588992254
-0.04902551515715588
0.01893372490909859
-0.0502323845953323
-0.04667329762257305
-0.05649398326034761
-0.05154356708156863
-0.02920700600205991
-0.03691790752859807
-0.02478238990897474
-0.08543999320842073
-0.1285106628577838
-0.1044055643320979
0.04706245319163425
0.01468664224444385
0.006201839224488562
0.02463786147593687
0.0268225727012412
-0.02573670760652022
-0.06434456057293908
0.02979105515610813
-0.02912499508418972
-0.07223377312604073
0.006689402786911407
-0.05327801811245819
-0.02741620399277511
-0.02548283503073524
-0.07514367771187432
0.03216693404143686
-0.03636356169143939
0.01783956548432044
0.03596517849719326
-0.1094946900905218
-0.03646234698276341
0.08101191130778777
0.008413374385609405
0.02793232577346802
0.01186200580405981
-0.03449836694707148
-0.09603115991657253
-0.006088782674598352
0.01182226729155069
-0.06139547662003286
-0.05155957252454334
-0.05858397478265624
-0.0651072023860593
0.0128137630729067
-0.0441210694709393
0.04235756747958717
0.02094777782873497
-0.02808392694504495
0.0335687431996003
-0.07107342645697276
-0.0004503979681216272
-0.0582060527872779
0.007587096671840926
-0.006942543262248937
-0.07744735244071495
-0.06373995664020346
-0.1017611322912311
-0.02604973798280456
-0.01819048918392954
-0.04388570148310632
-0.08427259680356845
-0.0818699631506412
-0.05371106819200202
-0.01811544253677191
-0.09130525286091946
-0.1013196433926341
0.01656563664896267
-0.08218087261718947
-0.04367556189771857
-0.0842220723157132
-0.06464906062003853
-0.05412880286129213
-0.02074753705030982
0.02435532832773941
0.01067204486360044
-0.05281502831083492
-0.04747987847002693
-0.08074298243016292
0.05039713983093736
-0.05027995556526622
-0.0790776037506158
-0.02561788605019398
-0.05947602709012235
0.0006490137330144905
-0.001916156030144558
-0.06600623095769492
-0.06220013787492832
0.03877883794387808
0.005578301864668907
-0.0391451789591885
-0.02050742692692567
-0.036416099629251
-0.04708095349443132
-0.04024571686654287
0.04651418530102908
-0.02129990698747973
-0.1157084576515571
-0.08747045745147775
-0.01683322928480776
-0.0120667757272598
-0.04437418799095345
-0.0574952128382162
-0.08997864125724722
-0.01767408801040174
-0.01967292836419644
0.00954648304000503
-0.04834461660010258
-0.02775559778593083
-0.05655724007088501
0.02071926602299237
-0.07471547186123773
-0.07103798266747202
-0.006857213152833957
-0.07221814185848398
0.01684246070583317
-0.08250165782149682
-0.02004354998748828
-0.01853190053805566
-0.06810683469285175
-0.05273946740840986
-0.08931088071985095
-0.1139189528823315
0.02065664373487867
-0.04498092233632514
-0.06018173969256705
-0.01237939111510728
-0.03334510358448561
-0.008565054854815034
-0.0234347593388233
0.01117752272227002
-0.09554501843388798
-0.0005399730203356331
-0.01275923227894139
-0.05713752020739687
0.006627339599874018
-0.0424294189305869
0.0423998660458521
-0.09357459490754713
0.04082052147552704
-0.03892000111481252
-0.01266320399584755
0.06156905489851259
-0.07038962098542428
-0.05380074074974205
0.006390199568712207
-0.04443503614323099
0.03222766363600157
-0.07238897493461763
-0.120891643694119
0.06374821591370022
-0.07203989653331232
-0.0595313935958587
0.04284667150706187
-0.05909157947550703
0.0427479006987156
-0.09006771769995491
-0.08137569811825837
0.04498888743489721
-0.08209176118776727
-0.03291980481617959
-0.06900526816036237
-0.04040822123669212
-0.05684132473892714
-0.03105252894643636
0.01086400079716187
-0.09780523318044769
-0.00842110315201795
-0.07249418011652337
-0.09362515458123075
-0.02398111320657369
-0.04244835200679889
0.0550061593277467
-0.03065246262017728
-0.1149648279463553
0.01127434101206833
-0.07994325151757298
0.009823715716017043
-0.1236123105345783
-0.06941388041777873
-0.0958566514705263
-0.1028535204455079
0.04139967940567486
0.03664256815292138
-0.02792215748400483
-0.002107425525208465
-0.02112073856902138
-0.04691987663414578
-0.07781596298606303
-0.05311366936356041
-0.0283185866161965
-0.01509409949427166
-0.03260609877945746
-0.02892853683319985
-0.09685079657238847
-0.1096117816867301
-0.009625553949264481
-0.02871618230491648
-0.01483262617986238
-0.05768781739130127
-0.07382743723005554
0.09260165168821763
0.00472777609917332
0.01300593550757662
0.1066124992682287
-0.02841764464417498
0.06544960364265587
-0.02156165296106614
-0.01339165515568812
-0.007715423375432524
-0.1279301038963802
-0.09444884063651651
-0.04826886544616719
0.007305085004676685
-0.1060491589222277
-0.1132777540953494
-0.02321472411567265
0.001579711521353317
-0.0628598185180857
-0.001112740752754544
-0.06569814759509242
-0.01682498288409715
-0.0393329662933287
-0.0319270263317144
-0.04058435505514599
0.04212483204280251
-0.07366803763997967
0.05116879642696196
0.01724378862982648
-0.02305448268145004
-0.04334929676138798
0.05449974926093389
-0.04323930093972669
0.03175926011241557
-0.01662998274031597
-0.02639309247025628
-0.07207471893552998
-0.04473086814132036
0.02716893651570193
-0.09987377425175828
-0.06332477026374275
0.0290839514426114
-0.05946382139732907
-0.01791133368137366
0.04220587293067527
-0.01966525409709925
0.04196920284852792
0.01906880700022149
0.01695457378559365
-0.02689683366623404
-0.09846837770085327
0.04311791932407336
-0.05932130794687901
-0.06692871392694077
-0.04630198368836174
-0.09549080529066337
-0.08257093849385234
-0.04964086187884006
-0.0336654202992876
-0.01488469978944843
-0.01345016643471309
-0.04882099403977692
-0.0441830332342262
-0.1010051352047396
0.01725949225359541
-0.07399287041606448
0.02969013444545075
-0.02984670403290035
-0.01094166471893671
-0.03302980430596625
0.02439962924846847
-0.07600403088464963
0.006464602597179757
-0.01881459840688657
0.06108542293625815
-0.007895189324481973
-0.02604665731424675
0.001124105964564512
-0.06798726955278014
-0.02958856245217942
0.07070425595864484
-0.03397747639841182
-0.07217572222190742
-0.06871520505907619
-0.09444136679411895
-0.04944430161700296
-0.1027232377255941
0.01016043099133972
0.03344243371742707
-0.0009371583269959506
0.006249221662427633
-0.0537073631594439
-0.01517842713518255
-0.06871172993959986
0.01966373393968526
-0.02914691106472696
0.01190624562638654
-0.05421657911961969
-0.02673142857168487
-0.04110684930665196
0.07438841630082531
0.05339716141065606
-0.06151590160359208
0.002016823075075988
-0.07150683183738162
0.04367987753165371
-0.04142182764778046
0.004021153607580165
0.009357882064822146
0.04027724561131448
0.005890049907519944
-0.1051701190059394
-0.1234597019257064
-0.0301266265533854
-0.01193208034881372
-0.04700227272704344
-0.05513515029325847
-0.06945372668946204
-0.06381722099917954
-0.02981602285899024
-0.01891623484337797
-0.1006743292594881
-0.06223255931354528
0.05550764922035799
