-2.359440348039117
2.359606084584059
-2.359754440272556
4.544808649012235
-1.881873921255888
1.882051310473977
-1.882155581777889
2.98924458955941
-1.912158055169098
1.912699979967281
-1.912859391454993
2.043442380818274
-2.304377913168469
2.304636132439089
-2.304616272607765
1.22686079909183
-2.415603660726891
2.415781180573209
-2.416468342891331
1.09470261471022
-2.452128403314612
2.452317897540365
-2.452522914589788
1.061498555931431
-2.231798451409842
2.23128499223099
-2.231511814563577
1.334899303912251
-2.493173922692957
2.492584236155977
-2.492809871569632
1.02809606464683
-1.858094468415332
1.857720477313179
-1.857714766242914
2.291844355656851
-2.043236591822637
2.043138031589002
-2.043216406092674
1.685660846393371
-5.816299147635279
-4.24923277944109
-3.663079625196053
-3.370507919214077
-3.327147724568303
-3.316286716664279
-3.405073964484288
-3.305156585744589
-3.771152111557855
-3.525497008369483
0.9207155719544938
-0.02565490079456116
-0.08892788561621348
-0.1806142273112701
-0.3706680762278513
-0.4360806635754142
-0.4567094545247136
-0.3277516125661491
-0.4799971987501616
-0.1536293168313136
-0.2330339916650386
1.445012363126343
0.3654317731306546
1.70790781258109
2.072846362511413
2.247818688492583
2.226378059949537
2.220024704208822
2.252901451942203
2.211417774733472
1.967402096587664
2.195545346648557
-6.198256350915764
0.2512925504594126
0.005336862711522027
-0.2217312737895638
-0.5810401106942906
-0.6811815008211412
-0.7106563844777881
-0.512338437039409
-0.7441043736222364
-0.1570410506074202
-0.3398181898783612
1.960485824541573
-0.2876739654769632
-0.2308556614721392
-0.2194086377554437
-0.2647245960354107
-0.2939547252250466
-0.3042054093826894
-0.2472153651463559
-0.3156366972852247
-0.2219071278083502
-0.2218020610787279
0.8999889956210096
-0.2954652879357794
-0.5337986321818189
-0.4824531137227388
-0.5621037583753017
-0.561518492240118
-0.5616401574115738
-0.5624702010340399
-0.5605848766869882
-0.5356774648010623
-0.5531032412703196
-0.01329649893679046
-0.3855949021374277
-0.4259033878189485
-0.3898367900051722
-0.3660536431858447
-0.3600699248891031
-0.3590114464813896
-0.3710955089326437
-0.3574241588380763
-0.3955955526451631
-0.3812509603023828
-0.1170685933910384
0.5366298487000747
0.01388293922495285
-0.4142806927581257
-1.009153710129668
-1.149509492646058
-1.191120451186299
-0.9070516549079994
-1.235841522667755
-0.2905720605800928
-0.6278626722717459
2.52781619571765
-0.1187078573366673
-0.1340194397861014
-0.1880142959315487
-0.3260002256850473
-0.3795903885909532
-0.3976123368553421
-0.2919080477915034
-0.4161683779233841
-0.1716785327182608
-0.2226208591920892
1.269303496369295
-0.2951109498837149
-0.2347183525569558
-0.2207464753173939
-0.2614007790080441
-0.2906488872204245
-0.299621576167772
-0.2457349205529104
-0.3116742273824709
-0.224806126483931
-0.2221667398894954
0.8786714937601717
-0.1383255544171626
-0.1449933612972226
-0.1897944068251876
-0.3177559036399764
-0.3691518718629649
-0.3853233089372504
-0.2859758321088973
-0.4038575033189329
-0.176855717972131
-0.2204759090335173
1.230252871627472
-0.3422017127677721
-0.2651868543828604
-0.2101596544418954
-0.1900796602423206
-0.198604743072563
-0.2022532868524771
-0.1873489876853973
-0.2060595596355024
-0.2229164286155606
-0.1934349400447415
0.4255948162753559
-0.3631499551086882
-0.2808734476538613
-0.2308651207490153
-0.2178105422463462
-0.2290218887154995
-0.2326805585977484
-0.213395587551256
-0.2377830641237094
-0.2428698240679841
-0.2163556129432334
0.52578029283834
-0.09327398117024821
-0.1211737393202154
-0.18446688619331
-0.3369808293796002
-0.3944015223052782
-0.4124494994665716
-0.3011815146712858
-0.4328278922583169
-0.1659924869651234
-0.2237768675857072
1.317870957207302
-0.3552786024494785
-0.3505965361070516
-0.307448747472913
-0.2799187585027189
-0.2752120182488366
-0.2748891482181129
-0.283988985712752
-0.2738149239399408
-0.3150642122895432
-0.2962049727102797
-0.05472619003575784
-0.1841938035978816
-0.5369071421496624
-0.5757433951326723
-0.625448211458852
-0.6291923215901746
-0.6301935715233951
-0.6212182163588651
-0.630985683906193
-0.5595699685094492
-0.5992488158469059
0.1876277304863749
-0.3624890949510557
-0.2802518549793078
-0.2342840537094533
-0.2273182623009513
-0.2412686105011772
-0.2465816507102856
-0.2215432923553465
-0.2524406539686284
-0.2452989990646173
-0.2218591526808576
0.588008088138236
-0.08633131755723839
-0.5237696809896779
-0.587949414024492
-0.6642765835032205
-0.6715743938533226
-0.6736746142143231
-0.6570133746733785
-0.6756193930139578
-0.5651991831586762
-0.6237374138310445
0.3938937258725176
-0.2904787595801904
-0.2319602986557687
-0.2195779072609293
-0.2632003286441208
-0.2931850255655057
-0.302914537121462
-0.2469927755679659
-0.3140287011573393
-0.2222622690150624
-0.2226368260575569
0.8924322183468972
-0.2422473692187616
-0.2026045241832665
-0.2092001919308974
-0.2791601259939123
-0.3161278489324281
-0.3284486164204654
-0.2575817296710411
-0.3421523487156888
-0.2066786616083114
-0.2204023638313003
1.011721700289691
-0.03931872213487133
-0.514587523634659
-0.5918529131112155
-0.6809661605573692
-0.6899001002985794
-0.691862301623284
-0.6717421749159692
-0.6947471076707818
-0.5647784039288929
-0.6328466066503602
0.4996023071462737
-0.08714622046343676
-0.524109606903488
-0.5881039737828802
-0.6642389497462524
-0.670170674391368
-0.6731281944519921
-0.6568532659853665
-0.6751365293705812
-0.5651150484353532
-0.622624251970707
0.3908170776517043
-0.107558978686812
-0.1284546797266646
-0.1859748228044466
-0.3305422160339554
-0.3864624184846037
-0.4039624361275838
-0.2960757303472624
-0.4236711448753936
-0.1690970166322393
-0.2227190675568824
1.291649478286961
-2.968196685746756
-3.192210808020481
-2.733354571777378
-2.257256661166374
-2.165863790669712
-2.141037973717731
-2.327440321351137
-2.115469245837676
-2.849752752452445
-2.544358391430727
4.618682663357049
-0.3863899994982
-0.4675331437863309
-0.4396086914992839
-0.4235999406504812
-0.4172474197461831
-0.4152670501390855
-0.4274352592301029
-0.4145183638017844
-0.4425989584961793
-0.434787565934782
-0.1301287883194612
0.1790007407115338
-0.01165857549034686
-0.1981707619490949
-0.5104990418739935
-0.600298321088779
-0.6282268597263504
-0.4482079494854851
-0.6584947609601507
-0.1447637794133072
-0.2981491502543125
1.822948160475553
-0.305894357774278
-0.2346335096546415
-0.176665657569007
-0.1582976872585335
-0.1662676503163098
-0.1702244350679332
-0.1557814005376002
-0.1746534111222917
-0.1904980498338044
-0.1603121178512609
0.3792944598905145
0.4468431738321909
0.005343200810302579
-0.3623822928449328
-0.8835131565048377
-1.012048799747381
-1.049388005021713
-0.7920563940753331
-1.090507817819813
-0.2571483720120645
-0.5457435766317679
2.359113400242213
0.8243504204767657
-0.6906103090847955
-1.329669093936054
-1.841144525721188
-1.868978537629581
-1.873850847635012
-1.802704096241225
-1.876762558756865
-1.14352690048164
-1.592420581093059
4.356297114469941
-0.166093385479684
-0.1000419565796073
-0.04095077327414207
-0.04006755739048424
-0.05546959646637246
-0.06148817306025918
-0.03232066876392545
-0.06798238610621617
-0.05304981193938867
-0.02859566342849077
0.3876447732684506
8.69243060499112
1.104336976646896
2.960799570160519
1.604203764674351
0.6812345051268555
-0.672593203957505
-0.1529176817625874
2.559518373845783
0.9676468158448726
0.6637736797362959
0.9378928826120638
0.1912825171653239
0.3325723660495993
1.003988521061081
-0.01361934181885813
-0.9023813042776219
0.4012214814438223
-1.062038959392899
0.6751254062657631
0.7703880372143934
-1.132457448601532
-1.059967862559175
0.9840584945912093
-3.796364730226915
-0.2764581722831325
1.446196763614414
0.06596568366167357
2.267543755275887
-4.342517329806389
-0.3674593679903032
-6.537789959328121
8.804821828512932
-1.150197600071492
2.927536017762673
-1.197273979294515
-1.062534594865749
0.0004688443880044524
-0.3087667068258254
-0.8921746481378222
-1.123904909235469
-1.058114960936404
-1.117887996944126
-0.8910653917215682
-0.9455659541472264
-1.131695644112086
-0.3906829230717999
0.2145708733534228
-0.972976693880253
0.3752924983537721
-1.060509214862245
-1.08300951233728
0.4472691128957309
0.3748745051987771
-1.128033623387486
5.497274688358194
-0.2539783984917843
-1.19525317651292
-0.8621526319259251
-1.020971015940267
2.571851602185246
-0.8680883999057645
5.42955036335998
4.175016155830102
0.004074214556465647
0.01414515239320865
-0.01371215382556246
0.0215787091957189
0.2109915102939529
0.1524420037620631
-0.0247026502506127
0.008137037511453624
0.02283992687815438
0.009308771518606582
0.06390360805871402
0.0493022863949347
0.007341858412785511
0.1347913283343147
0.2369332151260387
0.0431728695512328
0.2544615239117478
0.02209698382996098
0.01645298435464986
0.2625294314440198
0.2551557179312051
0.007763181006252314
0.2930316657544506
0.1668748772392432
-0.009257875430844801
0.07748650958506967
-0.02399844495228843
-0.001396403076993008
0.1257260275198538
-0.176295332318208
