-0.16124000530022
-0.06534601967036378
0.01908214025037533
-0.1731396483979883
-0.05051500968069771
0.1784045433952739
-0.109678940144773
0.06291249143556218
-0.1248017264846433
-0.05907999868849563
0.07608132570421286
-0.1316865716606991
-0.1055680912585306
-0.03632413995759788
-0.05689195171405483
-0.1658192540143608
0.02645420566141863
-0.06413061783494885
-0.0489617814023241
-0.09622574452347489
-0.01871432939170707
-0.06165571412159836
-0.04214344129997455
-0.108937181039004
-0.02686944004555985
0.001906519712135241
-0.06701302713525951
-0.01868367123593841
0.2497447723538883
0.2676097731599215
-0.03006047939396199
0.1125613674263413
-0.01660046436575506
0.05358308616293662
0.01814846543387146
-0.1225015739132637
-0.04472835160066497
-0.08493714081779237
0.1327732242713211
-0.001994050209110276
-0.1178532908292705
-0.01065835826796232
-0.03753323634364882
-0.08603006335534658
-0.3215169760500897
-0.2491277749668642
-0.06193320282206363
-0.1405538367241859
-0.1092218255244279
-0.2556227490511639
-0.2037619395791553
-0.02121996110804556
-0.005801540659603433
0.01096509881672738
-0.1769525796380651
-0.1507231581251474
-0.1374752361569105
0.3913640437677285
-0.1229940012720524
-0.3087836153736286
-0.1104581523153851
0.1972381908371328
-0.08199675742053686
0.08073751259780351
-0.07215037736179031
-0.07435445418894764
0.1593096934627543
-0.2193510489830717
-0.1623851739290857
-0.1149516518477626
-0.03199599854135743
0.02189242214819541
-0.1781749627835286
0.0500037287477155
-0.1214055763221957
-0.1843143284316431
-0.007409480343321816
-0.2384519165405748
-0.1643451145053579
-0.001486117407684524
-0.1455314943807676
-0.1459297539587965
-0.09224724494746103
-0.2602167901544225
-0.0004672059623210917
-0.08832138053160903
0.0008780119882199477
0.003929689635624532
0.2758084803370699
-0.01274385240170688
-0.08893883801101621
0.2373447191376922
0.01662473183876719
-0.1339821146187352
-0.2607100720788568
-0.06651223168648634
-0.07413163428167067
0.08090866343776179
-0.03910128387693161
-0.02942555038892222
0.3038154615052127
0.03658094931669708
-0.1188984837313902
0.1656887384573454
-0.0596686047793713
0.1470409603744607
-0.3521487283057849
-0.09826703794188792
0.1590465831929954
-0.265579497736718
-0.1461205781770358
-0.1199271885725114
0.1407744396853661
-0.01842172366571006
0.1395522719199064
-0.05625052115482344
0.07644699654468474
0.2296078165968122
-0.07084051093124645
0.2400882453152687
-0.3334476489024543
-0.09279106120761853
0.07784862102997003
-0.1369842725082958
0.1898682150063244
0.156171531908973
-0.1240824147410725
0.1074919750109796
-0.2481686840991799
-0.288443574484366
-0.03921019814340169
-0.0936673709064859
0.008316128608172803
-0.07140772195206041
-0.3225570067849537
-0.1691542703688368
-0.1461514693929648
0.0950682427383492
-0.1591021739620874
-0.1401128185899189
-0.01387325618411001
-0.00142306609895769
0.004157913811454608
-0.1771922240080281
-0.1311654762902272
-0.06601271685611657
0.0437400170166143
-0.003226958900566685
-0.06857760429575654
-0.4211370338442305
0.03241465546486431
0.06241528722475782
-0.07754413736308371
0.03371124932437757
0.01880295443050683
0.001975199734700353
0.2512432613256304
-0.08916668093701333
0.06128411476525426
-0.1483616855335849
-0.03819053138122536
-0.01008296428270809
0.06847430435908999
0.07091016489896203
-0.1298005457377143
0.2395362676865664
0.1869046097083838
0.1481071462026528
0.0529953927603042
-0.120188311548661
0.2498786199158509
0.1320993127901514
-0.03122013104225911
-0.05181539710940173
-0.0499260784008485
-0.03281677147342191
0.04537743783044645
0.2031384820649716
0.3916531256500952
-0.1081814171687741
-0.07638840676936254
-0.1444714489886035
0.2312241922032566
-0.3111403032770629
-0.01092093534302776
0.02341457576042768
-0.1060771235510567
-0.192485612892348
-0.269896710677645
-0.1285001321117156
-0.1575830372440313
-0.1407663504854465
-0.146735066560991
-0.1529511552177617
0.128700053550942
-0.0004542136957087398
0.02822272780520311
-0.1299809723204021
0.1856452845811102
-0.08363387349355261
0.01746250535947397
-0.07933072348585067
-0.1719877174384963
-0.1197503160543222
-0.1940718371423763
0.1799082310677428
-0.1420061331887122
-0.2022107003587777
-0.1910664337721753
0.01867497381683122
0.1125712412453424
-0.07876753381550401
-0.1594087826736672
-0.1946646286990228
0.02698120440219226
-0.01624551344472936
0.006561383571346847
-0.07424303316886384
-0.01979544684186587
-0.05494010155191294
-0.03415978101917029
-0.1269648300729417
0.07386937232893143
0.009916973277298012
0.0867427401582915
-0.1990334381531464
-0.04326216513250749
0.2366767734770874
0.2439596592541323
-0.1302684898964366
-0.02076013543345794
0.0163408686122957
-0.05516163510630966
-0.4159163456848263
-0.1004215738058981
-0.01171755904445852
-0.1523917857003249
0.2756385812266774
-0.08024236460180448
-0.1895468213163873
-0.07486025920489896
0.05622147504873388
0.04494772908254522
-0.1580962926322501
0.09961231607026982
-0.006156462817762181
-0.1183854641840354
0.2170232113074888
0.1713323483353808
-0.1111721241323245
0.3485733130760621
-0.2241595344456548
-0.3685059161391273
-0.0746501315885502
0.1041573906833574
-0.4737506593667381
0.0324409608438354
-0.2832994447062833
-0.03857208997157725
0.03571183013070121
0.1159135604830807
-0.1225882881682548
-0.01944606784425695
-0.09948385248895163
-0.08507864212851854
0.005723762451595498
-0.05040546607471515
0.007832375373929727
-0.1115602796662151
-0.09695095407352243
-0.3744186449614118
-0.5460246480437559
-0.3464227873379551
-0.1002514175740668
-0.2086410667056969
-0.1203050232102165
-0.05001148320974004
-0.05186094936390696
0.2343305270765277
-0.1969725547692023
-0.1128410260363073
-0.03987378643247939
0.002900505545298741
-0.04616679345820118
-0.1746943282087037
0.02806819264252513
0.05700951327605878
-0.01292470137460521
-0.07989878947380072
-0.02641186407838011
-0.05569896842915154
-0.1427872417188797
0.01228804500340633
-0.05865231431047409
0.03103814669730545
0.1135956067761921
-0.09587192022431854
-0.01749624839284523
-0.10316879464326
0.04292577842394251
0.1536082426067863
-0.2576560985506488
-0.02663354042170896
-0.2904948375667067
-0.1444557356077797
0.1007913058871248
0.1961866050567999
-0.1663961134104559
-0.0869016325050103
-0.06578350249433482
-0.0202458875935707
0.01464086313494969
-0.06799902921383863
-0.0617053264560526
-0.07988763296243996
0.0007688282043871962
0.0240041358452003
-0.0199021750774096
-0.1360240601146543
-0.09842958020929786
0.2225178312278611
0.2409100960010741
-0.02231068541516226
0.01509228687050675
-0.03056160922248981
0.5359174699027931
-0.1016027049595064
-0.130864518340927
-0.162371122396331
0.4110677887289052
-0.1146643612932009
-0.008951712735145509
-0.2402245056004197
-0.08455554472832996
-0.03324458629260517
-0.21967595989528
-0.02171325143253785
0.07109318247266187
-0.0563139990807647
-0.1741362968891667
0.04754405976613081
0.06455874820601162
0.2163771202629955
-0.1483469792200026
-0.1661659299378214
-0.06529371620497408
-0.1613717788687772
-0.1303269711376039
-0.2257501313425893
-0.4501879094596961
-0.00911956505032486
0.00237324973989264
-0.03662700907527654
0.07183787337616747
-0.08410636141990978
0.02301623790057366
-0.01083242425649986
0.002611568635484545
-0.06464355690550355
-0.06084908368261353
-0.0004465122738196996
0.01257441728672758
-0.03055408410007622
-0.05628081917057261
-0.02361524246217636
0.02336305984461854
0.05490758053247584
0.002280743194109814
-0.01852839244995595
-0.05844307872204241
-0.004818510229218949
0.04684143978699476
0.05050484527558326
-0.0362005889233504
-0.0132429998352604
0.2291170017609488
-0.1017959211566555
-0.1735163226909259
0.2546113700017215
-0.2162747642997961
0.07779920332597426
-0.06455239419555438
-0.2079792312381893
0.03037615080432883
-0.04841161505775896
0.00625159222726507
-0.06370948107431039
-0.1783470152748299
-0.1235400923957168
-0.1243400889916204
-0.1122851260313971
0.1865770922828924
-0.08442624581028557
0.03583576022672674
-0.1180768272144741
-0.1383856541393425
0.1847586951502507
0.06354791914108358
0.1390962730125991
-0.250371657768594
-0.1314092283463308
0.05009347373284111
0.3450455808431317
-0.003666700080797038
-0.05689808570559973
-0.07148174065914055
-0.1001634385454104
0.04813536803082268
0.04967733506762535
-0.05720914036957098
-0.03030231735208845
0.2601392377506896
0.1580140384953132
0.107036286102179
-0.1130260436505117
-0.09176217461076176
-0.1277891750668841
-0.04252771451749852
-0.1125239503610632
-0.02100005025040321
-0.02954028549523122
-0.0868059394783479
-0.2703658027417469
0.3295354095491475
-0.01978709442687754
0.1363974088653541
-0.130803952117458
0.001578166555760444
-0.008591402101690166
-0.1224848042987954
0.05651580302786646
-0.03937650632193974
0.009558522117457722
0.01744385881425288
0.2285453145561837
-0.07504184301304181
0.07637367046526519
-0.05397438984915484
-0.003782267946412747
0.09282019368727015
-0.06383008917514944
-0.01071778662617471
-0.05337188721123481
0.006000058188688882
-0.02121055680570449
-0.004008671066655944
-0.01742212438555018
0.004838574193038485
0.009483473614224344
-0.01457792596796788
-0.02791686478078041
0.0573101983793824
0.0001474887412436477
-0.006352619020998612
0.001369525102406919
-0.0311650900794147
0.0168209966263128
-0.01558789691669746
0.0601868013248175
0.002053355945102795
0.0290743828634779
-0.06366469896888824
0.01110728981263814
-0.01348247647583132
-0.03488678557669556
0.01042477946959617
-0.009002926071140276
0.0202188472712205
0.1404571185769896
-0.07877770946486948
0.01716670989772466
0.06173632583417842
0.004435551772607772
0.1286919313698868
-0.1218907476503645
-0.2458132911543929
0.161101950512938
-0.01656166949279643
-0.01256307888060215
0.06595771790642119
-0.3100771750733435
0.1600424056400254
-0.07209514333090335
-0.2969920061974999
-0.05156836720984943
-0.02891040185024583
-0.1342934019453324
-0.05559693519696791
-0.009074175114869101
-0.03797650288569877
0.08776250011256308
-0.1605326645133981
-0.05335437596096444
-0.09420156415764323
-0.05841994521577278
0.1975192260780496
-0.000434449558835775
-0.1422135254628592
-0.07229032099411876
-0.07878424066560494
-0.03066888449296449
-0.2094627125022069
-0.07958804675598487
-0.1265029315054199
-0.03333404331478648
-0.2123619383243928
0.0597880636812033
-0.1837276242838116
-0.09350934730889846
-0.07073716991090655
0.02361476132719698
-0.2277570373335485
-0.08532331824112105
-0.04601054444536806
-0.04373447858843783
0.1702268382995452
0.01326743581700951
-0.08235751902070525
0.02430404989723381
-0.02147111774144678
0.4398967333625842
0.06851449064339406
-0.06537584059865083
0.002657544741377426
-0.02144106561710108
-0.1982529085651797
-0.1838320182792974
-0.07877240313187189
-0.0529273009300171
-0.135788552684973
-0.1223813784815642
-0.1319435804018605
-0.1912812187164881
-0.04013211419632724
0.07344128758142883
0.04804510130993381
-0.1310171387813555
-0.04194442040598607
-0.02694846791181633
-0.06936375875706868
0.09091973538998877
-0.08304545449466429
-0.03289752418911036
-0.02560781017528815
-0.1054381454045226
-0.129445147026567
0.0275076544774291
-0.05889624070524581
-0.03685290036783376
-0.251380399574697
-0.01306872650775321
0.1462274071153538
-0.01208092144056881
-0.07025991378143781
0.1714429240661421
-0.0624422144022276
-0.1123872848515723
0.051268834473871
-0.1861709832776964
-0.1028059013150965
-0.06927166184531995
-0.1175646526636976
-0.04384445204190803
-0.06420886008738809
0.06805637413097348
-0.03851275057461567
-0.03631285280046254
-0.05751193283875537
-0.01515813708256554
0.1799388224931026
0.008951115651546314
-0.06295600042452225
-0.002278553560774848
-0.01507738061747684
0.03366616667574304
0.03075255680925966
0.0381593874180358
0.3849170367849265
0.07090287040161634
0.01419584429502899
-0.1640238123821645
-0.189488353064827
0.08900891528402055
0.05570475487145735
0.007796600012855288
-0.1039544279319532
-0.1837518144915018
0.09862308421590432
0.05655535906440021
-0.1193528999193344
-0.09075944705821368
0.09876460106593878
-0.03525603024816548
0.03179277138259771
-0.09218061530268278
-0.1099847251616599
-0.1088228819769926
-0.1379824901680202
0.00768824994526508
-0.06126732824222773
-0.006159512617489306
-0.08148901871154203
-0.07630895584072679
0.1308691361876783
-0.0596142881901762
-0.04021575742587861
-0.03798934282967671
-0.1257365274619178
0.002749444329193845
-0.01101954503848643
-0.0007487651689045337
-0.1494171878383345
-0.1562030267160987
-0.2136080662847133
-0.1514667210339227
0.009109882083343252
-0.1824256236417116
-0.244145823799937
-0.1706465741530636
0.1397320478084146
0.00838185510471577
-0.05208055350399942
-0.178642846657679
-0.2475882784532411
-0.3048806282222054
-0.1303614789245051
0.06079577701094137
0.2264051337483426
-0.02915231980218209
0.1236358044366733
0.0004460888966804729
-0.1418235231763952
-0.0005760746112038028
-0.04372619643464435
-0.1051566918074097
0.03393557772475503
-0.1454195460681242
-0.1585635265718489
-0.1517849607162475
-0.1259816702027388
-0.02671956841145243
-0.2552318986920784
0.06721989972184378
0.1655897250684715
0.1325720526089951
0.1515763950080931
-0.07023284273189684
-0.0269925776867813
0.2135103134263069
0.002027829240416991
0.229998269087419
0.09972290143380823
-0.05776014230263902
-0.04497277529983108
0.001031326323375416
0.06215082573058698
0.1177887695566153
-0.02794825720225383
0.02964572290716964
-0.01222486163291744
-0.03019327127665491
-0.1082037499319167
0.02123333628941709
-0.04941384354469306
0.06459496732668188
-0.08561559636037833
-0.06302800621048828
-0.06322184113171614
0.02500535087491532
-0.06507666665355917
-0.08215947878011354
-0.2630855046841758
-0.1681063106439799
-0.02282332119182489
-0.1084602657034251
-0.1562963360345242
0.08898626983926901
-0.0683365287166903
-0.3295195681494706
-0.3541189952930071
-0.008247975752706235
0.0977738079735838
-0.102042163401838
-0.1219709491210905
-0.1003553902882943
-0.1292286356322834
-0.02249623005434
0.2356855749410033
-0.2612305295267103
0.1545746784463635
-0.08065773620782306
0.2798058739571519
0.1568892990950986
-0.1714310158678752
0.06814400850561021
-0.1599735870642177
0.1827227127562368
-0.1348047877321663
0.008107772809075747
0.07890769290903879
-0.1010456692262693
-0.03597616561368585
0.1562952786801768
0.331325072113565
0.06531250422965462
-0.09654536957517609
-0.1881447532709768
0.2153642767324138
0.166562010417619
0.1132364885249121
-0.1830277713821405
0.05843642548467172
-0.05420517747957845
0.106385650019852
0.04345463714842449
0.08405389462922888
-0.02475069314558675
0.05588532532266578
-0.05253650639062093
0.1253628962191915
-0.06643515367068331
-0.06363502743037915
-0.03369295689339435
0.08894934105792297
6.2965467957983e-05
-0.02214827577373728
-0.2537923468872403
-0.1101917185276753
-0.01534443942963067
0.1234837161027723
-0.1488263416663595
0.09939027966866959
-0.02097201546773741
0.0006469265443998368
0.1274529503152665
0.0981440570917899
0.1212853030387545
-0.1090581795035869
0.1773737514307593
0.1772590904474234
-0.1270937356931488
0.02733634078598181
0.06481321302591435
-0.005717527185958989
0.002453765654201626
-0.08232582933489578
-0.297246966049302
0.08269471567297038
0.05027448620774665
0.1435245683410052
-0.07847325956318134
-0.01383942724941528
-0.136138123816354
-0.03383139211655919
-0.05064641664530217
-0.07029491878309718
0.03221951546980998
-0.1505694719639508
0.003741232998614662
0.01020334648321843
0.00423926205147195
-0.09058248840811232
-0.05668097861823519
0.08254815248876395
-0.07485629185986623
-0.00545239771934653
-0.04123707342692458
-0.0595161913402651
-0.05004270687840238
0.2851411510000318
0.07942735832258764
-0.1022392272466012
-0.05346693398337039
0.0765197437736712
0.02311583930479486
-0.07261723336520878
-0.1931578937751394
-0.03962508439136041
-0.0081911484114151
0.03727715673582713
0.06078576548460789
-0.1267309117478539
-0.05340631612424691
0.03428245578969509
0.02023358922639719
0.09280935803605594
0.07742098429901972
-0.04418832148621484
-0.02515064553820546
0.09320067945841924
-0.07031271879205923
-0.1981536476741492
0.007172850537238392
-0.01584185137578702
-0.06800718001850341
-0.09511591421367593
-0.1981091678247031
-0.1846758581560675
-0.001706436877999022
-0.09842500879439055
-0.09551871834777169
-0.02852157801238829
-0.2382003718621207
-0.4055072964333303
-0.3144587143763503
-0.1011230966057537
0.003404390939839188
-0.08927650262271249
-0.2124634208977052
-0.3229430413106519
-0.2149709013824912
0.03714246757504217
-0.126089717166409
-0.1671425550684474
0.07943082358606909
0.1292583722140072
-0.02829145592903811
-0.0345560333174357
-0.1154704650131486
0.01832871774183703
0.1471775403646919
0.009760160102659499
0.02642998864301104
0.0748494160305197
-0.1009983616601156
0.04713318018885896
0.1700458594429398
0.09093188511411825
-0.2060809035542388
0.04134481133332108
-0.01827563709302671
-0.003404161714179
-0.1095823542926402
-0.1069484232548469
0.1496807132221483
-0.07552153435920157
-0.07646026068493553
0.09971842596445607
0.06528175875569381
-0.03910359335100499
-0.04294969909854767
-0.006348969913243047
-0.0003647403451980714
-0.0142030555752016
0.1154294403559002
0.1088468484990093
-0.04131412770288755
-0.004644464041397465
0.06027636953026335
0.02241821181285907
0.111350852057698
0.09761391639926598
-0.04348606586122881
-0.2759464118611324
-0.1164504548538275
0.04286781613170654
0.04321231093377458
-0.011289131367693
-0.01358174484999037
-0.03789764332475968
-0.2148837469077352
0.119757274309521
-0.01568661362968316
-0.07271933830419347
-0.1396127858165669
-0.03792226370566137
0.03098676038503703
-0.07463328233859547
0.06571923594747346
0.03795875304316748
-0.2353038544745671
0.004615487236004224
-0.088913573911534
0.1483698467137981
0.03449311484224253
-0.2551438623498423
-0.09058991375994946
-0.1566819463977799
-0.0002252699411031033
0.01374936525414386
-0.07015510462255205
0.04961111431118406
-0.00269696810997853
0.02373505722367748
-0.1502095470252429
0.1227155531908011
-0.2029223326964158
0.1034688901538404
0.2161782811176633
-0.1373239487093626
0.02667176670217953
-0.1490977284115788
-0.08301142761827318
-0.1290370366249873
0.0367476760809955
-0.2009894213689223
0.02491896042567426
-0.103777953539747
0.1062162317827305
0.09766659896186713
0.2552411497080229
-0.1066475475675111
0.3201712841287424
-0.03750428243961726
0.07080446476626352
-0.2436232509869062
0.0468559453221595
0.05892284598346972
0.02437230288113949
0.0222289200551919
-0.1795430943340491
0.04324454400162746
0.01089660530257731
0.0643479877084583
0.1262801273770608
0.03871538299436224
-0.04711093890935953
0.01536229038453485
-0.02567364565123751
0.02906320260913103
-0.167685135418645
-0.1411893877576659
-0.09046128916010562
-0.06228813383494195
-0.03962709087402935
-0.1308014157405616
-0.1591620785244268
-0.1702285558573106
0.003355355160295911
0.01967761353648721
-0.1384625891815824
-0.06398779774159984
-0.1285621323597134
-0.1760157189320994
-0.07786127651924615
-0.07789553739865693
-0.2109068436688784
-0.1681744685376103
-0.2158822206529823
0.1627010304226917
-0.02595608466447641
-0.05285163539672789
-0.009040810167412146
0.01567427241743205
0.1782851227966627
0.01456612547607657
-0.08894894836609715
0.1481276576099598
-0.09527484183774387
0.1003008859696756
0.05779791528140966
-0.1137494515436273
-0.1674599533279267
0.3749459574764581
-0.180897860483637
-0.1923432832990125
-0.08176425683060971
-0.01188602703455009
-0.19792240033077
-0.08962119404988746
-0.04686126289142342
-0.01490984362388302
0.08872513015307744
0.1253577852271303
0.197845256697656
0.2674378200436029
0.04243690107683364
-0.06481555588612004
0.04410546080136425
-0.09741291085135285
0.1327910884792831
-0.25939802407095
-0.01230333999555108
-0.1035595709601782
-0.02018240395891989
0.1248268812524247
0.01790346855428309
0.01335619239633511
0.01296450370480934
0.03922476428434165
-0.0318038609770301
0.003520446465966617
0.008071005749966716
0.0147142976810475
-0.01779382741007688
0.03965836274774533
-0.007093293010148078
-0.008833064204720978
-0.01510984480742291
-0.03015008673090036
0.02147322002292871
-0.043831271915486
-0.001252954577828308
0.04787254961203142
-0.03425149947292432
0.03464498185631706
0.03173635060980667
0.01429375059341309
0.02941370633042551
0.04920893282570363
0.1254562026455575
0.2782685117241999
-0.1357458867553505
0.002023311372508706
-0.003266849643596327
-0.04100590412770822
0.006336252476087539
-0.09483957515931582
0.07858472690527908
-0.2625987170858811
0.1433825217595935
0.01681232285904415
-0.02398896698034543
-0.1503509816929975
-0.1034941159283895
0.1439971014293018
0.2283979802471404
0.007551993995737503
-0.03500362329337105
0.01307341384328271
0.1762709005870089
0.123846397267988
-0.0219577143829493
-0.06723409201906241
-0.08554317030072409
-0.01442926238233946
-0.03723190862625812
-0.1088677960643684
-0.1655190462781779
-0.04865392281246849
-0.009716747427118368
0.08205720805590973
0.08068160958087814
0.02530716022298054
-0.04857755402490466
0.01729136811271762
0.1469292640421342
-0.02462470398451021
0.008354562958497935
0.08442095056609587
0.01135010557036483
0.1065271809987347
0.03957470803134303
-0.009825159585658104
0.02631153368849738
0.04178259346490564
0.06803514136642405
0.112162359373318
0.02493164716285752
-0.0372432016231868
0.06228925354762384
-0.04230456046549479
-0.08558833382984517
-0.06175552548629615
-0.07833424650101058
0.05832609892673769
-0.05033309477175204
-0.05235586752319332
-0.08664343350444048
-0.02297544484877731
0.01799677593499636
-0.0838765009508302
-0.08672262196187558
-0.06192302087109024
-0.003140683707583795
0.1049185846749463
-0.001879806940293731
-0.02718132059647679
-0.07142877224591253
0.001398894592187705
0.1123831752246062
-0.0548115258029032
0.01151096556825044
-0.01295073339417467
-0.04580072544219119
0.02179491600264549
0.006244586869742035
0.008886803910129954
0.02492359548234849
0.007215995141458318
0.01654560791098977
0.04079759118930627
-0.01527427304411053
-0.03077749599405032
-0.04181653341643266
0.03019835356899123
0.09327413399981666
0.01180669786860425
-0.01379690077081951
0.003108286128488249
-0.05604339366062248
0.08630066958014185
0.03170838441002056
-0.003074326173308276
-0.04025739107004952
-0.03724567453378777
0.008023389242250914
0.02404570824968399
0.01542753996741111
-0.03922079095931664
-0.02843185158190371
-0.1810724358540995
0.05454968408375008
0.008501036321893238
-0.1492871209425854
-0.02261862745180883
-0.1724521196495585
-0.1198048151042517
0.05465122612558763
-0.05455683490849032
0.07352103846064627
-0.1331328354533569
0.0444325181749831
0.004458830587040277
0.09227951890591664
0.09966002991816221
-0.2704313544249173
-0.09239924929317513
0.2718278362792542
-0.0009687126495682049
-0.05815709559520087
-0.04652621283474685
-0.06910618325495596
-0.127656136492075
0.05519757069806552
0.09417869278723191
-0.04230867351486095
0.01875515629563512
0.02342157359715658
-0.1224863011087834
-0.1569617867596574
-0.2383598424665483
-0.08935757702609717
-0.04559669017222436
0.01184397020030072
-0.1079304480014624
-0.2682967509292989
-0.03878453268870483
0.06060515148639144
0.1511359720669854
-0.02760970165229351
-0.2079355757192134
0.06380025577844801
-0.004340995759792373
0.04480585990943851
-0.053109489953841
0.06999155934542983
-0.0795223745864628
0.01157050838758201
0.02419520824532261
0.05698671913725078
0.3666573936070617
-0.07554127366347538
-0.06625478873079295
0.02648400203363059
0.03572649525015946
-0.0109382601344516
-0.03270759272253568
-0.2194394873584662
-0.04529892219425666
-0.04469372262896552
-0.1026138907286966
0.1357612396712022
0.1039697022159429
0.02014828930635409
0.1213492910117298
0.002621267199415499
0.02092542272383793
-0.005168887184938777
0.1433395849573863
0.1585315842307958
-0.1134925903202128
-0.05497306261606676
0.1030986623404294
0.06944023978956405
0.07583631941419326
0.03953281190371426
-0.0707045560283933
-0.0713106518281723
0.1096161764800312
-0.1379510537971619
0.04336574509706555
-0.1160086316124962
-0.008999949832789764
0.02107295918445786
-0.1412053024553234
0.03626628966084514
0.02549043002858963
-0.006656396813377651
-0.06875450149693414
-0.1092366910744602
0.1669493848126119
-0.09646532474282921
0.05523421168736423
-0.05385582801563427
-0.013113544368497
-0.01816456332316985
0.05124942795406694
-0.03594020262391003
-0.007777573394780286
-0.05225697101453092
-0.03984821993541076
-0.2506625649545872
-0.2445655652082959
-0.1591820089541476
0.04566629767529304
0.08888384965402896
-0.06175329831035013
-0.1604204912268153
-0.1040497317296727
-0.01682933533512866
0.1112949869505428
0.001609888809762142
-0.006540408703409739
-0.2622451358872011
0.1324053802283288
0.04976087327450153
-0.153703674790774
-0.03785642163385085
0.009578332087580115
-0.2252581458252314
0.1272729972954378
-0.09514789631413564
0.1927797449535814
0.1770357213346905
-0.100258905686629
0.007498167795425711
-0.1484320671314844
0.02933026166791163
-0.1421339036952465
-0.1357855446624498
0.1140229461451427
-0.1019173429328606
-0.06261655702381264
-0.1200731346209275
-0.05336910293231836
-0.07384135342045225
-0.01756737822086768
-0.0384423993586022
-0.01000907982378618
-0.06673383399912225
0.07630880274882793
0.01480049511286062
-0.06600311763752902
-0.01007234173389084
-0.02833013150257107
0.2401504291762721
0.08014592825388031
-0.1899462887808097
-0.0007168518895184103
0.1614773988818484
0.2217753093625633
0.01309827319681845
0.0486565614421044
-0.2342594788952882
0.07945096695142979
0.06846282468077892
0.001310353710913412
0.09457640808430204
-0.05853528173489324
-0.04513168085832894
0.08162378444381033
0.112238425432525
0.07263401774421674
-0.1957898850311209
0.06942681459797698
0.01226679323501786
-0.1987175379960971
-0.02267833082920549
-0.09524595109497039
-0.1417524744194792
-0.004686260679293476
-0.1190897917772521
0.03473564384201508
0.03188615125739906
-0.01755663588797641
0.05909269749863743
-0.06416242088233502
-0.0576449374846544
-0.03884622438080215
-0.006364273528320227
-0.1145176755707677
0.07260926834599499
0.01585687164218927
-0.103179410980421
0.03167837888574127
-0.1470644294444199
-0.02126391301610813
-0.05294303658890266
-0.02969727240818433
-0.01759702978831254
-0.117987233746301
0.1550361521121988
0.03474542217126673
-0.09157200692809962
0.01044597408137028
0.1111551656573118
0.2696667065441991
0.2166009269358832
0.0977728856051651
0.1316644251174508
0.1896818608386321
-0.06210265447044371
-0.005689417083463092
-0.0362572973430124
-0.04406301055988449
-0.09535211592542334
-0.02789773333303626
0.06562494838482777
0.06290798026384768
-0.1835892553646246
-0.05237533291541951
-0.1804084916724676
0.007893776546586028
0.01553020489899919
0.1113857596503514
-0.1056454842313427
-0.02808306787327693
-0.03698453174176988
-0.1120484252475111
0.07475559759160511
-0.1738151524001819
-0.04914299853335246
-0.1629481006882728
-0.2325994973380381
-0.1129602503080462
-0.101551706724958
0.01308425669313289
-0.1316750358806203
0.06624378800843193
0.1362345992357133
-0.09453179821132159
-0.1486258730495376
-0.09581625063948719
0.161278251349278
0.1293959000800434
-0.09361672443414396
-0.1770641504573351
-0.06601175240152259
-0.1725213978891801
-0.09060568111606701
-0.1154254369706041
-0.08579060729953134
-0.07085885712164978
0.06457319039654842
-0.1152873948373118
0.03326180248810816
0.01815222508524952
-0.02945390500285916
0.0008435537675479295
-0.1030408549752638
-0.1064551371561914
0.002426622132036421
-0.05338048817546029
-0.06567592812454424
-0.04152754661801284
-0.1414894036759103
-0.03781172510603284
-0.05501388583983928
-0.1272322705894774
-0.01269861606445267
-0.1184297883394227
-0.1798543232157253
-0.2018929446089649
-0.1525647077718111
0.007126410771716852
0.07546144786826701
-0.09321270696979173
-0.1911605089653615
-0.07255495239415756
-0.1200022719453919
-0.2038984413675639
-0.122023969568119
-0.03086327979860541
-0.008702335610527842
-0.02112537333063535
-0.2065245651159023
-0.00325055191421464
-0.07971949881138986
-0.0403294407805604
0.0007856744775766887
0.06125635005325074
-0.04321073131783883
0.02680430936544806
-0.05746004637548727
0.02716944188687493
0.03973750323690659
-0.06351637607856575
0.01406921331013387
-0.07070377697436715
0.03163674030042959
-0.03014545500605032
-0.1763223905928072
-0.01519198515993457
-0.04559439743571723
-0.03758991287639296
-0.1953147882713839
-0.102837621026036
-0.07648935948733623
-0.03745177227003336
-0.1416133953545154
-0.2272184648343906
-0.0809199770514691
-0.03295800683572192
0.1697351561937953
0.02171765387856664
-0.006171259366460526
-0.125809658741125
-0.02760281063130959
-0.002844768711793674
-0.07238743912121579
0.02862265333387237
-0.09023163948807479
-0.04089687564412767
0.03218978140726556
-0.004170795894099247
0.008896459807614067
-0.1612174381699287
-0.03361322874104548
-0.02277617560020801
-0.05221683531826549
-0.006739996322282358
-0.05618367105967947
-0.06420774254966298
-0.07105820576553781
-0.07588657039457936
-0.006846576460020296
-0.1350221639370547
-0.1569291563398998
-0.3071771415264928
-0.1323040376975822
-0.06822359901645426
-0.1113008858416288
-0.01249508356542422
-0.05058163432983549
-0.1273843785986933
-0.0919967521480132
-0.0550291817228974
0.03559367377585269
-0.05446566292874189
0.1731470318518392
-0.04775642533258388
0.05988576985898054
0.1619234556226832
-0.01080670369646706
-0.06861561380892814
-0.1755890558168842
-0.1698119554660931
-0.05029174221829891
-0.1150332538083462
-0.1588832372433686
-0.05767890599869588
0.006768378476037203
0.1769827735825536
0.05398857447811373
0.06347916067812177
0.1113133626511977
0.01809271817363596
-0.1413558688878398
-0.06768167446564625
-0.06827872145417914
0.2999364291728656
-0.06164195733724067
-0.05070815267172396
-0.09378239511502476
0.08160078099203352
-0.0799223574994176
-0.1237425682704679
0.07681907684446131
-0.1517121724996533
-0.0679352161706587
-0.0165073304307624
0.04063350513153952
-0.1364291378111304
-0.05188317681982706
-0.03646420464183751
0.03698543534813839
0.006496048702297297
-0.0209120130046538
-0.1313853404535865
-0.07567018502569148
-0.05296486558083983
-0.0504036149927242
-0.1377531048338614
0.004184232545068719
-0.158674434602123
-0.1338555649687344
-0.0002253021866541513
-0.03470811728781713
0.005052028482467984
-0.1506991467328262
-0.2414941663093004
0.05302703662913531
-0.1234475728261666
-0.06756087574729604
0.01161375015315979
-0.02576734762642046
0.1001572671520635
-0.04894590323849313
-0.04422743980237429
0.0683137637641119
0.007413238027436785
-0.02438503890010798
0.0104455784772552
0.1044581381036176
0.1194376420173417
-0.07637822959797887
-0.0182462950728322
-0.08156143377730622
-0.1103559070228269
-0.1348821114387561
0.022713179831054
-0.1411994569955087
-0.05179182797029047
-0.02401912200189513
0.1263542037539417
-0.0489284102033274
0.03099601082514886
-0.01438856295695069
-0.02702121806345632
0.1538641534934151
-0.121708604693993
-0.08039802328002209
-0.06760872115438057
0.1228634946138965
-0.0647364205775227
0.1798756827590866
-0.0501964798036296
-0.09091248220287931
-0.1239058309009848
-0.03721321630842756
-0.1461603073568674
0.0338879688638094
-0.1102034584833042
-0.02605634260935274
-0.07825123552593009
-0.164381183073395
-0.02323677095838676
0.03586617983195553
-0.1147643730306396
-0.1028776836979273
-0.02568926820048615
-0.02363553357848789
-0.02064799999404871
0.02933172652857691
-0.09785699391944334
-0.08909467779960896
-0.01359067872054245
-0.001678641744845625
-0.0006668927698047752
-0.03714451435397278
-0.01744488948410201
-0.1266413459683764
0.0387933322809935
0.0009736639422396935
-0.06818991270702419
0.08211597420017863
-0.1292656209872713
0.1106055456358064
0.2100499640806551
0.03184657535917336
-0.197045932336113
-0.032280766712573
-0.1343974674570049
-0.06286507963029442
-0.08938040981759098
-0.09249519639067887
-0.1509033624423925
-0.09410461597175088
0.03522089910169584
-0.01472970760994516
0.1821041316675238
-0.2182059128446043
-0.009175455372630596
-0.08348903248255064
-0.05511116685700766
-0.039299113707167
-0.1245768350128565
-0.02695581721856206
-0.0825575836259502
0.00958113164252314
0.01429395380608639
0.0475910484777463
-0.1128584898984723
-0.04047678380632917
-0.08980771010878255
-0.02933319171180725
-0.2052080017224262
-0.2333445904000094
-0.09302256008277131
-0.1034822512938003
-0.0503247116358997
0.1532007334441793
0.07298438820270087
0.08899602211677078
-0.02338878281363821
-0.05931350608656066
-0.1454366526200439
0.05031855635920521
0.01431993764306596
-0.06701949813094851
-0.03739559594139313
0.0132534101861699
0.004724992501875706
-0.02037276912780373
0.00355143637266375
-0.02746291540401326
-0.0009354850476423343
-0.0172463724279954
-0.01046571936049301
0.03712151311971207
-0.01005152264167853
-0.009170416473262683
-0.004734552031318238
0.02274560293894479
0.01242134753865937
-0.01031139126334045
-0.08386652052580773
0.0001372439924194801
-0.01036703572435956
0.003718706853636476
-0.009002511698717932
0.0201789444009596
-0.008148873645933545
-0.01017918289880999
-0.02193871595368936
-0.004318922547481558
0.1357866503172139
-0.0207864967346971
0.06000887355284408
0.06284786767756102
0.1602911527620876
0.04761611938050588
-0.1211857344246637
-0.0125212334441982
-0.1933539544699018
0.005622934277589184
-0.2045598876644121
-0.06523490781613192
-0.002837413077298107
0.08021351184083983
0.1086100796515979
0.04966734543805012
0.0138870458437989
-0.04799467172861106
0.0006283312026498699
-0.01616300891212279
-0.005687436687803258
-0.05515960703797074
-0.04255800709846029
-0.08580532537914866
0.008355618639920612
-0.02012223353886179
-0.1078416482847205
-0.1628524739322338
-0.05067489595881448
-0.07118807709979015
0.1320887060127357
0.2102689955324434
-0.0529890389691651
0.2092776522612715
-0.02426479864900651
0.04443415650054307
-0.02543073722702064
0.2358643062328797
0.04724025686646273
0.2628047718377635
0.08269228245804856
-0.05457405666918368
0.01595301144441141
-0.002276281294878934
0.2104391718438581
-0.09655983470781505
-0.1920131542136329
-0.185027696760355
-0.08200197701456674
0.02421913215384843
-0.01734925952875025
0.0009615025419196848
-0.01887854373954087
0.01007527038106075
-0.001917636969318659
-0.005064208530917207
-0.004626985469942176
0.07608000807111204
-0.01514547117576262
0.03547312515322889
-0.07262293222461851
0.005941943851313193
-0.01940435584017753
-0.01631016053265799
-0.04768317947990994
-0.06358222722182612
-0.03762602488151084
0.0100072984012266
-0.03841406452601939
-0.02978056186954045
0.06165959297955037
0.06414254745953521
0.04565400511561946
-0.04955046086134593
0.01445111412580411
-0.003813016710292998
-0.01416116151613241
0.02333034262330209
-0.01749976119522154
-0.01456169367809376
-0.01029514514356632
-0.02418109105115897
-0.01480918352420158
-0.03685173393648424
-0.001773417476055797
0.02303079235719602
-0.02992016092282423
0.02215015965333002
-0.0386246894262323
-0.00999431377336601
0.01502815708109516
-0.01114030011878893
-0.01584034371683539
-0.03041490667210776
-0.01728529747875783
0.004974632766142646
-0.009441075720928473
0.01545572872251964
-0.03020186665497355
-0.0408846449401977
-0.03249603436697402
-0.06231627908413894
-0.0211985509637046
-0.02174077620263809
0.06226521757536793
0.1345880035841291
-0.1328377499399154
-0.1433525522513959
0.005132992929530835
-0.09859031972418687
0.06056975345718462
-0.1055071412973824
0.1470672961533958
-0.1716898194165988
0.005688720014932444
-0.1192330354732541
-0.001591533478543635
-0.01645056208852277
-0.01924289705602339
0.003685367393648687
-0.1937877319401805
-0.1005446468504327
-0.05291319898585076
0.01707211145443279
-0.06485926690607643
-0.1496349226359945
-0.07470690131861758
0.07577858000094617
-0.04677938355458803
-0.1899609309024529
0.07305518806942718
-0.09644224333510129
-0.1518439781013552
-0.06681083891773792
-0.1315979897078926
-0.05042732180162154
0.05327905627355552
0.08356244344364661
-0.09178826063674608
-0.08715737666134192
-0.02647945900416123
0.0380551487804097
-0.01925701942339223
0.02705240841447198
0.002750699045603614
-0.07093441557456436
-0.0359759365103403
-0.08370076016693896
-0.01140370616927724
-0.008632531911555791
0.04305952206270754
0.09500049577340475
-0.03032908617562404
-0.04139476120233669
0.2049475268926921
0.02096361684789057
0.03451666058855095
0.1376677723329471
-0.0912908265948888
-0.03752176417267805
-0.05490860452804075
-0.09385880486639729
0.04563840309815072
-0.07198641347832246
-0.08960578356946139
0.1073373500807853
0.07045989266210946
0.03195569379888049
-0.1474315872775833
-0.05194413546686427
-0.003803699696664578
-0.02808665021312277
-0.0232054305580058
-0.06155372439466193
-0.02589525415378024
0.005663590581716579
-0.0007704993509314546
-0.0243199990806606
0.05925899633181135
-0.0952686325782495
-0.02360424069543171
0.003458243116950425
-0.03680476317744723
0.08802037693804984
-0.05214273796146923
-0.05852738661372815
-0.06445477395032025
-0.01625833627130192
0.03446021104285651
0.02085395206685287
0.09761541853837723
-0.1211901338058788
-0.06962091853222725
-0.06181145748617593
-0.021755391342469
0.07941180670465481
-0.02432091854361281
0.05351556659928885
0.06516097749427641
-0.1329514203601478
-0.0315957390080936
-0.05121020641191312
-0.08073096227459813
-0.08604220359990432
-0.1228637638470651
-0.1154811849748563
0.07594732457931004
-0.1634978357674067
-0.1942617321133928
-0.02646489664473906
-0.06929027784177151
0.05554213671460549
-0.145119771152016
-0.04188121619642109
-0.0190221386655471
-0.05938431165868747
0.03541054583328656
-0.123652317252219
-0.02583356912259812
0.02346955171743474
0.08798669509268058
0.1504989891728498
0.1914925504322244
0.02202818281141824
0.1847840050099671
-0.01513342947126496
-0.1257307038295461
-0.03473761972669654
-0.04767711903493566
-0.06263009542001473
0.04754953952060414
-0.00211844183358853
0.1012272404276721
0.01458993872048619
-0.09574291263777251
-0.01626805757616618
-0.02960022925573434
-0.0592829488646422
0.1108096589565961
-0.2023421957206682
-0.1947365004217699
-0.02949917859412429
-0.03727981869958292
0.1648533864883206
-0.173955116246658
0.00667650254182646
-0.03221699436103145
-0.03142927073549925
0.07674223982174021
0.04695631626225901
0.09082212029126993
-0.01764474404034906
-0.08716312782900207
-0.02712467975751391
-0.03622441077976975
-0.006361938786316954
-0.03953760567746556
-0.081237617524024
-0.1336830673956895
-0.1824967675421855
-0.1599629850933586
0.09189086995262745
-0.2327793255170629
-0.2036843176039905
0.2141710180583009
0.2284520974818473
0.2717904886340919
0.01077263640889438
-0.1076282338250775
-0.06241680832883453
-0.02434738693422633
-0.04413562807581659
0.01662035926986535
0.05928333510019771
-0.04959959864257172
-0.01248607825689928
0.05714899136404922
0.0831530860983753
-0.06532272078852011
0.04712725120993276
-0.07300644428472328
-0.07718316511048985
-0.01750058132414629
0.01081635441291417
0.08609846234898244
-0.122492106406648
-0.07604567325099197
-0.04101899593716835
-0.04313369918027701
-0.07540039638579096
-0.1270130468235219
0.2995273579589036
0.2572312548836339
-0.08621227423173965
-0.07347296433569453
-0.01826361771486714
-0.1783705496004848
-0.04567783744082787
-0.2207886780351231
-0.07147435172787295
-0.04251241111052258
-0.04938255954330931
-0.02881893712541073
-0.07319046753128566
-0.02001353176807586
-0.0626189894955176
-0.07569950005298808
-0.006908646133712793
0.03142469206729932
-0.1019263386994234
-0.02823541618687412
0.06111719531503125
-0.04376601238935821
-0.04275355206725368
-0.1521021411859243
-0.03488629942124679
-0.03076800312256426
-0.1009342529420573
-0.1329867104171854
-0.06250646007167257
-0.09618709647465523
-0.02565838127013022
-0.1156853800149838
-0.06615247378262153
-0.0747694460365713
-0.03609857729260633
-0.08765625563575426
0.006061628733395169
-0.04887430427715427
-0.05659297121099297
-0.01630441975943322
-0.1180336425686256
-0.04137287688903844
-0.001103287121919386
-0.03698577534475112
0.1449624959240134
-0.1019200146128374
0.01583093663968772
-0.05411220585083536
-0.1151205833800385
0.02535041825094903
-0.1158279525272172
0.01250402414911379
-0.01316904851826357
-0.09969089045888156
-0.03416221088694509
-0.01315726503541625
0.07948312691616
0.02727640884106183
-0.07119794256269908
-0.0476330575412067
-0.112288376410387
0.1000371199984518
-0.09065089235619908
0.141560159602033
0.01871017563630402
-0.04900960896607634
-0.2419765553049759
-0.02983838415976743
0.319385448871793
-0.05278332220837617
-0.1570461378713676
-0.02498840634800957
-0.08166487030980937
-0.06414493422550166
-0.005083563732266195
-0.1101840597015733
-0.08071996227991184
-0.08955231724409314
-0.003547948267291966
-0.0435465566948857
-0.01315428012199801
-0.04788133868743819
0.02828763975933035
0.006727268085620817
-0.02297558586337561
0.004865094687884554
-0.04440222084590408
-0.03485717203947406
0.09868130402853667
-0.03575590846179746
-0.02964154282654839
0.008577676034606291
-0.01345425159085387
-0.01997171504908467
-0.06919854297929187
-0.04006991365912238
-0.04674266763663341
0.1110714293631445
-0.06945208707532949
-0.002163551984057752
-0.1153939546572269
-0.08305473209114882
-0.04933396587730694
0.007044154565765919
-0.05049218253223021
-0.01091245879100664
-0.00421434518935123
-0.02672889645637943
0.04411160463996987
-0.07468779132061906
-0.01535698155031033
-0.0583056273953548
-0.132593883126038
0.08934603837538846
0.1075956619837663
-0.2484045573523576
-0.01149612766332944
0.007310694148801258
-0.07584795191132813
0.01750188007968943
-0.1995078410000793
0.002715804571734299
-0.003762494727853581
-0.01309459820138257
-0.02228536546950059
-0.0262344956097589
0.09191293255617435
-0.03210527094952117
-0.02770010350527217
-0.0220907352476315
-0.09971792953254424
0.04108435778131742
-0.01702291425512554
-0.0154397878439907
-0.002012567443862963
-0.03348436244365752
-0.03826251700438172
-0.1243268408164538
-0.04406500056821155
-0.01595568848648132
-0.0406690717462253
-0.04170148742079415
-0.0196110594110354
-0.05951791380385785
-0.02655536434660621
-0.0887708930890885
0.1097255310590105
0.195438527492947
-0.1065182854678682
-0.06642310279381557
0.07555868283853077
0.0444121091871815
-0.02808071328725989
0.01827748237436154
0.1225595580231609
0.09754273244292164
0.1243985308008146
-0.01963404515156842
-0.06496307235973288
0.09748529294240009
0.04578761310054495
0.03821137677541618
-0.02894601823195674
-0.01039931435542813
-0.1989783632333282
0.1322022841858013
-0.0380244055462533
-0.1194120614374265
0.1747365397215291
0.1022329490602307
-0.0718124718226737
-0.1484379186688443
-0.009991253475513051
-0.008816657435679047
-0.108384417670046
-0.0209230661468106
0.01731874398871235
-0.1090642292163129
-0.03056877099597215
-0.02708375737413457
-0.00384415814587172
-0.01173560002260488
-0.04091865806721302
0.0264046364755636
-0.06837528205113227
-0.02059379102205498
0.02582224544194391
0.04662109516982291
-0.001376784089400531
-0.03213573588618795
0.03048609866849262
-0.0270672105465728
-0.1277474832881548
-0.05969246690875203
-0.07853664010565399
-0.002917344238057895
0.1193152970926042
-0.0009991953422740577
-0.04288002678869288
-0.06329024833845286
0.09793659077217134
-0.1603447111663732
-0.144071579239905
-0.1529174475707327
0.05209747503931788
-0.06578592441140069
-0.05997055056539143
0.01710050442056708
-0.08872890191744119
-0.07376109525581068
0.1946611092306683
-0.08071937766631419
-0.01902625281736842
-0.05603987075551353
-0.03392922846646432
-0.3609487687863631
-0.006720956177740042
-0.05341332791527494
-0.1489207014814489
-0.08414210640413737
-0.04890072382402452
0.0493612563811048
-0.007733327807287426
0.04251957696384901
0.01659496582961516
-0.2586862399417585
-0.1502419190731085
0.06980727142091933
-0.2362947663866596
-0.09539612054369782
-0.1176349962080951
-0.002217328628843028
0.1430226733110372
0.146122433832546
0.02766376655542798
-0.06230360167039756
-0.03579203551120916
-0.0999829575182664
-0.007544772643967964
-0.2483959391878884
-0.006686055921410606
-0.08538741508507761
-0.02973551771891934
-0.08992091716892818
-0.04468390441180933
-0.04257107644964183
-0.03294140105718441
0.01020342988454414
-0.09548482272699335
-0.01722528731514907
-0.0232952060971813
-0.007293836102685457
-0.05610999952479443
-0.1193920592227105
-0.02129853930999771
0.007199506661500216
-0.03267884086374325
-0.08643679506912
-0.02402936435310573
0.02274572934687953
-0.02029817722819973
-0.01759851065448987
-0.1315922013494752
-0.03991391947408666
-0.0550391120775143
-0.1151367664126559
0.2518902723271891
0.08640229770635154
-0.09682792644060054
-0.3184422467186576
0.04312762077447072
0.1111322181931931
-0.01242283843267386
-0.07344160335142742
0.06813736945102572
-0.02904615184369032
-0.1668662209614948
-0.1157812179008771
-0.1425502712813678
-0.1102713528285061
-0.0630194371957646
-0.02816269917592673
-0.07636585502217939
-0.04175699463469647
-0.02453968027875899
0.009310206891328981
-0.07930196658585952
-0.0063576754888326
0.1152694270489907
-0.1084501492171018
0.1483537196449803
-0.1864582716222549
-0.02120158353096235
-0.01606132681560588
-0.09121019158298742
-0.03307882064877499
-0.02870880446766193
0.02083456650083062
-0.1563775781666329
0.02208013250276625
-0.1703889682316078
0.1260479430168006
0.05530048484623516
-0.2381425717275757
-0.08168017705477071
0.02784190735537601
0.03057319457094027
-0.1009152740761169
-0.2318287875401283
-0.03980943169030939
-0.008080609006337209
0.009422584588018893
-0.01794778643232232
0.003906787396482513
0.02915924193988381
-0.01530803818214923
-0.008466823515818832
0.01692100912498971
0.03406428524351545
0.01853986929317931
0.02218662838289912
-0.003477873663549468
0.007283651564689251
-0.02598430249891786
0.07451827799411831
-0.05756048009202677
0.02453176643093789
-0.007001249595633446
-0.003929389885419025
-0.04835534626188502
-0.001535408325378473
-0.005246026083292284
0.02955413602254841
0.03934927841111591
0.009265825186580381
-0.005999448818735029
0.009530217148525144
0.02700486995957168
-0.03099806640845322
-0.03366439375158899
-0.03651783265380278
-0.04660144886321401
-0.1458406634260806
-0.04838872446885616
0.1246579939321324
-0.1621287472442463
-0.1259842365855462
-0.1089771481728702
0.05012885057027885
-0.05457898441729864
0.0108026802275287
-0.05456824104939341
0.003789262622665533
-0.01935384391930604
0.01805971966274968
-0.01311905012494789
0.04116320999324691
-0.0001448389946493023
-0.02257747916786548
-0.03836787998499205
-0.04489262328407612
-0.06210344699417995
-0.00470790515514301
0.0559120537096762
-0.130855796488532
0.1014585325623394
0.1111571905619169
0.05167154420434284
-0.01336891895420916
-0.06219592295662017
0.02095644406267263
0.08729929263048179
0.07502702493428851
-0.08095481284366751
-0.07323318966425829
-0.01005482302326998
-0.01276582973523206
-0.08730166113980287
-0.08381387091878856
0.03424355039937097
-0.03397928329338416
0.003102412778402001
-0.06507077076135417
-0.05101849833333213
0.007410817914614111
-0.07199000211588036
-0.09508307686483237
-0.01788781007338495
0.03754294054449527
-0.09965511141893654
-0.02305829246269362
-0.09373736795503146
-0.006328914794924059
-0.0009329664451701585
-0.06762202932822964
-0.01273345111079576
-0.01048392063077351
-0.03390122430719145
0.01545227577963949
-0.0430785011526621
-0.05456759952923885
-0.08634665003080584
-0.04486855515217901
-0.03570804111232365
0.03008056254282238
0.04079133464128679
-0.03085192692380877
0.01396243192738682
-0.03345937302337402
0.008148423918792993
-0.03154213456606077
-0.02970818964818026
0.005641890166227391
-0.005047427949530426
-0.02851782179803444
-0.01664206949035078
-0.04138264238729054
-0.03051590453039783
0.00200623572953809
0.02651601213335274
-0.03323719062394408
-0.03366876377476905
-0.02053040432190342
-0.004657761574832798
-0.02887240682617317
-0.02734508997961518
-0.02503482100848661
0.02823923829909838
-0.02651176927774402
0.01302566414124653
0.0003520901892328969
0.02177668805495913
-0.002455775553893043
0.006362865424805738
-0.004898022574348831
-0.04700383453677056
-0.06233552805978883
-0.1618717940114622
-0.01026192645660908
0.08250186148242737
-0.0665166132892049
0.05035553742566947
-0.004036544237608341
-0.02033623935690117
-0.02448077223835422
-0.1447368095736286
-0.04397602552776891
0.03802398925599852
0.01519211769395426
-0.1173510782738906
0.006748163527676919
-0.01786664129618939
-0.0580633390427174
0.01831753691340369
0.0186753639513771
-0.02339942841998457
0.06351905602050634
-0.08677238045201909
-0.006849730953617058
-0.04522315867263418
-0.05181103854770294
0.03385074366592127
-0.09755203415745178
-0.2283876316056644
-0.09329893069875983
0.2198006152193928
0.06721836798817835
0.004620735590276542
-0.2224641879303373
0.2470025299488725
-0.2322145959596911
-0.3868962563436377
-0.007110598211952298
-0.1156960857907479
-0.03987824544146443
-0.08716750654407328
-0.0101725975908755
-0.05519333731503433
0.002537300975517246
0.003673865809032524
-0.02926161067270831
-0.01128173454448958
-0.02111869826834336
-0.004703700447669769
0.0007918024418666322
0.02426689129890148
-0.1250877786833043
-0.08822251437483485
0.1162105202917915
-0.2459319011532916
-0.272499796001518
-0.05937825120767867
0.04639336088286913
-0.1982537089572563
-0.3464342533758945
0.009162440564001775
-0.2277392985929343
-0.05956346675074715
0.03603049494467005
0.02903781357168989
-0.03592712240888542
-0.03306847484461167
-0.01694424576751135
-0.05524054147592968
-0.0801746786756914
-0.02275709222553559
-0.01200132836057516
0.03281715154008737
-0.01349092958976834
-0.02800906899284627
-0.007360398712497705
-0.02438555395069604
-0.05020027804492621
-0.04675012900943471
-0.02502787399961094
0.001759898883420901
-0.02466362294478374
0.01127035242030936
0.0754813763198329
-0.08891636124174519
-0.1494318482607916
-0.004920318355668279
-0.0893302363230319
0.06554478586604223
-0.0437728816732885
0.06700470406529417
-0.09759717952475255
-0.05872622184312077
0.1217636830150522
-0.04704364707881722
-0.0390462295377142
-0.02978690691500006
0.0007446023044847534
0.08542202990115103
-0.1359909112198446
-0.01338967418706558
0.05369544314176784
0.008584023558999586
-0.0780289799837235
-0.02126207788809721
-0.04406922142638554
0.04516548336764151
-0.0109097873138828
-0.09971884631734453
-0.08827489001804757
-0.1694804714052435
0.005852172149553221
-0.1023659177363518
-0.0774782808229133
0.01884158267622959
0.2418994276109529
0.02291368675493821
-0.09221955084760244
-0.1226222653356632
-0.1157368965945424
-0.001381975496106993
-0.1387254390379825
0.01694684819556231
-0.08248268059683188
-0.02180664588071862
-0.0354479878398988
-0.03074502940497259
0.01872395427387432
0.02649320887372875
-0.05089012284395267
0.01643604091626629
0.03513036604697309
0.02380302042058528
-0.03474600850366653
-0.0815710813684023
-0.04891977986704087
0.08423382935994123
-0.007744653318249235
0.008989731946535578
-0.03489046912306628
-0.1790455028142616
-0.04364986074353865
-0.007720065867440115
0.2624904930762427
0.05810692106373092
-0.08844721449504908
-0.08360765192303324
-0.01339392359452676
-0.1207671228591062
-0.00203667314609639
-0.07372764242144977
0.117360012555964
0.07703675479584191
0.1029823532963784
0.0783858456289758
-0.02430517163609376
-0.003798115858885686
0.1007810731075074
-0.168927401387975
-0.1017020751817629
0.03464496545821479
-0.157620284401146
0.007654503104009828
-0.1656445099916693
-0.09322453992225471
-0.08746972777734077
-0.06213652198154605
0.01630970526262952
0.008687450225319287
-0.05307595914763388
-0.03492428137187505
-0.2127836281503269
-0.00833769198778409
0.07123876278995872
-0.05193620952366847
-0.001577975945971817
-0.04809295862103311
-0.01420390334835583
-0.08109714322477991
-0.1083504517974628
-0.327355390120031
-0.0280911049449872
0.02273782976992103
-0.09281097611250766
-0.1202924221430717
-0.1240010740715518
-0.0005941969334638068
-0.03328850623345337
-0.0106686862805448
-0.04095266183335538
0.3656058116749927
0.07015624922730883
-0.1005671514348615
-0.1385367478348828
0.06481176552707407
0.1204036242191362
0.09296312214094292
-0.04627691790352131
-0.1463102562380323
-0.09279382662864318
0.06782995981593738
-0.2081303558778794
-0.1835584557452061
0.3263487011210852
-0.2149710703870461
-0.1438819621301755
-0.02210160276362241
-0.2428762350342347
0.2206882330643416
-0.3353510365295452
-0.09533010639929307
-0.2015765429870232
0.02665707798802515
0.1231629031516201
-0.1219064475509487
-0.1514529338585066
-0.08139038290465661
0.1215667731417976
0.05189827718510565
-0.1894778417116886
-0.2715403473504945
-0.03928318421151302
0.1555772755837102
-0.2234842794266557
0.145942291230792
-0.171312688755353
-0.01753082990814211
0.1771039141526333
-0.1183349134315621
-0.4227341283376959
0.3038490985340686
0.2223251343190386
-0.02706768432250343
-0.006812047394780431
-0.1087501408164296
-0.1281007915433214
0.006202617101390247
0.06048927757559211
0.1249927959621436
0.1293209871970068
0.0879444597933411
0.09295218068896544
0.2097125410168199
0.1058701747371245
-0.2727574114791271
-0.1194928543438535
0.004453032191106575
0.4148426520088743
0.025681261513632
0.08984132641804217
-0.2128712730711371
-0.005200587177930513
-0.1827281488601327
0.04845237151289463
-0.06581603658026319
0.06708654724186931
0.4277303415252128
-0.04287338874627962
0.05898722878492534
0.1365319520721037
-0.2062135854348125
0.1155764971697235
0.05678989331526477
-0.02424381922359317
0.04753474593728232
0.08420038020090245
0.1209948115688291
-0.08746464577144061
0.02644567655929777
0.137335229365894
-0.2468617948461484
0.2315145929679853
-0.08757252238606569
0.06357729646287716
0.2072822280676483
-0.01032857130922959
0.1206473024408527
-0.1786228035043753
-0.128372193493447
0.06336402572705666
0.03919117303474969
-0.0319963839040491
-0.06858612512768059
0.1802328853627383
0.1917933452066325
0.1189238105162694
-0.1469730470798108
-0.2600592876956934
-0.06126884425288079
0.02435290111706132
0.0911289315273027
-0.2119593007111739
-0.1555328265808246
0.05102058446335633
0.09658225564352894
-0.08864246681597812
-0.1381875374102216
-0.3733934669294882
0.1837408399745672
0.4080328142790232
0.09621712247194414
0.0883547243096458
-0.02268899125898236
0.04784734990262682
-0.08295617400323112
-0.07190955028569428
-0.06200515533735885
-0.1566960158364886
-0.1573551704952746
-0.0118614905801202
-0.02820805958429545
0.08432591357401006
-0.09215455653234407
-0.03178038181250168
-0.03760265187576342
-0.1205018486120549
-0.004378525815696481
-0.1974818679575085
-0.1258095290510504
-0.06370463605218381
-0.03573645996494831
-0.2821342212750254
-0.176874561225224
-0.1580629812811064
0.09207962558726769
-0.04246970302692599
-0.1785408981816257
-0.1082457812822835
0.09437792999455052
0.3291399629852186
0.01157125548973716
-0.05561186766724555
-0.1300814358380017
0.1944841035109543
-0.1971535498695018
0.1470163811131041
-0.2647027792030885
-0.07243473691873262
-0.1365111445010427
0.02564781838918216
0.0592441697894861
-0.1921368734892058
0.1119403246678152
0.04513226712779194
-0.02098693255732526
0.1614308478701103
-0.163750621204162
0.002537721223811432
-0.1894037234166362
-0.07629368755530626
0.2385434252974061
0.1564668460898012
0.1778986804624396
-0.1850249037453902
-0.2386968776777383
0.1344496555051572
-0.0428024975748335
-0.03448318835582004
0.0628525289623475
-0.09051736622228268
0.1465342511799638
-0.0843446158313534
-0.04771939404001663
0.03982361468900421
-0.01940774072702754
0.05346842684018398
-0.05143256570028079
-0.02795661202085656
-0.1061019284094702
0.06794638471774743
-0.05416744250647945
-0.009276890733089717
-0.04489042976001761
-0.1549914098896594
-0.04027757073518129
-0.02715204264032118
-0.1584103751065556
0.1916189774368802
0.3242644362887114
-0.01150467267828491
-0.2139582664401334
0.001681968202016191
-0.07661133801084041
-0.09075539389139607
0.2084381457849526
0.3432146441267283
-0.102082428934811
-0.03252968351923841
-0.1458488822163894
0.2074833406485053
-0.2124245662208369
-0.07011800004204528
0.01969327623121186
-0.1992425283361904
-0.1073591426705958
-0.1381176974145273
-0.09596423061308272
-0.2406756594419614
-0.2507710905970422
-0.3903209622410893
-0.3458161435777
-0.2006615531827017
-0.023785298842551
-0.06621610315793183
-0.1563515882399144
-0.08742370651773018
-0.05333153673299031
-0.08543529884126977
-0.2172800438356291
0.04713535741864634
0.257562333103114
-0.01046714457117886
-0.07935522896949994
-0.002976937883575042
0.04119916407161335
0.02189498918240023
0.05717784992764346
-0.07770559648010641
-0.0160112228609301
-0.1766968902843294
-0.06803072178377327
-0.1239966060475774
-0.08461765143073947
-0.1895939228363225
-0.009954112272093602
-0.2449335456195073
-0.01050455617502375
-0.01947588138127179
0.01061052675332137
-0.1441191192171932
-0.2711280392887797
0.05091382780121472
-0.07513666877753228
0.0254457648166622
-0.05495560640763569
-0.1458721214354357
-0.02226104552823777
-0.04796314046765471
-0.0302903596576837
0.1127092021748149
-0.05068201980148287
-0.07846748296859359
0.07932918920507342
-0.01188948736554417
0.1151393554857182
0.2477925312420733
0.01906080268571749
0.1294637208122205
-0.02712454262279494
0.2675640006267658
0.3362000817183864
0.009561832390819166
0.1704172839218208
-0.03015897135164027
-0.1567013814845216
0.117611359914414
0.1024909615767504
0.03172945902946595
0.05215277529239372
-0.03542991684370286
-0.03468565170354976
-0.08550766397808951
0.1064211802410154
-0.0155537076230285
-0.07835996135902844
-0.1289662617377897
-0.1703585297815655
0.05034056308168566
0.1408599032971186
0.004666691570610941
-0.1038159117920417
-0.178274705270079
-0.1563579996143807
-0.1286476525896796
-0.1715512695427351
-0.01378306676116454
-0.04725463215221601
0.001947837459157781
-0.1434308369608293
0.204376224942565
0.1390560427376816
-0.1597586226743357
0.05644147677115581
-0.1505040214651791
0.110275464526698
0.04471412112425284
-0.02428278694899885
-0.09577861222405529
-0.06667015596161278
-0.2234526511308302
-0.03832878169442908
-0.003046617866525181
-0.06849453177191975
0.09988986906189891
-0.1236664215576617
0.05288230495629601
0.2052454649963716
0.05598861734470718
-0.1229593523861008
-0.04340380339558147
-0.1240422291547046
-0.002406545113094708
0.01317546069997404
-0.04453785498451952
0.01624320551855534
-0.1439866681974354
-0.02955369770779614
-0.001202577319624148
0.002018667719167582
0.03842833107426828
0.01109540774405335
-0.02473580594504535
-0.03732672355797267
0.02575492137091364
0.08670829894537348
0.01811283224589954
-0.004213370641407102
-0.01002527034507905
0.006875260717568721
0.08461934864059947
0.03369072722148884
-0.02258203376843097
-0.03789061939307049
-0.01837451822064537
0.07609476217470847
0.003690743981477985
0.2222471382468992
0.0619451890007954
-0.1652833333717315
-0.07817663137642047
0.1144123502784525
-0.01232766549788842
-0.1299091359672684
-0.0299067048994426
0.02247031855398728
0.3320362630794647
-0.128385189950459
-0.09604898715863246
0.07743082169149977
-0.02984663564465683
0.1255224367566868
-0.11114649644678
-0.07380447854155303
-0.09470681958958237
-0.09299786008086228
0.2802150002255959
-0.03062044770549725
0.04455783982948709
0.03920360929427667
0.02887137021751649
0.05543679062725566
-0.04643516544590449
-0.2327727388754588
0.3831661430966499
0.1012846239357996
0.01427686935020183
-0.08987910350254093
-0.07499627033568655
0.02695213939168658
0.08570132524929798
-0.009468653063945277
-0.1254889520742921
-0.168477137448464
0.1490803768561029
-0.08525624566852202
-0.0878760222716575
-0.09311271190464086
-0.2189373316557415
-0.01546974331683629
-0.003561758640178761
-0.0588449121055451
-0.1288554396985633
0.2900064016293227
-0.1529076199417674
-0.2341506776916546
0.06931683856996172
0.06405309748729549
0.1555459652831532
-0.01775234946238164
0.02193584738233272
-0.004681051891684471
-0.05745209877949956
-0.08748595481541635
-0.01126091953073113
0.002584024934705086
-0.03386458594266793
-0.1233147578005215
0.0003117480988246581
0.01440842156644545
0.009788068132434212
0.01490547916784977
0.07259457343034569
-0.01559689949717907
-0.02806326866897546
-0.06303935853352423
0.02266080775870839
0.08202695990439111
0.08717177960930944
-0.052390398413847
-0.02114494556628207
0.06289182890968183
0.08635487779788852
-0.002955258594998721
-0.001194455962468913
0.06348440459178631
0.04188561515160089
-0.006892516976806811
-0.03496985574686596
0.005968642506814325
0.03812413924456713
0.1749106200519028
-0.03522767599041991
-0.01131448866983016
-0.005859656535754104
0.009716846332398943
0.02360178007473111
-0.05023701184173188
-0.04578847028298682
0.02531557571901202
0.0826145885587337
-0.01018602958626454
-6.091939830492652e-05
-0.03269765617906201
-0.01096532490869656
0.04505529249715279
0.03530085428278001
-0.07916911903071777
-0.2446448742159484
0.009064696504310939
0.1822050418773754
-0.0286747773742599
0.1955480255370629
0.04262082027644943
-0.009962381057630722
0.2244573057225888
-0.04329131016732325
-0.03062289067644223
-0.0653390392846219
-0.1463595812267434
-0.03971619761980319
-0.01128337152399014
-0.1793255283023101
-0.07066109066505058
-0.1274248501691848
-0.1366092697758159
-0.06834011537463519
0.1276192916986718
0.001712199170224486
-0.1339376030531471
-0.1972901807135398
-0.06932484076476937
0.05390213205004177
-0.1435922088808006
-0.03384090322397775
-0.03592697658775062
0.05222184646655186
0.1372195389354612
-0.01103185797304482
0.1268469822683747
0.02312238040673849
-0.02508236241615631
-0.02537576162425912
0.01332311388716127
0.02563930357639032
0.0725804893414774
-0.005628660586626329
-0.1897727860961845
-0.02331522042786533
0.01026286475524767
-0.02657551068623244
0.01268549669472649
0.193528879199781
0.05994546973571163
-0.08558052329275267
-0.04966304010502457
0.01060468869141846
0.01603648787489231
0.07294235610350261
-0.106496837014511
-0.02418609769142578
-0.004146613473702926
0.02214841181357539
-0.1127616097890738
0.03374713712912453
0.142325761845899
-0.1144592626578045
-0.01343285068635556
0.09684502312841135
-0.0169039007979418
0.1169011079157757
-0.2196356979220763
-0.07325011327682975
0.09936732364707471
-0.02551364438032968
-0.204146640774103
-0.1075088235017711
-0.03559951311204942
-0.05574565034610467
-0.1545806581520822
-0.1262155698303977
0.008121219226447589
0.1515788170576564
0.05890716533883045
-0.08345344346055183
-0.1304109626816873
-0.185999724334467
0.06810645316602065
-0.09014033638261895
0.02960872846203751
-0.02571655200625815
0.04520821877692165
-0.008063662125786438
0.1503739508762311
-0.006848423591018862
0.07973482492363668
-0.1108519553361267
-0.01552423312285087
-0.01512012647735999
0.01478618704452703
0.02586307167320061
-0.1872021379292559
-0.08003412720395398
0.08996811031742789
0.03812220964429814
0.06255818362887464
-0.01125791312562342
-0.006428500393335911
0.07877579813196378
0.2394512193339017
-0.1598402212850336
-0.0003428749837435108
0.028649532119718
-0.04920218922240395
0.01126575880179188
0.1088286290708829
0.1145298927600235
0.053642517436762
0.03383855942335071
0.02726110182669752
-0.1985228779339398
-0.1498993591195437
-0.06076878947996846
-0.240130329947292
-0.1367916021631654
-0.004381971636785028
-0.08877563562990634
-0.1339551258719523
-0.2692297256055936
-0.2383470590555751
0.02011276262779696
-0.07458611924885213
0.1016918042926621
0.3140050979998555
0.2269020778003671
0.1985716359148292
0.1921613745231709
0.04186236687831312
-0.02505941853318023
-0.04385301123698034
-0.006180316739888624
0.2430677076134199
-0.03053762017069593
-0.004911573283700568
0.005042647666870266
0.06658160967858502
0.03985365949574864
-0.01338297432876117
-0.1684092443220599
-0.1513902870046422
-0.2455294577627329
-0.2277784200479722
-0.1456514918789757
-0.1022405630435799
-0.3083267072217741
-0.5243793133260439
-0.2848711658850169
-0.06894597785067448
0.1655907151184164
-0.4069292303651198
-0.5016752885815553
-0.1353694623192175
0.1378552256963936
0.06600665606901873
0.2734392458521328
0.1558463803946136
-0.02659932100531235
-0.001539041126332428
0.06150469395755431
0.05244771827146826
-0.1087493059797148
0.03563043975636151
0.002962343012803697
-0.06236274524889234
0.0005164461500408358
-0.06878134437003819
-0.02813548129382661
-0.002473409184176731
-0.04481934119919751
0.06396350046021107
-0.1411975983486057
-0.1162862454270927
-0.03397484415123783
0.02055546299981767
-0.06007080125287654
-0.03850607815983208
-0.06819248365237744
0.05856870524874908
-0.02436496132813702
-0.06538390730243576
-0.1491358565430291
0.001419825709853197
-0.1201778653835916
-0.03789537905178826
-0.05929525444189081
0.0792952260785887
-0.03527903833647478
-0.1057306105911637
-0.06293046733588699
0.05460155310415375
0.04765108920013095
-0.04279184764459269
-0.1277547325832092
-0.009241459919721915
-0.01784019257635207
-0.01493744593228175
0.01820447671570963
-0.07327381533071051
-0.1902815563721467
0.02889729596494995
0.2306427245755368
-0.1732784814029281
-0.0929919036124558
0.01539698380300904
-0.05743523626460315
0.03829263629317074
0.06150298863895872
-0.03345548975250317
0.05801257825082411
0.01071126190667912
-0.06474205274350547
0.08794264888355395
-0.1219497113704636
-0.01146840001050764
0.020249579960771
-0.09646206283636898
-0.06381136039364858
0.1456065198709144
0.01966754568935939
0.184422857020128
-0.1692943679080122
-0.2450646320498119
-0.2107506083256023
-0.02763998673004022
-0.1317861045036678
-0.02835896950892694
-0.1903984799582411
-0.1402788723729417
0.2887588444443451
-0.110079991394232
0.07261043160797624
0.0769200276220723
-0.06307761392073734
-0.2188583623213789
-0.06356125317461203
-0.005877432495347786
0.0264965347857289
0.1393314917519672
-0.1263615158734649
-0.08533369283715318
-0.05286866599501367
-0.07104064337076509
-0.04245117253966956
-0.005997883804409472
0.1540165782157207
0.0463720081717444
-0.1720200237979652
-0.1056171401306856
0.004127441745993301
-0.4793348370156298
-0.1858553600560312
-0.08655320119654024
-0.1455671372221336
-0.07965362169620287
0.147089284638371
-0.07417747905016073
-0.1376176946040724
0.06647211487509791
-0.1064802857837056
0.1373209359358143
-0.04563762423681639
-0.1128136217770149
-0.1407918365707095
0.1842242322382724
0.04890876047810479
-0.09430233847265984
-0.02993337547258275
-0.07156901772979052
-0.3227732591490777
-0.2990114487807627
-0.0212049864250004
-0.1784627204725285
-0.2115558567982088
-0.06613759918993094
-0.3140380865720045
-0.2839066630191059
-0.0335592197984703
-0.01701279003253878
-0.03488274434622453
0.03023428706991578
0.2464155286963964
-0.1339694244394415
0.03847157195620129
-0.03540395749415774
-0.1239613963184674
0.1122425370364119
0.07417370357948287
-0.006060965374279623
-0.06278361909363241
-0.2179698759202319
0.09025748801494629
0.1476857555263008
-0.0561029294230982
-0.004363652118535412
-0.2609513171706217
0.2188563505249645
0.01570183526296065
-0.23258114494289
0.2734337134022169
-0.03724251662450211
-0.02322170524892981
-0.04498052548892503
0.00358665359810471
-0.2813531993941309
-0.2610725534766867
0.02300728096661121
-0.09017992892673291
-0.09526142856967988
-0.05977406124086494
-0.02343177738584052
0.1461421599455476
0.1323491928549931
-0.1422267776494629
-0.1379692649133011
-0.07153702169858026
0.05878484112702662
-0.1668838177394285
-0.07706466670922005
-0.3885563478276586
-0.1983645183739465
0.1788999161687113
-0.09451861451440902
-0.2625537867857605
-0.08310888098334328
-0.3029843384413726
0.02764969850688649
0.003733852145483376
-0.1199287441548787
-0.01823840547334133
0.1395768141702818
0.07115493286711697
0.091023902687059
-0.2781303236639623
-0.01342895838854327
0.1027972047273591
-0.141032380684959
-0.1186854746801704
-0.1274466824054351
0.06906535098568863
0.2352214513905038
-0.1005993012349135
-0.04091096162109405
0.05559774520438942
0.1660732483805818
0.005119087594674936
-0.1174012793457028
-0.03832769145823275
-0.2169888328968641
0.02593073227439112
-0.3261109347585237
-0.1174929598708239
0.04872114465820808
-0.01311986340158629
-0.04674509890331709
0.01937684210045475
-0.05222198307840048
-0.03387427322593039
-0.08832798198197411
-0.01504845836384228
-0.01551009703032711
-0.002532747150108395
-0.04931024060456714
-0.03328638301163083
-0.03930138147649971
-0.01658608524451841
-0.09477354466598115
0.02278559712035878
-0.0498064107298106
-0.06483552072776999
0.08842519950236417
-0.05121644363393822
-0.1528611995845497
-0.0393968424588803
0.02251083243514989
-0.03785610962266225
0.1901556463286104
0.03537226396344211
-0.0509364101358069
-0.1037073341281016
-0.02158933819494806
0.07950549265780853
0.126900222077349
-0.1275636202784612
-0.08818299361756665
-0.1294658099486508
-0.04475995635452462
0.07722376751546889
-0.1215195866293071
-0.01028890076818974
-0.1475911808678486
0.0988452892483578
-0.4039837964942496
-0.1680739701556581
0.05455953065591818
-0.097181398868099
-0.09471781069286583
0.3581507661368575
0.05969954746867155
-0.04797671684096568
-0.141736004357638
-0.01081085550806061
-0.09398258060424956
-0.01562256547300395
0.007755869668573005
-0.1203514685348086
0.1187107854086095
-0.1536847353512848
-0.06094391529147763
-0.1944318496759568
-0.1464385380083161
-0.06732431089167155
-0.08049530044664237
-0.06988392029706217
-0.2949867775956803
-0.1795685357809466
-0.1046025571132515
-0.1239073309145021
-0.1280513776252029
0.07259686163943077
0.18363045827222
-0.01799591578904881
0.1249187553927154
-0.07121917343374683
-0.01681373189377659
-0.02289543801081056
0.01713830279787393
-0.08077747598432691
-0.2503522626734691
0.03162475684035757
0.02630445904776867
-0.02538340591837663
-0.02588430836825751
0.2715496809109655
-0.0462040938556082
0.09234446139801007
0.01438805688842533
-0.0313182347107693
-0.05657604269737035
-0.009026753544258756
0.03580735262834413
0.04482599781712312
-0.08186250384019284
0.2574422013204012
0.09621651484506299
0.03875170526412011
0.07983773426607084
-0.1033227162445049
0.08640273222633815
-0.216368509786761
0.06331858602974318
-0.1653618089340302
-0.1163124885011331
-0.02296928134994021
0.2056345673979109
0.1084710703292484
-0.1228063930633824
0.03704069853043021
0.001211523048996904
0.02805260041862686
-0.109940912995267
-0.1740702776956451
0.06875459907463978
-0.04927427041970071
-0.07074526241639337
-0.160745371699374
-0.122297587633406
0.039604144405492
-0.02391735907926726
0.217174902278155
-0.05725369261330379
-0.09384628790880942
0.1539032308025751
-0.07466045727654026
-0.04784685479612814
0.1546588364958458
-0.2828780287645913
-0.04234824661310891
0.05098658726058219
-0.1106369344734016
0.1475187071347421
-0.2129215847552156
-0.1898921964590809
-0.03551487771612789
-0.1170260049053104
0.08957420310477728
-0.1378982175666291
-0.1163947706792959
-0.186272750920136
-0.1629961536701598
0.1786554106115769
-0.1010614383401988
-0.003033858196521504
-0.1026102987401515
-0.1740740250396872
0.07643333101856355
-0.294011500397048
-0.2091721103360843
-0.1627050915572277
0.01969463159297643
-0.01842303920970558
0.009094701666987351
0.009911962935053876
-0.1436638982239646
0.002860316909357376
-0.0003709210820613429
-0.01105041002417079
0.01150731938055116
0.008225604328978271
-0.01904592890656002
0.03148662255572101
-0.05107922499979196
-0.01999469054293435
-0.01380068624494476
-0.0527260886418273
-0.002185730407293004
-0.02807086410029855
-0.01007404593679769
-0.003425261641797665
0.0577939512435822
0.005161456761903615
-0.0355521313938287
-0.03965303805203604
-0.04852460238987844
0.01688003825299787
-0.388305623196164
-0.2041889674984219
0.2675453520389416
-0.06910797176392627
0.0199627239055307
-0.0120829188128839
0.02902508047200102
-0.1299108337311277
-0.07147777968240666
-0.0649655865146503
-0.125990822275439
0.236337238978842
-0.01973673681808473
-0.1087089050427242
0.004181188431023365
-0.1140908158363465
0.0436918898946386
-0.1143442993848479
-0.1228262308910924
-0.2301371816946179
-0.1432454318113595
0.08799240566390726
-0.3081075698637709
-0.1912172172018889
-0.02094682567538289
-0.09849442555266076
-0.1817374421831703
-0.06954821046640809
-0.0194377132175069
0.00535878281223654
0.03352449635925613
0.159125497270201
0.0509555457597939
-0.04957879262509025
0.05709202638560377
-0.1304809770828624
-0.1616673301709463
0.09869680620020851
0.02142995416742899
-0.187991589168011
0.04320502263746096
-0.04496770233062305
-0.09557348671614432
-0.04206697038038467
0.2621267651111641
-0.1633690852072046
-0.1517136615788595
0.3171716536420407
0.009879870517055562
0.09974680710695179
-0.05104453694772074
0.01003248182094128
-0.003462691144406664
0.1620386994824784
-0.1375689378249725
0.008609358008266406
-0.08047622974070749
0.009225543465705588
-0.03205093556544866
0.04688952080903285
-0.0140308657553706
0.03544749305251048
-0.0130832707761237
-0.04420160232659523
0.01484958896344334
-0.01219416588593191
-0.009026673500076141
0.007461084792438751
-0.04787279576004239
-0.008650386663658692
0.02931046151055856
0.0251735807459354
-0.01578300030274686
-0.02061262730495195
0.01483801690817856
0.02097255478511243
-0.0255391849173658
-0.05468422281315994
-0.03454595008985561
-0.006552121810381651
-0.002615914086457684
-0.05793069450314803
-0.04100171274249143
-0.1117302489097987
-0.06123641304547145
-1.005063876391122e-05
0.015247491394873
-0.02052713773755496
0.1059224100389777
0.02039730966556009
0.01144151118241703
-0.02830919710137556
-0.02343763914548483
0.09587611875545674
0.01163046878563116
-0.06210860424838002
-0.01925942010353807
-0.04686666884644176
0.1212061689677132
0.2036812313546833
0.007434413770755831
-0.07344660685576755
0.08435153779930811
-0.0379387916261977
0.4582369323132569
-0.09565766268879233
0.02653671616594784
-0.04518376973120266
-0.03030150217637042
-0.04618897973483504
-0.0236923901016772
-0.04116801116041172
0.1064778329440749
-0.005047209161429769
0.01220758549923069
-0.0339407104785155
-0.07051224353925727
-0.1067848316365818
-0.008091064345267565
-0.3945550702255463
-0.1156780076943935
0.03896771856890793
-0.01105798524943788
-0.1946104016323144
0.618661525089259
-0.1959231830724694
-0.03513863357457588
0.04299458933054998
-0.03405525792613317
0.01668181780888634
-0.006063512356903655
0.03541755693499865
0.09344635315437516
-0.03968540050136264
-0.3051362010172108
-0.01685707504102634
-0.07504618117047671
-0.08491428968821084
0.03282652089033498
-0.1111024941737351
0.006829497414200606
-0.02267336882410782
0.009598686223318017
0.02916352093141321
-0.3825099398919092
-0.07481941003510094
-0.04579365214322971
-0.06020865948275873
0.01325434845514156
-0.1737430239738854
-0.07862776723792801
-0.09318775178082236
-0.02821848960057859
-0.1518379475020254
-0.01750155706926681
0.006885409187998681
-0.0453469461250251
-0.0270812882612898
-0.02044448409699914
0.008894495166769439
0.06572123825841564
-0.02091999736274572
-0.03380544243633989
0.0003147470260505352
-0.03319316351470154
-0.04302712854897422
-0.08931182859085378
0.00580347830644339
-0.03179987883256035
-0.08854078633119482
-0.1588220066849039
-0.08673942632911849
-0.1569188939258725
-0.07621631288697485
-0.02877824398821012
-0.169875802166694
0.05108347021133503
-0.04866772379807013
0.1249159822911236
-0.03960972719178283
0.2314390046975199
-0.09286742834309961
0.02299202205775766
0.1425681092922085
-0.06853847035320906
-0.08783318489286483
0.08652026119131739
-0.07770600647036249
0.1291048889113528
-0.06078635199526505
-0.2006324562749724
0.08414411404966966
-0.0572922070975054
-0.02991112550680025
0.06575975577084646
-0.2119119045098427
-0.02325256123150171
0.003670744409339143
-0.1961399009780544
-0.04073250593779026
0.07910103671991019
0.2400133986053179
-0.1186220922677121
-0.01644895403168855
-0.04311282032951194
-0.1688623318217482
-0.03741735744450719
-0.3739963832020181
-0.06403273658307135
-0.005197093513043113
-0.1476458922761153
-0.1089415925710013
-0.09966365504053992
-0.04244465434806131
-0.09576587872600452
-0.008803673096333368
-0.01872613231137457
0.08103346267543249
-0.05489371441879699
-0.1600639330213806
0.1828974412231294
-0.1161371305789669
0.1668477984455661
-0.09418253749358667
-0.01056081861477736
-0.1421178129422243
0.0821046324167673
-0.003481015159601184
-0.1512520856995378
0.0271806737420582
0.007333684380823436
-0.02137389240278433
-0.1510645385604232
-0.1191060934701927
-0.01682026838782521
0.02200630625213817
-0.1047906792465378
-0.04491284192564177
-0.2234815714036918
0.02641294762994007
0.1589197215001154
0.1150963102674169
0.02910202007904486
-0.3208841157866823
-0.008977977405368525
-0.02847143013254688
-0.1032523902387049
0.01252700593020053
0.1941904686828404
-0.1265819179974139
-0.1374381525808352
0.1005570772557398
0.2723264683978833
-0.1100024256001681
-0.1346821590568898
0.3490636991117049
0.2493712893824242
0.1616873499245707
-0.138596466589326
-0.0009807501450225164
0.04942621234266433
0.1007946555342701
-0.03077238133585167
-0.1724487273286119
-0.1686835970734155
-0.1183382235303625
-0.06857498888552921
0.08268992532436215
-0.05313961519876129
-0.01843860558949928
0.09448490490098763
0.03817714686153581
0.0022523304857267
-0.1727094186733838
0.1167132234316678
-0.04750414461219302
-0.204166451399283
-0.0788218037855682
0.05784821015405173
-0.2563284344555514
0.03968871262113946
-0.02668557595946809
-0.00129618621524934
-0.01243800955333197
0.1120431248536971
-0.003638442346274735
-0.002750454869695899
-0.04996400331461725
-0.1226199058770821
0.3466954018934981
-0.0567405529134504
0.04249515369448227
-0.15353115274073
0.05341315295594673
0.07345719986375128
-0.1543761696149868
-0.08449364280234678
-0.1488778054498781
0.0166302824427038
0.1216943992099513
-0.1329833111733887
0.08846964176275669
-0.2400389295641804
-0.1028039302859879
-0.02253090189216189
0.04970662738879218
-0.1485773945105278
-0.03583647526255443
-0.1520136109234997
-0.3450684029782781
-0.1373525236322
0.02349416224770211
-0.1101402541543784
-0.02350289097805354
-0.3588482139961499
0.05131317280123495
0.01068677853503319
0.1001336193894864
-0.1611768187228154
-0.2217243647945678
-0.001736094969107791
-0.05805034927612121
-0.1032868776570029
-0.2082366136108574
-0.1248621477919844
-0.2712475557685967
-0.01836044205211332
0.003423870914371986
-0.1172638378089002
0.1634031489432242
-0.1486736445218144
0.04283650882313571
-0.07473941923178094
0.06068200282799473
-0.1152359385708488
0.1336563054318373
0.002538114070206386
-0.08244276990732888
0.08341147683070763
0.0570619482477605
0.1112045754249109
-0.1806708417013314
-0.08545724466372807
-0.03974597150963904
0.1994298728357776
0.1602862981198722
-0.2290629401035281
-0.05011314600055457
0.08023136292669263
0.06193400460665687
-0.1407159182057302
0.0123041081476841
-0.00644318398634401
-0.1570750223168218
-0.1108242604541726
0.2447588966931521
0.09819629883386716
-0.08705199008366242
-0.1594929966236503
0.1277461636454202
0.09252018301679532
-0.06376876386122921
-0.01473012699053588
-0.05239654072850053
0.01475665495840515
-0.1029403894496818
-0.04188752232095926
0.09531463657362507
0.08088411254940947
-0.09798626416674558
-0.1974190652134903
0.05556476030760696
0.1339062993708579
-0.01845354101998923
-0.07025555377031123
0.04914775592342526
-0.05049167109002752
0.1350791615841061
0.105440994346317
0.3651049756301467
-0.07846197490386904
-0.2658143787088742
0.06675078582129507
-0.03807124471353765
-0.07807309962216583
-0.07700756329732175
0.05956990792424248
-0.03416875352420467
0.1134305353186323
-0.1684921893344495
-0.0754838420197213
-0.0009366582818119497
0.1384780008945761
0.01240365357925004
-0.07609449852568409
0.1417291254795484
-0.126412178022893
-0.1371208154547701
-0.03568083475215264
-0.2763097118104116
-0.07095580062029049
-0.03247815123751242
0.07820530979402929
-0.1242146100989063
-0.1264168862342929
0.09164398798981489
-0.06472512924002299
0.05947717147311064
-0.132499941947588
-0.1819655520073389
0.01369519328928779
0.2313068173739614
-0.111760653409805
-0.09138635898827155
0.1022391502727384
-0.2621478573376956
0.08349952952230495
0.03990736147270232
-0.06634959002353787
0.1513692459817238
-0.004618511020152106
-0.1637312039324434
-0.1378100774101577
0.221420372255488
-0.1422923955806861
-0.08686417490590094
0.07712204258446682
-0.119545858028661
-0.02500672619142755
0.1067426293936024
-0.2729352141053185
0.02140721047586186
0.06187123212708755
-0.001153883352350598
0.230664915467277
-0.05159711975641949
0.007943032008692466
-0.01008752761204385
0.1822151346043266
0.0923902883725439
-0.1527240408874492
-0.0487069997389178
-0.01198457734161265
0.0910077993597489
-0.002112650395468926
-0.1001206766647818
-0.2765404877220439
0.1168716529919045
-0.1146220398966598
0.01019643791272694
0.1008700587621959
0.1381256607913026
0.1908968385767434
0.09077571508756792
-0.1975610984413664
-0.01300632315073681
-0.06935755175227012
0.002058856489471137
-0.1181916329286296
0.1785682504821976
-0.04100635401542992
-0.032666126707719
0.03792553289115388
-0.05115923461638156
0.07043354825039998
-0.1482680952970182
-0.1322682199341151
-0.05973067335572017
0.03498658983832458
0.1248444404870858
0.03120927314195013
-0.07762300063479284
0.04551475703526717
-0.09050722636580005
-0.02570775620529266
-0.0532466802851314
-0.04049726008343101
0.2041962033963632
-0.01526038181233366
0.2174681775299706
-0.1046186278665311
0.06859265947009005
0.0995078623469639
0.003864060237066593
0.3541327738239796
-0.05902566282386231
-0.2476959421724013
-0.1241044075674196
0.1202492533194542
-0.2209266630898794
-0.03397230108747219
-0.09021561348310378
0.2793638298088219
0.2337542051837018
-0.2058878650925832
0.02671587100289342
-0.234965776562336
0.18708981596187
-0.05644439376494122
-0.3123540875251171
0.2907883763478188
0.1822710294109023
-0.05241871292053334
0.02808432591176993
-0.1194300288883874
-0.06998483524613543
0.1547629552371963
-0.02726834124652418
0.04116673487368237
-0.07277327635763738
-0.04845354874535434
-0.04362051306916297
-0.1039823288821341
-0.1527071799154615
-0.01309979903902252
-0.006525700910705645
-0.0006474906325094601
-0.09627489059603506
0.2590081690333252
-0.07461197646826863
-0.1683281375057295
-0.141078570999555
0.08311500387617057
-0.08111222940646161
-0.1919449919802829
0.07191082033823755
-0.04648571982056026
0.04923631832704438
-0.08422130645859986
-0.1366056416710748
0.01958568354202717
-0.1545627517845704
0.01000372117540477
0.003114329870029802
0.1344907464287375
-0.03473248493698911
-0.05216666379895984
0.04218321395840093
0.03617125180332451
0.2162540578768052
-0.0252474616398746
-0.132095715391425
-0.01208693857891192
0.1395732938413917
0.1987682512555021
-0.05612810795310236
-0.3069606306770783
0.02758157843360766
0.03377416038901438
-0.03396602954368235
0.1776600361404443
-0.3676590735952003
0.174971943246857
0.2282757334139663
0.3088319540651536
-0.2224263878780295
0.1892918634882246
0.08367908339326255
0.08626370208173595
0.01866752198499514
-0.130736848525695
-0.003155799148594592
0.04304080841374939
-0.23205936197763
-0.06513478776540418
0.0818431882443106
0.2950411179770934
0.07854550333088227
0.06473725266435126
-0.216033301472262
0.3063867926442277
0.2548897829956639
-0.01830897906973395
-0.1091221628284975
0.03495881198920946
0.2886564399450988
0.2041867560298246
-0.1218096752578501
0.1220558709426693
0.1380703728061326
0.05925732039176596
-0.0589494202828785
-0.1411873473750148
-0.06649929023876021
-0.1272325242704458
0.1469494575948334
0.1660088036639935
0.0539120948887559
-0.2555029543954656
-0.01120987670643553
0.1127519178911376
-0.08756171497274649
-0.05540605689869096
-0.09331447928789598
-0.1685755009236461
0.03186712495081397
0.05517241285263091
0.02320483340429401
0.1149148811092659
-0.07198949472726857
-0.01149074299299761
-0.009101719464704621
0.01085687633382735
0.01413508709983003
0.08857062268556795
-0.01539436034245422
-0.03916076535397733
0.000671474758069022
-0.001756214118790499
0.1056656141689657
0.005831970588228245
-0.0224035837463438
0.02321631476957553
0.01044474616315246
0.03015907923856946
-0.004654184559399705
-0.01020175414618502
-0.03821890122849038
0.01046944943490843
0.03821476086359715
-0.01318953483147657
-0.04150808408947586
-0.001502475219632579
0.003544649754127713
0.01179087362523136
-0.02516026656037247
-0.009683726205396051
-0.1829065241640756
-0.3145068766780919
0.1257249733816638
-0.0204406785599499
0.08780271566698786
0.04858031233519793
-0.09354752725738379
-0.1514611412537858
-0.2668908870894224
-0.09849126053228664
0.03997875426404955
-0.1259669465946628
-0.08791694416748252
-0.1574416991140326
-0.07545158294396437
0.08554214190735435
0.03196074441074116
0.1385164531552824
0.02922217883118529
-0.2050289877728686
0.278966092263794
-0.1895802341388046
-0.08973594763110175
0.1632273080954851
-0.2409353805027589
0.1618107146382171
0.1552045863524016
0.04146684533591285
-0.02768571562394781
0.02670689199853351
-0.02684238770645061
-0.1733459995519621
0.02457981800917253
0.08548092648109822
-0.07928317809244788
0.00438206429213576
-0.08696842788750722
0.03065954673250228
0.06230553657326086
-0.09950363858884502
-0.04931340381032768
-0.1068298615172846
-0.05546988222385953
0.007990712143322566
0.03832128465328943
-0.1816645817428463
0.2642880798672655
-0.02219345609748722
-0.05796550762347483
0.03559810462720384
-0.005177713506394212
-0.005819291659669776
0.009934113988723218
-0.1363192572309931
-0.08855732453023639
-0.07513500165874688
-0.02397101936283967
0.01571125950318658
0.001134004025052562
-0.03530608197991611
-0.05536283714829635
0.02761248842311636
-0.0228175680121746
-0.01815068742925998
0.02891498072949483
0.02772529433722005
0.01130757810263941
-0.04709526228571155
-0.07987823914653497
-0.05802261252688602
-0.04994611808250977
0.0293912229253656
-0.02608923744093419
0.02665167774092228
0.04561440971030811
0.0343105152161558
-0.01450333820148853
0.01813117104314392
-0.02006683640089808
0.08294447099160031
0.01324858590314421
-0.05482896874548217
0.02175364219703055
-0.03918337064384118
0.0209569942585092
0.006923383561957759
-0.04653682939032996
-0.03555275702600503
-0.0229509660842301
0.03249868122505371
-0.001957923953722877
-0.05757487011426772
-0.1304169478610903
-0.03044590687199187
0.01742209146856385
-0.01297375954241599
-0.03651146764762057
-0.1217505736579055
-0.1155606172646139
-0.1503819312424763
0.03824882810604776
0.1382529161652904
-0.0943571483287572
0.09564252616328218
-0.1100112187830343
-0.02481013060744511
0.06733015643642627
0.1013272117964138
-0.0371762008743453
-0.1056904942130073
-0.2159837451025539
-0.1059586514027863
0.1480127118581787
-0.06262374604586778
0.2103136864934846
-0.03452001097065854
0.08604253027522007
0.03508091531233857
0.1613292796592623
-0.1396451777720945
-0.03711324069206057
0.01452400230695471
-0.004279641507358281
0.07764429173039628
0.01361187134350062
0.1897831925124004
0.1866652521311933
-0.2056829711360171
0.2489573007920071
0.1329104962585145
-0.09768713521508857
0.002987139779726463
-0.1050325349828474
0.07470823303862639
-0.09848840589723157
-0.158762833956853
0.1509971266996904
0.01471352342776684
0.01638673714991166
-0.2291146752076137
-0.1213109550730512
-0.0014752199267356
-0.008831189690776519
0.1256760488475111
-0.03417430721415007
-0.06469439779052137
0.03241086665330454
-0.01039608092634742
-0.03483673004158423
-0.07279230029732549
0.1765493411467635
0.09342907520567981
0.06231674340602832
0.2403427027971755
-0.06527690333624488
0.01694083923308942
-0.04062780018473731
-0.1210891170403084
-0.280524669960131
-0.007342122528380694
-0.06532951476068803
0.02363458415130428
-0.2698280301568416
-0.3563239250931341
-0.07932712851557348
0.05929968867723268
-0.08609102164496459
-0.1180789109055509
-0.01774753230049164
0.002970064628240479
0.09000772507623556
-0.09534747949669707
-0.0859170158748042
0.04649064407540563
-0.01321279985671541
-0.03286494013642752
0.104529907398783
-0.2702168117843637
0.02132318231529577
-0.1473375009547716
0.06197566765354074
0.01182404089477986
0.04008362293177536
0.01088156927288938
0.03694651436530801
-0.1295507812970435
0.1078592793236764
-0.2032189036487796
-0.2535635402565482
0.1071146925819183
-0.0601005110307481
-0.03306230372268738
0.003654004591153031
-0.1990170602892102
-0.06968400682374763
0.1049716527841453
-0.02314239624216621
0.4614160206496326
-0.05706422259758916
-0.103150510701926
-0.04643791261838238
0.0914936896136733
0.1216907252224524
0.02834509561165928
-0.008507541762808296
0.1405631046477131
0.0833461931326888
0.1869696166605884
-0.1969155763081622
0.1355943020566387
0.1246960471606534
-0.1342651246374345
-0.1810838178656163
-0.1082581490747042
-0.25371407224609
-0.09045000981085519
0.06546263524131385
-0.3167895349374564
0.2696342202919555
0.1277982763719008
0.09164439123668457
-0.1958046549060473
0.08631014887256437
-0.02485003476109936
-0.1363280538841095
-0.20147842500977
-0.01225993394942807
0.3308470750642275
-0.03376053987995593
0.1307732655431878
-0.1613916403574518
-0.006449164792343046
-0.06745348790180607
-0.02291019443476559
-0.123634273935655
0.02257060088006748
-0.04831304312070151
0.01454392436548513
-0.06443913141034263
-0.08591251680957997
-0.04251899059736895
0.3461790672673897
-0.12021644282766
-0.1116076718404113
-0.2206213304533965
-0.2247712847686918
0.02472165063470303
-0.1680929878260971
-0.2052435700743656
0.004713106110984912
-0.02867470481427708
-0.06568085046520791
-0.04026376329698132
-0.1310393775253491
-0.1364271228855056
-0.009890740194775764
0.06257149782532861
-0.05945431478692578
-0.1111838034201512
0.02895222365417971
-0.2231619868638663
-0.1601024920639129
0.2185692700890592
0.06673597949222651
-0.03853224199867246
-0.03078290376120301
-0.09858108132653164
-0.1341260148500942
-0.08215056372289363
-0.0838797721049067
0.001814290116735801
0.03561740072682394
-0.05671747885172849
-0.1205131882539957
0.1169996231466765
-0.08739606999962522
-0.138139937202643
-0.0535270442838172
-0.2180802044843609
-0.07170476211831689
0.0106863951312402
-0.01741033551469378
0.1334808581397103
-0.01087312395185369
0.0195886311655688
-0.003650302552783965
-0.05074523760276962
-0.03087347797983858
-0.03856536830149604
0.3284456113242611
0.1290039582558202
-0.1994111081021105
-0.1760859554049728
0.207125208549872
-0.09000085326387904
0.02169430987640696
-0.1745806736865319
-0.1850383096002741
0.0750821715599134
-0.08783157054133008
-0.01452591566307654
-0.06600414779631299
-0.01295431869068852
-0.07648579738935973
-0.1207923787272278
-0.0464508248267253
0.2913649303834441
-0.0679754596994453
0.06647012836391224
-0.1229404831361139
0.04149834604165235
0.05009558222364264
-0.1414421284818258
-0.01437034148979439
-0.1613278184760924
-0.1420774412874778
-0.1595472019959026
-0.1199109393416925
-0.1092790415614726
-0.09600666137872707
-0.139809191535008
-0.254135570257974
-0.1064024816425879
-0.07242437352999517
-0.03378528674022884
-0.07384850529628778
-0.01430721094955305
0.1299681072755281
0.1920456162165043
-0.1818998665355761
-0.1589806319470601
0.1358777271756093
-0.03703372764199182
0.07040808198996693
-0.0658904208871629
-0.02174773121314493
-0.2293581639355859
-0.03331452130748113
-0.01831265276161474
-0.1243634948999506
0.06913977947027321
-0.05106550685305498
-0.1142617924789851
-0.02972753115546705
0.002469159756982385
0.1109371928808875
-0.004714105344570202
-0.08388187719911792
-0.05297024237465683
-0.02566461446848908
-0.1341028833693622
-0.06291910403123743
0.01752033327241533
-0.02549027589979963
-0.1894425826037897
-0.2839398887980185
-0.2194120836888855
0.05837568837132905
0.001252146495102094
-0.2334382141117633
-0.1505952771049716
-0.2488105082961692
-0.0680706326547095
-0.003496207139918057
-0.06907544788346001
-0.05943654310129331
-0.07462636926396672
-0.1324379548654939
-0.1332276460514165
-0.009712166272048841
-0.07161738867312512
0.03705700900665401
-3.861962350405559e-05
-0.1212856189725955
-0.05163364033840885
-0.02901736262462483
-0.06443071418579853
0.1315007129147918
-0.006855858855381714
-0.0509809623516534
-0.05377709624356627
-0.06036444158772208
-0.06732072881534171
-0.02816210821553181
-0.1250242777547186
-0.1118288395770871
0.1484234100765902
-0.1541544777838609
-0.02824804927571954
-0.1316652106993648
-0.04415164285948425
-0.06428231841220533
0.02611954959296226
-0.02405263387496515
-0.03612899792451892
-0.03495512953648476
0.1334224683541312
-0.02587869000021853
-0.1059756722267334
0.03100858271414885
-0.004932955687475968
0.06921496730807658
0.1368850324733419
0.08346990572969036
-0.2307284349611229
-0.05854838409704104
0.02945703615465986
-0.06155480824050506
-0.05326331240209233
-0.2622701695890984
0.005465623803826028
-0.01610508638293132
-0.04184357713083855
-0.02131127799211573
-0.03480063079814984
0.008951263838436004
-0.02261999419066764
0.00702800414003832
-0.01147716659683817
-0.06603916249008557
-0.02109027492096441
-0.03842171363340915
-0.05025113903279809
-0.02201918622976782
-0.03731425229420641
-0.1166661276773343
-0.1035241254110445
-0.03254078116110641
-0.04848962315195809
-0.02875247456838434
-0.05340542512759146
0.1116348709780284
-0.1276742065029414
-0.1071101418138758
-0.0361387261953414
-0.100976616702405
0.1480099870061551
0.001833428079419329
-0.1768389773558182
0.03579922277063739
0.1127516494470331
0.02643561275513666
0.01602057443901005
-0.02616082833620817
0.02148459669638833
0.05943076805153957
-0.08825379775226862
-0.1671769148811745
-0.08712897274310319
-0.02698966927044356
-0.0547009553953216
0.03063831311557791
-0.08145449153186032
-0.03123605655160124
0.1696077647771088
0.05953388585293972
-0.1996686566100127
0.2998858023672015
-0.08848421629934365
-0.19774338938741
-0.1065614211224289
-0.0407725083825216
-0.2551194815181718
-0.06871206011476688
-0.03245030929515725
-0.02804437343309255
-0.1403963948080251
-0.06475388029449665
-0.03882794130089359
0.02570485221898192
-0.00047266378226487
-0.0059041545548072
0.01841353823770503
-0.07774012334526471
-0.008635105071467161
0.02135709989480459
0.03847036216704544
-0.00454930173489971
-0.02023309014947553
-0.01376657187238414
0.09084002644549199
-0.2129446848102484
-0.08510556404163168
-0.02058611932023556
-0.0531000245987092
0.163348447854742
0.1224388094571482
-0.3170094399188021
0.03232913587145747
0.1898656279503317
-0.2229325572608251
0.01617273844783839
-0.03973406538425428
-0.1172548704598758
-0.002332580683086322
-0.05581561734896563
-0.09065166931855521
-0.1006451700999306
-0.1700602348025946
-0.03778498018348864
-0.09680297696191972
-0.110854810223498
-0.02244192778871268
-0.0985251116140734
-0.4229087476026
-0.1167803171542265
-0.1632761458607823
-0.1609880370149186
-0.06638865618717059
-0.1201952341342267
-0.007134069075896134
0.155676646159244
0.04887883843288118
0.02640002703005959
-0.1971444653357443
-0.1269478956418764
-0.01272664504140028
-0.3346056306109508
-0.3369297664962898
0.05004227738123979
0.01987910945603913
0.1402386185269368
0.03791058502276809
0.1365876758803911
-0.03823202564670825
-0.1491979749899801
-0.1598779273423888
0.1705102464152278
-0.2062936700605377
-0.03963603565275559
-0.05798364975749579
-0.06428417646499786
0.04304868446043802
-0.06739397792820156
-0.06557387861704907
0.02526497981452037
-0.03240048142997162
-0.07508397349930387
-0.07498592539987069
-0.01442167459992244
0.0177091144359289
0.003882471139631657
-0.1024032613945482
-0.05296428829372458
0.03747144610615627
0.03113548179793473
-0.01330476953375449
0.07913406999854034
-0.03276408230173998
-0.02062844737796474
0.08703970711464407
-0.05620363254948346
0.02921148208276046
-0.1434085500798148
-0.1008276905441498
0.13010873049704
0.2895405860956009
0.01524668130530421
-0.1847042477871586
-0.2033901398332482
0.2235699019709838
-0.00169395489749298
-0.1630759994931549
-0.2250329134589925
-0.2095084580854142
-0.2474457771396858
-0.1607826871417039
-0.1059576237246588
-0.2059957157652374
-0.190977361785328
-0.1154123812650529
-0.09354851311980872
-0.008628944912964011
-0.05648130380012408
-0.0779910255397688
-0.1346556642650281
-0.06394086202669079
0.1774497591546006
-0.06750585414067131
-0.09467719884104553
-0.1404871979562121
-0.08828340514557514
-0.1319137392463256
-0.002687245092860492
-0.02581437343248565
-0.1737430159581154
0.01473961253626588
-0.2024486925220224
0.0280513865524558
-0.09550315722641743
0.04853306894198726
0.04056513652111342
-0.1378789892089897
-0.1071893239643867
0.09700463379533893
0.1921837847392988
0.1464364637612519
-0.09521762914971679
0.1134407273227451
-0.01021309737818677
0.005985488687269147
0.00547390078702457
-0.006370731387260884
-0.02590568165644061
-0.008691097464372183
-0.0008708168987369783
0.02610068727251786
0.03301836940676441
-0.01008470448112657
0.006365388725895989
0.03057076730601801
-0.009796978048192359
-0.03162501206795894
0.09153764771809413
-0.06981167717363349
0.02370714666874251
-0.005397470802730912
0.04074048534533602
-0.05183624396232499
-5.448581131779783e-05
0.01294344291030581
-0.02452672407740499
0.02219521156355247
-0.02997276463832382
-0.01378092723438305
0.04613732239734077
0.03497328530219442
0.08670819350680475
-0.05393994164375864
-0.04569832475466506
-0.07497653254177199
-0.01230938056151005
0.00196262026249934
0.09896627130495685
-0.392951308323773
-0.1606360939224118
-0.1795724627438616
0.03823669072508237
-0.08104326360969881
-0.02058686085767648
0.04918594078176861
-0.01335444041929494
-0.006736704853540929
-0.06587170250885921
0.06202008545670409
0.0320963361524859
0.01499363714529974
0.04212884458519716
-0.04883746411788473
-0.0188635199022572
-0.02446924569761753
-0.03878910707449021
0.1035694407618602
-0.1897139679811967
-0.01122758992514022
0.06731467766745348
-0.02244166168099269
0.05126312128808899
-0.03753281849500565
0.04991409993115843
0.1402315443262269
0.1074859230521122
-0.1501409860377612
0.1955147907565279
-0.03998550646258293
-0.004818348706584597
-0.07374557241870387
-0.04476905587800861
0.143161670862105
-0.03204187601116718
-0.1163155801071525
-0.1614642256234196
-0.01721737394782692
0.01894959737635969
-0.08223851924997531
-0.06195375967540719
-0.05870183380767119
0.02361704081559976
-0.1087457800384104
-0.03894129664084683
-0.06957687337948756
0.009737974153466722
-0.005077052826574378
-0.01390227806911837
0.06005221605056426
-0.03140738973862572
-0.03162798624165707
-0.002993874415376327
-0.05281628250603859
0.01739420300764974
-0.05636403810625555
-0.02360106840536032
-0.06957553784753975
-0.02409690926655978
0.05169970648932601
0.05702754169127103
0.02933311267012964
-0.05910310245775847
0.04199602147548209
-0.02691716308757455
-0.01493669366603779
-0.001226584916183803
-0.006291260323230451
0.01449840813127531
-0.00613581378855133
-0.02836454057669547
-0.0197575853902915
-0.02004973642330302
0.02553949705863455
-0.03517079613365375
-0.01117065184328124
-0.01472655186113748
-0.0535234378797291
-0.01042801458086347
0.000334214809559824
0.003078640225340484
0.01736888099287496
0.0004874399993570422
-0.0311198945110387
0.0205725430606092
-0.001074462047212371
-0.002857200151252578
0.005186378306772214
0.01305989643153252
-0.002359559662205819
-0.01186200373929066
-0.1531526575972631
0.01265087978616754
0.2378209750908327
0.08832516149789692
-0.1002064777739086
-0.02971931606664709
-0.1794011283818293
0.1050443965608886
-0.1809773963665402
-0.02873834927524214
-0.00399578931432228
-0.1926643995630474
-0.06468366829086442
-0.03531946847783805
-0.00115271595326935
-0.04796731324763272
-0.06262439652732882
-0.03200374911553029
-0.008352567039631456
0.02450407518312607
-0.08061888548657879
-0.1569166117671373
0.007715556688580898
-0.1052643653645448
0.07000683843806729
0.04790004438062638
-0.1996992184091267
0.06487044213921864
0.1685720159668879
-0.08390737038455506
0.1487754555874395
-0.2833489800319572
0.3792888679274923
-0.2097179070404771
-0.5945127895247331
-0.0147290005266689
-0.1230261896724484
-0.2010359709832422
-0.1033770481427916
-0.0264515793143874
-0.09932939137827955
-0.009301940510737098
-0.004685288779156422
-0.1342840951566025
0.02854778829126398
-0.05274233238181524
-0.04322524703259014
-0.04372503787902217
-0.000427164870327348
-0.07893040280326168
-0.2869946701697785
0.2340517184897541
0.006408353169280684
-0.3277621222296215
0.1800535877381848
0.0771690820639072
-0.2063978509834331
-0.2410952975481321
0.2271251435243067
-0.2410828465247377
-0.01045847553817648
-0.06735921152233963
-0.08464740035846245
-0.03968504087501922
-0.001515591368006156
-0.04146417128831698
-0.161900265515476
-0.037326099017824
