-0.02268812344462057
-0.03243898612234558
-0.00551461656619376
0.0002842794404350433
0.02799168210976807
-0.0189218031945104
0.03247200042894037
-0.02025000234084479
0.01872221227342006
0.003355251892124499
0.01921943169044283
0.02561029897850352
0.01119107270622375
-0.02838463443203854
-0.01754486611401115
-0.001768648191449593
-0.01279974888864784
-0.007028837360326985
-0.0008003065692668888
-0.01164794284801294
0.01765033531744669
-0.01856392909018533
-0.009704305640955346
-0.02876462181797598
0.007507799784164978
0.04541495106736577
0.08073242625662311
0.1589094451269183
0.02388499283182815
-0.05222201377020803
0.09478169086787469
0.03811478077870382
0.03568151636785802
-0.04667044630173894
-0.06450508090561094
-0.09974501042580794
-0.07690698572484783
-0.07110717393221883
0.009399169097017894
0.003642922560095638
-0.02666056479765826
-0.1249548020726704
0.001124043850890055
0.1481389487085667
0.07499270442531097
-0.007015883050711132
0.05952681006035779
-0.1095271897909374
-0.02854223406897884
0.007935467724432986
0.01660627220430449
0.05609097312690659
-0.01919630483668375
-0.02137431079336476
-0.01431885901810707
-0.07717997107490342
0.01544869758731765
-0.04261625243051834
-0.006456094825861909
0.05189920352245381
-0.1036219634117508
0.01298398251244774
-0.03442382284769619
0.06722342305097118
0.1007128106627871
0.03209111909984951
-0.01731508693196194
0.01376301285696566
0.08455899747138637
-0.00460532885308178
0.06328500868194158
0.05502069100959203
-0.05100120926126761
-0.1272531030625059
0.00581727181046054
0.02955309534733761
0.01946617201782525
-0.01203243056519797
-0.009768153454852373
-0.02828463615229609
0.04769679841787787
0.03946253507075807
0.07468285287573873
0.03343594851329026
-0.07604678890953226
0.1213866841972004
0.03037504025356902
0.06221555529948915
-0.1099516894616053
0.03297992080236363
-0.08336542792792359
-0.07444678510480461
0.005768078286847749
0.05494714431535418
-0.0009602308254174526
-0.09798169574210966
-0.03881762055942739
-0.007354988793891464
0.1256605305800599
0.09291641663105585
-0.01366116569678782
0.1032310819202118
0.1195119393903167
0.0190734289162533
-0.1396440335340499
0.02479873884214059
0.08672728071826026
0.05907388695113456
-0.05688110835948565
-0.124917961881205
-0.1825919380855449
0.01033537263679058
-0.2210155081026321
-0.2274316538091931
-0.09569135515922195
-0.1226305344208407
-0.1274877139043262
-0.2029393030437027
0.04678522629701551
0.2422373114146169
-0.01875578452235377
-0.0408747108594891
0.00386664170822433
-0.1202260317140869
0.005184779620895036
0.04627907574556071
0.07130528555642769
0.07335273564819159
-0.03313244462699064
-0.1107341094737871
0.06682780580152171
0.0562004198109817
0.01745004589777236
-0.03685207625476553
-0.06171985950419026
0.0241571672613784
0.001399681719219208
-0.09043516201099966
-0.1328050651418105
-0.02632262118758483
-0.04414663974613912
-0.1252685132395963
-0.1258559599153476
0.04947149185596039
0.1894416555359245
-0.07691498783214826
-0.06319090678117975
-0.09440207485148455
-0.08955040851772718
0.022589432714582
-0.05409256436251084
0.01024395249155923
0.00856299814192508
0.09485236157340102
-0.01328560385495852
-0.05300107782747154
0.01513631044074729
0.07161696904295388
0.2198573761529415
0.07330105197809379
-0.08412940784386763
-0.1980497077745342
-0.1415191773071398
-0.04514168094619501
-0.03506637280403357
-0.0114373515947444
-0.05538906194288037
-0.04550811249338711
-0.1176436084587594
0.08622530401142449
0.01051263404610669
0.06057673377065372
0.07692753196915725
0.006354327725033288
0.04722622603225261
-0.003686814605151147
0.04752389350335837
-0.02312919903208844
-0.04251390586799438
-0.04991515859434455
0.01070531635147728
0.04379213387212362
-0.03357819001905835
-0.04699060182139899
0.0165574661697254
0.08852736655432006
0.02986588640784858
0.02232125721546074
0.01298656558817694
-0.01834270863580746
-0.009167695367758431
-0.008295277902071536
-0.03595739654681797
0.02898329761608721
0.01306230214355993
-0.02558359862521877
-0.04803711438186254
0.0012683751271125
0.02380463213065776
0.01441796765541826
-0.01451614364581576
-0.0816073741197945
-0.1347017550259398
-0.06797787774136649
-0.06646105243150642
-0.06635866294408337
-0.08941048912211037
-0.05530084043224445
0.01959365609572994
0.02828194348852919
-0.009507876025165509
-0.09583725513971146
0.1884992406974282
0.1378403470244768
0.06978683237365865
0.01267600569946951
0.007051087217706473
0.2372988165075467
0.002285711498859322
-0.05464877877221962
0.0589164262865399
0.09928751660651955
-0.06852345565583827
-0.07387475872806927
-0.04414476156022827
0.001800994512510669
0.03380329946929173
0.04487241655315538
-0.04439493352030015
-0.04638095847710029
0.0467721801459326
0.1971138456157594
0.1363207437129375
0.03710684937296235
-0.08887827088317847
0.09032867154039559
0.09622499209764367
-0.09502095512815095
-0.03376589878798905
-0.07535551528976452
-0.05967588513418855
-0.05605820213687083
-0.05100825570301436
0.01256160380036176
0.0978390540693
-0.0266432649033198
-0.08964701074749994
-0.0006199662533133012
0.09449686079090913
0.09948262816101723
0.0417182972500835
0.01918379178149055
0.0186670104484151
-0.007403111724334509
-0.07753432759791261
-0.02520067373856931
0.01347192946487411
-0.0007517984797766366
-0.03888188984454569
0.02294362992489874
0.01366535035729849
-0.07770424527703895
0.02890193144182495
-0.03452301913149541
0.01291217615740143
-0.003386048308488638
-0.04167678607085914
-0.006746625298494966
0.03683453015926047
0.03618099867809109
0.006660646661417964
0.02115926859357275
0.004871610159738254
-0.07887805976712456
0.006641962279058361
-0.002246571863327061
0.002339566225114229
-0.01351687848499773
0.01222748909966342
-0.0108942772802311
-0.02458063145550522
0.0345415029662623
0.003192994971667916
-0.02370366851942168
-0.02917567747666384
0.005553759884904869
-0.001546303482649194
-0.0003165926738522735
0.00972998121525346
0.003195211027706698
0.01070258335068266
0.0001742937934124215
-0.02361114559860659
-0.01892284747987416
0.03590246828934476
-0.0137097130602335
0.0005271550769183065
-0.0256879296518073
0.005285238669864876
0.02648931413796457
0.0519646584094969
-0.01387540780037901
-0.1001836062266545
-0.09125446518152615
-0.01463279912956416
0.04475172816547115
0.02525777595406967
-0.01501797806442372
-0.09900647169679345
0.00691791554358077
0.1278718679799055
0.1548808537414288
0.005601377659914224
0.01109795703626089
-0.05923039666119091
0.005548218769041095
0.07379308828034072
-0.03537013651925375
-0.006064416636368267
0.007820966604401802
-0.05485669835920713
-0.002937030335893202
0.01988896055411987
0.002325766028303506
0.004612082742307534
0.02120243168658232
0.05966343687884703
0.08354955374827611
0.1001265717720099
-0.1155706782119929
0.02735986589699996
0.01082707178050797
-0.03621270557103818
-0.06865267154050392
-0.08135940419459438
0.004240085974228641
-0.08414772370440041
0.06712631469011762
-0.03682925600681477
0.1277581772833103
0.0107598476466411
-0.03447424207045878
-0.07876906564030468
0.152054963758865
0.1664799043000414
-0.05232208342783101
-0.009158250591688925
-0.07438015117168657
0.01048297165207391
0.07724609918841491
-0.01065876739096824
0.04539955512443231
0.09632241984189614
0.007035369214879625
-0.01858052039858049
0.07738860779462349
0.06321164799202231
0.03234433685299366
-0.03638054240857379
-0.04100897166264086
0.06641225327903616
0.02893760343577816
-0.06731375258921345
-0.02055026538859783
0.02822618183734333
0.0004175885168552856
-0.06597173640131351
0.01421556723633239
0.01883014288875969
0.03910932288012943
-0.08218561625191058
-0.04349983714760125
-0.02379913437045743
0.05447213975737419
0.02834188051219372
0.01416838480396015
0.02193213989214124
0.01314788915529569
-0.01157296987574009
0.0009531889316266369
-0.0004138674122507121
-0.009660570307466631
-0.03080204407086201
0.01126005429052456
-0.01208370085066068
-0.01740769915681481
-0.01335476708046869
-0.02792108039733376
-0.03198043500904892
0.00339150948222769
0.02661654116314438
-0.02384700330990263
-0.001837430024043069
-0.0140942087893624
-0.002001040680396811
0.01935118384793529
0.02779152114164947
-0.01081660369766671
-0.01391149819119735
-0.02812406455045446
0.03243450887991735
-0.01735016425106253
-0.03052515039266067
-0.04615414087461889
-0.004681232269368483
0.0239659166622707
0.01615228745328872
-0.02093062440434897
-0.01495138119379904
-0.002977720661220899
0.03976283581569428
-0.01960178273041984
-0.03096246313003095
-0.05146413409438179
-0.003941969751623292
-0.02544630911622003
0.04914105743606956
-0.02077493097808706
-0.002902719810632267
-0.007063221187406672
-0.01317417727688554
-0.01942943576295893
0.02737110435399873
-0.00245169753446757
0.001802449997683393
0.001546268837879535
0.02785146818706121
0.02466733464648681
-0.02299637227113668
0.00614692975911857
0.0705494048212939
0.02990159344653808
0.07053602264676638
-0.030580383061341
-0.02116871150406098
-0.01075645053743257
-0.07740093670662573
-0.06270010592113705
-0.02668069831938154
-0.01397201595205837
-0.02093770064859966
-0.07968497907133419
0.01177731779480357
0.05196024670169801
0.06036892337219051
-0.03387524550644345
-0.003760146597461199
-0.009683308676700489
0.06014650750099223
0.01860084576912816
-0.02395000340484275
-0.007545148533424883
-0.001726907712016807
0.005447907153970595
-0.02843864433400242
-0.01789188628441163
0.02145258871353464
0.01041089629220397
0.006117733081974142
-0.009738795210212849
-0.0009291271904850562
-0.005028313401734596
0.005286982501378318
-0.003308664555975316
-0.005296783092389346
-0.00804576548802515
0.01137217228935244
-0.018658832160112
-0.009579681673505749
-0.02233436861179979
-0.004675268538302449
-0.01938751238166477
0.00589124414256946
-0.002651421748958997
0.01008187684536708
0.0102515633476754
0.01784421342088379
0.1256599445641763
0.05677076089846596
-0.02904112038113954
-0.008982782003559288
-0.01999885570915222
0.05168828891317363
0.04961026615607091
-0.02469588855568014
-0.1230090229638122
-0.1025509229402297
-0.06309144888858191
-0.1033632055860185
-0.02004157797410479
-0.07911457692680211
-0.1291640995078445
-0.06095815050609436
0.07913018780860998
0.09329143259975593
-0.01714411676286949
0.01007613584384399
-0.0124393624284447
0.0407188632793875
0.03256237954507539
0.03834413704705255
-0.04007062814473065
-0.02931765667351512
-0.1222665226429389
-0.05348892898458267
-0.006207707465541885
0.007178201010862361
-0.04437544265832976
-0.09885212122621238
-0.03446695158680977
0.001156756118416191
0.09659905000786156
-0.03813547028138373
-0.04830470487773451
-0.05591432716686556
-0.009579154543514014
0.1454150872372276
0.01889068885502716
0.06645451517777506
0.05052456925390489
0.05773222677822583
0.08751396255275583
0.1011732472611941
-0.04363458881337338
-0.1002804028762953
0.01651009629662731
-0.03571127947464642
-0.03233015685590174
0.001764632429384434
-0.01043550517843888
0.0139100796006738
-0.008846230012369852
0.04781272271251524
0.0208128850634437
0.03142132867297431
-0.02004125332928194
-0.03840537368145305
0.08175335007091833
0.0003966945506372498
0.004799066380632564
-0.01159151295944107
-0.03531190810236443
-0.06715317083717148
-0.03205978131783088
0.009146869794695034
-0.05319071367862063
0.00685153414313066
0.01270892792732198
0.04298910197509602
0.02078526264312043
0.007373462640657739
0.01186059161127322
-0.00255456171265609
0.03886081319177284
0.005918221278163962
-0.02145334323554931
0.01499771354809483
-0.01479031460358961
0.02320519132674496
0.01564597377328835
-0.04483045573798967
-0.06684544225851206
-0.08524447237707765
-0.0203779467618262
-0.01142941262010508
0.05347155100496642
-0.007576650813381745
0.05563524077940349
0.008618672290704092
0.03765030629762285
-0.0114109719971171
0.02231758961458243
0.02329774295183673
-0.01370084951941353
0.02648644495248196
0.03304665534060904
0.01070584219485538
0.02767817568225152
-0.009076149837312711
-0.02737361122182357
0.02626000570572894
0.04469505806876326
-0.01835118633224703
-0.05019317485600839
-0.04944384636643669
0.0365047460456867
0.05018962168045599
0.006761450273174047
-0.0547227736148304
0.006263392268898672
-0.02045135270486735
0.01093613133084034
-0.003511802307562862
-0.008366843870280418
-0.02206625114946529
-0.03341032779692425
-0.02314952227479771
-0.02181097813238479
-0.0178389010865419
0.03142395313875312
-0.007925513547416609
-0.01149090524061294
0.006727375954162966
0.0060098299819713
-0.01255507383960966
-0.003092908820445648
-0.01644957578143112
0.005821273620403625
0.03332450297562128
0.02606764655237443
0.02243280383010783
-0.008477212122285763
0.001053324099475439
-0.0236359128702624
0.009811867049927375
-0.004024170711280531
0.01332005289229025
-0.02528456611800594
-0.02948549307852127
0.01408155386998018
0.008503725047601376
-0.01202630165200774
0.0236608995317393
-0.001721938803354858
0.0005164106666809587
-0.01033056948753052
-0.002152285309544244
0.01392253085150702
-0.01789223018204831
-0.01488106165387871
0.004690932880874967
0.008931330154636579
0.02970317713654582
-0.02081114577228661
0.01074031242202528
0.01433456679716811
-0.006492970418444854
0.01586153880013818
0.00290978394820452
-0.01169038927152603
0.007151159069905552
4.473270683209932e-05
0.01621289053292485
-0.01723514679802921
0.0008073350146991683
0.007153377978515393
0.002250897862773432
-0.006407023565739772
0.005919213997687583
0.00471538667336586
-0.01221214409502489
0.01995950670203167
0.06072503295286361
-0.01141894517958734
-0.02280313065401481
-0.03709377998663989
0.05611395774573428
0.01443609252691211
-0.0149929114959945
0.001631595451133159
0.004127003750710938
-0.02562597933599508
-0.03469690258871894
0.06038415573026974
0.005430674323378592
-0.0144663951349231
-0.08176040615788835
-0.02410484773212006
-0.02009787866560545
-0.02261922922684248
-0.01783036423934662
-0.08906926146486095
-0.07242182308397523
0.00199303972863833
-0.01795990031760393
-0.01490460592214197
-0.01482756745346057
0.03573572555458815
0.07613837022025614
-0.01966783524900033
-0.04515217740472244
-0.01915825885799775
-0.0523137231845487
-0.01179175932849025
0.06233471132817625
-0.00786540878303189
-0.06089621994760196
-0.1425113561524154
0.149221325874506
-0.01181605865612962
-0.05264146804721937
-0.07843277745468541
-0.0714874546739129
0.01170074847620849
-0.005570144437104949
-0.05027505715960196
-0.01352901434609441
-0.03336310918081063
0.07819736200008179
0.09814623179311983
-0.05271158540072961
-0.01603762906227505
0.0103646902198573
0.06256660480184854
0.0009464881768944768
-0.06615338332764194
0.0256082742579588
0.02186423456998469
-0.005737856896911565
0.08914140584859465
0.02863402143249888
-0.02926519103766948
-0.04750733991261744
-0.08472611190671867
0.04768139655668777
-0.005388734741548416
-0.01941504543386361
-0.03943860783566075
-0.04470556632355942
-0.001280279420274914
0.04552648487140944
0.0001772178071053231
-0.07695655548819537
-0.07291431953404591
-0.01155155859760663
0.02855179651904659
0.03010795200363955
0.04972061231336857
0.01105222006496762
-0.06339326398461349
-0.1022647605227455
0.05013630715389065
0.0737308254158638
0.08752891681087697
0.0139888247966123
0.00720712251241535
-0.003270647966777036
-0.07037149401547729
-0.1554320821374414
0.04178853784569642
0.008119746614024828
-0.1051484257034292
-0.1119616882282593
0.08164566249477305
-0.02111942467499146
-0.02106711402148293
-0.09768003044139512
-0.0994052490751212
-0.08197079330627136
-0.005162422234315796
-0.0594300971115579
-0.002196067530057543
0.06805122228881216
-0.01312949768223493
-0.04881531195793187
-0.06776523278897834
0.09147557863536052
0.1191018474054906
0.05220186838282451
0.006160109926493986
0.02110606631491477
-0.008230973481697504
-0.09680566710028156
-0.1392752794651224
0.04012859695073336
-0.008861630150208199
-0.0841518950568361
-0.06246749951314842
-0.06927141426717537
-0.00450026512934042
0.006196913818542519
-0.06877327106858208
-0.07094267384419913
-0.08031707156699179
-0.02237689786518619
-0.01221478558164061
-0.01207483002040115
-0.01566613205389269
-0.01913724387039033
-0.03990539614033713
-0.0169889870835762
0.03280793670512205
-0.06160959094678232
0.0516277884819154
0.05707809865481955
-0.05539060845096989
-0.066202916410084
-0.02155067714054109
0.02051559018240069
-0.04473668064899564
-0.04339937208931988
-0.06768743625787879
-0.03080046460008047
0.07769486083482072
0.03041336436686004
-0.02475175275709423
-0.02992621421271869
-0.01059291860178036
0.01614909518640892
0.02141609381172528
-0.001189765876784103
0.02590176014726003
0.01421586635682644
-0.0118381329755066
0.004518201602212645
-0.02885950368575394
-0.01758770918947438
0.01813010523287727
0.01303412510118644
0.01270024425983519
-0.02803191069272624
-5.759079975846614e-05
0.007753065583278635
-0.009483172309825606
-0.0333877295422764
-0.006308652613769573
-0.03558296673035043
-0.017992310116937
-0.04069905445544549
-0.03579621226345786
-0.0145409342560507
-0.01419683456798831
-0.009770681695820717
-0.01951553791629446
0.01322713638086388
-0.02074708621823045
0.02452257663866848
0.0111668109331642
-0.09282852160089658
-0.06656545048270536
-0.00326471731038846
-0.04030531832430819
-0.1317525039061117
-0.04727420121057477
0.007661658766942916
-0.004498891653284428
-0.1142156229289936
0.1249820696388223
0.1145696576711408
-0.04048555997353898
0.003883493157259625
-0.02824733587677635
0.1004023030578979
-0.03155850903166382
-0.09944315125275154
0.01981524951953489
-0.01935904159202098
0.04622982672252663
0.009724767600437048
-0.04010339361918798
0.00498933082773862
-0.02323921559359161
-0.01027772005475057
0.02323187125250339
-0.01764220441363231
-0.02160930757671683
-0.005194625635205962
0.04778884668751264
0.05722082888887949
-0.1128574399354789
-0.07832217625405981
0.01392751870808258
-0.03386158505999425
-0.08081395675373911
0.02646526386763508
0.03247678736108364
-0.0471449862682269
-0.02129289612174095
0.04572150224092598
-0.06502195846213622
-0.009793395516856393
-0.04426576122968883
-0.06054359455117526
-0.09529673791396319
-0.03394351001273045
-0.01920792148752207
-0.00808357942665797
0.002412743216229426
0.02661357839862428
0.001374629621860467
-0.02156164090969393
-0.02345235503791738
0.03401377328984966
-0.003599927340071315
0.02037234019937425
0.007605271136083047
-0.02899961889721773
0.01505247369348611
-0.08132574282071907
0.04462450881416308
0.01019588694282613
-0.004645395430807974
-0.05765302235603986
-0.02210156562341201
-0.05184071609681146
0.02269101222713115
-0.002548300828467815
-0.01046453901606033
-0.04383493852260405
0.02550026831741967
0.02221592563244622
-0.01991268494862965
-0.008455250691398523
-0.009509842545321405
-0.01059766507337225
0.0142612145476473
0.002146391492761746
-0.01163779015755638
-0.006920070432007889
-0.005891348491782852
-0.01720654231706758
-0.01898089540971876
0.005833897234563312
-0.01926271074014303
-0.01329901979184284
-0.002277572970713366
-0.01635222447010922
-0.001768107369984288
-0.03446732747180301
0.006762151997751795
-0.006857954854468378
0.003686238059976576
-0.001513070238484575
-0.003482233230481011
-0.01108912609958968
0.006879150974948287
-0.01150398055494248
0.001387272201399178
-0.03526833402032344
0.01038978655998421
0.0103532439335478
-0.0167920976388705
0.01772058391560706
-0.02977430555626
-0.04411172938095842
-0.02572511126392475
0.05647688543373647
0.04100511896512932
-0.0008003823718135958
0.03112360268829312
0.02664523697815824
-0.007738669100124967
-0.05432047015652797
-0.01311371226785206
-0.04348425012472516
-0.008195933213370579
0.0006040858104593107
-0.01887316937125596
-0.04802685561063182
0.03956575120281197
0.02731646601536832
0.00139321136300032
0.06228631614291126
0.08505806081718333
-0.04302138587785069
-0.06540762690558954
0.01527829948524164
-0.03315614838304039
0.03474237451659339
0.009963357267835874
-0.05232521243003619
-0.1636249819551017
0.08126728895246196
0.05223091534086843
-0.0560296449713472
-0.02177973730251179
-0.1041755575028826
-0.02377752953476916
-0.01775666452758503
-0.06333567092783061
-0.009154252088046572
-0.05592086200934045
-0.00810000275611438
-0.02218489600384602
-0.04827412828043147
-0.005327204397152722
-0.01848009082055855
0.03723256523204736
0.01292696062403988
-0.04335862229352364
-0.006454993034207985
0.06126172282169649
0.04984954296551147
-0.02386880344371551
-0.01553819051941198
-0.001011625660928644
-0.03949950002400839
-0.02795919697925335
-0.005679541471569858
-0.01365252021406963
0.007411204759405204
-0.02865047173775775
-0.04222078231672665
-0.01759428098992093
-0.02738555233160507
-0.01259018734779206
-0.06195500110116643
-0.03930414422533269
-0.02232005156593736
-0.04333145390108535
0.01365189596886868
0.01634351135905616
-0.005179524048948001
0.01960787105336277
0.02763292881480691
-0.02577298121507913
-0.01388027750117251
0.0002533644784064345
0.0173193782418152
-0.004453959864253417
-0.01706052399060299
-0.01948409271490777
-0.04258027342933291
0.01787908779942388
0.02106132988568662
-0.01252045770456307
-0.0133177088782178
-0.01909027487693532
0.006163318962191276
0.01665923173156079
-0.01200443769898372
0.01069933569814033
-0.01684042934846794
-0.01083089634025762
0.003009495923197306
0.0049949214342547
-0.001432599986624177
0.007908242621121796
-0.02766882940415443
-0.01791735976249859
0.008083145166898696
0.02525670915332173
-0.02522611973640471
-0.06242865471163172
-0.007245136824735585
0.01443902913192174
-0.01204981857751316
0.008454321605985736
0.01210883164726348
0.01506041321933457
-0.01590726238929997
0.006518218529867633
-0.007875124412653544
-0.03329004650570039
0.01199092292021674
0.009910904952688177
-0.009838580719386354
-0.04711492310928445
-0.02362808411602477
-0.01095717100139267
-0.02608232046039672
-0.002556629191160298
0.003417261802800483
-0.01007121504266194
-0.005430319120154125
0.003725253229490486
0.0275935255056305
0.06165825161191747
-0.007334904662501147
-0.01276681026433673
-0.0206929536845592
-0.01932683548734756
-0.02815249318397296
-0.01782556796657294
-0.01607293408017193
-0.00222298930143227
-0.05752658725260644
0.06986444801623878
-0.004364658699253605
-0.003680800804153586
-0.007476757275909424
-0.01022699712167736
-0.007092565951769343
-0.0006156911883480357
0.01231993128261815
-0.004337129771756705
-0.02238071467353292
0.003978548524580372
-0.002620181274164144
-0.021770098194064
-0.02631873226765464
0.00468762277905031
-0.009808758296296386
-0.01843558756631073
0.0173144129687078
0.01420422511217739
0.01178687846396222
0.007728875198547288
0.007480424217824338
-0.01866593218981698
-0.0009033064493995787
0.01980388230985177
-0.01320731136033058
-0.001367533567504038
-0.01714436942466534
-0.003888211230692082
0.02480943068816669
-0.005910350671140843
0.01732374540578558
0.003229039281041372
-0.008299003037044497
-0.003073528686308785
-0.009767523430943868
0.04445293982877863
0.002808158216134266
-0.0447399832932909
-0.01335298634453785
0.0294920368230953
0.01967338848697736
-0.02959331646151402
-0.01433622411378563
-0.006239322512609442
0.004220051151952803
-0.08333667692383585
-0.002035117528108819
0.007946335858770781
-0.07130582689044629
-0.05034744534380076
0.0971870767777181
-0.004792702958288292
-0.0003325338811699688
-0.03088908143613598
-0.01553678047887084
-0.02435569028052611
0.02508754660300315
0.006961008346121306
0.0007582542647150286
0.03069292311675023
-0.02204837590896806
-0.06067321193221191
-0.04495699834697751
-0.002111611789064763
0.04151363254279268
-0.01936131875236586
0.007299249042970305
-0.004547661032821278
0.01704316516999132
0.04118213113636671
-0.07672507225989211
0.1159712003090549
0.03626895840652827
-0.03701266003204101
-0.09834669856237505
-0.005149804528254762
-0.007822369799115717
0.04299519264831052
-0.004816148837325334
-0.03605984687117638
-0.08974721937134125
0.04473543218921958
0.007387129306636216
-0.01484340901353468
-0.01741710655351426
0.01263460610603133
0.02906760623673243
0.0188507622820193
0.0006971759448206156
0.01976796867384351
0.009199978360336895
-0.01831716924567009
0.008898229058681421
0.005711564157189108
-0.01587002511451766
-0.003573577669172136
-0.01184295376740721
0.02894632736576814
-0.003572632378314116
0.02956037539464047
-0.004026167346707521
-0.02484593457198288
0.03325994442501734
0.00599710173654064
0.0241401571920067
-0.01617221114997296
-0.001489949395606329
-0.01967578039173096
0.0233393260551281
0.01053425699899464
0.01418578091401373
-0.02065314439621264
-0.02448642548649675
-0.01771312462632504
0.008519577248174861
-0.00553833911444362
-0.01109216847952012
-0.01303925303214305
-0.009575380348421328
-0.01394145953930479
0.0630767604265708
0.002910736252934304
-0.04468321339180749
-0.02612110556501419
0.01424997245128422
0.0006648758840167759
0.01363613829198876
0.005503986283794613
-0.01046927099360277
-0.01624598263496497
-0.003408672923628107
-0.0003978528113452445
-0.003554193559742121
-0.005610620032754087
0.01617936873191428
-0.03227838092312368
-0.02178156348333773
-0.02342945689958269
0.004354008568255689
-0.0002202679341334234
-0.01627870353839683
0.0275610898627939
0.01913573886763859
0.001585859266386699
-0.03816647288407243
-0.03100987163127534
0.02229560501211401
-0.01653599668318857
0.003095968910355045
-0.003136398557907962
-0.034569530533246
-0.01646370987637851
-0.008518275916101653
-0.02818117917012693
0.006378778661099765
-0.03095369858530956
-0.0118822975473728
0.0005323798788498391
0.01874736716029555
-0.006558079367493841
-0.01583558821863747
-0.01307894017367864
0.01070496761760319
0.0149993728411585
-0.007570477661437381
-0.006381495985135584
0.02057931762945209
0.009261541772786184
0.01632201253088061
0.01961831149359404
0.01925101511712893
-0.02303922896550895
0.01670340912964081
0.001180198411061978
0.01186590806168291
0.01116712863772298
0.00552509292117232
-0.002409404148601653
0.02295236884628143
-0.009270154896964873
0.01489871961188652
-0.02171954210148969
0.01735384893960239
0.04430825632535087
-0.01591559487215766
0.0009836634816749092
-0.02954416658359715
0.0106743166278669
-0.005120356684524679
0.003914695300535948
-0.02826560999373499
0.01410908762763975
-0.01211974575161497
0.02431233007639527
-0.02250544873968305
-0.006702957545526875
-0.01294875400860537
-0.02299231698651682
-0.02445458295895164
-0.01895530118311719
-0.024637443263518
0.01148761600030098
-0.01023512420478019
0.01417495582890302
-0.004416834215770638
0.03472875551655398
0.02198507239161146
-0.01575875911917379
-0.01538635478606995
0.03243237556571739
-0.01670201029578038
0.04776942200262012
0.07271178367507049
0.05939012945219045
0.009704543428330078
0.06561348175675343
0.05749000928386999
0.01407527676119276
0.1087745835822452
0.001740329341135931
0.08027349298445829
-0.02041715633465794
-0.04509129663041585
0.01123380565071058
0.001148778984137875
-0.06653911609451627
-0.05572347968494225
-0.04482888352621446
-0.009368179550290337
-0.03439229387088152
-0.01228291922936044
0.008555009298658926
-0.03470397231272161
0.0003960781078710877
-0.008169395362320149
0.0494903357559652
-0.07980609818136779
0.1321707871652506
0.07977822070825238
-0.04463378418935947
0.03684468542621445
-0.02997562341187286
-0.1100019496493972
-0.1349262189547377
-0.09925512194900488
0.09495701571230894
-0.1014721234132757
-0.1214347388199956
-0.1404232012387329
-0.05488235865937489
0.04627497075845618
-0.04640809466998111
0.02701747989438966
-0.02533438969841629
-0.04742086181463236
0.009583701539216307
-0.03065632086012914
-0.001186601943711735
0.03613711556731289
-0.019085512705683
0.002893125661013841
-0.04155791903992326
-0.05571452005890871
0.03414939372956231
-0.04826507190827364
-0.09150333428561351
0.08150950889403848
0.04691728793964221
-0.08334852704645139
0.003000429438852732
-0.04549942864144416
0.1023637825833977
0.05876554668247976
0.02186476685557122
0.1348456507294722
0.06001525529884279
0.003037913980440693
0.03352543077557312
0.06602413229387558
0.06079851422240179
0.05870009623107205
0.07392254348633338
-0.02393281131822348
-0.05621561791723556
-0.000310764215356698
0.01623366249423961
0.01020028696784475
0.06880039285250307
0.1499400657792257
-0.03463128434387213
0.01930311190168693
-0.0508625456887537
-0.02312902868128578
0.1802996927198368
-0.0350815389179694
0.004539861423767244
0.05361929103940855
0.01204518229065456
-0.1513829731446772
-0.04273345305842154
-0.05324998345590391
-0.04319453374683314
-0.07996239320405217
-0.04651143311523542
-0.02921944172616566
-0.003660092594399591
-0.04071585324369844
0.03520642445199688
0.00997701629653383
-0.005542021900255769
0.00282631959086159
0.04236637510665073
0.1114744294865821
0.1458098886757063
-0.04789060149256223
-0.01578128514985146
0.02001827692340647
0.0748513102977043
0.1190548777618987
-0.06044691732469553
-0.05811113720580022
0.0521962184642906
-0.03021971749935126
-0.06147396679863724
-0.01430558183952677
0.01104283493794353
-0.001613887493912285
-0.06852198229070988
0.02454752300853763
0.08008929557078021
0.04235887475143731
0.0292644344967944
0.02300433756569805
0.02900321389175522
0.03022448551854797
0.09006786985680448
-0.1274592196125294
-0.15491552273807
-0.009849261964053018
-0.09414941413591729
0.1172438723995015
-0.07389759947692263
-0.1703953482094735
-0.04004773137492922
-0.08392038037225523
0.05331978637392108
-0.03202894190586993
0.1341637535323441
0.02033724787494487
-0.06577619225861341
-0.02787862307803737
-0.04644364485329464
0.03870760314271442
0.01621178105676756
-0.07204892353904316
0.0828127535205187
-0.09165885499399735
-0.09119538407889133
0.0106192909126274
-0.04014060996692626
-0.01423986034049286
0.03266771270883432
0.002361826710896107
-0.01714405873137827
-0.04551289950626333
-0.006523331647399884
-0.01380376218682247
0.04079840964485337
0.03225824341574401
-0.001810678172506132
-0.003139008982441419
-0.01273559111307739
0.05545986307471254
0.03321363842768593
0.04191143664987873
0.03290323782599739
0.03111588705487866
0.002645027808842131
0.01165417035893324
-0.01337421120021765
0.002394464359526093
0.01189419039290693
-0.02355874729357508
0.01581156635168633
-0.001083523195096076
-0.05148414530933948
0.06126660109978043
-0.03072194248426849
0.03742740101611917
0.02008998783551296
0.043294038529798
-0.1832981223176075
-0.1747561077743557
-0.04053409682114425
-0.0101205236428207
-0.04750624011010531
-0.1925358284750856
-0.1809931343849984
-0.02594263506765039
-0.0181132791475658
-0.1167232562042158
-0.08529203012081008
0.04425666460686204
-0.04966275904530879
-0.02745623993326401
-0.1346763270635686
-0.02792152293261476
-0.008763071705230068
0.034913685695797
-0.005688599273705445
-0.01603249305833057
0.02198953813703717
0.02753975219154575
0.04996430173579332
0.04460948024975254
0.03535035357614228
-0.02702954407933714
0.1242781043767485
0.1341449116831406
-0.02599152491983356
-0.01138282275280169
0.07616049937843476
0.04561207961022701
-0.0009786210104972756
0.01184122915920672
0.09655693553662462
0.03448043238233846
-0.06081419492113632
-0.07082718511051446
0.002488986629573342
-0.05847718354686948
-0.01871645395526108
-0.006038889531050209
-0.0143127605776248
-0.001517710814031091
0.03720517255036396
0.02589591494651871
0.005766460239968735
0.1001181754920235
-0.01007285307976639
-0.01101749352444103
0.03332739683213886
-0.03744608134874887
-0.02513346218705741
0.006183706143518614
-0.0488956843894926
0.1136327235827548
-0.04850807062381433
-0.1816848201518136
0.03263913139516814
-0.04129464051989762
0.01457226030685261
-0.04203126382040959
-0.02771179122700186
0.02787164091110725
0.01300006412693707
-0.006932178045585656
-0.03319361028545799
0.003337416553106959
-0.0190334975800364
0.004409064949793181
0.02292946993936687
-0.008451437428314645
-0.004871866710390462
-0.01218248912049052
-0.0172056408014456
-0.03066367177208206
-0.03321830252380888
-0.008446149061623746
-0.001832512627794545
0.0136006536085626
0.01037446647504736
-0.009136771745483793
-0.006062932276836802
-0.02132905196938501
0.02063991817888215
0.02825873787903532
0.03751668996337088
-0.001772561176871668
0.01989376170344569
0.005368124091469367
-0.01713045093478728
-0.007113112981280677
0.02598202363838208
-0.0720055905552263
0.03971794442341749
0.02847805286738967
-0.01266031441896263
0.004921244256150281
-0.007939625673444924
-0.009995466739020893
0.02940972648441012
0.09483491524457081
0.03742855452556739
-0.008170686984788811
-0.04134097039285054
0.02323214267941836
-0.04936794570922131
-0.0150379783486603
0.03690326406278954
-0.008834765028201512
0.009792566255582199
-0.08937509693208423
-0.04677730293366418
0.02691117396932467
-0.0087167147805633
-0.01778938549812531
0.04396117187363351
-0.02451859247651389
0.05787719766768011
-0.009946883537960121
0.009039805399006961
0.06329841584818877
0.1938814392382391
-0.1255236907306435
-0.02418979419421025
0.02923504947785804
0.1081715165801628
0.1375569620112537
-0.00222682753071618
0.02076010626927308
-0.03260588475194597
0.05081805450846767
0.01763003664723461
0.118661256580186
-0.01595045263045191
-0.0870538427875342
-0.03768875206638451
-0.02265369913948674
0.000757056566166565
0.08056432342145409
0.06532087549759703
-0.04578639404045679
-0.04018604330086357
0.0007241015366633691
-0.07704864404885912
0.01734742624140883
-0.01498876677397024
0.03884988063091992
-0.0810007069392695
-0.03621617907687635
0.07211758821229829
0.08404870916038133
0.0008400745316728369
0.007475298712232526
-0.00212614101908576
0.05891398149597893
0.05835234706743728
0.01822000557287846
0.05675960513884742
-0.0456101182098335
0.04640511925163911
0.04590018636501984
-0.01004370253101047
0.04059109683340847
0.08673740325455996
0.0436978168136807
-0.0218142729699554
0.0129085503701077
-0.02063314025282446
-0.01016722339566571
-0.03504418897366962
-0.04572050952631904
-0.06991920661697255
-0.008944708199407993
0.005857457502968129
0.02132522782323023
-0.04184325106554434
-0.06860034894010977
0.01043231821698076
-0.01069751339325476
-0.002713689567118148
0.001314439052779264
0.02069649199521728
-0.01339306159406344
-0.01193477481036249
-0.02366482410717639
0.009022282591552607
-0.005161870162549142
0.01518105076117435
0.0076013713377249
-0.007219600351578062
-0.005787058781063952
-0.01486744989307925
0.00391735414622638
0.005842784355417662
0.03725027510404616
0.004981338222588331
-0.01949867038317945
0.02574533616862007
-0.01812219117956657
0.03361784765520934
0.05119204173993673
-0.006834727631149968
0.005727767356745374
-0.01143759621858019
-0.01768250935063541
-0.02846708706524196
0.008902606440919145
0.004111141965551182
0.01911416320614507
-0.04778932953808163
-0.02354121334477157
-0.03414272243741465
0.002369411954781449
0.003783841708280039
-0.004029540664670057
0.02579942450053532
0.009911598589292303
-0.02105013420562957
-0.02196414947207238
0.01393006629496519
0.01916587991538658
0.003015025438094082
0.05531896883084524
-0.0007198686147426343
0.02764368411016175
0.05829786786063997
0.06592158980869686
-0.03467749565713071
0.03070911555061628
-0.005413737198035218
-0.008467125785752354
0.007338215928309974
0.02213905849444832
-0.01590983009929058
0.01602763361763644
0.000821662159801775
-0.01859744117887015
0.008290466173998919
-0.01945558647426292
-0.03527475029802773
-0.01871726623667485
-0.01140628875033376
-0.02275085064630485
-0.01277194077352251
-0.01341505305483396
-0.01315424025484688
0.03159611713673866
0.02158087331442766
-0.00415502603198364
0.000802670405786038
-0.00849564868126928
0.02050428482191035
0.01660484210844639
-0.01183829870558918
-0.0232458741547549
0.00661280995843176
-0.04042491825047353
0.006693114144333255
0.01430063176810308
0.006423161624070339
0.01484565409186973
-0.01259052918325452
-0.01997220238777196
-4.440214379752628e-05
-0.01150514251447711
-0.02763701114971602
-0.01067905233833714
0.03123368064056522
0.02439122253373947
-0.07019234393386274
-0.02980667431189101
0.02526917935349428
0.007581909066181166
0.04508039060021445
0.01015118513272899
4.841232339375921e-05
0.1091867578653782
0.005026122483340786
0.02872409528341946
0.0302275515805379
0.06299929174932642
-0.02914118103582043
-0.009880452968932489
-0.05769521831414064
0.00908786334001337
-0.02828745669240644
-0.03530819307886288
-0.04349596853564412
0.07707443267300981
-0.02594416669887613
-0.05484441282338531
0.006267095545801486
-0.01782948802604911
0.01363194399960034
0.06683819743350247
0.03649867770994518
0.08355593608643504
0.02440790672541166
0.008512400689674411
0.08582259605220198
0.06613563810198124
-0.01120653820832165
-0.04652267414101945
-0.0882278659142154
0.08575184812562778
-0.279469366731863
-0.2203727564622937
-0.04896934769977768
-0.0496299425821838
0.01012159743875602
-0.1492064283679738
-0.0328209529567
-0.006758389043232576
-0.03473029170023161
-0.02310876347299204
0.02244641705547721
0.004849854872672677
-0.00262570886260308
-0.01023661811969045
-0.0363980134792822
-0.01682027691046655
-0.03793693691814982
0.03479780020511559
-0.02858215861579708
-0.07563824616914398
-0.03386521810199473
-0.007077894566622448
-0.03494539543493323
0.03721153348323339
-0.04632863107064066
-0.005519083726252299
0.02333281994001934
0.01832749621740309
0.01470593998740085
-0.002379541217888511
-0.007684886321674764
0.01440865527156627
-0.03085404997116808
-0.06816367314549975
-0.02440460539219984
-0.01842662126920641
0.01113585233106129
0.02486014982701412
0.02043696351500593
-0.04217573443578331
-0.01572302744678994
0.01300355693236271
-0.02818952806501472
-0.002295026288249131
0.01080755556031156
-0.01967224096975827
0.03376400998167241
-0.03353691689462683
0.04258054553503719
-0.04884196516952043
-0.002115324734082299
-0.0121597903595804
-0.01014295481247476
0.001743093454437254
-0.04660288558324675
-0.01803095356419476
-0.01810398156508607
0.003420347025206353
0.05665015180450741
0.02108380621410614
0.006497967959439927
-0.01840971830687197
0.001385911917732599
-0.01338421270111202
0.01525797031247747
0.03228727933815565
-0.0005971131786275056
-0.0207926548661619
-0.07532856371888212
-0.01799214124868794
0.04389728809623619
0.02694344475413494
-0.02777677238402252
-0.03623788704686957
-0.00788985504454208
-0.03597707864644242
-0.01876666781965869
-0.0112270763807198
0.004381465130109788
-0.04168431428443586
-0.0203618858569675
0.02667578045604139
0.005738650066721108
-0.01140353561669362
0.0511955156392331
0.05114175455101498
0.006319044729632975
0.0015987431488907
-0.01325030736906469
0.0008091749439657812
-0.02712049062903835
-0.03465041201346317
0.001532852215701586
-0.01952337926353213
-0.02094546660372495
0.009423498205202574
-0.01564412241731908
-0.009555031709415773
0.03199548277562568
-0.003297147881243073
0.008297226561453385
0.02290283768132047
-0.01170645452704196
0.01800431033454358
-0.002090528896942741
0.00212269572091658
0.008367689664178359
0.01548361675108731
0.006529649442612545
0.0002368970537048144
0.01899942236822024
-0.0181283532171744
-0.03634126191778845
-0.01132316596069051
0.0144583791303529
-0.01570880752921062
0.019176343540254
0.0276169189636726
0.01130030852486553
-0.02332937923582219
-0.01353036902471107
-0.02227593364426141
-0.01260108751875917
0.01953169479995277
-0.03392746501962097
0.002466391161975886
0.02010000169835956
0.002938180853104057
0.01815564957668256
0.04281069758538883
0.03209189652702162
-0.007924717518989152
0.002894392252876873
-0.02887050121395
-0.05394247707177165
-0.005857693969773651
0.00160711690082593
0.02051594396992909
-0.02901553604951417
-0.003722725466285221
-0.02112792568696274
-0.01001391090935787
-0.02405592820432751
0.04684845539775121
0.01219247856700264
-0.03815237310162028
-0.01292785401687398
-0.001873141961191463
-0.02384088607914357
-0.07933858405138405
-0.0548478800353743
0.02770009472154835
0.04047217536516058
-0.03040792098151679
-0.0535973924097145
-0.06743834804561404
-0.05230652324335624
-0.02274443319561604
0.05309751104799409
0.117155656071218
0.06377431488641884
-0.01128743088573365
0.004352561765083487
-0.02430454984464153
0.01257387028464362
0.002658210279439429
-0.01870189053952293
-0.008860284280041713
0.03142270367274688
0.01095672780879653
0.01260991717701592
-0.03399617781723028
0.0441899023848016
0.03709523183637566
-0.08475103265306333
0.06256849497646776
-0.02427106840910832
0.04885807001170877
-0.06742767755049175
0.03954857469808315
-0.01459812620102839
-0.05103364196395892
-0.01803918443935291
0.004784229289492955
0.07263941439903859
0.01494378844748986
0.06667954043574759
0.005602707085010956
0.02700553871327094
0.020675508343734
-0.005023628758506369
0.05886707384693186
0.0511286738573315
0.0610584021706003
0.03448991085690318
-0.00952138237690265
-0.03812154767692658
-0.03399660904775834
-0.02185407013266277
0.0003986351878863432
-0.004396018427482125
0.03108885999457729
-0.01354187709891169
-0.1068967120616111
-0.09117287435532874
0.00816720487600198
-0.001873468097063086
-0.01504061485225199
-0.1183737186671101
-0.1635382392998848
0.00874297431205532
0.09578208617876459
0.1152368622622492
-0.009988108396096677
-0.02667840494996404
0.02347206658806507
0.01970137310934787
-0.003283634006524256
0.001104721280349263
-0.03397488064034494
-0.006787032088894021
0.04489699317365353
-0.007145901220430384
0.06448643327386389
0.03228953875119917
-0.1799503559773475
-0.1191505828341906
0.1757352495824061
-0.06448252523673416
-0.176214593101594
-0.0006353577675164264
-0.0374598383802982
-0.04005997585905167
-0.04833882561625947
0.1711956788091326
0.004436221892894672
0.0142839327020774
-0.04056905998722084
-0.007468330689957566
0.007265340286349517
0.01648685235694523
0.02937134629569058
-0.006237287167601324
0.00765565554685656
-0.0114313644931621
0.05881991878580948
0.0305352299442666
-0.03927647993604536
0.0667690158940589
-0.03169047908519328
-0.1340796510300767
0.007024074019090275
0.05452602017095923
-0.07554979551654331
-0.1942577965973425
-0.0783563010074944
-0.05874403823297658
-0.05552034939545513
-0.09519390504841314
-0.1364819652276501
0.004730947688759197
0.07250949181355179
0.01289357542575122
-0.0008990532544671931
-0.06051966484402897
-0.04012425112446718
-0.01051453794617125
-0.01638018483719705
0.05254064796264523
0.02004708813497705
0.0103854192833897
0.02306493178421708
-0.01529057622851426
-0.02940562432104892
0.125478142867479
-0.09274113096203092
-0.1184243554303948
-0.02709222242903068
-0.01927540031080655
0.1814514013443001
-0.1162155274212309
-0.04679351453396893
-0.02049051641813033
-0.02550174067970531
0.01584027286112021
0.08057527372152062
0.0009575396083791602
0.007034614768279869
0.05460692502361013
0.03915981332883086
0.006864506406846741
-0.05332985067394735
0.03335288682199469
0.005709849006038483
0.0228605556907313
0.0936920965747769
0.0424192558073555
0.02594479062453546
-0.008327674101782881
0.08224529020911096
0.05468655915815309
-0.05569061685920317
-0.02865438938588351
0.01010024847195668
-0.1569556047260759
-0.08064975920875585
0.01979293515206641
0.00330471154403744
-0.0529813146897786
-0.05758194611652658
-0.001281710859358998
0.02167154288457328
0.005156608686071679
0.05227643970233251
0.05244397488486316
-0.01717362571150195
0.03011537547976999
0.01767393808903668
-0.03116804808778697
-0.02170443534106795
-0.06866332486673297
-0.01290776284727159
0.01374068558453883
-0.1711383862081103
0.05707022976762265
-0.0298976930362545
0.01540385748981567
0.0004853190520169398
0.1358811965836575
0.1692975884612594
-0.08058184048760011
-0.09068943132370549
-0.005051902376637735
0.2431964117605017
-0.04572040398184558
-0.08874956997581508
-0.02520939732752408
0.04880399413493858
0.007386167930418887
0.0108451476987965
-0.007921451504041225
0.006059526452034493
0.001452555911288896
0.004031022624620214
-0.03173700345574827
0.05662466720805687
0.056481913285497
-0.04149592267868059
0.1106073338480677
0.03877445013654762
-0.1017882940607207
-0.05648997181434792
0.04018003377403608
-0.05052299902416083
-0.2113960408243775
-0.05144092817347198
0.02457283542875865
0.03295055973968188
-0.07302426014942494
-0.06772171893940165
-0.03490213673301872
-0.04012710141170258
-0.004549100361305197
0.01278872210247798
0.01174473825662261
-0.01753511907205663
-0.005377446627037171
0.02276580129198712
-0.01877421338279002
-0.03452464060216333
0.003661277525988669
-0.03913791968019464
-0.01404295404604429
-0.03338705534610902
-0.00427422281852934
-0.05650800569460723
-0.05472066665549392
-0.006934499030572621
0.04729979476233193
0.005087071030891691
0.01317369115090998
-0.1098070386526917
-0.02602952396605777
-0.08783983385944141
-0.0360805692235175
-0.005682281698136756
0.0663822331115223
0.02439428475642781
0.03225301616079536
0.001641526531497081
-0.009800371140731885
0.02074443522145388
0.006560537920405401
0.01711393365081059
0.008366510018612883
0.01354144678673967
0.02974468725404846
0.01208229345720039
-0.004641930379405028
0.05118863346725154
0.02324651671923063
-0.02786050190377972
-0.01665702291096224
0.004482390275065144
-0.04012889296643319
-0.06486225513882964
-0.01885745976978965
-0.02380511051315974
-0.01957305427706939
-0.01803615952821972
0.01479966476789484
-0.02208813505948094
0.001318344383357984
0.0275766518073025
-0.00118154932090923
-0.03552307032815053
0.01325026967386119
-0.0198713975115602
-0.05035874731004184
0.04163483004927854
0.009029118797357828
0.01446002176999149
-0.02891823240268967
0.0500613344991042
0.05847910890448408
-0.01686852018714217
0.03509353832628775
0.01693173568995593
-0.06010456736208156
-0.1604157266201089
0.02473922127034636
0.004688919709837995
0.03713521374895486
-0.07155947232291393
-0.08316402090638937
-0.1442819611889713
-0.006732125651485983
-0.008619541847694765
-0.03107296134790631
0.05469704891044126
-0.0119692412077394
-0.006399891861812806
-0.009387343179682315
0.1037317913149899
0.04233913284762742
-0.06401028919206692
-0.07569171375639486
-0.004870432204474855
-0.1244470233167177
-0.1399510282859085
-0.1494690357237788
0.07917849819871003
0.05133981377985098
-0.02972069106709953
-0.05727488406341268
-0.065590755147987
0.004000179525348164
-0.0014317204563711
-0.08697048129562902
0.02480116539704966
0.1428052249982078
0.09538785076568822
0.0588549069168671
-0.000118658190465997
0.03794110978959244
0.05973818936134295
0.01110281432889706
-0.0129795312763155
0.02539035663291855
0.01980680933333336
-0.01748102386866783
-0.0330891123816134
0.01705372742830794
0.00161981511660013
0.01084862379135357
0.0004534941439183676
0.02603563460958183
0.02400174592391876
0.01950745792122177
-0.01049312078137896
-0.04016944429460093
-0.0377285388779884
-0.02496088312160732
-0.1322843993535963
-0.179705952938278
0.00997264117803892
0.03182423859866768
0.02085335685060414
-0.01379128276565043
-7.037733982721897e-05
0.002215712993197198
-0.03344492782854799
0.04199025035784537
-0.01847554319621764
0.01173018698627899
0.01818562067522417
-0.06659350680659022
-0.002238360473944551
-0.01461195817176719
0.006529422719257377
0.01728657191616709
-0.01908136949562267
-0.01012158011983032
-0.006171231614166241
-0.01221275682898379
0.01378928479866649
0.05546990177733765
0.006106814983380376
-0.01578822415379745
0.004557718555116703
0.01166548111497951
0.01474132125304936
0.0226136705624551
0.008106612207928071
0.01554932991104682
0.01089731937262131
-0.006968067654390533
-0.02721934528183434
-0.001261627759205661
0.006301117350788225
0.03730384053507474
-0.02816631736760243
-0.003731971766684984
0.006737247345876251
-0.03545923692874323
0.01358072456918506
0.0375558485303021
0.008759826209278631
-0.0366206934240686
-0.03857300478947797
0.003154025704617545
0.01599324553224294
-0.01748164561707973
-0.01369421558824781
0.01240059137196111
-0.03313578315875872
0.002505214103169264
0.016592339165241
0.01387313773003545
-0.02105346712216971
0.002425430728480481
-0.01297918487154438
0.006411454689185185
-0.0174532578182004
0.02221379861246307
0.02276120933189444
-0.03119331371283628
-0.01850970480127942
0.05545596913116258
-0.0109270526385479
-0.09030591057296727
-0.01617835239938915
0.0361679058448675
-0.03458623979894041
-0.03723427171605868
-0.03379053613479656
0.007056222921774561
-0.01705883857212641
0.02936939761395471
0.06010585778148116
-0.02921460848812204
-0.04205218795349591
-0.01427924338087623
0.00598358705181022
0.005491809178778944
-0.01593617176895367
-0.003661651985417984
-0.00393799791182282
-0.02411921582521662
-0.01271088258501776
-0.0004901117064555069
0.001836218027443642
0.004421247971454471
-0.01914052849683619
0.01789010398435243
0.001348212382524314
0.004479513735511438
-0.02437864048273189
0.02438130950330732
-0.02285862930010587
0.022871103025674
-0.03827838346789778
-0.02039154687829217
0.0224511483276806
0.006926825653193561
-0.004039728129373728
-0.01891901038343747
-0.02342098107571319
-0.01131537600706549
0.0006963436321048479
0.009624455392234596
-0.01658448946431175
-0.002669426689765258
0.005317165498021605
0.02294456929101093
-0.03378409634346465
0.006413134254170001
-0.04761593136851946
0.06745488189330671
0.04000198487575445
-0.0936644267910214
-0.06758397541858577
0.04129287463497887
-0.04613573426543558
-0.06995316056901542
-0.07505883060000976
-0.0246780377027368
0.01402777998335491
-0.01969561363647911
0.0652037099361521
0.1177620389451226
0.01748640507987816
-0.01119953709046801
-0.008651438509177128
0.01002773723493664
0.0113811195707598
0.002350895445915084
0.03976758349117045
-0.01617722167892707
0.02955258178287983
-0.03329055901886355
-0.008574604071842018
-0.02335535834750686
-0.01435365893716903
0.05525713670763131
-0.04259855572062435
0.01119500274773588
0.06452748927918542
0.002954372451107928
-0.01706883086141296
0.0938032459610698
0.01946103179166389
-0.02107253267192847
-0.01250176132125554
-0.02443601010650677
-0.1210151408222982
0.1089111328381234
-0.09578227408278606
-0.004320044213201758
-0.028987707462242
0.006905798084638693
0.02772483525217753
-0.002842290707029756
-0.02591231777431049
0.01828176228303397
0.03103301279442106
0.02520224431241463
-0.005629852834491952
0.09112842073195448
0.0221093183928544
-0.02768244607971751
-0.04785583056158504
0.003286673414850382
0.06965326070584547
-0.1008451728813163
-0.03309386541072932
-0.02256205444017271
0.001847665485200161
0.02900697614101515
-0.02058270207805472
-0.02387290517400958
0.01363923248112951
0.002462773288613425
-0.02449155017617896
-0.01710987023984232
0.009506834490284246
-0.003607472003345119
-0.001334222426398009
-0.002640769502907362
-0.00266670423360374
-0.008561473139690712
0.01507033203045679
0.002617804949937288
-0.01815020885015692
-0.02597111829283849
-0.02698899295296505
-0.02178046615147187
0.02244616217533139
-0.002045289022322341
0.1134119169397775
-0.02249407500032075
-0.02875796097230074
-0.02167508864131262
-0.002925992669211429
-0.01784029481866226
-0.03352875741259938
-0.02079434724205642
-0.01098132411857176
0.00560666826254904
0.02105808590502057
0.006682379048033628
0.0409916726600229
-0.01972922038544259
0.01621916174920236
-0.02209143185947574
0.05065561074912295
0.01174359991281176
0.01558745800657486
-0.01427665093223502
0.009076227523717886
0.004895261216521508
0.04613403957345039
0.0481504510866278
0.00152950049747308
0.02699343558029376
0.06017305646997066
-0.00721935808971164
-0.01901569030419882
0.02075025043786957
-0.03634782271936534
-0.1027475157082817
0.02286009578241328
0.03141353912388741
-0.01285361470479303
0.01243078340938369
0.01724743108742779
-0.001425416468740982
0.01345498581742193
-0.02053302604058127
-0.01508389371136452
0.00395719647697626
0.004944136897377847
0.008972601660365573
0.02284566691956667
0.002891616602846692
-0.02477514147068904
-0.00146715960077818
-0.0003846996514150153
0.001205823914317191
-0.001413089425541257
-0.003735006858890156
-0.02640203839082386
-0.003844500202824235
-0.01333239586323755
0.02495378273680158
-0.02181911498368088
0.0163826981712879
-0.00347876299146588
0.05982905842503455
0.004056377649126675
0.01759686366924777
-0.01129884477115259
-0.01256842531049001
0.009562317083037229
-0.008322524461783359
-0.01999380001664122
-0.005019743551799532
-0.01780636347497359
-0.02011087641094061
0.01500687488253606
-0.01797802912693222
0.003872067997154985
-0.01339090916002164
-0.02120660375955648
3.579172181465388e-05
0.01346293203308755
-0.02508786541958922
-0.0112859974427168
-0.002342895175677128
0.01383662274859488
0.02690622936864802
0.03035181766455852
0.02205182206698631
-0.02415244112718822
0.003208404029469502
0.02542236722138187
0.02685720500086446
0.04469256730554128
-0.01236493348608568
-0.009882028655461608
-0.007761696969192051
0.04219672208422171
0.04760418882549842
0.03627146349547293
0.07684469867608437
-0.0102199549075289
-0.03434630537939942
-0.03402150790878899
-0.02394232040966514
-0.01649171556451194
-0.1089944699755444
-0.02784114827758376
-0.002029493782636861
-0.01158265220322179
-0.0816210185244708
-0.07139473446883624
-0.00953818023653635
0.004177414570764929
0.002267944250483799
0.01502123170497873
-0.01955207112319038
-0.03986664456327987
-0.007608976513346961
-0.01889516080416538
0.001827369041675984
0.1138690198416658
-0.01948014126476893
-0.06419566033343201
-0.009153064606017464
0.005536829558709929
0.1363268609130509
-0.02639547561057435
-0.005439127139803727
0.008019349861832906
-0.005789492333011197
0.01955637166562921
-0.03716997155123943
0.04307469305917275
0.01152793650824288
-0.05072650426962961
-0.0370078090784935
0.01308443462882911
0.03242171305971089
-0.01431462707282532
0.02456587820347929
-0.0002078682908143742
-0.05353610045989016
-0.009796056231717568
-0.0129759858935984
0.02143522389694498
0.05548341521621603
0.06711548905580601
0.01983613032076614
-0.01766519996820355
-0.0129368608328043
-0.06631064304982875
0.03260059950691521
0.03744311472919566
0.008020193459447945
0.001470357657848265
0.0143185215450774
-0.0004492001338887383
-0.008565476779754066
0.03703683194896853
0.007318013224391301
0.04857746688147844
0.03692275014627443
0.04349505281270351
-0.03112645043260164
-0.00862418866783107
0.03081595420559538
0.02187279112408227
0.02186554231544267
0.01504852029815122
0.002146900284431844
0.01156089757943078
0.01645713610079586
0.07133539848172923
0.04348775243887869
0.07017990775693878
0.154785328939004
-0.1002133076438398
-0.09813846737379836
-0.05736433518136169
-0.01807878297366036
-0.02298042180523251
-0.09492825861732376
-0.08635523874867213
-0.00486986588533581
-0.0918884471906123
-0.113390380306831
-0.05770780272993664
0.0314755250074079
0.014845043256727
0.01252887037854101
0.06914589771725368
0.04246098500108069
0.0201761322097515
0.0107271344968433
0.02541159659643301
-0.04977567810408008
0.06601124761618402
0.07478564143324537
0.01929735935832446
0.07045227058739162
0.03161723044063705
-0.06062821816721151
-0.005435876278033549
-0.04547373469420341
-0.0378587091607556
-0.02045429924461614
-0.085954786999293
-0.02520783291450351
0.04673421610161875
-0.01865439609279122
-0.02167759818835424
-0.004886890967074298
-0.01066094639518649
-0.01882643286727735
0.03131280690338192
0.07587336408332382
-0.03051991659056123
-0.02891616883529251
-0.02590359911783501
0.01407197769722398
0.08628879523439004
-0.03423435505215813
0.01405240218345593
0.06365080155351333
0.05552262440583769
-0.002974565077299326
-0.01685445824873468
0.06934881762385346
0.03486588674034227
-0.08410878806547631
-0.03859088559358054
0.0131103456057102
0.05161520017528686
-0.009287766686852791
-0.03059810897881867
-0.05489980909952843
-0.0003977051297529402
-0.0185743938608729
-0.002586477578284253
-0.02482185003658094
-0.01212427004625764
-0.004175151624893229
0.01835529515423809
0.004815004304723766
0.02180574914246077
0.0155374582780614
0.007779783149648734
0.004276652449258849
-0.01324155383855769
-0.04630858476885397
-0.0304907432203143
-0.004398739584659987
0.03752005766994324
0.008511764611352602
0.007050373421467269
0.002112913925022807
-0.01483910380312545
0.03163367389664551
-0.02090502912800541
-0.0005786676216739908
0.01355005244184776
0.01467417687600106
-0.02477490144722324
-0.005462690295695678
-0.04477675571930147
0.02608113131463682
-0.06170037848917475
-0.001599720409692736
0.01248779395516975
0.03261802693176151
0.00900662985496491
-0.09693222328679679
-0.004182329811437803
0.006175041999565343
0.03498510959027389
-0.07305440727398338
0.008834755983751981
0.005750109720877208
0.02678852437873249
-0.05190410222370732
-0.08231373975506802
0.03831118202288123
0.05930720443026052
0.01043119987301466
-0.04737232469167423
-0.001991944517110483
0.1056601826298138
0.009823859970204959
0.02039745323032144
-0.01052046402004189
-0.01597860133747298
0.01118393999492267
0.001154710024934359
-0.01054939966987814
0.01821552762514056
-0.02484339056358288
-0.006122777178449312
0.0299048649917232
0.01825913584436754
0.01495222425451911
0.02191027271879423
0.02751517569420086
0.02459314217012593
0.01297307220720728
0.06774568419777827
0.05608838931589766
-0.02416086134963258
-0.03903646883320491
-0.030354676652184
-0.05859406858023693
-0.04910567374902654
-0.07089266633164194
-0.04083698954254006
0.01131271304136604
0.02590560225358584
0.00863959190354051
-0.00651157620689269
-0.006194556913082365
0.02417501676834113
0.01320708614340219
0.009401008584725487
0.06580087844624338
-0.01715265578270047
-0.003777704111528691
0.01386103096067759
0.003367509336273441
0.1150183534446002
0.01673001373391745
-0.05400584840115754
-0.01295611452921859
0.0251922777141675
0.01738562019623664
-0.01344645777694098
-0.01718812438423903
0.003983553630870921
-4.914634356808049e-05
-0.01136692980796523
-0.01852454908598306
0.01610520965991601
0.01568167479034174
-0.007605661147176355
-0.002779882261610758
0.03427322363469261
0.001321183485412478
-0.01009872422519938
0.01686585138925087
-0.01576299832184851
-0.0254040955284073
0.02515208815587328
0.01388854567441935
0.005163496677707953
-0.005221794371817422
0.008595129637907484
0.01715520836451732
0.02049098108481526
-0.0009338945654797875
0.005312690983745951
0.01905068876327452
-0.0144333325840713
-0.0003893892593236892
0.01768355600929447
-0.0002942936747663121
-0.01647711347769149
-0.000251567294313519
-0.02480088493142759
-0.03020637523536028
-0.02250144110070782
-0.006815619833111513
0.008350204071560672
0.02916874752645781
0.01547717734143478
0.04455549440828532
0.004834224081922801
0.01036552771369145
-0.02607207785810056
0.008994086665624896
0.069397082121958
-0.03123438968277695
-0.002142825720834057
0.04125520501854593
0.01590285802722207
-0.02319660795364962
-0.05042742707026762
-0.04864745777334691
-0.01174410737621397
-0.01490963680667122
0.0002705000393344417
0.01266028750807937
0.02489443590681668
0.05313637903719207
-0.03644790917582474
0.0001883753333430912
0.007874596381950028
0.01824336535126712
0.01069695237784876
0.01132828014264168
0.06234289107752109
0.04861135977588469
0.05312197994250072
0.02493184367110292
-0.1226975085934583
-0.04721142349478783
0.02846501307307998
-0.005270836757639921
-0.05509223381967329
-0.03369087306343852
0.001790418628466578
0.02417503379730312
-0.002501456605275466
-0.0004825650658754076
0.0383525042708063
0.07184173290389749
-0.003241064790487305
-0.02587865085623202
0.01431347823616237
-0.003058740923619614
0.02212809823661712
-0.02281112194369371
-0.02103562476230068
-0.01914300238693492
0.05311640727012856
0.04601179815682047
0.0006943413479047514
-0.008550310295373733
0.01773940172593804
-0.02307375132963299
-0.007079429974640789
0.02613136758082433
-8.227523042263222e-05
-0.003433804587989779
-0.04294340052792439
0.006123842439622806
0.02264468865846149
0.01563825188169437
-0.008038343474641902
0.03218317536907042
0.03592884425706235
-0.01295641653681358
-0.007916555744252112
-0.007959756091683609
0.008525813132368462
-0.02738899605754791
-0.02705678752786125
-0.008112531106293524
0.005866549182737426
0.01647055204146142
-0.01479118284105581
-0.0150169876279882
-0.001171907217954411
-0.001209571911623436
0.02050173088804162
0.01670386649886421
-0.03474639477910789
0.01843949281710039
0.01791215032414368
-0.01823722328942605
-0.002491664532098118
0.01315399808603193
-0.01447131250779267
0.01500065690263651
0.02418850284402063
0.01105663135871097
-0.006324515255461185
0.01958028253845641
-0.0001027661970561742
0.01428449181059408
0.03226303539318284
-0.01963704728133493
-0.0250981350948289
-0.01081993274711915
0.002054291464957653
0.002449709847152217
-0.0117487819181798
0.0108820895936787
-0.008238972784577176
0.03742616044491059
-0.0139089377336268
-0.01774520209078153
-0.01245858157033974
0.01893938579685938
0.0171398845204365
-0.03220772655537686
-0.02484602202272829
0.03028149646188213
0.01513472121332902
-0.02870271783932815
-0.01904320589624807
-0.0007660240106390304
-0.01356671517257509
0.006530778252992022
-0.01247754327916694
-0.004820734979598155
-0.008627776200010671
0.00299035660328459
-0.02609564670935549
-0.01252935039579102
-0.00736160516490896
0.04188163135638346
0.02590655059255675
0.03492666680241054
-0.02759601086283589
-0.02831686184813018
-0.01044285997183244
0.009625037718134187
0.02848938594772041
-0.02883283213757924
0.002622696309405285
-0.0006613291563838282
0.003484663078105245
-0.01029042895821006
-0.03074736642284686
-0.004187113890286036
0.02481394077499967
-0.02300754956328883
-0.007882172952864237
0.02153059569217732
-0.0117752605423463
0.005474092671179129
-0.01701030504687679
-0.004312348809367271
-0.02174872104756336
-0.01792119757374353
0.000576231805498665
-0.01595633021626248
0.008570344474170511
0.005271838313720676
0.01902081912410694
0.02061936383494689
-0.006325449645749319
0.00432161625044403
0.003519519836716375
0.006809689086341175
0.009377990767753374
0.002787628510702326
-0.01322706998493713
0.002519215966678262
0.01234046261103752
0.01514013651312558
0.02535592772245126
0.01395077124478429
0.02861328797317852
0.0271479529907436
0.03168568806635847
0.005580056272751759
0.03013943294830861
-0.004254596960191501
0.008752143704547615
0.03313430266292684
0.03150724850113672
0.01784324380406931
0.04254625377840681
0.04124874099295509
0.01777198961796363
-0.01556237614715506
-0.006305702426416236
0.04235551697080758
0.01383598338245681
-0.0007801595142971938
-0.00454015464384649
-0.05621073927806436
-0.03491613493695548
-0.05975408097774239
-0.01016610010990508
0.01833089142862936
-0.01088147542770902
-0.03368265618216781
-0.01738479151950638
0.01780876244308533
0.01369154205905316
0.001352841667670427
-0.005174055547498358
0.1085702427174376
-0.04406177725897437
-0.06255171612993912
-0.01711631692574487
0.09211489983535991
0.04803007757694276
-0.1350811107318775
-0.07966673734779002
0.05112265613500946
0.04874554843419791
-0.1025463674113177
-0.1164496747190531
-0.03046664063587245
-0.003403986761131831
-0.02886487415269107
-0.05809743490545332
-0.03085823208341293
0.005131381220930345
0.008558117564861634
-0.02343454808356076
0.004459034064625665
0.01767811410366201
0.01560015601899063
0.01351845047694302
0.006456661534959377
0.01940825706334655
0.02272115721056258
-0.01884593459098362
-0.004198284502307598
-0.01771205994169647
0.04590297839334217
0.02136547717517042
0.01493496476823423
-0.01815716108285347
0.02069033888741189
0.002397709671625928
0.01213070063336402
0.01379772183493981
-0.01911766820935757
-0.0111594102644345
0.001359292547800426
0.006256410959386846
-0.02354315895939957
-0.009347504028772737
0.04980072247619827
-0.01224693101016902
-0.007499525817560293
0.02051292020423835
0.005700924136379858
-0.01152647855521761
-0.0285383997857016
-0.01466534607638361
-0.004627657090118365
0.01049624886153054
-0.0003645804113588539
-0.005746131721561423
0.0003610815172497088
-0.002446022562459169
-0.01798523746702795
-0.01147637831915521
-0.001234825909703329
0.01283122445016725
-0.005110018899093012
-0.0221569993795589
0.002793025391763001
0.01049329126940443
0.0006758001360252284
-0.01571268353552152
0.01668763053066952
0.01548018092058699
0.02448571957694455
-0.01795784527448719
-0.01722881279083839
0.01210025014621116
-0.003405137111145636
0.01476117990617463
-0.023466344005511
0.02025661600398793
0.006739669862329803
0.03579112350248925
-0.05008680084607069
-0.02737333207388844
0.01093615696902935
-0.009415950076708108
0.0008182948267898013
-0.03685451311989343
0.009945692990473825
0.02922712586575876
-0.004288316296036699
0.009531766892599641
0.01908338453100999
0.01412559790694153
-0.002531484712575402
-0.01864646230039562
0.008642936677884173
-0.01341193206000896
-0.01512661945454632
0.0144142984331242
-0.007631374237784013
-0.02690286305561736
0.01819570971907424
-0.02088191738613033
-0.00783498874898865
-0.005787666752446059
0.01494677524882215
0.01724727046212744
0.02311639829904577
-0.01984493058000655
0.007351797051365305
-0.00544133908990824
-0.02221760808441071
0.005396499373143001
-0.02436262483775161
0.02514406446616903
0.01115377982552979
0.01812232586863406
-0.008015520392408191
0.01129815343759796
0.02495906379361634
0.02097487965719669
0.0005505143414088075
-0.006891720732754012
-0.02722972438173409
0.01733865339874892
0.01609196799493157
0.02583038070410261
-0.01459643931186578
0.008440437936363608
0.008638083037881852
-0.01612596759195943
0.01696880190725757
-0.001126501431873443
-0.00528581769506741
-0.01953041562080654
0.008038839699752109
-0.01644611389457418
0.01124267818097101
0.01409287382416025
-0.01084032152710353
-0.002804527563732472
-0.006121804429865603
-0.00267978432561941
0.0185533540470597
-0.01638155837872718
-0.02437158528454254
0.005782142359420269
-0.0008457075827692427
-0.001626804331639319
-0.0104218775396078
0.01811028420471125
0.0290597416964064
-0.0187992020003748
-0.006091056027536793
0.009799990528902697
0.01684935481245076
0.05568376176743164
0.02364996911366553
-0.04041726532734614
0.008205590417602977
-0.01454909275413897
-0.001837996697211921
0.02370356222092841
0.02300883182097518
0.004253072120068571
-0.02838343162826298
-0.05190335115972317
-0.08240480569891118
-0.04118920384182801
-0.03146695212014952
-0.007399972063951367
0.007160274445048751
0.0668026442299099
0.03095102755486053
-0.01773442482552672
0.01895205916503339
-0.06922872806832051
-0.02552085852751998
0.002721651788932812
-0.02018305956757161
0.03421932078983357
-0.02116881818057906
0.006712966243341984
0.01283153768856838
0.02581855992586005
-0.04339988803914696
-0.03357080917859217
-0.002942580267520991
0.05982267461751275
0.01441472643257065
-0.0186492436668281
-0.04633975998554993
0.03644733491972835
-0.03026669253140024
0.009283082338656037
-0.04545808469696107
-0.0008356265391608793
0.0591040521761911
0.02038641760254941
-0.06670626004885714
-0.02520948682969135
0.0004198434898619801
-0.05088944854651457
0.05830799138065657
0.05559196446207867
-0.03056136851971688
-0.08694882603218437
-0.0661141554573048
-0.06157817978622768
0.01694605223374593
0.01067757536391127
0.0213568499187108
-0.02076961841449394
-0.03401478883246374
-0.02822653688674341
0.04416874796624554
0.07832141219124765
-0.03006589465581921
-0.06480594183910603
-0.04429869405427873
-0.02231876881876498
-0.02176821302251388
0.02283707025263424
0.001699736586613844
-0.03671333089252315
-0.008780842763957054
0.05690556494436264
0.001547326882534524
0.003520271758392454
-0.06475850282443764
-0.0111958261504304
-0.02024173623804833
0.02510659363033328
0.02701889709635309
-0.0162640780385653
0.006624292310536815
0.009026634506706934
-0.02678387701670563
0.01123642352364757
0.02284969398842098
-0.05156485308228215
-0.1058276925353167
-0.1341094810732641
-0.05171568157638866
-0.04960369048363143
0.004337950619900042
0.02418650400140285
0.005783815184232723
0.007816370499229654
-0.009314617720008697
-0.02325600139201567
-0.0006749577372469472
0.01303414769410017
-0.005793860210458072
-0.004298924681376094
-0.02979785467966606
-0.006865227685421413
0.02971214338694362
-0.06450695870703557
-0.002644970123024976
-0.01875894280792141
0.06984295440277719
-0.01041855092903766
-0.02442816886883857
-0.01402866975935967
-0.02885191920873573
-0.05514976643986146
-0.06805699078888719
-0.08290502850684724
-0.02899045562716505
-0.02513014240102832
-0.07562084373022222
-0.05444204616985142
-0.02392937288322512
-0.02465105938955314
-0.001131906366605409
-0.03878509753767753
-0.02090512448287329
0.06070522760653951
0.01912795973878528
-0.006339805342414429
0.0001537545908822589
0.03772766612672948
0.08313437863937241
0.003747273851720393
-0.02672829102125441
-0.03568031139420819
0.05468345761954775
0.04301746494973754
0.001263934944290891
0.01615432616030284
-0.001555831784099363
0.01906569467861044
0.004679408011305318
-0.01076598727138979
0.02127949114777755
0.04275015732459944
0.0288193149703821
-0.01636365738356023
0.01186976344752596
-0.03828616617168633
-0.02063248340931575
-0.0544409646976947
-0.002228617295973196
-0.02953036031133248
-0.02893405446493508
-0.01442913059384725
-0.03828404880631963
0.003993335781820667
-0.02837528280693458
-0.00995038806282717
0.03048447863403425
0.008855748738260972
-0.03221177761804123
-0.02234799194048237
0.02454997030846415
0.05167504997897548
-0.003917649846651943
-0.01490366833391726
-0.0008206650288099629
-0.02578500327920758
0.02575754849807234
-0.0623632695175307
-0.08252987912096091
-0.01868874886644717
0.002009357320607972
-0.02977439977003251
-0.06907330281808492
-0.06763691066528056
-0.03061192628863833
-0.05281828678093743
0.03588025890761136
0.0196246186664452
0.04837823687397968
0.03024018165068108
-0.02063903619559951
-0.08832946664099325
0.01493917493932209
0.0566621328857685
0.01189090737239838
-0.0286738761721849
0.03916065036666272
0.1263776599998944
0.04899759618426769
-0.002606053860570287
-0.02323922086378125
0.01627626501068793
-0.01803177331327936
-0.007958278671011234
-0.02119715830432768
-0.04251609235210066
-0.02802129322001378
0.01755713671091562
0.01712218769651495
-0.03693956496309196
-0.005365912940342871
-0.0167609354514082
0.02434497452736602
-0.0006027775687108325
-0.02713592190947366
-0.008448947068804093
0.03592840842709134
0.05376372670275679
-0.05302646080791014
-0.02436763104952282
-0.04404640526717697
-0.03300017834990401
-0.02553841365002864
-0.03021566899744577
-0.03916904389950141
0.01847816331848388
0.01384257864118441
0.007486218573325434
0.005000044562376538
-0.02859506447486836
0.00339925053391422
0.01998580246593741
-0.03074878949031352
-0.01369256172456418
0.01858905042982018
-0.02193368986990464
-0.0100116907739512
-0.03820029930756634
-0.02882739177678042
0.02973184669538312
-0.007522593160285225
-0.001010805149376184
-0.01275957047995883
0.04478633783652945
0.002757715642198926
0.01275237285128693
0.005185099257387695
-0.05009838260742649
1.249802132312561e-05
-0.003975037544266708
-0.0001520593507875007
0.02132249859093722
-0.01631433023408575
0.01809954276173986
0.01600358880878387
-0.02898485578590196
0.003477394454376175
0.004037330435091524
-0.02551996253980383
0.006316320238771133
-0.02520630193045804
-0.02222743373325476
-0.001942712738456957
-0.01108696097313949
-0.0127356432514676
0.0182116540438171
0.001276951394281241
0.03394635444940517
0.02335400491077909
-0.005798268423908413
-0.01366339369089957
-0.004005631324657498
0.02479920311174901
0.00671648303226412
-0.01752417937981517
0.009118745209920277
0.03693306492743298
-0.01603906486370973
-0.06277100131789592
-0.009961429538440193
-0.006611060839127783
0.01268037753383533
-0.02826273994320031
-0.01435697326900002
-0.02818577719329024
-0.00167443816600156
-0.01027867690361657
0.001492484440051183
0.0124921100762997
0.005077638127035514
0.03235110017633122
0.03849028343972938
-0.03341030557408695
0.00501356462392572
0.02413572159505589
0.03255790020327976
0.03535540315055424
0.02483987407464204
0.01757385074417358
-0.01836481366084311
-0.07454055871498587
-0.02069984322262277
0.0821467866520679
0.02521219418028968
-0.04301305319893272
0.068776078769464
0.026795831466584
0.03226787349933058
-0.001222990744800784
-0.04164717375793172
-0.09473704432388436
-0.03528755899588465
0.009328960858194815
-0.04269710771420398
-0.01633950680276791
-0.08556491313123442
-0.0589291699120351
0.01891100787304371
-0.0349369978044339
-0.03213517614821616
0.04072150551718184
0.04204539377833519
-0.06929211841789726
-0.101974924774784
-0.06141045089851796
-0.0266996458166672
-0.005345681047084759
0.01207275304422478
-0.0101850369709489
-0.01496811801155576
0.0516257632006358
0.009654145356691388
0.05089191771888173
0.01411228750425064
0.0160727159261425
-0.03602853488869929
-0.01254067329058764
-0.009070142146062235
-0.04552823923709985
0.01490961523160953
0.0190675465261453
0.005795374161545339
-0.02840753509989545
-0.01447478053687836
-0.02115593772621977
0.05488470702475159
0.03074285047207236
-0.02586138114960031
-0.03607837318026558
-0.01540447940177616
-0.02843651027793671
-0.04640396810376834
0.02572129079715145
0.01906637249289809
-0.00051473466143656
0.01271400123163688
-0.009295294218604967
0.004412243274459438
0.01579221385520298
0.01037580905897818
-0.009942381783712975
-0.01394874632986179
-0.001861762177066731
-0.01999918855757715
0.01939841865828522
0.005616630390701531
-0.005679735872706244
-0.03264711798101292
-0.03068335804063183
-0.004215617646558901
-0.01659574419981847
-0.01966529865844474
-0.004267337396711463
-0.01321304036939594
0.003511117096321047
0.01285115060087673
-0.02115817343340456
-0.0158276835670775
-0.02521981000454776
0.01146447875231096
0.001203929315090052
-0.008671480927735278
0.01815095227120272
-0.00613015096996317
-0.0009719942225357375
-0.00630399147928321
-0.006995587631996411
-0.02095834662744451
-0.01412775621337692
0.01104459528506522
0.0119722853190611
-0.002191297290223442
0.03361679105614775
-0.02033683275617033
0.007417228123505729
0.01131535373200892
0.01709840678175455
-0.003418277647060729
0.02785578189747195
-0.02905959999670574
-0.001638688078602618
-0.01447832060865463
-0.01585595422655848
0.01446066752623086
-0.006301146657647854
-0.01006405870171437
0.01475633795615937
-0.00126919523966712
-0.02390070780692917
0.007597977288522116
-0.003111015364485756
0.03236695489283258
0.03446418573220176
0.01542675101576757
-0.01614442747513351
-0.01054064500796601
0.02500130081672822
0.01055428019301349
5.987796851799139e-05
0.01388858859595892
-0.02774047520236696
-0.0434089758114751
-0.02010320244270899
-0.02027070101861849
-0.004600230884491562
0.02249263673855579
0.02456756632225373
-0.01048837891224262
0.02249003955350103
0.01935733552381853
-0.006921324609332495
-0.009019476860596582
0.02358391460041075
0.0007084321753584379
-0.01670494537683621
-0.009398228298833074
-0.009000303462843199
0.01245486667777515
0.01507695080469269
0.004660372331663554
-0.002706401693486701
-0.02333742544763624
-0.01290163573520576
-0.006286526736012415
-0.02037437919866909
7.791219280996107e-05
0.005629577499087683
0.001668799234712293
-0.01529186642637274
-0.01211246391462789
-0.02402892107753596
-0.02677785014759737
-0.006416767299014384
0.006607023571331297
0.01003910152402612
-0.01452327106029275
-0.01293779462827687
0.02490680885968357
0.007281174397441796
-0.001414038505941359
-0.002762286017278426
0.03857664486897799
0.05376560747892473
0.003012153249316073
-0.02211565655985763
-0.01251744726413381
0.04202820604682397
0.0174552013282356
0.02425081505014384
0.01319190050054624
-0.01255504674265506
-0.05416299129316063
-0.04980432920153038
-0.0389033552345654
-0.0008039317504906912
0.03382639448700502
0.04561805815849045
-0.04584651165819136
-0.04658692257652128
-0.009386956503068034
-0.005505413656919894
-0.005080133868327871
0.00024894819402472
0.01654831764839821
-0.04494530740273976
-0.00506932106810486
-0.05267720770227802
0.05208242616142256
0.0738093138904197
-0.009023627540160018
-0.00461435406395947
-0.07364787988451875
-0.05417770857517889
0.02400682256187775
0.05691170144300105
-0.008086974639590388
-0.02639020245494731
0.001439051759368511
-0.01533357089180994
-0.04696206881586008
-0.009754469825688526
-0.02741139432733833
-0.05169140043677129
0.003840290823450735
0.01432112716253578
0.01552953307675553
0.009932086268174909
-0.03146137781519708
-0.02150673247093378
-0.01339812141982769
-0.01820653566176529
-0.03291490688076191
0.02881927975019806
0.003142641953670997
0.0010430255331844
-0.004370715346149428
0.04900817829465572
0.006404396481336081
-0.01772817521467526
0.005016044796527874
0.04157747307180145
0.004665789301559112
0.001979518778042377
-0.01685711030438279
-0.02238112036220393
-0.001424617403447152
-0.02403545539880592
-0.01921680487352372
0.02650370523740718
0.006797608376766091
0.02772295616291362
0.03625554019779472
0.01752915380822427
-0.01597840063195066
0.0130900002536716
-0.03280356001636259
-0.02741039457104591
0.008478422937822288
0.007759132988346685
-0.01757560657536643
-0.03464910168609359
-0.008205454509652975
-0.02396698448574548
0.00273379330687622
-0.01970191047663464
-0.009582790109661515
0.002618301871317421
0.04074877240619253
0.01087954764225273
-0.004806146501411934
0.0100107647740765
-0.003461687947080676
-0.02941382983850795
-0.03123836265491728
0.001155924556825301
-0.01447804551416468
0.0394664012961712
0.002417247988219066
0.008900027314077654
0.00849378711262838
-0.02877501778585869
-0.03761485587118762
-0.01646156359834034
0.002942071850584043
-0.002391437733243011
0.0001436240318316282
-0.02816525277321502
0.009366479224831709
0.00932439275566575
0.001259629594396831
0.006217627092019507
0.002155091447927357
0.008513735428696661
-0.001761638922298488
-0.01892981030529682
-0.008623907687178103
0.002757350946597099
0.01535707283637251
-0.009651056180839441
-0.002732228300827352
-0.007558544763363537
0.01773851745531164
0.0138139863787307
-0.001233722334122331
-0.01616337520830592
0.01592768890903463
0.01133862973218006
0.01410062973630426
-0.01580176186952194
-0.01334613007363199
0.002676006258673384
-0.006697530990013366
0.000462674288489
-0.02102773072151843
-0.01793011545436223
0.0211061725900758
-0.001567196100759353
-0.006578603448145032
-0.00155252399810178
-0.004073181863170726
0.016943516587811
-0.01853316166112492
0.001980797760467478
-0.03072734298070205
0.01632852955374708
-0.0126449769794081
-0.007915039420892051
-0.03183122261531816
-0.006484180323195205
0.004998599875374276
-0.006053016925539272
0.005600703991955338
-0.006372896021175661
-0.01197182313654045
-0.01254649568374119
0.003244105633769587
-0.02200867294791611
0.02580675745439062
-0.007291932903921671
-0.009151275720196576
-0.0168790409527261
0.01621218357490947
0.0005914396110119458
0.006541306322743939
0.02064996237906698
0.02009870610711817
-0.06150465715309252
-0.06791542296270187
-0.09943168921746734
-0.03227894783666895
-0.004320267582293127
-0.1068862169696307
-0.08164450359384802
0.02624532845283285
-0.0552498711135674
-0.02115007777792901
-0.05647241122333362
-0.06498428582000811
-0.04259752813871456
-0.06159934690970742
-0.02480958995808603
-0.09006189191149824
0.07537593286039643
-0.1007456981927663
-0.01786184586398596
-0.03026382188676882
0.008041749832875722
-0.02086799936890499
-0.1063701681516858
-0.05229117384326997
-0.03207637880725887
-0.04696611147872666
-0.1319412085238073
-0.001511814358276876
-0.02013200704458942
-0.03217254594019939
-0.008110473695584264
-0.1047137642811186
0.1836441996342735
-0.01181589198239937
-0.07068552037027169
-0.01788537486506597
-0.1271563436528821
0.02679266090039151
-0.1501261298705202
-0.03195344666066872
-0.06406876562605668
0.04842570945424084
-0.109541466120959
-0.09993948595937854
-0.03243773576780831
-0.002227981868242257
0.04818180645559382
-0.03527620695562574
-0.09348785260436636
-0.001446393381645104
-0.06245084237464373
-0.1070281151201774
-0.1273451720343993
-0.09600073306334224
-0.04507977181945699
-0.02718898882088668
0.008736401014819392
-0.1008143133058662
0.09043321067748439
-0.1197348306462906
-0.01954689622961246
0.0035194589957157
-0.1753209269022818
0.03584605333324883
-0.1185598010178029
-0.02288520258313164
-0.08587797614267043
-0.02483252667127726
-0.08212343739296751
-0.1091816733934711
-0.06458011091927794
-0.04565347038157201
-0.04754466671466304
0.004875351162688072
-0.06276032147065443
-0.01274034796100686
-0.05204333003071588
-0.1831761098855823
-0.1179783664404975
-0.007291011331441982
-0.05306667246472598
-0.1143311342985199
-0.09361576398061204
-0.001098301904486694
-0.137349366982787
-0.01731958967132027
-0.11731940758732
-0.0850328126553385
0.01216588971822353
-0.1457171939391701
-0.0715211123834654
-0.160085766077766
0.03940273872507169
-0.2044575490146171
-0.1000067279070483
-0.05994988847625127
0.07510269025840072
-0.09365815282005782
-0.2113986131978789
-0.07396056852720648
-0.01428307099819421
-0.09175539039700592
-0.203328535545066
-0.0414003276940886
0.001515417755352679
-0.03415180932600251
-0.09885957502432242
-0.1626647252310269
0.03102030794628572
-0.1616718286222383
-0.05557857610556638
-0.06838371128943588
-0.08979422019366672
0.05802185391403191
-0.1348205958440964
-0.08674989559364223
-0.0647527348303945
-0.03214201192155781
-0.06169401263780122
-0.1202285876938728
-0.05084418918855281
-0.08404135692540103
-0.149622997674227
-0.1193621711349735
-0.07119332446329256
-0.01494420613875
-0.09439444998644057
0.08536847717466003
0.1382725698156797
-0.008520576020653137
-0.04801826425394769
-0.1563454355489523
0.1656767517785081
-0.08185752276880824
-0.02736468804564171
-0.03191399482492607
-0.05823463701348693
-0.08097102435613414
-0.03895133876342204
-0.01603365708101364
-0.0722072613754413
0.1253848465550262
0.01240385419813966
-0.07114728873670316
-0.004689069483903305
-0.0327337347878603
-0.006821661671728457
-0.06508860117104394
-0.06875215745250128
-0.02641248455587731
0.005663842508051359
-0.05122448432696405
-0.0120808267392751
-0.02007129996448545
-0.02525645996037705
-0.02741311299105936
-0.01977032459222052
-0.01056070629846126
-0.02731652569668516
-0.01355991924626582
0.001048922193571761
0.004483059490274316
0.003926828307023835
-0.003771093837563261
-0.00813008675638569
0.003524660562325604
-0.07960604415978904
-0.01955684909224469
0.003350953906703883
0.01555088063569312
0.000422742204828688
0.01803433860662636
0.01625389892057817
0.005189281788155996
-0.02600229302838619
-0.1067847666763459
-0.07359884181374597
0.009173352810310311
0.1819522863214912
-0.01178253495325851
-0.1405200083333348
0.002351390559099432
0.3144648403181122
0.03230157209334603
0.02617063732563686
-0.1533945611973244
0.1241689584839888
-0.06581482405077399
0.008954120970120296
0.07453242402098849
-0.04184423667220789
0.08930089422259578
-0.03394763278869743
-0.02241142252611599
0.0363557241743421
-0.07140950638550918
0.1053429737245543
-0.004669230707148687
0.028693781747171
0.01069427577655422
-0.02098007884045217
-0.03154731544919973
0.02660059934941608
-0.01359638698304579
0.02342159789343942
-0.06799345522586953
-0.07981653847748546
-0.1206595637692785
-0.02806087857351701
-0.02239975175956526
-0.02657131072793407
-0.02166610390987948
-0.01564093585217217
0.02701484648336354
-0.04570072933207976
-0.009926439772736533
-0.04777808787642233
-0.04062957652055737
-0.03784361261970717
-0.0390550925206305
-0.05823506024494159
-0.04506999596211118
-0.09728242400148616
-0.09507393689440923
-0.01488145159121458
-0.0444975088974145
0.05158681279535297
0.003527719867619394
-0.02971566774419315
-0.004069003434450489
-0.060820918983735
0.03306188597976246
-0.084627955301304
0.1476048490274461
-0.03230942210943311
-0.009199443249546906
0.02543083157480443
-0.09692924615378386
0.125132578897147
-0.07514260392772175
0.0271395252722621
-0.01907476803629356
-0.01088519259166292
-0.03592219082139852
-0.08167049024385466
0.001621904290546769
-0.04323193705102954
0.1423367334215966
-0.05101439828066295
-0.1012034791909898
-0.01890289457150531
0.01924974736907775
-0.01866199142425981
0.001377315867157893
-0.001208424372286016
0.01882775965667168
0.006566281188850537
0.01261113621630125
-0.005695785401732102
0.01132286342382048
-0.01298663824322536
0.003797536018936334
-0.01642778726120913
-0.005587958593770945
-0.006257830779537186
0.02553310164700395
-0.0008891873280723827
0.01605526424385867
-0.02551827022281672
0.01223648271302731
0.01815821975995126
0.009156419559636305
-0.02130474961491162
-0.0223754534387655
0.01473548183565151
-0.00314981894147834
-0.02207470696868442
0.06773851503541731
0.05738901186165856
-0.01500774239855662
-0.01442530407971179
0.02593342770430892
-0.04186782181111319
0.08760614672562705
-0.0008483028572492135
0.03477261468497916
-0.01077487182048984
-0.04749289004031904
0.06760939081867166
-0.03443877480341697
-0.00489087820210314
0.02554554209538025
0.06965474017571052
-0.03303541152306357
-0.05128092637735119
-0.0008839874804569928
0.01249443887812668
0.04460477250003088
-0.06953218645440637
-0.03867721098362269
-0.1771766150892082
-0.1349154622095417
-0.1363974971457947
-0.1162823446255601
-0.04674795493017999
-0.1371443822359127
-0.06624484764206304
0.07376077535424479
-0.1217437855053103
-0.08330357691011621
-0.1154343628774133
0.07216272199407001
-0.2054011062245544
-0.1280498674234073
-0.0123115452499118
-0.06979302791131056
0.0691230924359628
-0.15217077765302
-0.0621856260998572
-0.008488334566167427
-0.05723715642380873
-0.1579833832971362
-0.1185194295656213
-0.03687489095310528
-0.03854742338368698
-0.05806554172782159
-0.04949504798071256
-0.101207056572083
-0.00731642007066005
-0.03019563721046301
-0.04339132195773205
-0.0394495246372911
-0.04982195076977145
-0.06261578611382781
-0.04155663580402977
-0.05732031107341694
-0.03608463051542157
-0.0313612830863671
0.01561427815801045
0.009006413540890894
-0.05751003721493086
0.0159470053713539
-0.06443925980574929
-0.01845058579850899
0.008129146170893244
-0.03719792964983261
-0.08347032159965802
-0.01284232005423857
-0.02047764884650672
-0.003124175733721138
-0.007639162356324783
0.007009798013929609
0.04461284186940347
-0.01445521708440292
-0.02763851298098556
-0.004769211475864698
-0.02703264571527076
-0.02570107027275636
0.0141634097140138
-0.01565966674704929
-0.003678686974160605
-0.005243206254995496
-0.0489110744546948
-0.0380437325508754
0.01207741786124386
-0.0048326280169393
0.01560931413002509
-0.02237929565917699
-0.03047487292191628
-0.008113263284689557
0.02045566341237393
0.008279619463987562
0.004456194179765983
-0.007614576645845855
-0.02213804205796467
-0.02143376984300566
-0.0009353858353829562
-0.005534094191258961
0.04148417551820201
-0.01308447846670919
-0.002349626380931744
-0.01799790179937389
-0.0003657909939644242
0.04386486370816594
-0.004680873300704347
0.01505253847900547
-0.0067658936822589
0.02908125443682962
-0.03942393651080844
-0.02707472211695411
-0.01463421945679989
-0.01664971021267207
0.04609019792176892
-0.01892407508858705
-0.02310507277125585
-0.0102390698217198
0.008956074457079048
-0.02763906388056834
-0.0006030711758395395
-0.01436317822222235
-0.02701527623891621
0.003794637276557362
0.003672359114716922
0.008394616198054415
0.01544734495157162
-0.1005178870055055
-0.005967825323131053
-0.04383971870101337
-0.01732137163059657
0.006110612096473507
-0.06032198360844887
0.007237249791273877
-0.04197599871747614
-0.0308924209350745
-0.01299489550687166
-0.08788885373288217
0.002706422390031007
-0.06248550351197391
-0.0247383425008664
0.01028599980390141
0.007900612711578003
-0.01025639824590603
-0.05715690527809644
-0.006033624473683789
0.0266842831297391
-0.02305518308360935
-0.01784353806993113
0.01876009900773886
0.02069942552041148
0.01328153493792555
-0.01839231959977036
-0.007605619797345196
-0.002636675307469298
-0.01324949384435636
-0.01650056873598642
-0.01016843535767189
-0.01814823923576174
0.02238090604755462
0.01705143820418412
0.006407571137339318
0.01538481481489155
-0.009783843313901825
0.02739221437698102
0.02904652218509654
0.000114467433631747
-0.00772279614069113
-0.01972320904290914
0.001236885784372382
-0.02628637007565888
-0.02190582770724628
-0.03116247847113078
0.01325959691502693
0.01336252950475349
-0.008692706268062926
-0.01199598294283864
-0.04084051637927565
-0.04166658586742605
-0.04018916008936925
-0.01588679581371599
-0.0173634712161737
-0.001130566419191913
-0.05026792547423795
-0.04457696596044203
0.09889526478908846
-0.03497390461126167
0.003466984567892014
-0.04165085439660372
0.004151557859087133
-0.02155440339250355
-0.004481947276533743
-0.05043716228961909
0.03441276122201735
-0.01816444589331411
-0.1011737566045338
-0.0121966820661908
-0.0005928408149837069
-0.03370332460534817
-0.02758075747502796
0.06286818507449281
0.01954172851529977
0.009593850102349944
0.009187360780703221
-0.01563832868194696
0.09248593167987088
-0.05004749559370464
0.004557417196340702
-0.03532050713937712
0.03236375943503213
0.0901923454650945
-0.1753596179179628
-0.00924691568262492
-0.04463491611206822
0.1240902443590029
-0.170666097089488
-0.1534482882968178
-0.00159379435852713
0.1148358941521916
0.09545734797434556
-0.2289781188145193
-0.1062839331227076
-0.0503969781451411
0.006369707110178021
0.112731792464879
0.001052353508186995
0.008160137885592939
-0.08223367390271694
0.06847384287077134
-0.01174202436893667
-0.01373269378053249
-0.01384050194794373
-0.06617862083606797
0.05422354247728358
-0.02879121417751384
-0.02326330781529796
-0.02758547748065821
-0.05164498907254307
0.02803825028167828
0.003174619706051075
-0.0116080028423076
-0.02079543770628752
-0.02515537914132803
0.03745305501274216
-0.006000138245449917
0.004841865862100066
0.02013078942853816
0.001290745372589123
-0.05344894888676732
0.004423704552986775
-0.002016114394595759
0.003686380042066843
-0.0253761824737432
-0.07604404694133955
0.01298864790222842
-0.02219591864531084
-0.04904628622936263
-0.0003957955511572626
-0.02107621351996953
-0.007365275710212233
-0.05803950451213503
-0.02847388685506102
-0.004025662352001187
0.03584903772821346
-0.008677621170978774
-0.01343030657472449
-0.002956560534379394
-0.01260297486349069
-0.01956977430615268
-0.001540559780994853
0.004205422384122255
-0.009198024432419471
-0.02933369848553585
-0.02541375700125309
-0.003137547464227129
0.002403288172789133
-0.006217260611221808
0.005765068069082412
-0.002698340502752075
-0.03189697894923335
0.0225144360425163
-0.04552481107085573
-0.001540128554685992
-0.001655562625900796
-0.02687086654595679
-0.01504688066320369
-0.03005095735242953
-0.03200742792439944
-0.01490302790507071
0.02407272744713006
-0.02741779753576746
-0.03852127679545071
-0.007948470533032305
-0.003855528412190224
-0.05729562240491888
-0.0251910357322671
-0.02945451646753332
-0.02627904353816594
0.016032399432122
-0.00605347820413918
0.04361709151909048
0.009836377452211198
0.01153867420704654
0.02766534394736979
-0.003962507342970033
0.02311521154537421
-0.003162364226334267
0.006335254115919899
0.00606851709219145
0.02308414425680869
-0.0005924559404621626
0.000191677863368439
-0.006115947063830522
0.01707307891414678
-0.01871461747809521
0.00946787166881312
-0.01695924197093605
0.002618611126310868
0.005408352044462125
0.001104749647490418
0.01920789369825302
-0.01968944814034316
-0.01511860616645472
-0.02651806813738665
0.0003277998065437533
-0.01153747383553635
-0.00166186581555263
0.00927313792146804
0.0001830444711406292
-0.001035472042857724
-0.02223432850430234
-0.01075522519618782
-0.006360841511039705
0.01319887421947682
-0.01372635050501488
0.02690123221619783
0.008201565408109361
0.02078758711645099
0.01089433408939194
-0.006229447818594042
0.01552009927383464
0.02265369638027256
0.02610255372674631
-0.02130316539603576
0.003008659880819088
-0.02995704156379295
0.01236162880681625
-0.01268782343837778
-0.000959223016610941
-0.008149742658328017
0.03264126068462625
0.009784732026987696
-0.002033659509210214
0.02836313304532258
-0.00149092600789038
-0.06124331073016033
-0.002115363995354844
-0.02038434292145262
0.0002955098098691183
-0.05789974770341788
-0.02944212760959308
0.03739672053916963
0.02124844588325997
-0.0299001819395595
0.02608950014931496
0.003664105972132537
-0.00477802761201803
0.01455266352409893
-0.01754524554123521
0.03588409275529376
-0.004473936939115051
0.01554401639603055
0.0298515518545463
-0.00506160905664766
0.03624080970367734
0.003474945463991878
-0.04195505108594045
-0.03015960041194916
0.02074919170371313
0.02588257921904207
-0.06156825592281579
-0.009970565351189589
0.01876389963752228
0.007736646043500518
-0.0366193917786043
0.02501288408801165
-0.004236622144296932
0.04535498105231792
-0.04248253612901606
0.02500281027519599
0.09732463473585727
-0.03018287324435679
0.01104874070056995
-0.01207411475240389
-0.03961814429111732
-0.00143052660812419
0.001802977939277376
0.009321579453289991
-0.02934541419591403
-0.02320974690936188
-0.02028742569230682
-0.06594053609774754
-0.03349416937148034
0.04820198802777612
-0.008029099911835393
0.005405154861833278
0.006093561679616956
0.07048625401011886
0.007494063417205141
-0.01237629196830061
0.009352177088458187
0.03266144607645338
0.0350726655431278
-0.04855242357751916
-0.07606019935280661
0.01797941351016833
0.01842895255700148
0.002432459145457486
-0.05565018030874292
-0.05107130980632587
0.01426141106387174
0.0908448288176303
0.08670529181230598
-0.0309886440979309
0.01800686834594036
0.05760217889174542
0.0453621731789154
0.003073070492087403
-0.0244024500262426
-0.02157795340922719
-0.03247009540911346
-0.08690550155935486
-0.02840607482224096
0.03475245171055233
0.05354638207513746
-0.115519529993769
-0.05070806999532695
0.05546307002417542
-0.02523455831205802
-0.03128140498542769
-0.00956380382876976
0.04102760533373813
0.01612043163743414
-0.01466865730834013
0.07686084824523358
0.04516057618828229
0.005242580052950778
0.02406532099148231
-0.02286084321642911
0.008205905992150871
0.01470466607973408
0.04761010989554043
-0.01186673542294793
0.02038707955795995
-0.02766191393142042
0.004629401483113439
-0.03942298364344266
-0.02309678488133114
0.01197983878320979
0.01805061100567308
-0.05019526938614457
-0.009914221526717981
0.02706312537505866
-0.03599515671651685
-0.07870141662936375
0.000899803350350138
0.01210115465900906
0.006840955250514347
-0.04880236511187469
-0.01697370889637144
0.014021630552484
0.05953220656642796
0.06282563840036863
0.001514085942154661
0.01342798842841568
-0.02092563583587715
-0.0009951605734463394
-0.01199202872023021
0.05207376191316507
0.01199197748347931
0.004076515239341869
0.009392433163063277
0.01396023849733933
-0.03063642067281152
0.03193544188651254
-0.01797002638503925
-0.07742119840505528
0.01523336411380401
0.004118926910103579
0.1188473626350222
-0.01151993075580364
-0.04804117934280039
0.04004338267657238
-0.04780229633302739
0.001283850358022361
0.02362251274014235
0.008038340245957426
0.02567490313405308
-0.003252054059162322
-0.0279157544813918
-0.02107219752608754
0.008000380483330332
0.008234113849385615
-0.0219289135386781
-0.02278197530439644
-0.000869044278938585
0.01974730828320243
0.02562338997902531
0.02162267113941501
0.06204136184296585
0.04514594438357452
0.01534054093223092
0.0207080386243208
-0.02984800814842265
-0.03518483369554427
0.006258286074199546
0.00340726304457212
0.01728107248940388
-0.003417798374629332
0.008130283489312962
0.002390700989232546
0.01679938710116211
0.009942471711968472
0.05316653525431609
0.07723964741337705
-0.01703113262194598
-0.0176354395545392
-0.01612691709009936
0.04893999204349137
-0.05222629540935065
-0.01099092773695474
-0.03820976366127016
-0.005347885748716488
-0.0747931492839983
-0.03307561124355942
0.01652299018138029
-0.005677388646936225
0.02485287163717795
0.01850300430051773
0.133506759669335
-0.08210447355474614
-0.01609771641340429
-0.011937157337987
0.00222313382503519
0.0521650779017868
-0.1211031097316661
-0.03553649967380852
-0.002981215049014949
0.03650056298539183
-0.008929180320717907
-0.006041069199464535
-0.001977936468419746
0.01761498913039451
-0.02953157183151
0.005036490611053597
0.03578816360060005
0.05783835416469104
0.01169223014171644
0.05055950884241067
0.02230263637358116
-0.1320322650558093
-0.02738018138102268
-0.02294114909573702
-0.02227125143737804
-0.06466263553722244
-0.03966286051178566
0.02583203189276906
0.04428331930462271
-0.01161328276623739
0.06539146869147412
0.04812226071139123
0.02646975695003541
0.02839488839234309
0.01019779342523898
-0.01139053525038979
0.02638660147359432
-0.05429325386470611
0.007647487619995591
-0.01567030314483697
0.006475585460434114
0.04869410825917524
-0.02245043944824232
-0.03866042647020431
-0.01915709762336359
-0.001144973770707245
-0.03335128935825007
-0.02289773945570841
0.01190206780994266
0.0008192370193655558
-0.03693824028490621
-0.01595466796568767
-0.02036337351509319
-0.01966357414187035
-0.03795465707234374
-0.004913741996302509
-0.009355738026075328
-0.02202483499309674
0.01951938883088144
-0.01351221673960231
0.00565227943682458
-0.00388776427756726
-0.008604981575258562
-0.0142632133806979
-0.02198690586995767
0.023445274530188
0.01908123017572978
0.0259482111813122
0.02722979979241014
0.008172364245126225
-0.009987941498548758
0.02116458230579739
-0.007956799386111294
0.01926077817254312
-0.02985919313500133
0.01139635832225218
-0.02466283278012369
0.002621020949792163
0.01296009505246162
-0.02278981601888588
0.02478059242995763
0.007036456224911383
-0.007477586369738804
-0.006839429289200205
0.01549093236064046
0.01759511844572987
-0.005681885248379697
0.005297386354924064
0.009721615314685657
-0.01156110641778595
0.02050241283047292
-0.01032941681723629
-0.03311051684250088
-0.04604969816306591
0.04483302263802423
0.03485950385869863
-0.05658553483052614
-0.003767930116454761
-0.03871247061226901
-0.0175498833789407
-0.03499761281287381
0.007014198945927358
0.03370000183801575
0.008985154223792232
-0.04431434252202024
0.01209174959087206
-0.0258326511587656
-0.02278395916480333
-0.00435238898301933
-0.01211209220774878
-0.004859665009684524
-0.03388569490949459
-0.04526087918057748
0.01547708234939954
0.09648842494241863
-0.07642725061603976
-0.05892141644665752
-0.004517544208854768
0.02312609251824031
-0.04691163387425086
-0.05841283832669695
-0.03775817407587314
0.04437970029603804
0.04675121386745361
0.01590209056577073
0.05481228142353266
-0.03151854411488838
0.03301814326011569
0.01836920749775929
-0.1126272418636359
0.001191713952611692
0.07375637548167362
0.08943839960848904
0.0565257745471052
-0.03939370639170472
0.02622894561483559
0.000682151524863667
-1.153007512272727e-05
-0.01289985445085977
0.0411684285411171
-0.006100953881915928
0.02126721776764283
-0.003978587070753651
-0.04060506979561661
0.0006447172560515776
0.03465535912125266
-0.02882712390825386
-0.006627381116789175
0.04017498139526905
0.02282731840209361
-0.008771506209999638
0.003017314209715949
0.01233247450674499
0.01641971098791227
-0.06061922603563198
-0.07441590831549497
0.04210203642280064
0.047419820290843
0.04289328353269386
0.02257379804892153
0.02263150936428311
0.005776052781659137
0.02412019507990116
-0.001612818391161368
-0.0230143463018092
-0.0002436576031549268
0.005106917456308572
-0.01203226587980303
0.0113762867225547
0.004210135504002013
-0.01495133689655723
0.001809370256987041
-0.007308444749253015
-0.01497805468307836
-0.01416216736210783
-0.02189113507481014
0.01930021107514168
0.02072423888057515
-0.01382094897683051
-0.00925012719712731
-0.008772116566011923
0.01585334194292823
0.01290950512209946
0.02943413167730871
0.01409863966466668
0.003277748647150623
-0.01994424637062426
-0.003306052510950828
0.006479817576759323
-0.01432956793442638
0.002912179118716819
0.02986478532060148
-0.01389026100707477
-0.01137158790651356
0.006071914139278161
-0.003716377165360505
0.006542153733407507
0.02293396177552669
0.02951013214725104
-0.01813314522513815
0.001925023065191903
-0.02654867228795071
0.01189844955674915
-0.01445065503493431
0.01265762482294305
0.01705625358669152
-0.02113088245350412
-0.01634726912502501
-0.002295038333956896
0.01959476429873567
0.001316633768355378
0.01889935896285682
-0.003374235452475083
-0.01856396281830514
0.02755429234026759
-8.508968978256712e-05
0.006849878093123279
0.01439365764615729
0.01057279628083999
0.02180926311382656
-0.08508661130788232
-0.0436970342949434
-0.02286174953679523
0.008302395093880975
-0.0021595373559941
-0.009842079257264612
-0.01737830216935939
0.01085922684281204
0.01679870954163708
0.01317500934718225
0.06638851371373004
-0.0108503650971901
0.01002179722510196
0.005956325496091995
0.005605856994485107
-0.01990855762142652
-0.007892726615948698
-0.02211482100924107
-0.01376567256810422
0.01053319382784774
